2996 64
4 -1.3708453 0.13089323 1.5859027 -0.41782293 -0.35560486 -0.24051388 0.81753916 -0.41454086 -0.65517783 0.2503497 0.64672506 0.19290744 0.39266706 -0.046451725 -0.2527373 0.00772301 -2.2122743 0.939626 -2.5915802 -2.2057722 -1.7546153 -0.690345 -0.38769862 1.7885436 1.4865065 2.1663425 1.8995372 -0.34939596 0.31960073 1.685411 1.048187 1.5480587 0.71917194 -0.18576768 -2.2931528 1.0003759 -0.28723255 -2.3423946 -1.5115429 -0.16711378 -0.82652855 0.6665717 -2.1073616 -0.8674707 0.62018985 -0.71206576 -0.8770513 1.2250569 0.9486675 0.9657792 -0.24036753 1.3784965 0.5333881 -0.076875456 0.48717862 0.28982884 0.36084142 -0.83153385 0.8771495 -1.2837634 -0.7025322 1.0003943 -1.4820193 -0.5572643
22 -1.8489683 -2.267978 -1.4251943 2.1804793 -0.7678043 0.94546294 -1.5844169 2.9430602 3.076202 1.5790373 0.77844805 -1.0134825 -1.6595166 -0.18269806 -2.025877 1.9640698 2.8356874 0.85946834 2.0803466 -0.7761349 -1.4333696 -0.2504018 -0.7442452 -0.12304227 0.4953152 -1.8248774 0.46006945 1.7023064 -1.177602 -0.17790952 -1.6497619 -0.81803447 -0.6799351 0.642637 1.9585779 0.09234287 3.8462684 -0.9448972 1.2075617 0.3690028 0.20200285 -0.83846885 2.106026 1.0125629 -1.244809 1.728538 0.13781533 0.3499041 -3.6738632 -0.6516973 1.6663905 2.0732124 2.2575696 -2.1479905 -0.15332638 -0.44155335 -0.4535855 1.4807796 -1.7770804 2.8030849 0.579452 0.1140252 0.5050563 0.2211591
3 1.0053936 0.83015525 2.42573 -1.4699297 2.4599264 -0.32244006 -0.5159546 -1.787438 -2.1825523 -4.50569 -0.910196 -2.6620708 -1.3317348 2.0551286 2.4478362 -1.2280471 1.8977877 -1.4152501 0.033752676 7.1564913 4.0285277 0.9217154 -1.8328168 0.14581347 -5.0838914 1.5957226 -4.1274843 -3.271835 -0.93274677 -0.10415323 -0.30333692 -4.6431246 -1.160787 -0.5603229 1.2812424 -2.6298869 -5.6203213 4.7599883 -3.335946 -4.5630007 -5.312994 2.6080267 4.295675 0.52611226 -1.3741089 -3.519778 -0.034941614 -3.531025 1.3079772 -2.530239 0.86889744 -1.3925383 -2.7168715 -0.46182707 2.5850272 -2.5417244 -0.5597249 1.5798701 -1.4940351 1.3007976 -3.6939867 0.2640458 -0.17639205 -2.3427682
45 0.5867448 6.8454385 -5.880122 -0.3421802 2.663288 1.8590983 3.3907566 -0.44461876 0.54144585 2.4012768 2.4225526 0.9942595 -2.1527867 -2.705925 1.776737 1.0921733 -0.1959473 0.22325799 2.8454416 3.5565007 -0.49278945 2.1324003 2.2502496 -1.7896245 2.9889789 -0.15702291 -2.780276 3.8442106 -1.2676936 0.14713652 2.0634878 1.0828177 -5.1228614 -3.672563 -1.6517267 1.9844872 0.57133746 6.492467 2.5848985 2.5301862 1.1776396 -4.042188 -2.4216564 -0.91345423 -0.7048529 -1.2549026 2.209956 -1.6273834 -2.9760442 1.0030377 -1.6714967 -5.434713 -0.428603 6.1379013 -5.428081 -0.14138445 -3.13368 -2.1612732 0.7451288 0.949725 1.2091094 1.0969543 1.6046696 5.2805314
7 4.0388293 -0.86643577 -0.57303727 -5.8965597 -2.855572 0.5823928 0.12676294 -1.3652419 -0.49446705 3.7499244 -0.3197465 0.34169474 1.5707295 4.1571016 4.512269 -1.0360801 2.1474907 -0.4989598 -1.1373314 4.282055 -2.522399 -4.7784386 -1.1381193 0.70802677 1.5858243 -2.74167 3.7548282 -0.38521564 -6.3770475 0.13795191 4.7185106 -5.563156 4.168495 1.0737 1.6502509 2.3516936 -3.1779091 -0.69645566 4.8974023 2.290263 3.6154413 3.792375 -0.046406507 -0.8802672 1.845589 1.5251147 3.791234 -0.9517295 -1.9877485 0.30241692 0.019044654 -0.5749082 1.1723349 -0.092853345 -5.401522 3.5332093 0.049694285 -1.5391207 -6.4817123 -0.39010134 -0.70387053 -4.1429653 0.6880167 -1.194567
28 3.1078405 2.8173685 -1.0589662 1.064206 -2.2363393 -0.26864022 0.9077775 0.14756171 -4.8282557 -4.4656663 2.402019 2.2307818 -1.0985215 -0.21035804 -0.33868748 1.8634683 0.30832097 -0.44771942 2.169996 -1.1070868 -2.209309 2.737972 -2.7107654 -3.9730206 -1.8019178 0.7645225 1.3222917 -1.2026426 3.5120285 -2.8260531 -2.4197574 3.581327 9.518341 5.0189414 1.6043357 0.95491457 3.4728198 1.7532347 3.997782 4.4178524 2.8943727 0.6329668 2.1693227 1.2186172 1.7926443 1.8565083 -0.9325378 -2.6306043 5.6861386 2.2498202 -3.7856152 1.6106174 0.44952062 -0.43079656 -0.19226229 -2.332801 0.47758633 5.638514 1.9956336 -1.7207032 -3.979406 -3.547414 -0.8499269 2.9410079
42 1.365627 1.0751698 3.501841 0.93740696 -2.4148724 -0.70750827 2.9791322 -3.408303 -2.121142 -5.804223 -0.40371 -3.1387243 -0.43642518 2.5999386 -2.600311 -3.9838326 -0.94118613 0.50920075 0.30414093 -1.5406818 -2.186191 -0.500431 -1.0670058 0.3790379 -1.5482928 -5.1724315 -1.2666783 1.7132926 2.043053 -1.395414 -1.4326218 -9.56673 0.21100771 2.017297 0.09332737 -1.6142814 2.5861406 0.8069255 3.4360087 2.6760416 -1.8371992 1.8451238 -2.9795728 -3.8927903 -3.8685405 -4.3140917 -0.3167896 1.5853052 2.214673 0.93269366 -5.523451 -1.144226 -2.4428089 2.06068 0.20985614 2.4207482 2.134535 -4.2065825 0.65354675 -2.8682141 5.385804 3.3503568 1.8064559 -0.10930756
23 7.2534814 -3.689912 0.64527494 1.4212171 2.127398 0.309073 1.3826332 -2.195542 0.9551082 1.994753 -4.3874903 -0.5160422 -0.59570104 -2.7927287 -2.0966544 3.607178 -0.62628716 3.6617608 -0.036321267 7.0767527 5.270712 1.0618945 4.073324 -2.1407888 4.2638063 1.8383319 -3.9577532 3.8860161 2.5514815 -1.080813 0.57302386 -1.0402193 0.1230839 1.3557144 -0.55336255 -4.215766 0.8538764 0.66672564 -1.2026215 -1.1207318 2.02642 -4.6818643 1.194566 -0.19607118 4.696682 -0.042810775 -1.2355887 -1.2939233 -2.6941855 1.4449519 -0.9550318 -2.8884997 -1.7934711 4.923613 1.4342488 3.3887837 -5.5989294 -0.66461056 -3.648523 0.81530476 2.295409 -4.2178426 3.0254939 0.9282188
25 -0.8777393 0.8813744 -3.4110808 -0.35795772 2.862275 -0.99044466 -1.1555867 -0.9423636 -4.2463675 -0.804411 -7.478101 0.20093825 -0.90538275 -0.36910254 -1.1651365 -3.554579 -0.011907776 -3.0960221 -3.325511 -2.2013607 -1.3851583 4.5526767 -2.1329577 -2.7044613 -0.25068015 -0.52548385 5.3788757 -2.9367065 4.415077 -2.5812743 -0.97688943 1.7946924 -1.5128163 -2.892562 0.24389996 -3.2553208 3.8648436 3.6806703 -1.290171 1.210934 3.1818397 1.1105142 1.6193613 -0.20440435 5.8035197 -1.2536564 2.8522446 1.5217819 4.5716434 -3.7792253 -1.9606622 1.2171893 -1.5006589 -2.3760064 -1.31248 0.64438486 4.032547 -0.14074245 -1.7695607 1.0416662 -0.2687976 -4.141686 -0.025582142 1.1664928
26 2.845654 4.321629 -1.8599623 -5.7851386 0.9476188 -4.14518 -5.4467573 -2.3788056 -1.0247407 -0.5420898 0.50851834 -6.5532494 4.849546 2.639087 0.56152636 -0.63591665 0.63437307 -2.884205 1.0631754 4.0236835 3.7967045 -0.9517719 -0.91506106 -2.0695553 -1.3225324 1.7977028 -9.473035 2.1794915 0.62360007 -4.8769264 -0.103311315 0.5779197 0.3058839 -1.0184624 0.1681775 -4.789427 -4.644842 0.09433185 -1.070699 -4.7731795 -1.652413 1.7648448 2.6387331 4.1797867 -0.6653599 -1.4538026 -2.813591 -3.2085361 3.1075492 -4.243365 1.1463246 2.4817712 -1.7232251 2.3323557 1.4613279 1.1607717 2.616202 -5.008892 3.2135718 -1.0903505 2.3614292 -0.82045454 4.4244165 -3.5307531
24 0.23758167 -1.3390547 0.040386233 -4.4868054 -3.5578365 -4.196124 -3.798073 0.6401624 -3.0396879 2.976566 -4.338785 -3.3846023 1.5454414 -0.48882136 1.1261818 -2.7810516 -0.32801053 -2.4484193 5.144504 3.3990107 5.3392477 -1.2195964 0.4064163 -2.0204213 -0.8982865 -2.0469747 -3.876237 -6.734933 1.9368175 0.79414994 4.754921 -4.863913 -0.32958135 -3.5919826 -1.639534 0.5499518 -2.372253 0.6849282 0.26287216 -3.4200559 -2.5724874 -3.9948182 3.568653 -2.6207645 -3.2696517 -2.0264192 -1.0280561 -4.8029222 -1.8764745 0.25262758 -0.5759786 0.05783396 -2.6941264 0.76811963 4.6469846 -0.20641854 1.191518 1.7660671 0.9585563 -4.42626 1.3942617 -2.5671792 0.038293958 -1.4924232
15 -0.30475593 -4.0283103 1.1966336 -2.3630095 4.2733235 2.3400362 -3.4592173 1.3923297 -1.0016029 -0.27873242 -1.207544 2.7979515 0.9991934 0.19032177 5.707066 3.052387 -1.0282984 1.3213665 0.1044941 3.2299159 -0.09580579 -2.3950522 2.6804883 1.5055699 0.6450568 -1.2953029 -3.4095826 -1.3163183 4.6680284 0.32658046 -3.0199172 4.567281 0.22236265 4.19214 0.4514766 -4.0631146 5.892947 4.198825 -0.01860782 -1.0603743 -0.5223835 0.5731548 -3.307375 -4.834498 -3.5085483 2.305008 6.688381 2.4025223 -4.620202 -2.7540498 0.040854555 -4.876964 -1.4103359 4.149112 1.3607266 -2.022586 -1.698646 -1.6760688 -0.15544246 -0.24999128 -1.5313388 1.144763 3.317293 0.35762897
100 3.759435 0.7561665 -4.5222125 -0.42980358 -2.9861662 -1.720502 -3.3317108 0.10797069 -1.889836 -2.422055 -0.3384282 1.771691 0.052589662 -1.8652889 -0.7884894 0.8874158 2.3558824 -2.8764036 0.30269867 -0.07396608 1.4253383 -1.0140384 -1.8589418 0.5872315 -4.337413 1.0395722 2.7661107 3.1472871 -1.0615487 0.74187934 -6.2336583 0.4180693 1.2778271 -1.2002555 -2.0261462 -0.6670018 -4.4331913 0.44718447 -0.54675674 1.3721685 -1.0946511 -0.4848486 -1.9611921 -1.9652704 -2.2467022 2.152115 -0.49655637 0.018700695 0.42194188 0.9631441 2.5198047 -3.0525935 3.7165713 -2.3570976 2.1255925 0.8216167 -0.6483614 1.2177101 -2.8165274 -0.13472255 1.6900467 -1.5192512 0.5837374 -4.3226037
33 2.3512943 2.8861346 -3.876337 -1.1730844 4.402831 -1.2732573 0.95938087 0.4666815 4.200275 -4.019501 -0.48671642 -1.5747869 2.5134418 2.6149292 2.1421864 2.0784447 6.6085987 1.183594 -2.3091629 0.93591094 -0.5239664 5.529646 2.9930665 -4.8694067 -0.20430502 -3.405333 3.0957165 5.0755754 1.7599745 -1.3457991 5.2753043 -0.08267137 0.34085566 -0.07495996 -2.9823995 -1.3331597 -0.51353264 1.5723748 -0.0021951746 0.33072677 -4.141849 -5.7751675 -0.77902204 -2.7253828 -3.7818358 7.4089785 -2.5383556 4.8229017 -4.9680076 0.43831158 -4.2965984 -2.1185362 1.4685572 1.2882358 -1.8212105 -0.03134883 -1.0814384 -4.571597 4.624231 -2.0735612 -6.40026 -6.325414 1.6724559 1.8983723
20 -1.8854058 -0.51848644 -0.2580144 0.6168232 -2.3445444 -5.0919733 2.71946 -6.4031587 -2.077765 -2.0155828 -1.5418916 2.1882098 -0.0713813 2.753347 0.70173866 3.7752812 3.6552877 -1.5164955 -0.24838893 -1.2283398 6.8071094 -1.5629067 4.1787753 -0.46781254 -0.016965196 0.5764438 1.0351701 0.8481908 1.1652626 2.351832 2.1782155 -0.9894835 0.14537553 -2.5086806 4.7192044 -5.2986917 -0.23462577 -0.15061623 2.214354 3.3344574 -3.2837164 1.6034328 4.392845 4.7574463 -4.9764466 -2.9490201 2.1577835 -0.64240295 0.94981235 -9.062261 -3.3861885 0.79204243 -0.03725349 4.4723487 1.3946885 2.8154614 -1.2519549 3.5825326 0.63165176 -0.25868303 -2.0549366 0.53223354 3.5404308 -3.733841
55 -0.17980184 4.5564275 1.0734177 4.030236 -0.19294968 -0.011743966 -0.16291931 0.68780905 -2.8995736 1.8903706 -4.787563 -5.142884 -1.2224467 3.4589357 2.147423 -2.263483 1.3538208 6.3862348 2.0125666 0.64367 -0.0020462158 -2.1131856 3.3554492 -5.2081294 -2.955619 -1.3313859 3.1383984 -4.908968 2.5832493 1.2431372 -2.912463 1.6589744 1.5999354 -3.6332362 1.1678834 -3.532969 -3.0830011 -2.5535657 1.1603436 1.0472318 1.8805803 -0.13150069 -0.5839714 -1.2971368 4.8387876 5.170224 2.795422 -2.1232154 3.057588 1.6657325 0.29881072 -2.4037266 1.6447495 -3.5103202 0.5518376 -0.87823796 -0.13423824 -0.32796425 3.0125988 2.6421032 0.58492464 4.047693 -1.6490334 -0.29384118
59 -1.12556 -0.8328356 0.28490555 3.784239 -1.1835682 -1.0844146 1.8722138 -0.79026407 -3.6771502 -3.6922803 3.3716257 1.1134346 -2.2057729 0.0100784665 3.438969 6.8949714 0.14744768 3.080266 1.4267462 -6.053851 6.222499 0.7845487 -3.808736 0.054136742 -0.38025412 -3.0711691 -1.0690033 -1.4334463 -6.802886 -5.027816 -0.1684234 -0.20891123 0.071715385 -3.50701 -2.7323985 -6.5392947 -3.1234438 0.39395398 0.40141052 -3.786879 3.6550906 4.5388794 -2.022611 -1.2464217 3.1182334 3.038848 0.44808143 -1.4318712 -5.5872865 3.8139791 -3.2124755 1.9089873 -1.4083778 0.9996086 -2.174604 -3.2288632 5.594376 -2.930989 -2.4603775 -1.202467 -2.262501 -2.555709 2.870669 -4.0991607
37 2.006786 2.2442527 -4.8852954 1.5816095 2.228106 -1.3561925 0.9933816 1.6727128 0.34669554 -4.61127 -3.6882136 5.688417 1.1184496 -0.35666758 0.90119815 0.12601711 -2.970639 2.745855 1.190181 5.325813 3.591604 -0.7937811 1.7128128 -3.9089909 1.628507 -7.0295987 -0.078457616 -1.8136802 -2.4674118 3.0426593 -4.2488074 0.8740028 1.410263 0.028147368 3.221622 3.1991756 -2.261193 0.39303002 1.107064 -0.13352278 -2.1854358 0.7385869 -1.689276 1.819562 2.710023 3.3649645 1.5831234 2.456481 -1.2019509 -2.8431578 -3.609376 1.44333 -2.1954205 3.5588934 -0.37671956 -0.6058778 -0.34287405 -0.3844397 -1.3544649 -0.33768377 2.2265363 -1.8978343 1.5339942 2.1665173
36 2.7627716 4.0004916 -1.1097299 4.245363 -3.5057127 3.1861312 -1.9541801 2.3351243 -2.9226964 0.44241875 -2.1450522 -0.7659337 -0.29248443 3.4583807 -1.2305186 2.4611092 -5.5303693 4.3351674 -1.9210882 0.023105266 3.568488 5.040039 -0.3047784 -0.19333902 -3.1311924 -3.9930518 1.9663959 0.5257234 2.6621099 3.1199355 -0.9684015 1.5300658 2.246231 1.760807 1.6104543 4.359197 0.14626686 1.1633033 4.8147593 0.7777201 -0.932379 -1.7919672 1.5506773 2.580555 1.6323584 3.6971695 -0.8712184 2.1067293 4.0042214 -3.3026152 3.7178252 0.2870568 1.8290462 2.1775258 -4.9027863 -6.591444 1.7873244 0.91720814 -3.300162 -1.4668245 2.3016317 -4.0033145 6.2695208 2.706648
5 4.5723314 -3.3862088 -1.4250638 6.3768606 -1.9153446 -1.8656609 0.7667538 -2.3305826 -0.18270412 0.60843754 -1.8223628 3.215546 3.1833565 6.7242494 2.6486409 -2.1588259 -1.2554525 1.4961205 1.5844188 -1.5060575 -1.5916011 2.4241688 0.73225564 1.3502002 -4.9652834 2.9434268 1.6793933 0.36940408 -3.8611503 -0.019369056 -2.4100266 0.54312307 3.1871836 -3.349457 -1.8143384 1.7157719 -1.2346498 -0.064381205 -6.374709 6.7558017 0.8850849 -3.0440083 -1.7076062 1.799569 -2.9918334 0.086405315 2.871571 -3.9631832 -1.5519173 -0.020768873 -1.737744 0.81741726 -3.718019 -0.75611174 1.6966257 1.0126945 0.69452477 -3.9480486 0.8020915 -2.026756 1.6134268 -0.45714366 0.82020664 6.28334
1 2.9001036 1.6808642 0.13957368 0.26958898 3.7797565 -2.2979572 0.6184374 -0.10107835 -5.017152 -0.98494506 2.4450026 2.1408184 -2.4393995 -0.8570874 -1.0347939 -2.0412967 0.54364467 0.015459505 -0.6381163 1.4643656 1.5049951 3.6656487 3.9260044 -0.74037576 -3.8948026 -2.1288874 1.5959901 -0.30466154 2.0741293 0.11654861 -2.6848497 1.3626268 3.0084183 1.3710105 4.843973 0.4649034 -2.4033654 -3.9695308 1.9391183 2.7144573 1.6307579 -2.4382482 -4.313453 0.76372993 4.38324 0.7230477 2.7119033 0.8679137 0.26522774 1.601965 -4.6346107 1.8262826 -0.092840716 -2.7974687 -0.67040354 -3.0631309 1.3482223 0.31333572 3.789785 -7.3412848 1.0300478 3.3668919 2.8894503 -0.48933142
87 6.690784 0.78819966 -1.047487 3.190256 -1.6518376 0.55101204 -1.330966 -0.50571245 1.5249406 0.5091981 -0.85647035 6.321274 -1.746251 -1.5343051 3.0397718 -1.0498766 -2.1121829 -3.0096471 3.1842601 0.86676913 -3.799111 2.8909242 1.2556434 -0.7276019 -1.0550156 1.734967 -2.4364524 -0.41900828 2.5116248 -1.2216576 -1.0347981 4.5733438 -1.4474685 1.6421171 -0.043966077 -2.9106646 0.3008341 -2.6363184 3.7583072 -1.2547175 -0.4171741 1.1485878 -1.0787599 -1.5429724 -1.0385036 1.777754 1.0665159 3.8340368 -1.3980074 -1.2782067 -0.62102515 -0.56120884 2.9151495 0.22807239 -1.275894 -2.7748969 4.219218 4.2653956 -1.1420375 -1.887981 1.6235777 1.4500788 1.5993721 0.78098875
40 3.1743853 1.6195145 -3.8740635 2.690205 2.5807803 0.14435129 -1.1196293 -0.6150617 0.13522984 -0.28241298 0.61825985 3.1788235 -1.5033833 0.4320806 1.7636087 -0.90597177 2.8829215 -0.3576053 0.42721117 0.38953984 2.7801416 1.2499493 0.14913309 -3.8081968 -0.91099167 -2.1593535 -2.2234008 0.511352 -2.785582 -1.9982967 -1.4203222 -1.1075053 -0.65561575 1.1794325 0.090699576 1.6406623 -0.64346975 0.18061179 0.8252355 2.2632418 2.8761716 1.5757803 0.31988198 1.5124414 2.826119 2.202968 3.559195 -1.3654388 -2.5154853 -2.3920984 -2.2677834 -2.7709758 1.6543832 -1.5165442 1.8392776 -0.5296779 -3.6748729 -0.074711464 5.864394 -4.5083995 4.7494493 -0.66366684 -3.3055115 2.2583094
14 1.2633433 2.8969924 -3.4034212 4.235679 1.1577572 -1.1083664 -1.366776 -3.7401855 -2.5923834 1.6645596 -3.0924344 3.909717 -2.3218467 -0.30180806 3.613149 1.7144887 -3.8240623 -1.2807068 0.13169296 -6.3523393 0.2724074 -1.3822651 1.6415741 -4.5871415 -5.560033 -0.25351128 -0.9366674 0.99685603 2.5627198 -1.1280125 3.9009664 0.7459304 2.7471297 6.5889015 0.26250035 1.1132076 -1.4795254 1.1425501 0.57987165 1.2610283 1.5288472 -1.1859766 1.4202615 -0.30073714 0.96811694 1.4516245 0.94509375 0.44561785 1.1278485 1.9582934 3.0273352 0.33012912 -4.1287136 -2.6688898 3.9799247 0.319883 -0.8448733 1.7179927 0.9283041 -7.135487 -1.638283 1.9698865 -1.2724911 -1.6772153
63 -0.39276537 -0.008887084 1.8408856 0.2285244 2.486601 -4.3922887 -0.58849746 -1.4992704 -1.4025269 1.2317263 -3.1637514 -0.803003 0.14520809 2.255184 -0.77136594 -4.1398726 -2.869215 -0.015804207 -0.037871934 2.025406 1.3856351 -0.13059488 0.8069854 0.7825784 -1.9782218 -3.4456758 -1.9600018 1.3701504 -3.1655095 1.3007255 -0.44955444 0.68040526 2.0113876 2.4567006 -0.26804626 -2.889521 -2.8807569 1.7292235 0.054558706 0.62845683 2.2752645 2.4632037 1.9351772 -0.060729563 -2.8569975 -2.4989781 0.5316467 3.7027164 0.43601698 1.3655838 -2.8488514 -1.2009345 -1.0545238 0.035151456 -3.0985024 -1.3986943 -2.491592 1.8195361 -0.019158397 1.1628056 -0.89861387 0.7872777 0.33605388 -2.2540634
92 -0.8082628 -0.87422436 -2.6531844 1.5040404 -0.75882167 -4.2161217 0.93657935 -0.90963286 -2.4586668 1.547921 1.5020311 1.3462381 -0.06846809 2.9831343 1.0667486 2.979759 -3.0337284 -0.05175532 2.6350472 0.5729343 -2.5803723 2.8474746 -2.0816567 -1.5272142 -0.6233925 -5.145644 0.38704866 -3.078223 2.3046966 0.75891256 -1.2933463 -0.6295987 1.5277675 -1.0300804 -0.9705956 0.9690648 -2.3039474 -1.2938557 -4.7807245 2.0830815 -1.463289 -0.5765535 -1.1040745 -0.77136105 1.4717927 -3.340921 -1.5786399 5.95792 -3.4092615 3.7099092 -0.50536054 -1.928666 -1.4212828 -1.0396415 -0.15596107 1.0103364 -0.27783284 1.1902121 0.27886364 1.2546476 3.6801393 0.93571466 3.6222098 0.60705954
67 0.44349802 1.1151992 -2.9655402 2.1060777 3.8159146 -0.20775859 1.4480878 -2.9825292 2.0406804 -0.21795137 0.9807558 -1.4383354 0.5521946 -2.9201422 1.170197 -3.2648427 2.853263 0.29618233 3.985429 1.9086609 -0.5546858 -0.12823214 -0.0030476728 0.46852225 1.4922521 -1.8034459 1.406966 -0.16992594 1.2827806 1.7064202 4.9112787 -1.5213108 1.6561971 -0.30654818 0.25284436 -1.7085714 0.24157941 2.6559832 -4.2844944 3.8871706 2.022939 -1.5381104 -6.8325896 4.466851 -1.8897433 4.516598 -1.3595082 0.8787064 -0.93091977 -1.401121 0.7088397 -2.5605094 1.2987713 2.8615255 -2.4179497 -3.444639 0.8344629 0.6702585 2.3584619 0.91074014 3.1397295 -1.5033119 0.16367279 -0.6836182
27 3.3670578 1.8122084 0.83877426 -2.7665572 3.7151513 0.8473758 -1.590118 -1.9565798 -4.7239656 -1.094629 -0.23590504 1.1167343 -0.18403892 -0.21546833 -3.9028518 -0.50988245 -0.47357205 -1.0790342 -2.2260962 4.257052 0.52398306 -1.4765309 2.0777273 -2.1677766 -3.7934275 -4.7042804 -3.80592 0.9342077 -2.0985594 3.6308165 1.5979708 0.68541807 0.62985575 -3.7936475 2.8413649 -1.9697577 -2.0226154 0.4958943 -1.8403535 1.1130804 1.0196989 -0.08963218 -0.016221348 3.8081083 1.9600302 0.90174866 -2.4047081 -1.4331558 -1.1074235 -0.8296438 -0.69891965 -2.4148555 -1.8252047 -3.0903857 1.4389478 -0.4930061 1.7645688 -0.23444523 3.626662 -3.9996111 -0.49383637 0.7675186 4.048101 -1.5123006
43 5.52971 -0.83009005 1.0597231 -3.2758415 -1.7545927 -1.9558643 0.3685618 6.9335027 -2.4533381 4.3161864 0.022234099 1.8784453 -0.4896463 0.81311196 -2.9441557 -4.284722 1.936797 3.1619647 2.2340405 -0.2689787 0.6439755 4.895567 1.9076321 -0.96395755 -3.301007 -3.1312947 4.2641954 -4.5884857 -2.626441 0.72967196 -0.25955397 -1.4534167 -3.3986955 -1.2645737 -5.3450236 -5.0833583 0.88287216 0.99059856 1.8785006 3.0059106 -1.1624221 4.473788 -3.923804 4.570873 0.7298291 -0.7772851 -0.25373363 0.561502 -0.4240852 0.6612349 0.17686006 2.0854306 -1.3545939 -0.016849576 -1.9536932 -1.0689486 -1.4370021 -1.768423 1.096081 0.19574721 3.146312 -0.068846494 0.4548727 -4.025553
12 -4.104306 0.19821948 -2.4706235 -3.263041 4.2191863 1.906936 -4.6475096 -3.7494185 0.6461299 1.0458226 1.6627046 -1.6602669 -0.048197992 -2.4316614 -1.0665147 -2.8426535 -0.60238916 -2.8448243 9.1040745 -0.8653007 1.3042307 2.6209636 1.0112666 0.38620406 -2.8578117 -2.8988883 6.4385514 3.8998516 1.3594687 -2.63956 3.2088468 -0.8630818 -3.1428883 2.8752084 -7.5743012 -1.9680272 -3.240852 -0.40936828 -0.58998746 1.5391878 0.6189365 2.7809916 -1.3146863 0.1013697 1.7881999 4.7724814 -0.030608712 0.48722374 1.9610801 -2.0419488 -3.7766232 -0.18047804 1.181567 4.9302444 1.1898353 1.2769897 -2.4090493 -1.1788881 -4.242492 2.8536956 -0.1505215 -1.1264517 1.0405105 3.860252
16 3.401831 1.402014 -1.2772113 -0.114201985 -0.8808779 -1.2579294 2.3086486 5.355171 4.6031713 0.95913094 2.1375895 4.2731986 -2.6435754 1.4371796 3.9069402 0.37622178 -0.6709916 -2.0052495 3.5162861 -0.7583987 -2.1629412 -2.7555249 1.6719967 0.95691746 2.197882 -2.5485137 -1.7553569 0.11142292 3.9006968 0.56255096 -2.0746 -0.46122018 -2.5163186 0.53260005 2.4984334 -4.3254166 1.5193166 4.184523 -1.8508235 -0.94528747 -2.8391142 -6.8529496 -3.2918625 0.046779886 2.7629037 0.55354035 6.9691634 1.5211536 0.38707915 -1.8942517 -2.5405345 -4.5688186 -1.0749255 -2.2991052 0.6367039 0.81937635 2.2787912 0.7187685 -2.6784348 -3.7892678 -0.4261658 2.2680707 7.4689097 -0.2048877
21 0.30297908 0.590089 -1.5413666 -1.3974444 -1.881855 -0.46364883 0.51732075 -2.7405298 1.0498341 -2.1235611 -3.5082998 -1.5079852 0.3657041 0.8959414 -4.2154374 -0.21857494 -1.4230213 0.41600496 0.3622837 0.9394736 2.7014158 -0.48426476 0.022542447 -1.0532184 -3.4065518 0.055946782 0.41886526 -0.89861166 1.3721081 1.9828631 -3.4021876 0.8639445 2.2670567 1.0568196 -0.49585184 0.3038873 -1.2488228 5.4449673 1.7340245 0.8169814 2.5188985 -0.59947866 0.63671464 0.6248278 4.7339683 1.8550484 0.34384862 0.16782214 -0.8009587 -3.795011 1.9316795 -0.51289004 0.7172615 1.8961061 -4.6986885 1.131421 4.5646496 -0.13124906 -1.0355312 2.4394205 -1.607174 -2.4816022 0.07497178 3.9956837
30 1.2072335 0.50291353 -2.839537 -0.5451068 1.0565609 0.6079351 -3.4807515 0.8441184 -3.2807646 -0.95977414 -3.013252 1.198949 0.13448146 -0.3167353 1.8421644 1.0370854 -2.8700392 -3.568971 -1.3769407 -0.92434746 0.61738724 -0.5332791 1.5387918 -6.894531 -1.9616339 -0.28611377 2.3484707 1.9798738 -2.2999516 -1.1419865 -2.2271016 3.116392 -0.07931521 0.059465446 0.76483583 -1.1772559 -0.9998439 -0.69249994 0.300213 1.6038115 2.6396115 -3.6634457 5.255598 -0.62322426 3.6326053 0.72021556 0.78908116 -0.61870193 2.8065224 0.77928096 -5.958755 2.5050294 -4.687435 2.755093 0.2424486 -1.6111807 2.9941874 -0.2974418 -3.3814516 -0.26448908 2.687166 -1.4327521 -1.7981348 2.5967767
29 1.3846587 -1.200896 1.0669993 -0.058683112 -2.1715 0.6097829 2.4826636 0.42099053 0.19161811 2.1809757 -1.926748 1.2744609 2.1979182 2.8394718 0.84246314 -1.7883537 1.288977 -0.5697068 1.0217699 -0.10433243 1.7516048 1.2778573 -0.54627264 -0.7612023 -0.3816868 -3.817081 0.6384361 1.3387778 3.6255784 -1.9745517 -0.0014427812 -3.9546733 2.207412 0.4700426 3.2024992 0.056991927 -1.3971847 0.44347394 0.6347985 0.88268936 -0.63770294 1.7127795 -1.5694795 -1.5696846 -2.5931504 -0.2324557 0.22279017 -0.89483446 -1.4356154 -0.5004914 -0.76585233 3.2588477 1.6841847 2.103504 -2.1055849 1.2954221 -0.1393373 -4.4838395 -3.1824653 0.08497837 2.47449 2.5931423 -1.5404532 -1.258681
51 1.9599653 2.9050736 -1.5434887 -0.833245 -3.0360801 0.304091 -4.0023217 -2.49059 0.8628181 -1.9729261 -2.0333574 1.2763661 -3.8078036 2.1574104 0.66275656 0.2272053 2.0097566 -0.07476073 1.8875093 3.6612618 4.371107 -4.103905 0.58749646 -1.6073146 0.8909552 0.49181414 -4.675343 -1.407702 3.519319 1.6992227 4.454657 0.52721375 -0.921183 -4.649288 -0.9036014 -1.1997755 -0.10730631 -0.074973896 -1.4654897 -1.6480701 -2.3623202 -0.0932419 2.9801426 2.022863 -2.4523356 -0.78317094 -0.20464423 -0.53757817 2.6624923 1.4284793 -1.0852326 1.2610024 -4.2169223 4.2621913 -0.19759756 -1.6602131 -3.0045624 -1.9810284 -1.1552223 1.7378026 2.6202557 -4.4317155 -0.5004154 -3.8582249
61 0.6671713 -1.2833568 -4.182196 -1.66269 3.0742435 0.37859333 -1.1067171 1.7003843 0.46598527 2.1968293 4.5920944 1.5365189 -2.1311557 -1.0350622 -0.29602644 -0.52792686 -6.495195 1.6306942 -1.2732128 1.0451984 -2.3782768 1.9142789 -2.674517 0.014803112 -4.5169606 -6.099552 -2.8134954 -2.441052 2.2813566 1.5238407 3.663366 -1.0593864 1.7247019 -2.9862432 -0.75194883 -2.150046 -2.328262 -0.48599225 0.92958236 -1.5406399 0.26652652 -1.7670319 2.656686 -1.4025632 -0.83871746 0.25439462 -1.7348353 -3.4703445 -2.241517 -3.5544603 -6.041569 -2.793908 2.0344713 0.11828839 0.9587144 6.6652126 0.79386777 1.0465101 -1.386818 4.23287 1.0620713 2.7807264 -0.6642768 -0.2900009
60 -0.45226884 3.0088997 -1.6564296 1.8926655 -1.3647751 -2.9851015 -2.981558 3.599589 1.1043059 0.28305936 2.9931653 1.9921414 2.6725452 2.4183145 -0.50145835 1.2100174 1.4267206 1.1193978 -0.9876359 0.79140705 -0.9180172 -0.7700067 -5.214563 -2.3366463 0.1230446 0.5852745 -0.36984932 -0.9779985 2.810273 0.35480624 -1.6929907 2.0191622 -3.3758512 0.9790686 1.3232028 -2.092501 -1.051701 0.1154788 1.2043113 1.3277105 4.9988494 -3.0907378 -2.0373287 0.97265595 -0.711092 -0.6133642 -3.746778 -1.7896028 2.8354406 -2.2501237 -4.226352 -2.038636 -0.5065465 0.53621024 1.7338966 0.9089098 -4.138231 -0.576986 -1.2288232 -0.51368815 -2.8825533 -0.5764367 6.5186863 -3.4319015
19 2.1072612 -0.1748258 -2.3983784 0.5834853 -2.248691 -1.0736967 0.2646699 -1.9826331 0.6576171 -2.6276655 1.5452566 -1.639662 0.09260954 -2.6049366 -0.50850505 0.60885096 -1.179781 -0.60323817 0.44709972 -1.5401683 -1.6473362 0.059269447 1.3516939 -0.069839686 -3.4203863 -3.1579905 -1.0271404 -1.5827687 5.085027 2.6969223 -0.08114096 -2.3912675 -1.4102222 3.7883956 -0.4765825 0.4319811 -0.8474744 1.425348 1.148694 -0.98973906 2.1019223 1.9130262 -1.1108077 0.42716262 1.4273018 -0.6933717 0.086213216 -1.8152359 -2.5777652 -3.3646243 -2.596659 3.1161363 -3.8738286 -1.6872121 -2.8679743 -0.38603655 -0.6755947 -0.5373093 -0.1941669 4.7477627 3.7047355 1.4355104 0.65733236 -2.4358222
13 -0.43480283 0.17357445 0.3307579 -2.341762 -0.03918331 -1.089051 -2.8884506 -3.8325908 0.7233865 -4.144275 -4.608436 2.6008558 2.2859635 1.1822027 1.9010948 -2.0579896 0.66611433 0.20534341 3.8041239 2.479634 1.3471711 0.6095341 0.6927034 -0.33869877 0.45637 1.1706535 -1.6934277 -1.6406227 1.1822519 2.5911312 -0.12219728 -4.034687 0.8387165 -3.1284156 3.4896188 -1.9679341 -0.595326 2.250527 2.292637 -1.2832106 -1.8326856 -0.6968653 2.488521 2.6281211 -4.377856 -3.6124923 -2.9700549 -2.568478 -1.1817681 1.8161727 -1.6466751 2.0442073 -3.510029 0.20001054 -1.2679713 0.47451034 1.6949475 -3.789621 -0.19836475 -1.8544021 2.046026 1.0030907 2.7892594 -3.9817352
62 0.36035594 -1.0165008 -2.0253744 -1.5998555 1.1549284 -1.6410311 -0.60044855 -2.575497 1.635435 1.1821501 0.32147896 -2.3649645 -2.351249 1.1902264 2.4323478 -2.5789793 -0.99567556 3.5497582 -0.08851535 -1.1067113 -3.4226103 0.7861041 -0.38622332 0.14912452 -1.4347634 -5.192568 0.6365509 0.24192703 -0.18105161 1.2215161 -1.2347077 2.0022297 -1.2213835 -2.5831828 2.8175728 -2.9522207 -0.6602099 0.50756264 0.51030886 -1.4792964 0.7891242 1.9325889 -0.7900256 1.2144513 0.2786136 1.1703917 -0.73729324 -3.780442 1.001372 1.5355048 -2.5798995 1.6866233 0.022574704 2.9654756 0.9401932 -3.003882 -6.1786513 2.177423 -3.8957474 -1.7677333 -1.9371474 -1.4675757 0.5008965 -0.34414098
64 2.1101704 -0.27655262 1.7255374 -0.9867197 -1.3158877 0.5014662 0.37837374 -1.2913618 3.5678115 0.49260345 -0.9411815 2.1078558 1.3643621 0.9076484 -1.4114443 -0.7711719 1.8743021 -1.7467562 0.9896164 -0.598243 -0.27563065 2.2604225 -3.3837333 2.7724943 -1.9424808 -0.25339624 0.91863674 0.8401558 2.1939704 1.6270857 -0.60857123 3.2827992 -2.873831 0.7260263 -0.7551332 -2.6647959 -0.8557441 -3.3414526 0.8927674 -0.83844024 1.6704943 -0.079507686 0.326376 -1.9798158 -0.026728371 0.6839996 1.5086524 -0.30299395 -3.0202107 1.6325303 -0.07533543 -2.7399035 1.1369581 -1.1968267 0.83435935 -1.3582036 2.5716052 2.6938257 -0.14941037 -0.75669336 2.0314395 0.60543513 0.5223408 -0.37837598
35 2.8264616 0.9456661 -1.3215508 1.2124723 2.4523544 0.83296824 0.2721728 0.45040795 1.7976608 -4.1649604 -0.7016921 -2.144854 -0.44998404 3.128014 6.0480175 1.5159103 -2.0281813 -3.2960582 3.2943738 -0.761367 3.5004082 -0.95894855 0.17541052 -1.7836323 2.304775 -2.517911 4.8625503 0.36105058 -1.4809748 0.93186337 -0.50382894 -0.9923444 1.2517191 -0.42329553 0.10367313 -3.1973457 3.4117985 2.0793622 2.5346746 1.1199334 -0.15579095 -0.36844668 -3.1877594 -0.029042386 2.3945467 0.74990785 -0.10303484 -2.2724645 1.4248784 -0.09401379 -1.9533068 -1.1192906 1.8009595 -0.19329901 3.8560443 -2.06603 1.6494393 -2.9025943 -2.2406368 -0.43597227 -2.3150213 -2.915437 2.3794177 2.8098352
88 4.8324447 2.680749 -0.53102267 1.4966507 1.2156347 0.6662575 -5.7494755 0.61851156 1.7402898 -0.60208195 -3.7280886 1.7509261 -1.0445243 1.16274 -1.1206322 -1.5604374 4.2013307 -4.90104 0.23543818 -5.0218263 2.7216694 3.2721853 3.5745487 0.837424 -1.0772494 -3.1703691 -3.9160557 -1.548753 -2.3641515 1.654392 0.14630249 1.8692524 0.38038048 -0.2615455 -0.46647665 3.2019224 1.6253085 -2.964749 3.3097973 -2.1619582 1.136294 -0.30134335 1.8349094 -3.0767102 0.7139347 -1.3964556 0.45950708 2.374857 4.2663054 -3.270765 0.79510367 1.4303743 -0.8488906 -0.38543952 -1.6567934 1.9483986 -0.40401217 -1.0023874 -1.8806773 -0.6172958 -4.287378 0.10021367 0.047579173 1.1733302
77 -2.1037536 1.0566331 -1.5601394 -0.40250877 3.7029169 1.1701801 -0.4597259 1.5046462 -0.51309425 2.2944891 1.9886047 -0.50748515 1.0312173 -0.00032497977 2.5426803 -0.48015603 -0.1482055 -1.2687104 2.4533842 -0.1511431 1.5909773 -1.9225072 2.9789944 -4.745127 1.1152521 -0.18871002 1.3321705 3.8530805 -0.8514556 0.24387814 1.2174547 -0.45406973 0.20836863 -0.08778112 1.0061053 -1.7244219 0.009070766 4.4936905 -4.5564275 -0.33169517 2.047215 0.27280807 -0.37063676 1.2168745 -0.6554057 0.692455 -1.2117379 -0.8286014 1.155575 0.6611138 -4.456589 -0.51327056 -3.449706 2.9651294 -0.72200394 2.7747338 0.87010133 -1.8503283 2.7874634 1.2287552 1.0208045 -1.2781432 -2.1330898 -0.0038182347
53 2.1432118 -0.74511033 -1.4106861 0.093779355 1.3165795 0.02395645 -0.13327664 -0.13655429 -1.019871 1.5534723 -0.6052763 -3.351535 -2.3560553 -1.2052481 1.0236288 0.5811496 0.59892964 -2.7066007 0.6879632 1.7138027 -0.6609232 -1.5645555 1.2897633 -0.29129586 0.2725062 -3.4504938 3.2624354 -1.5605601 -2.47767 -1.9794708 1.5736334 2.1038382 0.9762377 1.7577226 0.1700233 0.17458089 2.5405066 0.30029926 -2.6296742 1.2049867 2.3301222 -1.2631934 -5.625029 2.909868 0.28061822 -0.2259946 -4.37846 0.06971446 1.1052666 -0.7687798 -0.22322331 -2.106672 -2.4777079 3.7133322 0.986029 0.69656426 2.1320565 -1.123603 -2.9972878 0.35769647 -2.3755023 -2.6412046 0.50061035 -0.14655301
74 3.2980483 2.0004113 -2.7196472 1.312364 2.258326 1.3100827 4.657869 1.0149046 -4.5281878 -5.0192943 0.6990959 -2.698913 -2.0729477 -2.1147048 -1.7679975 0.5959515 -1.8164368 -2.601052 6.2161427 2.171179 0.20778665 -0.9603571 1.4135976 1.425753 0.490864 -3.123236 -1.0253005 3.2863436 1.997232 -0.5691517 2.1474597 -3.8161182 -0.5662651 1.8831028 -0.19129226 -1.9053947 -2.397393 1.8350642 -2.463615 1.2099019 2.9907088 0.15019207 -1.3174407 -3.0524352 -3.080969 2.495728 2.2110984 -3.1770468 1.7173265 -3.518106 -0.6651759 1.6604064 1.416505 -0.2772893 -3.0037022 -3.2849398 -0.4978504 -0.52042085 2.1277127 1.8581969 -0.9082858 -2.0841823 2.8440256 2.5771685
0 1.7152616 2.0798786 -4.275052 -5.747866 -1.5452226 3.2658997 -2.917264 -0.009110519 2.0218012 -2.5214434 1.5477396 -0.6362122 1.3949144 0.27376714 3.294577 -4.425321 -1.7208574 -0.45922112 -0.8346242 -0.9764891 9.850102 -0.9931452 2.537424 -4.1921506 -1.8168917 3.1166942 -3.7740486 3.3523755 2.133371 2.8235734 1.3618534 -1.7961279 1.0450699 -2.2554576 -1.9349736 2.7143219 -0.2899582 0.04384551 -3.6350238 -2.4605868 3.4378145 -1.3892344 1.3397001 5.0935845 -5.978484 -5.604151 3.233474 -2.0825236 1.5079542 -3.1880074 -6.1368036 -2.3061244 3.2474737 -0.15647726 1.5820925 -1.9636151 -1.135993 -4.764872 -6.827736 -3.0412545 -1.7436002 -2.1221836 -0.84884685 -3.7312257
47 1.8383276 2.7250712 -5.3588758 -1.278364 -1.6355321 -2.6792624 -0.8718162 -0.8996236 2.7151024 -2.7915328 -3.006823 -0.49289015 -3.2921815 -0.89233696 6.4029617 2.3705995 2.306589 5.7409983 2.1622622 -0.92779696 2.8470242 1.915714 -3.1149404 -3.616258 3.8701224 -1.6264249 -1.7196043 -1.4837059 0.41877788 1.4310955 -0.49654967 -3.010509 -3.3534312 2.2265854 -0.8740662 -1.23555 -2.2335212 -2.2969375 -3.4483552 -0.83806694 0.39929575 0.42598015 -2.672291 -0.14723574 0.23078449 -0.8418749 -0.080656044 -1.3264073 0.5543037 -0.8386221 1.8735188 0.8131368 1.155091 3.8709934 -2.195286 3.2943268 1.5866771 1.8423738 -1.9350829 3.9325795 -0.2838221 1.5551299 -1.2577376 -2.6399086
17 0.89326495 -0.5117965 2.1395967 1.7225555 1.5901821 -2.333499 0.44176617 -0.6223819 5.6996694 2.9518914 -0.9751843 3.3172402 -0.52235514 1.256896 5.6509767 0.3343155 -2.2717698 -4.6286135 2.3846178 -2.3628638 -0.94506073 -0.58573276 4.1685686 -4.6851473 1.8847625 -3.8685389 -1.2738726 -0.021296032 -0.035408843 0.23178428 -1.0813967 1.3468921 0.8536175 4.7254 -1.5985402 -3.073225 0.90823287 4.9570074 1.8972912 -3.1942189 2.1594028 -3.4005864 0.30141914 2.0599177 0.29400578 -1.3538727 3.1587803 1.0874342 -2.2371945 -2.5237987 0.2993868 -4.4487014 -1.6249479 -0.3457602 0.42744178 -1.1651392 -0.4229285 0.54368126 0.4370838 -0.30234164 -0.15909068 1.4051292 5.1849284 -1.3164375
76 4.9369845 0.6655607 1.4319905 1.8806138 -1.0234774 -0.3456674 -1.786841 0.24865453 1.382116 -0.3357178 -0.22158495 -1.8757131 5.7685227 -1.4127667 1.0837457 -2.4059784 2.4031684 -0.3120679 4.5274863 -0.13033226 3.3247218 0.88403976 -0.29752582 -3.968004 1.3014352 -0.70695204 0.28077847 -0.7029812 -0.079336286 2.5640488 -1.144631 5.2205725 0.0077536665 1.2872232 0.7912826 2.1026921 1.2645972 -0.3988349 1.1513413 0.65695834 -0.75086766 -2.5271642 1.3615956 -0.44240665 -1.711411 -1.7624906 1.4574914 2.537933 1.9980752 -0.53598017 -0.1119254 -2.2478254 -3.245389 -0.445448 -0.32891938 -0.21680093 -1.7704602 0.31815097 1.3873128 0.021876888 -1.3535528 -4.0558553 -3.0246472 1.685552
52 3.0148838 1.0392294 2.1268487 -2.539914 3.440013 0.5045085 1.4277143 -0.46200475 -2.6510873 -3.8427637 -0.6343915 -0.7531449 -2.4368703 -1.5403863 1.8755976 -1.018825 2.5107656 -0.5702104 1.1161197 2.4881496 1.0899912 2.1939042 1.3516746 2.428878 -0.8850841 -1.050844 -3.779898 0.7611644 1.2503684 -0.06172192 2.032729 0.03584262 -3.485519 -1.8152443 -0.58566713 -0.579799 -2.8180635 2.950175 -1.0892998 0.62453616 2.7004411 -2.2839139 2.793561 1.0013132 -2.7699935 2.1264648 1.1388541 -4.419832 0.17804804 -1.8920888 1.668179 -3.0543082 0.57057106 3.4269748 -0.8882685 -0.88626665 -0.8613385 -2.5493135 -0.026987422 1.1842372 -1.1288575 1.833162 1.3840158 0.14658746
71 2.2488008 2.5065491 -0.30324405 2.3960102 2.0051985 0.6320951 -1.213851 3.859891 -1.4899215 -2.5658784 -0.8752562 -0.9463369 2.2299716 0.43081355 -0.33361492 -1.3214911 0.5398708 -0.993826 -1.4983317 0.92406934 3.0005224 1.8621662 2.9873064 -2.1874475 0.4839664 0.8735113 0.48518252 -1.334031 1.7839088 0.42774194 0.27151752 -3.5420518 0.17501149 -1.2927717 0.70784444 -1.6171843 -0.8533375 3.9066932 0.039214313 -0.54500395 2.1594746 0.8060354 2.114872 0.36481133 -0.97677666 -0.2816085 0.14721213 -0.25346088 0.21990405 -3.416405 0.883691 -2.121368 -0.36905697 -3.2483308 -0.6091531 1.6622804 5.089867 2.2104058 -1.7283689 2.2155178 0.19222337 -0.03655741 0.8231302 -1.4507829
91 -0.62207943 -1.5136375 1.1805209 1.9963552 -0.08307961 -2.3339095 -0.024301099 0.5331865 -0.8367018 -1.1122712 -0.82337564 1.8905648 1.0640895 0.7046061 2.6607556 0.12089061 -0.76717836 -0.17062357 -2.0489554 0.5914896 0.91196173 1.0972285 -0.6908023 -2.0866542 2.5405843 -0.3957278 -1.0435506 2.691484 2.266907 -1.5395472 -0.1950334 1.1664264 1.1393843 -0.6007994 0.036127772 3.327657 -1.1963644 0.57955533 -0.36171257 -0.5116258 -1.688554 2.353224 -2.067247 2.3296463 0.93311656 -0.5817356 1.7580484 -0.25728294 0.6085704 2.086558 2.1511164 -1.2421154 1.9484336 -0.3525801 1.1998891 2.8054717 1.8940094 -2.673421 0.37930772 -1.9494697 2.303934 1.3669888 -2.0169811 -1.4970596
70 -0.34749424 1.7355074 -0.7879018 2.5370262 2.8418546 0.6744333 -1.4530437 -0.7497793 -0.81288 -1.8571142 -3.8674695 -0.7076701 1.4153227 -1.5928227 1.7024529 -3.3535225 1.3666649 -1.321881 -1.7653633 1.9555919 3.7561042 2.0251384 0.7738546 -0.7480463 -1.3746077 -0.45320955 -1.3206112 -1.4927553 2.3899872 0.12154324 -1.6461849 -0.37896052 -0.6801053 -1.686015 1.625059 -1.2637901 -0.48201117 4.6212063 0.10291253 -0.7617963 0.7653951 3.9211235 2.5054955 0.16647013 -1.1451269 0.82779765 -0.55390894 -1.6579416 1.6049955 -2.497881 0.52494705 -0.21205103 -1.6048242 -1.3743804 1.0733281 2.478965 2.6869004 1.8208976 -3.9298515 0.8237077 1.2440335 -1.7038472 -1.9878749 -0.92546195
49 2.2386968 0.54687905 -0.7689652 -0.3640226 -0.17689623 0.7134339 1.0850599 2.2960434 -0.4584711 -2.048453 -2.4886043 0.17891024 -1.3304291 -2.7141232 -0.34502077 0.84937906 -3.0239935 1.9423374 -2.4104922 -0.54813963 0.19691154 2.8349454 1.0473636 1.5296463 0.6414279 -0.38064948 -2.117596 0.48071635 -0.08166858 0.80383176 -2.8154042 0.92899144 3.5394444 -0.21923238 3.275685 4.658554 -0.8082938 -2.6217296 -4.2027946 0.8405181 1.2320596 -0.8290839 2.8440287 -1.3821846 1.5560316 1.919167 -1.5963327 1.3559061 1.6882365 0.3121018 -0.66702753 1.858133 -3.0091276 2.8116212 -1.8726177 -1.2290406 0.9289259 -0.33284056 -0.85168463 -2.1563985 1.8443133 -1.666431 0.27380368 -0.2820134
48 3.0579257 -2.0042326 -2.1668024 -0.17136818 -0.69602823 1.7480929 0.1588411 -0.41557008 2.971427 0.0055408305 -3.7648573 1.9459274 -0.44690877 -0.61550236 -1.3639421 -2.660993 -2.6674962 -1.4944345 0.11302126 1.8017929 0.10380073 -4.334603 -4.359632 -4.0682235 1.9655156 -3.141591 -3.6513102 -0.80539244 -1.4919016 -0.86777425 -1.1655298 1.0348502 -0.591005 -2.0419347 -1.5434345 -3.0084846 0.769961 -2.2739658 0.07500732 3.5693421 -1.4996605 4.717739 -1.4296604 2.9440172 -0.8393936 3.8466818 -3.1130443 0.34533364 -3.5193217 -2.93798 -2.3877697 -1.9153944 0.95898914 -0.9757003 -1.2209 0.16540961 -4.1750016 -1.9070199 -1.9829316 0.899728 -3.816583 -0.51078284 -1.6619321 1.3726591
11 1.5654525 1.801956 0.10576236 0.6882337 -0.72571665 3.2103665 -0.5012402 -0.06981687 2.2754111 -2.979514 -5.061218 0.8318624 -0.90670735 -1.8272043 0.22835097 -0.8000356 0.4120062 1.9417988 1.0342038 2.2580075 -1.7985852 -1.6327027 3.9421613 -0.32833466 -1.833112 -1.2914469 -1.631177 2.7809033 -1.1314328 2.1623635 0.89983654 -2.2035947 -1.1921246 3.891838 -0.9408189 -2.3791358 -1.6052332 2.4986236 0.19910032 -0.96072304 3.3328586 -2.103796 1.1467268 -1.0401351 0.69314045 -1.3628031 1.3172619 -3.7478123 -0.38608393 -1.0125897 0.81155264 -1.759508 0.37362254 3.7005541 -0.026337821 1.238788 -0.37180483 -4.9057264 1.3311946 2.2142375 -1.5315938 -3.9315538 0.66630316 2.579398
31 -0.87417537 2.2553074 2.6893215 1.760786 1.9944705 -3.2685065 3.519459 -0.947656 -4.2921205 1.779619 -5.4134903 -0.09027651 -2.1141202 -1.3096836 1.8839688 -1.2993307 1.6795595 2.5712535 3.101655 -3.1995127 5.679106 -0.34710407 -0.34373763 -2.8632646 -1.4557067 -0.22302666 -1.7321862 1.3178132 -1.6874528 4.5237093 1.8921481 0.033915248 3.869206 0.3575309 -0.9011855 1.746058 -0.790916 0.56840473 -2.3412066 4.922871 -2.117187 2.9760017 -1.8380946 0.50289994 3.1272714 1.9798115 0.80711925 -0.28706667 3.8669386 2.374633 -4.221011 2.086288 0.41557363 -3.324474 1.0557445 -0.04474468 -2.186309 -0.62479115 -1.5883873 1.8403789 1.8354621 3.833344 4.4157157 3.242262
68 -1.5567924 -2.8563867 -0.27831864 1.653058 -2.051508 -1.0137863 -0.7429036 -0.55035514 1.1655275 2.2964814 -1.4159529 1.7345958 -1.2697084 -1.1151682 -1.6515682 1.0794287 1.4607474 -0.3428762 0.38097557 -0.35448903 -3.5667973 0.5796173 -2.0481672 1.2979401 -0.32376772 -0.836197 0.8937085 -1.3124144 -2.0696845 1.1121981 -0.64952546 0.66172963 -0.016508423 1.3676549 0.32776618 0.06655561 -0.3651966 -0.8728279 -0.080888316 -0.06210201 -1.0325551 0.2977442 1.6280861 -0.80892366 1.9004288 1.7990665 -1.0536087 1.3928072 0.14801867 0.84128493 0.1798073 -0.7354707 -0.26828563 3.4947171 -0.67384756 -1.2507664 0.5823084 -0.5164304 3.5306249 1.6328878 1.6478333 1.1480583 0.83090514 -0.31041917
38 -1.3216202 -2.799707 2.0529325 -1.9313085 -0.5297114 -1.843876 -0.89336413 -0.23145565 1.1432854 -1.1804007 5.5838118 -2.8452506 -0.36361414 0.24533892 -1.7838105 -1.0697243 -1.8864617 -0.35005334 0.66386384 1.8694338 0.8124611 -2.4722662 1.462578 -2.1159644 1.8648183 -5.688775 3.1590083 -0.42606267 3.5411723 1.4999006 0.039935835 3.0352163 -2.0353308 -2.9654315 2.0330958 2.035117 -0.3654346 0.0032180466 -0.49063653 0.13496721 -2.0809722 3.1856956 0.6019991 1.1401242 -0.24634624 2.576898 1.615414 -2.4382715 0.04438331 2.2788994 -1.4371072 -1.1643882 -2.7345307 -0.72897106 -0.44837004 -0.94380325 -2.408717 -1.5152344 -5.3922906 3.878526 -1.4236231 -3.5360177 1.4200854 -1.7623087
39 -1.6202576 -1.4169718 2.2839537 1.0797228 -4.1561036 2.0745492 -2.1051087 -1.5299271 0.7862766 -0.8309751 0.096409045 -2.7639384 -1.0751152 0.4802992 -0.17781472 -2.6165864 -0.3484472 2.020047 -0.1744409 1.014607 0.280978 0.89561087 -0.10991367 -3.5082848 0.58066905 -2.6297605 0.67890364 2.3055792 -1.592042 -0.9545282 -0.9387974 -1.9226543 1.9966291 2.670462 1.3715036 -3.2620878 0.38426226 -1.5310397 0.6276872 3.2700672 -0.9410941 -0.4911764 -3.9222791 -3.5400345 -1.7398481 -2.7331767 0.7158142 0.36943462 0.311342 -2.3930204 -4.5221252 -0.064925775 -0.03714335 -3.0145543 -2.125485 1.2373602 4.536225 2.6491036 0.34158674 -1.2047373 3.0928497 -2.7170005 0.62839764 -0.03182355
82 0.2687545 -0.104322 1.2898015 1.9406099 2.3560545 2.018849 0.4658604 2.786877 -0.3375402 -1.3234367 1.5286217 0.72402304 0.4496034 -2.0098534 -0.41501114 -1.563636 1.8841741 -1.1870713 3.5199523 -1.0770979 -0.017873986 -1.0943671 3.4686768 2.3764815 -1.8387443 -0.66885626 -1.1482785 1.1581345 2.217781 0.904688 0.46706724 -0.8860629 0.12350432 -1.8702114 0.20914897 -0.94020575 -0.72020984 0.8817863 -0.82032365 0.4393599 3.2327614 0.25062597 1.5255172 -0.16592324 -3.5753505 3.4819129 0.0375491 -1.8242334 -0.6098343 -1.8335768 -1.0453914 -2.2448854 1.0813177 1.1869427 -2.779425 -1.8125705 -1.1272184 -2.1355517 0.000574651 -0.341131 0.8045012 -1.9891341 1.3124237 1.0120676
32 0.5988621 -1.0918542 2.1187506 2.2404823 0.42320165 -0.6294644 -1.3771569 -1.8922005 0.2336863 -0.28015354 -2.1821558 -1.4917586 0.24289966 -1.1977416 0.4085288 -2.0287938 0.93904257 -3.911938 1.0188782 -2.2799869 -0.7799393 0.6393859 -0.08030719 0.21661398 -0.40956676 1.9532312 -1.1016128 0.45159614 3.233783 -0.750795 0.15616167 1.1145416 0.8181227 -0.24659526 -0.87827307 -0.047127206 -0.85286266 1.0531523 0.08016403 0.71388483 -0.38035694 0.87290484 -0.2051172 -1.3975987 1.0263455 -1.3373462 0.8002778 -1.3804255 1.4751844 -1.6611886 -0.01572884 -2.6583712 -0.057164267 -1.2135643 -2.052343 1.7026811 -0.77232707 -1.5811627 0.0375724 0.49302727 -0.9533789 0.24443217 0.6756453 -1.7701182
872 0.6183142 -1.019789 2.1438751 2.3094988 0.38021183 -0.68460184 -1.4784023 -1.9628747 0.29904217 -0.14438948 -2.2118955 -1.6022041 0.1553527 -1.2021332 0.60308015 -2.1512618 1.0311558 -4.0035563 1.0171605 -2.2398458 -0.8667473 0.69813925 -0.16920008 0.1665684 -0.37027562 2.0524244 -1.0707526 0.55558175 3.2987 -0.91721284 0.30929753 0.9566589 0.8581624 -0.1665707 -0.9010239 -0.11381637 -0.7637421 1.1479676 0.20128348 0.6801508 -0.39126182 0.9746802 -0.1725494 -1.3826268 0.98769176 -1.2277969 0.8590834 -1.5205308 1.1923751 -1.759283 0.053721257 -2.8071444 0.0017544925 -1.2920114 -2.3116739 1.750633 -0.8309835 -1.5864965 -0.11738773 0.71322346 -1.1203989 0.356828 0.80127084 -1.716363
97 -0.6901084 -0.9249717 0.52073234 2.6534066 -2.620437 -1.461834 -0.12957774 0.57455355 1.6138529 -1.1824391 -1.6860781 0.97562563 2.9335988 -0.9148332 -1.4356701 -3.158924 0.5548518 -1.282316 1.9694175 -0.69544715 1.8998475 -1.4169768 -0.11816146 -1.222777 -0.7677048 2.4377449 0.9783441 2.667499 1.8718008 -0.006855009 -1.4392176 2.2847018 2.184818 1.61481 -1.4005734 0.6433998 -0.7624326 1.242661 0.4095937 -0.6995276 0.56173265 2.084069 2.3399978 -0.35042623 -0.046586346 -0.8883671 -0.975982 1.2521473 0.4149196 -1.363327 0.0026387079 -3.494813 -3.9147778 2.526171 0.51625675 0.63825804 0.4776247 -0.50631154 -0.6095395 -0.26983044 1.8064772 -2.4684358 0.8065949 0.14389819
1753 -0.74839693 -0.8842926 0.52843076 2.8220882 -2.8214176 -1.4818888 -0.121438876 0.619919 1.7905917 -1.1523926 -1.7338103 1.1067263 3.098114 -0.95818084 -1.3893628 -3.4015102 0.55153906 -1.2718917 2.1067293 -0.56395954 1.9633584 -1.6334541 -0.10673027 -1.3685691 -0.87257254 2.4836547 1.1063119 2.7815533 1.7142428 -0.23267221 -1.1919938 2.3044143 2.1867743 1.5785887 -1.4654589 0.6573142 -0.77498794 1.3968339 0.49118125 -0.81402314 0.5756576 2.411564 2.5012937 -0.23528762 -0.19309624 -0.78496253 -1.0535401 1.2690018 0.3579775 -1.2922864 -0.13870892 -3.6453893 -3.9910362 2.5693636 0.50514483 0.5648934 0.36129075 -0.40796804 -0.66267043 -0.11336858 1.7318339 -2.5492141 1.038706 0.39991695
2191 2.6184754 -0.84207684 1.6383955 1.8823855 0.24850157 1.1487662 -0.9402309 1.9180834 1.6864388 -0.15074858 -3.7411194 0.09308506 -1.5727056 -0.48130286 -2.2161336 1.6325465 -0.30567184 -0.99313956 0.75969523 -1.9345508 -0.315088 -1.1120833 0.8101469 -2.2913058 -0.065262794 -1.1170219 -1.1465151 2.0127072 0.4387955 1.1245927 0.75059295 0.42975143 2.228268 -0.21189795 0.44575897 1.2206812 -2.7620487 -0.45197663 0.9634361 -2.2747102 -0.43615836 -0.09779835 -0.6453982 -2.7771034 0.9884872 -1.5953006 -0.039641377 -0.17494191 1.3837912 -1.4746934 -1.0587575 -3.614007 -1.3797457 -0.03557284 0.65397704 2.0197198 -0.28625455 -0.4601132 -0.28744805 -0.75890696 -0.33723617 -1.2141987 1.0545894 -1.5245253
95 2.6462831 -0.819484 1.6545669 1.820378 0.22880638 1.2071952 -0.88616717 1.9173489 1.8191174 -0.18441924 -3.7290113 0.08322174 -1.55143 -0.59641725 -2.1720133 1.6373883 -0.30985007 -0.9393873 0.8136391 -1.9053555 -0.3295948 -1.1453142 0.93958616 -2.3442667 -0.09413208 -1.2024581 -1.1458966 1.9928176 0.34833008 1.0542861 0.7559465 0.3886683 2.3170977 -0.22226855 0.5092708 1.3087901 -2.7630463 -0.44734544 0.97221345 -2.3174582 -0.45254886 -0.068732426 -0.53348047 -2.7848635 0.97812223 -1.7178531 0.034418333 -0.14576241 1.4348601 -1.5060624 -1.0518817 -3.6036794 -1.3734595 -0.07560903 0.6003859 2.058073 -0.23852828 -0.5040351 -0.30670553 -0.77522486 -0.36669362 -1.2357557 1.0666006 -1.4977574
79 -0.36295477 -0.38717827 -0.6908035 2.1337578 -0.9308064 -1.7341405 -0.4260425 0.52094746 1.0053991 -0.19694704 -2.3216841 1.5914193 -0.5205117 -0.38815436 -0.7958739 -0.80779624 1.8940471 -1.476285 1.1103826 -1.7872801 1.6612618 0.81515306 3.2206237 -1.02038 1.6642413 -1.1898843 0.14902571 0.10093911 0.39658913 -0.23995581 -1.8551859 1.4264122 0.55134445 1.5896109 0.8156037 -0.22805405 -1.8716681 -0.19636847 -1.0809953 -0.18610689 -1.2117946 3.2138782 0.47177097 -0.30189463 0.98777837 -1.9020741 0.29670396 -1.4914895 1.9477994 -2.389816 -1.1726239 0.58822745 -2.1447887 -0.41229373 -0.061164618 -0.6337995 -1.141557 -2.5168931 0.74908423 -1.724811 0.19751608 -2.0486887 0.98325896 -0.6902559
1642 -0.37182388 -0.24307933 -0.7943189 2.2799404 -1.0952935 -1.8578371 -0.39619514 0.5990767 1.0884606 -0.026965795 -2.3367903 1.6929783 -0.66683334 -0.36987835 -0.7387203 -0.8924394 2.0249515 -1.392597 1.1885488 -1.7190287 1.6714913 0.8494271 3.4160414 -0.9838349 1.7305449 -1.2559396 0.25724173 0.27632442 0.26791364 -0.35835418 -1.7114172 1.2690786 0.4928573 1.804231 1.0005499 -0.27902678 -1.8187032 -0.008396819 -0.9978344 -0.25459737 -1.3899657 3.6281908 0.44063282 -0.36998478 1.0695128 -2.0396218 0.41352263 -1.6397563 1.8326473 -2.4283192 -1.2162246 0.74959475 -2.3833778 -0.5699971 -0.17255408 -0.81317705 -1.2864535 -2.6110847 0.72386944 -1.7445811 0.02414593 -2.153645 1.181145 -0.5829581
86 1.3578702 -0.6346835 -0.7327058 -0.4593291 0.010955655 3.2360942 -1.2362474 -1.3973721 -1.1518282 -1.2094982 -2.1131153 -0.05256413 -0.99900925 -1.5230461 -1.4389865 -2.1185718 -0.1271383 -2.071313 0.1719923 -2.1710782 1.0544945 -0.0153611405 1.185025 -3.5054257 0.16160494 1.1864159 -0.20252429 -0.9849099 0.6337192 0.49625355 -2.1561904 0.64269674 -1.8636367 -1.3924537 2.192636 1.3053402 -1.8325415 -2.0165553 -0.0049595856 -1.5842447 1.7356064 -1.4980569 0.60564196 -0.937335 0.22056888 0.09020791 0.2501879 1.7128632 -0.14289491 -1.8597118 1.3882216 -1.2977958 -2.1571736 2.0294282 -0.671054 -1.7775106 1.3643495 -0.77234435 1.8617725 -1.5687919 0.49363926 -2.4545612 -0.22813055 -0.7353037
588 1.3326551 -0.7092221 -0.70861197 -0.41699213 0.045650404 3.0998468 -1.2218868 -1.2926148 -1.096622 -1.1630151 -2.1751368 -0.050009463 -0.8729881 -1.5297892 -1.4219557 -2.1137156 -0.14461453 -2.0270436 0.16787684 -2.2209885 1.1151061 -0.0397948 1.1953135 -3.4566638 0.05568174 1.0394261 -0.27589846 -1.0549374 0.68661803 0.4839192 -2.1605473 0.7043099 -1.7768688 -1.4481647 2.1454868 1.3433684 -1.8431009 -1.961086 -0.09088188 -1.4941598 1.7020632 -1.3780705 0.55684835 -0.9229674 0.26612267 0.04315818 0.17653279 1.6083635 0.02925361 -1.8746223 1.279955 -1.3088782 -2.1140084 2.0111873 -0.5931559 -1.6389916 1.2820067 -0.8036886 1.8398939 -1.6678272 0.55347854 -2.4387012 -0.21539605 -0.6981305
72 0.010223597 0.24141179 2.0626407 0.11782098 0.9063266 3.1211903 -0.0067691733 -1.257031 -0.2149284 1.1163417 0.063148424 0.17398721 0.51970387 0.41382006 -2.7604377 -2.4426303 2.0864513 -3.8831763 -0.07639571 -0.084759295 2.1249044 2.1657202 0.7687396 0.5443601 0.635462 -0.73862684 -0.6635095 0.42686683 -1.3455524 0.63701487 -0.97387934 1.8859143 1.3936065 -1.1238302 -0.3584518 0.62248594 -2.6724522 0.22191897 0.58760655 -0.25621602 1.3337088 -1.7200079 -0.6407709 0.5524531 -1.229339 0.084971346 -0.61053365 -0.20935424 1.1594466 -3.4564166 -2.463851 -0.14593829 -3.4832907 1.1241903 0.74430305 0.63292086 -1.0970589 -0.38709164 -1.146048 -0.79815286 2.333087 -1.1487865 1.9599686 -0.4977129
1944 0.0518338 0.2055746 2.0041225 0.11606844 0.8625768 2.9461334 -0.008461912 -1.1293523 -0.14019677 0.95570564 -0.05082117 0.32733002 0.701395 0.38956502 -2.695106 -2.2859335 2.0046458 -3.8657188 -0.15836546 -0.084221646 2.195278 2.0386615 0.7567732 0.41327924 0.47735766 -0.88016725 -0.7122556 0.42388305 -1.2628868 0.5214574 -0.9250191 1.8800851 1.2646668 -1.1279463 -0.28454265 0.5898617 -2.5811641 0.17428406 0.4735128 -0.21939677 1.42235 -1.6760447 -0.6417378 0.4593207 -1.0952876 -0.03704243 -0.7106126 -0.13147782 1.4555136 -3.24476 -2.2649274 -0.3164208 -3.3425412 1.069542 0.72561795 0.68937665 -0.9874477 -0.3537355 -0.96785724 -0.91599673 2.358654 -1.0450648 1.9672027 -0.54514754
81 1.4551605 -1.053209 -2.5482748 -0.87220275 2.1877959 -0.7268805 -1.3407182 1.2723702 3.1308196 -0.1120722 2.3149564 -0.8378179 0.5238959 -0.8394841 -0.2365431 -0.82296824 0.8341017 -1.5719987 2.4745326 1.8156643 3.0317101 1.7468984 0.80837905 0.44293427 0.99054414 -1.3018746 -0.0070739775 3.338473 0.36393502 -0.99063987 3.410093 0.15239017 -1.7659783 0.30810913 1.1360431 -2.8336918 0.17327622 2.086845 -3.56187 3.9358618 -0.048966654 0.23396285 -0.21641445 2.1779103 -1.2747552 1.0469012 -1.8167663 -1.109367 2.1032336 0.17828295 -1.5445678 -2.0396447 0.54897934 4.4897385 -2.2953153 -1.1362492 2.8052702 -1.7638279 0.2606739 -0.7757036 0.08881547 -3.1614296 -0.9715517 -2.0200725
56 -2.6870255 -1.075197 0.60142833 1.3954917 -1.2494465 1.0056628 -0.8756524 2.7835338 -2.4381514 -0.53385776 -0.16859044 -0.3016975 1.0237603 -4.350821 1.3361975 0.9711016 2.331607 2.129837 1.3755234 -1.2666045 -0.2367184 0.7400604 -1.6662074 -0.3655577 -4.8968678 0.20632713 -0.7682571 0.33501062 1.6684769 0.80466014 1.4132124 0.5834527 -0.39217496 1.8059233 3.1821456 0.29135627 0.2633992 -3.9052603 1.5460905 3.439893 -0.53518337 2.081164 0.24658908 3.555443 2.2544558 -1.6468884 -0.6448682 0.8660152 -0.51979196 1.0690131 0.11398209 -0.68607527 2.493727 1.6489773 0.7763461 1.5546997 1.1423305 -1.6720515 -0.36548924 -2.1520104 -2.74573 -1.1546892 -0.8653059 1.729516
46 0.4710719 -1.4923474 -2.2043078 1.9470954 -1.4336079 1.1244016 -2.3270447 1.653914 0.537158 -4.0286794 -0.104683265 0.3085904 0.67776924 -0.7102855 -0.19203255 1.4907764 1.3000706 0.47672147 2.549174 -2.5184736 0.83524656 0.92431474 1.0931505 0.3690387 -0.8470648 1.9632901 1.190408 -0.5072639 3.0369554 -1.245503 -0.73702496 0.09751779 0.17722028 0.87970585 2.6885817 1.5911064 -0.2652753 -0.9133829 -0.51616436 -1.594912 0.70058614 -0.171612 0.28191516 0.485793 2.2407477 -1.0040792 1.2303017 -0.64088655 1.1809338 -2.8267221 1.3131891 -2.668612 0.63792825 1.2990308 -1.8389726 1.4643683 0.95445406 -0.30241975 -0.21907897 -3.0631714 -0.4526081 -1.2168653 -1.5277071 -1.0878023
2174 0.6764712 -1.5174772 -2.0808775 1.9965724 -0.9986131 1.0060402 -2.2427175 1.1361483 0.28793314 -4.0687294 -0.4082188 0.3371642 0.85756487 -0.5294244 -0.39026734 1.3035756 1.4657117 0.055636793 2.5610304 -2.434933 0.9864666 0.77403116 1.2218359 0.4298469 -0.6838748 1.9040962 1.1643037 -0.7779507 3.2594895 -1.0939391 -1.0881599 0.46295625 0.24577746 0.7685368 2.2832992 1.6009805 -0.5950876 -0.6721286 -0.50887215 -1.5670526 0.810822 -0.12499515 0.29075065 0.110391125 2.351455 -1.3602288 1.1678442 -0.35408944 1.7098286 -3.2581065 1.004304 -2.8508177 0.5621463 1.412045 -1.7935077 1.5245523 1.1399732 -0.7894994 0.10720123 -3.4200182 -0.2015725 -1.3664066 -1.6240021 -1.4683421
66 -0.098798215 0.52222663 0.23560011 -3.3298962 2.7623506 -0.5036614 1.6769339 -0.27745336 0.46220133 -0.10736833 0.4242886 2.471895 -0.09595254 0.22761656 -1.2733188 -1.1562735 -0.0016971248 -2.5940063 2.753413 -1.096115 -0.28491837 0.3374496 1.9437991 0.15142995 -1.4842354 0.5637875 3.110014 -1.1257623 1.7086421 0.037966155 -1.6709756 0.73733926 -0.025890097 -2.0617187 -0.9763406 1.6978718 -2.5514379 -0.7920024 -0.9402593 1.1277734 2.2123566 1.9301007 0.49762225 1.2093066 0.19410472 2.7044559 -1.5051796 2.4804692 -0.40325427 -1.0852804 -0.38241574 -1.7083814 -2.200911 2.831794 1.3062508 -0.59101653 0.64370465 -0.7679204 -0.3440241 -0.51232374 0.44796193 2.2134454 -0.08521209 -0.05626442
65 1.4899402 2.9921334 -3.4583209 1.9741108 -0.11415975 1.5262504 0.6906944 0.91069096 0.84564763 0.9182591 1.5531007 2.101824 -0.5549299 0.9724936 0.49041188 -0.27168602 0.5958864 -1.7165071 0.024874132 -0.1302355 2.1158068 0.2387552 2.8551173 0.7853765 -1.1623493 -3.4815457 -3.824546 1.8282576 1.5169548 -0.5756883 1.7565775 1.0318182 -2.1989973 -0.63121486 -1.382041 -0.8893814 -1.4445908 2.1741796 -0.6935603 1.7228345 -1.1398141 -1.3537582 -0.6845616 -2.2513118 0.24498591 0.2557876 2.8156412 -0.97389334 -0.33000693 -0.99063826 -1.5702168 -2.9779615 -0.81012636 1.963593 -1.2227432 -0.02393897 0.7086181 3.0847795 -0.5319812 -2.5984073 -0.22486265 -0.6580749 -0.3948737 1.6266693
75 2.3294754 0.030788494 0.7693249 0.46439305 -0.6210048 1.0159808 3.0638447 -0.11521522 -0.09933955 0.70602375 0.23927113 1.4228045 -0.49521735 -1.3332561 -2.3556116 -0.28059113 1.9563714 -1.045542 1.3416634 2.1217377 1.9937419 1.4968932 0.5664916 -2.0820508 1.0686452 2.674684 0.116686754 1.6214857 0.8075621 -0.5438892 1.4649283 0.46985137 -0.46935162 0.82190704 -0.28608346 1.8541714 0.10390215 1.1675212 -3.786985 1.348542 2.0560944 -2.0592115 -0.7852625 -0.6399898 1.6561333 -0.89134425 2.1856744 1.5236834 -0.71550614 -0.7240518 -0.10222314 -1.7378029 0.1785267 4.208596 -0.16939202 0.8844569 -0.26517192 -0.7093759 1.9238783 -0.30257064 0.19718876 -0.9398057 2.3947134 -0.048066683
50 2.14515 0.3418916 -2.5376422 4.9403067 4.1928797 -3.011883 1.032983 -3.40971 -2.6995254 -5.2096477 -0.48322523 -5.3833337 5.5356092 -1.6352009 0.51986855 -1.8052015 2.7680893 -0.6730103 5.765994 1.7216417 -3.948344 1.4430319 2.962254 4.1723533 1.3526839 -3.5126112 2.0346813 1.5630851 0.09187791 -1.0055792 4.5276914 -2.4500017 -0.78723454 0.17803232 -3.1304598 2.1649292 -0.37494597 -1.968563 -2.43436 2.8126214 0.85061383 -0.3952045 -1.6547644 1.2110331 -2.9195304 6.1699085 -0.55210644 0.6917682 -2.9683032 -1.800171 3.8563268 -4.1000023 0.19507818 2.5863972 -0.09402137 -0.1060973 0.46842024 0.9525783 0.9368937 1.3362697 -1.2639121 -1.4014299 4.7259493 4.44379
69 -0.28435475 0.643242 -1.4128493 0.21033558 1.2981021 0.18534657 -1.7147973 0.9673256 -0.4382803 -1.2145629 0.19468455 -0.49098247 2.4361858 -0.91239 0.5223732 -0.6770289 1.6214142 0.10406662 -0.21670932 -0.05397329 1.1366713 -0.8201172 1.1397891 -0.7495777 3.4187016 -1.2292724 0.28952202 2.002502 0.63387024 1.4621668 1.6147788 -3.1158645 -0.84280485 0.35269678 0.37941244 2.452279 0.232628 3.0807462 -2.7819967 3.8985457 -1.0394946 -1.4179105 1.6789552 2.5691986 -1.6772524 -0.09080043 -0.6795126 0.8068323 -1.8376849 -0.07710861 0.6824932 -2.8122141 0.12449286 2.661202 -0.5164537 -3.0625095 -2.5958319 -1.1739193 1.6256281 1.1937047 0.53211564 -2.6562696 1.8905818 0.9601169
99 4.2383604 -0.3271314 -2.0952296 0.68747956 2.955276 -0.715487 0.8168095 2.4563088 -0.52827156 0.45216322 0.95474607 0.07487389 1.8544565 -0.29756248 -0.93090737 -0.5065578 -1.6717963 0.05077747 0.04885605 0.69598097 1.2974367 1.662643 1.6652193 2.719305 0.3391164 0.29700336 -1.2753501 0.4657346 1.8879017 0.017024623 -1.3428282 0.37150705 -1.4773937 0.16761464 -0.14652938 0.3784016 1.9366927 2.9041986 -0.43758252 -1.9569644 0.45924133 1.4444478 4.620385 -0.3706393 0.43574378 0.9847995 0.8856212 1.0785298 -0.78813213 1.9885783 0.5561611 -2.9638028 -1.2909347 3.8156228 0.4357399 2.1209996 -3.3135965 -0.31048593 -0.32945195 1.5822428 -2.3300579 0.85506505 -1.053585 -0.8189436
802 2.441042 0.20463744 0.79101044 1.1967263 -0.38619202 -0.2252466 -0.87363875 0.14304593 0.54483485 -0.26760098 -0.335374 -0.9781041 3.0986474 -0.53716147 0.45344317 -1.2975876 1.2798723 -0.3708704 2.335348 -0.37907973 1.6658676 0.58284277 -0.1548026 -2.0720983 0.9045544 -0.34414858 0.031165281 -0.36289576 0.16417795 1.6773211 -0.81482863 3.0085132 0.1474941 0.7420763 0.1354332 1.0431643 0.53479 -0.43949017 0.5468648 0.34656432 -0.4604107 -1.5127953 0.66622466 -0.39356995 -0.83415383 -1.1422589 0.64448154 1.3835214 1.2297068 -0.37788406 -0.08461434 -1.2230902 -1.7954814 -0.22592802 0.08587512 -0.094194755 -0.7178415 0.0016715021 0.7844989 -0.26364762 -0.7038221 -2.1961927 -1.8757408 0.5998973
1414 2.4482222 0.23389314 0.7947793 1.1921748 -0.39123875 -0.2058105 -0.81344366 0.11695713 0.5238311 -0.25421816 -0.35175806 -0.9881644 3.1135743 -0.58240426 0.40639806 -1.3295437 1.2516532 -0.33771005 2.3119774 -0.3338528 1.6960402 0.5848593 -0.14513232 -2.0939102 0.85949105 -0.30837488 -0.029637303 -0.37830985 0.090710945 1.6404799 -0.81655675 2.9844513 0.09447018 0.71589917 0.18143077 1.1024511 0.51928735 -0.4030355 0.5522366 0.38855252 -0.4841417 -1.4481939 0.6798525 -0.36549473 -0.8081157 -1.1359726 0.6814409 1.3399444 1.2435443 -0.32784602 -0.07771714 -1.2144173 -1.8126699 -0.21219833 0.0618298 -0.08993563 -0.7194533 0.0062114233 0.77430946 -0.21511637 -0.684109 -2.1860313 -1.8500736 0.62523097
2677 0.5997391 0.16035421 -1.2396116 0.29473495 1.3986514 0.065939896 -1.140013 0.33245975 -0.28553513 -1.0043594 0.26252723 -0.31816664 1.2241901 -0.78426117 0.24909237 -0.3080147 1.235118 -0.06326081 -0.48479897 0.08733158 1.3530073 -0.37337443 0.92586666 -0.80167514 2.431767 -1.206316 0.37065518 1.626356 0.5311245 1.3410271 1.1048206 -2.246499 -0.4427448 0.1743144 0.20883544 1.409302 -0.36852753 2.6181607 -1.7102655 3.364659 -0.65290046 -1.4135535 1.3319886 1.4590375 -1.054083 -0.37473312 -1.2652447 1.0581226 -0.5910198 -0.3492796 0.010698315 -1.970715 0.13447584 1.8296568 -0.13513815 -2.3633833 -1.1920366 -1.7183944 1.5746862 0.2471669 0.64368486 -2.3572366 0.8998769 0.26008135
1248 2.2100563 -0.45247176 0.9606536 0.48317173 -0.28072155 0.8014721 2.4512494 -0.16015226 0.011240979 0.50323594 -0.70094323 1.290726 -0.26929742 -1.3800063 -2.0969265 0.00904267 1.6096348 -0.6876292 1.4725816 1.4613918 2.1582112 1.4718033 0.95068103 -1.6174598 0.820493 1.924162 -0.42361823 0.99225825 0.85026824 -0.08872151 0.8541583 0.32812607 -0.10735762 0.75731474 0.18617915 0.9325941 -0.17899977 1.068184 -2.5838912 0.7519454 2.0830295 -1.9983932 -0.4154327 -0.5685738 1.4219369 -0.72845566 1.6322668 1.4390503 -0.011024698 -0.7603641 -0.36321035 -1.9511156 -0.43908414 3.392244 0.23818937 0.8079142 -0.16698411 -0.8167984 1.3429592 -0.64355725 0.245938 -1.3536851 1.6969666 -0.3506895
1251 -0.38865778 0.149402 -0.15692754 -1.9728364 1.8549869 0.09151659 0.9873594 0.4024113 -0.021000125 -0.48386875 -0.007134147 1.7518075 0.069440365 0.37257144 -1.0132548 -0.56158954 -0.15532428 -2.082807 1.4332861 -0.5696956 -0.22309557 0.16342942 1.4504176 -0.9383052 -0.8730339 -0.026996605 2.21846 -1.0860076 1.5475346 -0.018489491 -1.4393297 0.2779626 -0.07832962 -0.9606798 -0.8476815 0.95172274 -2.3700595 -0.89705926 -1.0507455 0.8961899 1.5662379 0.77176166 0.2720619 0.496357 0.06276916 1.807736 -1.1266407 0.9270617 0.42287043 -0.9705651 0.3352363 -1.7998921 -1.8381861 2.1080792 0.4359923 -0.28183976 0.69822454 -0.79206187 0.08493254 -1.1705967 0.54174566 0.8313469 0.09765517 -0.69754666
2715 1.6414735 0.9351094 0.053059325 0.6064507 0.48178372 0.1800699 -2.1179929 0.1747264 0.37417188 -0.39184833 -1.6570226 0.49922812 -0.212812 0.6497738 -0.6398315 -0.6415672 1.6447263 -2.1292028 0.037179984 -2.3537169 0.8837246 1.4569374 1.4145968 0.31439373 -0.28442165 -1.0883275 -1.5737319 -0.7307804 -0.7233762 1.0325263 -0.27112594 0.9959055 0.2860748 -0.043868482 -0.39022407 1.2030584 0.58365446 -1.4586618 1.0980636 -0.7719047 0.49346554 -0.31012738 0.5101014 -1.38973 0.3857496 -0.8494064 0.05364251 0.87088114 1.9584771 -1.3361739 0.28155446 0.4312328 -0.3822969 -0.022193605 -0.21072118 0.7150266 -0.029689992 -0.7264174 -0.7733416 -0.4835436 -1.6443173 0.018433666 -0.25504914 0.16195737
334 1.5936787 0.9496741 -0.022450268 0.63166034 0.5432004 0.15148783 -2.037967 0.15467599 0.40800253 -0.39001 -1.5805522 0.44722927 -0.27478832 0.6778272 -0.55710906 -0.59095985 1.5290408 -2.024679 0.059902225 -2.2421722 0.8016803 1.4170184 1.3076177 0.31148207 -0.22797713 -1.0056595 -1.492936 -0.74215436 -0.73513067 1.0209317 -0.3321698 0.94958663 0.22248669 -0.030050682 -0.41331843 1.1813258 0.5959344 -1.4599397 1.0522586 -0.7637865 0.45948908 -0.28073043 0.51731104 -1.3491113 0.3718504 -0.87824166 0.07241958 0.87918216 1.8366281 -1.3119872 0.26666847 0.4479532 -0.37189373 0.011143136 -0.15964915 0.7037032 0.02647927 -0.7147833 -0.807868 -0.43189383 -1.6845158 0.0649249 -0.31094852 0.17721504
134 0.9526666 2.1781025 -1.9946679 0.9200094 -0.0366901 1.0262539 0.64220387 0.55822873 0.023388062 0.22819541 0.8991835 1.5532724 -0.40751842 0.27226964 -0.30419227 -0.2002662 0.83912724 -0.9894567 0.2640571 -0.083935864 1.7350833 0.3036107 2.4169078 0.13659336 -0.8016298 -2.763283 -3.15795 0.71342665 1.0771223 -0.18355024 0.84359485 0.8441451 -1.4888201 -0.34738708 -0.99278605 -0.41581988 -1.1052927 1.4972115 -0.5388459 1.1020465 -0.67721236 -1.123286 -0.2798309 -1.5305532 0.27759686 -0.10460701 1.6740173 -0.7915934 0.05165646 -0.93252754 -1.1276338 -1.9505507 -0.8099881 1.5996902 -0.94232523 -0.11905121 0.3130584 1.8048311 -0.2492559 -1.906093 -0.16978836 -0.3917819 -0.20546961 0.7666086
2397 1.4682074 1.2526757 -0.29198223 1.193564 0.9967968 0.4379964 -0.71400505 2.2750025 -1.4761729 -1.1564591 -0.97343254 -0.6711294 1.3557926 0.27617046 0.016574461 -0.9055209 0.57119024 -0.9255073 -0.5143629 0.47217515 1.6487072 0.9126815 2.0053868 -1.4596769 0.3952521 0.12198775 -0.16729288 -1.0168369 1.564255 0.17228834 -0.0030171757 -1.2702872 0.495161 -0.89521074 0.06472374 -0.982675 -0.6082494 1.9245543 0.24111772 0.2345718 1.2843375 0.18593891 1.1852767 -0.13850251 -0.3926922 -0.1586034 -0.44900355 0.26554695 0.08832285 -1.754457 0.26538607 -1.2509068 -0.13147856 -1.3412007 -0.31080502 0.5500729 2.988452 0.41442096 -0.4552173 0.4013308 0.21154328 -0.1407998 0.53650576 -1.0425158
2843 1.7308073 0.930907 -0.007343897 0.74621904 0.58019644 0.14914843 -2.1507306 0.19029652 0.50486237 -0.30710682 -1.747548 0.52070725 -0.2462367 0.72766566 -0.57603717 -0.5956785 1.6574306 -2.176677 0.08835574 -2.3804479 0.9503818 1.4064878 1.4052455 0.215941 -0.19544894 -1.1640582 -1.5798582 -0.72488827 -0.66755736 1.0725738 -0.2946055 1.0560338 0.29963338 -0.04428233 -0.3976756 1.2515812 0.49961743 -1.4976732 1.0553937 -0.76147115 0.5253115 -0.279699 0.5370815 -1.3163604 0.41480523 -0.83749664 0.038118545 0.95400125 1.9463632 -1.4391108 0.22567981 0.4212967 -0.35636085 -0.0029890805 -0.21741715 0.7572691 0.082378924 -0.6929215 -0.7961305 -0.46615332 -1.6479489 -0.07649637 -0.30824408 0.1153204
733 -0.92780524 1.855669 -2.0216405 2.510093 2.1104567 1.3144628 -0.2836585 -0.86587733 -2.156177 -0.28680545 -6.142793 -1.1609412 3.4915793 -4.1617665 1.1018096 -2.4750717 1.7661347 -3.5167453 -1.9705877 -1.2324787 1.8532473 2.9582744 0.427367 -1.120024 -0.6554195 -0.58726126 2.3128927 -2.3071873 3.2625132 -2.0433095 -2.5956898 1.4623181 -2.347839 -1.9489164 1.5954685 -0.90540427 1.0495358 3.7038105 -0.21314324 0.98061067 2.308113 3.1985207 2.0952826 -0.7394331 3.3441956 3.302693 0.34993967 0.9249808 2.2322838 -3.39895 -1.8852707 -0.4917583 -2.838491 0.116207674 -0.50983655 2.1589746 3.840145 2.1728957 -3.3219254 -0.45495623 1.592855 -3.1563854 -1.7127903 -0.12433714
2737 0.84053546 1.2541419 -0.09418631 1.2763983 1.4080821 0.11782864 -0.38187328 1.9572439 -1.117065 -1.2022251 -1.1640252 -0.4096969 1.4556305 -0.01487718 -0.18892069 -0.84702307 0.64910233 -0.74300355 -0.7948667 0.20735508 1.3872167 0.7672481 1.6253439 -1.2536275 0.57414854 0.6838639 -0.22361411 -1.0156361 1.4970624 0.5315875 -0.21601619 -1.5761795 0.1082683 -0.9477912 -0.009915711 -0.5345515 -0.9192672 1.7584689 0.11218902 -0.14538546 1.1112193 0.38019705 0.686855 0.02839119 -0.31030005 -0.64773756 -0.09340438 0.29820764 1.0738518 -2.2298777 0.66609645 -1.6051881 -0.43174365 -1.2570097 -0.09661772 0.6445006 3.095905 0.79596186 -0.27468598 0.6904963 0.28909904 0.05946775 -0.24255502 -0.7925371
682 1.6772962 -0.34535965 0.017195819 1.321843 0.5109284 1.3361424 1.2489864 -0.4494722 2.0775702 -1.6456448 0.8763341 1.094584 0.95976114 1.5242598 -0.00049818493 0.5482957 2.6388729 -2.2138414 1.1997222 -1.6792551 -0.50621825 2.2178953 2.5728111 -1.8435833 1.7371581 -1.1496013 -0.70490503 1.7509931 0.9504085 -0.62611187 -1.7892737 -0.5856362 1.2731977 -2.743756 0.20222256 1.1650639 -3.0931962 -1.1486578 -1.1106637 1.9978777 0.54180986 0.8578035 1.2240413 0.032607898 1.575503 -2.85401 -1.622211 2.6342568 3.0688348 -1.3028872 -0.9011224 -2.792711 -0.44056723 -0.76950425 -0.9139072 2.9345274 -0.49351558 -1.7608601 0.20439704 1.0677023 0.14847448 0.06611499 0.8062976 0.9177374
2650 0.53611517 0.8523352 -0.063866585 1.7313946 1.0261521 0.2995478 -1.3143066 -0.36899802 -0.92641723 -0.3940384 -2.3367114 -1.0472676 0.5069703 -0.7683857 0.6346785 -1.7062346 0.72491854 -1.6495248 -0.70358443 0.7313362 2.1363227 1.2712511 0.6333324 -0.19677898 -0.78491706 -0.9232927 -0.70357585 -0.68762684 1.7330027 -0.23759483 -1.028404 -0.16649465 -0.37362555 -0.57505417 0.91514826 -0.59619147 -0.32825917 1.7802838 -0.534808 -0.4540915 0.19089687 1.9179063 1.4463283 0.1202802 0.22584225 0.2496386 -0.26397553 -0.034105297 1.3426406 -1.8696655 -0.2844302 -1.1346314 -1.0566491 0.22866033 1.0990449 1.0588117 1.4800597 0.42158508 -1.5228208 0.33883244 0.8485774 -1.1484137 -0.71735376 -0.029897038
2389 0.010424192 -0.9782182 -1.617031 0.27440643 1.1189102 0.54624057 0.417201 -1.4605887 1.9853153 -1.6041732 -0.36135125 1.7609533 1.1713046 1.4458768 0.0007860178 1.5799804 -0.43898827 -2.2359939 -0.8885846 -1.798756 -0.052090548 1.7665223 0.7365116 -1.1602074 0.43555784 -1.5341393 -1.8280821 -0.12684502 0.7718224 0.8811681 -3.0679958 -1.1283479 0.048104554 -1.0418856 0.10980782 -0.5998053 -2.577765 -0.4475625 -0.23371369 2.6885476 0.9205791 0.93122953 1.6943678 -0.5112402 -0.07723315 -1.5638111 -2.3683121 0.676007 2.1953232 0.12614061 0.11429579 -3.0840719 -0.8522262 0.38001803 -0.5109599 1.3653222 -0.1683283 -1.8150386 -0.35375842 0.7784962 -0.7405718 -2.9199548 0.28693542 1.690054
2328 1.9200431 -0.66815656 -1.0026515 1.308198 -1.6289973 -1.8472804 1.8745612 -0.236183 1.4456118 -0.75022066 -0.9565224 0.25696495 2.1671832 -0.8881472 -0.030751074 0.9626528 1.0650548 0.44612026 1.2459838 -0.95052266 0.7770793 0.4266466 1.6202211 -0.45770508 -1.3796661 0.22327052 -2.8211677 -0.6115819 0.8378589 1.7143878 -0.30632058 -1.7531984 0.13583128 -0.4591972 1.7757357 0.87683356 -0.42660564 0.84376454 0.7205538 -0.19623901 0.79604626 1.2121694 0.3516436 -1.2894359 0.77851194 0.11919155 0.4753175 1.7813779 0.6736915 -1.27713 -3.3605037 -1.6430917 -2.5919416 -1.6822513 0.7567716 -0.96505845 3.1382387 -0.81041974 0.38553178 0.17512336 -0.25551292 -0.9092648 0.9984969 -0.7321935
1658 2.796079 0.6579101 1.9501987 0.2221475 -0.9721491 2.2599344 6.251056 -0.09640413 0.91730297 1.9936377 0.091448896 1.2568259 -0.9443198 -2.971311 -3.391014 0.92154145 0.4535479 0.00460568 1.2897369 2.6179354 2.4204462 1.5446739 1.0917243 -1.2948351 3.1722434 5.671876 0.56765395 2.6536698 1.0029657 -0.5032047 2.9935126 0.7925025 -2.7127633 -0.38258025 -1.3434383 2.1136086 0.6396813 0.61206716 -4.6526523 0.5462979 2.4451783 -3.8456726 -2.376196 -0.82198435 2.657783 -1.2229431 3.4754536 2.4716902 -2.3758488 1.124334 0.06481775 -2.6655912 -1.2204237 5.340935 0.29046056 2.6793463 -1.5820111 -0.5124673 2.2672637 -0.06225058 0.25908095 -1.8424174 1.7538154 0.24213932
2337 0.56201655 2.78823 0.8953012 -0.7751895 1.7169999 -3.8133664 -3.5408862 -4.246122 0.13724802 3.792053 -1.5628345 2.8582292 5.358711 -0.0071557146 0.27110317 0.74555856 3.010685 2.2409585 0.35886085 2.3109648 3.7992442 0.4152321 -0.79209375 0.8533685 0.9588312 -1.3129419 -3.3938003 -4.003232 2.4519675 0.37714523 -0.41915807 -0.7953119 0.13153817 -2.027077 1.0299554 -2.6108217 -2.7266288 1.5130726 -0.58076113 -1.8237711 -4.241889 -3.2776494 2.0806065 2.1394243 -5.890851 0.5803532 -3.2607172 -4.480825 -1.4726033 -0.77465683 -1.4042541 4.8365655 1.4479365 -1.3637645 1.999184 -2.1582007 2.2924752 -3.8865268 1.942983 0.9366838 -0.6567632 -0.15361182 -1.0929126 -0.63532
745 2.9554188 -0.14424367 -2.3054168 -0.5135491 2.2634976 0.40189084 -0.35429528 -0.8039656 -0.35994366 0.23609266 -1.4275322 1.6538396 -0.42223063 -2.4504414 0.79037815 0.2585833 4.08839 -1.1677896 1.7048836 -2.2470913 0.7493054 0.18266208 -0.7981874 -0.40975782 0.5553514 -1.4677898 -2.0291255 -2.8976398 -0.51535714 -0.54054004 -2.199316 2.136292 1.8843223 -0.7763069 -0.74702406 1.0700613 0.8823201 1.1343242 0.33117878 1.3782904 3.6139064 1.9377067 0.99781483 0.22725455 0.3564513 -2.0845408 0.92774796 -1.1997757 0.09594763 -1.6653104 -0.2879148 -2.2721906 -1.5403849 0.8397888 -0.49009892 2.139074 -2.9417596 0.2781408 2.8492815 -1.4870818 1.2426455 -2.4610016 -0.06770472 0.17662294
1672 1.3972045 -0.5862988 -1.6433303 -0.19890665 1.8125372 -0.73725367 -0.3676715 0.4106088 1.1472042 -0.6789581 1.2225652 -0.020872604 0.5693759 -0.69624376 0.15065905 -0.22487435 0.6127587 -0.7899659 1.1923932 1.2590716 1.6863574 1.0618882 0.6863836 0.4769026 0.89273727 -1.1232543 -0.498915 1.5648975 0.254199 -0.7245092 1.4938359 0.6545547 -1.4373765 -0.02644615 0.15463172 -1.6163392 -0.8693039 1.3095062 -2.042331 2.3975477 0.22861314 -0.08142528 0.34376317 0.8676468 -0.6675718 -0.11312268 -1.6228781 -0.32329327 1.5804944 -0.5435008 -0.90313256 -1.7935724 -0.21846518 2.6121576 -0.9836543 -0.51525366 2.1126807 -1.7708768 0.08931802 -0.9313275 0.17875336 -2.1365426 -0.3343294 -1.2356637
2349 2.6694639 -0.38074172 -0.8009742 0.3464537 1.9206601 -0.5807639 0.07599637 0.8141589 0.22881694 -0.024796877 -0.534787 0.25649083 0.39995477 -0.1920656 -0.05564017 0.736508 -0.6633715 0.026325244 1.0082941 1.0966159 1.1936817 1.0344728 1.5070004 0.5379409 0.1287456 0.25148368 -0.8033718 1.0295058 1.5868837 -0.3441645 -0.9680101 0.47547615 -0.9803874 0.18491408 0.58400136 -0.34721506 0.12701431 2.1460047 -0.10350067 -1.0012796 0.056678616 -0.045537937 1.6174097 0.038425505 0.23751852 0.74200934 0.7106 0.5331598 -0.78068984 0.11314482 -0.12379537 -2.4817812 -0.8768388 2.4627113 -0.25915718 0.871724 -1.3093966 -0.21789962 0.0057063997 0.1781703 -0.45737478 -0.4659166 -0.00025515875 -0.38970736
2125 -0.6188447 -0.32542074 -0.36088893 0.06413483 1.7473246 0.2252148 0.0674666 0.19270782 -0.52899754 0.29461613 0.44137806 -0.16562697 0.90854645 0.13061963 1.0093547 -0.32891047 0.6684993 -0.74762815 0.5922668 -0.3207794 0.48517942 -0.7621314 1.355093 -1.8188734 0.514588 -0.21557187 0.34746817 1.0445482 0.16910776 0.8679904 -0.2102929 0.09431019 -0.118785195 -0.27319407 0.12220285 -0.6671934 -0.36200875 2.0196187 -1.5160271 0.37872398 0.6417084 -0.30129132 0.50135636 0.167876 0.14136302 0.19546527 -1.019729 -0.11791779 0.91857433 0.085126795 -1.8983549 -0.7185759 -1.5331738 1.4038713 0.0187985 0.82815886 0.42463887 -1.242158 1.5272626 -0.57666653 0.21634765 -0.61503726 -0.70849353 -0.1979143
2532 0.9754824 -2.3885894 -1.6664625 -1.1909742 1.2427615 0.17048976 0.13987575 2.376217 2.0238 -0.3232411 1.9893731 0.13157514 0.984577 -0.3432472 0.7877781 0.024359588 0.5478622 -1.9994141 1.1373832 1.0230867 2.8256516 1.547595 0.47566712 1.1472293 1.8705434 -1.0210087 -0.36640632 2.0612772 0.7172185 -0.41661975 1.939123 0.6652704 -1.9798774 -0.2320154 0.9482641 -2.4243617 1.0317771 0.8628529 -1.6179786 4.1552005 0.19255301 0.8240983 1.3712919 0.993368 -0.5948092 -0.34726065 -1.625642 -0.72350174 2.5539293 0.7260364 -1.9089072 -2.1955657 -0.1383997 2.528003 -1.4135383 -2.0537832 2.5308053 -0.8746808 -0.6266952 -1.8600641 0.03473478 -2.401006 -2.2192495 -1.822752
2398 -0.18521164 2.6472065 1.2276932 0.26125887 2.5868473 1.6294137 0.18445346 -1.8978105 -0.64071053 -2.4621105 -2.0149295 -1.6430986 1.2036495 -3.3182576 3.770677 -2.2850013 1.376507 -3.0214403 -0.9180678 4.7670593 3.566931 1.115114 -0.12588431 -0.49887687 -2.3622813 1.5002145 -3.240631 -2.1295931 1.3570299 0.009423855 -1.0171567 -1.5404488 -2.2229204 0.87052184 2.4337077 0.12924774 -3.2342675 2.4859514 -0.7237782 -1.8357024 -1.6217817 4.7127247 3.8434112 -1.6807365 -2.4505138 1.6409631 -1.0458254 -1.8147676 1.7816535 -3.092202 0.54556906 -1.7632494 -2.873246 -0.08417283 1.8876609 0.8919468 0.6714109 2.6403224 -3.0761178 -0.052708488 0.09681126 -1.4609401 -2.4172137 -1.4425071
1808 2.014842 0.097219184 0.06487158 -0.063805066 0.5291867 0.35261172 0.1710036 -0.14603378 1.0172086 0.21745703 -1.3321352 0.66050494 -0.33706117 -1.0889356 -0.23496033 0.28164455 0.027525168 0.9546876 0.7846092 2.1654754 0.16686168 0.48025733 1.6619438 -0.5313416 0.54214257 -0.8393429 -0.75245845 1.5239561 0.7048538 -0.25604162 -0.4866374 -0.98005563 -1.223281 0.8272756 -0.018212797 -1.3043576 -0.80672747 1.6112976 0.53278136 0.26226944 1.2868696 -1.119193 0.21651627 -0.21681741 0.0061563416 0.21007094 0.6129093 -0.35539007 0.8967656 -0.7792267 -1.4521145 -1.6578984 0.20864291 2.158984 -0.09869979 0.41841316 0.034801193 -1.4805225 -0.31713322 -0.5619588 0.6420265 -1.8783922 0.24538684 -0.21533673
2975 0.005867453 -0.5772601 0.35574642 0.81530267 -0.060299292 -0.42874953 0.18715568 -0.097721264 -0.6609858 -0.25662583 -1.2424757 1.0054638 0.76436055 0.3307798 0.845955 -0.15683503 -0.5580198 -0.6400936 -0.44613162 -1.0677198 0.9987938 0.59527135 -0.04796355 -1.405074 0.63915324 -0.4330127 -0.9914363 1.039594 1.440105 -0.650636 -0.6675712 1.125221 0.74633366 -0.14587232 -0.21633315 1.3417621 -0.97637945 0.46530446 -0.21105205 -0.8312081 -0.9116374 0.5196123 -0.64048445 0.524743 0.39833072 -0.9948898 -0.010380642 -0.8561322 1.3835483 0.5333581 0.68518066 -1.1104288 0.0094032725 0.55645764 0.5010916 0.54818296 1.2058854 -1.312759 0.61425894 -1.0625548 1.0010685 0.16160326 -0.42890343 -0.9199828
2578 1.8338642 1.2268412 -1.5444149 1.8592193 1.3548923 -0.9807995 1.3132926 0.75499445 4.81027 -3.4999075 -0.37970772 0.46388212 -1.0723509 -2.211583 0.6741781 -3.5069118 0.7825875 0.52757424 1.8448299 -0.26156828 2.7779477 0.43941554 0.866153 0.42230353 1.3359119 -0.045236968 -1.0899668 -3.9096975 2.3658047 -3.0619779 -1.9235861 0.100047246 3.919551 -0.8768381 1.3314972 0.24013409 -0.77062875 -1.3928506 3.390896 3.474053 1.6929095 -0.54272634 0.2717625 -0.25671577 1.7447209 -2.296835 0.67683625 0.6849615 -1.1080298 -1.0682026 1.795285 -2.1103468 -0.20255218 2.6822686 -0.06504749 0.018973432 0.12523893 -0.0902771 -0.10134301 -0.7355855 -0.53237104 -3.8657832 -1.2920177 -0.096631795
2461 0.06672757 -0.40514693 0.22856711 0.95727617 1.4586325 1.3175727 -0.41904283 1.5234973 0.07902109 -0.69496125 0.7946382 0.7243287 0.43213758 -0.92321044 0.8475831 -0.9706099 0.52595687 -0.8968929 2.2207391 -0.58893925 0.17458451 -0.04465307 2.4696264 0.7386103 -0.8430306 -1.2726544 -0.89347696 0.034838602 1.0540695 0.365667 -0.544339 -0.48227587 -0.40883863 -1.0877098 0.28166503 -0.7577526 -0.47343284 1.225965 0.07886052 0.8022747 0.88702303 -0.38494366 0.76403093 -0.44798526 -1.505293 1.0642297 -0.3316606 -1.3315699 -0.09692482 -1.3267492 -1.0569686 -2.4825811 0.23731127 0.86620265 -1.4518596 -1.2765164 -0.13967197 -1.3150332 0.4812405 -0.6604457 0.68412393 -1.6799424 0.33541018 0.15621935
1341 0.39114413 -1.1215738 -3.3951757 1.3235369 3.1203527 0.0333616 -1.3770972 -0.027508657 0.7292639 -0.72925085 4.964661 -0.97324526 1.3588746 -2.3587072 3.8661785 1.0767817 0.746216 1.3650292 -0.6700624 1.4613092 -1.5287968 -0.7593455 1.8671982 0.08011757 5.121107 -2.1694074 -0.36349273 2.6988926 0.7194073 0.7189294 1.5206754 -2.3648057 -5.1283374 -0.24142389 0.402575 0.685454 1.4908818 5.221017 -1.0034789 6.738462 1.0433437 -4.2793417 3.8832304 2.9726112 -2.0896134 1.1785703 -2.5999575 1.1020058 -1.6863464 -1.3360796 0.2990342 -1.2445128 1.739488 1.0916038 -0.5997562 -4.9567194 -1.2250617 -2.5351987 0.86886436 0.9953997 1.5648084 -3.322919 -0.8284098 1.6288394
116 -0.03939104 -1.4545711 0.71651566 1.741796 1.1818377 -2.0026917 -0.47088683 0.045058817 0.16034466 -1.4070531 -1.2202178 1.0521648 0.8238764 1.081493 1.5855408 -1.2824847 0.6621161 -0.2183491 -1.2205539 0.41335785 1.0890137 0.657104 0.64871705 -1.1820003 0.9569442 0.1723664 -1.1204841 0.2917554 0.8393029 -1.2674148 -0.92815965 1.5422181 1.9215946 -0.8107347 -0.1901999 1.3565663 -0.43563384 0.7845934 0.3692499 0.50569975 -0.39405942 1.9644827 -0.5406437 0.55713326 0.9624143 -0.31300408 0.5134187 -0.51664114 0.41099426 1.7621074 0.5359824 -0.6224603 -0.69482803 0.12974523 0.37449217 1.8890418 2.0939674 -1.32267 -0.027583174 -2.741297 1.6122901 0.3819228 -2.592046 0.4754713
1752 0.60543334 0.75811136 0.30327517 -0.6271314 2.1409848 0.004951768 0.044421867 -0.24546047 -0.90137553 -1.3566743 -0.28847766 0.07601794 -0.9903069 0.22869389 0.6812107 -0.5263034 0.96219504 -0.49537554 0.9847082 0.99801326 0.9684545 1.1670206 0.42794317 -0.2076501 0.3106822 -0.76448125 -1.3331867 -0.18988429 0.17270482 0.11076075 -0.000104510575 -0.135347 -1.3710457 -0.8495309 -0.33305806 -0.116303705 -1.0469792 1.4726111 -0.4142314 0.094348565 0.67234564 -0.24484996 0.43633986 0.6362032 -1.3644388 -0.14107698 0.39542344 -1.5811576 0.7871289 -0.64100784 -0.14265127 -1.7533002 -0.09445757 1.823354 -0.6323426 -0.53489935 -0.55571854 -1.4186654 0.5201242 -0.24750285 0.5406586 -0.48377132 0.6673712 1.050998
1247 -0.82255155 0.25158662 -0.19293901 0.40594855 1.7193683 0.9903172 -0.29999524 0.2710334 -0.25274754 0.43927062 0.4505877 -0.26198164 0.6563147 -0.061793078 0.35452494 -0.17249419 0.19628027 -1.1856439 1.2564876 -0.23151095 1.0314372 -0.7210381 1.3127743 -2.1456466 0.56348187 -0.31199446 0.2216172 0.9458283 0.092943266 0.09292192 -0.17295825 -0.2184489 -0.11929449 0.33869377 0.6736914 -0.30096927 0.009744182 1.7710931 -1.3430119 -0.088804886 0.8210796 0.030723523 0.17502432 0.42622504 -0.09584984 -0.21083188 -0.9500279 -0.56602275 0.7046223 -0.2830314 -1.356329 -0.57405674 -1.4901618 1.4333601 -0.034106046 0.8399914 0.06631512 -1.0003674 0.82384956 -0.0069889096 0.20888433 -0.862765 -0.71508586 -0.30764788
746 0.34758174 -0.33844513 -1.2522258 0.013779414 0.8773866 -0.5349937 0.5502462 0.047185782 -0.22414707 -0.20720275 -0.83044946 -0.19566227 0.03450788 -0.13901956 0.0984344 0.083034046 1.3222394 -0.6966224 -0.76883066 0.06529551 0.05574177 0.27783698 0.046985082 -0.5399546 0.7599497 -0.8263755 -1.4974592 -0.6620001 -0.22358333 0.8661995 -1.0378581 0.76298535 0.7132413 -0.6569597 -0.86959034 -0.09274323 0.86786836 0.64149195 0.5374708 1.3204318 1.0798568 0.1517579 0.10041734 -0.40642992 0.593145 -0.060986556 -0.60081804 -0.64824355 0.19535102 -1.3652112 -0.6456516 -0.90310293 0.46038434 -0.41377473 0.49897662 0.39620236 -0.75491625 -0.022249743 1.4525106 -0.7291625 0.20952642 -0.7252192 -0.533705 0.23213005
1089 -0.3594175 -0.0269331 -0.30382213 -0.3572579 1.509835 1.2118652 0.04051146 -0.5154585 0.17284703 -1.5379721 -1.2171509 0.6000439 1.0430849 0.47045073 0.5253925 -0.60232913 1.2650505 -0.13328454 -0.10680737 -1.3541241 0.38569167 0.32032588 1.0868648 -0.54486334 1.3968966 -0.37272987 -1.8071301 1.4012233 0.7623307 0.18666928 -1.7289621 0.6385796 0.05255068 -0.62502164 -0.71555924 -1.2778376 0.11939218 -0.28914058 0.50452393 1.4073551 0.7214837 0.13142179 0.45237002 -0.52241904 0.5057352 -0.8914918 -0.3509478 0.28538188 2.7400203 -0.31912893 -0.21292713 -0.9455551 0.6480683 0.5606938 -0.31787685 0.94390315 0.25192666 -0.6973009 -0.16519825 -0.8588559 0.030016867 -1.0143175 -0.00032062206 0.2182243
1928 -1.1353083 0.061846483 -0.27091956 -0.24675886 1.6755732 1.0091908 0.12815697 0.7223696 -0.8157973 0.08942996 0.12583339 0.26838788 0.7645781 0.0982391 0.7924156 0.26715085 0.4222834 -0.58422977 1.2691002 -0.26590347 0.8327946 -0.12618187 1.1708279 -2.325374 0.84853345 -0.47407475 -0.3837427 1.1846195 0.23914118 0.75864774 -0.29076427 0.4124711 0.2529141 -0.23940367 0.60668206 -0.31238815 -0.12045661 1.7353817 -1.4137738 0.40362436 0.65564835 0.16047403 0.41621608 -0.21553008 0.14003439 0.026279071 -0.49053088 -0.19333145 0.7422383 0.46064475 -1.9963173 -0.606139 -1.554208 1.1328636 -0.47417212 0.65764946 -0.1080408 -1.001066 1.1874084 -0.11510805 1.3080778 -0.4562551 -0.98292667 0.1997599
1883 -0.13586785 -0.9344516 -0.29463995 -0.30027345 0.8200832 1.025919 0.21191277 -0.4020385 0.41797483 -1.3199904 -0.74047256 -0.039021056 0.7034594 1.1843868 0.037537035 -0.2613038 1.1744537 -0.108516335 -0.37039217 -0.8028281 -0.124858215 0.10816498 1.0521861 -0.38675988 0.93941975 -0.20051067 -2.0368886 1.1060014 1.2695818 -0.0013302584 -1.8823564 0.18646197 0.14067526 -0.8273602 0.064366445 -0.9363982 -0.0064540463 -0.6856747 0.64288354 1.2588559 0.3565874 0.33991757 -0.0058721956 -0.66451854 -0.09440376 -0.88122034 -0.115384825 0.40408522 2.2349045 -0.66141057 -0.5128291 -1.8300043 1.0145805 0.7301124 -0.2989496 0.45058176 0.17234974 -0.8765827 0.1551578 -0.8243717 0.13745515 -0.084263325 -0.6769758 0.32426438
1777 0.3189491 -0.42752624 -1.4745027 -0.09482373 0.5079266 -0.08072005 0.20131989 0.34017223 -0.09833707 -0.21432045 -0.6411111 -0.58390117 -0.18382916 0.576151 0.28386855 0.5686397 1.4881464 -0.3287327 -0.48551726 -0.13438882 0.27029383 0.33751443 0.11010538 -0.49687275 0.49252996 -0.5509693 -1.2213529 -0.5511125 -0.27637357 0.6278773 -0.76597595 0.4806949 0.78969204 -0.28418094 -0.734786 -0.23974508 0.7240327 0.23237239 0.9210645 0.7045575 1.2840623 -0.021233566 0.33117422 -0.37751228 0.666443 -0.41023266 0.033417504 -0.5960157 0.14323513 -0.9293171 -0.19180486 -0.99848753 0.38314882 -0.04216936 0.61486566 0.6355312 -0.42275718 0.4178458 1.3225253 -0.643704 0.5508318 -0.66233313 -0.5304029 -0.17230137
2916 0.08055105 -0.15367852 -0.8788447 -0.34971556 0.67203015 -0.32586294 0.29095533 -0.0061148894 -0.5325674 0.04785886 -0.9796321 -0.12562774 0.17159586 -0.106501855 -0.40849584 0.25579816 1.5748717 -0.77228814 -0.2164281 -0.28087315 0.5162701 0.45810938 -0.16262417 -0.68420637 0.5488518 -0.58653533 -1.0362471 -0.7226691 0.31740278 0.4892296 -0.7391263 0.7562816 0.7769948 -0.56855386 -0.8677401 -0.31621227 0.49790597 0.74151456 -0.3921418 0.6327421 0.9361172 0.24066278 0.07113097 -0.84834045 0.94277817 -0.5748195 -0.6572406 -0.29177362 0.6493879 -1.1237262 -0.610601 -0.68993115 0.64873785 0.14881206 0.6620341 0.6433561 -0.41241568 -0.24939169 1.4079672 -1.2441816 0.75017256 -0.65801376 -0.7882585 0.0698415
459 0.25046545 -0.1513921 0.42141986 -0.51003194 0.32002673 -0.5735834 -0.602414 -0.737426 -0.9566559 -1.2806396 -0.5779308 -0.6935737 1.441161 -0.22671774 -0.019985963 -1.1988443 -0.35287827 -0.6005702 1.1278362 0.8790682 0.45924696 0.5771226 0.0103474185 -0.06881566 -0.7063364 -1.9922955 -2.1852932 0.25051156 1.2103511 0.22812699 -0.1844671 -0.9500499 0.01522046 -0.8538963 -0.3436686 -2.3303983 -1.9292448 1.0870298 0.72325736 -0.16823067 -1.5704595 -0.2841383 0.48859647 -0.2379691 0.08854084 -0.8698422 -0.33707476 -1.3116549 1.266901 -0.018332751 -0.5793382 -1.4264059 -1.2571307 -0.26250365 -0.06832142 0.067653865 0.03592001 -0.1814094 -0.42499214 0.26659492 -0.47298515 0.32160643 0.6006603 -1.0835716
1392 3.4668512 -0.08917844 -1.3498939 -3.9843152 -2.1494784 0.3307865 2.0627892 -1.1108294 -0.41913158 3.5321085 -1.0638032 1.85949 3.491217 4.585305 3.1490822 -0.8412615 1.343446 -1.3390434 -0.42777085 2.0464869 -0.48667133 -1.6647308 -1.1510735 -0.0932761 0.8546849 -1.5834236 2.051305 -1.0403286 -2.8664522 -2.6342216 3.3494196 -3.42137 3.0350902 2.2638748 2.4001467 0.41134214 -3.44641 0.72129226 1.7081683 1.0853623 2.2419343 2.4216526 -0.45364147 -1.7614378 1.5292463 1.4961165 2.4507935 -2.4048884 -1.527825 -1.0446168 1.1849467 1.1576656 1.5879112 2.0030558 -3.6985722 1.0044098 -0.5278267 -2.154193 -4.9982605 0.43018842 0.05615739 -2.1349475 -2.369604 -0.4381448
237 0.20097212 0.38635314 0.82367015 1.7018949 0.36316574 -0.9386705 0.8432425 -1.9286674 -4.4287596 0.9710833 3.5578792 0.77134633 0.14255427 0.5273017 -2.4065068 1.6017655 -1.0432745 0.6065606 0.47219008 -0.39626053 0.8102301 -0.7789175 -1.9254012 -0.46453503 -0.26784733 3.620904 2.7372808 1.9258261 4.003036 -0.50867814 -2.34911 2.3435585 6.824601 1.6652628 0.15426151 3.5409706 2.1770954 0.23634864 1.6149497 1.4594152 2.2217617 3.5013483 0.61951756 -1.1912811 -0.09633829 -0.40899897 0.7061995 -0.91688114 3.412401 3.6512578 -0.9236735 2.2735136 -0.45284677 0.117678426 -0.3905532 -2.832282 -1.3520582 2.0437338 3.121846 -3.342578 -0.06739361 -0.49180558 -0.8091357 1.4561267
2761 -0.39394623 2.922754 -0.92648095 1.5128393 3.4638348 2.1927042 3.0723214 2.0472057 1.729141 3.3031905 0.74262816 -0.6346015 0.7152808 1.4498556 1.3660879 -1.6240655 -1.0806515 2.4981387 1.8035971 2.4149852 0.5815099 2.1526687 2.7359185 -1.2218333 3.9524152 -2.0408132 -4.1016207 -0.15790384 0.9431987 -1.5756136 2.2755818 -0.9811464 -3.8302398 -1.2878766 -0.3667518 0.68184274 1.1117661 3.1449575 0.5261229 1.0334526 2.0965953 0.45494655 -1.0226563 0.8590289 0.7988783 -1.3588024 2.1717942 -0.9781768 -1.0460799 0.16656783 -0.8083647 -1.2675805 -1.1119431 4.1235948 -2.9499183 -0.14927307 0.79257286 -0.3533177 1.4814516 -3.3099976 -2.0165627 0.117994465 0.49274716 5.774859
1258 0.36126167 4.2023087 -3.6546376 1.3386099 -0.27319145 2.244128 1.7280865 1.2868863 -0.7374351 2.0885947 2.4331036 2.5545824 -1.306452 -1.109058 -0.30786368 -1.7123226 2.6021671 0.8063704 -0.34620056 0.026917925 2.167428 -0.26255497 3.2900305 0.6295094 -0.4121556 -2.371602 -5.9716806 3.0142515 1.0328246 -3.0228698 2.0756564 1.7381113 -3.7569675 -0.14800614 -3.0585835 0.87503463 -1.7591796 4.0788155 0.11376584 1.9951382 -1.8944263 -2.6175935 -0.7365725 -1.9921871 0.20645182 1.5592669 2.5620086 -0.36821505 -0.8054595 -0.5960661 -1.6795048 -3.0169067 -1.3441631 3.6383617 -4.9146533 0.7549692 -1.0860748 2.5678942 -1.5683069 -3.181917 -0.11754567 0.1771859 -0.9283694 2.564969
1270 1.499746 2.222972 0.03787989 -7.5386205 -1.8937496 1.5421714 -2.9439194 1.391876 -1.8939557 0.5580137 1.4022841 -0.9158624 3.1695025 0.028093884 2.731374 1.7903497 2.493433 1.4510542 0.45158762 -1.3732904 -0.21541199 -2.8766065 -0.27692974 -0.7231076 -1.3686955 2.6238885 -2.724232 0.03020839 -3.4166856 -1.0319833 -0.91205984 2.672053 -1.4828165 2.2604349 -0.33998817 -1.5312704 -3.320814 6.5006967 -1.9203104 -0.56050783 -3.4290009 -0.034906596 0.04487105 -0.11689702 -1.3628739 2.4792807 0.33634913 1.6771402 -1.5348344 -1.1422328 0.42373005 -3.9297256 -0.5830846 2.1158204 -0.44243655 0.08816238 -1.5109332 0.028099356 -3.110582 -0.38413802 1.3038952 1.3909957 4.825454 -3.086223
2419 3.8500075 0.26089647 -4.7147145 -0.8120572 2.277122 0.6311406 0.7566799 -2.908223 -0.9342981 0.5738813 3.7510772 -1.7119598 0.2321789 0.67768866 5.594374 0.3268341 -1.5611832 -0.7770308 -0.08669421 5.1890717 -3.183455 -1.5178059 1.8303305 1.4684954 2.5182636 -3.0895395 1.7749757 -1.7722088 -3.8383114 -1.9809002 4.812162 -0.8792694 -2.177905 0.17346548 0.07106713 0.13061222 -1.9368937 3.5964162 2.6664073 4.411073 4.0763903 -2.4911416 -1.2698863 2.2117543 -1.8079807 0.15004294 -1.421272 -0.6595762 -0.71944934 -1.0717692 -0.708772 -3.771153 -1.2370741 2.8137496 -4.729351 -0.7138089 0.9716592 -1.709431 -4.2289352 -0.531858 0.22176822 -3.318962 -1.5432807 -0.34226942
1336 -1.1144344 2.1281035 -5.348571 -2.04255 3.981169 -0.010925348 -1.9802947 0.95096177 2.4185514 3.9499624 6.3485084 -0.93902856 0.4940468 -1.7731632 0.14689082 1.4791974 1.4157015 -1.3629078 0.9895037 4.109324 1.8184344 -1.3192264 2.6694388 -2.0566592 1.3227 -1.9435381 0.74958163 3.1375115 0.14985786 -3.4797854 0.21621285 -0.6153044 -3.2652242 -0.20147148 1.5515455 -4.487466 1.0843773 3.3898892 -4.671991 4.298752 0.80529445 -1.8642843 0.110209994 3.5455625 -3.481587 0.56905746 -5.55688 -2.6502755 -0.13806395 -1.8151398 -0.82699126 0.80269676 -0.7414005 4.0074625 0.6033567 0.21917774 4.3613296 -5.0947886 2.1855607 -0.98349303 -0.187427 -3.1996932 1.364657 -2.7429743
2929 -0.7043806 -1.6866081 -1.1549486 -0.99077576 1.4612391 0.5423787 0.31046095 1.0202525 -0.20546708 0.3452084 0.74351585 0.5101474 -0.994593 0.5111184 0.79597825 1.1999949 0.40966794 -1.1682713 -0.62361115 0.92463624 0.734554 0.5218018 0.80292195 0.51484466 0.6472931 -0.7471402 -0.5747405 1.5028745 0.60995996 -0.6587657 -1.102063 0.72246414 -1.4737563 -1.031342 -0.5363858 -0.95493495 -0.6749947 1.4553764 1.3675344 1.2459106 0.10413269 -0.78719145 1.4191673 -1.1043826 0.50261486 -1.4068807 -0.52928036 -0.48377046 1.125483 -0.17942816 -1.2481492 -0.91404665 0.13833156 1.0035863 -0.6237904 -1.2333231 0.608356 -1.9598986 -0.07590949 -1.4965657 1.5209664 -0.8060838 -0.29809034 -0.23462348
2668 0.5691381 -0.5753129 -1.317486 -0.7772562 0.8013517 0.041492727 -0.16475776 0.14595881 -0.61204714 -0.3255331 -0.91073614 0.14553556 0.32278356 0.16534548 0.99152035 0.19764608 1.1448797 -0.51691544 -0.29586703 -0.10558594 0.2498761 0.051450685 0.3934683 -0.31603187 0.66274965 -0.57826525 -1.31016 -0.7804263 -0.13945097 0.3525121 -0.6960473 1.071531 1.2647551 -0.09826563 -0.74802744 -0.09417985 0.26680323 0.8954789 0.42126912 0.9544067 1.2929385 0.79481345 0.36296102 -0.8228317 0.8339691 -0.5060762 0.14694045 -0.5101114 0.280248 -0.985643 -0.5198731 -1.0923319 0.10024583 0.48538506 0.92728555 0.36683637 -0.7296285 0.2218993 0.88963866 -0.9537982 0.8867599 -1.1077707 -0.6562699 0.09229209
1728 -0.3634409 0.38851765 -0.08795987 -0.0377379 0.7924363 0.33958635 0.9667008 0.5710528 -0.17515513 -0.70661014 -1.8225118 0.70770496 0.5995317 0.37050477 0.44464412 -0.23092352 1.3154111 -0.38029996 0.82377744 1.0255547 1.3778229 0.41344965 0.29964337 0.4976232 -0.028454438 0.12852958 -0.45811704 -0.71804607 0.53999096 0.16135438 -0.86521655 -1.1946483 0.3161553 0.16668597 -0.64789265 -0.38520375 -0.3179275 0.41072887 0.18246152 -0.12326784 -0.413418 -1.4283166 0.8224353 -0.8246995 -0.42444867 -0.7275866 -0.57020426 0.15170908 1.64122 -0.50668645 0.08346974 -1.5738891 -0.6340149 0.19872788 0.3776785 0.0085231 1.2639953 -1.0002972 -0.20285638 -0.9693245 0.3350387 -0.5010023 -0.2955834 -1.2531254
1608 0.65270495 -0.7381789 -0.9984748 0.41256905 -0.402703 -0.8109114 1.0867517 -0.20156214 0.6400922 -0.660207 -0.846183 -0.5518807 0.90637964 -0.021138715 0.46600664 -0.0142107885 1.2310661 0.045561794 1.0297617 -0.18689974 0.10709383 0.29321185 0.47176147 0.06322367 -0.7703206 -0.94774914 -1.2046547 0.71977866 1.1585199 0.48673654 -1.0091127 -0.7521668 0.61995703 -0.5067921 0.232897 -0.118417926 0.19265902 -0.17447795 0.40713587 -0.031866703 0.021247461 0.52447677 0.26767305 -0.24654919 -0.18737878 -0.41207477 -0.23232472 -0.30278504 0.1816471 -0.24699461 -1.5742176 0.006991666 -1.5241588 -0.27530697 0.9588528 -0.49438763 0.86705214 -0.58778775 0.040521245 -0.24608073 -0.078723505 -0.9423149 0.054071557 0.14651799
504 -1.679019 0.40605298 1.4612061 -3.0645227 2.865666 -0.18219192 2.3375432 -0.34299693 0.7728126 -0.021909017 0.9475338 3.713054 -0.80542636 1.0259837 -2.1105402 -0.011072172 -0.9236893 -2.1717846 -0.35964218 -0.69234717 -1.1793573 -1.221304 1.9668329 -1.0072081 0.44200173 2.1020355 4.4903817 -3.0649383 2.8401182 -0.3800659 -2.9979904 0.32857972 -0.6811767 -0.7782404 -2.8093302 1.2718649 -2.161395 -2.477461 -1.6503139 1.7623979 1.9080726 1.1736175 0.055098835 1.3974376 -1.1963048 2.4085665 -2.2616687 -0.8782043 0.2573217 0.53940547 1.922798 -1.2591573 -2.839828 2.007586 0.3328434 0.19094247 1.3154993 -0.8480502 1.4648391 -3.4050817 1.2041306 2.6793625 -0.7015719 -1.6402279
1094 -0.23963614 -0.19600712 -0.014215973 -0.091332406 0.7430339 0.27241448 0.35710037 0.4227092 -0.75505936 -0.89021647 -1.8025886 0.63700545 0.22992967 1.0747389 0.7749392 0.10642791 0.91864616 -0.18235189 0.56009465 0.6415713 1.1647351 0.20736283 0.110891275 0.9081353 -0.3064736 -0.25472245 -0.78654337 -0.3528863 0.46735322 0.26516575 -0.8811965 -1.4352301 0.5798333 0.99263144 -0.349511 -0.6433323 -0.049787324 -0.3407911 0.37404236 0.34782982 -0.1930235 -0.7774894 0.14145859 -1.0631638 -0.3624395 -0.5880499 -0.4341104 0.41183916 1.4145396 -0.9561265 -0.14752243 -1.1919922 -0.654485 0.33318266 0.3882438 0.63987756 1.1371439 -1.0874947 0.21782017 -0.6893835 0.46501732 -0.1977559 0.015243678 -1.1890892
1524 0.34084275 -1.1419356 -1.6347988 -1.1251673 1.2745821 0.21983181 0.32103398 0.7384139 -0.17060304 0.07144926 1.2466931 -0.19010246 -1.092196 0.5604436 0.93995994 1.2304916 0.26422706 -0.9914967 -0.31134808 0.9585747 0.7175551 0.4357065 0.9502052 0.2742791 0.2877632 -1.7175355 -0.658257 1.5238965 0.42354512 -0.6009244 -1.000882 0.9588405 -2.0101535 -0.60396564 -0.1399539 -0.5945939 -0.51635885 0.85148364 1.0391124 1.26482 0.32637933 -1.2480417 1.1699864 -0.6294858 -0.16845042 -0.6459305 -1.5385814 -0.2840439 1.375482 -0.30966556 -1.1596752 -1.2834361 0.21206716 0.85040545 -0.25348145 -1.1130153 0.89530736 -2.20717 -0.6954445 -0.74306756 0.8570482 -1.4544991 -0.25086758 -0.60520613
380 -0.38146493 -1.113392 -0.5062662 -0.46849838 1.1734079 1.1079941 -0.10072472 0.12413969 0.3347983 -1.2669355 -0.74196064 0.19021618 0.8512927 1.2627287 0.661153 -0.3201956 1.719689 -0.3481147 -0.38877094 -0.5906108 0.320836 0.061586518 1.9137895 -0.81467384 1.3090183 -0.17739104 -1.7891521 1.2141975 0.7556635 -0.6528063 -2.2333786 0.45887345 0.6125251 -0.15241025 -0.5602267 -0.7220995 -0.01351463 0.12199513 0.6087978 1.0475832 0.39561573 0.4463673 0.21129245 -0.29657808 -0.31046855 -0.796686 -0.7333178 -0.003524063 2.2361717 -0.70458823 0.30977285 -1.3923775 0.7996819 0.2777415 -0.3179737 0.45224476 -0.014885361 -0.84253514 -0.4894679 -1.2043939 -0.10080973 -0.5973112 -0.96631646 0.0011581742
2444 0.77464426 -1.1604215 1.0180117 -0.42016253 3.135797 0.905041 1.301212 0.1893774 0.33585566 -1.6665232 3.6079285 -0.54782575 -0.6436019 -2.4873152 3.2365735 -0.76689255 1.6160405 0.25909466 1.5781734 -1.7684784 -2.0531566 0.24347651 2.0201433 3.8386114 2.7957218 -1.3309419 -1.1731266 0.60228705 1.0398481 1.7842044 1.6889073 -0.036146883 -4.212499 -1.9778938 -1.3601357 -1.8289592 -0.80339885 0.7636817 -1.0133165 4.881182 5.34629 -2.974545 1.9210546 0.08673497 -3.656685 3.4417565 -2.1967676 -1.1726427 2.0949295 -1.7294017 0.24540365 -0.5757008 3.3548443 0.25749388 -1.9914255 -4.0181932 -0.21825475 -3.2801037 1.5744972 -0.5202315 0.46530762 -1.2054622 -1.320513 0.6810503
1917 1.4144899 -0.16559152 -0.7391207 0.37571326 1.0166764 0.0779797 0.13438563 -0.2130104 -0.4510452 0.87980485 -0.67768353 -0.16341653 -0.041480195 0.19574939 -0.26979423 0.29219532 -0.4277034 -1.0349209 0.2164462 0.7236048 0.92220485 -0.3960488 1.3674535 -0.43794078 -0.20871466 -0.8451362 0.5552716 -0.3739291 0.19074605 -0.5654429 -0.5549746 -0.14428219 0.38874274 -0.11049829 0.5210568 -0.47399715 -0.48471302 0.407615 -0.26170528 0.6470452 1.1982733 -0.6593576 -0.105143525 0.4915372 1.0203555 -0.36934063 -0.96206325 0.398394 0.6962008 -0.22687718 -0.47465006 -0.8322686 -0.16946119 1.422393 0.2839187 -0.27433443 0.5731837 -1.164196 -1.3041328 -1.0140936 -0.048743613 -0.9145774 -0.16855119 -0.50808233
1169 0.42862916 -1.5550834 -1.1735018 -0.504934 1.1732926 0.341947 0.36766675 1.1537827 -0.18749546 -0.3040373 0.58906806 0.29209352 -0.3144889 0.3052247 1.1375059 1.1550457 0.43776935 -1.0968384 -0.50623906 0.5504086 0.68739766 0.38789833 1.2046982 -0.039872434 1.0858158 -1.3498219 -0.81381303 1.8296808 0.4674654 -0.48960534 -0.438145 1.6817889 -2.6651824 -0.691234 -0.68643814 -0.8361173 -0.5197652 0.91534424 0.52333117 1.7101641 0.5501706 -0.9537392 1.0249196 -0.8368115 0.4435685 -0.80452085 -1.2890809 -0.043791734 1.4871074 -0.061871864 -1.8085593 -0.86246717 -0.18160841 0.731357 -0.6300771 -0.93677443 0.6554227 -1.8871002 -0.34846842 -1.2509593 0.7455281 -1.9150844 -0.9000439 -0.29232168
807 0.12911391 -1.1500412 -1.2918638 0.5147311 -0.73787564 -0.8691298 0.6033835 0.009734922 0.7451411 -0.8799911 -1.7856001 -0.5716394 0.4193339 0.4432495 0.27896124 0.34504285 1.3703133 -0.010295418 1.1297314 0.06939764 0.22978622 0.19358124 0.51915115 -0.20781986 -0.2287735 -0.9181813 -1.114386 1.1864022 1.5636828 0.24580215 -0.49076995 -0.9174593 0.8519984 -0.28882542 -0.029525636 -0.1607121 0.9203556 -0.10004874 -0.37333727 -0.31865284 -0.45630005 0.30497283 0.4682864 -0.69002527 -0.4257415 -1.0437744 0.43233314 0.6907237 0.66995937 -1.355222 -1.3613082 -0.9299108 -1.20201 -0.13146882 0.49877375 -0.40332094 0.53774023 -0.5132836 0.63711005 -0.46394423 -0.25901803 -0.13732904 -0.18871638 -0.39148185
2504 0.84723645 -0.3929795 1.034876 -0.35507268 0.5922771 0.09953969 0.64416957 -0.33899924 1.1399305 -0.08700781 -1.177889 0.41103932 0.99608207 0.7135377 -0.19981524 -0.12788257 1.1689006 -0.900059 1.0010879 -0.014830882 -0.16767599 0.39243117 0.15911417 0.46922696 0.07098029 -0.3498893 -0.6914352 0.5768026 0.45501268 0.38237125 -0.85294616 0.6081944 -0.5270071 0.21293385 -0.5849538 -0.37713495 0.056565356 -0.41346467 0.91146475 -0.827827 0.13265854 -0.65111434 0.5939014 -0.9993465 0.14960173 -1.1516589 -0.2591663 -0.6168806 0.44190025 0.13539791 -0.16982134 -0.6627236 -0.41782373 -0.40375856 -0.043660637 -0.8240952 1.5080904 0.5869919 -0.027166244 -1.129289 0.78966224 -0.8577666 0.2757393 -0.74271864
1620 1.9279246 0.32140756 2.2649426 -0.21888661 -3.0156586 -3.3290422 -2.0725884 -0.32998142 -3.2909472 -1.309352 -0.21313375 -1.7118326 -1.9458693 1.4151173 0.44088405 2.3662453 2.4447253 -2.9295802 -1.6441281 0.86491257 -0.7585115 0.7768027 -3.3886101 1.4001815 -2.6714113 -0.23900127 3.0805671 -0.3306829 0.5432754 -0.05661381 -2.861416 -3.796228 3.8432016 4.472672 1.514613 1.3916916 -1.5640304 1.8543352 2.1711836 0.14662004 -1.4634795 0.8877732 -0.35157073 -0.24482347 -4.956939 -0.53811336 -1.5336246 -1.7824169 3.550142 0.42649278 -5.6001825 -2.0958772 0.7010992 -1.7693002 -3.2235022 2.7295384 -2.7457368 -0.15604521 -0.942118 1.2177747 0.87246054 1.3395504 0.72021884 -1.7927669
2393 -1.4223602 2.2836664 -1.0731248 2.9585195 2.664357 1.7233332 -0.8909568 2.5775676 -0.84943426 -1.204001 -2.770774 -3.0477028 0.7021294 -1.7005786 0.490397 -1.4513184 2.0915637 -1.1002594 -2.2660842 1.7161045 2.5055108 1.6490681 0.37562048 -0.41512904 -0.50674045 1.5159194 0.27409077 -2.6448038 1.9637717 -0.7910338 -1.8839556 -3.6580265 -2.3077967 -1.789785 2.1051416 -1.6208869 0.4009712 3.7866 -0.88207644 -1.7287515 1.6974208 3.2068589 3.8302593 0.7757915 -0.34572226 1.2699566 0.020670228 0.5867743 -0.28541097 -4.6705065 1.4599836 -1.0764115 0.24380787 -3.3438756 0.24643102 1.2616284 4.186512 3.1570382 -3.8216946 3.7849445 -0.08778847 -0.8795686 -0.9334151 -0.0323005
