2996 64
4 -1.8524553 -0.19068855 1.5769519 0.5930495 1.9535857 -0.6358133 0.05633097 0.1164788 -1.2806875 1.621193 0.55660295 0.3963612 -0.5302898 0.38460952 -0.78280944 -0.88283527 -1.9212595 -0.38490465 -2.2957816 -1.0195433 -1.7849325 -0.4409735 -0.60650855 1.6374061 1.4724461 0.26214182 0.9651781 -0.7936099 -0.6967686 1.6833313 -0.59337485 -0.4854919 0.8989667 0.9712014 -3.2172074 0.55579215 0.27977476 -0.4694281 -2.4553416 -0.4355957 -0.9339226 -0.69851553 -2.3933854 -1.2896702 0.14455584 -1.5329131 0.3518288 0.0012130437 -0.10959823 1.3720208 -0.091686964 1.546498 -0.65804374 -1.1563654 -1.0814198 -0.017003797 0.3238772 -1.342951 -0.12719882 -0.7452991 -0.4608459 1.0160983 -1.2438649 0.2573007
22 -0.08444984 -1.7114875 -1.8084283 -0.28284326 -0.3153463 -0.66805995 -2.1189148 0.97377414 3.4341512 -0.44221735 -0.49409497 -1.0790454 -0.7970825 0.34270695 -1.1826895 1.5646228 -0.7834641 0.81866246 0.98912764 1.9699641 -3.0237293 1.6642131 -0.2406386 -0.9386858 -0.21103647 -1.2787906 1.351392 0.10863352 0.2694122 -1.2341919 -0.49863696 -0.8159232 -1.3690047 -0.7972084 3.901812 0.9006006 0.57637024 -0.14481895 1.9457296 0.4028939 0.22779058 1.5950433 -1.2814828 -0.123401865 -0.7528646 4.399423 -1.9000936 2.7458148 -2.754999 -1.1769813 0.8570228 0.3206949 2.0443323 -1.2044388 0.5964076 0.88220453 -3.1603065 2.8661835 -1.0217849 2.4274573 0.8581047 -0.97132075 0.3381548 -1.785123
3 -1.1144613 -0.88281715 -0.34216377 -1.0767679 -0.37081817 2.6186554 2.2326062 -1.3523977 -4.190701 -2.674851 1.6380765 -0.18148498 -2.3831403 -1.7451111 2.6510258 -2.7067676 4.2906528 1.1060054 2.1290188 1.7679845 5.892246 -1.7362596 -1.8496174 -1.2582366 -3.6964633 3.332704 -5.3366046 -0.44765452 0.33402008 3.1707852 1.6606755 3.8366034 1.1463625 -4.829383 2.3040352 -3.1935363 -2.6250396 5.205575 -1.092376 2.6606965 -1.4745108 3.231305 5.696845 3.2813766 -1.365209 -3.9552555 0.13688853 -1.3255618 0.18347628 -1.778806 -1.3626615 1.854062 2.530411 2.0915809 2.959215 -1.9887015 -0.54922605 -2.0550294 1.8312044 2.1335511 -2.6562862 2.1177258 -0.76502234 -1.7824953
45 1.0043287 7.0601945 -4.2889533 -3.1147356 -1.2356029 0.88454574 3.1928136 -2.6059046 -0.27540797 -2.3538063 -1.8221773 2.0232613 -0.72825557 0.5708405 0.7932468 3.0326948 1.6274674 0.77510726 4.573512 0.16383888 1.4239895 1.6016002 2.994085 -1.5099514 5.823299 -2.866567 0.87317187 -1.3741024 -0.9958903 -5.6490273 3.0954554 -3.5413523 -3.5456622 0.66452557 -0.9118164 -0.9342444 2.6322675 0.270604 3.2772145 2.0854893 -4.4544106 0.09382043 2.046671 -2.4708157 1.835213 -2.397096 0.14488398 -3.7028348 -1.0284804 1.1959535 0.56254613 -7.11638 -1.2897404 4.471548 -4.2381573 3.1655672 -2.6995962 -2.0453656 -2.776143 -0.020687196 1.1432531 1.1770982 4.0889244 3.6921227
7 5.020032 1.5494883 -2.5656877 -5.429147 3.30933 -0.80888003 -1.377014 -3.4349186 3.1143188 1.5821952 -1.6282399 -0.8267659 -0.6593725 5.2921176 2.4870896 -2.8159149 5.361008 -4.5008717 -1.2773161 0.94623923 0.49469897 -3.5086987 -1.9284868 2.593297 -1.015199 -0.12819254 -1.3768212 1.3499074 -3.3497436 -2.3794234 -1.714959 -0.40578377 7.978429 0.069230095 -0.24166751 5.156654 2.681929 -0.94253737 0.4150416 -2.6709623 1.820347 2.3481538 -0.26445556 4.100322 1.7760317 -0.6688652 2.03389 0.6979266 -0.90467644 0.947375 0.29354456 0.5877528 0.573663 -2.343615 -0.16192807 0.17722782 3.1956372 1.6279045 -2.829147 6.503266 -1.8200575 -2.9770288 6.814441 3.6423826
28 2.039093 1.3357582 2.098824 0.7714681 0.98839945 4.217342 1.8616295 -1.4427688 -3.756642 -1.4564058 1.2393863 -0.4523564 -0.8857053 -3.7646422 0.83395374 3.6479642 -3.1701424 0.80409 1.5021847 2.8353777 -1.8794369 3.5499065 1.2032928 -4.417311 -0.63065004 2.5417807 1.8327426 4.3594117 4.424826 -1.8180239 -3.2484925 1.8761822 2.6803775 6.4015737 -0.24172147 0.8692974 1.5737758 2.5535488 0.947142 -3.63386 2.8786683 -0.52689934 -1.0234445 5.7518883 -0.2093044 3.1600664 1.5403304 -3.8181024 3.7344582 3.8011227 -2.0154238 -0.037198372 0.16207254 -4.6050167 -0.84597874 -3.8727882 1.0246696 2.7704139 1.7130165 -3.5221193 1.7766135 -5.687105 -2.8218882 5.125257
42 -0.22144467 -2.5302103 4.9591336 -0.9375498 3.9825778 3.1180172 -1.6127702 -2.9333377 -0.97204316 -0.07617438 2.81828 -4.7166624 -3.854189 1.5871012 -2.673398 -0.57914406 -0.6030232 0.3728566 -2.8319635 -2.8230002 2.3903868 0.6555391 0.5888352 0.80731004 -1.1704148 -1.8340745 -3.5086527 2.090217 0.8367764 -0.24426872 2.506552 -3.1739159 -1.9014871 0.90563536 0.51029825 3.9674532 -2.0291598 1.4457484 7.3004103 -2.195217 -0.3084565 -2.2021246 1.0476173 -4.5247345 -0.80966944 -5.12457 1.5623448 4.130469 6.5571766 -4.384725 -0.4171614 -2.9413145 0.17524105 2.865105 3.326856 -2.6202042 3.049045 -0.8525341 0.96659076 -1.165126 0.43746495 -2.0416713 1.6167637 4.294709
23 5.8546057 -0.24132134 -0.63932055 1.6255991 -3.343667 1.119167 2.912521 -0.67050064 1.2139738 -5.1555657 -2.2814243 -2.263568 3.5798059 1.5103344 -0.24889055 0.4333592 3.1668932 2.699435 0.1158331 5.154742 2.1599603 1.3415879 4.92987 -0.6096185 1.4573532 0.49283668 -0.42145845 0.6906729 -4.0288405 1.0746398 3.1246579 -0.4104741 0.2730383 1.6965499 0.10666804 -2.1385524 -2.367557 0.035333868 -0.5642294 -0.044418484 -1.0777009 -8.273447 7.4363804 -1.9231063 4.68534 0.27266586 -3.7947404 0.61702675 0.20318906 4.613913 -2.1784768 0.72650224 -4.2481914 4.833436 0.98115116 1.7578837 -1.1281055 0.69652367 -1.9510044 3.7133393 1.5507231 -1.4481019 3.9113936 -2.0546505
25 4.2096434 1.4522017 1.2184365 1.9103148 0.6846794 -1.9664997 2.6692724 -1.5114547 0.9285868 -1.1671065 -3.2118323 0.5954578 -2.3190513 -3.583992 -2.4759731 -1.1877795 -0.74227107 -2.5920928 -1.4087048 -1.5604807 -2.144973 2.6945894 -0.10151378 -0.79927075 -1.2220979 3.1247969 5.087909 -1.8024637 2.2049303 0.7617333 -0.34631836 1.0661727 -2.6134663 0.14821264 -0.25992364 -5.020647 6.1612926 -1.1140087 -0.12335335 -3.7522736 2.77186 2.1604455 4.7414045 0.37718484 1.971424 -0.3689199 2.8586776 -5.2624555 4.0973434 -6.466481 1.6607988 1.911768 -1.4961367 0.10032755 2.2748885 -0.7757924 4.9351516 1.1561548 -0.6457519 -3.3620565 -0.32127094 -3.321442 -0.9175678 -1.0061795
26 0.80549484 -2.0352523 -2.6919878 -0.42306462 -0.9823421 -3.346318 -2.1725423 -1.5713373 -3.762326 1.2387426 3.2425206 -1.3805147 6.3013825 1.5461154 0.52424717 3.4387043 -0.40722373 1.8462901 2.4095178 -0.85235745 6.9680934 -2.7038386 0.5262758 -3.3593965 -1.3606052 5.438223 -5.6336074 2.4316845 0.2174032 -1.2976083 0.7684278 3.4942806 2.495584 -4.2626843 -2.5627055 -3.685062 -0.04578042 3.207765 0.35656396 3.761571 1.614201 1.1992083 4.3245177 2.2394319 -2.2381985 -3.6618385 -5.1246047 0.94267344 2.0685232 -4.033371 -3.0396707 3.1055293 1.9633139 6.794328 -0.74749905 -0.991779 6.248558 -0.23550339 3.6027906 -2.4326816 1.584419 4.0723834 5.103563 -2.7146075
24 3.2274952 -1.7931647 0.08932082 -3.354701 -4.375064 -1.6506244 -3.053725 3.3381405 -3.4414322 0.46295205 -0.48225743 -2.7000623 1.794968 -0.4512651 4.918575 -4.082143 2.7585464 -1.192772 4.5921884 1.3454624 6.8511076 -5.6196303 0.8560819 -1.823459 -3.4486573 2.6101296 -1.4521297 -3.5033636 3.635742 2.3629055 4.697681 -1.6314257 1.4850777 -4.630842 -0.41067043 3.0586293 -0.7473606 1.4609863 2.9832904 -0.9932586 2.358933 -3.407441 5.09602 -1.9417101 -3.3810155 -3.1140668 -3.6160753 -1.4392453 -1.4437878 -0.35720587 -0.93762213 2.3718612 0.26590043 -0.61883074 1.99817 1.8376247 1.9919689 1.7793357 2.9148984 -2.0004485 -2.7172787 3.184143 -0.99158317 1.737704
15 -0.13550729 -2.7825744 -2.4620943 -2.5640175 -0.7773715 2.8302536 -0.44191054 1.5741534 -0.68461996 -0.015645731 0.29029053 3.4658966 -0.1278704 1.9248894 3.0023522 2.055746 0.8667202 2.116486 -0.9436436 4.8958097 0.59101796 -2.0063498 0.9692735 5.082931 6.052093 -0.9603512 -2.3362427 -6.373192 4.0839067 -0.75974035 -2.2725189 4.578867 -0.33190838 3.3526347 0.61538637 -6.683734 1.4934106 -1.9737628 0.65480304 -2.4914203 -0.9976404 -3.0706785 3.7874513 -0.96753323 -1.9601457 4.3408556 4.4810934 2.2317824 -1.6015854 -1.0128963 -1.6064936 -5.276598 -4.0481176 6.2105675 5.569205 0.79951113 -1.1371969 -0.8674931 1.2771428 1.0855459 1.1023668 -0.6149428 1.2468381 1.9009995
100 0.59078413 -2.5680213 -2.6641963 -0.15688536 -2.2415776 0.07160742 -4.5652122 -0.9632422 -1.3052796 -4.075154 2.402283 2.3004434 0.44128212 -1.0188922 2.2979388 1.2125205 -0.3079965 -1.8152649 0.088206284 -1.5256289 2.4714189 0.015201423 -1.4254622 -1.6671551 -2.793463 0.9833854 2.478355 3.2003572 1.8308637 0.21533924 -2.9739208 0.17152849 1.6567078 0.487331 -2.802918 -1.0888968 -5.259251 -0.5021743 -1.2455 -1.5011618 -1.4582311 3.4178257 -1.3556244 -2.4623802 -1.5279044 0.5693352 1.0176153 -1.5129216 1.8940573 2.1276543 2.0501502 -3.3557117 3.3685062 -0.16124628 1.9145361 2.9590354 0.82431006 1.3624907 -4.844156 0.85099465 0.54885286 -4.07685 0.8788671 -4.6460156
33 2.600159 6.8451605 -0.74482244 -2.5985117 2.9125402 -1.573711 -2.7909083 0.25034714 4.2128696 -0.975991 0.6567838 0.8137524 2.6616 7.898905 -0.26186892 4.2318254 6.4110937 -1.8357699 3.5080004 0.5185603 3.042129 9.104708 1.4917628 -2.5006797 5.5743904 -0.7010705 4.232485 -1.9596457 0.70229334 -1.2335826 4.860469 -1.1306357 -0.96299607 0.7515183 -3.8720787 -0.18841238 -3.3482702 2.8938208 -3.2281961 0.0655139 -1.5539637 -2.0646946 3.4019744 -0.34446517 -1.9111682 4.181633 1.5883286 0.71213824 -0.73494726 -0.14634956 -1.5930359 -3.9755876 1.214952 -1.1763847 4.913256 -2.1551113 0.585242 -6.0872655 3.577728 -3.305246 -0.2798589 -3.4790301 1.1561486 -1.0624087
55 -0.55824953 -1.5201068 2.4309716 3.514643 -1.7768631 -2.8038497 1.952358 -0.4616841 -2.8824308 0.6865354 -5.0187964 -2.102261 -5.1804295 2.6852252 4.2844076 -3.9056494 -0.4881842 -1.9530509 3.940658 -1.021571 -2.445063 2.3849432 -0.09443399 -4.6427836 -2.060703 -2.2322152 -1.6902374 -2.198965 0.18711974 -0.07083901 -2.9967315 0.8519988 -0.44399875 0.2102057 -0.4386767 -2.0282903 1.7919569 -5.9270577 1.2196041 -1.3534603 4.4718175 0.31969884 0.5585425 0.3840885 5.747421 1.6737449 3.6029775 0.4546163 2.1283906 3.7916296 -2.214759 -0.051190097 6.552949 0.2592837 1.6617625 -1.483043 0.06233183 -2.1408167 0.6906163 -4.1045346 3.921589 1.5696858 1.0304637 -1.069817
20 -1.0394186 -2.2858667 6.9495254 1.0358992 -2.8743398 -3.7782784 1.0210118 -3.4713006 -1.2865174 -2.6646738 -4.983275 1.6847478 1.9543068 0.3871637 4.3107758 2.438047 1.6695596 -0.17931831 -1.743934 2.3920789 -1.536214 -0.3468874 3.5242336 -0.09073027 1.9162551 -0.8820025 -2.948036 2.9081192 0.67164326 1.291724 2.9151132 -0.466516 3.9093268 -3.7895763 0.671819 -0.56333065 -2.6598608 0.07015273 2.4040132 -1.4387629 -2.0060165 -0.70341194 2.2078567 5.968945 -7.3624725 -3.052884 0.8440434 -1.8544875 2.3057497 -7.0373783 -6.364394 -1.3984216 4.6995883 2.1699994 -0.23422451 3.2247066 0.10642265 0.52527845 3.5054986 1.8983421 -0.25954783 -2.7103753 0.09960119 -2.4943383
59 -3.5815763 2.481159 0.97799546 7.199892 -1.5344262 6.830419 -2.0808952 2.554087 -2.8825808 -2.6732628 -3.1778555 0.13195956 -4.679676 2.5217657 0.79768956 4.4743094 1.3594354 0.327202 0.6330783 -3.6913056 1.5316709 -5.016491 2.3734243 0.058486078 1.0806677 1.4786949 1.3747413 4.073783 3.8938146 0.41928893 3.4742565 -0.5498762 -1.3948144 -6.181663 -3.4376767 -0.18280523 2.0908113 -2.9310951 -4.1813693 -2.511538 2.272321 2.6479528 0.13407676 1.7965492 0.48277378 4.709514 -2.463693 5.8658304 -2.4564013 -1.0571976 -1.0878241 0.45810694 -1.5952531 -0.87365687 -1.3743016 -3.3185034 4.9807525 -0.6702777 -1.65163 4.9278517 -3.4730344 -4.0809965 4.771851 2.309635
37 1.0325425 2.9350715 -3.7766864 -0.022890288 -2.7318969 -2.426421 0.59208935 1.9072183 -1.6362652 0.0008333899 -2.733653 3.8844194 -1.5289651 0.87756616 0.6772419 1.2387793 2.8710434 -1.098385 2.227212 1.2179549 4.6519313 0.22636835 2.476086 -1.5921144 3.1157572 -4.313414 -0.32771 2.0659108 -2.7518704 2.3121905 -0.5708524 -0.86903703 0.42689493 3.1315093 3.0330398 1.5758581 -4.291027 -2.4194975 -0.76330644 -1.4649682 1.211931 -1.1790855 1.8098068 3.818671 2.4405954 0.3230531 0.40987062 -0.56317455 -2.5073118 -3.8752506 -0.10110444 -1.1082643 -2.8298676 4.4386907 1.3020427 -0.7824299 3.9339736 0.84273124 -3.050742 -1.3065901 1.8010386 -3.9316545 -2.95668 4.2028937
36 4.3329306 1.2666248 -0.0584152 0.6188071 -4.465321 -3.43379 -3.3752558 2.442609 -4.387381 0.9884219 -6.2019362 0.9056008 1.7501773 1.1466016 -5.6763725 1.9437045 -4.24672 0.42140448 2.5941007 1.1527485 -0.21439932 4.7997236 -1.3722304 -2.8298478 -2.922251 -0.5087545 0.8006537 -0.30136898 -0.3295811 1.8998789 -1.0833505 3.2828758 2.0570118 4.3796043 2.427475 -0.39532056 -2.2256851 -1.8162794 4.9819913 3.8850963 3.2964323 -0.5781287 -0.3354145 5.044144 2.5888765 0.52649325 1.2144402 -0.47962764 -2.9517632 -0.2762089 1.5398896 -2.7988148 -3.389559 2.1379356 -2.810454 -3.6575134 1.68876 -0.99085635 -3.726236 -2.3188996 -5.6671085 -6.697147 -0.7980651 5.588286
5 2.686599 0.96840024 -1.2473818 8.500121 6.6943355 4.584566 -5.917322 -3.7075403 0.014408007 0.45552924 -5.787944 1.4241621 2.3064086 -1.0508819 2.03992 -2.5586221 -0.31124526 4.6132984 2.5419357 -6.0201335 1.8265022 0.825045 4.4311776 -0.83549845 2.9648497 0.75486046 -0.28592932 -1.2003086 -2.2529953 0.6987278 -2.6179895 -0.4090542 1.6164575 1.3425952 1.938431 1.205488 -1.0350553 0.75742346 1.6481595 1.6358321 2.9037073 -1.721666 -3.2333868 -0.94751835 -1.3940505 0.25661734 3.4413528 -3.5907218 0.98527735 0.4590722 2.2529037 0.63025355 -0.05764706 -1.1661185 4.985323 4.167653 1.9556478 -2.3852592 -0.83171 0.40271953 2.85702 1.9767454 1.3711829 2.9792762
87 -0.39376628 0.7004447 3.1336303 1.6729746 -2.2809615 2.0690694 -1.404232 -1.5098253 2.293497 2.1449902 1.7756519 0.99301493 -1.616669 -1.7476878 -0.9859225 2.5593421 1.9423283 -0.32865095 1.6856456 4.477629 -2.7132814 1.2578392 0.5788238 2.4476602 2.2350347 0.4873843 -1.5530866 -0.16390498 0.7312951 -2.609285 -1.4898518 0.4121853 -3.1888652 1.1774832 3.5134656 -2.6241105 -1.2157878 -1.9457166 0.56654966 -0.69638914 4.808275 -0.6476712 -1.8787988 1.0150396 -4.6156135 -0.3898565 2.661882 -1.935543 -4.1124344 3.8505628 -3.82311 -3.2525384 -2.5025003 -1.6865088 -0.060736958 -0.5316064 3.3728013 2.1283736 -3.6939886 -4.575369 -1.6375371 0.046651844 1.1385999 0.57289904
1 1.6652687 1.3916608 1.854518 2.5170617 1.6882094 0.38628784 1.9800317 1.8241268 -3.4811769 -1.4698786 1.4744515 2.054001 -3.263574 1.743392 1.4990772 3.0589848 0.31697878 1.0416539 -1.0653956 -2.0097213 2.981368 -0.25712416 3.469237 1.4848157 -0.8438482 -0.41123956 0.52031595 3.0271978 1.1329046 2.8590045 1.0386307 3.3537655 -1.2001176 1.8857573 3.097631 1.9993016 0.37882605 -3.2717354 -0.7444222 -3.7851524 1.9660252 -1.9965119 -5.542611 2.290483 4.2590184 0.9485339 2.6032588 -2.6991804 0.6370339 0.07415358 -3.889765 -3.4011045 -1.4461224 -0.19571753 2.126034 -1.5253808 1.5086274 2.5933948 2.6705544 -10.227469 1.5298014 1.6574931 5.198314 1.1018585
40 4.5053205 1.3145312 -0.76347667 2.5653412 -1.5297009 1.7337042 -0.12919217 -1.3581035 -1.5622343 -0.45411816 -1.9666021 -0.28972492 -1.0510371 -0.88621044 0.4735258 4.0466967 2.068182 -2.781964 -1.2850118 -2.5535152 3.5879035 -0.5490243 2.3883414 -5.3263407 0.6588601 -3.9106035 -2.4377851 2.7357419 -2.2064636 -3.5914173 -0.19099131 2.4886408 0.2065417 0.51193887 -2.1331 1.9730116 -1.1561915 -1.9309516 1.6057596 1.7847334 2.0195146 -0.14288336 -0.66998035 0.043396343 3.9660103 4.4471397 1.9616299 -3.691174 -2.104987 -1.7641623 1.248572 -3.782782 -1.3786675 1.5922029 2.5038476 3.1546988 -1.6909405 1.9345623 3.257913 -2.1472402 0.8660487 -0.8722097 -1.0869784 0.8432179
14 0.3874046 3.231582 1.5322686 3.7056763 -0.83724153 0.92456174 -4.1088 -0.12365903 -0.65658516 3.0309415 -0.39535558 2.6815941 -1.4762902 -0.66351604 5.290583 3.3610194 1.9085908 -3.290743 -2.306746 -5.9505305 -0.9167986 -1.722353 2.4527953 -1.3160471 -0.85106885 2.816614 0.93369454 2.4414554 0.2598523 0.92487913 1.3518494 1.855966 0.42663935 4.7431517 1.8444284 -0.22310051 -3.1515648 3.2782266 1.0349691 -2.9891863 5.2272034 -2.1826537 0.61314666 3.2435977 2.355138 -0.8967114 2.356768 0.14426333 1.620471 1.951854 -2.5375504 0.9182635 -5.424539 0.24490583 -1.8072859 0.22250155 -2.700937 2.3195539 3.0431242 -4.0936813 -1.1962079 -3.404331e-05 -4.2010355 -0.027470808
63 -1.3339677 0.69484085 -0.725211 0.1459165 -0.36227214 -0.0789759 1.1117866 -2.6742978 -2.6056757 2.6973495 -0.85584116 1.6789542 -2.463905 0.21680008 -0.70713836 -2.9989567 -1.2588499 -0.48169604 0.8254471 0.24204026 3.6029978 -2.2875974 -0.58155626 1.5932183 1.2115785 -3.2441025 -2.3335533 3.2046177 0.76952815 1.9584094 1.4004555 0.1905834 0.52265227 0.34053275 0.5681727 -3.5939567 -1.8310056 1.7595096 1.7299597 0.9389769 3.0958552 -0.6138766 3.1647084 -0.06967298 0.89375377 -0.21396406 4.1727414 1.6531091 3.1067743 -0.37840396 -0.11902604 0.041406285 2.440439 -0.52512306 1.6673715 3.6309288 -0.015417122 2.654155 0.018925488 1.2106771 -3.5796816 -0.9983117 2.0559795 -0.6680042
92 0.7166648 3.0738065 -3.3759947 2.4161239 -0.9673278 -2.2182424 -1.8226317 -3.339975 -1.758519 -0.9986716 0.919144 0.8895793 -0.5120377 0.32862636 2.8746727 -0.67339236 -1.9363749 0.5324069 0.7825748 -0.74064934 -1.7448311 2.9463704 -0.44420007 -0.2837536 -0.31568125 -2.275101 0.65051824 -2.271036 1.7770858 0.3968973 -0.38039157 -5.7122107 0.6782781 -1.2885438 0.89134157 -0.21259357 -3.4558 -1.6044577 -2.0906458 -1.2237233 2.736175 1.0410725 2.79914 -0.7730817 -0.92731845 -1.3391277 -2.4552395 5.3610563 4.219057 0.30329722 5.2028656 1.3687752 -2.980446 -0.38418895 1.709159 2.398712 0.5627279 -0.9054101 -0.43755662 0.46453077 -0.36797407 1.9982699 -2.435397 5.2664323
27 1.1486765 1.4474972 -0.779733 0.16825813 -1.4986947 2.5011206 1.9657892 0.26563847 -2.69193 -0.6448084 0.8740209 2.960372 1.3539615 1.464515 -2.0399852 0.10736788 1.4867895 0.03496424 0.6279576 0.5450797 -0.15389244 -1.9504988 0.68544096 -1.699986 -1.9637231 -3.1563466 -0.62502366 0.703248 -1.9405606 4.275026 1.9344584 -0.5071258 2.3112512 -1.8455454 2.4483702 -0.3149789 0.34852183 -3.4994886 0.09921823 2.5953078 -0.07820179 2.045508 2.333682 3.9405937 -0.78536826 -1.6038531 -0.70716417 -2.350673 1.3938437 0.38574144 -2.5850239 -2.659384 1.1575016 0.8025571 3.7333815 0.44980556 3.7213917 1.3370668 4.613108 -5.7549353 0.5257351 2.192868 5.2115364 -0.9549922
67 2.6026719 2.5943646 -3.1325383 -3.1343966 -1.3269589 -1.8139745 -3.4162018 -4.2968283 0.6312802 -4.352608 -1.7210773 -0.7962254 -1.607034 -0.6219914 0.19065839 0.11413553 2.7245166 1.8353894 0.48893884 -1.662716 -1.4679928 -2.4406133 0.67746264 2.5769293 1.5293227 -4.510223 3.798473 0.500613 -0.45177668 -1.2149286 5.72124 -1.5881643 1.1116697 0.64088184 -0.6691223 -3.5496025 -1.48208 1.2954128 -1.356359 4.4695864 4.2800374 -0.17312218 -2.441401 -0.73191214 2.279119 1.9753064 -1.345741 -0.23337774 0.42856112 -0.82576656 -0.49588335 -4.353805 0.71288955 1.3437442 -0.65838265 -2.1231318 -0.29906213 -3.0225167 1.1964922 -2.450851 1.320132 -0.9249548 -0.07260702 1.1931195
43 2.6334174 -3.2070189 -1.3060131 -2.2614536 -3.1729395 2.7228234 -2.5721776 2.9736621 -0.6957556 -0.5136212 -2.6027577 0.8609691 -3.7084806 5.275727 0.5856667 -2.4801784 -1.0962734 3.0153959 2.358312 -6.480758 -0.31608236 1.6687024 0.09967091 -3.0020618 -3.2099607 -4.199273 0.65387756 -2.368799 -2.1800041 4.207354 -0.18160206 -1.1848156 -0.90565187 1.688237 -2.1397545 -1.6302518 3.2791533 0.21564014 0.95973223 -3.3006039 -1.1575607 1.0202547 0.9514783 -0.6632558 -4.2840347 -0.9763639 -1.0002449 -2.2019136 0.90324444 -1.8632046 -1.8319952 -3.0492089 -0.20678808 -4.4154234 1.0866506 -2.4314919 4.827535 0.47907117 -3.527036 3.2012296 2.6368184 1.685473 2.6158283 -1.5506265
12 3.3779445 0.29256317 0.93791926 -1.9747748 3.0173528 -2.073738 -1.8515879 -0.093603365 1.3389593 0.30976817 2.7494276 0.8553449 -3.4819465 -0.5063606 -4.835724 1.7148646 0.31788862 -1.439166 4.7980437 0.4000173 -1.9589278 -7.2247553 0.23024036 -6.730499 -0.45097867 -0.117554404 3.6795554 2.7093503 3.0459282 2.469072 3.581192 0.53417593 -4.808413 4.2104135 -2.0781956 -1.8987799 -0.61322474 -3.2969413 -2.0435023 -1.1630459 3.956039 -2.1528418 -1.3554248 2.210001 -3.4782164 -0.015170705 1.4080733 -4.899819 0.680091 -1.6746662 3.0026755 -3.2689083 -1.9726717 3.8169935 0.764968 -0.2943478 -0.45654875 -5.2806287 -1.5849177 4.0646324 2.6609867 1.0264436 6.9140954 -1.7935565
16 0.5849941 3.246977 -6.651667 -0.055545412 -2.5640109 1.934071 -0.9271639 2.8977036 2.004781 -1.1579903 2.0815656 6.312474 -1.1109406 0.04051577 1.0122081 -0.9957654 1.7102648 0.87946504 0.40245065 2.6654146 -0.9183754 1.7383732 -0.655622 3.4367769 -0.31815484 -4.02314 -1.8188753 -2.958426 1.1868105 -4.0513935 -0.40537646 2.6009765 -2.1313295 -0.77039796 2.859436 -1.5883857 -2.3560023 4.7731514 4.4290247 -3.3106196 -3.0994344 -3.9597085 -1.82899 -0.65633476 0.883176 1.0128344 0.590228 1.1851615 1.8828163 -2.2112317 0.5038435 -5.1015167 -3.6338272 3.9921072 2.9866054 -0.24556355 5.7987027 4.786091 -2.5451002 -4.779632 -2.601471 0.7387841 4.3427434 -1.7176292
21 3.526424 -1.1235284 -0.1867109 2.7012315 -3.058389 -2.0550928 1.2947977 0.966796 1.7977239 -1.5455624 -1.8227911 1.09607 -1.9618129 -0.87380624 -1.7153579 -0.039194953 -0.4059991 0.6902749 3.159005 -0.116011955 0.0013816057 0.20032267 -0.7835045 -1.6520585 1.7906346 -1.1515867 0.9343239 -2.5115428 2.1625981 0.4026433 0.61424315 2.1313884 0.90871936 4.172705 0.00017049625 2.5111377 -0.24480934 3.7772374 0.7684496 -2.1533215 3.02064 1.5335208 3.4274492 2.4471025 4.280386 -0.350888 1.1021299 -3.810146 -0.71041197 -2.481265 1.8669585 0.15698889 1.5924714 3.215275 -3.1414373 -1.1298463 3.1450768 -1.0403694 -0.7554114 3.0095809 -2.3505447 -4.937452 -0.7808169 1.0658605
30 4.004781 -1.2862982 -2.678557 1.5115511 1.8644229 -0.07959439 -0.5210143 2.576032 -1.0864313 -0.48764488 -1.8685536 -0.9559681 1.7149159 0.46966606 1.4206276 4.3915453 -1.1086425 -4.1110787 2.425067 -3.1208246 -0.057120312 0.5255116 1.8067809 -2.273575 -0.04667782 1.8330065 3.4641345 5.705402 0.7844546 1.3387035 1.5540584 -0.13569391 -0.43842024 3.5958214 5.6948586 -0.8601099 2.6357758 -0.01505802 -2.0951638 -0.81112444 2.056054 -0.26897013 4.5214047 0.6073651 0.07944395 -0.915655 1.4160033 -5.076446 1.7335863 -1.503893 -2.2794466 0.8011337 -3.6984618 0.51145416 -0.06862651 2.1330175 3.5991359 -1.8099109 -4.448175 -1.9123335 -0.8170299 -0.4951059 -2.8565261 3.1121874
29 1.4026592 -3.3955276 2.1819735 -1.140047 0.31766188 -1.5572602 -1.4521126 -2.6163769 0.96713805 0.21864262 -1.8756142 -0.26275668 -0.10137938 0.8530762 -0.10449559 0.049466416 1.3686178 -4.4692535 -1.0610167 -1.7549189 3.7332733 0.003916867 1.3681152 1.1963277 -0.68505627 -1.7611442 -2.5658534 1.1458547 2.9383192 -4.771565 0.37918082 -1.8697737 0.43863598 1.796005 2.4958563 0.527624 -1.4769205 -0.30404252 1.8476605 -2.5403337 0.7161417 -1.8902522 -1.1801336 -0.24266127 -1.5366303 -1.3438996 -0.8186908 3.2823994 -0.30055258 -0.93574476 -0.49361622 1.9459239 2.563278 -0.06562982 1.73998 -3.3467772 3.1342804 -1.8062606 -3.4373105 2.4703097 0.884118 0.9888255 1.2989836 2.3208268
51 1.9672 -0.99396247 1.0113791 -2.833946 -3.450766 -2.7888286 1.0861083 2.0773866 -0.3998161 -1.1711142 -0.78169155 1.1840857 0.7499815 0.47924668 -3.0516243 0.5710969 2.7185876 -1.2452459 5.0732517 -0.758091 1.7207403 -3.4095206 3.1397507 0.86145926 -2.0195107 3.707237 -0.77336746 0.6196372 2.4925644 -2.6478426 3.2357795 4.2382655 1.5758175 -4.664947 -0.4716784 -1.6250812 1.4463649 1.5672394 4.1489615 2.071567 -1.4241135 -0.84316045 2.3250735 0.16486235 -0.4660433 -2.8457003 -1.8589871 0.036130905 3.6806304 3.7829838 -6.6363087 2.3573236 -1.2153699 2.362315 0.6634806 3.77158 -0.36438477 -3.6427827 2.399053 1.9536473 -1.7821994 0.8329013 0.8382888 -1.7334822
60 -3.0824518 2.0526862 -1.5624956 2.355578 -1.1386207 -4.330372 -0.216416 -1.1304156 -1.9469684 -2.2851005 1.1081119 -0.61574835 2.0989034 1.6811532 1.6222383 0.72167933 1.479136 -0.21564306 -0.011897162 3.7467763 -0.50691056 0.39715895 -0.3005203 -3.3330657 -0.6694558 1.1070399 -1.4461827 -0.46531144 1.303708 -0.45247683 -5.3789053 -3.571959 -0.97065526 1.023058 -2.1233766 -5.90494 -3.9387243 2.7326198 -1.7563362 2.3440366 -0.3030358 -1.9428254 -1.5978122 -2.127989 2.746356 0.82618964 -3.3419533 -1.158788 0.29862943 -3.5905237 -4.0696154 -3.0183063 1.8637153 -2.721899 1.3038337 -3.1063316 4.0679274 5.775313 -4.4791465 -1.9378425 1.301542 -2.16959 1.6299751 4.1600795
19 2.3130186 -0.91061866 0.76949745 -2.4028077 -1.8560055 0.0653373 0.94745505 -3.5195332 -0.42038167 -2.1458576 3.0788825 0.2022196 -1.9940192 -1.947546 -1.6768819 2.7201688 -1.8561009 -0.2872683 2.0463667 -2.36511 1.7777035 -0.22598231 1.1483442 3.6991978 0.42977092 -0.1558206 -1.439246 1.0191524 0.6869063 2.1032283 0.07620317 -2.6846306 -1.948986 0.61225384 -0.5345848 1.2589173 -3.3526344 1.0883398 3.5185735 -1.0991005 4.6102624 3.7966115 0.6676933 -3.3533773 2.371177 1.6399072 1.5716276 -0.72665054 -0.3725903 -2.7459452 -5.2384076 1.0632412 -0.04665593 -0.8369809 0.93726945 -0.77281064 -1.2396586 -0.86808705 -0.0014971338 2.0300307 1.1339313 -1.3997892 0.9969417 -1.1870714
61 -0.30312148 0.74688894 -5.30732 -1.2582417 -4.2563286 0.56784654 -3.2488725 -0.24752128 -0.097754925 2.349714 3.116617 -0.5225688 -3.8489761 1.8921626 -2.141755 4.6605563 0.6678234 -1.4006344 -1.0901979 -2.6237817 -0.75981534 -2.732911 4.336844 0.029292766 -2.3115244 -1.3682626 1.9256186 -2.0235982 0.45555893 -0.86312705 0.38603395 -2.6601744 1.1413233 -0.15596491 -2.0048873 -2.8170598 -2.9761643 -1.8433437 3.5840123 -1.8582199 -0.09379914 -1.8824828 4.6166916 5.7679944 2.215895 -4.1453733 -6.0878696 -1.23037 -1.9295253 -3.1060379 -0.35218844 -0.21267849 0.4130539 -2.9471643 2.664336 -0.807676 -1.8534675 -1.1700122 -1.5072776 1.9402031 1.5899684 5.2052765 -0.66015005 2.2082748
13 -0.8968491 -4.568022 0.9387459 -2.6458173 0.6954385 0.5216419 -5.291905 -2.040778 1.524832 -2.264496 0.1357747 1.9677489 1.0605966 -1.7167606 3.4518905 -3.2631001 1.3793579 0.38721403 3.7035098 -2.092253 3.9252439 0.10356023 2.662262 -0.5160405 -0.6126547 2.5386605 -1.4626985 -0.27817148 2.415245 3.7830396 2.7974377 0.5152811 0.14733134 -3.8832846 2.4670987 0.28776422 -1.8819641 1.4222318 4.2876916 -1.5178858 -1.5897758 -0.45554852 1.6168387 0.73893654 -0.13120237 -3.5190063 -1.3170857 1.724944 2.6971915 -2.633178 -2.6354103 1.8305323 -0.009746162 2.1657922 -1.7950152 -0.8933558 1.5527123 -2.3565702 1.3057734 -0.7047881 0.0631944 -1.1460501 4.695503 1.2136269
62 1.7601073 2.755197 -0.997995 0.5701763 -0.9031087 0.36043063 -0.7547158 0.097046584 1.4956727 3.924894 1.1164987 -2.3229308 0.09320397 2.2064204 -1.36622 -2.2904167 2.0484784 0.43648952 -0.43512973 -3.039192 -2.2528958 -0.49151462 -0.14837623 -2.8660605 2.2240942 0.21026084 2.0003562 0.31975433 2.4305556 0.8134469 -3.4431193 1.5535209 -0.040238045 -6.069931 -0.59155613 -3.667082 -1.7469388 -0.30995333 1.4283247 -2.2385023 -0.25686526 -1.1517128 0.39150345 2.6762528 1.4217347 -0.3083024 -1.0049506 -3.7242134 0.23050866 2.7239597 -4.1589336 0.602216 2.3380332 2.9095516 2.3669505 -1.873728 -3.9788382 3.4552193 -1.6962577 0.4609383 -1.3029635 -0.037601613 1.4822395 4.014253
64 -0.45199725 -1.4312255 2.5868318 0.3293218 -2.4782217 -1.8246895 1.57997 -1.792617 3.7510602 -0.47287393 2.0630848 -0.16570191 -0.2898816 0.09883348 -2.6185226 1.8491763 1.4444127 0.5112608 -0.36098558 0.14620128 0.9498232 -0.92228943 -2.8487992 0.95429134 1.2067204 0.9867439 -1.2642647 -0.39417398 0.0278737 0.9092005 -0.92143023 -1.0530407 -3.6857767 0.9284839 -0.23183744 -0.0854436 -0.10689762 -4.010964 -0.7191832 -2.9927232 0.6641291 0.96513516 0.27077833 0.79265946 -2.5237548 0.72392994 0.7686885 2.4824545 -2.8287663 2.4991195 1.1447186 -0.8221371 0.5800946 -3.1885238 -0.3620682 -0.5624485 1.1179283 1.1667585 -0.7977403 -2.578625 3.1259577 0.83786803 -0.5908903 -0.10103843
35 2.33596 1.7031094 -0.5618393 1.8993994 1.8915956 0.990382 0.86863685 -1.0591984 1.2960297 0.34032443 -0.58376515 0.023667775 -0.7917463 -0.46155873 2.9139242 2.5928223 -2.5032651 -2.4757495 4.5145617 -0.29781356 3.2525601 -0.8832532 -3.4320712 -0.7497163 4.5050864 0.19034797 2.5685062 0.2725957 -2.557044 2.2612817 2.9191713 1.865146 2.6752088 -1.3545088 0.041333158 -1.5385969 0.7306959 -2.2799056 0.54932624 -2.7433276 -0.6801714 -1.6583784 1.2990303 1.5049219 0.9984524 3.0925267 -0.60722625 0.065402634 3.948428 -1.5764412 -1.0183804 -3.5877166 1.2356529 0.45383745 4.8142223 -4.934648 -0.32242277 1.6265124 -3.0030565 0.23675686 -1.8672017 -1.9970468 -0.38150558 3.6672115
88 2.241682 1.6767707 -0.4741196 4.349178 -0.35589287 -1.3231043 -3.7964647 3.9000854 2.4703133 0.03786794 -1.5327228 0.18496577 1.4614567 -1.2750341 -0.9037131 -0.7649793 2.0040522 -4.618137 2.4786305 -4.4530063 3.504555 1.9420242 0.85271066 -0.5409183 -0.08034577 -1.5395261 -4.5837045 0.1702459 -1.5247473 1.1193371 0.09960407 3.2625763 -2.8711467 2.5385969 -2.6669374 3.9033215 -0.0031470426 -3.467155 3.4884984 -0.7660808 0.8739595 -1.9543054 2.6868708 -0.051459238 -1.7519082 -3.890875 -2.6167855 0.27519664 4.4895144 -1.6785723 3.01828 0.2722847 1.8457795 -1.5576576 -0.025346907 1.4510615 -1.9660578 0.7895281 -1.9739953 -0.35535622 -2.5452242 2.191033 2.3915212 -0.748442
77 -0.038051303 0.31007153 1.7706674 -1.4543575 -0.7308636 -0.05557996 -0.80049825 1.0879331 1.9467179 -0.99635834 -0.2771208 -0.87453496 1.0094135 1.1602743 1.0184836 0.8055974 -0.30413362 -1.0568979 3.6424148 -2.1326048 1.8221183 -2.6506248 2.0184915 -2.5730133 1.6927336 -2.6952617 -0.42977282 2.5787544 0.19338758 -2.3117642 0.5695341 -1.9603348 1.3841606 3.4727385 1.8911676 -3.0732358 2.418613 1.0208379 -3.4514039 2.8231537 -0.2551839 1.8830142 1.7425313 -1.196102 0.6104954 0.44693 -0.44204682 -2.4388387 0.88730294 0.54056716 -2.168308 -3.4000945 -2.3390617 2.6764834 -1.4611601 2.120811 2.9822369 -2.213501 -0.26368976 -1.739809 -1.9624883 -0.62602973 -1.2608216 -0.91420907
53 2.839352 1.7175765 0.00958569 -2.8534682 2.6501513 0.6094473 -1.9963151 -0.115216814 -0.45632735 0.57670283 -0.40210232 -2.2312386 -0.08682431 -0.76305014 0.1880734 0.5639142 0.87929565 -3.6863194 1.8124256 -0.17510714 0.1741279 0.76689357 3.51354 0.6968393 1.0381073 -2.280556 1.4067736 -2.5897803 -3.1145544 -2.4345326 1.9380993 2.1492505 2.5566566 -1.9576223 0.8279559 -1.3530145 1.082193 0.53382057 -3.3868217 0.8862572 3.8467689 -1.7656771 -2.450122 0.6377171 1.6276864 -0.18052575 -3.9226809 -2.3683672 3.0302563 -0.6824503 0.17189834 -2.7988918 -1.640043 2.688167 0.36279893 -0.9324732 0.5754611 -0.3517675 -1.2933764 1.6151099 -2.30502 -1.661407 -1.2338599 -1.4095769
0 2.75268 -5.510805 -3.8760679 -3.2675452 -4.886863 0.6241995 0.9950418 -1.9163651 1.7863909 -3.1749744 -4.3664465 0.6189365 0.9651117 6.363972 0.44461712 0.5497022 0.5646522 -1.7106603 3.0075595 -2.8475833 5.551137 -2.699294 4.2546945 0.31371891 1.2513719 9.56618 -1.0665774 -0.2186985 1.4567938 -0.6484288 3.442667 3.1948857 2.129389 -0.043020777 0.8544388 0.6822882 1.4546902 -5.0558653 -1.5418968 5.641948 -7.2422314 1.109256 -0.041575495 -1.4001739 -1.4137568 -6.631997 -2.29781 -1.271277 3.9544342 0.645839 -2.83468 -2.1597273 3.5959287 1.261504 -2.6779253 -2.9756687 0.9703592 2.8244934 4.481328 0.3951066 -3.607231 3.283077 -0.6020464 0.37663272
74 6.3147573 2.104762 -4.8863635 0.4044063 0.9701509 -0.37499878 3.4013908 -0.18252417 -0.618929 -4.1927586 0.49150616 -1.0554439 -4.065063 -0.8179843 -0.34186673 2.8734624 0.21995853 1.7205513 5.0490565 -0.23167093 -1.1352577 -0.8663069 0.7653104 1.519758 -0.7952563 1.0772958 -1.9179983 2.2934031 -0.39296257 1.1481286 3.5810766 0.506456 -3.6744514 1.1182317 -1.0806196 -1.4928348 -1.8867545 0.5275364 -0.029640583 0.26590034 1.4558003 -0.51850265 0.42656833 -1.0163544 -4.3897524 -1.220648 1.5993707 1.5337248 3.4858756 -4.2212696 -3.523937 -3.1081824 1.3643996 -1.633901 -2.4032075 -1.4494666 -5.3156676 -2.1432874 3.2768192 -0.17611302 0.4459299 -2.8891413 4.9501977 5.578127
47 -0.3165068 5.512766 -0.29164377 -3.7590566 -2.905313 1.1807994 -1.6159273 -0.7722449 0.6779074 -3.3116887 -0.2725577 -0.41832435 -1.6747886 -0.45386645 4.8656654 3.7200012 2.8099666 5.188679 1.3697755 -1.5950472 -0.30611706 -1.4602137 -3.6010375 -2.9575605 4.079572 2.714663 -2.1283667 -0.33446196 1.2917771 2.8988628 1.1661664 -2.501335 -1.2302871 -0.78523374 0.9113002 -1.9101509 -3.8815227 -3.6112742 -0.579835 -0.6402113 1.1214739 0.8130176 -2.8452332 -0.13050519 3.244587 -1.4046419 -0.8989641 0.46051568 0.19423014 -1.75233 -3.3864462 0.553259 0.16370833 2.580321 0.11224592 1.3290429 3.7946794 2.1837249 -0.58538884 5.767452 0.44261172 1.6504847 -0.23399597 -2.5204697
17 0.08273233 1.1951383 -1.257828 2.1633866 -4.3293514 2.1420727 0.9152305 -0.000488511 3.3923342 3.2693686 1.0489161 2.3821633 0.54934424 -2.1560757 5.1264157 2.7000225 2.0947723 -1.9794191 1.2571492 -0.81979394 -2.5485227 -0.3572548 -1.607836 1.1023834 1.0143701 -4.589875 0.72429013 -2.5702388 -1.171955 -0.4126358 0.7097294 0.5649402 -0.76723945 2.4462955 0.9171757 -3.6788087 -1.1036576 3.1497276 4.587435 -0.50311023 0.7697668 -5.672059 1.8397771 3.0389593 -0.26786676 0.058290638 2.774863 3.1531944 -0.9330877 -1.425422 1.6140215 -4.821969 -1.7820127 2.3982003 2.0362654 0.46126163 -0.24903132 3.9684553 -1.1907845 -1.8180101 -2.2000916 0.9183962 3.705301 -2.4525027
52 3.0013669 3.1455822 -0.9137785 -2.3458428 -1.9189484 2.3352928 1.7833539 -2.7169309 -1.6695828 -4.3514104 -0.88857204 3.1343086 -0.37582 -2.0741289 0.3215385 0.41764557 3.2382982 3.0098603 1.5810753 -1.3477514 3.264253 -0.18143585 -2.316256 2.539327 -0.46056917 0.2436301 -2.5796578 0.93603396 -0.758823 -0.04422881 3.9972403 1.8028207 -2.0355396 -0.62825125 0.39949372 -1.9559484 0.15101829 -0.48692578 1.3195617 1.3295538 1.6286186 0.024287974 2.357742 -0.2668744 -4.019133 -0.2386283 -0.45995224 -2.5651293 -0.58043295 0.55948687 -0.37036672 -1.9189495 2.3065991 3.5185676 -0.10968437 0.8589861 -1.5549705 -3.703291 0.40830868 -0.26765484 -2.1406753 1.1667724 1.8806164 1.0743495
76 0.34331065 1.1652964 0.53139 0.6395663 -0.92881346 -1.2500848 0.22377914 -0.60059726 1.5329905 -0.5663108 -0.779614 -2.7722552 6.1509786 -1.4758062 -0.55849415 -2.0280662 2.7144694 0.70826644 4.816554 -0.88101274 1.7392893 0.22416487 -4.551837 -5.4158893 -0.04943611 -0.21767098 0.48468515 1.8314688 -0.695833 0.52325684 0.68590593 4.3047957 -0.6720606 1.6040955 -1.2567589 0.6731605 2.3699205 -1.4579333 0.70709145 1.8421472 0.34773767 -2.8561645 0.07182724 1.0790693 -3.8109674 -2.9251218 -0.15691495 4.103103 2.4824963 0.36008868 0.4454981 -2.651548 -3.3738725 -1.1505103 -0.5578229 -0.19445099 -2.328951 1.6394656 0.37069342 -1.2555584 -2.126681 -3.3657043 -0.9481376 0.4467892
71 3.141081 1.7699649 0.26781914 1.8358995 1.0810666 1.5406538 0.976046 0.028127577 -2.099698 -0.30759105 -0.6791626 -3.3157992 2.2234066 -0.96155345 -0.28606746 -0.39493904 0.16619585 0.45858923 -2.245957 -0.11810443 -0.696536 -0.5111805 0.9674255 -1.4002364 -3.0854254 -0.22928618 -0.6699909 -3.9476998 5.171554 -0.43935457 2.214409 0.5739272 -0.2303492 -1.1593338 2.326326 -2.4574492 -0.6504571 1.165577 -0.565005 0.5373105 0.5796877 2.470188 3.0925229 2.3865387 -0.209721 1.1210643 0.7575083 -2.1680725 1.4368653 -2.331309 2.2250972 -1.6344253 2.549936 0.011010774 1.5608091 0.77742827 2.9779058 -0.3743014 -0.49324456 1.4724656 -1.2539871 1.1233599 2.0112047 -3.6264775
91 1.0026485 -1.975412 4.1364126 2.0485308 -0.98656154 0.6120368 -0.03663883 0.62519425 0.0060579893 -2.020496 1.6421962 1.1884714 1.6713378 0.35710075 1.1718144 0.13144386 -0.29455402 -2.796902 -1.6855526 -1.3360218 0.19492017 2.1329007 0.6463522 -0.13383594 -1.5002812 0.07199795 -2.3331733 -1.7386129 1.5943439 -0.992926 -1.0879543 0.7325348 0.32686552 -0.6730663 -0.86856633 3.3899064 -0.13271962 -2.1121833 -1.6009883 -2.8498564 -2.0791583 2.395719 -1.6228974 0.15882996 0.3320453 -0.5536511 -0.9169926 -2.379546 -2.309575 0.4954587 -1.2682881 0.34458706 -1.390246 1.3946202 1.1102387 0.43020985 2.4602835 -2.183128 -0.6146821 -1.8310058 1.8150047 1.663445 -1.8879228 1.2233793
70 1.1288633 1.2082056 2.8918757 3.5386178 3.862362 -0.046804786 1.6905093 0.15256988 0.08068478 -2.451481 -0.9746199 -0.45800728 1.8613545 -3.0977864 3.2671556 -2.0163274 2.3032298 -1.6109093 0.69743407 2.2988815 1.8435965 0.82288146 -1.7845781 -2.2257738 -1.652 1.0799911 -2.004434 -0.66719925 3.2526705 -0.23780866 2.2333004 1.9602643 -2.1307156 -3.0859988 2.2032266 -0.7863719 1.1954579 0.8969458 -1.8592689 0.731062 0.6561332 2.6619925 3.7552974 1.577375 0.554769 -0.8837768 1.0669825 -2.015168 1.470203 -2.6878786 3.0557728 -1.6083701 1.3984089 1.7825018 1.0322582 1.105515 3.37119 1.3606403 -0.11669321 -1.0681247 1.0386505 -0.53003865 0.70248044 -3.0766635
49 1.7190608 -3.3583152 -1.8096558 3.5670784 -1.8818347 -0.6223464 1.6120743 2.683699 -2.209738 0.3049239 -3.7495742 -1.2037417 -0.21132363 0.13303775 -1.502648 -0.21072367 -2.0238366 0.08653405 0.21787861 -0.24698663 -0.07458172 1.9278361 1.3985854 2.8516684 -0.5639167 -2.8673847 -0.3610861 0.9004145 -1.577467 -0.061116956 -2.0117347 0.113220334 3.2665515 1.8973886 2.4888966 2.5749366 -1.2867912 -0.5733133 -2.4632714 1.4252738 -0.7746017 -0.99218416 2.820147 0.83116084 0.3204963 -1.1178232 0.187814 -0.93079436 0.19741057 0.85649204 1.5539881 0.44619116 -2.1939564 1.3189679 -2.7281709 -1.4697516 2.0662591 -0.23022424 -1.1399409 -4.5279536 -1.0708643 -1.5056052 -0.8316102 2.342589
68 -2.4883351 -1.716335 -1.9116089 0.9435666 -0.6711325 -0.53637123 -1.9201381 -0.15214337 3.1292648 -0.40757182 -1.1358573 1.8667685 -1.0466694 -2.2492917 -2.4681242 0.8523789 0.27217174 -1.0524406 -0.04882438 -1.23019 0.1370847 1.916156 -1.2342691 0.46864578 -0.5826548 -1.2376424 -0.8798513 -0.05273651 -1.1250321 -0.14110556 -1.8623838 -0.22421913 0.7557422 -1.148638 -0.014388397 0.41718066 0.5563987 -0.38494343 0.73888826 -2.0215588 1.475301 -1.6428282 0.017342018 -1.8691509 0.10469216 0.11428658 -1.6129516 -0.7131713 -2.2976756 3.0708146 -1.2758356 -1.4551535 -0.0808293 -0.07447256 -1.2513455 -2.6042087 0.4150249 -0.3377347 3.7687957 1.2082965 0.2328508 1.28052 0.49627286 -1.7852285
48 1.7160033 -3.578141 -3.3697908 -1.0865126 -2.3586822 2.572827 -3.9171052 -0.9285305 -2.0705485 -1.6294414 2.1707282 -0.54582256 1.2723404 2.5168953 -1.0639919 -2.5479639 0.9781753 -5.8670745 -2.9111714 1.2917325 -2.547598 -0.14757203 -2.0763366 -5.8997645 5.69295 -5.5631413 -0.37420702 -2.3443413 -1.3533 -1.9713893 -0.1510793 -1.2971526 0.58525884 -0.82563597 -1.117121 -0.14829998 -2.5920405 -5.529696 1.4837786 1.8185692 -1.0972968 0.42154533 3.6360137 0.48027623 0.25857815 1.8057457 -1.2546098 -3.2068846 -0.61823106 -0.91826355 -1.9928818 0.84366584 1.4244882 -0.08464912 -0.6811402 -3.372175 0.59683776 1.4355122 -1.1071614 1.6881676 -0.9845562 -2.2426395 0.043729436 -1.3607768
31 -1.2320377 -1.4852806 2.5195286 3.1855292 1.439235 -3.8341305 -1.4187951 0.6850333 -2.6546485 -0.16558251 -2.1556003 -1.0224203 -1.8297088 -0.980962 2.0934532 -3.8853939 -2.8690836 3.2177808 4.115739 0.71926886 2.8494413 0.4041937 -0.07260006 0.36796972 -1.5161239 -1.500961 -1.0116651 3.7961423 -3.9763317 -2.4939075 4.0984526 -1.8722953 0.6433973 4.8073883 -3.8766813 0.14932275 1.4377388 0.065199405 1.1341181 -3.3734484 0.90472 1.4541149 0.6717926 2.25277 2.4845557 0.9162559 2.12462 0.7903222 3.1975582 1.8171964 -3.0440288 -0.97769153 -0.16908059 -1.2174115 4.965103 1.7058046 -1.822492 -2.3450644 -5.8265386 -2.7338042 0.8952557 1.4402351 0.6918919 0.014204526
11 3.2408774 1.5404575 -0.3795994 1.247474 -1.5914342 1.3674192 0.25721362 0.039177757 5.36877 -3.1575782 -2.1684074 0.22404028 1.5676814 -0.05027478 0.4553252 -1.4304526 2.5785575 2.1631804 0.766808 1.2333682 -2.2561646 -0.31611943 -1.520472 0.6967175 -0.2653985 -1.6484264 -3.603992 -1.0278423 -1.8523719 -1.7592323 1.6897753 -0.30742025 -1.0169816 3.0188563 -3.0513818 0.45874733 0.32724676 2.7480683 -3.0547528 -2.051198 -0.77198684 -1.8550589 3.5193505 -1.3867234 -4.4635983 -1.3774987 -2.9726663 -1.5907986 0.9450926 -0.4610678 0.8861502 -3.5147576 2.1198328 5.5085416 1.2536758 -0.4069473 -0.9488395 -1.5969955 1.0971719 3.3719125 -0.4071248 -2.2202833 1.2507443 3.3614826
38 -1.5226103 0.7469186 1.3149488 -5.249358 -0.59933627 -3.7723355 3.541707 0.88041353 1.0002689 2.3968763 2.8366437 -1.7562821 0.95460147 -1.877522 -1.8208617 -0.9622262 -0.17560942 -2.8913794 2.6512225 -1.4345547 -1.5911582 -3.4831414 1.1769985 -2.6399179 0.64094424 -2.1940105 2.2787302 -0.8304081 2.677663 2.9957342 -2.647807 0.8494716 -0.17803319 -5.212067 0.9627808 1.4006397 -0.7340989 -0.7139814 -1.4439499 1.9130328 2.8087935 -0.6452959 1.1804466 0.0014327513 -1.4125068 0.86312646 -0.014850888 0.38893467 0.50434846 2.2219727 -4.402123 0.42960307 -1.658654 1.1838381 3.6242394 -1.939252 -1.5349994 1.9896566 -2.5371802 5.2014093 1.782526 -2.8253992 2.9283433 1.2619733
39 0.15659288 -0.53574085 1.6408602 0.025334029 1.9365423 3.1381805 -2.9274735 -1.4278393 0.9633149 2.4422863 2.276702 -3.8071728 -2.7385192 -1.6404111 -0.5721671 -2.7357512 -0.64476556 -0.08721692 -3.3319442 -1.6938837 2.1827269 2.0013773 1.983781 0.26768073 -0.20798449 -1.2564143 -0.33942613 1.6078745 -0.28264466 -0.3398302 0.15058866 -3.1497452 -0.97224087 4.0747404 3.2596436 0.76184076 -0.6585488 -1.510619 -0.6038329 0.81814545 3.1616127 0.0780895 0.832635 -1.6968052 -2.6818166 -3.013621 0.5605472 -0.021335745 -1.2837379 -3.5915058 0.9742655 -1.9077841 0.83684736 -1.1819135 1.2357653 -1.9706861 1.0184004 4.4533386 0.73518693 0.21416132 2.689921 -2.8985827 3.6283424 1.0702769
82 2.2778685 2.2528667 -3.7496648 -1.6922289 -0.78945446 -1.4710742 -0.73227596 1.1289499 0.8887997 -2.785424 0.2753356 2.8188229 -1.6942116 -1.551643 0.07847467 -0.31448525 2.0779037 0.5251461 2.5501654 -2.577503 0.22876693 1.0244437 0.14846677 2.2248409 -0.64121187 -2.1111457 -2.0762951 2.246659 -0.6302926 -1.0982157 0.88734984 0.7122487 -2.5449352 1.7937404 2.435765 -2.0189383 -0.49820963 -1.1639826 -0.49423978 -0.20146012 3.554093 -1.8448869 1.5819213 -2.2512019 -2.9468982 1.4446446 -0.17391832 0.109592825 1.8553476 -0.32979038 -2.5286307 -1.2211895 1.218317 1.2323833 -1.0958817 1.0129867 -2.9804301 -2.773106 -0.66795516 0.07250882 -0.13271281 -3.246169 -0.76932275 1.0690533
81 0.21709831 0.14963323 -1.3469164 -3.6150584 2.4367833 -1.5870552 2.307867 1.0046228 0.8758738 -0.36896393 1.4967172 -0.33519155 2.0747867 1.7090892 -0.022839524 0.33842704 1.7981523 1.1915249 2.269259 -1.192222 0.9479298 -1.6617593 1.4805076 0.8996092 1.7907026 -4.486777 2.5811517 2.5215077 1.8846525 -1.7974868 4.541769 0.25253376 -2.4755094 1.1972196 1.8769785 -3.01889 -0.29647553 -0.34635076 -2.1540504 1.5512955 2.9306731 -1.1221383 2.17013 2.4898913 -1.4296219 0.04034009 -4.590819 0.09512192 2.402554 -0.6964369 -0.6392256 -2.318219 -0.1926186 2.5009747 -1.5773762 -1.7388778 1.4785248 -1.3577945 -0.12481785 -3.738325 -0.80472755 -0.8760272 0.3785151 0.7916058
72 -0.80889255 1.9515681 0.9382671 -0.19940306 0.016736979 3.1011808 1.4823043 -1.4455572 0.6128276 0.90902877 0.32786566 -0.20735534 2.7383733 -0.6803757 -2.6794274 -1.6681997 2.7846355 -3.2372398 0.97459877 -0.37434238 2.3222716 2.8776116 -1.4462274 1.2455646 -0.6107598 -0.9587604 -0.81028974 2.3681424 -0.5922925 -0.29962224 0.70215136 2.1589952 -0.5492155 0.1139969 0.38157585 0.53511447 -2.82426 -0.66133046 1.0982156 -0.12833613 2.4299176 -1.6708105 -1.5451288 1.9060907 -2.589248 -0.7877698 -1.4373889 0.5280273 0.9734405 -1.8195157 -2.1418257 0.3835402 -3.9704275 -0.006836357 0.13601913 1.0135888 -2.2191904 0.78810793 -2.2711408 -1.2244335 1.8353018 -0.33758873 1.3240374 -0.6634377
1944 -0.8796491 1.7191993 0.98427075 0.029150676 0.054038692 3.0123003 1.5005914 -1.3089683 0.4230878 0.9540287 0.27656782 -0.12853242 2.53633 -0.61839706 -2.577765 -1.5626812 2.543915 -2.9631348 0.8217884 -0.47395563 2.0895255 2.5097904 -1.327284 1.3285384 -0.5510632 -1.1194826 -0.92571235 2.0745568 -0.44408953 -0.09522004 0.66488725 2.1635401 -0.37567782 0.26797968 0.07084415 0.639488 -2.7082794 -0.7743296 0.96529937 -0.060532223 2.2305121 -1.5762239 -1.4408709 1.6170613 -2.4828615 -0.8297885 -1.6234832 0.42526686 1.1377118 -1.6819683 -1.9560852 0.3018773 -3.770972 0.19785069 0.35445875 0.98462075 -1.9514611 0.69982946 -2.0332787 -1.4932739 1.7534293 -0.45521402 1.2193663 -0.90698963
97 -0.24504894 -1.4352188 -0.92494833 2.0169113 -2.6005478 -0.22627594 2.002951 0.68736297 1.9596752 -1.28015 -1.2148731 -0.21802609 2.9704418 -2.5076725 -1.048169 -3.6000977 1.5948386 -0.76333886 2.182093 0.8995921 1.5329514 -2.2208831 0.34494966 -0.9644358 -1.677419 2.7070558 -0.7183876 2.0344326 2.6650412 -1.0011597 -0.70133257 1.5459324 2.1539798 1.0210279 -2.008286 -1.060036 0.3249481 1.6417662 0.025873197 0.09604289 1.4295936 1.6135463 2.22961 -0.88691014 0.1583653 -0.24268314 0.11625456 1.1512876 -1.3953016 0.564657 1.3905646 -1.9747239 -1.8235147 0.3143067 1.2065115 -0.6606511 -0.014025185 0.4228632 0.33482295 -3.5836048 0.6515437 -1.2603369 2.8947475 0.78831095
1753 -0.2691948 -1.2779206 -1.076543 2.1797307 -2.8390005 -0.20205231 2.0792415 0.70246357 2.099403 -1.3818003 -1.2040848 -0.1716602 3.1888149 -2.6731718 -1.1917166 -3.9594963 1.7602403 -0.81380105 2.1167462 1.1341382 1.7245829 -2.4528763 0.42443353 -0.92618924 -1.7904139 2.8343883 -0.6424348 2.1510787 2.6425364 -1.4527808 -0.66677195 1.6243838 2.2492805 0.962422 -1.8874317 -1.2937056 0.4799207 1.8931141 0.0080247065 -0.10625442 1.5022814 1.6822834 2.3099108 -0.7900888 0.20680109 -0.23859194 0.20838718 1.2749459 -1.7340571 0.4426219 1.6172782 -2.0271962 -1.6110996 0.20292445 1.2339113 -0.8551017 -0.23864432 0.3899138 0.43008664 -3.5419748 0.7167511 -1.324018 3.3577435 1.1147252
588 3.1037955 -0.6316282 -0.9530672 1.2087789 -0.7530616 2.163917 -0.32899055 -1.7106138 -0.4834028 -0.27624857 -3.141545 -0.4577743 1.6860961 -4.0641856 -0.76094353 -1.8464419 1.3198667 -1.9496949 0.842335 -1.4924576 3.5659442 -0.14457908 1.4711094 -2.038603 -1.4251729 2.5342057 -1.194938 0.300779 1.5024954 0.27897725 -1.1450886 -0.05699625 -1.48118 -0.13846819 0.8186743 -0.81961465 -1.5607699 -1.52799 -1.2387985 -2.5236714 1.7678885 -1.7358918 -0.62464184 -0.66775686 0.99082553 -0.8420791 0.78320456 2.2721403 -1.1837506 -0.12448044 2.9891365 -3.3737743 -1.8653432 2.880837 -1.5947206 -1.8009188 0.08401002 1.859052 0.22131732 -1.0283003 -0.56389743 -1.0876818 0.027596317 1.0595765
86 2.9113421 -0.65363455 -0.82217324 1.2118176 -0.8562947 2.146566 -0.36205328 -1.5809505 -0.69690883 -0.43563527 -3.1958866 -0.43157998 1.5950617 -3.9666746 -0.8101255 -1.7984636 1.1477758 -1.9577745 0.7965537 -1.6840994 3.368175 -0.13753672 1.4412382 -2.0152638 -1.3910741 2.525224 -1.1085982 0.26439768 1.6231942 0.355968 -0.9505623 0.028973969 -1.3975896 -0.16636635 0.7472269 -0.66000515 -1.5405066 -1.5156951 -1.1216255 -2.4832377 1.7919776 -1.8096409 -0.5720893 -0.76413506 1.0115632 -0.86766183 0.7401055 2.1123576 -1.0801269 -0.09399839 2.8942015 -3.1597445 -1.9290533 2.8806632 -1.4590662 -1.6622175 0.25370142 1.7462792 0.094198644 -1.1734799 -0.54516566 -1.1731374 -0.031434637 0.8217166
95 2.5760612 -0.36023733 1.4360265 1.8853313 -0.037761264 1.1033059 0.8715111 2.5283265 1.7009808 1.1643808 -4.2445164 -1.3759679 -0.04526875 -1.395461 -2.3990057 1.6605403 -0.290592 -0.9765192 0.15876403 -2.6833248 0.07975587 -1.974225 -0.66358453 0.266652 -0.2557295 -0.86047894 -1.9356941 1.1140223 1.6073096 -0.28416193 0.7812216 0.36644274 1.3431845 2.3825936 -0.0009094849 -0.46721026 -2.6074195 -1.155947 0.9764338 -2.4889197 -1.1713363 -0.19077104 -0.53058195 -1.9630047 0.6532651 -1.4402524 0.2406745 -0.6552941 1.6828028 0.673889 -0.976379 -3.348057 -2.0960948 -0.3984248 1.7610834 1.7948607 -0.85207677 0.3255533 -0.9479694 -0.32511896 -0.42820743 -0.92870027 1.2752271 -2.2416182
2191 2.72658 -0.25332177 1.6711919 1.8341992 -0.18733467 1.2681922 0.7304879 2.6912706 1.8685102 1.3022578 -4.614656 -1.4390314 -0.13919604 -1.4181842 -2.3803425 1.7538114 -0.35967293 -0.95839584 0.040927682 -2.5884986 0.055998854 -2.0798059 -0.58771276 0.31942406 -0.3031504 -0.8738358 -1.9807093 1.0209366 1.5484856 -0.6101519 0.72679937 0.54301715 1.3577001 2.4602728 0.15686043 -0.32193956 -2.638292 -1.0259455 1.0031211 -2.684585 -1.1599934 0.22755674 -0.5422575 -1.9152421 0.6097352 -1.3889979 0.22989035 -0.8068302 1.6887506 0.79291606 -1.18762 -3.5336337 -2.1908824 -0.4188724 1.7342621 1.7748183 -1.0731587 0.21570028 -0.8921598 -0.06562335 -0.39736325 -0.9228419 1.5755588 -2.3033085
79 -0.44617826 -1.3251265 -1.3255777 3.298476 -1.7279398 -1.7437646 0.27954054 1.0611554 0.60140043 -1.6731999 -1.9474572 0.85710156 0.7356697 -1.8699719 -1.4888167 -1.146035 2.7600574 -1.1221664 3.2711535 -2.485146 2.2243435 -0.4514023 1.3678166 -0.5114508 0.210397 -2.4064472 -0.26366925 0.26774618 1.852661 -1.0188569 -1.2871853 0.7801572 0.6538697 3.9234893 -0.045739103 -1.6123859 -1.3319527 -0.7901759 -0.5124244 0.41311184 -1.7364821 1.7301437 0.56330734 0.29038733 0.6221839 -1.7372677 1.069601 -2.2316656 2.152204 -2.3647845 -0.015407933 0.6919773 -2.057129 -1.4160432 1.5893342 -0.2305838 -1.9065928 -0.9849909 1.7488513 -1.8003489 0.33606067 -2.7113006 0.8081848 -0.40526158
1642 -0.3746157 -1.392919 -1.5756712 3.359713 -1.9312308 -1.9499633 0.11324849 1.2730318 0.5657624 -1.6987115 -1.9653637 0.8992031 0.6146607 -1.8647648 -1.49852 -1.1163023 2.9070778 -1.2027994 3.3849604 -2.416739 2.3870564 -0.5526517 1.4903065 -0.5754137 0.23384511 -2.4943042 -0.122593194 0.320306 1.7929121 -1.2329855 -1.3560303 0.7156472 0.66861564 4.1343727 0.08923806 -1.7221346 -1.3423258 -0.7183949 -0.5955938 0.4585768 -1.9290341 1.9057038 0.6098933 0.44229633 0.71490145 -1.7785108 1.104949 -2.4289706 2.204103 -2.5320084 0.0066128885 0.7116175 -2.1351488 -1.6391336 1.6301454 -0.3525708 -2.2398663 -1.1120192 1.9146912 -1.6675559 0.36027333 -2.8150213 1.0356333 -0.25436044
872 -2.3964972 -1.1260328 2.5892482 0.9415433 0.64224434 -0.8841822 -0.09299201 0.3185357 -0.8549498 -1.8517429 -1.7256655 -1.2616068 2.1847262 -1.4186436 0.74773914 -0.9475173 1.5019883 -1.3673142 2.3911355 -2.0878088 1.7652638 -1.8548212 -0.6208535 0.58962446 0.33281168 -1.6673721 -4.4266515 1.563082 0.1601873 -2.163309 1.1465262 1.3062596 -0.71886855 1.0732391 -1.253512 0.91202396 -3.2500644 -1.8886839 1.0818928 -0.68776304 0.13070273 0.64371085 -2.2059407 -0.24677457 -0.63477176 -0.29985875 -0.24779834 -1.2396816 1.4593707 -1.4404364 0.512481 -1.3057257 -1.5745884 -0.57726115 -0.421395 0.6556122 -2.0257795 -0.05699189 1.3934151 -2.415042 -1.2456759 -2.2736456 0.84238243 -0.8246116
32 -2.4224463 -1.1452743 2.5433295 0.99174625 0.65523344 -0.87584114 -0.014064763 0.31186938 -0.9060182 -1.7951616 -1.7198976 -1.234881 2.1288655 -1.4828521 0.6737993 -0.98953944 1.4905932 -1.4127041 2.407448 -2.1618927 1.710146 -1.8233529 -0.6359499 0.59473646 0.26564693 -1.5513153 -4.4396048 1.5027602 0.25131056 -1.9978797 1.057849 1.3442007 -0.7412609 1.099171 -1.3735027 0.94394135 -3.2773147 -1.8697813 1.036564 -0.67613614 0.13328266 0.5773649 -2.1655855 -0.33662263 -0.6857243 -0.32814026 -0.2950575 -1.2108707 1.5383313 -1.4364367 0.4680896 -1.2267051 -1.600837 -0.5816006 -0.27497703 0.69296366 -1.9048357 -0.02877947 1.3503562 -2.49921 -1.1374792 -2.2999868 0.7014562 -0.89925796
46 -1.0755888 -2.4548783 -2.543525 1.8860768 0.2634059 0.3346691 1.960054 0.36615023 -0.65032506 -3.5087247 0.8659037 0.574774 0.5296042 0.015476406 1.028925 0.48952907 3.13382 0.91451335 0.53941137 -2.4772282 1.4988883 -1.202232 0.41680077 -1.0734364 -1.5145773 -0.44666746 -0.72476673 -1.0945282 2.0436265 -1.6416779 -0.7477861 -1.4934171 -3.447114 0.7053448 1.044007 0.1960236 0.12268898 -1.7620848 1.8468587 -0.3295994 2.546698 -0.29973438 -0.29209572 2.5444777 0.7870543 -0.9352405 0.94407207 0.06794075 0.2737365 -0.51057476 1.6721518 -1.7168183 -1.879407 -0.28307313 -2.4048269 1.0316275 0.85034627 1.3715713 1.2061318 -2.2835846 -2.7711935 -0.7658742 -0.808798 -0.9902303
56 -3.8941045 -0.9324693 0.91219085 -3.311713 -0.082045935 -0.90407753 -1.319212 -0.38810506 -1.916034 -2.4430902 1.108265 -1.184273 2.5197084 -0.9526661 2.8190236 1.187133 1.4479243 1.4195195 -3.157621 0.49979815 -2.0726814 3.385977 -0.9653198 -0.3515753 -6.1476445 0.792369 0.114823096 1.9337314 0.9747979 -1.99899 0.36351195 -1.6459427 -2.1269429 3.1243486 -0.08928724 -0.8748622 0.6226974 -2.684275 -0.49187618 -1.9393053 0.5962847 -0.7588038 0.28852963 2.4254472 2.7841725 1.4860966 0.6688147 2.189338 -1.937571 1.6674632 1.2650856 0.30871618 -0.83802295 0.4183481 -1.7082183 1.0915082 -0.6350571 1.599651 0.15670808 -4.0628333 -1.2077411 -2.195402 -1.7609295 0.019538417
2174 -0.48578134 -2.4266944 -2.3110034 2.1303315 0.47806987 0.5454007 2.5270123 0.2396582 -0.21777645 -3.5070813 0.49779177 0.82951164 0.43619832 -0.1505792 0.8308044 0.5239062 2.8925753 0.49317124 0.8211213 -2.581603 1.8558818 -1.3605382 0.48427188 -1.1148065 -1.1487985 -0.727645 -0.93983734 -1.2728034 2.1074638 -1.3957239 -1.0800302 -1.1892531 -3.1745517 0.6390217 0.93689007 0.003063353 -0.27964115 -1.7715394 2.1205435 -0.20987608 2.451121 -0.5518148 -0.18180086 2.332506 0.73752946 -1.6675831 0.47020474 -0.4709187 0.49704495 -0.4794104 1.6216369 -1.7318215 -2.1825783 -0.24512173 -2.0547447 1.0671433 0.9787297 1.6516445 1.3784201 -2.5974386 -2.5688155 -0.8825494 -0.93618304 -1.2227024
75 0.41301498 1.3160179 0.10026867 1.4355476 -2.3770063 -0.2904428 3.3861604 -0.09059402 0.4040478 -1.5206492 0.0018177573 0.17389432 -0.16618548 -0.95221144 -1.4912695 -0.4685679 2.232246 -0.50268006 1.773728 -0.44063744 1.7533184 0.7983935 0.55153614 -0.17767036 2.0669174 1.9598056 1.0873011 0.25338468 -1.6587487 -0.21311845 0.1967441 -1.8108671 -0.5147823 1.2450293 0.37893787 0.8115023 0.56451267 0.4066153 -0.87096703 1.3486971 0.5289705 -3.9364455 0.48792124 -0.040345263 1.1152076 -0.019421212 0.8220479 1.0489036 0.79194516 1.0325794 -1.3707044 -0.19966932 -2.3940728 3.8303373 0.3105407 2.4852028 -0.5582431 0.40937266 0.6062954 -1.0446491 -0.57429814 0.107796565 1.8707289 0.8402004
65 0.30502197 2.9046054 -2.8256629 0.11103112 -1.5982558 1.3371788 1.7062553 -0.49441895 0.9358902 -2.324896 1.3538349 0.3969613 -0.864841 0.8840245 1.635212 1.1011132 2.076849 0.11880589 0.9509298 -0.13939902 2.4295208 0.03567296 1.2778757 1.4233444 -0.14700955 -3.7179182 -0.94590837 -0.22097534 0.075620085 -4.168076 4.1371274 1.7191286 -0.7105163 2.0780997 -0.2085263 -0.8487052 -0.8669892 -0.5996204 0.013831451 -0.012068988 -3.1591067 -0.21441431 3.0464625 -1.7917821 -0.24408647 -0.19261652 0.3520148 -2.678307 0.5738273 -1.4590411 -1.012953 -2.5934587 -1.8208969 -0.5876614 -1.9187657 1.4108568 0.87356377 2.862184 0.65178055 -0.959002 -0.94832724 -0.17493147 0.16848625 -0.14725192
66 -0.077589154 2.3410408 1.5293535 -1.1392969 0.96654624 -0.78285384 2.2319777 0.5648629 1.2623222 -1.0700332 0.094266765 2.5198145 -0.5979691 1.0404763 -1.8831813 -1.2390925 0.84686583 -1.7375098 2.5274844 -2.5360959 -0.9321991 -0.24171808 0.3991233 -0.75825447 -2.8787994 0.17172629 0.5573771 2.3391943 -0.38318133 0.24209304 -1.4840646 1.0310022 0.20745829 1.1335803 -2.7822528 -0.67968935 -0.45392847 -2.465994 -0.030190486 -0.12200798 1.6123815 -1.20799 0.3912503 -0.49596608 -0.7043607 2.1477158 -1.5309036 -0.3871329 2.4096992 -1.6951419 -1.9693259 -1.0101132 -1.4931458 3.5829225 0.9379449 -0.9747024 0.42505386 -0.2684301 -0.097598515 0.10558874 -0.8739823 3.89385 -1.4154291 1.032545
50 5.9227176 1.5725048 -4.342842 0.75262284 1.4720843 -3.9437232 -2.9338427 -0.97069246 -0.699799 -8.1443205 -0.45601204 0.9135571 1.585239 -0.7386695 -0.71998423 0.6607823 2.3566751 -2.3571224 1.8476679 -2.880803 -1.0439693 0.68178606 -0.95594937 1.8021803 -1.0589707 -2.0809236 0.54698116 0.5024392 -1.0938493 -2.4715512 5.397629 0.13464968 -0.5182942 -1.562076 0.035042454 4.606288 -1.6641576 -0.30204383 -2.131625 2.4242465 2.044858 -3.8035202 -1.8542813 1.6401496 -3.4466796 0.9768068 1.685568 0.9670205 -0.9718745 -3.3727272 -0.46948814 -5.468402 -0.76434696 0.9323186 3.9024365 -2.4146965 -1.7409034 -7.462227 1.0511941 1.4486965 5.021602 1.4581898 2.170148 1.6198282
69 0.32757986 0.50147665 -1.6292338 -1.5935248 -0.9397949 -0.75039613 0.13856895 0.32669407 0.19173808 -3.907905 -2.3199334 0.37648174 1.4591393 1.7716819 1.1936555 1.000652 0.7977218 1.0852193 1.3690113 -2.9393244 1.8221357 -0.5528617 -1.6471 0.018876147 1.3781095 -3.5088577 3.1768808 -0.381547 1.9098505 -1.4601783 3.166689 -1.2530364 0.28494185 2.0806139 0.85430044 1.3598361 0.49934766 0.05168808 -0.8724021 2.7386546 -1.0519329 -0.85728484 1.0438352 2.176863 0.8512432 0.5096631 0.20936403 0.985998 0.0861273 -0.0937425 1.2543823 -0.77822906 -0.30657127 0.7916966 1.2075785 -0.84542686 -1.7495346 -0.9924222 0.7447395 -0.61351866 0.08585814 -1.262515 1.0822563 -0.74522305
99 1.4723374 -0.25155833 -1.4820359 -0.6448502 1.6867666 1.5244123 1.449026 2.4132366 -1.0201013 -1.4362695 3.027139 -0.3954724 0.34970024 -0.0031823386 0.28869435 0.27793065 -1.8412836 2.930763 0.600823 0.40851122 2.9683633 1.6034106 0.49263614 0.3473755 1.0830206 -0.3792849 -1.4008231 -0.7247491 -0.70392597 1.1180036 0.6826552 0.84190315 -0.620217 -1.0626924 0.2039195 0.9788491 0.11377504 -0.6057706 -0.0029847552 -0.41610646 0.29784083 0.9711288 5.552571 -0.11904696 2.401143 1.8341954 -0.4641001 -0.28743914 0.4949573 3.5515144 0.090964004 -3.7753665 -1.0405852 3.055004 -1.3122957 2.7834373 -2.5726523 0.89525414 1.1389912 0.6595777 -1.4184021 0.123705074 1.5669011 -2.7317681
802 0.0989312 0.5120472 0.380702 0.6304222 -0.378964 -0.63521785 0.3222495 -0.43328592 0.77780956 -0.21790177 -0.48098928 -1.465545 3.256927 -0.8562019 -0.34350127 -1.0592227 1.4916561 0.30613074 2.7048826 -0.83647734 0.79341865 0.10513023 -2.5176425 -2.6301327 -0.14382082 -0.15828814 0.056943767 1.0997418 -0.1095634 0.6347193 0.27741095 2.3754048 -0.36947006 0.93333125 -0.98941827 0.5412424 1.229889 -0.9273699 0.33233866 0.98125905 0.1435216 -1.7141085 0.20177479 0.37596214 -2.1710587 -1.6875927 -0.32263383 2.0613942 1.4365456 0.16931313 0.23121929 -1.3602487 -1.877623 -0.5671509 -0.18488216 -0.029935217 -1.0298764 1.0679072 0.25603977 -1.1281431 -0.96073025 -1.7274334 -0.8164404 -0.045713708
1248 0.75792605 1.0718472 0.24000636 1.1637937 -2.0086727 -0.09651769 2.7837589 -0.35747224 0.39491606 -1.637624 -0.2700328 -0.0762802 0.4371382 -0.7686781 -1.079816 -0.24786754 2.0737002 -0.10212054 1.8228296 -0.5877282 1.7973768 0.57078135 1.0116997 -0.32380888 1.4081699 1.5737407 0.45613757 0.5593074 -1.0126028 0.037770603 0.46944964 -0.9433916 -0.2874946 0.9734764 0.13103956 0.773217 -0.17357142 0.27616054 -0.6057451 1.019316 0.6425571 -3.2389636 1.1675588 -0.20680544 0.7823377 -0.45766938 0.34043297 0.7749368 0.926208 1.1708946 -0.79752636 -0.43640798 -1.8692067 3.0753374 0.45367524 2.004729 -0.2892955 0.13112812 0.42792082 -1.3330625 -0.26351646 -0.05423305 1.3194917 -0.009542503
1414 0.13370445 0.5561189 0.28010356 0.5737231 -0.39207947 -0.660353 0.29447734 -0.44401652 0.72594714 -0.2336533 -0.5051984 -1.5027951 3.1248055 -0.83587146 -0.38078153 -1.022091 1.375224 0.24643828 2.541074 -0.7580717 0.77316827 0.099596076 -2.469502 -2.6267698 -0.063012876 -0.09175299 0.08903716 1.0058441 -0.086455904 0.66383404 0.2865933 2.3832178 -0.39519373 0.92046994 -0.9530337 0.47113544 1.2209412 -0.8881568 0.34086505 0.9726179 0.06986414 -1.6452074 0.19467758 0.38897273 -2.0588622 -1.595296 -0.3012791 2.0236123 1.2881027 0.15972757 0.23831096 -1.2685897 -1.7640946 -0.52777857 -0.16695113 -0.029533977 -1.0219282 0.9966134 0.22588505 -1.047208 -0.96543074 -1.7167588 -0.77081543 -0.07276466
2677 0.499671 0.22550957 -1.2479657 -1.0399 -0.51639503 -0.0021991364 0.5698071 0.14986545 0.13651252 -2.7341661 -1.7960596 0.7999005 1.3179172 0.82343763 1.0092617 0.64298755 1.1220726 1.1681848 1.3608402 -2.4526036 1.8588572 -0.3590042 -0.98764473 0.089428246 1.1848981 -2.9504225 2.0288904 -0.25487065 1.6730006 -1.1490284 2.1684217 -0.731396 -0.24999534 1.8935564 0.4799177 0.6801713 0.37760165 -0.44518453 -0.47706598 2.4285438 -0.7685113 -0.7935779 1.5020374 1.4232221 0.829555 -0.25244644 -0.1854609 0.83893377 0.33191958 0.18507594 0.7999624 -0.803692 -0.026991682 0.8859558 1.1792167 -0.62932706 -1.016732 -0.7200258 0.5773645 -1.222052 -0.31717572 -1.6620361 0.6772485 -0.75974196
134 0.5172839 2.212951 -1.2108618 0.43399397 -1.3249451 0.76501673 1.4978172 -0.08891804 0.8061016 -1.1962581 0.8630319 0.57822603 -0.8289656 -0.020382278 0.7337633 0.25558972 2.086673 0.14438896 0.2623624 -0.303058 1.8839201 -0.0025639534 0.8908999 0.73387563 0.6794788 -2.9223757 -0.80594873 -0.17398436 0.8495499 -2.6637805 3.0602458 0.8236614 -0.17899764 1.3214341 -0.48844546 -0.56927395 -0.4982333 -0.38548282 0.11642197 0.10378334 -2.2356513 -0.1280369 2.469553 -1.1667522 -0.02941378 0.07827739 0.054542385 -1.5807663 0.7943676 -0.9318959 -1.0728316 -1.691722 -1.7538477 -0.021384988 -1.4395407 1.1131785 0.4711791 1.4913608 0.26257464 -1.5882946 -0.59595543 0.26737797 0.32348204 -0.44860014
2715 0.5941174 0.44312242 -0.09867117 1.7366997 0.03377442 -0.45908272 -1.2900386 1.3356867 0.8520502 0.05488096 -0.5269405 -0.071653664 0.5397502 -0.60107315 -0.5126332 -0.26742065 0.78252137 -1.7614996 0.8618124 -1.8996813 1.2340388 0.806318 0.3510083 -0.17208128 0.0036436466 -0.56729597 -1.8907747 0.08291883 -0.20335871 0.93241525 -0.010619731 1.4051956 -0.89033127 1.0333796 -1.4839737 1.5715317 0.07153617 -1.4420794 1.2764862 -0.25210625 0.2848489 -0.91664296 0.99001837 -0.24925408 -0.7309924 -1.6480919 -1.0630374 0.18458751 1.7583907 -0.700526 1.238068 0.26387572 0.617528 -0.7076473 0.1377187 0.5012703 -0.44369793 0.4356088 -0.9213571 -0.40718934 -0.81902426 0.80519587 0.7879125 -0.5684977
334 0.6720743 0.42408824 -0.053823538 1.9116628 0.036050484 -0.5202449 -1.2471639 1.3754225 1.006889 0.080712944 -0.73454547 -0.040778603 0.67441195 -0.6393082 -0.4720295 -0.30496374 1.0266905 -1.9882827 1.0592066 -2.1690974 1.4908836 0.80717176 0.30701986 -0.11920331 -0.10486012 -0.72054267 -2.0482345 0.18004261 -0.22588179 1.0295655 0.024343284 1.4711819 -0.79216975 0.9980476 -1.5462552 1.810216 -0.0029455603 -1.7655463 1.4095492 -0.30818555 0.41761914 -1.0521522 1.0755076 -0.32224885 -0.80982035 -1.8044266 -1.087842 0.23648056 2.0387905 -0.739883 1.3759785 0.16858317 0.5757776 -0.7893701 0.15424857 0.6125698 -0.41357136 0.48689193 -1.0729321 -0.6603726 -0.7832467 0.7743513 0.79582995 -0.5405515
2843 0.57236516 0.33797285 -0.13784996 1.7469331 0.06227227 -0.3723958 -1.2669461 1.3295537 0.8336915 0.06446276 -0.5693984 -0.043667734 0.4917539 -0.58408725 -0.50513077 -0.24453011 0.7208025 -1.7373066 0.87627774 -1.8814906 1.1386747 0.80352557 0.36323392 -0.1259456 0.010980721 -0.53107554 -1.8857223 0.12898394 -0.14088105 0.9031655 0.005481423 1.4073086 -0.88232374 1.0339237 -1.4971832 1.6022955 0.08025651 -1.4327643 1.2639011 -0.23206526 0.26737776 -0.87315893 0.95497286 -0.29374897 -0.7315298 -1.6314254 -1.0763191 0.18408042 1.6713263 -0.65374786 1.2662771 0.29465687 0.5685758 -0.75139004 0.18260624 0.51304203 -0.43838736 0.44628245 -0.9129469 -0.4719498 -0.793143 0.8026508 0.7516315 -0.5443698
733 1.8859338 1.2062578 3.4902244 3.0361562 3.7159085 -2.2345731 2.4651926 0.12960383 1.1344473 -2.7231622 -1.6906351 -0.10730191 1.0097891 -4.6252995 1.3284616 -2.661009 1.484835 -3.289277 -0.040757343 1.5302668 -0.536865 1.0178008 -1.3437548 -1.3715178 -1.5234994 2.9876869 -0.82448506 -2.408261 1.164607 -0.6382441 1.6272904 -0.51221836 -2.3985145 1.0031639 1.3017526 -0.8940151 2.9623778 -1.1842741 -1.57171 0.07173086 3.4413726 2.1717556 5.0855384 0.39454967 2.1337318 -0.8185682 2.8197181 -4.091035 3.8120759 -4.1125636 2.4358394 -1.3083235 0.04673847 1.4534911 -0.32828724 1.3850139 3.8192427 2.3271978 -0.9344555 -3.2025735 1.8773404 -1.576937 -0.08380023 -2.3682594
1251 0.3176493 1.4835502 1.1424414 -0.5541476 0.6611436 -0.46621537 1.7590072 0.5372535 0.79585737 -0.6129784 0.09084707 1.6168171 -0.115432195 0.490466 -1.095812 -0.98749095 0.59474 -1.4945943 2.089777 -2.0798345 -0.569986 -0.23968625 0.26965323 -0.25882193 -2.0171125 -0.15184599 0.00059792574 1.3639963 0.088095196 0.50873053 -0.85848063 0.82514036 0.61673725 0.82025087 -2.0091357 -0.24142656 -0.67494357 -2.1132412 -0.15244445 0.13182802 1.2318867 -0.8761453 0.5233255 -0.65271246 -0.43196347 0.77255476 -0.88871926 -0.17612456 1.5442284 -1.4104135 -1.6269345 -0.95266324 -1.0126364 2.4212592 0.6047859 -0.504507 0.1659996 0.07843112 0.10166217 -0.34568697 -0.4742556 2.412224 -0.7639625 0.576231
2650 1.3643296 0.26312146 0.9073965 2.1577842 1.2471633 -0.50952166 0.82283944 -0.33548146 0.3176142 -1.5240872 -0.7341003 -0.13489366 0.93531436 -1.5805688 1.0555433 -0.89801323 1.2007194 -1.4676044 0.78102475 0.8492289 1.3941799 0.3596302 -0.80319124 -0.9669997 -1.0795051 0.7833114 -1.1854842 -0.1629927 1.8003159 -0.021488339 0.9359682 1.4019375 -0.9168745 -1.2791042 1.2253488 -0.29437625 0.23062424 0.027805803 -0.53595793 -0.35586095 0.603908 1.2333522 2.5251927 0.4391553 0.83445776 -0.6470859 0.6818884 -1.419519 0.54384315 -1.8274018 0.935968 -0.29259193 0.45355204 1.7497005 1.059541 0.04197273 1.8137397 0.3015249 0.07835384 -1.4900646 -0.26769668 -0.45223925 -0.18133752 -1.2165737
2398 -0.8040618 1.2797568 1.9670364 0.71031815 3.2400236 0.23894954 1.8745794 -1.1307325 0.062166665 -0.56119394 1.1547252 -1.3015679 1.245285 -4.276386 3.8995774 -2.352102 3.8411665 -2.6477666 -1.5124294 2.9861302 3.199243 -2.229622 -2.221563 -2.669625 -1.9258676 3.4408658 -4.4550123 0.31961334 1.4655467 0.4294689 1.0057498 3.5583344 -0.4014472 -2.4728901 3.8094397 0.0021243962 -2.6230044 1.8605262 -1.8636955 2.42543 -1.0080587 0.8759465 4.828759 2.108665 -1.0395522 -1.796982 0.5976811 -1.8815252 1.4910673 -0.8336242 1.5147506 -1.4344357 1.8359216 4.2415404 0.1316794 -0.10117225 0.6495387 0.39449713 0.8280566 -1.2178608 -1.1209822 1.4425076 -0.9628901 -1.2604644
745 1.9852031 -0.78819686 -0.99809366 1.0329629 0.048390795 1.0282259 0.5479896 2.6394963 0.089739166 1.3956571 -1.2388147 0.42709926 1.635554 -2.058341 0.007465854 2.1758406 4.111651 0.110221535 1.1309971 -2.9098926 1.0062681 -0.522424 -2.3732233 -1.3004513 -1.2504466 0.45647147 -3.1917322 -2.1697247 1.6606826 -1.3016878 -1.7177944 2.0958817 -0.19088727 1.619462 -0.94560516 2.0462098 1.9630301 -1.3417143 -0.046889596 2.40702 2.6685014 0.6189212 1.8796537 1.7205793 0.65807295 -1.2330893 1.194737 -1.5167228 -0.05761634 -1.9118844 -0.25528324 -1.6773295 -1.0283405 0.7453921 -0.14114252 1.5843495 -3.0948284 1.8454455 2.097896 -2.0643144 0.43265584 -2.3179064 -0.702225 1.4423013
2397 1.4768875 1.1146647 0.682076 1.3084027 0.44814372 0.89023185 0.8482892 0.22752982 -1.5354002 -0.26113442 -0.5798085 -1.3698406 1.6448488 -1.175823 -0.013887425 -0.33611962 0.77758896 -0.18233323 -0.7507818 -0.56593347 0.0007937508 -0.58557457 0.5977593 -0.46884456 -1.2017387 0.22064914 -0.63721883 -2.1931877 2.7230816 -0.06024357 1.0340822 0.30162942 0.44611284 0.053326152 0.5392249 -1.0364211 -0.54545146 0.04349393 0.25816125 0.5494608 0.568429 1.3289754 1.8682295 0.7076079 -0.38992384 0.027527306 0.11764855 -1.1910038 1.3556129 -1.2529887 1.0342181 -0.98204505 0.6506903 0.17639066 1.127659 0.47743914 1.968496 -0.10360958 -0.22341274 -0.1544319 -0.3535829 0.5611529 0.5732715 -2.1677945
2461 0.97274876 0.14440233 -1.7037426 -0.6312648 -0.046894196 -0.5191284 -0.5863128 0.6933729 0.48062256 -1.3289589 0.01172683 1.4135094 -0.33604354 -1.3999418 0.33718958 -0.3136053 1.832503 -0.40512797 1.9471534 -1.5404625 -0.015249199 0.0046397243 0.056310847 -0.044665195 -0.89149606 -1.6649855 -0.5452438 0.5660874 0.21778741 -0.4790225 0.85878897 0.33272618 -0.81265163 0.8217064 0.9506029 -0.6965907 -0.5138774 -0.4345024 -0.7339685 0.4001632 1.6828505 -0.95682687 1.279545 -1.1542734 -1.3821496 1.0684013 0.16038007 0.07117785 1.1141319 -0.06257013 -1.2396295 -1.0428787 0.056314606 1.4546809 -0.38938898 0.2659114 -1.0244001 -0.59542876 -1.007483 -0.060330722 0.0011397336 -1.7323895 -0.09017985 0.03310678
1672 0.08301688 -0.11448294 -0.80878437 -1.9503703 1.1096519 -1.0202825 1.837264 0.76516545 0.5548213 -0.5312997 0.94028866 -0.22365882 1.4945663 1.078023 -0.015405424 0.25147024 1.1617634 0.47370654 2.1072085 -0.82920474 0.7356645 -0.5663425 1.2797112 0.7732902 0.67796487 -2.5952265 1.5684259 1.6716968 1.5489813 -1.1157863 2.7649138 0.33436608 -1.32268 0.4616841 0.7197962 -1.7216634 -0.30931365 -0.40105987 -0.5673699 0.8796509 1.6227865 -0.59517306 1.5528865 1.5619044 -1.183984 -0.023793167 -3.0552933 0.043043472 1.7083166 -0.49225986 -0.25717527 -1.4797354 -0.20951037 2.0140796 -0.82340235 -0.8785831 1.4433813 -0.7476771 0.012400388 -2.6342485 -0.31117558 -0.51878506 0.15025233 0.19055277
2737 1.6679419 0.40060103 -0.3507566 1.2134157 0.15408057 0.95965755 0.7677982 0.17269798 -1.0385814 -0.1555552 -0.44367576 -1.556425 1.2983854 -0.61900765 -0.38239262 -0.27861574 0.18436767 0.02388096 -0.54130155 -0.60009134 -0.18140917 -0.36551923 0.7023869 -0.67402834 -1.5997232 -0.32150954 -0.2979786 -1.604105 2.8931556 -0.08931606 1.1662893 0.5280912 -0.14422293 -0.5445732 0.72768515 -1.3937429 -0.74010366 0.12990035 -0.039815124 0.5013782 0.28239235 0.5409815 1.4076892 0.9775984 -0.50013673 0.28040406 -0.061163787 -0.8016773 0.8743174 -1.21053 0.99866474 -1.0323085 1.1109573 0.051219705 0.9877785 0.533574 1.611045 -0.17589457 -0.07424279 -0.013778128 -0.79721403 0.42313227 0.58422077 -1.9885263
2578 0.09984614 2.2509046 0.03891735 0.97430915 2.3018632 1.3583637 2.9750576 2.3238544 5.773426 -2.4509208 -2.135605 -1.1735158 -0.83878475 -3.4680896 1.493887 0.4020164 0.4710051 2.3454704 0.18099433 -0.18940824 3.1147077 0.54272914 0.5611527 -0.13227391 0.9445461 0.7997012 -0.1945598 0.3807828 2.8149424 -2.7630312 -0.9318511 -0.6290485 3.1538162 0.6537254 1.188619 1.7954394 -1.0384198 -1.858168 1.6015728 -0.048278138 1.6569569 -0.04082911 3.0518804 1.7051864 0.16777344 -2.0179112 1.5546974 1.3488909 -1.651897 0.8950339 -1.8139179 -0.76418036 -2.059689 1.6937666 -0.6042235 -2.1518433 0.9826576 -0.13422118 1.0476203 -1.5523666 0.6339385 -2.7783003 -2.7464466 1.1056266
2389 1.1610099 -0.63083744 -0.841797 0.69870335 0.4240093 3.795343 1.6716076 -1.5849885 2.296322 -1.4226972 0.25394136 1.781798 1.7159098 -0.20255148 -0.05173646 0.7054963 1.8531957 -1.0108073 -0.48357835 -2.9553132 -0.2628974 1.0075876 0.59769064 -0.034058068 0.8143466 -2.2835894 -2.478889 -0.71886677 1.4757121 -0.3613487 -2.1010406 0.9795811 -0.02018499 0.05660693 -0.07543142 0.8263402 -0.46980843 -0.7172911 -1.173971 1.4064162 0.8379693 1.4116384 1.4300086 0.068010315 0.2480661 -1.934828 -1.3531921 2.4591198 2.308828 -1.4529812 -0.3449526 -1.4262284 -1.1117547 0.23057961 -1.3139108 0.8870563 1.0382369 -1.4143322 -0.6827132 -0.25476485 1.0998006 -1.3710512 -0.5063571 0.92773366
2337 0.020757534 -0.75603193 1.0125108 1.1685641 0.47905824 -3.9982498 -3.6479745 -1.6293168 0.43611443 1.5889424 2.3333218 5.2919574 1.6872368 -1.9994727 1.7603678 0.36015365 2.1003184 1.0955987 0.010977806 -2.308818 7.336448 -0.35002473 2.4489017 -3.9326487 -2.1169927 1.8423722 0.0807041 -4.67734 3.2132368 -2.073434 0.8423367 -0.32799497 -0.10531131 -2.120414 1.3821155 -0.37620178 1.843316 0.7231669 -0.25801876 2.3411217 -0.04788085 -4.426931 3.7787204 2.4917855 -3.3874986 -0.17923367 -5.224591 2.425892 -1.6602646 -0.6923283 -4.427122 4.2566905 3.609097 -0.44277978 -0.81114244 -0.891798 1.0328137 -0.76068705 2.04594 -0.96198297 -1.4775962 1.2550102 -2.21431 -1.196493
682 0.4180831 -0.5308026 0.8427764 0.4880505 1.1871833 2.2664843 1.0753933 -0.6484575 3.1586924 0.2654107 0.109307416 1.3609632 1.821715 -1.1407275 -1.0324093 2.5132897 1.9763385 -2.2899084 -0.20678596 -2.1563869 -0.075915955 1.0037445 0.8479588 0.022170395 1.8215429 -0.9591589 -2.1590996 -0.41365913 2.3472059 1.1175017 -2.215242 -0.56496257 0.46742323 -1.1229357 -0.47478905 -1.0639582 -2.2350268 -2.1016467 0.122784086 1.8130093 -0.67956966 0.07923775 1.8359481 0.042091835 -0.2884405 -2.0950925 -1.7261596 1.7314993 3.6180263 -0.20977402 0.91195166 -1.8595314 -1.199866 -0.043356016 -0.58437836 1.632149 1.2156459 0.31546214 2.085269 1.5051377 0.20686336 -0.8246228 -0.5634296 0.82782704
1658 -0.741176 2.3509164 -0.28084996 1.6219124 -3.8045437 -0.2502493 5.526193 -0.29330623 0.8267346 -2.9453158 -0.6188278 -0.48640552 0.7219134 -0.048448972 -2.695484 -1.410673 1.8016455 0.28261274 1.4219496 -0.4244628 1.1476268 1.5260078 1.8042195 -0.39760906 4.4978337 2.2223437 2.3185441 0.3120005 -3.7407541 -0.20550288 0.46976587 -3.286843 -1.7864295 1.0412334 0.5139786 1.2827227 1.0516859 0.8100622 -1.9678245 1.5664719 -0.74240816 -6.8248763 -0.12536031 -1.1190621 2.5358508 -0.38892248 0.4719525 0.9199356 -0.4716378 4.042595 0.1380253 -0.070372485 -4.730383 4.284595 -0.8931611 3.8987954 -1.3883035 -0.90501463 -0.10405468 -0.67211676 0.14511609 1.5752118 2.4182193 0.9510806
2328 1.230884 -0.23490556 0.64220923 0.9365325 -0.05750341 1.0218047 2.06686 -1.1822599 1.987799 -0.554322 -0.5820148 0.18523462 3.4308279 -2.1304014 -0.7349635 1.4286933 1.3376297 0.88539374 1.7231076 -1.5691699 1.5030661 0.03582692 0.5878623 1.4759574 -0.8785861 -1.6722645 -3.543918 -0.7598892 0.9961526 0.30980164 1.4346614 -1.1604786 -0.8786291 0.44758272 1.6949301 1.3482631 -0.96619177 0.112829596 0.57076615 -0.09685973 1.0373584 -0.6225044 1.5583922 0.50208485 -0.27294222 0.23083238 0.47020146 0.50942284 -0.034396403 -3.1300435 -2.1439567 -0.6654434 -2.646731 -1.5944213 -0.29613483 -0.83224183 2.170309 0.9592896 1.1539047 -0.09892169 -0.4276688 -0.69739366 -0.3004092 0.38176745
2349 0.89672554 0.10979365 -0.60412717 -0.6032612 -0.07874308 1.1592268 1.1233145 0.85333276 -0.45244512 -1.4549977 -0.21403565 -0.14204453 -0.030006532 0.42892635 0.3812263 0.21229813 -0.11513566 1.4806894 1.4246672 0.6572773 1.5958188 0.68668664 0.25846854 0.38291705 0.7949122 0.23083505 -0.72319835 -0.3394382 -0.4823452 0.6853708 0.8440179 1.1930918 -0.59942514 -0.4455872 0.12385449 -0.02598907 -1.2277093 -0.29530725 -0.49418935 -0.5880892 0.51845604 -0.7626935 3.5592518 -0.4006754 1.0808047 0.755139 -0.39179835 0.06163439 0.10781153 1.4408534 -0.36679623 -1.9843159 -1.470224 2.15552 -0.66440827 1.4020575 -0.6119972 0.5078395 0.6402151 -0.1908271 -0.18367495 -0.36268553 0.8702126 -1.4717463
1249 -1.254948 -0.73556817 -0.08836119 0.9350074 -0.7042351 -0.784928 -0.3786037 0.27759123 1.0365685 -0.008305548 -0.3130906 0.50085735 0.44569287 -1.1004193 -1.4686044 0.34852237 0.39515772 -0.19975267 0.4975195 -0.7846449 0.26033315 0.5127136 -0.8012196 0.3342478 -0.19792996 -0.34991404 -0.84755266 0.4492534 0.18309551 0.2326804 -0.57848686 0.21278743 0.14584132 0.052572135 0.05854437 -0.089450486 -0.29326746 -0.37249264 0.32359132 -0.58424336 0.3807685 -0.76718694 0.2829463 -1.0681596 0.33881602 -0.050268874 -0.8580813 -0.41306257 -0.43075955 0.9390509 -0.5248884 -0.40200573 -0.2885903 -0.14780484 0.4214541 -0.59111094 0.4764645 -0.14650877 0.75129133 -0.09941891 0.29339102 0.22444488 -0.21711874 -0.98735166
1928 -0.007731724 -0.24489476 0.86148304 -0.42081696 -0.2940279 0.4236503 0.24029627 0.15149462 0.2056333 -0.48883715 -0.14377624 -0.23109826 0.60586303 0.21290049 0.90268815 0.11643204 0.6863513 -0.25790498 2.1814857 -1.0959221 1.3370695 -0.9639323 1.0962869 -1.2135252 0.36775365 -0.57352555 0.019540109 1.3444821 0.25733858 -0.4349785 -0.4382845 -0.5233186 0.73976964 1.5962254 0.3943908 -0.37820345 0.8661958 0.07147822 -0.7607589 1.2591152 -0.18538378 0.38960424 1.0485349 -0.59306514 -0.14442018 0.08937367 -0.71181256 -0.7287127 0.6942464 0.2216694 -0.9020518 -1.3437475 -1.4576095 1.8225726 -0.4761486 0.74175423 1.5118338 -0.2855462 -0.12932026 -1.430331 -0.8943138 -0.7273146 -0.40561953 -0.57391435
2125 0.1728271 -0.5901424 0.53954804 0.0031503318 -0.22188447 0.23621869 0.17905802 0.338728 1.2302785 -0.8931393 -0.73380095 -0.9482789 1.4241611 0.46505988 0.7070566 0.059007898 0.8419257 -0.2335842 1.9959886 -1.323363 1.1798226 -1.3468974 0.6347942 -1.6700368 0.4343396 -1.0438198 -0.37620384 1.511721 0.8488914 -0.23093283 -0.35501316 -0.3657651 0.36937052 1.1911693 0.49723527 -0.99733406 0.48012286 0.49259207 -0.37807596 1.361583 -0.14601777 0.6269482 1.1699419 -0.43617657 -0.25476128 0.4723604 -0.42813408 -0.80322117 0.8755165 0.5125603 -1.0676928 -1.1013508 -1.2273066 1.2852473 -0.54158443 0.6195821 1.2852979 -0.34482017 -0.21073121 -1.5157369 -0.8596435 -0.47606808 -0.29194167 -0.42280015
706 0.12879133 -0.2306408 -0.24087858 -0.20487173 0.35038152 -0.014943209 0.7779179 -0.029190337 0.14243868 0.31091136 -0.9226945 0.5106165 0.09247282 -0.26130077 0.51281846 1.0209663 1.8285363 0.4947785 0.05030136 -1.4538476 0.32154283 -0.1679923 -1.0620418 -0.3631057 0.35895035 0.028680993 -0.4740675 -0.0895502 0.7712686 -0.21430066 -0.9951963 0.83318675 0.38559842 -0.3558292 -1.7755698 1.0626367 0.38261208 -0.45380062 0.16359273 1.0804365 0.9388483 0.5544544 1.2918171 -0.31373072 -0.116250396 -0.76570845 -0.23654492 0.14130199 0.5080367 -0.7028279 -0.06467183 -0.8267889 -0.18158026 0.21393949 0.93535894 0.41347986 -0.5489169 0.96125966 0.5945022 -1.6316966 0.08810325 -1.5670652 -1.0905112 0.560418
116 0.2081336 -1.5568974 2.3469298 2.169476 0.44977596 0.3624448 0.057219967 -0.05987372 0.16405395 -1.3588672 -0.44944307 1.5585406 1.5943854 -0.08610512 0.64534295 -0.28716633 0.23466893 -1.8248874 0.06250471 -1.0604934 -0.32093063 1.2438749 -0.18309322 -0.42605615 -0.57017285 0.23348664 -1.7376122 -0.07662515 1.4126388 -0.8275753 -0.9195262 0.56994367 0.1736268 -1.4961547 -1.1749418 2.4284275 0.029610006 0.2395393 0.2882531 -0.5921063 -0.30796796 1.5893286 -0.067559734 -1.2375834 0.6740467 -0.71483904 0.40343162 -0.8684327 0.22447515 1.2785258 0.21179074 -0.7115881 -1.4012203 1.0773883 1.2754779 0.4336044 2.4014452 -0.4435416 -0.5087761 -1.7997388 0.4742746 0.20865953 -1.2702872 1.0395479
1752 1.4612763 1.1673207 -0.3203286 -1.2057236 0.020028684 0.81066155 0.6379254 -1.0103029 -0.22661744 -1.9027221 -0.7631545 0.49355775 0.66343975 -0.4297395 0.28562546 0.4713702 1.0097548 1.3060137 1.1694856 -0.51836145 0.88982373 0.2556531 -0.26653948 0.38507485 0.09992922 -0.41961166 -1.3274199 0.061634853 0.9537201 -0.2508014 1.0916132 0.71840376 -0.9203298 -0.48080203 -0.6836614 -1.4464369 -0.6282054 -0.25727507 1.0204256 1.1174792 0.023954418 -0.40019742 2.1682632 0.59256995 -1.3379886 -0.6147679 -0.64393216 -1.2350321 1.0334266 -0.20413458 0.6343427 -0.69806814 0.44298676 1.5871875 0.08687348 0.026331175 -0.35972884 -1.4581583 0.6565833 -0.65765476 -0.4185515 0.4687277 0.6111378 0.45071322
746 0.49595702 0.38492095 -0.12548661 -0.42994392 0.260041 0.46875468 1.2554395 0.48801666 -0.44433033 0.04981607 -1.1819657 0.46934286 0.6813985 -0.13410176 0.258441 0.79231477 1.5279022 -0.22834492 0.38868383 -1.2367113 0.5075657 -0.5364539 -0.6801038 -0.7682158 0.51703465 0.19188651 -0.48655024 -0.12633394 0.24397472 -0.01678826 -0.32421163 0.6418843 -0.08864653 0.64611495 -1.1535429 0.43270352 0.39723116 -0.6311816 0.5770344 0.7766512 0.34978634 0.19621578 0.99820805 -0.29322496 0.17459354 -0.8200821 0.12823655 -1.0716983 0.13797799 -0.15268682 0.4567511 -1.2828822 -0.24041857 -0.21681991 0.056650203 0.8269592 -0.32167134 1.14415 0.7237224 -1.7324356 1.0356461 -1.0239611 -0.5861111 0.4930635
1247 -0.2252252 -0.627584 0.66717213 -0.044828136 -0.35763535 0.4074428 0.9111243 0.19271779 0.62292016 -0.2113377 -0.45490623 -0.95942444 0.6918835 0.33104694 0.3841288 0.090788014 0.53875923 -0.21650499 1.4362131 -1.3465371 1.101253 -1.6559668 0.8271079 -1.0597082 0.5052763 -0.9303671 -0.10994653 1.3387036 0.80393296 -0.037539173 0.0272096 -0.40041092 0.38550058 1.6424292 0.49947882 -0.94039994 0.937733 -0.050831147 -0.5533046 1.1172298 -0.05783488 0.5866234 0.8293713 -0.58833283 0.07950578 -0.600735 -0.36845505 -0.9581064 0.6432421 0.15733519 -0.44370753 -1.1880825 -0.766891 1.116939 -0.57072365 1.0127586 1.3169514 -0.6730145 -0.20198716 -1.6300193 -0.53759074 -0.8867029 -1.3357745 -0.53870475
2532 -0.26130065 -0.25422534 0.21225171 -2.5831935 2.5475986 -0.9673122 3.2838008 1.1767493 0.9727567 0.41422513 0.45127156 -0.7580034 1.1797807 1.6358931 0.27011886 -1.009529 1.1486005 0.3827039 2.2118294 0.08163772 0.7930954 -1.0193738 1.3369871 1.9740677 1.5385035 -2.4685578 2.1560817 2.2581732 1.6355559 -0.31587386 2.9710488 1.4909006 -2.6241753 1.1757026 0.5697682 -1.5858036 0.15777624 -0.9294928 -1.6515232 0.25816995 1.4412004 -0.70489657 2.5081112 1.955941 -1.3522658 -0.4337735 -3.2740726 0.90094036 3.075722 0.5140573 -0.6527827 -1.3556008 -0.42292285 1.6377826 -1.2536772 -1.3043677 0.9588771 -1.1406199 -0.58455205 -3.674243 -0.7008039 -0.14281854 -0.13241205 0.8953294
2664 -0.13821627 -0.4187213 0.20541105 0.40467012 -0.69941 -0.5012837 0.9482315 -0.29630056 1.6702474 0.12656502 0.2665485 0.21408325 0.58581233 0.24828611 -0.77046317 0.82668227 1.3042928 -0.065476835 -0.06907129 0.31361312 0.22299054 0.29034653 -0.7001317 0.27103862 0.2361602 0.0018221145 -0.61892974 0.13937569 0.9611347 0.49808586 -0.16458139 -0.12707728 -1.2959131 0.49199298 -0.45723757 -0.48983404 -0.038142193 -1.3724308 0.57092994 -0.93306434 0.03994762 -0.12943117 0.8164004 0.09165844 -1.1307919 0.19346946 0.27108574 0.38273063 -0.20294721 0.5868135 0.3664187 -0.5311978 0.13929108 -0.7917454 0.21506158 -0.037264332 0.93641 1.1131237 -0.56037986 -1.4353803 0.97945017 -0.02702294 -0.85761416 -1.2309318
2393 2.1866612 1.0320129 0.85707957 2.282151 3.25356 -0.86037034 1.0595247 0.38576207 0.11362025 -1.0867105 -0.89438826 -2.4727142 0.12033128 -3.1108854 0.6446109 -1.6059349 0.4450055 -1.1382898 -2.2202704 2.743595 -1.7604551 0.84650815 -1.2857741 -2.353243 -3.3331594 2.341301 -0.41856548 -3.7243152 3.7871125 -0.24194068 1.7187936 0.9236663 -2.7554646 -2.666447 4.667232 -1.7192277 -0.26186362 0.6937825 -1.3921248 0.952064 0.6765084 4.6625032 4.947275 1.6684319 0.7556666 1.1537368 0.6425528 -2.6975927 0.22790998 -5.469259 3.6698406 -1.0736375 2.7241485 0.826521 0.95383596 -0.39203122 1.4025289 0.39198527 -1.0819952 1.2771016 -0.94579786 0.83092964 0.03824751 -5.0222983
237 -1.7760947 0.750786 3.3660407 1.4492424 0.36399004 0.18298937 0.4662189 -0.75128424 -3.4775188 3.4113436 -1.6277213 0.8856929 0.22651447 -1.1701784 -1.201776 1.6402111 -2.0810683 -0.800278 -1.5442437 0.5464278 1.8738217 0.042448647 -0.14311264 -2.4375668 -1.3678623 1.099905 0.68219566 2.5940597 3.818939 2.0230494 -2.0924065 0.97075945 1.3833144 4.5579534 -0.15810092 0.8216459 2.4527278 2.0343559 -0.95506966 -1.8524005 -0.006523544 2.953051 -2.6596808 -0.7597177 0.049436476 2.3663416 -1.0793897 -2.2452521 1.6428246 5.435437 -2.1518826 1.8617198 -0.23859382 -0.7243459 -1.8703941 -4.5901957 0.4539455 2.1068344 2.183733 -2.9707367 2.968514 -1.5170225 -2.5272095 3.8615036
1258 1.2904917 4.090279 -1.6410787 -0.7179832 -2.8796039 1.4053025 2.4494848 -0.8064899 0.9223325 -1.0460668 2.2211716 1.1074839 -3.0263834 1.8828527 1.2526389 -1.1163834 3.7850263 1.2736412 0.579972 -0.5996296 2.492112 -0.059566602 1.8561438 0.8533815 2.7933624 -3.7982826 -1.2230808 0.9902559 1.6548759 -6.7161756 3.8315327 -0.2682385 -1.7305096 2.3393502 -1.9856113 -0.23737907 -1.4139818 -1.2964754 1.3547403 1.100751 -5.6068563 1.7261546 2.5574603 -1.3289104 -0.003460803 0.90864706 0.5109385 -3.1697073 0.6364809 -1.1037321 -1.200485 -2.7416406 -2.9555206 -0.5956323 -4.8800526 2.2065752 -0.89375734 1.7562371 -0.46726245 -1.4598976 -0.41452107 1.7620873 1.769338 1.4294012
1808 0.65510416 0.5093931 -0.9648042 -0.6878701 0.1267596 0.9366826 1.0692178 -1.9188738 1.6681929 -0.49009186 -1.3626333 0.20070474 -0.13698038 0.7986488 0.886272 0.4706551 1.9305617 1.803616 1.1874716 1.0163485 0.36527118 0.046284772 0.9121448 0.16885495 0.95587474 -0.44692007 -0.98539287 -0.41073862 -0.24094082 -0.24384907 0.25213674 -1.0613526 -0.8873179 -0.1092889 -0.6931564 0.33746326 -0.9170044 0.18493278 -0.07238422 -0.54964215 -0.4651718 -2.1802359 3.7596424 -0.2799022 -0.74072754 0.47496998 -0.95733804 0.40729004 0.88658375 -0.047653902 -0.46008268 -1.5208985 -0.4619248 1.4807055 -0.00907739 0.039725404 0.55339944 -0.54645455 -0.5426133 -0.19209835 0.3200133 -0.4463866 0.88967544 0.9152938
2504 0.28356868 -0.45318455 0.5672319 0.2446566 -0.8300767 0.091984004 1.1712639 -0.34656796 1.3521518 0.4093407 0.6508839 0.1580024 -0.06903278 -0.097262114 -0.83511436 1.1837157 1.38925 -0.21102042 0.40565512 0.77807033 0.9108999 -0.061466075 -1.0557636 0.36149657 0.50913876 0.31926513 -1.0753247 -0.0715683 0.2992316 0.49012247 -0.18895686 0.11399588 -0.5612922 0.8637314 -0.92714363 -0.22361831 -0.09368164 -1.1818496 0.7825527 -1.2046933 0.28146574 0.21655975 1.1644906 0.29199427 -1.6035533 -0.54004794 -0.17389761 0.20778392 0.053206455 0.5254377 0.46335185 -0.54804516 -0.1725214 -0.6306185 0.3198997 -0.5332692 0.50355935 1.1428299 -0.65059173 -0.96679664 0.8198378 -0.213703 -0.26741543 -1.1884392
2820 0.35520357 0.5445168 -0.19798292 0.010743 -0.36408815 0.08257984 0.8888099 -0.2681195 -0.2313263 0.03341991 -1.0300385 -0.015795825 -0.15216653 0.29332924 0.32328808 0.69969213 1.4390011 0.047318667 0.2789107 -0.67802143 0.71195257 -0.07801556 -0.32866904 -0.05098567 0.40875015 0.08193759 -0.27672508 -0.21630463 0.68827224 0.22541808 -1.0273966 1.3468109 0.36869425 -0.0014809144 -1.2340616 0.67604494 0.29344973 -0.7501424 0.6142447 1.0551002 0.2608078 0.13380909 1.1277975 -0.35078987 0.5030173 -1.01166 -0.15749678 -0.56012344 0.30772492 -0.18002495 0.27641487 -0.838196 -0.016603068 -0.14172755 0.48464942 1.0320331 -0.74164337 1.2765561 0.41672724 -1.5454146 0.803189 -0.8810919 -0.47419748 0.7637837
380 0.2919692 -1.5856429 0.31388775 -0.6321271 1.1939348 1.9104842 1.8161622 0.11411393 1.239648 -0.8650579 -0.6176542 1.1467729 0.5223083 -0.12831768 -0.43727714 1.1485777 1.1914685 -0.7591542 -0.17645456 -0.8320586 0.4290133 -0.2944662 0.2255311 -1.1032776 1.4601601 0.26529437 -0.88745177 0.6750998 0.067496404 1.530411 -0.9601877 1.1638713 -0.50338227 0.93231434 -1.6954511 -0.7911851 -0.12699011 -0.76311404 1.8166149 1.8658658 0.45641533 -0.16435836 0.49256372 -0.0015774964 0.5839745 -1.2821512 -1.3864379 1.0928562 1.0894227 -1.2037952 -0.67770404 -1.6411635 0.63923657 -0.4836176 -0.14670545 1.5799173 0.35721868 -0.8124494 0.18312302 0.039855637 1.0177215 -1.4155692 -0.42331207 -0.594896
1341 2.608252 -0.9312763 -3.517986 -3.3702464 2.7963967 -2.2701201 1.3922269 -0.35623142 0.6853382 -3.2904437 -0.9053143 2.2793026 0.8482373 -0.11819243 3.1869557 2.2074184 2.1401925 3.15648 2.0993066 -1.6452731 0.49875268 -1.2903672 0.48869804 -0.3637662 2.7318919 -5.157551 5.3130794 -0.13019577 0.7564596 -3.6007113 3.5798233 -1.8790853 -3.551843 0.52585953 0.8112304 2.5214908 1.686568 -0.7940726 -0.3051553 5.4048934 -2.9458506 -0.93600273 1.7372353 0.979956 -0.62984526 2.10289 -0.94559234 0.68570656 -0.47612736 0.043927807 0.781164 -1.7200131 1.5145996 2.2043364 1.2388905 -1.9835232 -2.328722 -1.8368031 -0.09247904 -1.4395227 0.49587396 -2.5426726 -1.097877 -0.49985522
2444 3.7989678 1.8142486 -2.893517 -2.2680383 3.991628 -0.8394168 1.2153183 -0.18384811 0.6971301 -2.834883 0.44829485 2.8526843 0.42441335 -2.1398501 1.8952693 1.0242947 2.7134397 3.400548 0.22731492 -3.559427 -1.9879307 0.72972417 -0.29343727 2.5863504 0.9195766 -3.0854356 0.880713 0.086438574 -0.18561903 -1.6674157 2.719858 -0.2669204 -4.795731 -0.728148 -1.5394608 -0.49869055 0.71807426 -2.1315777 -1.1986858 3.7903745 2.446948 -2.3238997 -1.2047284 -3.5732155 -3.6058877 1.5596075 0.26367208 -0.19623277 0.33511072 1.5351447 -0.48881927 -0.14201528 3.0844953 -0.32459262 -1.2621017 -1.6340263 -0.9535834 -3.5387187 -0.5641933 -2.429296 -1.2539177 -2.473965 -0.6809433 0.87100613
1650 0.45992902 0.05054049 0.19717138 0.43053263 -0.82380265 -0.3879439 1.564827 -0.44847977 1.3800448 0.08760152 0.5233223 -0.2999084 0.112244286 0.06460202 -0.5002615 1.0069416 1.0366572 -0.022044824 0.5384829 0.2751176 0.35630563 0.5774427 -0.6114511 0.39631325 0.09195052 0.37538818 -1.223494 0.38938284 0.49502227 0.3825352 0.15873972 -0.3424892 -1.227942 0.31301588 -0.38173828 -0.074820794 0.06547289 -1.2867029 1.1291611 -0.60289955 0.11710489 -0.015242031 1.3162951 -0.09741355 -0.3186941 -0.049157966 -0.12926126 -0.14463286 0.24523969 0.24084947 0.760058 -0.7489364 -0.122270636 -0.88033456 0.49673524 -0.49542317 0.66343635 0.83753824 -0.66234064 -1.1341732 1.3528014 -0.31948963 0.094731994 -0.9831049
993 0.37698638 -1.2951547 0.33607844 -0.35952663 0.3646258 1.9751936 2.2771678 -0.8014637 1.7857347 -0.75703925 0.07813292 0.943696 0.9255251 -0.4927271 -0.91246873 1.5511658 0.8035086 -1.0022925 -0.40983993 -0.7929396 -0.38293388 0.24439625 0.46182337 -0.83836484 1.5085769 0.48318663 -1.3493799 0.58973294 0.7374054 1.6158364 -1.2732255 1.0492759 -0.5078609 0.6399311 -1.3518744 -0.13303357 -0.16843808 -0.42527726 1.4289641 1.6940624 0.6436596 -0.24004363 0.63130456 -0.5131901 1.0143818 -1.2931767 -0.6771255 0.33157158 0.9975017 -0.6565034 -0.58457255 -1.8909587 0.46041462 -1.0543871 -0.4325581 1.3534565 0.9467868 -0.6109242 0.41686743 -0.43045333 0.98137784 -1.1823249 -0.26736304 -0.35753354
1777 0.35745186 0.03264157 -0.42768028 0.051253017 -0.48107845 0.13315757 0.9861841 0.20960933 -0.044935033 -0.071462356 -0.8930275 0.21484205 0.47021532 0.26327068 0.1694272 0.7735736 1.1080894 0.020928461 0.31792367 -1.1470045 0.2723975 0.2668134 -0.8000917 -0.83122057 0.3130488 -0.079457 -0.51898384 -0.1348616 0.58505994 0.59894115 -0.35592133 0.7554219 0.26719898 0.093721636 -1.2197577 0.5075497 0.29235777 -0.88441575 -0.120308444 0.6824324 0.7729626 -0.20173937 1.0936116 -0.4431937 0.6519962 -0.65415794 -0.05335788 -0.5441012 0.06529401 -0.75057936 0.050811186 -0.8021429 0.22926745 -0.19930623 0.19976886 0.8668605 -0.32174227 0.89392537 0.9096364 -2.00792 0.673288 -1.3433349 -0.5980611 0.20432949
2761 3.0521364 5.250618 -4.009191 1.4084556 -2.1013725 0.16524255 3.0573401 -0.22304949 -1.7209612 -1.031022 -0.82083315 -0.5498235 -0.9293694 1.9948893 -1.391921 2.216896 1.2982085 0.035504304 -0.30156228 0.68171066 3.3496618 -0.5395517 1.9282839 2.619344 2.386201 -1.064245 1.6035726 1.3622229 -0.31965682 -2.6091948 2.3256059 -1.2442583 -4.606505 3.6464047 0.21612236 0.17387547 1.0508388 1.270006 1.2617476 -0.38347933 -1.8126998 0.15793696 -0.34007165 0.9545401 -0.43447974 -3.185961 -0.7588973 -1.6761268 -1.9201727 0.2831793 2.2939472 -3.9902174 1.189221 4.628032 -0.54436165 3.3521416 -0.8405521 -0.73514795 1.6490599 -0.6693433 -0.05752536 2.5815897 0.33772793 0.47521698
1550 0.67078686 -0.9502372 -0.030021222 0.6327429 -0.31052276 0.08790865 0.568723 -0.3729648 0.42425635 0.44531792 -0.92134696 -0.1336121 1.4854937 -0.5271251 -0.03687105 0.7059901 -0.021664329 0.55098367 0.57108015 -0.9511979 -0.17254393 0.39167362 0.20351727 0.7510863 -0.738441 -0.2136374 -1.9761875 0.09211153 0.90527415 0.22956215 -0.2640864 -0.25401208 0.32602745 -0.370436 0.3159878 0.30707115 -0.910308 -0.017660301 1.0110662 -0.4653521 -0.14495538 0.16603544 0.6846593 -0.5863521 0.23186335 -0.44054163 0.30886674 0.62217 0.4285316 -1.4452047 0.4264331 -0.5542019 -0.36958498 -0.031063564 0.9803333 -1.1620675 0.40784803 0.25417885 -0.07008652 -0.58424145 -0.43594593 -1.0005624 -0.48660913 -0.3188914
1608 1.0521314 -0.44903788 -0.57417667 0.71553004 -0.3046269 0.6523578 1.0442631 -0.3268031 0.28094688 0.45630297 -0.8354489 -0.40540648 0.7238236 -0.7119288 -0.25543213 0.93189776 0.29393536 0.08185111 0.5824619 -0.5450245 0.5880527 0.14147153 0.8824487 0.30983943 -0.5735733 -0.2941288 -1.7371883 0.19952916 0.2696452 0.23914576 0.81041896 -0.46462497 0.38780707 -0.8795241 0.5273486 0.7432697 -0.84525293 -0.4493657 1.5458149 -0.43060595 -0.07065324 -0.023113513 0.3635489 0.36836505 -0.5120471 -0.66613084 -0.07871715 0.5947699 0.81629235 -0.64511687 -0.15018226 -0.6771958 -0.6169939 -0.47308865 1.0362343 -1.0599562 0.975474 0.28401116 -0.2738562 -0.12706272 -0.35416004 -0.74712807 -0.848202 -0.6006671
952 0.95125026 -0.6103295 -0.11354319 1.9199806 -0.51539403 0.1273133 2.420301 0.46585032 -0.578614 -0.3623885 -1.5428392 -0.43219626 0.46209937 -0.046364512 -0.48304713 -0.43890655 -0.4621398 1.150164 -0.045619145 -0.41729343 1.1436563 0.81890774 0.16524683 0.36444488 0.29068035 -1.2863367 -0.5834277 0.47518232 -0.36053532 0.17514512 -1.5784229 0.5763467 1.1584762 0.7828233 0.43018898 0.69662464 -0.35854104 -0.9488427 -0.13440728 0.05785219 0.32910088 -0.62914705 1.0056101 0.012647837 0.06324934 -0.75345516 -0.24254586 0.37015408 0.39634702 0.2939274 -0.045350514 0.37010527 -0.9577443 0.8421072 -0.7357334 -0.5426471 1.6199318 0.16941202 -1.0803103 -2.0286796 -0.30643225 -1.4592977 -0.4088797 -0.1223002
2796 0.98713654 0.6575126 -0.43837813 -0.100551665 0.6614967 0.12119404 1.7818483 -0.8144 0.84365565 -1.1250687 -1.2132546 -0.24424757 0.3867812 0.20882317 -0.1714328 1.0805849 0.8001698 0.69859505 0.2963619 -0.15678081 0.86628807 -0.15760547 0.8078569 -0.7578502 -0.43048033 0.5521619 -0.4641925 0.15876758 1.0281812 0.35800588 -1.084501 0.11396441 1.1507037 0.1102083 0.5601325 0.06511274 -0.37783545 0.17076918 0.5098881 -0.3919385 0.3634732 -0.7316013 1.7502823 0.4216522 0.9242317 1.0260152 0.45081148 -0.10178153 1.1372354 -0.43931156 0.3485107 -0.35237154 0.6410368 0.53555423 0.17547701 0.050571587 0.61828274 0.39874417 -1.620614 -1.524412 0.601262 -1.1560894 -0.6166855 0.015618824
1146 -4.8636494 -1.3235902 -0.24036092 1.3578106 -0.35118604 -0.32869738 -1.1628314 -0.30493718 1.0492884 1.5015769 -0.10654375 1.6339129 -0.86598736 -3.6417947 -2.0384083 -0.47304058 -0.3879429 -1.4462998 -1.0743877 -2.395706 -0.039362736 0.6034634 -2.5458903 1.6227926 -0.48365697 0.18856147 -1.3922948 -0.29453787 -1.9789217 0.4549533 -1.3551949 0.074566506 1.4120545 -0.18817665 -1.7837169 1.6592407 1.2474684 -0.6553356 -1.03214 -2.193564 0.14282016 -2.5453544 -0.3016035 -2.7543795 1.4553541 -1.3758693 -1.1560084 -1.2553747 -0.6557675 2.8693376 -0.14235297 -0.5347712 -1.175117 -0.74605614 -1.8910697 -3.1021 1.4783468 -2.294176 3.6898358 -0.584391 0.27510053 1.885722 -0.24696772 -1.5298793
1085 0.39087543 -1.2330502 0.39360848 -0.3774245 0.8573026 1.9853553 2.1590838 -0.08797295 2.320144 -0.6336128 -0.21571034 1.3250812 0.4839236 0.10439453 -0.19498846 1.4788765 1.0367411 -1.0544778 -0.3818652 -1.1021956 0.26884958 0.08211738 -0.39046404 -0.5258771 1.3575017 0.066505104 -1.1065813 0.9082733 0.14319853 1.350314 -1.561502 1.7252809 -0.6321619 0.36326677 -1.6828979 -0.45566246 0.14785393 -1.2990065 1.2337071 1.5688536 0.37021148 0.5495718 0.6947771 0.6141945 0.7560025 -1.1346176 -0.9562125 0.51051366 0.6338549 -1.144598 -0.5409395 -1.3394349 0.9136201 0.1116003 -0.505206 1.2108833 0.97442615 -0.71891207 0.2921849 0.24385032 1.2401682 -2.1630847 -0.27081582 -1.775135
1929 0.3670906 -0.28814477 -0.28948984 0.37424976 0.17357509 0.115079194 0.47351944 -0.37806016 -0.16429749 0.06802147 -1.0654055 0.028154762 0.41233575 0.33224347 -0.2648814 0.9212219 1.8103789 0.40762556 0.79176575 -0.925165 0.6156207 0.06625998 -0.6914689 -0.6024385 -0.059218388 -0.2014853 -0.088139676 0.16691989 0.8208305 0.48567864 -0.6946835 1.268283 -0.021766469 0.06765671 -1.0274359 0.67260593 0.094103135 -0.86834884 0.09397157 0.67548066 0.8386693 -0.22476012 1.0036181 -0.24489248 0.43336388 -0.4953893 0.19706063 -0.4646188 0.5217489 -0.4338778 -0.040666938 -0.6170254 0.37226254 -0.34793854 0.8266 0.6669893 -0.5774511 1.0614308 0.9938358 -2.0523705 0.65196973 -1.256722 -0.72857076 0.2786769
504 -2.0237515 2.3712726 2.61338 -1.2237558 2.4021227 0.3401126 1.8781579 0.98115844 1.6974115 0.23269187 -0.071540296 2.2838845 -0.3201518 1.8489765 -1.2297357 -2.6070125 0.028756352 -1.9019649 0.903171 -4.378213 -1.9039031 1.0020486 -0.21569903 0.7780807 -3.2046795 -0.08852798 0.64287025 2.2976658 -1.7451739 -0.82531434 -3.2841313 0.6252932 1.8234106 0.20696868 -3.7888196 -0.12654221 -0.030910626 -2.3841257 -0.8082925 1.3965663 0.037937067 -1.3648571 -0.9542328 -1.869248 0.080603614 1.5930783 -1.9560215 0.19335298 2.8219843 -0.60644764 -2.7779744 -0.43571255 -1.2856007 3.1439188 0.49127704 -0.58127815 0.48110363 0.639125 0.51639473 -0.2703432 -1.540361 5.115285 -3.0206404 1.6682253
1949 0.90018374 -0.34116057 0.012892992 0.46589816 -0.1497169 0.85820585 1.1904255 -0.24489093 -0.40543866 -0.05076041 -1.062735 -0.23810357 0.08861476 0.16038103 0.59946394 0.45648083 1.2791973 0.0073822974 0.16853087 -1.0562483 0.2837443 -0.27001774 -0.5451616 -0.65477395 0.32841912 -0.07466597 -0.31840467 0.21687238 0.6111568 0.3082053 -0.79348123 1.1713736 0.84483755 0.22549061 -1.2526652 0.34186664 -0.07979161 -0.80103683 0.45354748 0.8854993 0.53313005 -0.352543 0.9606851 -0.042595204 0.4899869 -0.15232259 0.21367887 -0.40371993 0.5860395 0.007975882 0.18606189 -0.6825357 0.17306717 -0.52249247 0.5938709 0.087750904 -0.060422767 1.2919366 1.0502201 -1.6424987 0.40916264 -0.5341979 -0.90936494 0.12353698
595 1.3056556 0.075736545 0.1221353 0.0043223393 0.073238656 -0.30239895 1.3281451 -1.0832549 0.8179281 -0.58653426 -1.261836 -0.77380776 0.72655666 0.03245564 0.25719655 1.1150837 0.7338718 0.4224655 0.51403475 0.33622873 0.57127607 -0.40115154 0.7571214 -0.99748343 -0.8126937 0.8615827 -0.22804521 -0.55769056 1.8084978 0.66497296 -0.535168 0.3073084 0.8193183 -0.9608556 0.41395962 -0.6794999 0.38737163 -0.24182038 0.31718963 -0.54758507 1.228661 -0.604623 1.5851336 0.072169796 0.9728323 0.87958074 0.31733957 -0.49630824 0.5236792 0.20217425 0.25535822 0.07978134 -0.3107865 0.5269961 -0.27806672 0.95565426 0.46687394 0.4730629 -0.9971521 -1.5206023 0.7755402 -0.5089321 -0.76235765 -0.49635476
807 1.0217072 -0.7743306 -0.04554084 0.81618834 -0.27245685 0.28119802 1.1264429 -0.41443565 -0.3094431 0.1742273 -0.7499047 0.079972215 0.82481486 -0.74320394 0.3293414 0.90792435 -0.29733095 -0.057451982 0.9910187 -0.56065106 1.2151183 0.22500555 0.47414374 0.10306252 -0.8895682 -0.24478747 -1.5672561 0.37629133 0.7785206 0.08655653 0.44520098 -0.3187156 0.08619445 0.050384473 0.14787951 0.19807073 -1.1790355 0.04888228 1.3493476 -0.66881704 -0.10378148 -0.0914523 0.8389172 -0.3803595 -0.41412008 -0.033328198 -0.07657437 0.9077661 0.3031673 -1.089132 0.19675884 -0.42759696 -0.437546 -0.52643985 0.82886267 -0.9909061 0.9458649 0.41705024 0.7722141 -0.8919928 0.21939288 -0.7514639 0.042307958 -0.1550931
1923 0.18588744 0.10771594 0.43784645 0.055601664 0.45250562 0.8790097 1.2246716 0.042084176 -0.45051223 -0.129076 0.4373702 0.643343 0.7298377 0.21130514 -0.022689816 0.31537184 0.94842046 -0.10188662 0.7577976 0.5535277 0.14717878 -0.30249035 -0.36809206 0.32280168 -0.8585339 -0.52598995 -0.7434917 0.56041896 -0.038886975 1.4744194 0.43934193 0.2920382 0.6615494 -0.43362913 -0.468577 0.13971323 0.3189753 -0.43629372 0.70514613 1.0429448 -0.02910921 0.43800145 0.9606146 -0.17964524 -0.034507196 -0.8473349 -1.0670385 -0.35775247 0.3609972 -0.7941208 -0.36787227 -0.61940557 0.017248034 0.2088434 1.0790387 -0.028158449 1.3517953 -0.17592427 0.75466996 -2.4005034 0.23865864 -0.66206706 1.0968243 -0.75883144
1524 0.98023623 -0.286095 -0.7584391 -0.959269 2.2263026 0.3302181 1.6032742 0.6920849 0.6492081 0.48894548 -0.56838787 -0.22787912 0.6518902 0.8613239 1.051863 0.47489688 0.6605178 0.56359714 2.20427 0.34105766 0.6749993 0.1804506 1.8760545 0.088544935 0.6971521 -0.909528 -0.51358896 0.61780626 0.34452388 -1.0413473 0.20762265 0.72491837 -2.047593 -0.19538641 -0.8292071 -0.22241244 -0.28479078 -0.38844275 1.2147657 0.90192384 -0.36667737 0.02581372 1.6336944 -0.73835427 -1.192797 -0.39308813 -1.4082614 -0.75201935 0.7304572 -0.18852039 -0.18417554 -1.086288 0.47875938 0.82341254 -0.5122495 -0.07871066 0.07199976 0.36470234 -0.95854783 -1.8932396 0.37021315 -1.0088285 -0.843664 0.058799762
2359 -0.88548595 -1.0023555 3.5509524 1.9511428 -1.0186685 1.0214332 1.7715298 0.5320848 -0.83654296 -0.18300594 0.8999144 1.9449365 1.9740982 -0.18212308 -0.14513 -1.3966709 -1.0516598 -2.9665534 -1.3161807 -3.2010057 1.6733259 1.1244236 -1.0869881 1.7747537 -0.13863555 0.26836145 -1.6132168 -2.2031405 2.896646 -2.7531455 -2.553259 -0.19025335 0.85772675 0.05039371 -1.3964957 1.7901562 0.7518991 -1.3616731 -2.8321538 -1.4130065 -2.8943286 -0.08325477 -3.067588 -1.3004442 0.048155695 -0.81096596 -1.8012428 -1.7948006 -1.3329891 0.8823508 0.016368655 2.725125 0.5378986 0.51493204 0.2923608 -1.4436272 2.2514594 -3.1325464 -2.1303725 -0.95193505 1.6606439 2.785946 -2.5502107 -0.18168834
