2996 64
4 -2.0427325 0.36853787 1.4285573 0.20209786 1.3179948 -0.44377175 1.0867524 1.1160882 -0.61785877 0.034853414 -0.21004449 0.74961525 0.06527739 -0.84613174 -1.9323056 0.2504378 -1.0864409 1.1265762 -2.3817456 -0.52957326 -0.63659775 -0.055225436 0.25913137 2.0807154 -0.66311353 1.4435457 1.6102433 -0.7619509 -0.37036386 2.5696812 1.0942562 2.7637532 1.0678569 0.5661039 -3.2721336 0.96575063 0.31603682 -1.0109361 -1.6341081 -0.6073561 0.10024499 -1.4257183 -1.2538941 -0.36347932 -0.38931724 -1.1508181 0.33192515 0.29441935 0.121218964 1.3759604 0.290701 0.53414124 0.042128403 0.06731149 0.029045623 -0.957324 0.48301297 -0.3331898 0.37156335 -0.672401 -1.3000201 0.41534567 -1.5415846 -0.39800143
22 -0.3419455 -1.8668244 0.8563343 1.2442405 -0.9525519 -1.8787954 -0.34549972 0.44243827 1.6033591 2.0862725 1.4483715 -1.2443804 -2.6032295 -1.0111454 0.22944967 2.1807184 0.9081203 -0.11034168 -0.21058509 0.64330435 -2.236319 1.733358 -0.18587498 -0.6908694 0.68844473 -0.49579877 1.453698 0.1005637 0.7581803 -2.187632 -1.4613245 -4.360174 -2.3286026 -0.20799556 4.3016357 0.41989484 2.0374308 -1.7223049 -0.3884633 -0.12318178 1.289007 0.77310294 0.54149497 2.7902186 -0.010337359 2.2319024 -0.47989613 1.2940449 -3.0778997 0.63316756 0.01676406 1.0857124 2.5314302 -0.20174511 -2.0034492 0.17961727 -2.2306116 0.97456485 0.96251327 0.35229912 -0.48593503 -1.8271946 0.9642351 -0.3257494
3 2.7388022 0.34055012 -0.21538135 -2.4699652 3.0764031 2.8027954 -2.861917 -2.766391 -1.1309606 -2.2544367 2.4206676 -4.3302913 -0.5941672 3.57971 4.5764365 -2.2732027 1.2044019 -0.19690827 4.687167 0.6006386 1.3827766 0.9965305 -4.236031 1.1685513 0.912885 1.5124589 -4.5381317 1.1170467 1.5844975 2.276571 1.3347327 1.4151385 -0.71304995 -2.2777932 0.70389867 -2.7978797 -2.295051 4.0056577 -0.64625627 -2.044167 -5.488766 7.093622 4.4368534 -0.49590755 1.294583 -0.42496678 1.8775725 -1.93347 3.48524 -2.9622386 -0.058327064 0.8440553 2.046775 -0.00814351 1.9380392 0.92380023 -0.21391898 -4.397282 -3.3552864 4.260907 1.4124098 2.4299302 -1.8226583 -1.2077762
45 -3.4287522 5.819006 -1.7128469 0.49938917 0.05264761 1.3639017 3.9153242 -1.0892475 3.3156078 -4.296932 -0.7858411 4.403253 -0.07525409 2.0724857 -1.3746681 -0.98552144 3.1307945 -2.9453003 0.7201046 1.4731666 -1.1445066 0.8066581 0.98881245 -5.24061 3.8793287 -0.57887167 -1.3190851 0.46455622 -5.4436045 -5.809685 3.0065691 0.31757516 -1.9352741 0.8638604 2.2615151 -0.38208055 1.2448238 6.594634 2.601434 2.2608736 -1.8783636 -2.2301228 -2.5310009 -3.6022017 -2.3322203 1.0066046 -3.8138316 -4.470585 -4.722174 -1.0135789 -4.544009 -3.2424185 -2.683703 1.8996998 -1.8355964 1.6932553 1.267557 -0.68126863 -0.6006714 -1.7873409 0.95176226 0.338114 2.432292 4.517368
7 3.956944 0.7165552 1.5854989 -4.8198466 0.924799 2.1230347 0.85618347 -2.6461518 1.1455902 2.2195585 -0.6419084 1.7210696 0.50149864 7.0439935 -1.8876592 -1.4162096 -0.7032151 1.7010412 -1.0191058 3.4398427 -2.3634973 -7.5300555 0.14063698 -0.6615432 -0.50626993 -4.098649 0.76016307 1.3523198 -4.329245 2.0964532 3.5872967 -2.7179215 4.131164 -1.0677443 0.6698637 8.050034 -0.3093712 0.0423043 3.9085999 -0.44107205 1.4585586 -0.6819998 2.0393217 2.6345649 -0.4407661 0.7164422 0.2499986 0.4034151 1.8201512 -0.59500647 2.89842 1.6083211 2.2405646 3.738775 -1.2464238 -0.52799696 0.8271255 6.941888 -4.129015 3.5874228 -0.64206415 -1.7034049 4.4421644 2.2819467
28 6.1679015 2.340057 -1.6977868 -2.462658 -2.8113108 3.0299828 1.1839222 -1.6903787 -3.8455212 -1.2995908 -3.65383 1.3320487 -0.11829159 -0.47577852 0.006447545 -0.42544934 2.6506279 -0.08656054 3.7526088 1.3472165 2.8894806 1.0799757 1.1143382 -3.216368 -0.4161125 2.0472226 -1.8398229 1.0999372 0.5908125 -1.1837541 -4.6275096 1.2573603 2.104646 5.616748 -1.0419614 -2.34927 2.5750504 -2.0737097 0.9168437 -2.0696833 5.2653375 -2.5504906 -0.6157794 2.3810186 2.559391 -2.8731399 5.206965 1.9451238 5.033928 3.4731402 -4.6174345 -2.0052555 -1.022423 -3.5902228 0.4414936 -3.2327328 -4.546609 2.9219608 1.3677418 -1.5658772 -5.029489 -4.0658517 -1.6367176 3.2953315
42 2.2311554 -0.8280712 1.8030803 0.78983647 0.50104123 4.871892 -1.5235494 -3.9779713 -1.3177704 -2.0594666 -1.853165 -2.40211 -2.6408393 0.1984592 -3.4261768 0.45090115 -2.324142 0.27767214 -3.7758036 -2.5781724 0.46081308 -2.7181244 1.1521808 2.7849638 0.8005809 -2.70278 0.43326902 2.8802469 6.2428646 -0.95036244 1.3199579 -6.6661625 0.5392897 0.29409856 0.5535342 0.8038963 -0.49040222 -1.6111332 6.861583 0.778909 -1.9349996 1.1894339 -1.8347039 -8.08375 -0.5503873 -5.5480523 2.0990117 3.4655275 4.0632343 -1.273626 -0.38352603 -3.206756 -3.1097894 1.6054795 -0.5690911 -1.6080278 1.1606379 -4.995239 0.20519145 -2.3775585 -0.08789352 3.096518 0.9778055 3.2854695
23 0.40184274 -1.9690815 -1.482135 2.969561 0.47388062 -0.27160844 -0.93599486 -0.27058667 -1.4907013 0.5049616 -1.6958002 -1.9518522 2.9296186 0.24587959 1.0763733 -1.2346318 2.7483997 -1.5855861 -2.5842323 6.6789837 0.31708634 0.9108052 -1.4614272 -5.969002 5.586386 -1.3551755 -2.849411 2.3239577 2.6802385 -2.4815443 2.5371227 -3.6708717 4.9366393 1.4184508 1.0406923 -3.5700002 -3.0806668 5.6221275 1.1060337 4.0931997 1.1767787 -5.5254884 0.95902455 -1.0758138 2.4887757 0.6055538 -3.9685974 -4.929796 -1.8309177 -1.652083 -1.1993918 2.544248 -3.8705225 -0.25725368 5.0381813 1.3075212 2.6146576 1.2001584 -0.5035092 3.6598413 4.78312 -2.1847029 2.0064812 -3.9100661
25 4.1429167 2.8107479 -3.506823 -2.2462442 -2.6386309 0.58485 -0.87343657 -3.2068627 -2.44279 -1.7180587 -3.4431107 3.591286 -0.620148 -2.4498212 0.031559624 -4.7568407 -2.5822854 -1.6393133 -3.7700214 -4.154212 0.043236483 2.4794242 -0.52890354 -1.8263593 -0.11366509 -0.38900894 4.1852283 -2.8671832 1.6099293 -0.73960114 -1.9633553 2.5367444 -3.9694111 -4.302694 -1.824364 -4.501386 1.7656775 -2.154161 -1.5253966 -2.2146103 2.738234 -1.3499557 1.4057238 -1.4376781 4.4507947 -0.0933668 2.4867501 -0.6396305 2.3907826 -5.5286336 1.8022395 2.2069383 -3.291735 -1.5625099 1.8363042 1.8162092 1.5112958 3.8428617 -2.6987064 0.58666956 -1.570703 -3.2878401 1.7033445 2.3480525
26 5.1133432 1.5906287 -5.3453536 -0.735679 0.8658837 -2.4043016 -5.277397 -3.067177 -3.140857 0.7938005 0.39545286 -5.8241568 5.8884616 3.0556479 -1.2595247 -0.76260257 0.053055603 -0.6901948 4.251984 1.2319552 1.7239443 -2.9524918 -0.61321586 -3.9816728 0.668323 1.7606179 -4.0030546 1.222184 -0.2895705 -0.50578487 -0.75297827 4.746692 -0.5082037 0.001969157 -1.4562312 -2.557572 -2.220006 -0.9875698 0.8706418 3.4438252 -4.882421 9.264773 3.3499324 -1.384468 0.9596829 -3.1412015 -2.5384204 2.0417047 1.8174598 -1.5261793 -0.8587712 3.3060253 2.249098 5.0879307 0.19662839 3.6947062 4.964611 -4.234249 2.3374522 -2.5063763 3.8781075 1.6476636 1.5375708 -1.8741156
24 1.8984406 0.29857883 -4.15698 -3.4544432 -0.9352725 -2.2738307 -3.764757 1.2412419 -2.7745347 6.739008 -1.9872583 -3.084568 0.27556607 1.6922525 4.5851946 -1.333062 -3.762227 0.9864425 8.6530285 1.4311736 2.330227 -1.7482737 -2.5739853 -2.8761146 1.4483051 -1.0769049 -1.7958469 -1.9930505 4.237156 4.2647476 3.0531802 -1.5730826 -1.630094 -4.3468666 -1.1932532 2.29445 -1.7783341 2.8753505 3.8057141 0.5228248 -2.584023 0.7144914 6.6893587 -4.485629 -2.1802073 -0.31126884 -0.8933805 -2.8196552 0.4395849 0.24360563 0.5210261 0.19966325 -0.09418785 1.8918794 2.8534691 1.526509 0.40473488 -2.0472686 2.0604968 -0.25315204 1.2963614 3.5421405 -2.748494 2.4768515
15 -3.8884928 -2.752507 -2.8916779 -1.2498344 0.22228305 1.9980803 -0.9314234 1.8849131 -0.66811377 -2.5520961 2.3551083 1.9172612 -0.3822659 3.570297 2.6526885 2.385088 -0.7218051 -0.7766846 -1.7961735 7.0239415 -0.57414687 -4.4395227 3.3661659 1.1979891 4.899458 -1.9090711 -2.9813192 -4.0135803 2.9172173 -1.2437046 -5.085413 1.4021076 -0.48028716 2.0390282 1.974816 -7.3060193 6.151832 4.081874 -0.6472812 -1.1908251 -1.6136056 -0.648277 -1.6255699 -1.0822866 -4.0217805 3.669649 2.5553975 0.7620999 -2.845652 -2.7176366 0.15510803 -2.3766026 -2.456548 2.7035732 4.0814333 0.06915011 0.66142166 1.9861356 -1.6140692 -0.53098613 -1.016468 3.183647 4.2585297 -3.3281415
100 2.1253693 2.3477027 -1.2123897 -0.8629712 -2.5819266 1.8464757 -5.363971 1.1666682 -0.37436268 -3.1212962 -1.5850531 1.2322322 -0.5446257 -0.59652877 2.4620397 2.3818886 1.4904275 -1.6846365 1.1867772 0.42198095 -0.54163253 1.2515554 0.15301748 -2.2540996 -3.5230372 2.2650478 2.968292 4.8514686 -0.4612177 0.85490096 -3.2395005 -0.01617845 1.3719226 -1.3624818 -1.4691819 0.9577106 -3.867802 -1.6628505 0.37613347 -0.4052697 2.0002518 2.4787047 -1.8348216 -0.9607207 -3.1294234 4.025949 -0.96240884 0.7009578 -0.19867103 2.3817604 1.8829304 -2.9920585 0.8673988 1.9820572 -0.3867372 -0.99613917 -3.646651 0.9595267 -3.329397 -0.46704587 3.0246408 0.1940176 2.0912964 -3.3861182
33 3.5993116 1.5239162 -6.466375 -0.17310867 4.423298 -0.41954845 -0.94035316 2.3425248 4.142177 -6.711595 -1.4869047 0.3035821 2.9550488 4.9567833 -1.5890169 2.5924103 5.8651676 -2.6180444 0.10058957 -0.498003 3.1813478 2.5347803 3.0021343 -3.2134655 1.4158981 -6.97572 4.582762 1.8218849 1.8737458 -2.00873 1.4858716 -0.963029 2.8001385 -3.6325965 -1.3740033 1.1377363 2.5844223 3.352797 0.6988321 -1.1170356 -5.1812534 -4.2979736 -0.973026 -1.0039848 -3.085975 5.063338 -0.4305818 2.5727096 -1.7846565 -0.3823883 -3.0308852 2.268649 1.5431938 -5.192271 2.4599125 -1.1181954 1.7868847 -2.3197143 4.4355927 -1.365422 -3.0539224 -2.8826027 5.2300363 0.6241699
20 0.8343025 -1.5914001 -1.6929655 -0.09959228 -1.0294548 -0.6652444 -1.2691582 -3.3723216 -3.311654 -0.1611998 3.5213559 1.9614056 0.31275362 2.1164474 3.0087607 2.210387 -1.175172 -0.03794823 3.1257281 -1.0104859 3.0131867 2.420127 1.9068763 2.5870504 0.26328772 -2.047751 0.96475124 1.0169927 2.3184056 -0.6885135 2.6247323 -0.3577612 5.7055044 -0.81300104 2.3712428 -5.214776 -2.5142288 -0.828568 4.907623 -1.8912416 0.3253261 2.7743137 1.2036437 2.119768 -5.8870187 -3.9250488 2.0129824 -2.0687006 3.8943415 -7.4257355 -5.308596 3.6135197 -0.8280245 2.9310162 -4.737752 6.7677283 0.13756478 -1.2858961 1.3719307 1.0468519 0.37255484 -2.0788372 -0.16805834 -3.6698592
55 0.41417998 1.6413271 3.0721009 2.683902 1.4734277 1.8981416 0.5093247 -3.2111652 -1.2720377 1.7121663 -2.1664643 1.4252416 1.0652754 -0.82806075 3.9116728 -0.8856508 -3.8684075 0.7953445 2.496722 -1.0335386 5.697649 0.5582325 3.9852886 -3.748214 0.40359882 -1.2570703 -1.2925966 -1.1652728 0.54993415 1.6866298 0.75877583 1.0234065 -1.0756288 -3.1268005 -0.90268475 0.112973936 2.2893202 -3.4639575 -0.41355482 1.1885847 2.625874 -0.99545425 -9.633694 1.5561554 6.288601 4.2062664 1.7488556 -2.3490152 2.88623 -1.9187698 0.6398112 1.7859071 1.4335229 0.5653731 2.5039768 3.6410425 -4.7969236 -0.400875 2.7618032 1.8402051 -1.4496804 5.246836 3.4669883 0.9533046
59 1.2514338 -0.5777239 4.453048 0.9725345 -5.182499 0.6979523 -3.2775106 2.3977983 1.9147476 -3.792661 -1.4283161 -2.6053824 -2.2501884 -4.8994293 -1.4726291 2.9382918 -1.5726954 3.0139785 0.561371 -1.405552 1.4171202 -10.717708 -1.5636013 -4.945809 -0.55623394 -1.5506212 -1.3693342 1.8903899 -1.6094248 -1.2891041 -0.84541965 -2.299916 2.5028427 -1.6845692 -5.114125 -3.943719 -0.5888013 -1.8316013 -0.37373498 3.4912527 -4.961663 2.4356322 0.4057361 2.884324 -2.6726975 1.5398519 0.39829114 -6.3186846 -2.5421443 -6.0321045 0.439035 2.6990647 4.994766 -1.277841 2.1797903 -4.507554 0.2167947 -0.6481619 -2.7079794 -0.3590011 -7.815891 -4.3152914 -1.1036035 1.7851391
37 0.8237131 -1.7541567 0.7701283 0.43080828 0.2390303 -0.02946012 -5.5352893 1.7109145 -3.2912576 -6.023116 2.4443552 1.6097 0.29374996 3.9777205 0.36894032 3.506891 -2.341181 1.6053693 1.5872902 1.5035006 4.3755574 2.2659848 0.3968643 -2.990362 4.6701055 -3.01551 -2.4370325 0.8027763 -4.4095407 0.8081165 -3.2949762 -1.3670757 1.5368601 -1.8361454 2.0303981 2.7867846 -1.34593 -0.66825455 0.014787145 0.27287668 2.4904366 -2.554982 0.2564068 0.13869789 1.8851397 1.344913 0.008529668 -2.719496 -1.6499405 -3.9662697 -3.37852 -5.0992274 -3.2046402 0.31080917 0.7509618 0.79602677 3.1917334 2.694142 -0.6777358 -0.31439623 2.8313572 -1.7545103 2.4683297 4.264879
36 -1.5676092 -0.95541465 -1.3756676 1.5367749 -4.128731 2.381564 -4.168565 0.26786524 -0.35715538 -4.782449 -2.2281303 2.2319584 2.4075294 3.2367194 1.4875926 2.2806482 -1.0403069 5.3282447 4.928361 0.58494556 3.9106376 8.518624 -0.983713 0.87444204 -4.109644 -1.4852428 -0.5807146 -4.729281 -1.6111166 -1.7199135 -0.45328593 -0.29326576 -0.27392614 2.1020112 1.8283472 -0.44566178 -0.83837473 -2.520478 4.848473 2.10168 4.301076 -2.1378105 0.3940799 2.3122747 7.675611 -1.0440633 -1.6938905 -0.08481513 -2.3776627 -0.25908542 -0.21663605 -0.119169764 -1.7381666 2.3543258 1.8011229 -6.327893 1.2825533 2.4802935 -1.8270755 1.3628486 -4.098927 -2.304449 4.2544127 4.090676
5 5.745597 -3.900753 -4.1409 6.800263 2.2117121 1.4855392 -2.3212938 -1.4717871 -0.024272308 2.3502858 -5.4399424 1.631017 3.3639724 0.5402459 0.43555474 1.5437839 -4.2514358 -0.51383996 0.712061 -1.0771062 -0.9784074 -2.2349856 -2.2350733 3.992031 -1.8931041 4.416723 0.7797805 -1.1447269 -1.7590226 -3.3441732 -0.6431464 1.5494335 4.2578106 -1.1669184 -0.9119886 2.400684 -0.7074817 0.80338305 -2.3290153 3.14969 -1.3703017 -4.9849844 -1.5526081 -2.2295725 -0.86017334 -1.6050277 4.4529414 -0.6422417 -2.8675919 -2.0229826 -1.9986815 -1.2197257 -1.0444009 -2.5271502 -4.0848217 1.2665744 -4.579703 -1.9253975 -3.3597636 1.5294662 -1.7761272 1.9939762 4.311347 3.6565783
1 3.6246583 -0.64179087 -0.9968875 -0.7198532 -1.226134 4.100053 1.7072608 -0.70989436 -4.3862944 -2.40884 1.0139657 2.6935315 -2.5356193 -1.0198979 -0.5231571 -3.1009517 0.1764447 3.13758 -0.6385177 -3.0630994 2.6704729 -1.224115 1.6873659 -2.4730802 -2.7822125 -0.120300144 -2.4695287 3.489892 -0.5277418 3.700925 -0.733385 1.2568569 3.0917246 1.0596789 1.2426729 -0.11383739 -4.9552035 -1.4504502 0.5267373 0.4920324 -0.26447505 -3.028604 -2.6242564 -0.24110305 5.931838 3.5338817 3.6039832 -0.56170326 0.61973596 -2.8899255 -3.9720442 -1.4427123 -3.2169108 -4.939449 -1.9856974 -1.9124184 -1.4556078 0.34254876 4.363297 -6.3112106 1.9273691 4.8678384 1.7796468 -0.09157943
87 4.304466 -3.7835915 0.70979136 0.57175857 -4.8284707 1.9123955 1.6644156 0.12469214 2.5841703 1.2028607 -0.53778577 4.3189826 -0.5061962 -0.73195016 3.6634693 0.8950998 1.7874821 0.030816197 -0.18528974 4.1319265 -1.2215023 -0.31024027 1.4083916 0.778991 -1.9788027 1.530157 -2.0922897 -3.6496775 0.6647358 -2.5053644 0.9640397 2.6626863 -1.1148428 1.9349123 1.4299989 -5.0518413 -1.3584701 -3.8457282 1.5386237 -2.3164346 -1.4976557 -3.5791714 -1.9629468 -2.33615 -1.4706867 -0.3810085 0.21493204 0.036206536 -2.05196 1.2014519 -1.7291492 -2.3292553 2.1330123 -0.52447003 0.9689217 0.90206265 1.2357552 2.1355789 1.8334179 -0.16599776 -1.2667897 -0.68035 2.046882 1.0635309
40 5.7203026 0.95810926 -1.8248576 1.6585195 1.823676 0.73434764 -1.7957318 -2.715524 0.39804202 -1.0082217 -0.7531914 3.4228196 -0.52291435 2.9588046 0.31773573 1.0496014 1.0182229 0.5990679 -1.59503 0.25258482 3.0736177 -0.14148967 -0.7620674 0.66628176 -2.1648242 -0.64644253 -4.669046 -0.42754143 -2.2062144 -4.8845825 -1.1007761 0.08043548 2.5913665 -1.3464904 1.5645964 1.066238 -0.38853857 0.7981629 3.8798862 0.66547495 2.5361176 -0.1857636 -2.926512 -0.16920795 0.45221063 3.3036046 0.6236002 -3.337271 -3.316036 -2.2108617 -0.62083733 -3.1562538 -0.3983581 -1.072389 1.9499363 0.8689312 -2.3681555 2.2223477 3.1761858 -4.9554167 2.9918356 0.03877805 -1.7958604 1.132816
14 3.456497 1.7999722 -1.9571853 -0.74056095 -0.7401052 -1.2767898 -0.16020074 1.763514 0.3343301 -0.7522619 0.6806476 5.0792265 1.3319234 1.9825398 4.692515 2.9758186 -2.7149148 -0.6067661 -1.6285936 -6.482434 2.2251234 -2.451895 3.8467698 -1.4620218 -4.863385 1.3971531 -3.8960207 -1.2582859 2.089046 -1.3853558 2.9283009 0.93374676 2.3344634 4.7826743 -4.655886 -2.7797813 -1.1373715 0.7366162 1.6115019 1.1190195 4.1343055 -0.85297114 4.9675455 2.8182063 1.5509396 -2.9651268 3.4668438 2.5739744 -1.0604851 2.7178936 0.17776345 1.0284877 -1.6991049 -4.153588 0.77177227 -1.2477874 -2.7098567 -1.7819356 0.087870605 -2.831202 -1.2617943 2.0070126 -0.12989374 -0.29388204
92 -3.6993773 -0.4148856 0.17096587 0.6601743 -0.93209743 -1.0254344 1.7235274 -3.9356372 -0.18884532 0.5031782 2.13201 2.3899462 -1.5041121 0.52337474 0.6013023 3.233929 -2.6859345 0.6060006 1.2777977 -0.7075431 -0.6939393 -1.2628937 -1.0473009 0.9097849 -1.0697476 -0.1678061 -0.3469203 0.5033315 1.7316753 -0.32543224 -1.3138964 -1.5230175 4.1656065 -1.8373188 -2.9836159 -0.5061855 -2.823801 -1.357673 -2.484697 4.126433 -0.30105612 -0.53327626 0.19374697 -6.1773076 -1.9884536 1.8282913 -2.7183368 2.5810723 0.64541537 -3.0048604 -2.3856218 -1.7876083 -0.3907858 -3.1291926 0.2832201 2.1924827 -3.3126252 2.2335315 1.312426 1.0621256 -1.254727 -0.5774003 0.62719 3.8893456
63 -1.4846803 2.8214333 -0.5022584 1.3955424 0.8166742 -0.46310458 0.071633 -4.2204003 1.7457774 0.54740965 -4.0167093 -0.049683083 1.4106945 1.6076722 0.7561188 -1.1767008 -0.21178316 1.3693317 0.79094213 -0.36197224 3.4349227 -0.8661897 -2.0148718 1.9760755 0.29767504 -1.5703171 -1.7582701 -0.2200666 1.3522458 -0.48955888 1.1126226 -3.388194 -0.27814293 -0.42770174 -1.5077349 -2.7503612 -2.8875575 3.0334556 0.1921813 1.7209857 -0.5851319 2.0779734 0.5796665 -1.6057885 -0.41443396 0.893621 2.3772686 2.4678862 2.7414324 -1.4575267 2.9066827 -1.4321883 0.23519926 1.1069028 -2.3710282 0.22122568 -1.5530256 1.5900726 -2.3774145 2.0716426 -3.028787 2.6106727 1.0216593 -4.1889443
67 -0.1910275 -0.10281604 -2.847842 -2.507954 1.208537 -3.363595 0.026038831 1.7197127 3.814287 -4.860034 -2.9953914 -2.1770375 1.3699263 -0.9309602 0.47433028 -1.3615983 1.8461727 -1.6738001 -0.0030814693 0.7709078 -1.1906352 -3.0007696 1.925374 -0.991993 -1.9860072 -3.8344355 3.0548494 -1.8831682 -0.8481921 -2.5851223 4.533333 1.1601155 0.9238713 0.52636486 3.7364533 -3.392077 -2.2476776 0.34680653 -2.6332383 1.4544498 2.96617 -1.4366367 -1.5079069 -1.0629749 0.4219294 2.4268556 -2.6914222 0.24362889 1.5045891 -3.0790987 -2.5145595 -3.909809 1.9232308 1.1055064 -0.7836978 0.06527997 -0.6486351 -0.9790931 2.3459747 0.24711214 1.4717975 0.08390441 1.2455095 5.5837846
27 1.5148592 2.3319006 0.03768978 -0.28667516 2.042825 4.293029 0.68369305 -1.0526018 -2.1886518 -0.9339198 -0.6628669 0.82313174 -2.7004755 2.5877595 -0.06238624 -1.6279116 0.2454328 -0.3331945 3.261489 0.25778043 -0.29965636 -0.20210059 -1.161449 -4.8041773 -3.0809882 -1.9585041 -2.8346465 3.5177557 -1.5058004 3.2990515 -0.5651581 0.67887187 1.9586267 0.06938468 2.2146595 -2.555281 -4.024739 -2.1110375 3.304932 2.930319 -3.0191534 3.7642796 3.510933 1.1223165 -0.9474333 1.499952 -0.4340889 1.7019284 -0.8769565 -1.9422877 -0.9238716 0.64954317 -2.4476614 -1.4793714 3.8958752 1.7755593 3.2565694 0.2583387 4.0654387 -3.3014324 1.1841859 3.0352583 0.86413133 -1.6382713
43 4.153143 -3.2933047 0.16603328 -1.7023848 -2.8452058 1.0116973 0.9011003 -3.5528374 -2.987605 0.11739733 -2.6042778 1.2703849 -3.2799914 -2.3069487 -1.2394317 1.728476 -6.7258844 -2.246511 1.3603747 -0.92300904 0.06779469 -0.5653145 -0.9846146 -3.363385 1.077634 -1.2225604 1.6325337 -2.3920915 -4.486058 0.77539766 4.184324 -2.8709373 -2.802419 -0.58023685 -4.1284304 -3.558307 0.44668615 -0.42999983 0.5868844 1.1101892 -3.3575191 -2.2301831 -3.60096 3.3192275 -1.369009 4.108344 -2.8054328 5.301796 1.7159405 -0.31211242 0.48616168 1.1765854 -0.24229434 0.8062683 0.0068841637 -3.0587075 -0.21739842 -2.8942513 -3.2249975 -0.8608298 3.2756264 0.3573252 3.1448424 -0.8591109
12 2.8215077 1.1207852 -4.1162457 -5.2150073 6.573918 -3.181407 -1.9134799 -0.18338455 3.371172 -5.3216186 1.4654361 7.5279503 0.27901837 -0.18547715 -4.545906 0.18567646 1.2512357 -2.4510796 5.5498066 0.98455983 -3.3325574 -4.066649 1.2654394 -2.1160452 -3.4073758 -0.43064255 2.8447833 -2.3435345 1.2335256 -0.9010973 0.8830016 -3.8945606 -3.6857748 1.1323483 0.34427628 -2.9853113 -2.2454762 -4.21482 -2.9964862 4.5515065 -1.7551106 -1.7920711 -4.376286 0.78808856 1.9018146 1.0215871 1.4455304 -4.6257114 2.3322852 -2.6645422 2.9200106 0.113673374 -5.2883267 2.2871943 -0.36307824 -0.81047964 0.10852141 -2.1367936 0.8404719 0.18512933 2.182296 -1.5182269 0.27143452 0.54122895
16 -1.5348662 -4.1996117 0.008568348 -3.785784 -6.536019 -0.3067339 -0.5893177 1.7062138 3.3240516 -1.3318164 -1.7034234 3.4351122 -2.0351617 -0.58803284 0.13049594 -2.011642 -0.94835156 -0.4056076 -1.2088727 4.092683 -1.3345261 1.8108153 0.853466 -2.9154854 1.0015676 -5.875577 -4.5190716 -0.43589154 2.409095 -1.6880374 1.2026191 1.2376318 0.27395785 3.9574234 6.979164 -3.267474 -1.4119729 1.7500113 -0.09064631 -0.7833034 -4.42621 1.2168089 -1.6638205 -0.15773109 -1.8801416 3.1753607 -1.5315977 0.9092163 -0.13085084 2.2904205 0.65140027 -0.4378989 -2.7884185 0.6278674 -2.8082378 0.63838524 6.0244117 1.0525358 0.032729276 -5.197843 -2.6038895 5.8471036 3.2657893 -1.4560708
21 3.0758853 -0.25344253 -1.248582 -2.0819178 -4.054278 -0.5733489 2.2340024 -3.3846402 -0.1788413 -1.3384676 -1.2396631 -0.460065 3.0472763 3.219889 0.69564533 0.7506568 -1.4993571 -0.06645502 0.96492934 -0.6527184 1.2245568 2.835675 -0.22731249 -1.1135741 -1.0349922 -1.823271 -0.36842188 -0.63099253 -1.5724119 0.5454502 -4.0841045 -0.9963919 0.93973047 0.9232595 0.05753315 -1.4340907 -0.73591995 2.1822429 1.6095797 -2.4895272 3.0922883 -2.1825812 -0.33840376 -0.45837322 6.306897 1.562698 3.0097094 -1.4250513 -3.1471097 -4.919796 2.4919133 -1.503039 -0.5173238 1.5623504 -1.6454185 1.670457 2.7957335 -1.5559208 -1.983236 2.2545455 -1.9780217 -3.316391 0.26527593 1.6178617
30 2.028961 0.8187717 -1.8106651 -0.09788414 -3.6050603 1.5833896 -2.5381045 1.2214872 -2.301455 -2.161229 -0.66475445 1.3171117 3.541247 -0.49830317 2.233414 0.53570086 -0.74599236 -1.2697568 2.8629935 -2.3746905 -0.49602592 -1.1452243 1.6261525 -4.9285126 2.3905003 -0.5044316 2.5863917 0.22393335 -2.5416398 -0.99532974 -3.9398868 -2.006233 -1.2503028 1.4364177 -2.8326776 -2.6627095 -0.35911503 -2.508577 -2.1551507 0.6926198 2.4269125 -3.4761496 4.985994 -1.4501817 2.4377406 -0.35039526 1.0842249 -1.9139905 2.7476707 0.2736552 -1.8688319 4.885686 -6.257352 0.85449934 -1.1208084 1.4516784 1.1097778 1.5431548 -3.2425227 0.42375398 -0.616723 1.9172989 1.33791 3.8230007
29 4.104125 -1.2822229 -0.50708956 0.81597525 0.40570927 1.4052647 -1.2545075 -1.4028249 1.5780035 3.7026396 0.01993161 2.043167 -1.1381903 0.84325105 -2.4948165 -0.13332431 -2.3429492 -0.21292189 -1.1048462 0.21249981 1.7758733 -0.7631983 2.2897906 -0.54307324 -2.0328782 -1.4806075 0.78072023 0.55907893 2.739267 -1.2923341 -1.5327502 -2.9307687 4.4844136 -2.364687 2.474418 0.5073736 -0.9370858 0.17557785 2.5480366 0.27323955 0.66557944 1.6020806 -0.66861475 -1.9704983 -1.3527505 0.22796944 -1.9428068 2.499334 2.067002 -1.4851798 0.4366294 1.7068126 0.11928652 2.8242345 -1.6053432 -4.27156 1.2239466 0.5088785 -3.768277 0.2989411 0.48374787 3.3727548 -0.86013585 2.8214073
51 -0.28088254 1.5614651 -0.9884426 2.3141966 -2.6720798 -0.8581553 -4.752158 0.8075519 -0.4756523 -0.8424392 0.8849102 2.2574408 2.9982204 0.95663965 1.0038708 -0.79060835 3.371706 1.9376096 2.2253628 2.7366152 1.5058678 -3.2691443 -0.6510223 -1.7825096 4.508809 0.85066456 -2.3237104 -0.22844756 1.0824066 1.877583 3.9736104 3.4606109 -3.9049795 -3.1304786 -0.65754336 -1.7041825 -1.9079826 0.55679595 5.5406804 1.4957482 -1.8219 2.4909942 6.121425 -1.3566339 -1.8378081 -1.1579447 1.0340558 0.9028679 0.79619217 0.34373906 -2.1156323 2.1070611 -1.5501347 2.0909026 0.087417655 1.3851936 -0.16446088 -3.9754803 0.5853524 3.4076183 4.8377934 -4.307592 1.0057648 -1.3169252
61 -3.6290543 2.7543256 -2.0510051 -1.3358712 0.3441533 1.4358296 -1.0236396 -0.20763336 2.3701859 -0.055590548 -1.0678225 -1.3852586 -1.6987681 3.3076756 -2.954311 -0.31332693 -1.6422714 1.1011143 3.953185 3.412198 -4.459075 0.6654434 3.0803 -1.219343 -0.7742162 3.3183315 0.868779 2.1035848 1.2406664 -0.03222934 -1.884078 -3.527702 0.14887871 -4.245004 -4.2879653 -3.1125274 -5.131698 -3.3310206 1.2208219 -0.31145236 -1.4116937 -0.29895467 2.6228614 1.498664 0.5007181 0.49882594 -5.4074903 2.016689 -3.3256085 -0.81707567 -2.6480496 -3.6191914 -1.220302 1.1222575 1.7743771 4.113519 -3.140532 -2.0081317 -0.29955256 0.7416691 -0.6542612 2.4318905 2.6670127 2.2075746
60 0.9148056 -0.109171964 -2.132384 -0.79171497 -4.139415 -1.500807 -6.9092317 2.159574 1.2778463 -0.8814679 1.9419079 -0.79849166 3.4726543 4.69215 -0.97156155 -3.4670773 -1.282057 -2.836783 -0.7576371 1.1367742 -0.4315637 0.48706588 -3.3932142 -2.284721 -0.48151574 0.59636563 -0.06916447 0.020197866 -0.26917762 -0.33880815 -1.1691788 -0.30227333 -1.7233932 -3.1097057 0.37712267 -3.404178 -0.7425858 -1.0272791 1.5896808 3.54313 1.9055858 1.1191823 -4.402228 -0.47855014 -1.421952 0.3721224 -1.81409 -0.3830784 4.19621 1.4545339 -5.7219276 -3.226384 -0.100008674 -0.9417508 -1.5953956 -0.96341956 -0.77400154 2.522763 2.4886734 -0.91739094 -3.26157 -0.3373886 -1.4548084 -3.1273665
19 1.1143779 0.5048552 -2.371412 1.5714957 -2.4712987 -1.7659738 0.14126904 -0.72967786 1.4282374 -1.9110082 0.71632934 0.76306176 -0.57921225 -2.030752 -1.6355466 -0.4616722 -1.9563742 -0.59158623 1.4261775 -1.2533822 -0.6470017 -3.887995 1.5044073 2.263449 -0.876758 -0.4603791 -1.7928919 1.7016112 2.6377838 2.8451037 0.047560144 -2.8354824 -2.4130518 1.6889378 0.65209335 -0.0021661394 -2.628216 1.937946 0.6583018 -1.0072262 1.3923509 4.1071877 -1.1556515 -4.1738687 3.267971 0.79589057 2.572384 4.0093036 -2.2073867 -3.0431209 -3.8544502 1.1936361 -1.5241128 -1.0830523 -0.4713703 -2.006787 -0.7062904 -0.37611207 -1.5912424 3.8721914 2.1144302 -2.4555514 0.9993714 0.16037388
13 1.7468898 -2.830483 -0.9954546 0.71740246 2.202442 0.7930799 -4.094785 -3.4103954 -1.3422816 -1.4056398 -2.8577087 1.6533804 1.0594541 -1.711361 -0.76856565 -1.860179 -0.94205475 -0.679303 4.6514463 2.065973 2.59822 -1.6392753 -0.820248 3.324326 3.3148482 0.41802138 -3.5788655 0.68810856 2.2571094 4.527287 -0.5180305 -0.36296234 1.4353447 -4.703401 3.8584964 0.4602139 -0.062272806 -0.90730995 5.2532544 1.3796735 -3.4039867 3.5489585 1.7172643 -2.713164 -1.5002776 -0.87452704 -2.3621871 -1.3542253 0.7984828 -0.8331162 -0.5096155 1.5419121 -1.1514748 0.9785861 -0.7397669 0.6743938 -0.5762258 -3.733884 -0.7149617 -0.68602186 0.46898082 -0.14921364 0.81133145 1.1777258
62 -0.2561413 1.3874111 1.1833335 3.4105856 2.7637541 -2.1223936 -1.695941 -1.559675 0.41230175 -0.23960094 0.36200106 0.1546574 -0.7002941 1.1266457 -0.64042723 -2.5680633 -0.38294092 -0.3402193 0.5691748 0.4117975 -1.8664545 -0.08370998 1.6923325 -1.8219491 1.4792907 -4.9571257 -1.4155393 2.6395478 0.78140545 -0.08468269 -1.1474783 1.9120744 -3.6144269 -5.8399343 -1.477618 -2.3881578 -3.384227 -0.085013315 0.96643955 -0.2108853 -0.7111896 -1.1430085 -0.35270885 5.357364 1.0049282 -2.4533494 1.9494885 -1.3589542 0.54688126 3.2990181 -4.27931 0.069755085 0.47252014 3.514907 1.4378446 -2.6041987 -2.4236567 0.4254295 -2.6080613 0.75026256 -2.077224 0.3775553 2.7159426 -0.3925053
64 3.0694258 -0.6742038 0.49297872 0.5717563 -3.2535179 -2.8323758 0.32375184 -0.60961914 4.7569137 2.0583482 -1.1234198 1.2624406 0.3794062 1.9274032 -1.0459118 2.0131495 0.24092123 1.2380534 -0.9050179 0.5714849 1.7632313 0.79864997 -2.5659437 3.8101199 0.63493454 1.3273627 0.47317925 0.101067804 1.5481306 0.1718815 0.37361044 -1.997608 -0.9624431 1.1457905 -2.0479617 -2.46463 0.8678829 -3.4292948 -1.8269717 -1.4474864 0.30559272 -1.3853275 0.38242865 -0.31906065 -2.6466882 1.196978 -1.2478099 -0.18925412 -1.5361183 0.8141743 -0.019355379 -1.217659 -0.31661236 -1.015569 1.2881492 2.5762062 1.3321666 0.980911 -0.1868456 -0.3253447 0.46819544 0.8042173 2.1513255 0.751802
35 0.9655128 -1.2551903 -2.8479505 3.2823298 -0.44310752 0.36033502 -1.1075915 -1.6067802 0.36809614 -3.8579447 -0.9426381 0.8063438 -4.5775275 0.5248304 4.385362 -0.12959237 -2.6213136 -5.3162932 1.6106898 0.78663063 2.8561232 -4.265772 -1.1360108 -0.8126054 4.848189 -2.3199508 1.443825 2.3712404 -3.697717 -1.1329755 1.7602628 -1.7307924 2.8811026 -2.1657708 -0.5653567 -0.9627243 0.7434381 0.2659222 -0.4203201 -3.142122 0.48259935 -1.6046295 0.48664433 1.6008922 3.275774 -0.8591606 1.0978533 2.2568376 1.6001176 -0.28230134 -1.4296192 -1.6968163 0.09129505 1.2165941 0.55680144 -4.077235 2.9043634 1.0519127 -0.166515 -2.2893624 -3.7289393 -1.350505 2.3033025 -0.33792195
77 0.2840652 1.0480222 1.8297386 0.40964562 -0.1961258 0.2871344 -1.7909179 1.9122783 2.9572692 -3.2247822 -1.2078731 -0.079820186 1.8327888 1.0393693 -1.1954406 -2.6119359 0.86216223 -2.7284446 2.508989 -2.2681744 2.2257261 -1.6770291 3.6287572 -4.0845857 0.65960044 -2.4684327 2.7266364 0.8920099 -1.6217023 1.1858897 0.5525212 -0.7441018 3.2455447 0.41865236 1.9784681 -0.8270013 1.4746966 3.2403786 -2.7121727 0.7870914 -0.24328355 2.2413898 -2.0750148 0.3860484 -0.47099102 0.21919562 -1.6234273 -0.16234462 1.3810706 2.060764 -0.8650067 -1.2767353 -4.2270403 1.4556297 -1.8346565 4.4325867 1.0723681 -1.2959197 -1.357446 -2.558901 -0.23760429 -1.0056579 -1.2771779 1.8784028
88 3.8990679 0.040804986 -0.1824895 2.961719 0.050983515 -2.4099274 -4.4947243 3.128124 2.9576976 0.7846264 -2.2200236 -0.15869138 2.141875 1.8527001 1.0019915 -1.7320265 5.1821947 -4.2976785 0.83027816 -4.1889606 3.796477 0.9863639 1.5241603 0.35394362 0.001213479 -2.6707168 -4.096247 -1.3001419 -3.1090257 0.15755439 -1.3811743 0.46282172 -1.8096216 0.79874885 0.33994436 2.4576707 0.84042984 -3.6137872 3.2882113 -2.4404385 2.656558 0.38348383 0.6318589 -2.0448492 -1.6269825 -0.6028588 -0.08694928 1.6095042 4.0716777 -3.6679533 3.4756067 0.08069606 0.6580227 -0.8997707 -0.6819889 0.99329215 0.67860097 -1.436564 -3.381785 1.3230717 -1.2128991 1.0374064 2.1808405 1.8586124
53 3.9728343 0.030545173 -1.1858306 -1.1299766 1.846747 -1.6832337 -0.16459943 2.2362864 -1.1811596 -0.21961671 -2.678807 -2.8768723 -2.560997 1.8048495 -0.90371567 0.012892352 -1.0447779 -2.8968961 0.8641587 -0.11820199 -0.7305987 -2.6372287 -0.16893333 -0.011519772 1.8283354 -3.4984612 1.1669505 -1.0749757 -0.1508473 -2.2087705 3.6063535 0.31191996 0.25143516 -1.0378194 1.74694 1.0293293 0.38907963 0.29594567 -2.627213 -0.46394283 3.1312172 -2.1392586 -2.527869 2.8924227 2.6797748 -2.409564 -3.0362 -2.3801668 0.015844151 -0.99967533 -0.72862464 -3.575484 -0.2916021 2.1158512 1.737187 0.15625976 3.4786105 -1.6836326 -3.311834 -0.27693632 -1.8075447 -1.8206936 -0.013668578 -2.1017895
74 1.3323505 0.31485078 -3.9245205 1.882666 1.8659003 0.63606447 3.6614077 -1.0750885 -1.0112858 -4.7180037 -2.0844762 -1.5616308 -3.662175 0.007432931 -0.93340164 -0.92311805 2.804503 -2.4717374 5.2043376 4.031431 -2.3837035 -1.1828558 0.80627346 -0.050603673 -1.0252165 0.5847974 -0.32802054 0.54637796 0.14035726 1.9643245 0.6976369 -1.695169 -2.418852 1.9622998 2.5209355 -2.6642482 -3.5478246 3.193549 -0.045125168 1.7673415 -0.8627282 -1.3668652 0.90985554 -5.697593 -3.1365068 2.21277 2.655949 -0.49270555 3.9797096 -5.2568874 -0.87850463 -2.0223188 -0.011214786 -0.47183993 -2.6647134 -3.7938862 -0.5552567 -0.6694417 1.6188709 -1.3650886 0.4499328 -4.6113167 2.9363604 4.6656113
0 -2.0411239 3.8131485 -4.8798733 2.2793202 0.012895728 -1.333114 1.1936756 0.48153242 6.266979 1.3842671 -2.201548 1.1588123 5.531527 4.7988772 6.2312293 -3.6039047 0.47639284 0.8281784 -2.6358867 5.89867 4.5532084 -2.4654286 -2.539636 -2.635425 5.83286 2.866824 2.440478 2.3665586 0.992049 3.1550522 -2.3828924 2.8990302 -0.05663243 0.04093142 2.2364821 0.6061051 -4.6961627 -4.3790083 3.3626337 3.0118327 -3.7075026 3.5805445 4.676141 2.301575 -3.1663034 -3.6257365 3.2872472 -0.7918921 2.544357 -4.2159867 -2.539339 0.23778372 1.5655411 1.9421741 0.5948694 0.3664885 1.6833824 -5.527218 -4.2215242 -3.9192016 2.746271 1.0898228 -0.6955049 3.3438919
17 -0.8654655 -1.5261965 0.4253122 -1.5192951 -1.0367852 -0.42653793 -1.1357863 -1.8540137 3.7039344 0.10423249 -1.4210413 4.299914 -2.03098 -2.531519 5.353369 0.80207884 -0.2961907 -3.223139 0.3790077 -0.9486679 -0.5162893 -2.3831315 2.5065424 -2.5687854 2.0414238 -4.493116 -2.5295427 -1.8269644 0.03873544 0.43922234 0.17716809 -1.5492443 1.9075786 3.3763957 2.2770126 -5.98936 -1.5542823 3.8196814 1.9900717 -0.48222962 1.2553502 0.557938 1.3125681 1.120715 -2.1391044 -0.9443329 -1.2455878 1.8676318 -3.6163664 2.5736363 0.5907991 -3.6150181 -0.60525066 -1.8692892 -1.5612783 1.2333175 4.65988 0.8370676 -0.85037524 -0.04299072 -3.0524447 4.6460195 3.4354465 -4.46286
47 2.5820293 1.5791795 -2.9187388 -0.0953399 -0.9317469 -2.7691827 -0.92447305 2.837517 4.1232963 -4.471242 0.7799412 1.035024 -5.3192344 0.50413895 0.5636637 3.437655 0.8413319 3.573812 1.3006092 -1.0838807 -0.31800938 -1.1908437 -1.5082246 -2.6460958 3.3225095 0.29513723 -3.7066042 1.9527192 -1.2177787 2.1076298 -1.6247238 -1.3963675 0.01765672 -0.22453049 0.32285586 1.297587 0.62601763 1.6735002 -1.951308 3.9050522 -0.88572514 0.58574677 -3.9797182 -1.1514212 -2.5093012 -4.3198524 -3.6374252 0.49845216 0.9747127 -5.754715 -1.9235833 4.815223 1.9868696 2.1715922 2.1377544 -0.40533486 -0.59728706 2.1176026 0.769241 5.474779 0.9682984 2.4201255 -1.5944438 -0.980636
76 2.1581109 -0.7423658 1.3944348 2.6422534 -0.044859055 -0.73552877 -0.9457425 1.3908844 2.4546096 -0.8537465 0.20626868 -1.3861786 6.143103 -0.8154581 1.7155025 -1.6920515 2.4132848 1.4347459 3.9107983 -2.2284133 2.2797966 0.056446664 -6.0748086 -5.7128053 0.08986777 -1.9854193 -0.13459833 0.5318033 -0.8503141 1.3594382 -2.3030853 3.0566914 -0.12332611 1.2245178 0.90103203 1.7231495 1.1151077 0.8382711 2.2835712 3.2070982 -0.117214836 -2.9003189 1.975457 0.93262535 -2.758597 0.5460439 0.95225006 3.984615 1.9390501 -2.807355 1.8795308 -1.3147668 -2.762088 1.1178225 -0.2044959 -0.58553123 -0.89268565 0.035765335 0.23196602 -0.95570254 2.0416255 -0.8529523 -1.8449962 0.81423753
52 0.65389353 1.2551458 0.2778431 -2.4922853 1.8818127 0.72275656 1.1447704 -1.9672976 -1.1470765 -4.4962792 -0.48666266 -0.831467 0.2606171 2.341562 1.6834209 -0.9044995 2.815559 -1.2513258 2.371983 0.090804115 1.0963585 1.0230037 1.0260744 -0.8490392 -0.048360344 0.5036538 -1.8478932 -0.13277295 -1.128897 0.07551246 0.8747002 0.24110031 -2.3215098 0.061665427 3.3871472 -3.584473 -0.30455643 3.702333 0.15575902 3.950343 0.4959027 -0.704606 3.165135 -0.73170304 -4.55965 2.1222835 -1.0987749 -3.905405 1.7648872 -2.6055157 0.7249226 -2.7976315 1.1800605 2.1639116 1.1575365 1.6389251 3.3675547 -4.2483783 0.44331616 1.211399 -0.3991634 -0.18801053 1.0664268 2.338275
71 4.974873 4.5805364 -0.041669678 0.029554155 0.054622773 -0.6460214 -1.5952764 1.0077845 -1.5585864 0.13895455 0.95647854 -0.6780724 0.9532471 2.730126 1.4982395 -1.5478858 0.062163033 1.2720275 -0.5403124 -2.1491935 0.026264276 0.6012831 0.5438072 -2.651597 0.34512737 1.6092905 -0.37223905 -1.09488 2.129832 -0.9847474 -0.58058757 -2.5379958 -1.9882076 -3.5575585 1.0385214 -4.2714996 -0.9617654 0.1049371 -0.18004233 -2.1683989 2.4999776 1.4304925 1.1749742 0.6612507 0.88889503 0.15621525 2.0930002 -0.56878686 -0.07984487 -3.6277328 1.3450564 -2.2725375 1.3614496 -1.1246444 0.32839116 0.1480387 2.4222033 -0.46153226 -2.1208897 3.0789866 2.3105285 2.267621 0.032282405 0.8162236
91 1.3618109 -0.5691733 0.034594648 1.6568564 -1.8103713 0.46940595 -0.33758542 -0.6489161 0.84126115 -0.08891894 -1.0184605 3.308909 2.2875812 -1.067937 -0.11634192 -2.4187999 -1.8040681 1.7402948 -1.736945 -1.0732049 2.9700723 0.63715595 -0.25062883 -0.613357 -0.6320068 1.384684 -2.0559654 0.27165958 1.381334 -1.6732928 -0.48350793 -0.5798039 1.521176 -2.269906 -2.615524 2.124129 0.10702609 1.3911049 -2.382996 -2.747662 -0.20033707 0.34901682 -1.7063293 -0.67976767 -1.1039732 -0.26136282 0.14590028 1.0155438 1.2465217 1.4344536 1.3834401 0.71688 0.29016882 3.1472273 -1.1837393 -1.2982075 2.6626158 -0.9267852 0.48096156 0.03370382 0.12802048 0.82655823 -2.5720854 1.2984476
70 4.297257 2.1404274 -0.7522716 -0.38502222 1.8285724 0.92099243 -2.889868 0.4647967 -2.1373181 -2.1890283 -0.7633121 -0.33055562 4.213156 -1.6786524 4.7903805 -2.8957813 -1.036225 -1.3572263 -1.1911166 -1.5853484 0.8472141 1.4208037 1.2185094 -0.97133994 0.07255342 -0.042741153 -1.3737303 -1.5547866 2.4346538 -1.4804716 -1.0148314 -0.3524619 -2.5618348 -3.423016 0.8054595 -1.574644 -1.9775944 0.9945448 1.6882228 -1.2757347 -0.5548825 3.1911237 0.74805343 1.2121857 0.979873 1.8348577 2.355418 -0.24870153 0.24707384 -2.3473825 1.4442798 -0.48740283 -0.45570615 -0.5659607 -1.8146377 1.7650263 1.4022051 0.99247557 -3.2574568 0.91565007 -0.08691418 0.3130906 -2.6135511 0.5621181
49 -0.33477452 -0.29752976 -1.3050357 3.0457602 0.31736004 2.4436016 0.65290624 1.0204536 -2.946742 -2.2605639 -4.0449357 -0.46810663 0.4738109 -2.2085583 1.4368243 2.7222779 -0.11347618 3.1179602 0.30255666 -1.1242218 1.9708767 3.3054097 1.3413472 0.16353652 0.8082732 -2.5159426 -2.343815 0.44420364 -1.4073066 0.16419917 -2.5295587 0.83073336 2.9057753 1.7930726 -0.7808914 1.2194564 -2.318403 -2.3065083 -0.7908123 1.0825967 1.0497097 -2.0241656 4.0173464 0.6056004 0.030802589 -0.26523513 -0.078109145 0.51791465 -1.7399861 1.3847706 0.99879366 0.8399575 -2.244117 1.2420244 0.76067024 -2.0882666 2.388544 0.26457527 -3.5252266 -2.2895417 1.9638549 -2.361171 0.24112014 1.0956461
31 -2.7861657 1.7013085 3.5319822 3.3991342 1.6497113 -3.324325 0.5587279 -0.26390606 -5.3486886 4.041164 -1.5825689 3.3555205 0.6951683 -1.4019407 -0.69682556 -0.77090764 -1.0785705 -1.4311892 2.5126822 0.17143355 4.655473 -1.3031931 0.6984573 1.4729209 -1.3073167 2.964983 0.12594883 2.2982595 -0.92721665 -0.9671743 4.309148 -0.8813925 1.2627028 0.28756365 -0.07545634 -2.4680085 0.91195226 1.742791 2.3379676 0.59829813 2.1111674 -0.81349933 -1.1819054 0.78449446 3.6055665 4.162461 2.9110677 2.6917763 3.7596748 -0.8265326 -0.40872568 -0.47833258 -0.58086586 -1.6635861 2.5100665 0.88008136 0.48294452 -3.741755 -4.7998347 -2.575121 -1.6531544 1.0534147 6.390816 2.7050295
68 -0.76652974 -3.9458141 0.46200046 1.1625166 -1.3354774 -0.015396612 -0.68754065 -0.25783506 1.9038095 1.579677 0.34749892 -0.2230466 -1.2773272 -1.7131732 -3.1439166 1.6948951 0.4363029 -0.20788863 0.19926476 -1.0341492 0.26505038 0.93851995 -0.97321755 1.3875062 -0.32546443 -1.4318757 -0.7411565 0.12893175 -0.562672 -0.96519566 0.86526614 1.8929412 -0.32869276 -0.004260381 -0.981826 -0.9558122 0.005799818 -0.9179877 0.15754601 -1.8691081 0.44494388 -1.5512987 0.54336894 -1.5203918 0.8756555 2.1155713 -1.6577709 0.48874256 -0.14207904 0.27099454 0.812893 0.5031027 -0.7449879 1.5298489 -1.6822757 -1.2938718 -1.8096923 1.3150718 3.3071146 2.5752375 -0.676432 0.57523745 1.3186162 -1.2885381
48 -0.11094482 -1.2294105 -3.0552933 -1.0892596 -0.057207216 2.0831103 0.41287172 -0.7871981 -2.6223605 1.1939248 -2.0361207 2.058445 0.7154445 4.1493073 -0.80592483 0.8872395 -0.57649934 -5.454399 -2.961826 1.217433 -1.5894216 0.90108174 -2.120656 0.46049628 3.2260973 -2.6116807 -2.4601867 -2.8338394 -2.5823395 -1.8408612 -0.24417631 -2.8447688 1.6747217 -3.0952067 0.18807814 1.3442367 -3.514034 -7.342107 2.3245609 -0.24062116 -1.3119646 3.8862264 -0.8691009 3.4125874 -1.8370014 1.2380836 -0.45251966 -3.307263 -3.8086808 0.1972629 -1.1368227 1.0725375 -1.4698703 -1.3828807 2.1053383 -1.8664036 -3.014941 -0.82669824 1.9633626 4.2716665 0.49220523 2.7879899 -0.38052464 -1.0141187
11 1.8850654 0.4238263 -2.1889572 2.3368042 0.1619704 1.6489779 -1.3590226 -1.0027684 1.0572754 -3.907981 -4.6905007 -2.3032968 1.1825985 1.6049123 0.808148 -4.616171 2.485737 -3.1399553 -0.7021568 3.1491437 -3.0904684 -1.4542763 -0.8877345 -1.2215272 0.24985664 -1.451488 -1.1521211 1.726762 -0.4340412 0.709633 -1.4963424 -3.485338 -0.4374862 1.6481644 0.9041211 -2.0372756 0.077444404 4.236353 1.2029634 -0.42000043 1.6933601 -2.8707151 -0.51131636 2.0034742 -2.818979 0.43872356 1.6669577 -2.5308576 -1.2659653 -2.8008425 2.5905304 -0.9868115 -0.15146303 3.509794 -1.0468761 0.01243538 3.1993763 -4.377525 3.9145083 2.8221562 2.3979018 -0.19938536 1.5274899 1.257366
38 1.481554 -2.5932646 2.0066469 -0.332917 2.070126 -3.2942116 -1.0495812 -3.5404747 2.4895952 0.087233305 3.8861125 1.472182 -1.1566212 1.1574818 -2.1341379 0.06675351 0.19863267 0.8534319 4.2582846 -0.080347545 1.5328516 -2.538869 2.1733968 -1.5785111 2.8112917 -4.0636463 0.8876687 -1.5560381 1.3303838 0.35494122 0.007717247 1.8735038 -2.1466095 -5.0259204 0.78094226 1.6935147 -3.3022242 -2.1714118 0.55074453 1.5052863 0.20562713 -0.920226 1.2492927 -0.24327311 0.9563071 0.8925051 4.659269 -1.2865287 -2.7791028 2.721625 -1.0698395 -2.526386 -3.8206103 -0.46233767 -0.53714097 -2.1084583 -0.91321725 0.7078121 -2.902338 3.4305625 0.15825783 -3.1323657 -0.28286698 -4.181883
39 3.4999702 -0.23692977 2.1193619 1.317528 -1.2498854 4.305661 -0.95759165 0.13212503 -0.4741449 0.9605455 0.9068982 -3.6842444 -2.3671005 -0.5343219 -1.8431916 -3.193516 -2.6089134 1.9071512 -1.5776615 -3.0603921 2.5804434 -0.52918684 1.4310846 -1.2375184 0.6261447 -0.22597599 0.55097395 1.7222172 4.5105615 1.0226532 0.41487607 -1.0932229 0.93757004 0.20259215 2.583608 1.4224503 0.5116672 -1.8873854 0.84994453 0.6054605 0.35237837 -0.23895767 0.6571748 -2.472638 -3.5658576 -2.2803602 -0.25155488 2.9112885 -0.66077715 -1.6859592 0.13047434 -3.458948 0.1309972 0.17741442 -0.793024 -1.0437781 -1.516064 1.4809021 2.2645164 1.8888844 0.7868063 -1.1343708 4.926008 0.78878605
81 3.5256226 -1.5254734 -2.2335832 0.5177979 1.4156629 -0.21332903 -1.5518935 2.5194507 3.6163802 -0.32451716 0.7104271 -0.45930767 1.933397 0.9754686 1.4364685 0.008655873 2.4423895 0.6641166 3.1221948 -0.25822827 2.0287929 -2.0146205 3.0159438 -0.73079574 0.43465182 -2.376261 1.5565474 -0.009429513 -1.2162751 -1.6963665 4.202523 0.49248347 -1.0114616 0.6343731 2.580624 -2.0367439 -1.2756323 2.5507274 -1.1781472 2.9541066 -0.0022973083 0.8670815 -0.25479355 0.076759376 0.0455841 1.3274027 -1.8725799 -0.5170736 1.9183462 -0.7233398 -1.816731 -1.9628431 -1.6405373 2.182366 -0.5608923 -0.8846555 2.8759716 -1.2906576 0.13332388 -4.5564284 2.5018644 -0.8344601 -0.7057269 1.50987
1753 0.08322504 -2.2182126 0.05324596 2.7569177 -1.9935892 -1.4066443 0.46657088 0.43273786 1.9894236 -1.287609 -0.481721 0.502331 1.6392968 -0.86061615 -0.08587734 -4.0562286 2.6315565 -1.3566101 0.9787098 0.34750092 1.9693977 -0.31826425 0.07795281 -2.1406338 -1.1974353 2.3396838 -0.88132524 1.8494937 2.448127 0.85866225 -2.5884912 1.7166936 2.391951 0.9733186 -1.3180517 -0.25759324 0.5441948 -0.14124335 1.5074122 -1.3210064 0.8343697 2.1016805 3.9611576 -1.3893284 -0.06447495 0.46192127 0.07342819 0.8019662 -0.5781745 -1.2361094 0.8314908 -2.5225132 -1.5437201 1.5478964 0.6898451 1.1072322 0.62121207 1.46485 -0.99295217 -1.8232893 0.9417517 -0.38382658 1.5777692 0.53609836
97 0.10421429 -2.224685 0.09169625 2.7493372 -2.233091 -1.4601533 0.7632089 0.4261166 2.1556847 -1.3876401 -0.2015415 0.42923233 1.7087717 -0.7804634 -0.28229532 -4.563354 2.8948832 -1.5767645 1.014282 0.7333777 2.0754278 -0.43899232 0.06501893 -2.3148804 -1.5302799 2.4040284 -0.95947015 2.2082822 2.4785824 0.8257899 -2.784993 1.6832821 2.5084057 0.8409376 -1.1057723 -0.36526555 0.76316446 -0.026602134 1.6719083 -1.5644912 0.74601763 2.0824685 4.4672046 -1.4386333 -0.0062039313 0.44577894 0.0017088838 0.8374217 -0.8445375 -1.3018514 0.9739271 -2.7372959 -1.4454561 1.5343385 0.45652342 1.178641 0.431978 1.647665 -0.9986408 -1.785489 0.7353022 -0.52595407 1.8873987 0.7793397
79 -0.8129469 -0.50218654 -1.9474803 2.1990476 -0.5648106 -1.5662558 -1.1828883 1.6458066 0.017569821 0.23336607 -2.7351441 1.8427535 0.10534425 0.13077113 -0.34093913 -1.9460039 2.0735445 0.14608477 1.6314168 -3.8770483 2.5718133 -1.1498582 2.6291664 0.24476604 2.0110698 -1.6600018 0.8146847 -0.64481485 -0.9900195 -0.92402875 -2.6617906 0.8604207 0.43071 2.8485072 0.54974264 -0.6644273 -1.5519694 0.848378 0.056107163 0.34547952 -0.8934436 3.0221527 0.5847823 0.06109517 -0.061334953 0.09928095 0.83865577 -2.1170774 1.8909167 -2.7155209 0.19990183 0.48689544 -2.8697767 -0.41445398 0.77780557 -1.1899971 -2.9319108 -2.6377172 0.21586832 -1.783298 1.4096389 -1.0055171 1.4709723 -0.14575984
1642 -0.83468324 -0.40360466 -2.100523 2.2264502 -0.65614855 -1.5400348 -1.1399007 1.8025379 0.13967127 0.3460639 -2.6693168 1.908872 0.080672406 0.284832 -0.46633777 -1.9569716 2.1633625 0.18037094 1.6194499 -3.9015417 2.6711862 -1.3310808 2.7951272 0.4858807 2.1238763 -1.7528466 0.85435796 -0.6120969 -1.1938504 -1.0235014 -2.7402916 0.81193924 0.45480973 2.8551795 0.8463571 -0.75021774 -1.5367215 1.0543087 0.042817127 0.3767227 -0.93180263 3.16594 0.7458256 0.19734219 0.042530213 0.0011123638 0.8712343 -2.2869985 1.9112923 -2.8015468 0.27740884 0.6529108 -3.1384318 -0.5286008 0.70506346 -1.1882427 -3.13706 -2.7428737 0.12640925 -1.7218722 1.404725 -1.1451663 1.5214908 0.06687008
95 2.4754126 -1.7940722 0.1428424 0.93067193 0.86382484 -0.26876968 0.43981934 2.769034 2.0193598 0.82687414 -3.4094052 0.9768769 0.80925447 0.09811244 -1.6222756 3.1502576 0.07148693 0.026928168 -0.118696645 -1.087822 -1.4263585 -1.6613095 -0.43040457 -2.2397346 0.5363362 -1.009298 -2.4949298 1.8950856 0.39124808 1.1856117 -0.76093996 -0.062160723 0.8148865 1.692223 0.46128753 0.28601512 -2.1137662 -0.028529366 2.4149318 -2.0086238 -0.0054216594 1.4593451 -0.087924264 -2.1374881 -0.22606075 0.23196873 0.3853608 -1.3205158 1.5659447 -1.0450573 -0.89051175 -3.3082569 -1.8139999 -1.4079424 2.1527658 2.821125 -0.8849454 -0.69387555 0.0937598 -0.46602723 1.2133336 -0.7704362 1.9167136 -1.695803
2191 2.6824136 -1.6360676 0.07930245 0.8560069 1.1225393 -0.30924892 0.6129954 3.1240222 2.3265698 0.9654713 -3.5693274 0.90656453 0.80904007 0.15948665 -1.877707 3.4734561 -0.07231413 0.15071312 -0.12235226 -0.7493137 -1.5573989 -1.7961574 -0.44803268 -2.52955 0.45683596 -1.2310559 -2.6541176 2.087829 0.024497226 1.2552258 -0.71852136 -0.03429197 0.80277604 1.6373563 0.9088739 0.3164236 -2.0477197 0.1307931 2.7069008 -2.0886447 -0.029465381 1.7156224 -0.006633996 -2.0958114 -0.23457913 0.20177327 0.56914926 -1.4663975 1.4789672 -1.1215644 -1.0158048 -3.451999 -1.9040782 -1.6419029 2.1910357 3.1264312 -1.2167897 -0.7395549 0.1820812 -0.12560181 1.2308586 -0.96747273 2.152271 -1.7879003
86 2.503064 -0.49433827 -0.49373725 1.4273853 -0.8037686 2.420131 -0.5454256 -2.078977 0.68340003 -0.19033721 -3.6948502 -0.7941503 0.24168843 -1.0416389 1.3426226 -1.202798 1.3136197 -1.0978433 -0.4471127 -0.9816376 3.6333976 -2.633126 1.983022 -2.6310492 -0.57143545 2.2922492 -2.7057307 -3.2066083 0.24577203 -0.035301905 -0.16424926 0.253593 -0.9391142 -2.510295 1.0636673 0.12427393 -0.88165975 -0.37371802 0.8385722 -0.8638638 2.4268951 -1.035804 1.0654514 0.4664575 -0.53787124 0.45988366 0.19797778 1.6505495 -1.6262176 -1.2740346 2.5087671 -1.8601996 -3.11083 1.519824 -2.4409018 -2.9063196 -0.63047266 -1.0505232 0.29937372 -1.9775225 0.6278153 0.03027603 0.9164743 0.2687164
588 2.303842 -0.50695366 -0.508387 1.3647603 -0.8441315 2.1546218 -0.6737274 -1.8472617 0.47326112 -0.07966245 -3.5853074 -0.6821351 0.2548246 -1.0884861 1.3730091 -1.2699952 1.1086413 -0.917429 -0.29823804 -1.4246216 3.4020116 -2.4679785 1.7249163 -2.48097 -0.53899914 2.082492 -2.514311 -2.9830246 0.46658015 0.051052798 -0.24801295 0.22955307 -0.87977296 -2.2166483 0.8545046 0.12945567 -0.9037981 -0.56522185 0.77504146 -0.6946377 2.2504787 -0.9609024 0.8511897 0.30151767 -0.511235 0.35844067 0.40446788 1.5718324 -1.4893909 -1.3946215 2.2828674 -1.778233 -2.9825406 1.4892385 -2.014822 -2.6165795 -0.5634518 -0.89089215 0.395397 -2.1387565 0.7010991 0.03125171 0.8941451 0.24392097
72 -0.3366744 -0.608113 0.7915487 -0.2494935 0.50687885 2.8974352 1.0848452 -0.82468194 1.3522425 3.5674 0.38990864 0.50552404 2.5941563 1.6045319 -0.34032464 -2.390022 2.9093914 -3.2264783 0.32835352 -1.4997019 1.161352 0.65819657 -0.20402497 1.4000477 1.3186884 -0.013178117 -1.5311275 -0.0667469 -1.8079534 -1.1301513 -1.2085762 0.8584449 -1.3513172 0.8931576 0.41234332 0.010313351 -3.1386485 -0.32697794 1.7966291 0.026259927 2.3784428 -0.83114237 -2.187931 0.9762001 -2.8621178 1.344125 -1.2445909 0.3007677 2.4718015 -1.9794914 -1.5050453 -0.15119216 -3.7637296 1.3395429 1.9513644 1.1862509 -0.813089 -1.2927495 -1.5999817 -1.5513291 3.0735009 -0.6782105 1.8996077 -0.2902063
1944 -0.2825042 -0.5746463 0.81586903 -0.14125167 0.32870942 2.8232863 0.96672535 -0.7627434 1.326385 3.3908107 0.3967414 0.5703861 2.677268 1.3964654 -0.3799617 -2.3371017 2.8871613 -3.1532776 0.39490575 -1.3678591 1.3488295 0.6359571 -0.20858876 1.466849 1.2523696 -0.27190295 -1.520299 -0.110767126 -1.7766508 -1.1037027 -1.335712 0.8914429 -1.3803804 0.7068809 0.3255822 0.17117417 -3.0669327 -0.3000468 1.6453487 0.0055194036 2.373163 -0.88947856 -2.108949 0.9011062 -2.695905 1.202422 -1.1786832 0.31875286 2.5562234 -1.8695008 -1.3136692 -0.16541672 -3.7310858 1.0599481 1.9272444 1.2763237 -0.7310845 -1.2733173 -1.4540449 -1.574063 3.3316283 -0.5300428 1.880685 -0.42806885
872 -2.689344 -1.7736323 2.0545557 0.8116788 0.21093537 -1.3668914 -0.8954615 1.3911293 -0.23851392 -1.280409 -2.9328547 -1.4919176 2.875707 2.1265056 2.8546708 -0.76692265 0.87792677 -2.905695 3.0136254 -1.6112047 1.0177537 -1.9171119 0.00893016 -0.9969096 0.8245508 -1.2915007 -3.7172406 1.2977563 0.7474781 -1.6901733 -0.1603346 -1.1236801 -1.2107612 0.90375155 -1.305976 1.4086564 -2.439808 0.33127984 2.2768216 -0.40884608 -0.3343757 2.0946822 -0.76335543 1.3201832 -0.1464312 -0.3468369 -0.1947992 -0.8588298 0.73061144 -3.640321 0.9081639 -5.0346103 -1.8009804 -1.7435299 0.0666076 1.1798645 -0.2135723 -0.64443475 1.1607938 -0.45836502 1.3004766 -1.0416528 2.1567543 1.1785395
32 -2.51508 -1.682226 1.984706 0.7749974 0.26216796 -1.2714809 -0.99511355 1.3069445 -0.39064986 -1.197853 -2.7686124 -1.1989281 2.6778533 1.926522 2.6215827 -0.80897903 0.94410557 -2.627024 2.8822732 -1.7686915 0.9873944 -1.6717796 -0.11100044 -0.93841076 0.8949572 -1.1255239 -3.5449991 1.0724195 0.8399659 -1.3979057 -0.2600263 -0.91928244 -1.1953272 0.9264528 -1.414155 1.3974241 -2.4072683 0.30900717 2.1101599 -0.429001 -0.14726542 2.015728 -0.83144647 0.99028045 -0.18118288 -0.17649229 -0.049261775 -0.75571644 0.93447465 -3.4960496 0.8886969 -4.516378 -1.7731906 -1.371777 0.31424052 0.90378183 -0.10431404 -0.6056501 1.1852136 -0.6765884 1.3797499 -0.95888203 1.8654742 0.91703886
56 -2.1218874 -2.084897 -1.809213 -0.25276735 -0.37696862 -1.5272427 3.4591238 0.8234029 -5.007693 -3.8054402 0.64598006 -0.14215748 -0.05724231 -3.2964942 1.4481443 0.19883806 1.9317957 -0.16498156 0.59116995 -1.0607306 -1.1166017 -0.5402432 -0.98355824 -1.4098281 -3.9121046 0.6220399 -0.27345103 0.5922363 3.5505154 -1.7790483 1.3162528 -0.3714724 1.3912623 -1.2485001 0.03256967 0.9517767 2.5854554 0.4241384 0.292191 0.59668416 0.9269387 0.37832645 -0.5863835 3.4087002 2.3521051 0.7163979 -0.83124727 3.4058897 0.54229957 1.0483348 -0.17983565 0.82985663 -1.7312357 2.2257695 0.9039694 -0.47133267 -3.121745 2.0872626 -0.3892653 -3.0983613 -2.7656379 -0.82417214 -1.464036 1.7270385
82 0.009418013 -1.5420718 -0.18735705 -0.10499294 1.7127802 1.4208597 1.7026336 2.3468893 -0.766228 -1.2806015 0.35688668 1.5869142 -0.018161621 0.2914976 0.09767633 -1.9629269 -0.0702669 -2.9835315 2.4966383 0.3579864 -1.5772642 -1.4062432 0.63430005 -0.97893596 -3.171503 -2.1120992 -1.093892 0.09914849 0.75679415 -0.67135537 -1.7317915 -0.5677782 -1.023844 -0.34803623 5.067353 -1.9729391 -2.022582 1.6416397 -1.0831455 0.71317977 3.1529672 -0.9488165 1.6476647 -2.646588 -3.7654855 4.0601625 0.2948564 -0.45680854 1.2078367 -0.53843397 -0.027430644 -1.7012556 0.006973487 0.54402065 0.14460535 -1.6906364 1.4280965 -3.1134813 1.2342782 0.53664917 -0.018066963 -4.487755 2.381911 2.2257226
46 -0.42217332 -2.5947173 -1.8357146 2.8266914 0.36328337 1.53173 0.0011526558 1.1211739 -1.6034194 -2.9479222 -1.4004164 1.0293893 1.616311 0.70075405 0.17101064 1.2547559 2.6355834 0.17216122 1.7053751 0.04990903 2.481952 -0.3618907 -0.8505706 0.22189532 -0.77565676 1.3113621 -0.119375445 0.23694924 1.8462594 0.37688518 1.8329351 -1.3185575 -2.6390626 1.834186 1.4284139 0.7318835 0.7344946 -0.28025445 -0.21902497 0.04223961 1.0199302 -0.8230031 1.5319228 1.867738 1.646 -0.6444032 0.5851785 1.5169859 0.1219595 -2.0680947 2.1064112 -2.2207072 0.17669223 0.783016 -0.9104867 3.0033462 1.85622 1.9706843 1.349796 -3.6103358 -0.05306534 1.079583 -0.40265375 0.5352337
2174 0.37936723 -2.5593176 -1.5316963 3.3204534 0.3443686 1.2170122 -0.209567 0.89031416 -1.1257936 -2.9497066 -1.6126419 1.1942838 2.0228038 1.1514575 0.27354378 1.048807 2.6587818 0.06835917 1.7080889 -0.12259553 2.850123 -0.3003459 -1.278507 0.06830458 -0.04078108 0.94325125 0.20514868 0.011329946 1.8854061 1.2427497 1.6423472 -1.0191408 -2.7194922 2.518866 0.9423478 0.58699334 0.19953524 -0.4643035 -0.03129247 -0.19778758 1.2424891 -0.9038178 1.6477338 1.3830522 1.5792813 -0.6229597 0.7364548 1.5091529 0.3492133 -2.350241 2.0834732 -2.516385 0.16779812 0.4649591 -1.0523338 3.0449288 2.3088412 1.7323197 1.3872072 -3.8216999 0.50061643 1.4098316 -0.37589362 0.24345027
75 -0.6632363 -2.1966627 -0.34589285 -0.94393986 -1.2767488 -0.2058968 2.4686732 0.41211173 0.8357678 -0.402307 -0.06907605 0.36780223 -0.53230375 0.21078953 -1.370895 -1.6616107 3.471077 -0.03580249 0.19327244 1.6114455 3.2690063 1.0241902 -1.1815832 -2.4555478 1.5802088 1.7780489 -0.100312464 -0.06117318 -0.14039835 -1.4191467 2.0530658 0.25500008 1.2519983 -0.13425507 0.49923936 0.71232986 -0.92062986 2.1014822 -0.8784501 1.1614912 0.9468772 -2.3286178 -1.9400883 -0.97832346 0.07201146 -0.68760544 0.35382372 -0.75963503 -0.9721462 -1.4922299 0.69672257 1.0601197 -3.6466846 2.466679 2.0612783 0.33602974 2.0527437 -0.5581386 1.2597295 -1.2748662 1.4644883 -0.6580686 2.6509948 0.6263882
65 -1.0158193 1.1827428 -2.964898 1.1152838 -2.549484 0.9146707 -0.6343008 1.6197672 2.0034184 -1.4355818 0.295676 1.8407739 -1.1888567 2.4923642 0.34622735 0.33969992 3.0337474 -1.5121406 0.2628494 0.11697278 2.7967174 0.16754971 0.7155984 -0.6681807 0.9892632 -1.6189504 -2.487557 -0.110748604 0.62143534 -3.1177928 1.3550917 0.9006832 -0.31934965 1.1621829 1.3851466 0.9117612 -2.4476328 1.4034264 -0.5046564 -0.34103188 -1.3478571 -0.07931197 0.5110752 -2.950934 -0.97281945 0.6769804 -0.84611285 -1.1399864 -0.5434281 0.1131103 -1.2307066 -1.1681473 -3.5863776 0.6550936 -0.8180401 0.7237931 -0.5153809 3.1455414 -1.5992105 -2.417124 -0.46256858 0.38043368 1.0288252 0.36937279
50 -1.2975073 -1.7711933 -3.6856053 -0.6563085 4.0044665 -3.813857 1.0591022 -1.075271 0.060851634 -8.186182 -4.6635323 -1.2053137 1.1214863 2.9518986 1.763309 2.8942432 4.626645 -2.3620958 4.240771 1.8447407 -1.8935453 -3.3349288 -1.2726918 0.830344 0.89645123 -5.8019123 3.1107543 -2.618954 -0.37925732 -0.7954291 4.884413 -2.3679125 -0.4205969 -1.7760056 5.4994736 -0.09201391 -3.2245538 -3.3932643 -2.5203211 3.8109422 1.233075 -3.9546928 -0.9460094 -4.0923214 -4.196442 1.425978 3.6713815 -0.7767843 1.3766146 -1.3582596 1.4504588 -3.5889015 -0.19487792 -4.6168227 -2.4479907 2.0891368 0.74943227 -1.894539 0.463507 -0.1793128 -1.5066683 -1.2723031 1.9874784 2.6081045
69 0.8452462 -0.033978928 -1.9494729 -1.2995276 -0.3373165 1.378548 1.9068147 -0.08817243 2.2694647 -4.008197 -2.097511 -0.27445614 2.2290273 -0.036315538 2.6207933 0.093169875 1.9988855 -1.5212644 -1.2252054 -0.8499325 -0.052015927 -1.7064198 -1.6755214 -1.5678908 1.4160863 -2.2220314 1.2675488 -1.349365 0.065959044 -0.78528225 3.4524388 -0.291393 -0.84700763 2.3527832 1.8573442 1.2864491 1.0965286 0.00789846 -0.21012835 2.7272217 -1.6953467 0.14240362 1.0495362 -0.52875865 -1.284257 1.8224423 -2.252071 -0.49137205 -0.524565 -0.03224945 -1.559122 -1.3381613 -1.3511974 -0.14629866 -0.30995774 0.51634747 -2.6083093 -0.3481213 2.1943438 -0.9514029 -0.1613855 -1.0635239 1.7978328 -0.98168766
66 1.7238272 -0.4139537 0.6011397 -1.1419979 -0.023704305 -2.040222 2.4662464 1.3673849 1.7538505 0.34208646 -0.015653959 0.7222554 1.701649 -0.10101485 -1.1416386 -3.4926481 1.9280903 -1.4374021 1.8873771 -2.4242094 -1.6955287 -0.063619204 -0.2721517 1.188304 -3.1505272 -0.8036606 0.2428031 -2.3321536 0.6959418 -1.2751012 0.06574189 -0.38849822 1.094458 0.01163876 -2.270178 -1.3584948 -1.1701872 -0.8813316 -0.09796742 1.7146494 -1.1037699 -0.5828199 0.15336633 0.10850005 -0.043773074 1.4116837 0.41458064 -0.32506806 0.91595733 -0.81392306 0.16021386 -0.6548941 -2.009472 2.3704748 -0.42611024 -0.058814865 0.66869015 -1.662486 1.1677744 0.83564526 -0.34046137 2.1716082 0.089860156 0.40221018
99 1.613035 1.0145956 -0.32075873 1.915302 1.0776448 0.505008 -0.3935541 2.3025477 0.48256943 -1.3403624 1.6934067 -0.045431618 2.0368166 -1.2178768 -1.0126133 -0.21591537 -0.45659497 0.1920148 0.48340747 0.84534794 2.0055552 0.5958347 0.1915211 -1.174631 3.1292574 1.7034135 -1.7905838 0.24746609 0.46039423 -3.0232964 -0.13127673 0.114770345 1.4002954 0.67480624 1.3436925 -0.35761446 2.9733415 2.8521492 -0.08296779 2.1032953 -0.60894525 -0.8039959 0.9953714 -3.2108724 2.0744944 3.934515 -1.9785731 -1.0906003 1.0911804 -1.1273054 0.0124452105 -0.20204331 -1.3749605 2.6716182 -0.562939 0.83852947 -1.791025 -0.7902484 -3.3345392 1.0099953 0.44349945 -1.9548372 -0.97494245 -3.3372197
1414 1.0141913 -0.6526127 0.83705986 1.4692578 0.0814629 -0.4695482 -0.66496265 0.6425964 1.1814133 -0.36034447 -0.11922798 -0.5466561 3.2544043 -0.48486823 0.98456943 -0.9702338 1.3352274 0.71278536 2.0623467 -1.5418463 1.2618743 0.07540526 -3.1520112 -3.066461 0.120781265 -0.98774517 -0.06003883 0.17055558 -0.16810465 0.84129 -1.3740208 1.805524 -0.03879872 0.74755114 0.044733405 0.97929984 0.49521175 0.23748438 1.2101682 1.5857182 0.10958177 -1.505772 0.9283058 0.3999834 -1.4772276 0.32812735 0.48715365 2.1222034 1.2032869 -1.5399158 0.96337515 -0.747338 -1.6173908 0.64909804 0.06396979 -0.3702898 -0.36678317 -0.012171094 0.12492476 -0.8294849 1.1643555 -0.35824022 -1.0748672 0.25078472
1248 0.13206781 -1.570719 -0.29596993 -0.3834993 -0.7384219 -0.14775445 1.461853 0.3147139 0.93864316 -0.3192987 -0.6371927 0.75771266 0.29510155 0.1300828 -0.61303914 -1.2470815 2.4525635 -0.7072761 0.25568965 0.9357461 2.288952 0.93085396 -0.82343364 -2.577107 1.2789468 0.98344845 -0.5147699 0.15463942 0.091078475 -1.2652934 1.290614 -0.047703885 1.0549161 -0.1514204 0.24447052 0.489488 -1.5344229 1.7636158 0.038808003 0.96403295 1.0423757 -1.8544538 -1.3104293 -0.7514059 -0.042793095 -0.09620833 0.05539596 -0.43705878 -0.4264614 -1.3635525 0.5132399 0.3492995 -3.2780566 1.7760282 1.9053466 0.27936503 1.543933 -0.4796189 0.80595547 -0.89758444 1.2921542 -0.66269916 1.9890909 0.14253975
2677 1.3005561 -0.28610414 -1.5003804 -0.41656968 -0.40527812 1.2836949 0.97304225 -0.1616749 1.8734276 -2.4681349 -1.7087103 0.20152637 1.2578164 -0.40921226 2.320492 -0.0623501 1.8804371 -1.4209962 -0.9481177 -1.0607104 0.43783322 -1.3889942 -1.3834927 -1.8799764 0.5036587 -1.7737975 1.0593969 -0.88068527 -0.20213361 -0.42986104 1.7395366 -0.2177539 -0.73513275 1.9675361 0.72387344 1.0402749 -0.010980066 0.6712904 0.13911328 1.8491307 -1.0827726 0.18876877 0.9775881 -0.8679153 -0.98484606 1.8708535 -2.0253942 0.09775185 -0.12693204 -0.46889743 -1.159309 -1.0260531 -1.3926535 0.25909266 0.653516 0.5367028 -1.8772069 -0.8414156 1.9910182 -1.23571 -0.27594382 -0.75398535 1.3916672 -0.94416213
802 1.0681217 -0.64717096 0.74771297 1.3650868 0.09122197 -0.4995819 -0.6303138 0.66317624 1.1753925 -0.36415184 -0.07738581 -0.57101566 3.2089326 -0.47155255 1.0096749 -0.91152674 1.3159592 0.6448158 1.9877003 -1.510609 1.2270579 0.09506183 -3.1116333 -3.0538354 0.1953887 -0.9719831 -0.059279364 0.14433445 -0.09010125 0.88435733 -1.3507475 1.7331524 -0.041982066 0.7354925 -0.010500076 0.9355382 0.51375824 0.17405857 1.1131016 1.6360834 0.1669844 -1.4267709 0.96818465 0.36078274 -1.4759797 0.3558089 0.33186713 2.0645845 1.1822281 -1.4489592 0.95703477 -0.8056845 -1.4806497 0.5773614 0.0979911 -0.3656424 -0.43808058 -0.035330735 0.13610052 -0.83254087 1.1376369 -0.4108232 -1.036068 0.25047037
334 1.2183247 -0.38660067 0.06972995 1.065022 0.22132576 -0.8915058 -1.9687963 1.2996875 1.1275537 0.4669797 -1.2467452 -0.020762742 0.7271304 0.58301884 0.4186676 -0.9269725 2.0598042 -1.6855872 0.36791733 -2.0899646 1.3648477 0.49440452 0.7337739 0.069405854 0.04857321 -0.9010058 -1.5208639 -0.5968607 -0.8811966 0.3413661 -0.73392063 0.4696411 -0.7256533 0.46159872 -0.40057594 1.006372 0.21749757 -1.7561065 1.3113402 -1.0091969 1.2189497 0.0076027177 0.014680876 -1.0762628 -0.66283774 -0.23583193 0.069741696 0.6945722 1.6714351 -1.531191 1.3659083 0.19512683 0.28079918 -0.37040302 -0.041997798 0.40280423 0.47317126 -0.62397325 -1.3565494 0.03705142 -0.39416453 0.6080031 0.5210706 0.32844895
2715 1.2155545 -0.38786134 0.068653174 1.0675561 0.2612916 -0.9027751 -2.0087194 1.3511695 1.0768384 0.47779104 -1.2666916 0.013627435 0.74721676 0.59798783 0.4171672 -0.98120433 2.1340883 -1.6749825 0.33816186 -2.178497 1.3939655 0.52247745 0.75724286 0.042435016 0.0850397 -0.92238456 -1.5420703 -0.6132354 -0.8879681 0.40803188 -0.70647556 0.46306285 -0.6820626 0.5110527 -0.42457974 1.0187005 0.2073156 -1.807232 1.3146015 -0.98156446 1.2452537 -0.03409298 0.026602611 -1.1102585 -0.70034784 -0.24179532 0.034012973 0.69690377 1.6147585 -1.5510899 1.4069947 0.20911366 0.30200142 -0.3412008 -0.019660685 0.41858572 0.4566823 -0.60927284 -1.3605899 0.023262499 -0.38903284 0.6003623 0.5023337 0.2868873
134 -0.54778636 1.4571178 -2.2561877 0.7659231 -1.8371763 1.3085374 -0.4655169 1.2165223 1.5545169 -1.5984396 -0.01969328 1.7736295 -0.8157608 1.2998683 0.7016014 -0.32679182 2.3308702 -1.0514724 0.24938011 -0.34006807 2.2145066 -0.1603974 0.6129339 -0.5834208 1.1272842 -1.3698691 -2.371148 -0.35203543 0.9027355 -2.2257524 0.8501326 1.1180145 -0.021520626 1.2638736 0.29849187 0.9360547 -1.9769992 1.1447995 0.06652186 -0.46509168 -1.2690407 -0.013974536 0.3217623 -2.3800154 -0.6465441 0.88404244 -0.5759743 -0.8196329 0.23662765 -0.38474157 -1.2325978 -1.402311 -2.6779594 0.66614354 -0.07632489 0.7498932 -0.15073813 1.501612 -1.2090445 -1.9363468 -0.21650489 0.5104485 0.9609197 0.62826353
2397 2.2622585 2.2441971 -0.1258481 0.1451452 0.143737 -0.4436719 -1.1769477 0.55664855 -0.9965758 0.16664901 -0.025276642 0.08202458 1.1446214 1.311911 0.8324529 -0.8701373 0.2864599 0.53976506 -0.0528387 -2.0079522 0.54589987 -0.21397594 0.47249928 -1.3800672 0.54858524 0.83547205 -0.22295594 -1.0098014 1.4159168 -0.55981934 -0.45834264 -0.61537266 -0.25680768 -1.2611294 -0.2993319 -1.6964443 -0.73255724 -0.10615996 -0.094016835 -0.7053899 1.3706924 0.75222105 0.35642278 0.2167523 0.64256614 0.08978611 0.8529208 -0.17570017 0.5707729 -2.073865 1.0073922 -1.3330053 0.34375566 -0.39415503 0.6705515 0.33763793 1.7263796 -0.18040168 -0.63860834 0.90968597 1.627476 1.2267996 -0.20257835 0.1331464
2843 1.2070948 -0.3191869 0.07476905 1.0549127 0.21609747 -0.87479043 -1.9503955 1.2327441 1.0510211 0.4273244 -1.2024094 -0.025183734 0.72934216 0.61058974 0.3537657 -0.8796448 2.0247078 -1.6257474 0.30928907 -1.9529768 1.3292135 0.5248891 0.75058883 0.04160039 0.088012554 -0.8522353 -1.5048748 -0.58410794 -0.94965744 0.30083278 -0.66405946 0.46782318 -0.68875396 0.49343005 -0.33073053 0.92925996 0.28366467 -1.6452544 1.2548198 -0.96595424 1.1710753 0.05855682 0.07551355 -1.0414282 -0.6098379 -0.32397893 0.035403103 0.6181544 1.5906899 -1.5251997 1.2891157 0.18258461 0.23629916 -0.31772488 -0.08506947 0.404352 0.3790619 -0.62136424 -1.3381182 0.10855011 -0.40861022 0.5610511 0.5257907 0.39309278
1672 1.935804 -1.2552894 -1.4155754 0.63449395 0.9860794 0.16351187 -1.1818314 1.1653423 1.7498372 0.34682444 0.07997872 -0.13173671 1.0937477 0.20821549 1.2995925 -0.5002797 1.8704467 0.6007149 2.0608032 -0.4688844 1.6638484 -1.3765912 1.3845326 -0.3770695 0.39310512 -1.8635302 0.7517135 -0.2332887 -0.7738257 -1.1953412 2.428278 0.50494874 -0.7511557 0.1320274 0.7111705 -1.1389439 -1.7485464 1.4444573 -0.56029207 1.6880814 0.48594123 0.7462566 0.04957602 -0.25379074 -0.23896009 1.0392624 -1.333599 0.044386808 1.3154905 -0.9684292 -1.6005133 -1.4340307 -1.1651775 1.5832268 0.07622704 -0.6663552 2.0022135 -0.8043416 0.46472183 -3.1414971 1.6831287 -0.33915338 -0.6747189 0.3482341
2737 2.3479657 2.1036158 0.10219688 0.56091344 -0.5567166 -0.43499988 -0.9079147 0.8539433 -1.1955867 0.076193534 -0.12231135 0.011083546 0.97498685 1.153738 0.8261611 -1.1060514 0.37874994 0.53074163 -0.11006772 -2.054534 0.13939121 0.20597917 0.66402066 -1.1444452 0.62595147 0.5700949 -0.24714343 -0.6351421 1.6344976 -0.45124772 -0.596874 -0.78085697 -0.882029 -1.4423031 -0.05577903 -2.2746239 -1.0887115 -0.81839997 -0.06147136 -0.45472288 1.4821392 0.3332102 0.4655557 -0.56243724 0.60825145 0.04071076 0.8179714 -0.062648505 0.58968705 -2.131088 0.71380174 -1.0667483 0.6011367 -0.7586659 0.73273003 0.12124665 1.8745652 -0.3581255 -0.8952754 1.3961862 1.4271774 1.1410955 -0.06556957 -0.49242657
745 2.594637 -0.27167508 -2.108652 0.6794638 0.6417166 0.28916848 0.20128545 0.39241895 -0.80712366 0.010604559 -2.253023 2.8967702 -0.46189532 -1.7454287 1.6461005 0.48985133 4.1140146 -1.4850881 -0.57440263 -2.105025 1.9238461 -1.1825981 -2.7832484 -1.1345209 0.46748173 -1.5919546 -1.5989765 -1.7637312 -0.29175234 -0.9651604 -2.4112575 1.8855804 1.4091532 0.8738929 -0.49218702 2.2387562 1.8415267 1.4688052 1.9353888 2.0782204 3.6158109 2.6157691 2.2797477 -1.2168496 -0.846214 -0.0886981 1.8323249 -2.1189826 -1.0096097 -1.9089495 1.5780731 -1.8914175 -1.7150695 1.6705726 -0.14867282 1.0882074 -1.0724201 1.7835695 1.6483858 -1.4285989 1.0349885 -0.84049356 -0.19387543 0.78115237
2650 2.6068082 0.9070392 -0.708232 -0.81643146 0.8660118 -0.16789165 -1.6434177 -0.3080766 -1.3343583 -1.747448 -0.26776496 0.19608526 1.758326 -0.34772223 2.6100323 -1.7467252 -0.6607012 -0.5339169 0.17736512 -1.3218553 0.8153528 0.61701274 0.98911893 -0.74327374 0.74453604 0.4934385 -1.0216831 -1.344845 0.96096563 -0.72187215 -0.3832714 -0.8099918 -1.2948942 -1.5674063 -0.35240254 -1.4206811 -1.2335521 0.4488283 1.2010026 -0.84836197 -0.5861175 1.9803834 0.38621897 -0.091787785 0.7877742 0.48686138 0.48782247 -0.023665292 0.72277474 -2.109345 1.1818608 0.07940535 -0.6247725 -0.37130356 -0.17931917 1.1167186 0.82096964 0.23221867 -1.7423743 0.7350329 0.29613534 -0.03946697 -0.38364577 0.5162832
733 4.8339553 3.3137074 -0.88722324 -1.2876878 -0.19448814 1.41767 -0.779849 0.118000165 -3.443809 -1.411946 -2.365213 0.3050477 5.044519 -3.056091 4.0783744 -3.3615434 -1.1910968 -2.4800467 -2.8043497 -3.9814925 1.0731283 1.7998399 1.6480991 -0.57645816 0.56511694 -0.044418756 1.5830815 -4.918555 1.9442502 -0.6223425 -0.6647422 -0.13184461 -3.7298417 -3.968878 0.08741614 -2.5546665 -0.59568703 0.09435033 1.3321798 -0.23124334 1.2509862 0.68788785 0.44912148 0.78878146 3.3750732 1.9384995 1.72815 -0.4459362 0.033468626 -3.65501 2.5380502 1.4754652 -2.317129 -0.9517102 -1.213571 1.6292424 2.682416 4.7653713 -2.7121658 -0.63561857 -1.8140917 -1.150228 0.09884339 1.4813339
1251 0.75327736 -0.55949944 0.5216772 -0.5169298 -0.051301677 -0.55589324 1.2152094 0.329462 0.90161824 0.28817892 -0.085076995 0.4887389 1.1841174 0.24972877 -0.48287377 -2.4793787 1.1641465 -0.76616937 1.7298386 -1.8446532 -1.072786 0.14256313 0.023505209 0.4534529 -1.8092946 -0.79858387 0.50784785 -1.6913652 1.0701274 -1.2590262 -0.33900207 0.11396493 0.60555285 0.1193615 -2.7289608 -0.9815151 -1.0332333 -0.34287247 0.1470121 1.0690902 -0.5019841 0.15276504 0.53879356 -0.10931688 -0.4250851 1.2124097 0.09029492 -0.7463884 0.6853643 -0.2194332 0.3305178 -0.97057015 -1.5777173 1.5260967 -0.31495357 0.18798181 0.3699812 -1.2586946 0.78354627 -0.022408534 0.39384434 1.250921 0.32783976 0.45988065
2328 1.1609421 -0.37316802 -0.95546466 0.7605914 -1.5398068 -0.023735063 1.4366158 0.011628511 -0.62177575 0.1874801 -1.0484827 -0.9615113 2.246351 -0.6891724 1.1452868 0.6480395 1.0095339 1.1036327 2.4513602 -2.9381235 1.4440576 -1.2375069 0.39315033 0.8126975 -0.68917817 -0.64016783 -2.5756323 0.020996982 1.0358876 1.1496983 -0.11616874 -2.5924356 -0.49865857 -0.6749553 2.1432931 0.8868915 -1.1254308 -1.0497183 0.4764534 -1.2532092 1.413655 1.5325818 -0.35211635 -0.4407126 -0.3214207 0.61020845 0.10533691 1.2646339 0.30340984 -3.3176882 -0.8383189 -1.2923019 -2.9255857 0.006697304 -0.63435733 -1.2501885 3.015992 -0.24428509 0.73534185 0.15888199 -0.1527196 -0.032483995 0.65657306 0.13120121
1247 -0.25549415 -0.7255488 0.7738653 0.3365901 0.00023278894 0.42983454 -0.9276807 0.5019959 0.7746769 -0.88788974 -0.89818335 0.03158597 1.2286677 0.69697225 0.16714765 -0.86493665 0.8161239 -1.3682623 1.5069892 -1.2479987 1.1368389 -0.5349029 1.2811455 -1.5909914 0.38655522 -1.3596798 1.0035703 0.545805 -0.2642375 0.6807356 -0.23824008 -0.4020345 0.71241623 0.5103323 0.583647 -0.3948296 0.54906183 1.0734657 -0.6726923 -0.14884847 0.2618411 1.3570797 -0.33383062 -0.014525491 -0.5105644 0.3841034 -0.7618893 -0.22006205 0.9679958 0.50060225 -0.40047053 -0.7251871 -1.8536277 0.4921883 0.41783938 1.3009791 0.84766996 -0.014128777 -0.14227045 -0.7937527 0.38540268 -0.46051425 -0.803839 0.3872557
682 0.7925098 -1.7666948 -0.4507895 1.3156128 0.40176332 -0.8351332 1.0052503 -1.0536463 1.5722132 -0.09310322 -0.17661937 1.7022128 2.6533973 1.7199504 -0.093781084 1.1923004 0.7280678 -1.5819651 -0.33835113 -2.7894144 0.6787858 -0.35437083 0.36844763 1.2149929 1.991683 -1.7388296 -1.7922841 -0.09904401 1.0038935 -1.4993954 -1.8756729 0.15528674 -0.060263306 -0.5284877 -0.7146504 0.74308336 -1.0023094 0.4398848 -0.67751133 1.0724133 2.111651 0.94622636 2.359108 -0.9718569 0.32860374 -0.88162005 -2.6172955 2.1226428 2.0292196 -0.23331192 -0.41024423 -1.8804969 -1.3335308 0.60351735 0.9518267 -1.0605592 -0.20211427 -0.9812528 -0.1684081 2.2057383 1.9040108 -1.7222792 -0.43506277 0.71060854
1658 -3.1672177 -1.4195058 0.37486395 -1.2745512 -0.80692506 -0.064941995 4.0588884 1.6032639 1.2254517 -0.53057444 0.07714279 -1.0104464 -0.4695734 -0.7496417 -2.4032161 -1.2112987 3.973796 -0.10131888 -1.1246063 2.5765119 2.7710946 1.2420591 -2.0893626 -3.4948978 3.2901525 3.689675 0.092366986 0.20059882 -0.78901386 -2.6059554 3.9151928 0.8971275 2.8477755 -0.118019186 -0.60440445 1.1364306 -0.92701536 3.2839012 -0.729232 2.6379972 -0.38954657 -4.975367 -3.2304533 -1.363218 -0.19014809 -1.0784978 -0.86848634 -2.543902 -2.8463845 -1.3205471 0.19332819 1.8550447 -6.2302833 1.9793448 2.3756633 0.3029123 3.2382252 -0.8887554 0.9403981 -0.26108083 2.6417375 -0.9548851 2.3337119 0.13924722
2398 3.0551722 1.0799279 0.40797043 -0.6300623 2.6038315 1.6791419 -0.55770105 0.15801126 -3.1960769 -3.2366338 -0.3576647 -3.5457888 5.14739 0.7971006 6.2779937 -3.8011115 -1.3190414 -0.42069146 0.658986 -0.12540518 1.4196266 0.7303826 -0.026183382 -0.26917723 0.2373557 1.7062562 -4.728397 -2.879821 0.8504011 0.52742743 0.59472275 -0.75525177 -0.60312515 -0.9741622 1.7489593 -1.6999879 -2.1782076 2.7720253 2.232927 -0.5989699 -4.32682 4.9017477 1.5021635 -0.084452555 0.48624003 0.94183326 0.20666707 -0.4193089 1.7140468 -1.8606251 0.29508704 -0.92660695 -0.19550253 -1.4659857 -0.8331675 1.5190884 0.0062536583 -1.0769033 -3.79586 1.7840257 -0.5121521 0.94439065 -2.6254072 1.326285
2125 -0.526159 0.014655805 0.9648748 0.87644696 0.114622146 0.5144472 -0.78851503 0.43458003 1.1501453 -1.1908693 -0.447869 0.43516958 1.3335108 0.44880292 -0.030155534 -0.96246964 0.877745 -1.7911117 1.6401746 -0.79614156 0.6478043 -0.72360677 1.2580786 -2.093936 0.49915624 -1.1796452 0.9343125 0.63385266 -0.30174416 0.43859506 -0.16402042 -0.29035315 0.9728351 0.8645361 0.2584757 -0.11744147 0.19409424 1.2293844 -0.22312228 0.6021443 0.062470067 1.1677425 -0.8196767 -0.014367337 -0.4448385 0.5043909 -0.8015217 -0.25585762 0.56108224 0.52798086 -0.49854577 -0.8896338 -1.514321 0.8584428 -0.42074117 1.9191829 0.9309912 -0.27246758 -0.33314952 -1.1469753 0.20296662 -0.34185222 -0.57174027 0.3379853
1928 -0.39735463 -0.2394186 0.5721404 0.3689621 -0.10881389 0.7030761 -0.57723236 0.13580668 0.52765656 -1.3731681 -0.21279353 0.3749834 1.1917934 0.5492422 0.6087094 -0.8821616 1.0280954 -0.868376 1.717907 -0.9013814 0.8893832 -0.6993403 0.8875158 -2.135818 0.80755574 -1.0323042 0.41711855 0.44834405 -0.41258332 0.5704281 -0.58648133 -0.16234697 1.2745141 0.44336206 0.5729005 -0.510385 0.24957295 1.4712675 -0.68783844 0.03791853 0.20545982 1.2790171 -0.5636917 -0.32779253 -0.5727493 0.30131927 -0.60891503 0.06356137 0.76478827 0.31269878 -0.96560925 -0.5743808 -1.4721088 0.52188796 0.009299371 1.5448039 0.69372123 -0.46397123 -0.24771681 -1.3396015 0.27884665 -0.20790772 -0.5811898 0.2567193
116 1.8173939 -1.3844261 0.9936163 2.1079998 -0.3154475 -0.7847468 -0.8124309 0.7441088 -0.5184705 -0.8850123 -1.3262936 2.4322164 1.5936787 -0.7160907 1.2940612 -1.0124649 -0.29597777 0.23002666 -0.21228668 -0.870782 1.5606333 -0.2575611 0.11205524 -0.104871295 0.3888774 0.86447716 -0.9734156 0.35466915 0.4678133 -2.3112676 -0.58949274 1.029228 1.6162232 -1.4831487 -2.0368161 1.5283606 -0.17039318 1.2974851 -0.20416509 -1.0365237 0.20120636 0.79234034 -1.5982338 -0.34646875 -0.69200057 -0.5848566 1.7189083 -0.4909757 0.38679287 0.9897028 0.47951776 -0.11313926 -0.7841729 1.2629229 -0.015057873 -0.7066391 1.7283807 -0.18010129 -0.31972298 -0.091921955 1.314329 1.1529952 -1.0884056 1.7624216
2975 1.055447 -0.9957867 0.55429065 1.1290472 -0.8234336 0.66174185 0.32019913 -0.26217732 -0.10798438 0.07066736 -1.1939604 1.6135783 1.2487937 -0.30649439 0.3996308 -0.8972545 -0.32265747 -0.31328487 -0.067011386 -1.2317884 1.4977993 -0.22715971 -0.39000624 -0.31289908 -0.19581763 0.27069092 -1.3484923 -0.17899826 0.84730005 -0.77925336 -0.8118043 0.15161806 0.82078487 -0.25138307 -1.3827227 0.2865274 -0.50864136 0.47050825 -0.9808257 -0.50302076 0.08435821 0.10431639 -0.447115 -0.8983157 -0.8401678 -0.33946568 -0.66109717 0.068112105 0.87077934 0.39167958 0.60048664 0.2331521 -0.3372963 1.1300651 -0.27026272 -0.28711447 1.5125809 0.051018547 -0.054804437 -0.50003064 0.9303144 0.6101017 -1.4176348 0.41874152
2337 1.381471 0.11734058 -3.2532487 0.20847595 1.1343555 -1.4073466 -4.883856 -3.2262444 -2.975295 3.0148594 -1.079405 3.1012402 1.2779312 -0.30559373 1.1558214 0.7085341 0.3706814 -0.89108914 4.2237635 2.2600024 1.9800409 -0.48729452 1.8774495 -1.2495177 -2.6007628 -1.3256547 1.1214122 -3.7758474 2.7669094 2.6861966 -2.3119814 3.2832081 1.6579899 -1.8213004 2.2068412 -0.57700145 -0.79196197 2.1227887 -0.25450626 1.9392693 -5.8045177 2.016031 3.1431978 0.31321606 -0.38229987 0.94008267 -4.351125 1.4716307 -0.74581856 -1.6323456 -2.461567 3.2108371 3.9268591 0.12664934 -1.1411897 -0.2240839 1.9322673 -5.78435 3.5215743 2.1265361 -0.70814145 0.32119423 -4.2465014 0.58675164
2389 0.5232246 -1.4092497 -0.73008716 2.1575184 1.9579203 1.0859656 1.664014 -0.69022936 1.366824 -0.66723293 -0.27675328 3.6826062 1.3625656 0.75648004 0.0070134955 -0.4467614 1.7269462 -2.3466542 -0.48008648 -2.251975 0.23276283 0.9101131 -1.0310723 -1.414761 1.3142519 -1.0765995 -1.1333001 -0.061481237 0.9237894 -0.3742574 -2.0619454 0.9655948 0.7019406 -0.8228287 -0.5318542 -0.030898668 -0.0077028144 -2.0128875 -0.50850385 2.8166428 0.5363455 0.87295187 1.2499473 -0.89566684 2.0118585 -0.8847591 -0.8276385 1.1774291 2.0506814 1.3136415 1.6305314 -2.8902218 -0.45402315 0.09185786 0.32292727 2.390857 1.5340229 -1.5710577 -1.4775151 0.510653 0.41427335 -0.3760895 0.73532724 0.59694755
2349 0.5498049 0.036428835 -0.15327895 0.9338777 -0.08132865 0.5006775 -0.024626799 1.2671233 0.38834226 -2.031939 -0.4737048 0.30208185 0.75137305 0.21473373 0.013247786 0.64366955 0.16549869 -0.055864997 0.81836784 0.7256087 1.2576765 0.08770585 -0.09673261 -1.0747063 1.6470146 1.0992616 -1.366056 -0.12134828 1.1623737 -2.4335403 -0.20063023 -0.22753377 0.8917176 0.1116265 0.8319667 -1.0991764 0.7417826 2.002562 0.5881388 1.0387397 -0.046675596 -0.85068864 0.20287213 -1.6410761 0.14603665 2.0171022 -1.2566044 -0.54298097 0.33031633 -1.2039709 -0.2055847 -0.8747126 -1.8477794 1.2716677 0.2575513 0.94500256 0.39528587 -0.3517939 -1.2036521 0.36226168 0.9247143 -0.8898042 -0.13056853 -1.5171288
2578 0.6028335 -0.17449649 -0.88239163 -1.0527534 0.87163 0.16539657 3.4787545 3.1417315 3.3701851 -1.2487963 -0.30999142 0.87661546 -1.5672368 -0.56163204 2.112159 -3.9430885 -0.43371838 1.3563316 1.7698467 -0.784717 2.4803324 -0.34765953 0.60138375 -1.561717 3.0082214 -1.8004348 -1.0972457 0.32988137 1.7458999 -2.210012 -4.683595 -1.6025965 2.3185916 1.0653143 0.011927107 1.6081157 0.46500352 -0.45364958 2.3033442 1.055211 3.2201798 1.0212666 2.1839838 0.47155952 1.3868716 0.7183863 1.6350572 -0.16880056 1.9933349 -1.1490855 -1.7946463 -2.759597 -2.1101542 1.9645123 0.5950459 0.6823803 2.1672933 -2.143022 -0.2751958 0.041808628 1.5945753 -3.5969677 -0.5036703 0.6360407
2532 2.6970673 -1.6418935 -1.8341707 0.19337776 1.6688577 0.79189235 -1.336644 2.2017884 2.2290068 0.6201833 1.91425 0.04504771 1.5683285 1.0613207 1.6659186 -0.33121842 2.3410032 1.2176573 2.8143613 -0.45059314 2.222828 -0.8965061 2.159458 1.2516431 1.343827 -1.0676115 0.9011608 0.82213354 0.09538918 -1.0533495 3.0240483 0.10136448 -1.4292241 0.16267261 0.28202987 -1.2998947 -1.2283243 3.1159897 -0.47909954 2.5782883 0.6605826 0.63828087 -0.17566569 0.12095461 -0.59380114 0.918913 -1.4354678 0.14238937 1.9859437 -0.6085014 -1.6291263 -1.9439527 -1.5501602 1.0559818 0.44114488 -1.9340323 2.6446433 0.43739766 -0.8901844 -4.1724467 3.0032384 -0.8358611 -1.4280066 0.34348282
1752 -0.07256109 0.31761476 -0.47018754 -0.44020015 0.6545494 0.24348423 -0.29756752 -1.1954509 -0.25535098 -1.9842446 -0.4277021 0.25298333 1.1514248 1.0393052 0.45635128 -0.92115235 1.5215921 -0.292091 1.2057077 -0.33386838 0.5378484 0.22905795 0.40418008 -0.83331734 0.44513458 -0.46448922 -1.072057 0.027948301 0.05995921 -1.204334 -0.55661404 0.22671889 -1.1754973 0.7938131 0.4774 -1.0886788 -1.0640769 2.2432315 0.23854297 0.5357776 -1.1328957 0.12714913 0.94301116 -0.87013 -1.2455907 0.7502515 -0.7952462 -1.4089965 1.3736588 -1.3621212 -0.23763809 -1.3421394 0.11166939 0.8273405 1.4988991 0.37750673 1.2061627 -1.6907448 0.9136307 -0.3823963 0.42334238 0.7289675 0.43113244 0.36942786
1777 0.6524 0.25072962 -0.6008296 0.39591634 0.7305673 -0.6192282 -0.4530003 -0.52032405 -0.39085662 -0.12353763 -1.0315094 0.844805 -0.23347974 -0.11771678 0.9394566 0.4889068 1.2778201 -0.14841703 0.19115403 -0.5515903 1.0513337 0.020369232 -0.6333659 0.036409687 0.18557036 -1.4031748 -0.06846208 0.051686544 0.69494694 -0.117824644 -1.3115304 0.9003345 0.40404084 0.51059216 -0.6579082 0.043182634 -0.09163131 -0.31342673 1.0181519 -0.35809416 1.2267233 0.20144628 0.2888807 -0.5636774 0.04707606 0.85584086 0.32729474 -0.6979593 0.45159346 -0.91781443 0.37987626 -0.49634904 0.24519433 0.27298522 1.0443822 0.2281009 0.1723339 0.9945504 1.016788 -1.1266612 0.75845593 -0.693522 -0.52795476 -0.2978161
1089 1.2013278 -1.28114 -0.40666008 0.5133948 0.8057393 0.3112079 0.16347605 -0.39816946 0.57208055 -0.33846277 -0.34112418 0.8397623 0.2906087 0.6500116 -0.29258847 -0.6822764 0.13598023 -0.63092935 -1.1183555 -1.0785613 0.39795274 0.6324823 0.1628116 -1.4138687 1.1411505 -1.723844 -0.6912896 0.17661539 -0.07915095 -0.044783268 -1.1436462 0.9562987 -0.97166324 0.2424598 -1.073547 -0.24702291 0.15978573 -0.6270539 0.52481323 0.4728285 0.60457915 0.7885543 -0.18111461 0.0932652 0.437287 -0.3213418 -0.062532105 0.54673 0.56284696 1.0443236 1.4943143 -0.7945176 0.87854993 0.7786426 0.8206202 0.55855834 1.0950391 -0.69404906 -0.08692985 -1.0301962 0.3152721 0.6637053 -0.68598586 -0.52938503
2761 -2.0254016 3.3551116 -2.39345 1.563079 -1.9567623 -1.8286299 0.9446215 -1.6018627 2.1957443 -0.16554277 1.4573328 1.7045561 2.6849363 0.2792728 -1.5069969 -0.80534405 4.1089163 -2.397608 0.7724024 -1.4954196 -0.09900391 -1.934974 0.45385036 -3.4803965 2.3863564 3.686962 -0.7814733 -0.60073316 -3.3028095 -2.678298 -0.48258913 0.1370186 -0.765522 0.31920284 4.5132966 -0.15608889 -1.7544029 4.0790887 2.164733 -1.3997718 -4.6263146 -3.426531 -2.83324 -2.0831249 0.20226577 0.74832666 -0.59475243 -4.2531376 0.12261263 0.21845232 -1.2821141 -3.5726898 0.18082269 0.5837969 1.3795555 2.883343 0.4650903 -0.71069276 0.6557668 1.0842887 -0.85982966 -0.6400433 1.4479533 1.6276553
1249 -0.38482368 -1.9629195 -0.05934149 0.94323164 -0.6537177 -0.17307514 -0.7411764 -0.17261563 0.3243948 0.50839585 -0.07789713 -0.0990874 -0.4615182 -0.4475975 -0.47588667 0.6558741 0.5133846 -0.18524928 0.7240054 -0.54511774 0.037054993 -0.11326986 -0.64598614 0.33022457 -0.051299572 -0.68859965 -0.28171277 -0.023966318 0.30762514 -0.19940351 -0.28535327 0.23635036 -0.4341816 0.40218118 -0.15974721 -0.34825048 -0.28168705 -0.65493757 0.4544097 -0.7124591 0.7282265 -0.3776751 0.44807363 -0.8595609 -0.14668797 1.1058246 -0.6487036 0.26577467 0.25925535 -0.30334198 0.012674697 0.2676074 -0.9217198 0.2621698 -0.2858184 -0.2621445 -0.4244405 0.11461533 1.2822163 0.49530756 0.26297593 0.29967412 0.5341197 -0.66995347
2929 0.67720324 -0.3587893 -0.14494187 0.25916985 0.6964095 0.82171035 -0.34808943 -1.1078893 0.3210223 -0.085091524 0.5244923 0.37619546 0.42648232 -0.15989006 1.0954946 -0.80968714 0.60227114 0.69977456 0.50514686 -0.9488356 1.4931684 -0.21234469 1.1390738 -0.38046083 1.058212 -0.36763513 0.45333952 0.43944156 0.21977894 -1.0726951 -0.5265812 -0.05059494 -1.2066574 0.5857863 -1.2999302 -0.3150322 -0.19334008 1.8834714 0.4046903 0.86436117 -0.03815945 -0.692873 -0.3601084 -0.09970721 -0.8201753 0.7695503 -1.1441758 -0.3659478 0.6686239 0.23278712 -0.5431029 -0.85035586 -0.3008107 1.0827287 0.35561177 -0.6772823 1.4479747 -0.713918 0.21284631 -2.0906513 1.1642356 -1.0759859 -0.4319422 -0.94593525
2912 0.86795735 -0.93049914 0.44092304 -0.21545248 0.19457549 0.3951533 0.13543029 -0.73812145 0.29019597 0.50102013 -0.8247763 0.76821846 -0.4180919 0.34190583 -0.59001505 0.4384824 0.05849336 -0.5435455 -0.2436679 -1.0202521 1.414795 -0.23703887 0.61031353 -0.34794912 -0.058696397 -1.0787454 0.4504702 0.27474716 1.4832946 0.44433227 -0.9325878 -1.1346583 -0.3191008 0.44423205 -0.18924719 -0.16149648 -0.34841985 0.12951484 1.368756 -0.105007194 0.4613847 0.39787626 0.4698762 -1.4996567 0.038493983 0.16477565 -1.185832 0.03126175 0.8791106 -0.80477566 -0.114568114 -0.24557099 -0.23079188 0.50623465 0.3138015 -0.75681 0.32663232 0.2631796 -0.7678027 -0.49580544 0.6863431 0.73970723 -0.4447641 0.2431257
1085 1.2840073 -1.5474137 -0.28737953 0.77373636 0.82939154 0.69777167 0.47018 -0.10771444 0.08515181 -0.7077353 -0.87505376 1.1114287 0.4654542 -0.08805109 -0.64363086 -0.9428007 -0.26147428 -0.71305573 -1.1502391 -1.2197602 0.6734493 0.13916898 0.048580065 -0.8937574 1.4758027 -1.4503416 -0.5344055 0.28630105 0.5043011 -0.079196386 -0.42566416 0.7632132 -0.46735394 -0.31469786 -1.4231658 -0.2619295 0.0832828 -0.49011415 0.5709156 0.7760002 0.6878571 0.5929388 -0.080468476 -0.41415787 0.33015284 -0.7035821 0.25179446 0.53518975 0.92453974 1.0349604 1.2811661 -1.301922 0.17560576 1.0834826 0.4792885 0.2896173 0.7667449 -0.8799681 -1.125427 -1.7039167 1.141313 1.1427193 -0.62642914 0.2829174
2419 2.960003 2.2051353 -1.1901604 -2.756468 1.5863298 0.6556032 -0.5458787 -1.6670191 0.12501483 -3.1966355 -1.6281908 0.8142542 1.2828902 2.3825846 -0.2018215 -1.7643621 -0.29390624 -1.2233471 2.3746843 1.5762482 0.10650237 -4.23967 1.8928696 1.7325555 2.7976358 -4.8792105 1.6019859 -2.1133163 -5.7607484 -5.846852 7.517929 -0.24734436 -0.3901781 0.822149 2.4040241 3.16006 -1.2488562 2.661695 -0.7660943 0.30360326 2.5415342 -3.5152326 -0.4734655 0.84720695 -3.4419615 1.1300055 -2.2513406 -2.447878 1.5889231 0.40894452 -2.0697474 -2.1953652 1.365132 4.2196326 0.8101101 0.7484713 1.9036258 1.8957858 -3.599308 1.7079302 0.92658776 -0.84406525 0.89972454 2.827446
1189 -3.6126902 -1.9952637 -1.5245361 0.06723691 1.2823313 3.1717207 -0.7484401 1.0891157 -2.8890057 -7.1084137 -0.09199952 2.394211 1.2782136 3.9278765 0.25527662 -2.9449296 -1.1884779 -3.5772552 1.4956806 1.4213413 -1.9178447 -2.728729 3.8759162 -0.18305123 0.6551678 -2.5020301 0.021803666 -2.1699846 -0.44836673 -5.5373197 -1.7306912 -0.4000835 -1.5755625 2.3488479 1.0251968 -4.9842715 1.1947167 5.4858437 -2.42442 1.4329841 1.7362434 -2.5453284 3.4155455 -0.8532987 -5.932306 2.674476 2.365129 -5.2237515 1.5183009 -1.6929225 2.0448806 -4.5351443 -0.2888376 3.7243714 0.0970241 -2.9578862 4.106617 -2.0503137 3.7977014 -0.6354301 1.0756394 -1.0376527 2.2417877 0.15396689
637 0.977877 -0.68693596 0.4734262 0.018615939 -0.15691233 0.44313908 0.24990192 -0.80248725 0.20335485 0.07817052 -0.45871276 0.3678783 -0.23692912 0.997323 -0.66241175 -0.101631016 0.019050147 -0.6229427 -0.23045275 -0.42438018 0.7495287 -0.90368825 1.0091208 -0.61313695 0.12672728 -1.18128 0.09697139 0.57035524 1.1197238 -0.49569607 -0.2073733 -1.0992799 0.6477236 0.43189687 0.108822905 -0.3633876 -0.5515033 0.35040173 1.3368934 -0.58649665 -0.17179096 0.07241487 -0.2671807 -0.97708154 -0.54485375 0.027337167 -0.9178059 -0.27278602 0.61908096 -1.0933468 0.14320292 0.13551146 -0.20927694 0.5531466 0.5442347 -1.14503 0.83429193 -0.16985197 -1.2241964 -0.30252367 0.6745186 0.38103455 0.21346368 0.16480711
1169 0.44562718 0.17805324 0.14822954 -0.16264361 0.75979084 0.69809204 -0.44757232 -0.8469548 0.22911611 0.21794507 0.90070397 0.71059686 0.2809245 -0.30408546 0.9182176 -0.29276806 0.8091815 0.29140577 0.5744357 -0.040455386 0.9363768 0.54965156 1.0511065 -0.90047264 1.4790889 -1.112861 0.122245945 0.34412363 0.19201598 -1.6149012 -0.32591024 0.2724703 -1.2929658 0.4156967 -0.88781327 0.19438618 -0.20648053 2.1136694 0.40066636 0.11800083 0.1750151 -0.32871118 -0.4578997 -0.5158169 -0.18466832 0.93513304 -1.6481012 -0.716569 -0.16995205 -0.483659 -1.6108402 -0.60083133 -0.5753903 1.0038958 0.7216518 -0.5567846 1.2415966 -0.055698343 0.7170612 -1.5429882 1.1270146 -1.0367359 -0.79112935 -0.23283309
504 -0.5873625 -0.31791225 2.679927 -0.4450955 -0.3391083 -0.108264916 2.6769059 0.8999725 1.4410423 1.6340644 1.3510531 0.04649434 1.3478122 -0.39099267 -1.9477706 -5.045678 1.4348204 -2.0351813 0.20642558 -3.1343098 -1.2744555 -0.3210468 0.7070898 2.9399967 -4.7263484 -0.95356715 2.7333682 -2.4592881 2.303923 -3.5956492 0.109085925 1.6735942 2.0927455 1.4276907 -6.651605 -0.95276004 -0.5778565 -0.5103402 -1.0971555 1.6656758 -0.13887286 -0.5710825 0.64495856 0.58373505 -0.002003063 2.585368 0.21743855 -1.7118177 0.5057157 1.8671966 1.1084844 -1.5054992 -1.4507924 2.5939665 -1.1584013 -0.113341026 0.5568976 -1.7037771 1.9741863 1.1411159 -1.3253051 2.5472038 -0.37260905 0.30181405
2461 0.16502666 -1.617516 -0.09442248 -0.41522124 0.26357442 0.90512615 -0.23427981 1.7463471 0.075580105 -1.4737656 -0.2125099 0.89564145 0.78128743 0.14674716 0.9461939 -1.4318428 0.14198653 -0.7606968 1.9078904 -0.19318256 -0.7159802 -1.1539031 0.6052738 -0.416505 -0.83837867 -1.549339 -0.286036 0.21391095 0.67309123 -1.9032241 -0.6768004 -0.53532946 -0.5353378 -0.36514187 2.6702762 -1.3478166 -0.44020525 1.4916055 -0.4323868 -0.15839192 1.6279496 -0.16876973 0.6948896 -1.6068952 -1.2615498 2.1261547 -0.06248684 -0.10276048 0.39517033 -0.6357983 -0.26033813 -0.9400038 -1.0085673 0.5210979 0.7381224 -0.8053347 1.2052091 -1.1797843 0.5383289 -0.55988556 0.46591148 -2.5972636 0.93451315 0.548429
1608 0.25477475 -0.8850152 -0.73467034 0.571623 -0.029916702 0.846815 0.38345367 -0.8264939 -0.931041 -0.70688397 -0.10327357 0.3774006 0.5356577 -0.123023994 0.89400315 -0.21552719 0.17721517 0.06571691 0.7708668 -0.6172317 0.9291625 -0.05600946 0.31556162 -0.57971215 0.64055777 -0.2341718 1.0367646 0.016744146 2.2446923 -0.61038315 -0.22354716 -0.7157195 -0.5433993 -0.57303125 -0.3942312 -0.3197655 -1.1117059 -0.47005004 0.2626584 -1.4307916 1.1160506 1.5760667 0.32884488 -0.32290962 0.5876578 0.29732078 -0.5566793 -0.21953939 0.19584669 -0.73781484 0.17148975 -0.96890485 -1.085619 -0.30739942 1.4246662 -0.32741797 0.6496597 -0.02399672 0.41738555 -0.3528461 0.24560261 -0.23589033 -0.12429336 -0.011825239
993 1.9233243 -1.7004766 -0.28649634 0.6567025 0.7129657 0.56456876 -0.71615154 0.014774579 0.8596507 -0.49934694 -0.9028319 0.8069166 0.29435673 -0.33125973 -0.26734853 -0.35808852 0.03973097 -0.96064615 -1.5487622 -1.219863 0.41321722 0.69326335 -0.05377539 -1.228156 1.0369856 -1.5483137 -0.38161293 0.9949833 0.07648941 -0.06790757 -0.56509495 0.31446916 -0.44949552 0.37022242 -1.0690452 -0.38827482 0.08589678 -0.5845158 0.4349466 0.73382205 0.6217271 0.8518917 -0.19459017 -0.24936685 0.3539978 -0.1831819 0.22002128 0.7898886 1.0731796 1.2398069 1.2690442 -1.4776944 0.4703938 0.5486775 0.6604469 0.37330046 0.61223745 -0.98159623 -0.3389395 -0.59126896 0.4749606 0.42239198 -0.042797446 0.14054345
2820 0.6924231 -0.33509475 -0.6015781 0.30411452 0.25508028 -0.50983524 -0.20656255 -0.571688 -0.58429486 0.15399206 -1.167031 0.8898089 -0.4333335 -0.2201058 0.9429434 -0.12718797 1.0064816 -0.50687855 0.17290908 -0.5258636 0.47574383 0.19102319 -0.8690051 -0.13524501 0.110164374 -1.096971 -0.1769236 0.02513466 0.550396 -0.5079329 -0.74206954 0.9910375 0.01577153 -0.042508297 -0.5671286 0.5021067 0.4407713 0.358201 1.0678698 0.52630675 1.2547497 0.85235083 0.11470673 -0.8768972 -0.5791941 0.84530485 0.49338394 -0.5376781 0.11862258 -0.46484545 0.1858362 -0.8953497 0.31691316 0.5266322 0.5748012 -0.37059224 0.027498191 0.9400146 0.78623044 -1.0912738 0.19600147 -0.54870665 -0.10074219 0.3008251
1949 0.9172359 0.47694656 -0.60653836 0.81584126 0.9151813 -1.1276975 -0.4792314 -0.40553018 -0.32457796 -0.5219099 -0.82857496 1.5014355 -0.113478534 -0.69377005 0.7963696 -0.3631724 1.0910505 -0.17029338 0.019374473 -0.28429458 0.68875015 0.2589423 -0.85148823 -0.22800021 0.39091957 -1.0156709 -0.44020566 -0.33596075 0.6974953 -0.61331385 -0.19457959 1.4384109 0.5447247 0.073709704 -0.5324842 0.47531915 0.30537784 0.44266555 0.62068754 0.16687354 0.962942 0.5617756 0.1127666 -1.1112096 -0.36133328 0.24382041 0.6390085 -0.44496498 -0.27900216 -0.61247164 0.33926585 -0.8771405 -0.07443652 0.71787786 0.26889008 0.3450058 0.31211296 0.4911487 0.7270158 -1.1734685 0.3541705 0.17877801 -0.10233145 0.5770469
1278 1.0556781 -0.68411255 -0.09560545 -0.087327555 -1.1932396 -0.34006637 0.3005687 -1.6607162 0.5236416 0.3420342 -0.37558118 0.10119551 0.12090431 0.047649417 0.43632275 0.31820163 0.6394512 -0.83693576 0.4763743 -0.62306815 -0.31970423 -0.5160422 -1.5831664 0.6837156 -0.3308735 -1.2885813 -0.69954866 -0.9493394 0.8989989 0.40765685 -1.260179 -0.13331208 1.0618134 0.33849353 -0.0038483562 0.661082 -1.45469 0.41134515 -0.8052366 -0.6215203 0.45935884 0.1339371 0.14129332 -0.6424595 -0.40032074 1.3073204 0.020353056 -0.19147411 0.21412204 -0.7017685 -0.45413888 0.20357193 -0.37920144 0.7108137 1.1077751 -0.11979027 0.39459047 0.5443825 0.8022498 -0.40265062 2.2539907 -0.383634 0.35334706 -0.2744233
1808 0.37997392 -0.1147486 -0.9057018 -0.40920094 0.044814706 0.6004875 -0.5471812 -0.39861935 0.3433135 -1.7394781 -1.9039502 -0.23754571 0.6579496 0.37607154 0.82280195 -0.087968774 0.80926335 -0.5990413 -0.66657025 1.0702956 -0.80634487 -0.3942638 0.30675182 -1.4394134 1.2561128 -0.27605096 0.025249166 -0.044190824 0.47548962 -1.4413844 0.24990924 -1.1191678 1.1223416 -0.5094301 -0.035937704 -0.47371557 -1.003891 2.4663966 0.8526935 0.42140803 0.4846527 -0.79757017 0.97510046 0.3280688 -0.98037004 0.6220255 -0.23942576 -1.4550554 0.5380098 -1.8095567 -0.86406946 -0.6778126 -1.9879563 1.5089617 0.8162497 -0.12347328 1.2218788 -0.23933764 1.2813115 -0.36938357 0.80380046 -0.6710614 0.63899904 -1.1030887
147 -0.29149026 -0.35573363 0.1591938 0.31633356 0.99058604 0.85638493 0.08930009 0.0075570745 -0.71808636 0.43933627 0.3873272 0.54829156 -0.3127677 0.5887366 0.5293094 -1.160425 0.124923944 -0.35969102 0.91672504 -0.8413622 -0.4161822 0.35960573 -0.37416592 -1.1845063 -0.37964237 -0.8094578 -0.8787734 0.5341774 0.32817438 1.5047271 -0.56300086 -0.16765578 0.21566494 0.48562026 -0.34876162 0.031712882 -0.7646952 -0.7822432 1.3860686 0.31113702 -0.8777412 1.128803 0.9692241 -0.28424245 -0.3213232 0.24181685 -0.34718257 0.2397859 -0.015459743 -0.64216584 -0.009409555 -0.10308359 -1.0318756 0.14430667 1.3627144 0.46362773 1.7908897 -0.04089452 1.2430739 -2.0033836 0.8216845 0.76317924 -0.10934985 -1.4212884
380 1.5440062 -1.7876751 0.31670046 0.70978576 0.8247791 0.10090337 0.1505351 -0.2835051 0.68164915 -0.8598001 -0.685724 0.60982513 0.5049246 -0.65054184 -0.47688636 -0.50146186 0.5665532 -0.62180793 -1.0493468 -1.1703334 0.0009910404 1.4663385 -0.06645401 -1.2921414 1.7700604 -1.3089416 -0.6426303 0.37266272 0.5567256 -0.45073354 -0.79456425 0.67449224 -0.37205628 -0.4202049 -0.35585698 -0.5488685 0.39788708 -0.2545287 0.36886466 0.6773034 0.6806449 0.8931287 0.06358363 -0.3438023 0.35297325 -0.85801524 -0.33100188 0.88582385 0.82804275 1.093438 0.69977117 -1.4997352 0.09217475 0.7956603 0.52844125 0.5863358 0.5795233 -0.88445246 -0.38408506 -1.440628 0.737315 0.99344265 -0.32114685 0.43248978
125 1.3773854 0.5713381 -0.5636275 0.25726017 0.19413152 0.22361065 0.46618912 -1.4043224 0.08681195 -0.8418142 -0.38494623 1.4275253 -0.5853494 1.0244231 0.77935094 -0.8198011 0.04398002 -0.655104 0.9459606 1.118953 0.70452076 -0.70980656 -0.66199434 -0.34512407 0.2755937 -0.74843436 0.30409566 -0.4474402 0.83238757 -1.2361995 -1.5799567 -0.038461406 0.03626069 0.33381975 -0.18890347 -0.3192625 -0.34294698 -0.34086454 0.60112256 0.2165475 1.444779 -0.39468092 1.0583223 -1.8668125 1.1129699 1.1186334 -0.20829134 0.0035191348 0.93413514 -0.42227176 -1.4263269 0.3515287 -0.83338267 1.3552347 0.6830403 0.20241287 0.43412584 -0.13699861 1.0022784 -0.95449305 0.07584194 0.6167198 0.61200714 -0.22614756
2668 0.7971233 0.20329225 -0.5473102 0.7523783 0.1347657 -0.56398857 0.054869965 -0.71799994 -0.14803977 0.46374133 -1.5050893 0.6512403 -0.8656417 -0.61948735 1.5549278 -0.38161132 0.65872777 -0.4672455 -0.2642518 -0.5098843 0.2918549 0.001403725 -0.81555825 0.15779041 0.036547042 -0.82345635 -0.16114809 -0.27951494 0.628581 -0.53082174 -0.67629725 1.3295587 0.06461679 0.5636005 -0.72184277 -0.049735934 0.21281174 0.1214842 0.48244208 0.668828 1.5772297 0.99500865 0.1887258 -0.67545134 -0.21617217 0.29866776 0.5455688 -0.45148993 -0.36530566 -0.251906 0.11464306 -0.68531907 0.10069204 0.5511699 0.49757826 0.12717779 -0.18623106 0.74683046 0.73425627 -0.72459584 -0.05236758 -0.2963495 -0.3533449 -0.18839547
701 0.3063233 0.048966274 0.51076585 0.6235376 0.7749641 0.9516918 -0.42628506 -0.78462255 -1.0448395 0.23888847 -0.018825397 0.5270589 -0.09522267 0.7663701 0.6637776 -0.7237198 0.67489547 -0.5080175 0.48247337 -0.6496856 -0.5212395 0.4944862 -0.4407585 -1.2203811 -0.4319447 -1.4720478 -0.41703656 0.316324 -0.04185919 1.1463273 -0.5144825 0.28373852 -0.087949075 0.41404864 -0.28034505 0.15162252 -0.24952488 -0.33797356 0.9242895 0.6217153 -0.3481539 1.0151755 0.34489644 -0.5955125 -0.3169409 0.18548527 -0.2633215 0.30585048 0.17115395 -0.70987475 -0.34815872 0.390272 -0.7754614 0.22594139 1.2278161 0.62227625 1.4720528 -0.18616278 1.2225019 -1.7704431 0.89465076 0.512427 0.04786664 -1.0497488
2916 0.74852556 0.5285661 -0.96892107 0.5863402 0.46748635 -0.47782373 0.2564765 -1.0482823 0.0435859 -0.18713911 -1.1439409 0.66372216 -0.4220368 -0.0014945262 1.186557 -0.3547443 1.1525751 -0.37416667 0.5381307 -0.34172824 0.47539353 -0.13988523 -0.7630851 -0.6259804 0.3369347 -0.942387 -0.63372546 -0.112163335 0.3034222 -0.6313365 -0.099230915 1.3000388 0.26469427 0.4549899 -0.5059368 0.043120284 0.2757936 0.7192802 0.9262038 0.49144152 1.3226103 0.42971733 0.09997689 -1.1844862 0.05844812 0.55773157 0.380192 -1.1091424 -0.28394014 -0.42648974 0.219226 -0.73929363 -0.1012691 0.3470645 0.5353818 0.13963625 -0.07592991 0.44519165 0.57113534 -1.4221036 0.62820387 -0.45265612 0.24562867 0.26064298
2635 0.13437624 -0.37456134 -0.1496615 -0.23329175 0.38629758 0.9170513 -0.25421223 -0.7291508 0.7266784 0.44590378 0.9265008 0.70141613 -0.117653094 0.1994669 1.4240073 -0.13066386 0.6508939 0.32936513 1.3073481 -0.16636916 1.0397365 -0.028429689 1.1714536 -0.5550209 0.931242 -1.0743552 0.25906822 -0.26360905 -1.0087897 -1.4566426 0.17395085 -0.10907788 -1.081536 0.27212867 -0.5192924 0.17268005 -0.59711367 1.6952251 0.6158165 0.38483977 0.025105018 -0.100101076 -0.1584677 -0.6989824 -0.2663526 1.3048645 -1.2255043 0.04413802 -0.04853555 -0.14165035 -0.9213171 -1.0347457 -0.19884673 1.3759599 0.018708834 -0.8193746 1.3119746 0.05487315 0.4557669 -1.753223 1.3783257 -1.0107697 -0.9278025 0.1615248
2393 4.233243 3.7978556 0.48358226 -1.1522368 0.797113 -1.0881933 -1.8426021 0.27569064 -1.8828161 -1.3924886 1.1417782 -2.5129879 1.333764 -0.20635357 4.3852277 -3.0366235 -0.07970101 0.14409308 -1.676125 -2.6270545 -0.7309474 3.054328 0.9347794 -0.6144045 0.9640238 2.800105 0.53999376 -3.1279671 1.5584213 -1.5291078 -1.8980759 -2.2319288 -4.9681377 -3.9029043 2.6098962 -3.6235597 -0.5840913 1.360493 0.078588784 -2.7366178 0.8273969 3.408206 1.736882 2.0695302 1.5014956 1.5558058 1.5185707 -0.4591261 -0.63269997 -3.7613015 2.2202814 0.6108419 1.7370074 -3.1619778 -0.9030961 1.6064261 0.41804835 0.8387486 -3.437452 3.6633453 0.16971423 -0.048006378 -0.32048047 0.29348466
1929 0.6931859 0.41988626 -0.7109209 0.09398298 0.56104463 -0.16773187 0.12835832 -0.26061752 -1.0203704 -0.16094726 -1.1837262 0.72089285 -0.22996879 -0.0012139156 0.68638575 -0.31741107 1.213866 0.09035355 -0.04230775 -0.13400568 0.71237934 -0.14623733 -1.3380594 -0.2248766 0.12002342 -0.7476125 -0.58285016 0.092622794 0.23251243 0.13092032 -0.7941988 1.1882502 0.38072583 0.30903858 -0.76120013 0.06832302 -0.04050507 -0.08871878 0.6226308 0.00865856 0.80041647 0.46728805 -0.11905805 -0.7182554 -0.22459583 0.38718322 0.2913179 -0.8695638 0.12912205 -1.0787954 0.25906292 -0.71280885 0.34264025 0.6217069 0.74606586 0.018337084 0.3623211 0.70926225 0.8543399 -0.8990409 0.71382236 -0.60096604 -0.14763308 -0.16539976
2444 -1.1731933 -1.7084775 0.99140114 -0.63925385 3.0648785 -0.32058805 1.185235 0.2058479 -0.99786764 -2.9060705 0.8112203 1.1967628 0.8500655 -2.0882897 2.2366145 -1.3656325 1.4848233 -0.45549852 -1.2872801 -0.8295226 0.2831772 0.42930666 2.5395885 1.4090154 -2.1065693 -2.2016222 2.2519896 0.69588304 -4.751374 -3.4318256 1.0374706 0.36947644 -4.1235223 0.86661696 2.3001008 -0.1885844 -2.285589 2.910377 -2.3021975 3.0922885 3.4983056 -3.650206 1.024252 -1.6127793 -4.911349 3.430522 -1.7990122 0.5427193 1.88733 -0.6812976 -0.78947234 -1.1493963 1.8729379 2.2132125 1.4929048 -1.9399296 2.4666152 -3.603179 3.7056706 -0.9283248 -1.2008754 -1.9911565 -1.9237177 1.7131919
1389 0.5076036 -0.20020685 -1.7053491 0.38518435 1.8966959 0.7890852 -3.7492578 -2.5100336 1.4143515 -2.797855 0.13515408 1.6262836 0.8878422 -1.7112364 1.6118572 -1.9534357 1.1230994 -0.561477 0.64397746 2.4671307 1.9303526 -0.44377866 2.6716876 0.35941535 1.5338764 -5.345365 4.8083835 -2.1975708 -2.1018753 -8.825416 3.8178866 -1.4043369 -2.7800403 2.2043092 1.3885119 -1.3700713 -1.8589343 2.5733178 -3.288058 1.4130828 1.459749 -1.0532105 1.4207481 0.44223702 -2.9711835 4.1337037 -1.9701666 -1.2502013 -1.2309344 0.9100137 -2.1580963 -1.8215115 1.1589038 2.2843642 -0.14636004 1.1177387 0.49468443 -3.071216 2.2814794 0.1047972 -0.27891532 -1.0295521 -0.8829686 3.010545
706 0.83336073 0.62257385 -0.6551084 0.22932775 0.3813221 -0.46402863 -0.33169124 -0.9804048 -0.9615935 0.08457011 -0.9936116 0.68228126 -0.2384095 -0.10259818 0.91692984 -0.40605113 1.2163413 0.07134396 0.20443636 -0.25483844 0.9201176 -0.07460348 -0.5828078 -0.22719014 0.2832636 -1.0653698 -0.30284485 0.113137044 0.5105398 -0.78572494 -0.38315815 1.4304497 0.6391395 0.6991373 -0.5843696 0.47942206 0.3250818 0.17169155 0.85533863 -0.07859879 0.63300747 0.9667482 0.18214506 -1.1497574 -0.16272762 -0.037179146 0.5129291 -0.5922647 0.23026367 -0.4355835 -0.045203064 -1.0144945 0.0017761556 0.50063664 0.85992897 -0.025429782 0.39235017 0.34485072 0.34667122 -1.0116447 0.12730971 -0.39308828 0.31325498 0.101056926
