2996 64
4 -1.6736203 -0.17746858 1.3898981 0.038530167 -0.16686387 -0.66545427 -0.20971654 -0.4036341 -1.0080541 1.866219 -0.38968328 1.2449623 -1.5832225 -0.004413777 -1.471868 -0.19215374 -2.1186948 2.2264483 -2.4226754 -0.83089644 -0.72145945 -0.7911969 0.95916325 1.2616307 0.34980607 1.6864418 1.9356703 -0.4365983 -0.063732065 1.7860737 -0.18383431 1.7249945 1.1505051 0.52179545 -2.1618924 0.67775893 0.38587853 -0.83426315 -2.2753448 -0.9696835 0.062287398 -0.732535 -1.4898509 0.05969882 0.058936328 -1.5014886 0.17199138 1.1731086 1.9602622 1.6970097 0.6991318 0.98687035 0.9657936 -0.21203457 0.925259 0.3573448 0.3374065 -0.49924845 0.028675172 -0.30330378 -0.18557909 0.529785 -1.3336161 0.72080714
22 0.22658809 0.007483405 -0.7583304 -0.9330537 -0.37054557 0.22394688 -0.20826876 1.9989836 1.5297673 -0.9541489 0.4274289 -3.7473845 0.04325376 0.026901862 -1.2027156 0.3582512 1.9729891 -1.5088159 0.21705908 1.3276345 -3.7250981 1.1467135 -0.21542093 -0.86666185 1.0520768 -1.397864 0.49418724 -0.22505791 -0.67757 -2.2283137 -1.6270133 -2.0876205 0.2585563 -0.9936819 1.7762431 -1.5865132 4.7228127 -1.2405715 1.4423301 1.2613127 0.87942994 0.6268795 -0.58221656 0.09886178 0.30614284 2.4726503 0.4817726 2.375063 -4.6672063 -1.129639 -1.2278503 2.4107645 0.3385311 -1.1743181 -0.49420857 1.868015 -1.8517619 0.40417898 -2.2141287 0.2560174 0.8036713 -1.5569937 -0.047953848 -1.249313
3 -0.13113855 0.111071184 -2.1617799 0.5004915 3.4400733 -1.020967 0.40775913 -1.6924021 -3.2934499 -2.9034748 -0.95728207 -3.567184 -0.6345222 1.5421008 3.206579 -0.88322806 -0.52502555 -0.8874965 3.7524464 1.4043049 3.5600154 -0.053932123 -2.6799712 0.7010572 -3.90329 -1.5794728 -4.476779 -3.263685 -1.1667045 1.539047 0.6025208 1.5126506 -0.68528026 2.5052981 1.2876924 3.520457 -8.166358 2.0966506 -0.2775048 0.21955128 -4.71433 2.5100422 5.865578 -0.19649339 0.0443749 -0.39981017 -2.4427412 -3.7336848 -3.153764 -4.1125197 2.0152593 -2.1629572 -0.9889894 -2.2054796 -0.79532456 -3.889186 -3.685248 -1.9190868 1.1031352 3.5435376 -1.6443107 2.8289073 -2.2016437 -1.2797201
45 0.31674865 6.6518984 -0.6671408 1.3286284 -1.1252452 4.0334725 1.6184467 2.658414 1.1975788 -0.16195583 3.7445025 -0.6184596 2.1831064 -0.23435524 1.6686935 2.001391 2.0520246 3.232702 3.0461185 -2.0685875 -1.7424923 3.8963053 3.1866443 -2.5897195 6.1670976 1.4434787 -0.8660024 0.7560344 -0.24182184 -3.3711421 4.5601745 0.6492438 -7.186923 -2.9187224 0.63622725 2.1423943 -0.6512242 7.1014905 2.982213 -0.7661578 1.7021662 0.1989323 1.4757601 1.3565929 -0.5876919 -2.7045302 0.5309133 -3.8019118 2.3256457 2.0699809 -0.024522794 -6.0440803 1.5576198 4.115119 -2.288754 2.3366761 0.35664037 2.4887002 -1.3772421 -1.7359473 -1.0785301 -2.4393206 2.3797252 3.9746156
7 4.245111 1.0108997 1.8000655 -3.3221874 1.6419387 2.361196 -0.725967 -0.11349059 1.1253178 3.008403 -1.0885006 2.7666576 1.8975827 6.467285 -0.965134 -0.9206859 2.493578 0.9958493 -1.881039 2.8940792 -0.11127699 -3.647724 6.0947185 0.4040636 -3.343019 -1.1624892 3.2290592 5.5728273 -0.3753852 -0.24787754 -0.84324396 -2.7336183 5.828058 -2.1157777 6.2224026 0.97398394 -3.4484391 0.06393854 1.4746215 -0.40399745 2.906102 3.4621499 0.5355744 -1.5375043 -0.20253034 -3.2503707 2.4575133 -2.6949513 -1.0465546 -0.4233366 -2.1651332 -2.9055107 2.5887 -3.9381084 -2.9460287 2.323718 2.0660522 -0.96688056 -3.660132 5.748778 3.1468992 2.1403039 3.8321714 3.8029144
28 6.9032435 -2.8425624 -0.25246245 -5.1119347 -1.7189853 1.3833408 2.8482914 -1.1882142 -2.1229885 -4.960873 3.1033456 1.5914925 -3.470705 0.2773432 -1.4589661 1.8136433 0.5188949 1.1243445 1.7873592 1.4703977 1.9104663 -0.104290254 0.17246485 -2.173356 -6.489309 3.9928916 -0.87657714 5.0059285 -2.201614 -0.49334225 -0.29495516 0.52613616 2.1853008 1.4087026 -1.5594656 -1.438504 2.1802936 -1.737051 2.0370922 2.3051426 -1.3235626 -3.1935935 -0.5844612 0.96730596 1.0858368 3.8803744 4.8950844 -4.6208277 3.4692037 1.4258978 -3.2223768 1.4338142 -1.6147614 1.2087874 1.852336 -1.8660634 5.3757806 4.0145736 1.3608208 -4.8961782 -0.7326782 -0.69615835 -5.192313 -1.00981
42 1.8623273 -1.3305203 5.9875655 0.82205135 5.191189 4.0057225 -1.534405 -5.062014 2.7703807 -0.847609 0.60118043 -2.7913682 -1.0285089 -0.6017242 0.7697155 -0.7833102 -0.30788973 -1.841915 0.41666502 -3.5732284 -0.42576918 -2.9931254 -4.7311964 0.2957959 -3.236627 3.9763665 -0.053197384 1.5969927 4.0364847 2.0218344 2.8094277 -1.1727582 0.13472071 0.64104563 3.3376422 -2.4006748 1.741353 2.5545187 1.8246483 -0.59725356 -4.072095 -4.167205 -1.5388719 -1.4822862 -1.12909 -5.4506316 3.7308395 1.059057 3.1454878 -0.3973001 1.8599062 -4.7777696 -3.1009386 -1.3372709 -1.8026663 0.40921775 -2.6421824 -3.6589022 5.7898955 -1.8502744 2.7159724 0.7815244 3.4974477 -0.8201047
23 5.0708485 -1.9057504 -1.1768107 3.8850572 2.1620793 1.6253915 0.9160735 -2.1323116 -2.036888 0.1410946 0.4435012 2.864143 0.6121387 1.3160223 1.1521965 2.1131728 4.1181703 -0.31185523 0.5308027 1.4868861 7.8461885 5.597285 3.5203838 -1.8844349 8.8917675 2.3165853 -3.4977207 -2.232775 2.6966114 -0.024176653 0.86394113 -3.1957233 -1.4227107 -2.2632737 -0.8672832 -2.579641 -1.1324546 0.619985 -0.57436544 1.5582193 0.703168 -1.196053 3.5474916 0.9021935 1.6332172 1.3696413 -0.7043987 -4.6240854 -1.4174697 0.7398918 1.7677915 -0.64678174 -1.6914494 2.458678 1.6490718 0.88133967 -3.7586594 -0.694617 -2.229777 2.0816476 0.30364507 -3.171337 8.00765 -2.0422072
25 2.0874116 0.15593348 -2.264623 -3.149851 1.9194508 -0.9090316 0.5200926 -4.1923566 0.8771858 -2.2789016 -5.033985 2.9753175 -2.2191331 -4.52745 2.6824665 -2.0931492 -0.409324 -3.5828269 1.4150662 -0.37789196 -0.8396138 1.3640517 -1.9130393 4.3451867 -1.7008855 -0.4027517 1.9752419 -0.5402326 4.9713316 -1.7282622 -1.1682856 1.0774034 -3.0576649 0.8219767 -3.083067 -3.4699876 2.5075626 -0.07212637 -0.5159413 -2.6432917 0.57641196 3.0565338 1.7924372 -0.9321478 2.5533576 -0.4955498 4.373204 -3.6369326 6.1148505 -5.0542264 -1.6056314 2.1006536 -1.9101342 0.41396993 0.286537 -0.8422282 6.4829392 2.7430305 -3.054909 0.87285167 -2.233504 0.55977887 -1.1547731 1.452032
24 1.4696556 -0.8614886 0.17011483 0.18457392 -3.110629 -2.5130818 -2.8654757 0.30392933 -0.020456763 3.7003121 -2.6483083 -2.4302416 1.7361549 1.2000055 2.585923 -1.891604 -4.3403316 -3.14841 4.685444 2.6822474 5.455468 -1.4160048 -3.459492 -1.2499192 -0.8592077 -1.9525945 -1.3782212 0.72504544 3.832041 1.6608802 4.8856325 -3.8144898 -0.15529534 -4.264294 -2.3349295 5.8339515 -3.2793841 -1.5760181 2.1435819 0.4150443 -3.500278 -1.3180348 5.7564898 -6.1307335 -2.777419 -1.2046572 -1.6645987 -2.772515 -4.2308893 -1.5733129 2.0891395 0.672596 -2.137272 -1.4273759 1.425071 -4.8292704 -1.2831628 -1.1730884 2.035777 -0.20604658 2.08963 2.3439019 2.9733758 3.3561943
26 1.6247193 0.1912429 -6.7789273 0.21078317 1.143538 -4.8241034 -1.7835048 -2.4151263 1.0877805 1.9758396 2.3348224 -2.5205784 6.4624515 1.5018849 -1.7678285 -1.2097698 -0.41199 -0.7725437 4.550435 -0.22694643 3.9243383 -3.2183797 -2.807071 -4.597861 -2.8480334 1.6155893 -3.6441252 0.033630762 0.3470317 -0.09145258 0.49266815 2.5442986 1.954865 -0.731021 -2.5333488 -1.8986126 -7.8784833 2.3228076 -0.18268007 -1.9532698 -4.9822655 4.252433 5.4130607 1.0898429 -0.96322286 -4.4158783 -6.544435 -0.7190969 1.0956349 -4.0111904 0.5719018 2.7620661 -1.9572539 3.11718 -1.7381091 -4.9532266 -0.24904738 -2.9951105 3.0268304 -0.12843247 1.7944652 -0.20364699 5.940716 -2.2103367
15 -2.507846 0.6921522 0.4744886 1.0878289 1.31836 1.2181292 -2.2343364 5.5515347 -3.2431543 -0.13648959 5.748009 2.4771295 2.4437094 2.7076688 5.127909 3.8483868 -1.6356845 0.3605525 2.4676354 5.7702827 4.3941193 -2.5261471 -0.7519392 1.6939831 4.080012 0.8860722 -1.9188849 -5.531868 4.408405 -3.6728537 -1.1618494 3.4721923 -0.30204222 1.3513285 2.8327365 -4.6050634 3.4501498 4.524317 1.5168084 -4.473786 -0.6953561 1.9239556 -1.4714706 -0.7070019 -2.9665875 1.6624004 4.305453 0.08232935 -2.6077769 -0.27131835 -2.3378472 -2.8478622 -0.13422719 2.6422372 2.972928 -0.13865358 -0.25625065 3.7626107 2.3824136 2.9331808 -1.383522 2.151017 3.4524593 -1.3283865
100 0.10516541 -2.3654594 -2.5101562 -1.3286359 -2.8309898 -1.0148282 -2.3155818 1.5095594 -2.1062086 -2.0014513 1.2788551 0.41748112 0.28154162 -0.47700033 1.5324266 2.9016042 -0.23781 -3.4817014 1.6664559 -2.2312684 -2.6367443 2.0644593 -1.3306476 -0.040380627 -4.5839777 3.5343397 3.8319533 3.555575 0.97767985 -0.2177111 -5.170622 -2.131589 0.6854944 1.7825595 -0.46384412 0.6858415 -4.663239 -0.52253985 2.1436007 1.0741221 2.8487847 2.0065455 -0.7185576 0.82253385 -0.91318756 3.6416082 -0.19595577 1.816968 0.74503034 0.238944 2.2188818 -2.5855672 2.692662 2.688323 1.2243323 -1.060699 -1.733785 -0.5629643 -0.07745737 2.9523191 1.1198823 -1.1972349 1.3594654 -1.386046
33 3.3729677 7.978182 -3.2962778 1.9627688 5.565433 3.6086314 -1.150186 0.26667953 4.574922 -4.205748 -1.3240565 2.4289653 0.7351504 4.670421 2.6829126 3.204391 4.361743 2.1207492 2.1364167 0.17865902 0.7545061 1.4560626 1.7087729 -4.5812435 2.3531296 -2.170183 6.7912507 1.7582526 4.087245 -1.881736 3.2441757 -0.39812216 1.0737361 -0.4619888 -0.7812224 0.96707344 -0.3722403 3.759664 -1.4026589 -2.8206377 -3.3945744 -3.248464 1.1472399 -1.430605 -2.818782 6.766508 -1.2672249 2.4713628 3.041229 0.6041787 -1.9000297 1.7040216 4.7324414 -0.41245976 1.9718543 -0.2865877 1.1491737 -0.052343447 5.673433 0.636703 -5.8399296 -7.2099648 2.5344486 0.58387446
55 -0.4896777 0.46280238 -4.354325 1.0124228 -0.13765597 -0.89085644 1.5711528 -2.5380478 0.07578047 2.0392976 -3.3342738 -0.6787269 2.3381057 1.5464655 4.2492294 -2.4168043 -1.8859972 0.22037368 4.8457403 -2.5236864 -0.23749825 1.7691871 0.3480568 -1.4734005 -1.4478848 -4.9469366 0.9188639 -2.201028 -1.0268285 3.207931 -2.1334128 0.93325907 0.8484434 -1.004013 -4.3980083 -1.8781329 3.7261858 -2.7371492 2.8802304 3.5658624 1.3073375 -1.2812326 -2.42778 1.4544978 3.3662667 2.9868517 5.53323 -4.0894 0.94103503 2.8289378 -5.237646 -3.537459 2.4167912 -0.5779449 -1.0346088 -0.6207296 3.2856226 -3.6349907 2.720647 -1.7183633 0.30937892 5.9310303 1.9023998 -2.867791
20 -1.2778034 1.3989385 1.4589968 1.9700257 -2.6710443 -7.7161975 1.3481821 -4.573478 -0.8112687 -6.184964 -2.2492898 0.53571934 1.0048985 1.2189162 1.9126085 4.342398 0.18888009 1.9395125 -1.0878018 -2.1987166 4.4947305 1.7868811 -0.22758482 0.40060395 0.5420291 -0.117076285 2.887593 3.381682 0.24592508 -2.274371 3.5493305 1.9844574 1.3152119 -0.8713708 3.2337108 -4.0886536 0.08861282 -0.9097971 4.986502 -1.2418395 -4.3404183 1.3345816 4.1780686 0.122091874 -5.624039 -0.12948993 -1.6704457 -2.9999368 -1.6596826 -5.7938704 1.591155 -1.0148894 -2.191111 -0.9885401 -4.435828 0.11753963 -0.16721338 -1.0907857 2.5392728 1.2642493 2.596683 3.2433782 -0.64625114 -5.151018
59 -0.38434282 2.425244 1.8979396 0.46121535 3.4662642 -1.1368475 -1.5592525 -0.27562743 3.6525953 1.8939694 0.22675085 1.4341857 -1.3377637 -1.4976454 3.3392758 7.9863214 4.7204256 4.9238877 0.62749654 -5.801314 1.904582 -3.8810837 -5.65258 0.46599838 -6.026599 1.774375 1.5894443 -1.6432858 0.74501705 3.2939358 1.530594 -2.8523774 -0.30368677 -4.435745 2.4150624 -4.1444416 -2.8379507 -1.8145367 -4.374785 1.8133711 2.7907882 0.41461688 -1.7120532 5.6135483 2.2042258 1.448543 0.60577005 -0.7869777 -7.6963315 0.5014899 0.31792575 4.1616974 2.9416058 0.82013506 -2.6056316 -5.751814 2.3948104 5.2352915 -1.9685282 1.806593 -1.2281587 1.3459331 2.0713544 4.036665
37 0.08390439 2.0122366 -1.4363832 0.60548073 0.9246608 -1.012177 -0.17112188 0.5161718 -2.7791991 -3.118218 0.6963349 2.8833168 -2.0111783 0.5909793 2.2594037 7.4071918 -0.86303097 -2.1579423 -2.1136363 -0.6004592 3.757569 1.4392301 -2.012032 -2.9402118 3.8275998 -4.8774652 -1.5801544 4.0359926 0.9317983 2.149166 1.0959307 0.15218425 -1.1223992 -0.6152466 3.7994766 -0.114387184 -3.8451135 2.1623487 2.7911394 -0.23332606 2.866322 -0.9217772 -2.8548713 -0.98503464 3.2438536 0.4025348 1.3402356 -0.19914018 0.45424986 -4.5590987 -2.9323587 -3.4152741 -1.7142804 1.3196285 0.8370964 -1.8503072 1.2095591 -0.14703605 -2.449696 -1.2297751 4.04285 -4.9356065 2.1367252 3.5607355
36 2.1674285 -3.6853478 0.9286118 1.6135324 -3.9841475 -0.17066064 -1.4948244 -1.2859813 2.4733925 -2.022384 -1.8946109 -0.52708 -2.9831264 4.542518 -0.4895773 1.2964758 -6.9996715 0.8764931 1.1692028 1.9232742 0.5475077 4.9581065 -1.3779757 0.68543935 -0.8539818 -2.7354717 -3.8625531 2.5706482 1.0762726 0.10037085 -0.60334766 1.7486604 1.299274 -0.38342878 5.028516 -3.1423678 1.0463656 -1.3794643 2.656818 2.5765426 3.9770126 3.3661435 -3.552705 2.1006975 2.2190835 1.3869915 2.5462093 -0.92079014 2.2495148 -3.2706854 -0.9340792 -0.67052734 -1.3431706 1.1908684 -3.0887926 -3.524011 5.021233 3.8298843 0.31019482 -4.6376424 -2.20987 -8.76401 1.9859883 5.9828067
5 0.4346105 -6.026982 2.7966685 1.8064408 1.0891204 1.4525241 -2.9698133 -1.3490518 0.74966615 0.83151877 2.008041 0.77923083 6.3110313 1.0728229 3.0149734 1.2254204 1.4938126 -1.2854767 -1.3257914 -6.355845 0.31121194 0.23912188 -1.6244411 0.45408213 1.944917 4.6710744 0.5527991 -0.07426816 -4.0869207 -5.43692 -0.9466167 2.8944945 2.844167 -3.9998722 -3.4663658 2.9250515 -1.1240722 -1.7783945 -2.3098295 2.494678 -2.4850695 -1.4550973 -0.5505629 -0.5966163 0.18841216 0.92530173 1.7606668 0.60806406 -0.057284616 -4.051412 -5.555013 -3.9821017 -0.59648633 -0.85786164 0.95795125 2.626769 4.3127785 -2.5573769 2.8220346 2.3687775 -1.441074 -1.062227 -2.5885458 5.2877617
1 1.0082613 -1.139668 0.12164597 -2.500961 0.55265397 1.1572839 0.6171923 2.3867748 0.00830019 -1.1829171 3.3691182 3.860647 0.7670381 -4.843072 3.2132661 2.228663 -1.5729594 0.6313686 -0.80715585 -5.3341613 3.6783328 2.440029 -0.8477733 -0.16127688 -2.5516775 -3.3106577 -2.2239668 2.0581102 3.4696045 1.6493392 -1.410447 0.0006417292 1.2370872 0.64779735 -0.7752724 2.5426161 -2.198095 -0.78216636 2.2399633 -1.117369 -2.2850718 -2.9046109 -3.796151 4.6219554 1.5363239 5.7474947 0.72844005 -0.31991377 3.8721669 1.0163902 -2.2825527 -1.4511509 -1.474307 -3.4524372 0.29986438 2.876537 3.801721 0.14868242 3.1582918 -6.0537634 2.8266265 4.0193667 3.9575195 0.7383371
87 3.3393028 -3.1219027 1.4114059 1.6650661 -2.5823424 1.4783213 -0.6360973 0.23662376 -2.3274655 -0.18855214 0.624303 3.4128606 0.86135405 -1.2388637 2.5065727 -1.1734012 0.13539067 -1.5064324 2.6061137 3.6479151 -3.7724643 1.484684 -2.1659613 -1.7842176 2.8176248 2.571512 -0.53884745 -1.4824336 0.08371962 -0.7570782 2.3623993 0.15553387 0.7953008 3.8049755 0.63462216 -2.1188512 -0.9647073 -3.084385 2.8705597 -1.7053376 -1.5622952 0.7973728 -1.7790419 3.2511945 -2.3370962 0.046258256 1.6983584 1.0160904 -2.5236826 3.0521052 -2.4874778 0.23137222 4.1076736 0.39851272 -1.4272848 -1.5351173 3.4797604 4.70908 1.4696045 -1.2604874 0.013294146 -0.92526525 -1.0780551 -0.04366025
40 3.5332308 1.75572 -1.8623201 1.1126289 1.0031627 -0.23477755 -1.5352669 -2.0960748 1.0680277 -1.3763729 -0.3665798 3.4253871 2.240549 -1.4431909 4.508563 0.47094017 2.195745 -2.2474606 -0.9235193 -1.0221188 -0.114517875 1.1702486 1.5553479 -5.7594438 -0.9832355 -1.7027558 -3.8963797 1.6250045 1.6915792 -3.330719 -1.0058157 2.919578 1.231433 -1.972682 0.42991284 1.716103 0.2660925 -0.013567659 2.6057374 0.33915648 4.157391 0.23179731 -2.5440807 2.0111117 -0.14650686 -0.07889317 0.44729456 -2.3055177 -1.3278036 -0.69818294 -3.7759075 -1.8463748 0.74026066 0.6169201 1.8107489 3.0310557 -1.936645 1.795586 3.9265227 -4.595345 2.0337424 -1.0353382 -1.4453136 3.973159
14 -0.11171113 -2.0743403 -2.654612 1.787775 -1.0110898 -2.1091707 0.5719713 1.2598251 -1.0934927 0.22691183 0.25457662 6.702959 -1.4308966 2.516867 1.7190031 2.4418008 -2.003944 -3.7010922 -3.5205514 -4.7462397 0.9612036 -3.8600967 0.6133429 1.4350418 -2.7034113 0.48360893 -1.6330107 5.368066 -0.10368274 1.2448001 5.105679 0.72158 4.194813 1.3836193 -4.5691204 1.338191 0.88459057 2.5467212 1.5965797 4.124387 2.4079664 -3.3357708 -0.31758618 2.4206352 -0.84949136 3.925782 -0.89236593 -0.28144577 0.53448504 -3.1336267 -3.527002 0.887749 -6.052745 1.4745109 -0.3608406 -0.20341891 -1.5817978 2.0176775 0.95777905 -3.416331 -3.0449944 2.3915288 -1.8021889 2.357751
92 -1.6167023 0.8705684 0.07972085 -1.4352443 -2.2516453 0.92690086 -2.796483 -6.206614 0.82234657 -1.4505255 3.3730226 0.65487134 -4.683047 1.0531954 0.5917236 2.6228678 -0.26736766 0.8928707 1.929092 -1.6338112 -0.28241628 2.8717542 -2.0193472 0.4043333 3.3654106 -1.5937169 0.044434905 0.80130154 3.4145412 -1.149217 -1.5808061 0.065398574 1.5746874 -3.4632623 -0.5029697 -1.6301993 -1.1862272 0.5290262 -2.2746706 5.7738514 2.5245473 -1.7876377 0.3444717 -3.8206317 -0.7465903 -1.1220497 -0.4483019 4.2147403 0.75230336 2.2894661 -3.6171215 -1.8785707 -1.4266566 0.47679597 -0.6734325 -0.21527624 0.32919347 0.39658004 1.1438116 0.91519636 1.7321924 2.729778 -2.027141 3.2661996
63 -0.098345846 1.7127887 -1.8575603 1.4155191 2.850663 -0.53553164 1.688588 -2.3911345 1.3277051 1.7614577 -3.0428069 1.4404515 1.1076502 2.6997519 -2.7605212 0.4946157 -2.0473864 -0.9694255 1.8602517 0.25340015 3.0637002 0.46613193 -1.9815965 -0.16789368 -1.959815 -0.0007667743 -0.20667149 -0.53061056 0.78462946 0.2582145 0.6369117 -0.940669 -0.7799265 2.3623822 0.72054076 -2.9142973 -2.9283493 1.8245571 2.8472493 2.4367561 1.9753048 0.26993364 0.6535815 -0.707332 -1.6535255 -0.17796154 2.1224203 1.6374049 -0.9063243 1.6961657 -1.5836382 -5.0196733 -1.2835909 -0.66843593 -3.233382 -0.89456576 -3.4191535 1.7675426 1.645517 1.5707272 -0.41984695 2.6783755 -1.3828862 -0.6976259
67 3.5735223 0.040540956 -1.9586949 -0.83990395 0.19686227 -1.2463622 -2.3209834 3.4533854 1.7963431 0.31402597 1.9640338 -1.2144921 2.3209727 1.6000079 -2.3278964 -1.3058093 3.3408513 -0.033493806 2.275604 -1.397149 0.14669427 -1.203551 -1.739051 3.4605203 5.290901 -3.5630891 2.0969217 -0.29361394 1.1027848 -2.6949062 5.14674 -1.1593391 -4.2834435 -1.5846264 2.0325794 0.54231364 -0.95445836 1.6018074 -2.863761 2.6268628 3.921357 -1.7285047 -3.0604372 1.6701287 -3.3314202 3.4517205 -1.5661749 -2.9224646 3.995747 -0.65120304 0.5839551 -3.038837 1.586127 1.3445473 0.06896654 -1.5940988 1.2443765 -0.7500901 2.2942736 1.6820399 0.6549976 -2.4076023 -2.0450966 1.0827868
27 0.725998 1.8464211 0.84159434 1.7576448 2.1911871 1.0422642 2.1301234 1.1604298 -2.3453739 -0.6142655 3.383489 2.2817352 3.824537 -0.39673552 -0.230836 -0.053828493 0.2786411 -4.3266783 -0.1852601 -1.725797 0.6344923 1.9454502 -2.0304809 -1.5925845 -3.1165228 -4.3112 -1.3955178 0.32689074 -0.70165855 4.500173 1.8027074 -2.505155 -0.50616604 -0.27939042 0.57314193 0.68480295 -3.2815459 1.5363903 3.5355613 -1.7163767 -2.21162 3.0991828 1.0654528 4.732447 -1.5377738 0.39709675 -3.7457957 -2.2323685 0.64623743 -1.240353 1.7499714 1.6891949 -0.35728043 -0.8551872 1.0088036 -0.97618 4.067284 0.38357764 3.7155478 -0.33375603 0.41719785 3.1044223 3.9466164 0.35907868
43 3.0151618 -2.811565 3.2400055 -2.1318922 -0.69995725 1.369955 -4.7198606 -0.6583665 -1.0529411 0.12248834 -2.070659 1.2315701 -2.0646904 -0.4081177 5.063822 -1.5070797 0.88248545 1.9591902 -0.38173857 -4.7468305 -5.765809 0.39431098 -0.8104153 -1.5740826 -4.7156363 -5.528319 -0.64767957 -1.1800959 -0.75981593 1.6045722 1.8044825 1.224433 -0.7195547 -2.241647 -4.123939 -4.9001164 2.0933647 -0.8369158 1.3440763 -1.6985539 -0.19597656 1.8571135 0.3965747 0.09595976 -1.8728805 3.4077435 -3.376251 0.52668095 2.2992766 -0.26350662 0.32042047 -2.818792 1.3298911 -0.116484284 -0.042022176 -2.1080842 -0.50570947 2.2260194 -1.2591453 2.1580205 5.7677503 1.1074237 4.272314 2.6192708
16 1.0403155 1.9675866 -1.9923342 4.261785 0.78046334 1.1574768 -4.058775 1.213035 -0.6498262 4.767144 3.7284527 3.269575 1.2040594 -2.6559243 3.3142257 1.1922013 3.1971452 -1.0856544 3.8461154 4.222602 -2.1797974 0.6183293 -0.5827479 -5.0786467 4.8050437 -0.71013284 -4.2720127 1.8276144 3.7170138 -1.3935988 -0.052472632 2.594515 -3.2735806 -0.36100736 2.1294324 -2.0364535 -2.5360978 3.9605465 2.1036937 -4.855598 0.4621694 -5.341236 -3.801153 1.2108835 -2.574278 0.35551345 3.7560272 3.9582722 -2.6451895 -2.0063334 -2.1282327 -3.876213 -2.5070405 -3.0394628 -1.084115 -3.177121 2.0235507 0.21464217 -3.5332084 -1.7278583 0.79464847 1.6956708 -0.9019312 -3.0467575
12 -1.0955226 -0.38165194 -2.9793835 1.3334204 3.6936064 0.5988832 -7.309345 1.5896461 0.030990062 -0.023302091 3.6788285 2.1543999 -1.3381863 1.2053362 -3.042765 0.034519583 -0.11512837 -1.8625494 3.9221852 -6.3924613 2.6307542 -2.75478 3.7667174 -1.505591 -1.800037 -3.8861356 -0.0016080341 3.3449144 2.4862401 -3.5508084 3.1306179 -0.8514922 -5.1737814 1.8077543 -2.4409451 -1.0561742 4.4190145 -1.9107208 -0.03535336 0.29427055 0.36671674 2.6414292 1.89195 2.9147747 -3.1168015 -0.6994646 1.9862078 1.504601 0.19704367 -0.046797186 5.9007745 -3.116318 1.6612042 0.99096256 -3.8739269 -1.5401266 5.1408186 -3.3051734 -3.8266962 2.4561331 -3.4546788 -3.5936518 -1.8917618 0.57642275
30 1.5922561 -2.454757 -0.75494814 0.79487824 1.4693632 -1.0440984 -0.54923797 1.2325708 -2.4022536 0.7308749 -2.700967 1.9613315 2.0580842 -0.4413689 2.959854 3.6967463 -1.25734 -2.833802 -0.08100449 -0.99788123 -0.070595644 0.1630692 -0.20895879 -2.5635667 0.59307325 0.24242568 -1.0067966 4.0418677 1.810609 -0.1434982 1.3910441 -5.300463 -3.43895 2.1084943 -0.37991604 -1.0936099 -0.9444386 -2.1478 0.8198287 0.27979496 0.6757236 -1.1479877 4.6790295 1.995959 2.7199755 0.30795118 4.3890157 -2.4788005 5.619239 -1.4175748 -3.7068164 3.3936086 -3.765464 2.8971462 -1.5339696 -1.5300531 3.9640431 -0.69330215 -1.508621 -0.81238276 -0.37196982 -2.1187422 -1.1502447 3.9243147
21 2.3064837 -3.1283457 0.17481463 -1.9096978 -0.9488867 -1.8465946 3.3615768 0.050911766 2.3330915 -3.8361046 -0.21429783 1.0181783 -2.37472 -0.7415903 -0.09465409 0.01028174 -0.16522571 -1.1455051 3.0204794 -0.86305785 1.9757091 0.9258391 -1.0390047 0.22798951 2.4213066 -1.5984439 -3.774105 2.197753 1.5143723 0.8483613 -0.5800189 0.085488014 1.004707 2.8145914 -1.2112968 2.7422187 0.847413 4.6707134 2.4439616 1.0933518 1.2972158 -0.03506639 -1.1317941 0.6486974 4.3593016 0.80518824 2.1882079 -3.6590862 0.9205308 -4.658387 0.34270734 0.5212978 2.8523352 -1.1555908 -2.1409535 0.8076373 5.331906 -0.23848994 -0.90788376 3.8662448 0.61420006 -2.5693946 2.5190125 2.4119043
29 2.5150511 -0.030886676 2.75874 0.7075822 1.0086466 2.4505537 -0.8540547 -0.31398967 4.1177163 2.0767822 -1.0156353 0.64937097 1.5516243 1.5734354 -0.34763265 -0.55919313 0.33935946 -1.5611491 0.77663285 -2.0929139 0.73125297 2.692149 -0.7312646 -0.49396676 -1.1461421 0.79359025 -0.07664734 1.8698092 4.1495585 -1.2279478 -0.7022635 -3.4924822 2.756116 -1.0826167 4.512038 0.17733961 0.6755835 0.7374344 1.408659 -0.34719983 -0.24345265 1.2946424 -4.470347 0.39171937 -1.4921969 -0.8123885 0.22084148 -1.2359868 1.6438577 -1.1444217 -0.13138609 0.3952545 -0.5553231 0.49131268 -2.127918 -2.0028925 -1.625561 -2.7668624 1.4199333 2.3784022 2.5649412 4.076113 -1.4083077 -1.1952124
51 1.5359393 -1.0666488 -0.7040103 0.29094458 -4.0497584 -6.3180976 0.2934469 1.7332011 -3.5260048 -1.4489319 1.4131862 2.1926124 2.7654548 -0.82596016 2.071958 -0.86619145 2.6091645 -0.79297763 3.0271409 0.64977187 1.8442822 -1.1976118 0.6756288 -0.9108526 -0.8753605 -0.5388304 -0.8561996 -2.921854 4.099975 1.3006494 2.9809067 1.3231697 -0.0127882715 -3.793216 -1.2512592 0.28397113 -6.550279 -0.4735726 2.5777726 0.37974164 -2.0321841 -0.26809677 6.228278 0.36675698 1.9842656 -2.8353627 2.0899189 -1.488381 -0.86890286 0.59702563 1.1596745 0.68792737 -2.585768 1.194947 -4.6531544 -0.22305904 -2.4329586 -3.174952 1.9098872 1.0110095 -1.0699772 -3.0076046 2.3979068 0.6614624
60 2.3288364 2.47745 -0.8545414 3.3851764 -1.3074579 -2.0960517 -1.9113705 -1.4578928 -2.9197257 -2.8154068 4.583676 -1.0994483 2.6789696 2.2547553 -0.07302248 -0.36359924 -1.3585167 -1.4350735 -1.3219424 0.7148594 -2.3063323 -2.8498297 -1.5249313 0.2068126 -1.0467671 2.1965468 1.4603102 -0.35628393 -1.718791 -0.7603896 -4.457766 -2.016696 0.9094758 -2.1059446 -2.6653116 -4.0521336 -1.7024255 2.0237396 3.4387035 2.2134988 1.3066305 -4.086533 0.69276285 0.47704992 0.51528454 0.93791735 -3.1100712 -0.8960714 4.8096795 -1.7449055 -5.077929 -2.3424072 0.24254127 2.5610747 -0.14507803 -4.163056 -1.2140399 1.9953208 -4.3117495 -2.0714087 -4.363831 -0.90480053 3.3388608 -3.4933598
61 -4.0075393 1.3394631 4.865725 -1.1803285 3.2476437 2.4394867 -2.8438523 -1.2527531 1.1647843 -1.1228137 4.4690547 -1.3649176 -0.48812926 -1.2715135 -0.14744352 -2.3483076 -3.2959156 -1.4567105 1.3636156 1.0620153 -2.155917 1.849805 -1.52881 -4.207493 -0.048589 -2.4213376 -2.2433307 2.3403258 3.6787612 -1.411468 4.9261427 -3.7991798 2.6509821 -2.847804 -3.237827 0.14954254 -1.8234293 -2.6458883 1.2971919 0.8039639 1.9989418 2.667852 4.1361504 3.5773332 -1.156266 0.44874194 -3.085196 -0.004147868 1.5763127 -1.4717073 -0.4851067 -1.7328744 1.5903786 2.3028183 1.1749382 1.24678 -0.16713196 1.620225 -1.1597288 4.058371 1.0144835 0.64366615 -0.27988526 0.40619826
19 1.6869885 0.3285759 0.76381916 -0.012628687 0.7110579 -1.7320653 -0.42989838 -1.5787711 2.4224854 -5.3158503 3.0484602 0.84356797 -0.6805066 -6.0367694 0.07307094 -1.7670645 0.25339064 -0.09561431 2.2431378 -2.7427955 -0.4542139 -3.0054483 -0.0031695443 1.697734 -1.2209648 0.99606353 -2.003759 1.7178766 1.3859173 3.109258 1.5567824 -2.252248 -0.32176387 -0.8665851 -2.9953098 0.19351149 0.5473349 1.1976973 0.63450205 -2.060331 2.3755486 1.1580397 0.068195805 -3.7717955 1.3819234 0.46125454 0.5012712 0.19136745 -1.4209578 0.1388389 -3.2794542 -2.1920989 -1.061218 -2.0744288 -1.992597 -1.2412225 -4.104844 -1.001766 0.71616566 3.5276723 3.315133 -0.7627508 -1.1020519 -2.2776542
13 2.3473563 -1.9233156 1.0262218 -1.0753928 1.66837 -2.2471647 -5.396766 -0.98142606 2.444771 -1.354107 0.70984113 2.1242936 2.3433087 0.37993744 2.3329873 -1.7045859 0.6324188 0.32272586 6.0364733 -0.9842599 1.056212 1.9683669 -3.3816664 1.0206742 -0.58102304 2.5135722 1.4262525 -1.9511597 0.8238727 4.4253526 -1.0632024 2.346707 1.8452481 -2.4357824 3.4965448 2.0610435 -1.6630477 0.2984911 4.215512 1.2452416 -2.5037806 -0.6761482 4.337034 -2.0309675 -0.8341333 -3.2290428 -3.2123947 -1.7703048 -1.9461569 -1.7716237 0.27466086 -0.99138856 -2.3479567 -0.90059996 -1.727015 -0.4465713 -0.877936 -3.6195104 1.8781207 -0.21972725 -0.68287563 0.3343832 1.1268506 0.074849114
62 -2.304028 -1.0666229 1.3615001 0.030005071 2.9824278 -2.3028178 0.6524777 -0.4913863 1.0594459 1.0366344 1.129269 -0.0904661 -2.2971616 2.7654371 0.094528586 -1.9195395 1.6574494 1.2496414 0.8180063 -1.340204 -3.3010392 0.5203624 -0.037992477 0.26810887 -0.12274711 -4.5983543 0.49441004 2.6915045 0.87972164 -1.0689207 -2.0489311 1.9686211 -0.4603921 -4.1982665 1.9555235 0.88141376 -2.87216 -2.0602615 -0.03018132 -1.7614614 -1.2163993 -0.373446 0.2895109 0.5621628 -1.8274682 1.2999512 2.464652 -4.913352 0.329464 0.8379832 -5.131489 -0.5687078 -1.1498901 4.3599954 1.93151 -1.8690857 -4.4751167 1.7608296 -2.3102167 0.55789024 -0.17411318 -0.2808393 1.2114906 -3.3118138
64 0.026942492 -0.4766516 2.2393258 0.8726576 -1.7459319 -0.4256914 0.7486373 -0.71338445 3.4310162 0.44283965 0.36549947 -0.4825941 2.0250392 0.8781323 -0.48599547 0.44602212 1.2315745 -0.018234584 0.26888177 2.1161945 -1.414438 2.99462 -4.603632 1.6965452 0.99496627 0.1994368 -0.46254843 -1.9396311 -0.35775352 -0.39419916 -1.8627526 -1.1935126 -0.9069235 3.218497 -1.0457482 -0.28738615 -0.31876534 -4.267537 0.49690115 -3.244974 0.84258264 -0.81277305 -0.8886366 1.3673677 -1.6221029 -0.36209527 -0.7632641 0.27684775 -0.6401409 2.8512957 -1.0767808 -0.6859459 1.8296437 -2.2295387 0.68691945 0.21636511 1.6056087 1.8806933 -0.408053 -0.57404935 1.8846333 0.20300794 0.61458784 -0.5067748
35 3.3558366 0.0944366 1.1752429 1.626148 1.8004179 -0.401012 2.1406522 0.53773975 3.6624858 -2.1863863 0.7889608 0.26991263 -2.5267293 1.1693293 2.7153873 4.9549546 -1.0802606 -2.9062598 3.5465178 -1.2000833 1.2917786 -4.5574656 0.5000852 1.4159622 2.1996005 0.16010831 2.9427416 3.8358643 -1.7083479 -0.18532954 -0.6353047 1.2873262 1.7038512 -2.1129885 2.0100756 -2.8659022 2.4606338 0.25160724 -0.7252323 -3.1210735 0.2010135 2.2423615 1.8483537 1.8048685 2.3344939 0.2703201 0.0042399913 -1.5659313 0.4895429 0.32092407 -3.080234 -3.958333 1.2087109 -1.4082096 3.8657482 -5.19288 1.6170036 -1.467692 -1.146866 -0.8286101 -2.0435808 -0.8775188 0.686368 1.6252326
88 3.4133444 0.62311214 -1.2344631 1.5390059 -0.9807264 -0.58389217 -3.7273314 1.5690465 2.3688016 1.507209 -3.248041 -1.6695569 -0.26305607 0.7376167 1.6762873 -1.2976344 4.387172 -5.9858494 -0.5178195 -6.4218388 3.7713532 0.65876293 2.1090999 0.115631714 -1.6485734 -3.678198 -5.295432 -1.5977052 -2.5189848 1.936364 0.019008577 1.2280821 0.85171026 1.670283 0.9538909 3.314511 0.42376938 -4.569 3.024014 -3.797973 3.390548 -2.225702 1.3037657 -1.1403086 0.009147881 -1.0624495 -1.628274 0.3877533 4.0997324 -2.3575807 3.537237 0.824176 -0.81461114 -1.9208037 1.861127 0.20287132 1.7734624 0.0122236395 -1.4274948 0.47262275 -2.9067774 -0.13446632 1.319708 1.1656903
77 0.3340172 -0.12880501 1.2386143 1.2822539 0.44017795 -2.5708315 -2.7476184 0.7941087 -1.3557178 0.8151934 1.1434935 -1.6935532 2.6798599 -1.9720187 1.6500189 -0.8860893 0.20643395 0.64511806 3.9795938 -1.6895725 0.29283574 -0.5391068 2.5611415 -1.6251724 2.5118155 -1.5260566 1.3717232 2.8123853 0.1725954 1.7737297 3.169005 -3.431907 -1.261569 3.219681 1.7902623 -1.838679 -1.3103828 5.5772038 -1.4033048 -1.0850208 0.7243682 3.0551677 -2.8989513 2.5212069 -0.16316868 0.9938254 -0.78959364 -3.6796017 2.9996488 1.9379561 -1.217744 -0.28456205 -1.0252289 1.7788384 -2.501272 0.7229922 1.658893 0.10209431 2.0828862 -1.4086998 -2.1506221 -2.787993 -1.1243395 -0.12614337
53 2.9806314 -0.48954037 -1.275512 -1.3044674 1.6566272 -0.62982607 -0.59617084 1.0242987 -2.2649026 3.0786986 -0.8444199 -0.85975057 -2.4484832 -1.5632827 -0.45362574 0.42398226 -0.070621334 -1.6214298 1.7925365 -0.7696514 1.6175373 -0.8501894 3.8348408 0.8686036 2.347219 -2.5682132 4.0488195 0.5077453 -0.15736783 -1.7691437 3.136546 0.17693852 2.447263 -4.177783 0.6879051 -0.68282104 0.1611003 1.9953157 -2.6164744 1.4770033 0.94781095 -0.8267137 -5.226438 -0.21661691 0.36928648 -0.8403055 -2.5692058 -4.257624 -1.0559096 -1.677529 -1.5265552 -4.5035043 -0.18961857 2.0135489 1.3843541 -1.078619 3.383 -2.163299 -1.4675512 0.9778943 -2.282202 -2.6582754 0.76567996 -2.760814
74 3.28188 3.1415591 -0.7735364 1.7159023 -0.22819926 0.94952667 3.059778 1.7809604 -0.73940176 -3.4057565 3.7811365 0.4283793 -4.5481014 -2.2055964 -1.4058735 -0.032948375 2.654132 -0.765978 6.645565 -2.1701386 1.8701967 -2.196127 0.46953645 0.4956879 0.29985645 0.47582477 -3.857055 3.064951 0.31657296 -1.502755 2.2708194 -1.4495151 -2.868711 1.0270733 0.46924728 -1.4720684 0.048264343 1.6284546 -0.427574 0.48275945 2.2741604 -1.932157 -0.9031106 1.1810259 -4.0252805 -0.7846725 2.2645047 -2.2059135 -0.36887667 -4.230816 -0.07306356 -0.8890367 4.802471 -0.5561367 -3.1645644 -4.6243296 -2.1362588 -2.3470569 4.7607293 -0.24107637 0.16753638 -0.8504046 0.5032021 3.216378
0 3.6848722 -1.2088671 -2.9840517 -3.3440268 -3.49273 -8.417264 -3.8008626 4.9487348 1.9103782 -3.036529 0.38658297 0.53892475 1.1482091 3.7847145 0.81277317 -2.4539113 -3.03618 2.7295675 3.4792254 -2.3584962 4.46172 -1.9166692 -0.120663784 -4.7547655 1.4549724 1.3135914 1.3262442 -5.7549686 4.0411787 -5.2413077 4.403259 -1.7143342 -0.18951434 5.2518616 1.1397821 2.0005174 -7.0552816 0.5559321 -0.23688203 0.10964165 -0.76646614 -3.1612277 4.755815 3.6535995 3.3949192 -7.5559382 0.4691745 -1.950225 1.4917096 -2.3615649 -2.0889564 -0.6958254 2.598705 -1.0596297 -3.1412885 0.21712622 -4.452668 -0.32500857 -2.7565787 -3.6703284 0.86228067 1.3118304 1.6257584 0.14660914
47 2.0541697 3.5457313 -2.1116579 1.5534018 0.31651738 -4.0721 0.08910113 1.2487533 1.3787724 -1.9976801 2.1830463 -0.5933432 -2.5563307 1.0766623 0.28540477 1.5588666 2.4908016 3.7115388 3.8780248 -2.0169563 -1.457312 0.21036181 0.30358648 -2.982167 2.2960691 -0.057694208 -0.9043521 -0.669312 0.7110622 3.3149726 1.8489718 -2.2243793 -1.5862769 -1.405144 0.37892106 1.6538893 -4.355509 -3.4055123 0.33904627 3.1829658 -1.5960283 2.9226413 -4.0406456 -1.5571208 0.7648494 -1.3317512 2.5950263 2.158695 -0.08903045 -2.754232 2.370886 -1.0422512 -2.2460098 4.365234 -1.8472543 -0.85120857 0.6335573 1.3306055 -0.47948432 7.807355 -0.07991758 2.901856 2.6917572 -2.481169
17 0.30813769 2.223869 -0.20835878 2.348108 -2.334517 0.58049697 1.5390103 -1.1595105 1.5178714 1.3678656 3.41904 3.7776546 1.1626438 2.7920222 5.1943717 1.1536629 -0.9788454 -5.839549 1.3422253 -0.05699005 1.8390137 -1.6620066 0.15143108 -2.4900174 4.4972744 -1.7091726 0.43282774 0.39096755 -1.4947674 -0.7713977 2.4401815 -0.66568154 -0.7410597 3.8190258 0.11173507 -3.3321261 -0.24945459 4.8050356 2.7223127 -2.5765364 3.4263406 -4.706122 0.27694768 1.0004208 -3.4038944 -0.15299532 0.035884142 2.8797295 -5.6257825 -2.0679483 -1.8678657 -3.9551501 -1.1586646 -0.4398829 1.5370754 -2.6402307 0.4515351 1.0477521 -2.0502288 -1.2840297 -1.3031158 0.29019776 -0.81313586 -2.4741814
76 2.2546701 -0.30330762 0.36910728 3.183763 -0.95245486 -1.0869262 -0.5190489 -0.9100423 -0.7244138 -0.2515903 -0.64669067 -1.430023 6.872851 -0.20015304 2.3444216 -1.1520367 1.3616004 0.19365916 3.0689864 -0.80279136 3.6381688 -0.8717661 -4.422577 -3.9415534 1.3325624 -1.7001834 -1.4466479 1.039359 0.85434747 3.064916 0.2198622 4.138636 -1.3828174 1.930329 -0.29685244 1.5238782 0.5534631 -0.10021997 0.5955709 0.91601676 2.539975 -1.4905537 0.8042149 -0.9190843 -2.7177246 -1.1162148 -1.1913875 2.3721576 1.8259457 2.1249285 2.175226 -2.3048208 -4.217145 -1.4333553 2.779479 -1.479956 0.25983423 0.62849325 -1.0447406 0.37225628 -2.266091 -3.5727866 -2.7120924 0.80199504
71 1.9663565 0.92140055 0.05133769 0.0030896992 1.1355854 -0.22313444 -1.5811148 0.7383896 -0.8794456 -1.6304649 -2.9812298 -0.7725223 4.5826864 -0.5077711 3.0606403 -0.81668097 -0.18828699 -2.7809498 0.35173148 1.8193378 1.5103983 -0.16691053 -2.711133 -0.44111198 -0.41027936 -0.46218285 -2.0779011 -4.159352 1.8821352 -2.4152925 1.1241524 -2.3722007 -1.6415684 2.6334496 -0.25303382 -0.2692289 -1.4317448 0.6577939 1.6040729 2.7428212 1.1120677 4.1599727 0.55205524 -0.46673802 3.05497 1.5119731 -1.1891705 -0.79517066 1.648121 -3.0877554 3.4200585 -0.7341868 -1.4302455 -2.2228146 -0.23747234 0.24966344 4.66174 1.1025012 -0.17537533 1.7527655 -1.3329445 0.20671546 -1.5009414 0.7649369
52 -1.5672858 2.281306 -2.0706515 0.6914288 1.4755083 -0.6309768 -0.5540601 -0.36898425 -1.5745528 -4.878512 1.940534 -1.9941338 0.71745104 0.58314204 3.120676 0.5121936 1.054269 1.8139213 4.2433825 1.2572902 4.127704 1.6247172 -0.21427982 1.2555556 -1.3179133 -1.4662732 -3.4175036 0.060440797 1.0293194 -0.9801508 2.267478 -0.60809064 -6.3210707 0.33044848 0.8868915 -0.16933028 -2.1881588 3.2289224 0.6883124 -1.1461446 3.6113229 -2.3214345 1.0733316 0.7666151 -5.058035 -1.3833491 -1.5678713 -2.641713 0.42706758 -0.6965293 1.2000643 -1.5779439 0.13468985 0.28098583 0.27021152 1.2236692 0.95338106 -2.9725652 0.85677326 0.024049006 -1.8283951 0.54143006 1.4336578 1.1062514
91 -0.396673 0.38504714 1.541929 1.123231 -1.1149179 1.2371613 -1.4794856 -0.39026207 -0.11527738 -2.347806 -1.8905352 1.8685702 2.3497434 0.53529173 2.9065285 -0.10700077 -0.7015608 1.5684714 -3.0991542 -1.2779417 0.19416004 1.0237163 0.73028916 0.12967025 -0.9571553 -0.58112335 -0.6380238 0.53062594 3.6676316 -0.6142725 1.018327 -1.1518545 0.79291505 -2.5258582 -1.120236 1.8792609 0.14459294 -1.5858557 -2.2188542 -2.6603272 -0.71266127 3.39313 -2.255524 1.0059453 -0.34387565 -0.7882247 0.12002564 -0.82975364 0.6389472 4.171395 0.69370395 0.70013005 -1.7225931 0.49848053 -0.14875847 -0.82191765 0.83273214 -1.9192343 0.88459384 -0.21080157 -0.88966984 1.6969105 -2.292038 -1.6647704
70 1.8407116 0.008009374 0.5882241 -0.16205019 3.229313 -1.1052836 0.5149652 -0.6192078 1.9499553 -2.57724 -2.8520465 0.079675905 2.9449153 -0.9391161 2.7385979 -1.1779015 -0.4299831 -3.2159235 -0.41183382 1.0393033 1.321913 0.5175656 -2.9925234 1.7321279 -2.3541477 -1.1459415 -0.6137114 -1.699037 2.8683972 -0.37854734 1.6093441 0.7575883 -0.9842593 1.1783098 -0.61533695 -0.14931768 -3.798869 0.18536933 1.0700876 1.706598 -2.9035943 5.7735496 0.46084648 -1.5970266 2.4990375 2.3971233 -1.2992887 -1.3438272 0.74626946 -1.9812231 0.65909964 -0.060725242 -3.1650972 0.5724437 0.2346381 -0.10548462 1.2052835 2.3281205 -1.723007 0.44056517 -1.3254274 -0.6650569 -1.3621655 0.13385959
49 3.363408 -3.524498 -1.4256377 3.1989172 -0.7347804 -0.7100382 -0.86472505 -0.03091889 -3.824617 -1.6945235 -2.2374876 0.22570889 -0.57709146 -1.4281319 0.032358322 2.6763272 -2.0737252 2.423486 -1.5569215 -1.6353015 1.7308275 1.1372328 -0.24756452 0.86541927 1.282217 -1.2343825 -2.7221227 2.5661614 -0.9091846 0.022300245 -2.5103176 0.5452447 1.0674539 0.9818932 3.7528205 0.5558668 -0.5078735 -0.52553385 -2.2486873 -0.37533185 1.1086712 -2.7686431 2.1041672 0.12645802 1.4231111 -0.28755602 0.49521893 1.1859721 1.8428687 0.7524054 1.1733782 1.1046245 -0.51989937 -0.3399029 1.425153 -0.6075998 3.6724887 0.75125563 0.7315264 -2.9012425 1.9461077 -3.7318554 1.2838205 2.156741
48 2.225201 -0.18534882 0.54491055 -1.00478 -0.52964145 -0.78381336 -1.245553 1.1427127 -1.248762 -0.08090005 -1.1336384 2.2022305 0.18326576 0.8124513 0.08196314 -3.438296 -0.78529435 -1.9823422 -3.0066667 -2.062641 -4.554234 -1.0095333 -4.4596357 -5.762524 6.9625263 -2.3558588 2.1357245 3.1811342 0.4081053 0.8804831 -0.39923087 -2.4674397 2.858191 -1.6953386 0.5179707 1.1612896 -0.053601086 1.2515202 -0.5327444 3.7064033 0.21062537 5.99371 0.99832803 3.042544 0.38561377 1.9500514 2.7944782 -3.7829468 -0.74637693 -2.605733 -0.17898308 -1.8131264 2.057277 -1.4700795 0.35566542 -2.4677486 -2.4008179 3.0401614 3.3595018 0.79157287 -0.3084244 1.4188119 3.4827673 -1.4324473
31 -1.4808124 -1.3938415 2.796987 -0.75129545 2.9140387 1.1935319 -1.2253695 0.053172655 0.91259915 2.4360533 -2.6397183 -1.0446829 -1.9146372 -0.6786809 3.0914407 -2.0817401 0.56196207 1.8610674 3.2457812 -3.6180522 5.576641 0.8381469 1.0178345 -0.028699892 1.5309416 2.870578 -0.27508864 2.6898181 -1.831035 -1.0628355 0.8080161 5.0948 1.8191366 -1.4327183 -2.7262123 -3.145882 0.47288355 -0.19850287 3.7212718 2.7375844 1.6961083 1.9874887 3.4982011 -1.6335156 1.8860714 5.2552676 1.5855457 0.78935117 3.8864882 4.1538897 -3.14377 -3.5543823 -0.46656668 -1.9035801 -2.215211 -1.8905274 -0.7330855 -4.895616 -2.2886376 -4.157516 -0.43925592 1.921516 0.05877593 0.3058502
68 -1.461971 -2.5548775 -1.0026877 -0.9608589 -0.33689955 -0.040534984 -0.010614209 1.1154195 -0.5900748 -1.1853554 -2.1890597 0.81385607 -1.1364082 0.37878254 -2.3711002 1.5088428 1.5973285 0.3152438 -1.5014527 -1.9222347 -1.4610696 1.6327745 0.22892082 2.4717088 0.8211048 -0.35066712 -0.26766038 -0.14558136 0.088071354 -2.4346628 0.5750827 0.18267336 -0.0661302 0.31583697 0.36588055 0.50678784 0.26157853 -1.7939179 3.3193276 -3.1378026 2.59752 -0.2266194 -0.9061606 0.48971295 1.798473 1.195584 -1.4205455 1.9996749 -1.7857752 2.072382 -2.009833 0.7827938 0.09814096 1.1072433 -1.3198861 -2.0362422 0.08385147 -2.2751343 3.3673582 1.0420055 1.2328564 1.4780036 0.8359926 0.41647664
38 -0.02505275 -0.1457884 5.6062264 -0.18509382 1.2359875 -2.5832179 0.18806276 0.40001255 -0.38834512 -1.3485407 2.9921224 1.7813609 -2.4432614 -0.12518205 -1.4289458 0.9407268 -2.2276766 -3.6604452 0.66453755 -3.066897 -1.097979 -0.63451326 0.8968013 -2.0888705 0.11632118 -4.5926757 0.60371923 -2.316771 0.625566 -3.2698414 -2.3256495 -1.5418385 0.2765777 -2.05019 0.4002506 2.129102 -1.419996 -3.1026216 2.9697306 -0.68452466 -1.1857834 2.646562 0.28849757 -3.1491687 1.1002429 1.6373677 1.2471559 -2.5660017 -0.447095 3.7604353 -2.104716 -0.051694524 1.0861936 -1.7992302 -2.2876961 -2.707054 1.4413607 0.26380014 -2.0425272 3.5335746 1.3140826 -4.650403 1.8721036 -1.6710305
11 4.173925 -0.19075546 1.4281752 4.565124 0.5360961 0.23863891 0.5658082 1.7824447 0.43729854 -1.737646 -1.5311832 1.7430029 0.3117411 2.8516955 0.37270296 -0.01552134 4.0876126 2.213159 0.7030399 2.163906 -0.19657992 -1.7794095 -1.5222101 -2.567651 1.5111943 -1.9487705 -3.812817 1.1830727 -0.15273349 1.3217643 -1.443037 -1.2923318 -2.4084325 1.2956398 -0.3330013 -2.0705297 2.7208896 3.6914172 -0.055540547 -3.3281147 2.6702683 -1.7209886 2.337779 0.62016076 -3.2288558 -1.3350959 2.6355128 -5.1792 -1.0110154 -0.6167034 2.554896 -2.244016 2.8404949 2.9493432 -1.6706141 0.6236785 -0.7485484 -2.4452543 1.8413556 3.6906683 -2.3234065 -2.9769478 2.043801 -0.6497958
39 1.3215721 -2.114859 1.8625803 -1.2127231 4.3296 4.812358 -2.5034432 -3.8009934 1.6041906 -0.4056777 1.7179669 -4.16267 -0.36187485 -0.91293573 1.2851412 -1.4390285 -1.6119063 0.8256964 -2.4934049 -2.681014 1.8497097 1.264921 -2.645336 -1.9193001 -0.010084266 1.6809881 -0.7095424 2.2720554 0.061022438 0.040407773 -0.8836436 -1.151316 0.5533233 1.5132729 1.1770207 0.9384274 3.063307 -0.1321815 2.6223342 0.222443 1.7088107 -0.54679585 -2.6451116 -1.9369131 -3.4316635 -1.877106 0.93753594 1.414646 -0.36078706 -2.2635539 -1.4565749 0.33633906 0.85212886 -1.970584 -2.3878944 0.30006674 2.0598142 2.7502606 -0.22960894 -0.058313075 1.8687632 1.353896 2.9668016 -1.3167077
81 2.1927953 -0.73006004 0.29880413 -2.389228 1.239217 -0.8952017 0.12018181 3.080866 1.2341112 -1.5395879 1.9423691 -1.18728 2.2853527 0.23619086 -2.2708926 -0.67446387 1.4506773 -0.6764573 1.9589833 -2.1563852 3.8748362 0.8549199 0.31259432 0.9652342 1.6256899 -1.8120586 1.8484277 0.75964487 1.4703475 0.21353292 3.4129832 -2.106965 -2.2260761 1.2711189 1.2701142 -1.1185262 -1.7631121 2.4321432 -1.1844789 1.0129069 0.4152707 1.8942631 0.30852804 1.2369823 -2.3489375 -0.024786059 -3.7119484 0.73280513 1.122119 0.6562773 -0.70323646 -2.522671 0.9810357 3.6399107 -2.8242548 -3.2893183 2.9919858 -1.1972506 0.557692 -0.34163243 -0.34390298 -3.270283 0.90674365 -1.654206
86 0.6887337 -0.4367242 0.05265832 0.49698788 -0.8703848 1.0597351 -1.1528533 -0.5841079 -1.6757065 1.0140984 -3.265081 -0.65148294 0.14392754 -1.8438901 -0.15178785 -1.8228259 0.09818691 -1.0856414 0.3020894 -1.9230256 2.7999933 -1.7150608 1.4999808 -3.1313372 -0.10263015 1.7533722 -1.8827124 -1.9537306 1.5133878 0.58657074 -0.01719134 0.60693014 -1.1853621 -0.9153587 2.3054588 -0.57774377 -1.7332022 -1.9619473 1.2937931 -2.4406328 2.4976268 -0.71006805 -0.91359454 -1.2370416 -0.8087528 0.6581125 0.50968057 1.1717149 -0.47333217 -0.67076015 1.7178171 -1.0373919 -1.8827024 2.1880243 -1.4381919 -2.9446058 1.1102922 0.191086 0.67695266 -2.4890125 -1.4345721 -0.90132207 -0.26654005 0.29498103
588 0.63124907 -0.47229326 0.060291804 0.5220989 -0.7589168 0.9195026 -1.0660496 -0.56668377 -1.5870101 0.9862752 -3.2244413 -0.5080684 0.19797336 -1.8011864 -0.088811584 -1.8218119 0.14762166 -1.0183454 0.33868226 -1.9361436 2.8178947 -1.6259363 1.3556376 -2.9915283 -0.1334524 1.6732165 -1.8405751 -1.9467142 1.6197673 0.5649452 -0.020380754 0.6242681 -1.1009891 -0.772973 2.070552 -0.5402695 -1.7302655 -1.8121026 1.2436842 -2.3386393 2.4593105 -0.723967 -0.7652294 -1.29953 -0.73517466 0.51772344 0.4412883 1.0645442 -0.42832586 -0.59381735 1.731735 -1.0664287 -1.9184064 2.2245653 -1.3060423 -2.7661524 1.037907 0.1879189 0.68460244 -2.547414 -1.276051 -0.97414976 -0.23579267 0.17902431
872 -0.9897302 -2.062507 2.2786725 2.4058013 0.55641204 -2.1324391 -0.50807136 0.4204125 -0.28502047 -0.011511802 -3.1217577 -0.6781292 1.560201 -1.5727712 1.0124539 -1.2745601 1.3437033 -3.9318223 1.5957859 -3.0536518 0.3903953 -0.39809406 -0.64992166 0.13810161 -0.6799189 -0.36941677 -1.9777911 0.81697744 1.6981454 -0.40926784 0.82233095 -0.12337025 -0.16575338 1.1864446 -1.2553017 0.03767425 -2.9991498 -0.65538836 1.0939609 -1.2539289 0.779283 0.7265923 -1.0111713 -1.9340708 -0.33249268 0.21352313 -0.2183664 -1.9356365 1.4472024 -1.871278 1.0723931 -2.1405737 -0.06569136 -1.4792044 -0.75634503 0.63503486 0.6334143 0.021664262 -7.137982e-05 -1.0089692 -0.93752414 -0.6319153 1.5825486 -1.3741605
32 -0.94919986 -2.0211842 2.2899659 2.425776 0.58798236 -2.181829 -0.5605759 0.4353596 -0.25998613 -0.056723766 -3.1155558 -0.73221046 1.571314 -1.597417 1.1601176 -1.2866863 1.3477197 -4.0099096 1.6761775 -3.0925138 0.30603832 -0.39475667 -0.61563164 0.14162873 -0.6570728 -0.38994905 -2.136492 0.909665 1.6097034 -0.53107375 0.897897 -0.20765609 -0.06682591 1.1533916 -1.2784717 0.03769961 -3.1128612 -0.70240986 1.2070062 -1.2411833 0.7698385 0.7725367 -0.9719185 -1.9419031 -0.3946753 0.3446992 -0.16853921 -2.135142 1.3180933 -1.9732118 1.085438 -2.1774487 -0.023267398 -1.5678406 -0.8571453 0.705164 0.60507095 -0.028552905 0.029596282 -0.8987596 -0.9156905 -0.67280704 1.7421498 -1.2244037
79 -0.78632814 -1.0008441 -1.7267416 1.9289494 -1.5176632 -1.8055999 -0.07945328 1.0453526 0.75415546 0.7878547 -3.0312643 2.1447096 -0.3155879 -0.48246965 -0.8087701 -0.5074032 1.837232 -1.3288159 1.6556108 -2.6083574 1.2217911 0.063991934 2.8028026 0.08392831 1.7088532 -1.7586685 -0.52373844 0.102280386 1.0492145 -1.2979432 -1.7006983 0.81706977 0.20699234 3.4761686 1.1646724 -1.5499048 -2.4320285 -0.8512933 0.13877833 -1.055197 -1.2811425 2.6694615 0.336734 -1.2336311 0.0967697 -0.40332523 -0.12698276 -2.3907819 1.2580696 -1.199573 -0.17982961 -0.0887442 -2.558899 -1.4974685 2.5870528 -1.5636578 -0.7176597 -1.767297 1.9843979 -2.6699297 0.65982896 -2.0588157 0.43873242 -0.154989
1642 -0.78473765 -1.0589321 -1.8791703 1.9598968 -1.6893001 -1.7530851 -0.1937952 1.2070637 0.9304655 0.9652044 -3.1549072 2.2087476 -0.52675664 -0.579021 -0.9024749 -0.544734 1.9619224 -1.3324859 1.818602 -2.4752343 1.1890627 0.062479004 3.1397822 0.15057378 1.8180424 -1.858051 -0.48767748 0.26485616 0.71572644 -1.6666235 -1.7096254 0.75914735 0.13682425 3.752098 1.4136384 -1.6431428 -2.5163572 -0.75845796 0.29267338 -1.0982671 -1.4954531 2.8649049 0.34733137 -1.2245604 0.082772434 -0.4486952 -0.17808074 -2.6443515 1.2697545 -1.2689315 -0.32656994 -0.24101913 -2.653577 -1.6385276 2.6211405 -1.6852242 -1.038182 -1.8380901 2.18217 -2.6740446 0.61450326 -2.1536775 0.64221174 -0.060614567
95 2.3460631 -1.9519727 0.32533652 1.8853359 -0.4135314 0.8043869 0.62332696 3.126572 2.2810547 0.17443033 -3.6766183 0.8248598 0.3795257 -0.1897787 -1.7522367 2.6229827 0.31312823 -0.6277711 0.3284432 -1.3571769 0.601361 -1.2644463 -0.5464233 -1.6151719 -0.15253033 -1.5716249 -2.7832 1.6925393 0.5310826 0.012550779 0.7085068 0.52749217 0.6534901 1.2416644 0.4007494 1.1551191 -3.025409 -1.209319 1.3981607 -2.4853446 0.33449194 0.87014896 -0.7737608 -2.7084675 0.61597306 -0.44018432 -0.6861005 -1.7650837 2.2162044 0.21747194 0.65350056 -3.0686295 -1.6781813 0.40242034 2.4509485 1.4141297 0.16818006 0.32385492 -0.61983705 -1.4630075 -0.92802906 -2.1170197 0.8205308 -1.869182
2191 2.6260378 -2.0570915 0.26719788 1.9844447 -0.5686009 0.96318513 0.4317213 3.369509 2.4720714 0.21966058 -3.7000387 0.7759363 0.26422736 -0.14078978 -1.8654659 2.8035352 0.37005553 -0.4316607 0.30119136 -1.2656653 0.59252524 -1.288409 -0.4831657 -1.7880226 -0.3279133 -1.7216408 -2.9409227 1.8885444 0.48340183 -0.26018754 1.008546 0.8493976 0.70192397 1.2041878 0.62019354 1.1833217 -3.0364282 -1.1663934 1.6035435 -2.6614976 0.29234695 1.0533993 -0.8093233 -2.755011 0.71145475 -0.2864288 -0.66364604 -1.9391724 2.1814294 0.15854135 0.5700863 -3.276196 -1.5490061 0.28783187 2.3208766 1.6432501 -0.2227071 0.31092104 -0.65702003 -1.4636582 -1.0814679 -2.1466458 0.96057165 -1.939119
1944 -0.9907818 0.39485997 1.2584063 -0.0065937545 0.40636572 1.2854085 1.3158485 -0.3148109 0.015638322 2.3828514 -0.15107384 -0.2130634 1.3759979 0.7762457 -1.2534484 -1.3757839 2.8442912 -3.5703878 -0.011898053 -0.9924095 2.044178 0.7896699 -0.9240848 1.3474418 0.29477882 -0.054787695 -1.8522315 0.071759984 0.8574501 0.9928888 0.05174221 2.001694 0.6141956 -0.35938042 -0.74409 0.1248788 -2.926461 0.1284948 1.2749277 -0.78066623 3.513795 -0.6034481 -2.0218976 -0.096160956 -2.9148116 1.1212906 -1.481698 -0.93907255 0.3072505 -1.3258821 -0.35583892 -0.48404932 -3.8000462 0.6782271 0.905102 0.10971984 -0.052318994 -0.2984736 0.1327688 -1.7212015 0.5989467 -0.96153784 1.3296776 -0.12826914
72 -1.033101 0.42683026 1.3348391 0.117125526 0.38223222 1.1034614 1.2516286 -0.31801075 -0.18740955 2.2739763 -0.24538937 -0.1667668 1.4179376 0.7291424 -1.2140051 -1.4319742 2.7286243 -3.4497008 0.012247727 -1.2931473 2.0458987 0.70403415 -0.9633962 1.3590676 0.3493559 -0.04741457 -1.9390061 0.014779862 1.0152012 1.2008351 -0.05255981 1.9039967 0.60144985 -0.2663345 -0.7527858 0.10033085 -2.8924196 0.03122457 1.25497 -0.89461666 3.2881298 -0.56054634 -1.9238026 -0.18186785 -2.8779314 1.0097475 -1.5323117 -0.90484166 0.40048966 -1.3121691 -0.26997992 -0.42994457 -3.782662 0.6564026 1.0555071 0.020460375 0.1701754 -0.35679922 0.17363638 -1.9251665 0.643645 -0.90575045 1.1351078 -0.2144966
1753 -0.47598013 -0.9095308 1.0340803 2.1601055 -3.0282116 -1.1576109 0.99120396 -0.26181287 2.7154274 -1.4758154 -0.9551786 -0.12249834 2.2086403 -0.10127203 -1.1871034 -2.4863176 2.6052933 -2.435984 2.3511493 -0.32784304 3.748576 -1.9603624 0.5469452 -1.8155702 -1.0375069 0.5902499 -0.5044423 1.7252128 2.5373323 1.1300962 -0.920377 1.3995641 1.4383768 0.71554357 -0.8546267 -0.58927447 -0.98053265 -0.51273805 0.1396142 -2.2088125 2.252402 1.4133217 1.1559196 -1.0393387 -1.2489984 0.63963205 -0.000408431 -0.22682102 -0.55080813 -1.1136945 0.6711739 -3.8069685 -2.9521334 1.8834015 1.301939 0.33783308 1.0494694 0.8167509 -0.57178247 -1.5175574 -0.18536115 -1.2317646 1.0166203 0.35796744
97 -0.53645813 -0.7926293 1.2138286 2.1495998 -3.220841 -1.0532646 1.0265858 -0.22929844 2.9388425 -1.6195308 -0.93116397 -0.2203784 2.2358181 0.015519606 -1.4800118 -2.736022 2.9134774 -2.6552236 2.5532093 -0.010703213 4.1695986 -2.1676555 0.5739969 -2.0312085 -1.1233728 0.4948781 -0.43224692 2.0758102 2.262264 1.1768708 -0.8346983 1.446042 1.4092479 0.61574113 -0.7848474 -0.66712785 -0.90768796 -0.39536837 0.0874179 -2.3922977 2.4448721 1.6858602 1.2312249 -1.0670363 -1.3218963 0.83482635 0.14343981 -0.2651855 -0.8584935 -1.2841293 0.59599346 -4.186031 -3.1145694 2.1024022 1.1795449 0.37509155 0.88843054 1.0344547 -0.7597717 -1.4758776 -0.4067148 -1.2953361 1.1421251 0.58586204
82 -0.40319812 -0.13153805 1.2364422 -0.09033273 1.0979882 0.619119 -0.44737652 1.5937506 -0.69559413 -2.0369575 1.7646744 2.2499523 0.31596592 -0.062255345 1.924129 -0.47101673 2.7478116 -1.091427 2.9754212 -0.92883694 -1.121359 0.23963334 0.42133883 -0.5885887 1.6647658 -0.81735474 -3.617034 0.33682743 -0.24452604 -0.8524086 0.6272295 -0.46301666 -3.8801737 -0.20659018 2.8404315 -1.6024925 -0.5713713 -0.03814985 -0.10621997 0.88670737 3.9067929 0.21717338 0.756037 -1.7863445 -6.5313077 2.5179946 0.011185326 0.5170595 1.9063579 -0.6819201 0.03370205 0.3587139 -0.15177648 -1.2749939 -1.1843876 -0.87937355 1.4546708 -0.9319956 1.5819849 -0.016189728 -0.89740056 -2.1648235 1.0431495 0.5121087
46 -1.5960816 -4.549299 -1.4963933 1.4073808 -1.1099977 0.27294704 0.020289635 3.3883858 -1.6213728 -1.4263334 -1.7318133 -1.1469619 1.2538928 -0.92578787 -0.05520454 0.34819275 3.3602438 -1.3323381 0.1821337 -1.6446067 2.2707403 -1.3906473 0.9960905 0.6747301 -0.87787634 1.2215865 -1.8055669 0.9927803 1.5251893 0.009794644 1.445177 -0.55916697 -1.1710451 -0.21073836 1.2578361 0.21800023 1.3338693 -0.82392067 1.6943593 -1.4890935 1.1535814 0.4098572 -0.1374614 0.77167785 1.4428762 -0.03780581 0.66668904 -0.69455224 0.17319514 -0.64925593 0.9211664 -0.021570519 0.55292696 -0.4966202 0.015369516 2.0260136 1.8889967 2.2237875 -0.9306115 -2.760358 -2.194451 -1.1857002 -0.81181985 -0.6609763
2174 -1.1325651 -4.5632577 -1.3862069 1.4720443 -0.8974139 -0.04850434 0.17627528 3.191355 -1.6940303 -1.6776215 -1.7433847 -0.9783759 1.1812029 -0.62479633 0.11130393 0.35913205 3.153004 -1.5880762 0.7694313 -1.7129129 2.3437355 -1.7040725 0.980886 0.2228703 -0.6339379 1.0571225 -1.5343349 0.61481047 2.027867 0.40843388 1.0953879 -0.47097427 -1.3726695 -0.06420009 0.8902463 0.24719976 0.66680306 -1.0060154 1.8813244 -1.9054738 1.2716328 0.3375117 -0.22518924 0.31063503 1.311988 -0.622163 0.08772025 -1.1584396 0.5585059 -0.45010892 1.2176588 -0.13737929 -0.010674516 -0.48971173 0.11443871 2.0337055 2.0701127 2.228458 -0.69646096 -3.3316653 -1.9908013 -0.985562 -0.751023 -0.83801335
56 -2.700751 -2.4807847 -1.7075185 1.926824 -0.7474665 1.3618777 1.774613 -0.6889753 -4.631734 0.7948842 -0.3871746 -0.6500881 1.0738869 -3.0466418 -0.11266433 -2.0900753 3.186175 0.9821049 -1.5705773 0.37417114 -0.21845965 0.14327224 0.99596846 0.62997335 -3.9109862 -0.6118258 -2.7340841 4.7783074 1.0714105 1.9598964 2.2629247 1.4510906 1.1146109 -0.3749832 -1.907644 -2.7803404 2.7013896 0.5116569 1.7946153 2.4607387 -1.934965 0.08916205 0.23753226 1.7109549 1.1417351 1.1950037 1.9909999 2.879703 -2.1416728 -0.5280784 -1.6341655 0.5122101 1.1934352 1.0158957 0.985361 2.171045 1.110757 -0.3127042 -0.36138487 -2.6975365 -1.6047513 -2.7356331 -0.5832456 1.0890882
99 2.6807408 1.6872159 -2.390814 2.4637444 1.8501763 0.4292113 -0.7162818 1.0832732 0.060073126 0.042059507 1.9921582 -0.86710584 2.3071096 0.091119386 0.42482394 0.07036432 -2.0009239 1.7387047 1.2244428 -0.33269823 2.9497473 0.8693773 0.51661634 1.4789144 0.7681546 -1.0537163 -3.7420814 -0.68516135 0.13928576 0.7472302 0.15313473 -0.4424394 -0.47366288 -1.853504 2.0714524 -0.07549234 2.0517938 2.388351 1.5561758 -0.16315424 -0.6492356 0.6718982 1.7886817 0.5560445 -0.15852769 1.5223087 -2.2947257 -1.6293693 1.7619243 1.301464 3.701418 -0.77419883 -0.6334054 -0.42682907 1.2534148 1.4130126 -2.7425663 1.5758013 -3.7355034 1.1119398 -0.8390424 0.5509568 0.19764271 -3.1333096
50 1.647003 3.525327 -4.265573 6.510429 2.4502761 -1.0904902 0.19042471 0.3095624 2.9090776 -3.5989647 1.4526881 1.8199207 1.1906549 4.1416464 -4.509403 -0.39033118 2.637983 -2.7274482 1.5475814 -1.3031336 0.8889732 0.89780056 -0.64493006 2.730834 -0.6051342 -0.86152756 0.5921487 -1.0465821 0.802063 -7.758401 3.8192492 -0.85366976 -3.1250312 0.33597592 2.1180625 1.1964774 0.00049046136 -0.6554709 -1.8211862 3.0971346 1.8722929 -5.1215606 -3.800786 1.1627991 -6.032214 0.9196692 1.8363224 -1.0443939 -0.53756964 -2.9013245 4.3519692 -4.40119 2.3531082 -2.7766082 2.9636939 -0.47526905 3.471189 -1.7637831 3.360504 2.8014643 -0.12047622 -2.4240112 0.49922052 3.305281
69 0.74862957 -0.06037304 -1.2750437 -0.5782329 0.15255244 -0.045722153 -0.09632243 1.5901973 0.47489864 -2.0125942 -0.93426085 1.5394756 4.4433517 2.6203141 0.991425 0.78847486 1.1843339 -1.2244644 -0.2515186 -1.5529239 0.2881312 2.5031366 -0.0797274 0.73298645 1.5273706 -1.3297378 1.497612 0.09176451 0.37282836 -0.9136344 4.552673 -1.3891234 -3.6187618 0.8717076 2.202496 0.18714611 -1.6867677 0.72830206 2.4047904 1.1168399 1.1098632 -0.20146999 0.8827658 2.7356517 -1.5917608 -0.13745618 -0.025319884 -0.24667811 -0.41246706 2.3152618 1.934714 -0.5366511 1.0731237 -0.65593493 1.7454885 -0.72540975 -0.94312274 0.6401264 1.7431308 -1.8067195 0.12267865 -2.9924774 0.14723375 0.7338829
65 1.2643412 2.3237696 0.2866224 2.8455865 0.54542524 2.1824064 1.4320886 1.8535376 1.748748 1.34039 1.1807902 3.3517728 0.5202625 0.94678074 0.2743951 -0.1412652 2.878801 1.1601865 1.2426883 0.25342274 1.769083 0.4568162 0.23603204 0.34007826 3.202501 -3.1914892 -4.0806828 -0.2464415 1.4581175 -0.9200315 4.1568394 0.8235739 -2.4807088 -0.72742355 0.3572504 -0.815042 0.02421461 2.0530467 0.7675528 -0.7675643 -1.2309914 0.13512525 1.2152326 0.09584556 -1.0588518 -1.0727168 -0.40128693 -1.4813029 0.16865437 0.07956868 -2.602644 -0.9379766 -3.006998 -1.2480103 -1.8278705 -0.3899917 2.2632434 1.889332 -1.4823838 -3.7910578 -0.7692266 -1.097697 -0.8277894 1.2157977
75 0.8973764 -1.0986972 0.20737685 0.6709451 -0.67829764 1.022284 3.6512346 0.7424687 -0.071713485 0.8328118 -0.61023235 1.2590935 -0.5771336 1.190644 -1.3598757 0.32778853 2.008007 -1.937648 1.4126478 -1.6023235 3.8159611 2.5574615 -0.040063977 -0.451973 3.183431 2.2114277 0.67508596 -1.584366 1.760647 -1.1589948 0.22783789 1.2602649 -2.012437 -0.12723501 1.2105786 1.2854661 -1.2518276 0.46689904 0.06271139 0.7993283 0.7444238 -0.54718745 0.6860409 0.44030753 -0.124436826 -0.27912787 0.56441814 0.038526516 0.23439094 0.9187772 0.15296513 -0.09694667 0.542009 2.4861834 1.0721562 2.3663542 1.2030141 -0.10048302 0.59393764 -1.0513134 -2.199699 -0.50309455 3.142629 1.440102
66 -0.10965329 1.3988867 1.9020536 -0.99147046 1.4124215 -0.18908052 -0.020043021 0.9139149 0.4637334 0.382944 1.8781936 2.001866 1.0520431 0.46792603 -1.6782333 -0.7229421 1.2941916 -0.590626 1.2230462 -3.7050426 2.9268696 -1.7171569 0.09936189 1.5402222 -2.1450677 -2.4375923 -0.19633822 -0.80030346 1.030772 -0.102882475 -0.75705034 0.39477187 -0.34819055 2.039271 -2.5367324 0.5870821 0.030683773 -1.3863853 -0.1903364 0.52292734 1.4220773 -0.5969289 0.31913143 -0.855948 -0.84865534 2.0906997 -0.5193061 0.6308372 1.995198 -0.04332385 -0.19807324 -0.6989011 0.15408505 4.4848166 -0.16436921 2.258996 0.017559886 -1.8167766 -1.0288235 0.876612 0.17128807 1.3364807 -0.9401307 0.9543438
1414 1.1144726 -0.21015075 0.22944239 1.6931269 -0.3872343 -0.6002786 -0.088988595 -0.49708113 -0.45669842 0.034040097 -0.40806356 -0.78404313 3.5374336 -0.10567771 1.1789129 -0.6770081 0.65708196 0.05404549 1.545571 -0.5794066 1.7889615 -0.56194854 -2.3646653 -1.9979551 0.7168116 -0.8786046 -0.78474075 0.49973458 0.7622156 1.8364531 -0.019696673 2.2598174 -0.66592467 0.95415246 -0.3473332 0.5911601 0.2623268 -0.3026899 0.30044624 0.41597363 1.2841617 -0.7727117 0.3230958 -0.46438485 -1.4939125 -0.612097 -0.6863471 1.2013744 1.0028368 1.0623044 1.1689601 -1.0834491 -2.2380748 -0.82130766 1.6963388 -0.74983937 0.36224526 0.33743572 -0.55316395 -0.0053972793 -1.216469 -1.8523297 -1.4906868 0.32329363
2677 0.82430357 -0.6605799 -0.8233377 -0.29550773 0.049663015 -0.5732671 0.26461738 1.2281848 0.2566356 -1.2401717 -0.6624261 1.0270402 3.439426 1.8120803 0.97482175 0.6430413 1.0750816 -0.7018094 -0.27803463 -1.3568627 0.7655043 1.9370598 -0.18733211 0.42628008 1.0836482 -1.1982052 1.1000233 0.32312435 0.80650204 0.053541128 3.3502417 -1.0483831 -3.0120738 0.78847146 1.3816028 0.34956673 -1.650024 0.6380875 2.4793863 0.7001644 1.2288675 0.21965793 1.2497671 1.8668009 -1.4781848 -0.40673125 -0.25015342 -0.3517571 0.14451699 1.395995 1.1901408 -0.5280999 0.6773426 -0.4039854 2.0143547 -0.6576209 -0.49629948 -0.021841591 1.4964609 -1.8826479 -0.13116635 -2.1504443 -0.18046784 -0.025045851
802 1.0660582 -0.19195917 0.24033314 1.7372105 -0.47216952 -0.7267522 -0.1738603 -0.44835544 -0.5028519 0.018676199 -0.5080873 -0.7750974 3.664259 -0.09779112 1.2964958 -0.65901285 0.72558767 0.050310433 1.774613 -0.6879507 1.9307715 -0.48419255 -2.447503 -2.0507128 0.8125941 -0.7894205 -0.7928197 0.43565425 0.8647961 1.9220797 -0.09599722 2.3135335 -0.5835377 1.0676942 -0.38642463 0.69113004 0.20703414 -0.24914409 0.39362133 0.44953853 1.3040384 -0.85060304 0.41735426 -0.5824815 -1.5989248 -0.61339957 -0.68231523 1.2468879 1.0663892 1.0225192 1.2514409 -1.2021588 -2.3917842 -0.75555986 1.7686073 -0.7619441 0.26595384 0.32038176 -0.52232856 -0.121478856 -1.1720122 -1.9730184 -1.6230978 0.31180942
1248 1.373638 -0.9970571 0.04653324 0.9540631 -0.3455761 0.8591024 2.468718 0.20655268 -0.1570477 0.19424471 -0.60142344 1.3005129 0.1639973 0.8359755 -0.6918899 0.3575889 1.8596181 -1.6719148 1.2366631 -1.3433064 3.2857769 1.7025105 0.20623772 -0.6170097 2.595641 1.4715983 -0.0071702464 -1.5366297 1.8177174 -0.5149083 0.25990725 0.9661118 -1.4882491 0.11432382 0.39229032 0.64018106 -1.2585226 0.26972845 0.15581544 0.48657635 0.9931628 -0.40291643 0.6456853 0.40091676 0.07231831 0.13383733 0.27758467 -0.4765707 0.40804806 0.5250394 0.19987744 -0.33662003 -0.021674635 2.3994994 0.83419645 1.4490874 1.2181569 0.2224286 0.7402553 -1.1110437 -1.4336587 -0.6371647 2.522924 0.76714694
2715 1.1187 0.11487904 -0.4803383 0.56700283 -0.20027761 -0.3659157 -1.5398164 0.53760815 0.9142368 0.60077566 -1.3202031 -0.66128355 -0.17577912 0.31877014 0.64192337 -0.6712823 1.5895944 -2.3064017 -0.15661475 -2.8355446 1.3978919 0.22457366 0.91714674 0.25365695 -0.5975725 -1.2760885 -2.0340207 -0.79008156 -0.5519071 1.0590384 -0.33016253 0.5173327 0.35538357 0.7420959 -0.025180742 1.1607045 0.14584553 -1.972977 1.1612852 -1.5589987 1.3014845 -1.1458602 0.44914025 -0.73005426 -0.0985641 -0.55327654 -0.734735 0.10408027 1.6302676 -0.9820211 1.714499 0.40612376 -0.5544725 -0.64911556 1.1198149 -0.055734474 1.1328702 -0.2121328 -0.5584656 -0.0053777625 -1.0811565 -0.22322817 0.33639684 0.28096336
2843 1.1616199 0.06492011 -0.5077381 0.7125308 -0.18250896 -0.4286178 -1.4403402 0.574658 0.9261456 0.6505131 -1.3643432 -0.5382212 -0.076261446 0.28345415 0.66900986 -0.6621639 1.6599796 -2.3691556 -0.18488684 -3.0198839 1.451449 0.21643436 0.87764865 0.16786401 -0.57053566 -1.3876375 -2.1074846 -0.7996329 -0.5610901 1.0708983 -0.37363508 0.5648186 0.3247238 0.75773364 -0.031331986 1.2455542 0.07659605 -2.0795798 1.1309447 -1.520205 1.4145104 -1.0830117 0.41431844 -0.72258574 -0.1281299 -0.52073854 -0.7188634 0.0915756 1.664443 -0.9452214 1.6918602 0.31314966 -0.5828506 -0.60570204 1.1550002 -0.010368121 1.1454078 -0.17136486 -0.5100793 -0.05416696 -1.0459732 -0.23902114 0.32797405 0.27264735
2650 0.89678967 -0.3174728 -0.43455553 -0.5522824 1.5607847 -1.4495425 0.12998968 -0.70943576 0.705435 -2.0122783 -1.8627663 0.5457246 1.3629265 -0.41179913 1.9101472 -0.6709811 -0.010714139 -1.5605512 0.34916785 -0.07734754 0.9454273 0.7251906 -1.3267192 1.22373 -1.0288721 -0.35058483 -1.6633545 -0.5449704 2.1548853 0.07250199 0.4787599 0.1053964 -1.0394746 0.9779365 -1.2776132 -0.10861105 -2.1850986 0.43051994 0.21679018 0.28572503 -1.3250885 2.7161827 0.394762 -1.0932627 0.5470315 0.50256103 -0.1912255 -1.0105767 1.1133968 -1.4935262 -0.1489042 0.13975988 -1.4174484 0.88715017 -0.014015652 -0.36625028 0.35270733 0.69027853 -0.54206616 0.3247245 -0.7289611 0.22630192 -0.2276089 0.22450441
2397 1.1331455 0.1230344 -0.22595628 0.130808 0.47435734 0.07058758 -0.5751988 0.5024762 -0.42752093 -0.8009302 -1.4937463 0.019509336 2.3727674 -0.40953547 1.6879387 -0.3252062 0.3639759 -1.5426471 0.4902297 0.42166772 0.88980377 -0.21824133 -0.9988927 -0.32183608 -0.051486928 -0.43951648 -1.4775798 -1.940952 1.640852 -0.89160436 0.4402985 -1.3082341 -0.46296397 1.1293426 -0.07499591 -0.23134519 -1.0265411 0.18329398 1.0000437 1.1611998 0.7369181 1.7938495 -0.12092259 -0.7926464 1.0590571 0.34167883 -0.60278076 -0.66596264 1.1423348 -1.3663086 1.8353901 -0.8200186 -0.93622535 -1.1089625 0.32564673 0.08145219 2.6899192 0.45931658 -0.19618434 0.40266582 -0.5835656 0.038939435 -0.3109029 0.34370327
2737 0.8712174 0.42059502 -0.1850139 0.045464013 0.81482846 -0.1593172 -0.5808308 0.07326624 -0.52607876 -0.6627459 -1.5892861 -0.22433111 2.4363365 -0.5635376 1.5366546 -0.55854267 -0.28639418 -1.4935081 0.85857713 0.3518826 0.88284504 -0.1801417 -0.9957541 0.07643597 -0.074614346 -0.40162373 -1.3352066 -1.9672425 1.3488953 -0.6105489 0.10832406 -0.70697063 -0.6823728 1.6646655 -0.7060581 -0.052237194 -1.0612637 0.16070835 0.49592605 0.85859543 0.62977093 1.7868103 0.5352731 -0.57058203 1.1249154 0.1870272 -0.45896003 -0.447978 1.5449542 -1.4990739 1.8286413 -0.7859606 -1.1203393 -0.81377333 0.6664931 -0.2659222 2.718682 0.51013935 0.2713294 0.26918012 -0.32934427 0.32248914 -0.8457118 -0.07027135
2398 0.12797326 0.8545281 0.35315397 -1.1912531 1.5119356 -0.75429726 2.8948076 -1.2735863 0.3176955 -2.319139 -1.413877 -1.536904 1.1678891 -0.56036747 3.4390247 -0.73636836 -1.1147616 -1.9624912 0.7933203 1.5856098 3.1963928 -0.006809766 -2.8814216 1.8033853 -3.113387 -0.031963274 -1.5385581 -2.3570232 0.78639436 1.3108836 2.4468436 2.371152 -0.25957763 1.6572398 0.5497202 0.98056036 -6.723929 0.6674459 1.1075246 0.81024814 -4.299367 3.5680041 1.2073473 -1.6504387 0.69827783 2.5403595 -3.7872646 -1.1927376 -0.9086751 -2.2352924 -0.77106595 -1.8961151 -1.9747529 0.69321716 0.05748665 -0.25172535 -3.2452059 1.3815637 -0.4801521 0.5764578 -1.2246063 0.41182026 -1.1055908 0.709091
334 1.0885746 0.115212515 -0.48213702 0.62186986 -0.16651091 -0.4316482 -1.4513845 0.56480664 0.9371001 0.56030035 -1.2612231 -0.58434725 -0.084641375 0.294389 0.6100825 -0.6644316 1.5510545 -2.2966702 -0.18570653 -2.7783701 1.3648216 0.21267736 0.88277274 0.30027026 -0.5677973 -1.2513553 -2.033237 -0.8370571 -0.55091596 1.0281085 -0.35698763 0.5302186 0.32663077 0.76286083 -0.030524619 1.1571541 0.14293753 -1.9331683 1.1138501 -1.5354394 1.2969544 -1.1230735 0.37381 -0.7416641 -0.118251644 -0.57607746 -0.737403 0.17076021 1.6478399 -0.9647878 1.7201653 0.35471147 -0.48819005 -0.5987736 1.097333 0.0401739 1.0957586 -0.17907603 -0.52570915 -0.022811702 -1.0803257 -0.20193909 0.30933237 0.21325861
2389 0.5708128 0.671183 -0.48898634 1.0791622 1.3143681 2.2481034 1.4054937 -1.3605386 2.2110066 -1.4032623 -0.0005201232 2.0754845 2.3156676 1.5208721 0.967981 1.9385535 2.2608929 -2.423543 -2.1929529 -1.7356312 0.11217577 0.017004147 0.394179 -0.5677178 0.2922889 -1.4469004 -2.7343297 0.60672927 2.566954 1.3013995 -2.3169365 1.4395617 -0.11993707 1.1423699 -1.5932565 -1.4006197 -1.0086306 -1.5595038 0.9326686 1.0302333 0.6384105 0.5158029 2.0517368 0.35871807 -0.14825477 -2.7912352 -1.56651 3.4541411 2.9152417 -0.061816342 1.037672 -1.7918907 0.45963964 0.53188896 -1.2589288 0.41143835 0.489168 -0.07215722 0.34861186 1.320477 -1.0626264 0.3936203 -1.018284 -0.6518767
682 -0.06810562 0.20526639 0.096805744 0.64188296 0.92196023 0.8109268 2.1868777 -1.2325658 2.372996 -0.9048674 0.90450424 2.6893756 3.183822 1.2079238 -0.62458503 2.5806456 1.2078478 -2.111613 1.7647538 -2.6553185 0.035529893 0.26645747 -0.08334556 -0.017699862 0.946815 -2.0609972 -2.5088437 0.36357313 2.9491334 0.28310287 -1.5885713 0.8523971 -0.24037416 0.84991103 0.2899053 -0.25617176 -0.8738506 -1.0051885 -1.7686774 2.3416042 0.30018842 1.6006144 -0.37539577 1.3033612 -0.26405764 -2.9274127 -1.7578372 0.93793577 1.7233012 0.13498344 1.0770973 -0.92871314 -1.6392088 -0.31707895 -0.14925891 0.82289773 0.15843585 -0.36030665 1.3492515 -0.26228985 0.567896 -0.32900682 -0.76442474 0.04733009
2349 1.3034425 0.66858035 -0.7954834 1.4266182 0.65202516 0.5010104 0.06738713 -0.05946702 -0.1993571 -0.06797988 0.20316616 -0.053164892 1.1841587 0.7525826 1.1694925 0.67107916 -0.2591822 0.28906408 1.5053642 0.047470186 2.6291568 0.533015 -0.018223118 0.66831815 1.9354014 -0.42116114 -2.5001726 -0.5829481 1.1476617 0.46028543 0.36867607 -0.104268014 -0.8756869 -0.9877145 1.0243119 0.14294527 0.10515316 1.3303046 0.69824076 -0.6754943 0.037935723 -0.15104206 0.68239 1.3703866 -0.61338466 0.7240918 -1.2785231 -1.3458407 0.6169731 0.45266262 1.4948175 -1.1890817 -0.5425379 0.20223843 0.66819876 0.37915635 -1.1206682 0.8655613 -1.1697302 0.37090284 -0.28665653 -0.54840153 0.8124133 -1.974755
134 1.0741484 1.4341176 0.20034161 2.347878 -0.17462945 1.6436123 1.0090089 1.371498 1.7001836 0.4772885 0.777321 1.5937465 0.41810313 -0.008970761 0.46568134 -0.3170113 1.987878 0.16057327 0.90852654 -0.13235007 1.310425 0.41172257 0.3283574 0.32061818 2.5524817 -1.8152446 -2.9134543 -0.21338005 1.2366637 -0.46826875 3.0199757 0.6694052 -1.4408354 -0.03987531 -0.13744326 -0.17445551 -0.6759806 1.7061336 1.1462855 -0.76829576 -0.4159095 0.1744163 0.9888502 0.09985057 -1.0302966 -0.4909517 -0.50986886 -1.0836776 0.3953308 -0.02467544 -1.3825971 -1.08884 -1.9492197 -0.342172 -0.8369063 -0.48967096 2.0535843 1.2379014 -0.8616155 -2.9616325 -0.9218844 -0.41767865 -0.14103614 0.6482346
1672 1.0991242 -0.5696528 0.28621137 -1.3887142 0.8417112 -0.77540874 0.27126458 1.7846428 0.875549 -1.206373 0.79021347 -0.7686598 1.6124104 -0.046275947 -0.5755587 -0.17607974 1.2118384 -0.30699378 1.3704526 -1.4482532 2.3818827 0.3073261 0.16974881 0.7569006 1.1429272 -1.1099873 1.1968473 0.49712324 1.284934 0.44531596 1.9642589 -1.6356807 -1.342998 1.1347595 0.5192062 -0.74095494 -1.9519075 1.3380815 -0.5788651 0.5830559 0.13706517 0.78849685 0.1472225 0.5257139 -1.7893822 -0.12948121 -2.7854135 0.065861434 1.2595046 0.6196873 -0.3486749 -1.2880957 0.1893134 2.0300899 -1.1455499 -2.19416 1.9543186 -0.8046264 0.20479482 -0.39719296 0.023385763 -2.5350204 0.50441355 -1.4472324
745 2.1628246 -1.0583026 -1.1453263 1.1412709 0.24007772 0.16194859 1.1011612 1.6668929 0.1122611 1.330182 -1.0577158 2.1238554 1.006708 -0.8474466 0.9949873 0.97651106 2.9677627 -1.4637254 1.5384867 -2.804567 3.7700226 -1.6808918 -1.5111504 -0.453377 -0.44135016 -0.42209423 -2.332139 -0.5603127 0.7906757 -3.1071198 -1.3564891 1.7959732 0.45400938 0.5481092 -2.1820867 1.1708415 1.1533158 -0.5347565 3.168643 -0.5020138 2.5312433 2.7117436 -0.21618535 0.7055614 -0.012322291 -0.5048901 0.74966764 -2.7821746 0.54317296 -1.220909 3.4816475 -1.4648556 -0.2313047 -1.1579134 2.1903226 1.5173873 -0.56369334 1.9078621 2.435389 -1.9062483 1.7689816 -2.659666 -0.4837157 0.45527634
2328 0.9170967 -0.087745056 -1.1039925 1.2131754 -1.5935024 0.6540107 2.2421453 -1.7333322 2.3888433 0.23556384 -0.58315134 1.7685832 2.6539943 -2.396124 0.3303122 1.9069654 0.9923206 -0.6562396 0.795901 -2.246046 -0.031033318 -1.1804675 -0.78233486 1.4111434 -1.6168389 0.8946981 -1.9830391 -1.3008351 1.5563473 1.4734337 0.09937857 -2.4536502 -0.08585744 2.0497913 2.3576312 0.6555736 0.44263837 0.14877394 -0.34998217 -0.68528914 -0.49070835 0.80043155 0.5684251 -0.81913006 -0.8634308 1.4316491 0.38088748 -0.9082371 -0.5636427 -1.6617303 -1.3445479 -1.0820532 -1.5772858 -0.860576 0.26027438 -0.25504813 0.9989045 0.19794357 1.8881967 0.06602953 -0.7999418 -1.280723 0.726443 -0.70875734
733 1.0987313 0.64485294 0.44055292 -2.1531446 2.6731384 -1.0648879 0.923342 -0.76433307 2.2032657 -2.716512 -4.0876436 1.5719975 0.90516055 -4.193345 3.6065261 -1.631872 1.3131695 -4.6257915 -0.79558104 0.36417502 -0.32954448 1.5650852 -2.2990909 4.9002056 -1.911541 -0.9655734 -0.18294889 0.939539 3.7728193 0.9782965 1.3819407 1.1060585 -1.5554805 2.2843242 -2.6342006 -2.2100132 -1.831846 1.0742097 0.27160296 0.8325197 -2.3486955 5.5066633 -0.6079148 -2.6836195 2.3262837 1.9310608 1.1226814 -2.3131921 3.8959868 -1.8573799 -2.7429063 0.77399725 -3.002107 1.6062243 -0.5014047 -0.29369107 2.988125 4.1835656 -2.2298193 0.45524645 -0.91408515 -1.3164132 -0.8558991 1.7920094
1251 0.019748144 0.2547829 1.0260905 -0.54001725 1.4674202 -0.27221084 0.1622964 0.5907623 0.25207305 -0.07017265 0.6604969 1.3442568 0.62008494 0.19753936 -0.6377161 -0.53002965 0.92028046 -0.5613305 0.9250388 -2.4371862 2.2232141 -1.419717 -0.077864 0.6659637 -1.2654866 -1.8628054 0.37607688 -0.63207406 1.3574438 0.30602086 -1.1913862 0.14404476 -0.36877525 1.4686453 -1.6851261 0.025061712 -0.32189238 -1.3025469 -0.13753906 0.13177711 1.0780481 -0.38897213 0.39584348 -0.92811376 -1.0042181 1.3036333 -0.49654046 -0.3344781 1.2603279 -0.6734047 0.17379692 -0.9942882 -0.49797487 3.2322814 -0.15284923 1.1221176 0.36019 -1.3202327 -0.4134024 0.034761023 0.4106582 0.8988944 -0.59681034 0.68281555
116 -0.44412282 -1.6003481 0.4042639 1.9879084 0.78033286 -0.15763453 -0.86375654 -0.08568552 0.53400576 -1.9353125 -1.684258 1.8954057 1.9847255 0.48636687 1.7999653 -0.70193875 0.18225226 -0.5036972 -1.2437673 -1.09636 0.27407968 0.5424617 -1.0061461 -0.3318559 -0.50419647 0.19201991 -1.3844085 0.31553072 2.0120578 -0.5401479 0.0031869013 -0.2811942 0.36055133 -0.8476341 -0.8835578 1.1210172 -0.6919018 -0.39260638 -1.4998019 -0.36649367 -0.17304857 1.8277022 -1.693362 0.6377793 -0.18160607 0.58009696 0.06457423 -0.19394408 0.6936685 2.8727627 0.8781584 -0.42038584 -1.9607044 0.51470387 1.5324984 -0.6292576 1.2161269 -1.3476188 -0.30896446 -1.4969153 0.2626115 0.48165253 -1.1318806 0.04603675
1658 0.8353931 -0.075693615 0.031860854 0.55096745 -1.4395864 2.515564 4.88209 0.70110995 0.17335053 2.819942 -0.12228728 1.5329328 -0.72242665 0.8588886 -2.7522058 -0.2596713 1.6795477 -0.48264065 1.1699663 -2.4256759 4.8874135 3.4634213 1.1315655 0.2877511 6.079245 3.9560351 0.7927222 -3.5157192 0.6746212 -1.2096996 1.2339523 0.92831707 -3.5793693 -0.8781678 0.81632936 1.3655393 -1.8468447 1.1163292 -2.3487768 0.49413532 0.15235989 -1.3624144 0.06922526 0.90225863 0.7449263 -0.42837396 1.4511094 -0.4191416 -0.020982457 2.3970618 1.6679572 -0.43152386 1.3197324 3.7647696 0.08699649 4.387711 0.42501444 0.23015298 0.33346808 -1.6763567 -3.3367138 -0.842147 4.6726875 1.6773841
2578 0.6096539 0.039808504 -0.025923945 0.6301098 0.96351385 0.72046244 4.200462 3.0770767 3.208588 -2.9776554 -1.0332046 0.5133397 0.9626411 -1.175579 3.8115242 -2.1599615 1.3871533 1.6486984 0.2344804 -3.1154966 2.9000695 0.30387807 -1.176297 -1.0049433 -1.2820845 -2.1852956 -0.739044 0.09224284 -0.21790008 -1.764748 0.3645045 -1.9548408 4.0880203 0.38240668 0.3942832 0.9541426 -0.65489435 -0.8761281 0.88011885 0.12213918 1.290913 0.06724106 1.4517354 0.056430906 0.13182099 1.0958087 3.6065197 -0.65594167 1.2238582 -1.0160313 1.5845122 -0.7129672 -2.2169662 1.957322 1.9277337 -2.31972 2.6627579 -1.8504359 -0.8160503 0.40904096 1.5007852 -2.9469867 -1.6200007 -0.5807753
2975 -0.30454323 -0.07056883 0.8293941 0.48744786 -0.5329579 0.50289327 0.15576 0.08901261 -0.9082838 -0.65310585 -0.7722153 0.9267117 1.2404348 0.30994493 1.3005644 -0.5841016 -0.21177031 0.242376 -1.0123844 -0.5291831 0.6159039 0.17022297 0.41527897 -0.2803888 -0.069450855 0.11306941 -0.3207556 0.27641556 1.9018592 -0.19102758 0.45424232 -0.22888285 0.29195675 0.015495819 -1.0447932 0.566402 -0.4533239 -0.6932013 -0.7935863 -0.73450094 -0.18188539 1.3820213 -0.7474377 -0.13300028 -0.42393357 -1.0224011 -0.26506862 -0.5976866 0.6394124 0.99490523 0.16473162 -0.016182736 -0.652126 0.46765995 0.5546957 -1.2751882 0.62664825 -0.58444613 0.30628517 -0.9001039 -0.11527982 0.6698421 -0.63860697 -0.82354826
380 -0.1062736 -0.97963285 0.025351059 1.0332726 0.99955785 1.534605 1.4192024 1.0250353 1.2579762 -0.66811883 -0.35122415 1.9534543 2.2988565 0.68785006 -0.057899818 0.40881866 0.34047347 -1.4583174 -0.49737886 -1.2992446 -0.5159658 0.049853623 -0.7090091 -0.49555913 0.32095847 -0.50467557 -1.1748453 -0.20642853 2.1443472 0.70326155 -0.82001966 0.376207 -0.43285033 0.9846103 -0.05799356 -0.35932258 0.6317889 -1.1503078 0.6896585 -0.5775569 -1.1379712 0.60381794 0.12965801 0.7556657 -0.45640337 -1.2392524 -0.38119972 0.2912036 1.3281237 -0.8305271 1.2870526 -0.69704807 0.64961076 0.058982477 1.0297865 -0.12729913 0.16246541 0.02809836 0.41081727 -0.48781562 0.5673053 -0.5126449 0.28206742 -0.7735276
2337 0.8258086 3.282188 0.3663138 0.17385682 -2.014317 -4.9150767 -2.3105736 1.0094676 1.3560042 3.5439293 1.7404352 1.6503464 3.4618788 0.7052659 0.79598075 -0.6742714 0.9006534 -0.4257522 2.26863 1.3463048 3.9125197 3.6522927 -2.3096638 -1.2563598 -1.435924 -0.43043053 1.3222715 -1.8020287 1.4434552 0.6437472 0.29035008 -1.3758457 2.080287 -1.6433796 -2.5316415 1.5715203 -1.2713598 1.7461329 2.6791787 -0.65797186 -5.533757 -0.3536235 1.7724098 -0.03588863 -4.469444 -2.7877533 -4.5902095 -0.35954058 -0.55472285 -4.8940277 -0.64080477 4.3326383 0.10603113 -0.7275402 0.6534146 -5.153848 -2.2464159 -3.5287955 0.90568966 1.8231913 -0.90724635 -2.945093 -4.8210998 -0.7286608
1085 0.49921697 -0.43575585 -0.80720127 0.94902277 1.2418555 1.2817864 1.9655415 0.28124604 1.1164736 -0.89867383 -0.62482345 1.8752799 2.5761585 0.7514092 0.14914773 0.23329474 0.15715112 -1.2075149 -0.17188647 -0.25804955 -0.031174207 -0.47842148 -0.438163 -0.4962958 0.4623009 0.0029384242 -1.0745372 0.29692054 2.425099 0.69994205 -0.5556505 0.20801763 -0.51457137 0.56369144 0.31054595 -0.20023201 0.31985927 -0.7202024 1.1737919 0.25160417 -1.1534283 -0.10299673 0.84399045 0.6778501 -0.12665553 -1.4502059 -0.10078256 0.31745514 1.0069 -0.82338864 1.6615629 -0.78570473 0.8647202 -0.20559737 0.96545243 -0.23069662 -0.08314173 -0.12544964 -0.081921 -0.13189404 0.3938042 -0.18634032 0.004399391 -0.76189876
2532 0.69720674 -1.4679193 0.762066 -2.179035 1.543935 -0.21607977 1.6926054 2.7793453 0.95848256 -1.9914259 0.728888 -1.0976335 1.2062997 0.36970502 0.29810655 -0.86202514 0.78015655 0.179324 0.72510505 -0.85164565 3.4721315 0.3646336 1.5347481 1.194142 1.2738477 -0.47251564 1.0566403 0.47203597 2.264794 1.555938 2.7171655 -1.2308342 -1.6937108 0.9459053 1.3319223 -1.1764472 -1.3042188 1.1211234 -1.2699716 0.7023694 0.031890333 0.05784022 1.0034058 0.1938387 -1.5383477 -0.55116767 -2.7256813 1.5321497 1.2434363 1.1126108 -0.915605 -2.5149531 0.98896563 2.3805375 -2.434885 -2.8320954 2.6998205 -0.09111488 -0.33827186 -0.22742039 0.8946999 -1.4702387 -0.18568659 -1.7058458
952 1.1837457 -1.0198466 -0.44311357 1.485754 0.6997455 0.45070642 1.3694649 -0.22800922 -1.2263595 -1.3128232 -1.1515329 0.31235772 -0.056317847 -0.40983188 0.5374852 -0.10040284 0.06175459 0.9185911 -0.36994165 -1.1657242 1.9285138 0.82266414 0.115242235 0.04629478 0.24412118 -0.13426289 -0.45231256 0.3178386 0.8289919 0.109041594 -1.017181 0.008965158 0.17374143 0.15397765 1.0794077 0.18172328 -0.6946454 -0.7469763 -0.69012666 0.13667956 0.72746426 -0.67211205 0.6119875 -0.1090265 0.17744443 -0.41940314 0.43682787 0.080301605 1.1409725 0.07318476 0.483268 0.14802009 -0.79493374 0.633974 1.1332637 -0.71762484 1.5527087 -0.02250298 -0.07407797 -1.6384029 0.78811663 -1.0054721 0.759088 0.12603244
2125 -0.29767126 -0.107429616 0.5506417 1.2132419 0.26322776 -0.53240144 -0.30991662 0.043270145 -0.36421213 -0.18177767 0.29939935 -0.29220912 1.2848035 -0.514312 0.95911896 0.24667664 0.567418 -0.014651937 1.9722294 -1.2442085 -0.1271661 -0.5461322 0.8241892 -1.4732273 1.0050555 -0.56096786 0.16604123 0.50340486 0.3851174 0.9291157 0.1493419 -0.94078463 -0.28526446 2.0676796 0.7039046 -1.0226285 -1.0056732 1.6004446 0.070425294 -0.4033572 0.9038151 1.2772915 -0.97380656 0.47490215 -0.065059744 0.2617246 -0.7433691 -1.2821239 1.4295459 0.5110032 -0.22248086 -0.57793856 -1.1317445 0.97665656 -0.3916251 0.22996686 1.1992764 0.14596425 0.82012206 -1.0740377 -0.20047064 -1.1962109 -0.65478724 -0.25657275
1258 1.2781059 4.769007 0.6282171 3.4801621 -1.7154512 3.4601612 1.1622115 3.2555234 3.2108228 -0.82986736 2.6139455 1.847392 -1.5201124 -0.7796898 0.412517 -2.2874272 3.6480987 3.5346425 0.20906131 0.27432522 0.33755016 0.80847555 0.3990879 2.1402729 4.076709 -2.3362374 -3.6189144 0.1457292 1.9692726 -2.9748547 5.193349 0.652071 -1.683406 1.0261052 0.13489696 1.0233617 -0.08225508 3.8228831 1.3581164 -0.89628786 -2.193951 0.4899987 2.0293756 0.8191433 -1.1964631 -1.0793525 -0.7487931 -2.0504065 0.531886 1.1462638 -0.90266293 -1.6405034 -3.0554452 1.6786678 -2.983159 1.5629786 2.7240222 2.1525 -0.93991566 -3.7004242 -0.9523487 0.25833344 0.959003 3.1719887
1928 0.047878873 -0.2215808 0.6458131 0.5650256 0.659015 -0.54288054 -0.8395435 0.169019 -0.15748832 -0.11634812 0.46261096 -0.41267326 1.3060008 -0.45559898 0.9024982 -0.07626752 0.30346727 0.0043101492 1.9154092 -0.6256465 0.33391988 -0.21994933 1.2071002 -0.8859388 0.94773346 -0.85001916 0.42941627 0.59908867 1.0691999 0.8090535 0.18659589 -1.1063857 -0.33448544 1.6147683 0.55035967 -1.0882964 -0.9083623 1.8297377 -0.0025287846 -0.5428649 0.5606697 0.8660469 -0.8052033 0.4231404 -0.19247524 0.58200544 -1.0244861 -1.5261713 1.289513 0.36418605 -0.41531664 -0.9249092 -0.38580173 0.96651137 -0.5763484 0.14021732 1.4297363 0.29410398 0.86144537 -1.4605604 -0.31441036 -1.4171276 -0.55154246 -0.62001115
2916 0.48237577 0.16043161 -0.5387663 -0.016823374 0.57777727 0.46903247 0.47519103 -0.1815333 0.28104785 0.24281469 -0.19286329 0.8371682 0.71376425 -0.2017942 0.9735814 -0.32295483 0.6675063 -0.92984664 0.18636008 -0.71219236 0.43903905 0.1673688 -0.20876983 -0.09543333 0.5508873 -0.078701854 -0.6029077 -0.87911576 1.2414666 -0.76036537 -0.4537573 0.81348556 -0.16036677 -0.074958034 -0.6862364 0.53914213 -0.09999941 -0.22570802 0.5856263 -0.0060413326 0.49549758 0.8776824 0.07550499 -0.7109675 -0.2911217 -0.33147192 0.6515025 -0.43376115 -0.37534523 -0.20659786 1.0846227 -0.34133604 0.8445578 0.17742121 1.4753355 -0.064803794 0.21725932 0.83030957 0.37161067 -1.8250412 0.75776374 -1.1486976 -0.7140302 -0.63983417
1752 -0.036874887 0.6670975 -0.5569357 0.11043968 1.0110006 -0.18416385 -0.118100144 0.13962331 -0.62777644 -2.0700002 0.8141642 -0.0319839 1.0992846 0.57292926 0.92459995 0.10864152 0.38848534 0.07608072 1.6299242 0.15947016 1.0120469 0.9042665 -0.6808538 -0.42294714 0.1094709 -1.0158206 -1.1335834 -0.32424748 1.198857 0.44010752 0.9218797 0.34087688 -2.5012581 0.5992145 0.1691917 -0.060153447 -2.0634012 2.1976018 0.9478043 -0.253358 0.4046561 -0.5718544 1.1930743 -0.44070292 -1.3342963 -0.13076188 -0.8979908 -0.52323204 0.07358697 0.62029004 0.41107795 -0.8874391 0.55903506 1.5902932 0.03273291 -0.22244535 0.1519493 -0.9232843 0.39308205 -0.09696878 -0.20619352 -0.23589402 1.290045 0.38263938
1249 -0.20767252 -1.6269759 -0.39428714 0.0068979207 -0.0141941495 -0.13546185 0.116004 0.53208333 -0.27220777 -0.25950873 -1.2242734 0.22820693 -0.045615476 -0.45200855 -1.041424 -0.4139508 0.83243865 0.28727832 -0.000708137 -0.6542225 -0.46110243 0.5456793 -0.20362025 0.3716739 1.0097371 -0.52104264 -0.11333745 -0.42085546 0.7884691 -0.5205124 0.42765054 -0.06227685 -0.21806148 0.013240936 -0.017261483 -0.08515059 -0.10196931 -0.9743138 1.2377214 -1.0537999 1.2294617 -0.14087527 -0.45799452 0.33387667 0.777303 0.6005915 -0.7397144 0.34825826 -0.955544 0.17009763 -0.4529947 0.3410319 -1.0418987 0.31019533 -0.49012882 -1.0305227 0.7302031 -0.2326981 1.4998398 -0.042018324 0.9475862 0.16925412 -0.1128856 -0.42000425
1550 0.4534248 -1.2253832 -0.8447775 -0.034952637 -0.5060723 0.07766871 1.0915308 -0.5058497 0.8199681 -0.09385789 -0.75300574 0.029173296 0.78415257 0.51005226 1.0126015 0.5865746 0.22785622 -0.46783164 1.468658 -1.1745715 0.23755145 -0.38657632 -0.08091861 -0.7990604 0.17026003 0.31338492 -0.08854336 -0.5314312 2.0570803 -0.12798558 -0.7491015 0.090787254 -0.5360661 0.50602484 1.3218329 0.25552794 0.23052469 0.01413435 0.10711042 0.16815872 -1.1759428 -0.23097612 -0.5851153 -0.85719997 -1.0727415 -0.52931494 0.6197015 -0.08682016 0.28991923 -0.6512134 0.20168875 -0.65304875 -2.20111 -0.3707742 -0.727965 -0.5000377 -0.31920952 -0.07919192 1.1022624 -0.39054048 -0.10443598 -1.1174502 0.16039167 -0.37079138
1883 0.6195641 -0.8692254 -0.5320162 1.2410059 0.6850989 0.89673495 1.2117467 0.8141268 0.81523913 -0.28957388 -0.7476258 1.801244 2.8392015 0.23111838 0.3616775 0.3028052 0.67009896 -1.6277186 0.0819427 -1.2809187 -0.20832165 -0.11799057 -0.31056175 -0.42085338 -0.29537567 -0.034262326 -1.3386475 0.57378733 2.1274304 0.9491947 -0.7734046 0.41427812 -0.44276768 0.5118938 -0.43683168 -0.29027718 0.28939587 -0.9944134 1.0137483 0.2717636 -1.1348466 0.6622363 0.75372696 0.7654884 0.0049705813 -1.8647344 -0.0044399165 -0.07873295 1.3201532 -0.48035404 1.8689172 -0.2681741 0.50215197 -0.20854552 1.0553148 -0.3039021 0.051708244 -0.1424298 0.040108252 -0.71471876 0.042855866 -0.1379896 0.4023853 -1.0653545
237 3.8042047 -0.099864334 0.3166928 -2.5780041 -1.4918653 1.190903 0.8818751 2.1562495 -3.0449772 -3.0819716 -0.3136431 0.37402305 -0.4602284 -1.045583 -1.7915597 2.0689898 -1.1121513 2.334927 -0.93402517 0.86710596 2.6981966 -0.13420612 -2.180612 1.2763529 -4.019932 4.192639 -0.49027643 0.70639426 -1.476194 3.0369875 0.1391639 -0.07162852 2.556471 -0.896775 -2.1410067 -0.7474584 3.2665095 -2.1736608 -1.3687137 3.6180534 0.5868539 0.21142703 0.61797285 -0.6318533 1.4356343 0.32243234 -0.007037102 -2.1198323 5.0582304 2.7770889 -1.1445905 1.1883011 0.33119062 0.060620155 -0.1774818 3.4404457 2.400295 1.4327588 4.3972015 -2.2968826 0.15034042 -0.43044558 -3.9267921 1.4744349
2461 0.66624385 -0.36680916 0.7169161 1.2862364 1.1463059 0.9141378 -0.63820887 0.79221445 -0.4088571 -0.74625987 1.0981661 1.73431 1.1014408 -0.3128007 1.1408724 -0.28044942 1.6101472 -0.37280807 1.6744365 -0.86516863 -0.47658476 -0.5448378 0.07257435 -0.7788601 1.0109189 -1.0645751 -1.4014986 0.0071241446 0.98684895 -0.6347005 -0.058026742 0.17592466 -2.5801845 0.23913401 0.74444604 -0.88031185 -1.0838296 0.4655483 0.50465393 1.146896 1.9566809 0.94624233 0.39259297 -0.83567613 -3.4786088 1.3122323 -0.22659372 -0.5770101 0.8031183 -0.875941 0.27897108 -1.4047071 -0.7320606 -0.41690955 -0.37405035 -0.5002606 0.8939558 -0.036845453 1.531868 -0.07852978 0.2094674 -1.3231757 0.25275406 -0.12826855
2761 0.7085647 4.1486583 -2.5944066 -0.1835138 0.36535355 5.460086 2.0426598 2.6592863 2.894035 0.30039415 -0.056773107 -0.708401 0.20094047 -1.1217756 1.2096605 2.267102 -2.2592902 0.9442876 0.5346175 -0.2252093 -0.091831625 0.14792472 -0.055649273 -3.9513707 2.7373757 -0.26509738 -3.8208206 2.9316943 0.3025093 -2.3574274 3.9448237 0.13901274 -5.9885635 -1.0464214 -0.86717427 1.0259467 -2.106581 4.820872 -0.0434025 -0.8096247 2.4858632 1.3848497 -1.481169 0.2882432 0.9509921 0.38743535 0.012478303 -1.8262765 -0.00034063976 3.480461 1.2782941 -2.48471 -1.2688172 0.312498 1.5071231 -0.4985753 0.9020577 -0.16579553 0.0024442584 -0.29750898 -1.4170637 -0.63587147 2.2341127 1.0903516
706 0.9283383 0.00023458502 -0.7281576 0.33550435 0.839368 0.27214557 0.5657936 -0.8131209 0.15321887 0.11388702 -0.06695416 1.222706 0.5299923 0.104252465 1.1657999 0.3160061 0.83350855 -0.9000645 0.25345838 -0.9518328 1.0815363 0.027317133 -0.21088512 -0.35469458 0.046797246 -0.14381327 -0.3742194 -0.19085783 1.3161992 -0.43500292 -0.46322677 0.5253413 -0.4972478 -0.2237766 -0.48896503 0.05644586 -0.19045071 -0.33736384 0.50099415 0.19039959 1.0694027 0.33141822 0.12635694 -0.794354 0.15303873 -0.48985824 0.35266638 -1.2737151 -0.16758084 -0.5084515 0.77425116 -0.060189534 0.7781823 0.08706486 1.544088 -0.2857224 -0.025675798 0.6530401 0.15984748 -1.7163379 0.49120936 -1.1785934 -0.5990579 -0.5823372
2820 0.80041564 0.18393412 -0.75131166 0.35244957 0.68476117 0.5149293 0.3792467 0.023714004 -0.286284 0.17900221 0.3756044 0.91631794 0.99175227 -0.05110752 0.5929758 0.40319487 1.0821897 -0.48329666 0.35209197 -0.3966785 1.5832618 0.14171582 -0.43398017 -0.39719704 0.01288361 -0.22566137 -0.5858059 -0.11118857 1.5970782 -0.4792557 -0.33899382 1.276847 0.2970435 -0.093717836 -0.100425504 0.16063777 -0.052233793 -0.24408847 0.9489293 -0.046716556 0.7230697 0.5364406 -0.07464753 -0.4553225 -0.09295789 -0.65208066 0.4171878 -1.1037239 0.2066126 0.019594718 1.0833666 -0.56013113 0.6010125 -0.20899262 1.260517 0.048445128 0.57728314 0.63743526 0.58434296 -2.0625675 0.34445316 -0.45297533 -0.36233687 -0.23276262
1089 0.1522276 -1.3859115 -0.19014731 0.5329854 1.4006895 1.3517449 1.603932 -0.003170123 0.82722175 -0.900712 -0.6112787 1.7298716 2.049382 0.5084189 0.22904792 0.36781463 0.12823817 -1.5297432 -0.4629203 -1.126638 0.3019609 -0.3964572 -0.4209995 -0.74669874 -0.02145507 -0.2860237 -1.0553814 0.14714572 2.0727882 0.9236856 -1.0299368 0.827934 -0.42968172 0.87190026 -0.8710358 -0.4012862 -0.1221849 -0.9061572 0.65845007 0.14056303 -0.91900724 0.5610731 1.1351855 1.0200051 -0.010458832 -1.3365413 0.20090929 -0.27785572 1.4261025 -0.08192551 1.5139085 -0.56915116 0.44027278 -0.06050662 0.98528546 -0.34857067 -0.0018021858 -0.23475675 0.07264695 -0.827009 0.36091965 -0.3628847 0.057206474 -1.0823848
2419 5.3683977 0.08540237 -1.3423392 -0.03432432 5.3190064 0.16415863 0.2899967 1.2291598 0.8324561 1.9674884 0.5099756 -0.8267489 2.5183384 -0.30685824 0.7138776 1.30324 0.46375275 2.748883 0.3260497 1.3787514 -0.79324573 -0.8157381 6.446503 1.5593827 -0.43238246 -1.5228384 4.440578 0.8365967 -3.215209 -2.2185457 5.2257357 -1.492926 -2.4326212 -3.2250097 2.4113278 -0.969468 -3.815018 3.6780689 1.2891204 0.593561 3.3300111 -0.17398097 -0.7106739 -0.13680622 -4.379377 -1.2499859 0.11583673 -4.488909 0.50997114 0.39505726 -1.2491814 -7.22975 2.3258984 -0.62598884 0.19703034 1.6579865 1.7678216 0.44802827 -2.5054073 1.3861864 2.6350355 -0.9027052 1.7277557 3.1761463
807 0.9388327 -1.2074485 -0.880113 0.5066669 -0.025123164 0.021821404 0.9959411 -0.8634169 1.246448 -0.1950679 -0.82084125 -0.68399644 1.4163058 -0.15378952 1.20986 0.60488784 0.49290127 -0.034009933 1.3454272 -0.74481136 0.94990474 -0.5616146 -0.3042609 -0.55721045 -0.08082628 0.42660445 -1.0985129 -0.397948 2.150493 -0.20457874 -0.587961 -0.6440032 -0.97244114 0.10643886 1.5524446 -0.028683225 -0.07911036 -0.3747508 1.0700241 0.319151 -1.0082703 0.30549595 -0.26753804 -0.779767 -0.81666535 -0.25382906 0.13583113 0.0960645 -0.027150067 -1.0927368 -0.14681177 0.002475905 -1.2143787 -0.618021 -0.5860217 -0.8347754 -0.14747415 0.23699978 1.3352144 -0.29172856 -0.49418446 -0.39552084 -0.20753033 -0.7103741
1929 0.39631495 -0.18229641 -0.7279888 0.15029868 0.22024152 0.51327527 0.41857025 -0.18397252 -0.1594408 0.29817367 0.23667572 0.9639468 0.7694463 -0.5347925 1.2922716 0.07464453 1.1437489 -0.7995438 0.69197285 -1.136093 1.0467854 -0.03746225 -0.43971947 -0.15592691 0.39247233 0.23252082 -0.42362612 -0.32479006 1.2553293 -1.0331933 -0.61449486 0.92523617 -0.288373 0.14078008 -0.47534436 0.52597797 -0.44808686 -0.6408693 0.6570996 0.15373851 0.8785804 0.5007484 0.39278975 -0.65128464 -0.341057 -0.22976387 0.7014317 -0.84569293 -0.24090636 -0.13682254 0.65649474 -0.08181613 0.29908332 -0.20310214 1.6658838 0.1167949 0.23172449 0.51592004 0.34777126 -2.2347546 0.5380544 -0.85677004 -0.63347536 -0.40299955
1247 0.062287983 -0.5605725 1.0888102 0.71045554 0.5720289 -1.0156535 -0.7772836 0.41923517 0.16682833 0.24199948 0.2541819 -0.3572829 1.5564276 -0.4078887 1.3554597 -0.321316 0.40558684 0.44397515 1.6625354 -0.86919767 0.94055355 -0.20146103 1.1516439 -0.85581756 1.254787 -0.7654625 0.0023763862 0.76365536 1.0973903 1.2905333 0.6951763 -0.9035625 -0.3326508 1.7873409 0.5096783 -1.1199976 -1.2083031 2.2440894 -0.27493623 -0.5450633 0.5789731 0.98009175 -0.8389739 0.70256734 -0.5775198 0.25795883 -0.7010984 -1.2104369 2.0508885 0.48736975 -0.37259814 -0.20814364 -0.7474478 0.53216594 -0.0764471 0.12924771 0.8896147 0.15911286 1.0508832 -1.1370494 -0.77788204 -1.1741785 -0.9156684 -0.7717437
993 0.056276154 -1.3835857 -0.25798014 1.2770728 1.5493858 1.5033422 1.708431 0.33072662 0.9648237 -0.4835968 -0.4288797 2.2432413 2.2785184 1.1496998 0.44677213 -0.059596427 -0.008998652 -1.1594956 -0.47803593 -0.6451801 -0.09449525 -0.47049806 -0.20699528 -0.26863816 0.52908283 -0.11922578 -1.4503912 0.2769562 1.8051165 0.7957789 -1.0200666 -0.048022434 -0.39026812 0.69375193 -0.36104572 -0.09943402 0.11647434 -1.3969953 0.81831896 -0.31578985 -1.059842 0.60904634 0.68219143 0.8025915 -0.3376396 -1.2560409 -0.13555402 0.30269134 0.7239662 -0.9651267 1.6094524 -0.60450584 0.77687466 -0.20358261 1.3448408 -0.45917755 0.30810645 -0.30349138 0.021226205 -0.55815834 -0.21654324 -0.27827165 0.110352635 -1.6911998
1777 0.9964133 -0.30861604 -0.72508436 0.0038356015 0.8218882 0.09780283 0.6886777 -0.4365328 -0.050184406 0.1419425 -0.3166226 0.8976452 0.71508604 -0.31870264 1.2474937 0.39848706 0.96775967 -0.6030807 0.70021826 -0.64639467 0.9176471 0.27889764 -0.41949853 -0.6890861 0.14121757 0.23719488 -0.97331244 -0.16463175 1.026293 -1.1067277 -0.3812188 0.6784706 0.013760188 -0.1492218 -0.77445143 0.6077381 -0.20646207 0.19103274 1.1810136 -0.16343997 0.809725 0.6433624 0.49979168 -0.59790486 0.14609958 -0.50307125 0.87205637 -1.6144689 -0.10795583 -0.27403542 0.7246207 -0.76678175 -0.1969295 0.3066871 1.4671143 0.24907151 -0.056932397 0.7020793 0.7079314 -1.4925355 0.35534266 -1.2984874 -0.78754807 -0.024601476
1274 -0.42598403 -2.2008185 -1.8485321 -1.8186792 0.49293646 0.43106955 0.014716377 1.477916 0.61079997 -1.0121286 -2.3543751 -1.5845394 -1.5284867 -0.39180455 -2.2161384 0.5217036 2.9147677 0.47108507 -0.828895 0.75491166 -3.2527883 1.317739 -0.40813705 0.5263721 1.252149 -0.20345877 -0.9243383 -0.7869717 -0.71160996 -2.7488444 0.4622028 -0.7216138 -0.5585074 -0.020062154 1.8836164 0.036857244 3.043916 -1.8144779 4.4923806 -2.5352206 1.8016405 -0.6695468 -0.8868213 -0.13490601 1.6582042 3.1335816 -1.9381886 0.61568326 -4.132297 0.09879978 -1.997866 0.9272189 -0.5574496 0.55649334 -2.1304424 -1.5753924 -0.6788779 -1.7440856 2.3272848 0.9836072 2.130632 -0.29786366 2.2209022 0.19792466
578 0.34684217 -0.2889859 -0.23776603 -0.108873256 1.3373473 0.46645182 0.8364717 0.19375677 -0.027321475 -0.3351778 -0.025760617 0.10113648 1.76877 0.3985242 -0.16809638 -0.058408048 0.82467264 0.5311231 2.5931427 0.33798054 1.4675037 0.8619021 0.10870868 -0.1999222 0.32062694 0.85802186 -0.00581806 0.19875832 1.594131 -0.28359663 -0.81371003 0.2895383 -0.5029447 -0.22378495 -0.36561963 0.26885515 -0.022350658 -1.1216315 0.60521877 -0.29490942 -0.044872627 0.94700176 0.5960109 0.010591615 -0.58828664 -1.3142091 0.7169914 -1.2733126 1.6652379 -0.26675308 0.95809954 -0.7842315 1.1416184 0.7463526 1.2740943 -1.0210322 0.94471735 -0.11078027 0.6104598 -0.25296548 0.7516954 -0.94197375 -0.79459524 -0.21206656
1917 0.7279797 -0.49423212 -0.83598554 -0.3100654 1.1337438 -0.36064443 0.31216517 -0.051159788 0.028527057 0.29377714 -0.0023465755 0.8060709 1.4862145 -0.14070705 0.4755221 1.1800447 0.93437517 -0.4834594 1.2064445 -0.5992078 0.50581354 0.9360034 0.8788019 0.9911465 0.3436852 -0.6881764 0.070183836 0.21727902 0.9253253 -0.03732897 0.43152595 -0.5897266 0.36519173 -0.35387367 -0.16101597 -0.40731907 -1.3805292 0.5272529 -0.08962783 -0.66118336 -0.19137825 -0.37145665 -0.48652118 -0.4249195 -0.21520893 -1.3012569 -1.3559843 -0.21142447 0.70677054 0.05328064 -0.53124523 -1.2687399 0.10159833 0.8828986 0.6204338 -0.20270385 0.6631676 0.27465704 -0.1385051 -0.74677277 -0.10580368 -0.7676888 0.2759665 -0.051232416
1862 3.481695 -0.47152093 -2.4360266 2.1358676 0.32716948 0.02550427 3.6510835 2.0972981 -2.818974 -4.0949006 -3.542574 -0.38696966 0.1862555 -3.3948972 1.6146883 0.14135711 0.32365838 3.0400145 0.088543355 -0.76019335 2.0586424 1.8323909 0.7032572 0.25377384 -0.554665 -1.1153017 0.48783225 1.0045371 0.32914004 -1.9741174 -3.5068357 -1.5471816 1.9732236 2.5309887 3.0576367 1.7606759 -0.88942677 -0.05969217 -0.512797 0.028419804 0.38906714 -2.243032 4.354176 -0.8091689 0.12034238 -2.361798 -0.24697012 1.9410974 1.069011 0.12817885 0.9397424 0.46470806 -1.1668543 2.4571931 2.7550101 -1.8041772 3.1652963 -1.5482965 -1.2875406 -1.2740737 4.5655265 -3.2405794 0.41513702 0.3622088
1270 0.5593847 2.7756112 -0.91673297 -0.5999812 -4.127875 1.9566103 -1.3820086 2.3433309 -2.2521029 1.0549134 1.7462084 -0.513638 1.130912 1.2221043 1.9860431 0.18735878 -0.16182128 1.562739 3.3808475 1.0994306 -0.662528 -1.5653343 -2.5506573 1.4249703 -1.1819708 0.23269387 0.6901541 1.1650835 0.5798597 -2.122463 0.71272594 1.038528 2.061599 3.322819 0.64936084 0.015437947 -5.6442747 7.581605 -2.659918 -1.5273242 -2.1867173 3.7438407 1.5096186 2.4008656 -2.804912 2.2003536 -1.7688117 2.5529478 -0.7251167 -0.09307907 0.23985279 -2.3507504 -0.1604072 1.0867488 1.0854924 -0.12778808 1.0799723 0.2129634 -3.9434342 1.4501034 2.8772786 2.3026881 6.020975 -2.9882712
2020 2.6110358 1.0266534 0.2715924 -0.6944173 0.73439413 1.762759 1.5534761 2.3919508 1.8334852 1.8207914 0.8432036 -0.4616665 0.19818129 -0.5872189 0.4577244 2.2576501 1.1765314 -0.73668253 -0.6168755 1.8341788 -4.838867 -0.21820648 -1.964544 1.4122518 1.8267508 -1.7570819 -1.52256 -0.71980906 -1.368157 -1.6488072 -1.1319082 1.4682068 1.2958213 -0.97305036 0.45745042 -1.1832258 1.5905882 -2.8318672 2.5939975 2.2494566 0.79148185 -0.7968766 -0.8385182 -0.34610635 0.16583543 2.8454192 -1.1028954 -1.389827 -0.8788298 -2.3912332 0.9734267 2.1127806 -0.44773236 -0.9322584 -1.2909751 0.4750471 -0.98688126 -0.5026279 -0.7971969 1.1600181 1.1242514 -2.362561 1.022615 -1.2656335
2359 -1.1872596 -0.037629854 2.715236 0.989277 -1.226467 1.9691517 -0.72781503 0.5531636 -1.2729254 0.789625 -1.5508052 1.7290603 1.5706943 0.16750166 1.3313963 -1.5218467 -2.0486538 0.22757563 -3.349274 -1.5668994 1.1469295 1.2454892 0.67564213 0.20919225 -1.3198236 0.40538767 -0.29483938 0.9590197 3.3347614 -2.792169 -0.62851334 -0.9220014 -0.22993875 -0.77544636 -1.1905595 0.75750744 0.16970648 -0.81637675 -4.5848985 -1.8466643 -1.2255511 1.050678 -3.8029826 0.5359833 -0.034518898 -1.0083756 -2.2312715 -1.9997946 1.5660158 3.1327052 0.73853546 1.942535 1.1841718 1.3135873 0.7484191 -2.7781434 0.9060101 -2.2461555 -0.3993336 -1.4379214 -0.44013426 2.0861802 -3.1355748 -1.6458638
1341 3.039157 -1.5580693 -1.8788713 -0.50973094 2.2837758 -1.369784 1.4950573 2.351805 1.9857038 -0.54390985 1.4769073 -0.7752623 3.7026198 0.23343831 2.355606 0.9291001 1.4930956 2.3974915 -2.050728 0.25322583 -1.7400026 2.2154675 1.1174911 1.4387612 3.3366122 -1.8331786 4.567036 0.021974668 -1.4518788 -1.5668081 5.4658647 -2.1538997 -7.1973715 -0.15247566 1.3637251 -2.0139582 -0.3103352 3.3439982 3.325448 1.2680478 1.1360759 0.9438349 1.6523372 2.4327896 -3.1943338 0.19154148 0.10946941 0.7372039 -1.3105962 0.7896059 -0.17513214 -1.2068404 3.0789907 -1.7566422 3.3672998 -1.0620669 -1.7223762 -0.19387229 1.5868773 -2.7708817 0.1724904 -4.319361 -0.3450625 0.8226356
746 0.93529874 0.19944362 -0.7792312 0.13242805 0.50664586 0.7848236 0.68587536 -0.46569958 0.48207536 -0.0806013 0.20346875 0.65022933 0.68191224 -0.22214603 1.6279818 -0.6263631 0.6244055 -0.8013739 0.6354669 -1.0903169 1.0876535 -0.45013154 -0.47594637 0.21409366 -0.3651019 0.47254577 -0.48470274 -0.46160737 1.1898401 -0.1962145 -0.40883914 0.8097356 -0.033589635 0.11250504 -0.7506318 0.55998594 -0.43231198 -0.5972704 0.81694555 0.096378714 0.7050351 0.77544224 -0.0013515612 -0.71576124 -0.15968011 -0.47983712 0.64536893 -1.0490364 0.20619008 0.17933458 1.1220121 0.17378144 0.16091196 -0.1965933 1.3615016 -0.17930129 0.4497676 0.8414276 0.216165 -2.0960264 1.0728456 -0.46856365 -0.3846628 -1.3096253
1608 0.7033278 -1.0862814 -0.929564 0.52530384 -0.31645542 0.03765668 0.47080848 -0.85708123 1.1813109 0.13156188 -0.40333462 0.14060901 1.1014491 0.43288922 1.4342669 0.7026616 0.0031689235 0.0012292321 0.7759301 -1.3493177 -0.35754865 -0.14465125 -0.26525444 -0.8820918 0.36976036 0.3877158 -0.18569635 0.124254055 1.8596 0.107206024 -0.45814362 -0.7883909 -1.14779 0.34646216 1.7251388 0.4395512 0.56706196 -0.3377268 0.64932054 -0.37482807 -0.9883981 -0.12908567 0.009569106 -0.32591686 -1.1935157 0.0024199882 0.65892226 -0.03534282 -0.17687824 -0.93612844 -0.5265105 -0.043008894 -0.88782823 -0.16624974 -0.33419502 -0.4528649 -0.24701884 0.5772588 1.4039953 -0.7614286 -0.48904377 -0.8358769 -0.04383423 -0.15184574
1376 3.673475 0.6055979 -1.1765369 1.9551724 -3.2020426 4.276035 2.8859859 -0.9564986 -0.41843423 -7.1344824 3.9399693 -1.6586833 -0.06652888 -1.4077309 3.0982652 -3.2469373 -0.38309875 2.728289 1.2228545 -0.060191978 0.43590793 1.3795805 -0.84899855 -1.2641884 -2.9235368 0.23281255 0.7919846 1.2033346 -0.136705 0.33215418 -1.2898338 0.43245712 1.4784534 0.931239 2.534772 0.793124 0.7999488 -4.6125135 1.881321 3.2388837 1.4499605 -2.498264 0.30790994 0.059395727 3.5216608 5.532402 3.8504736 -0.39754897 -0.9493766 -2.5037534 -2.147492 4.554685 -0.3050119 2.2731369 2.0763202 -0.8845602 2.7578378 -1.7489845 -0.48255318 -3.1568284 2.6772516 -2.1840274 -0.73438007 -0.25470093
788 0.111424826 0.37159276 0.3138588 0.40954506 0.19583836 0.08001289 0.83047825 0.1569708 -0.72975653 -0.39650634 1.0082358 0.38868654 0.7842784 0.27512136 0.008205716 -0.24289012 -0.1269235 -1.1012486 0.49462396 -0.046543993 0.2719007 0.14333199 -0.07391646 0.14432482 -0.3663812 -0.32845008 -0.07654456 0.18934743 0.69574404 1.3555657 -0.20981117 -0.56680846 0.10961586 0.6066361 0.22594276 0.42538798 -0.78261274 0.43595693 0.8763888 -0.059182677 -0.97237855 1.0943353 0.6906729 0.20765844 -0.77879834 -0.1834298 -0.78922725 -0.64118063 0.26936695 -0.7297256 0.8785273 0.48294523 -1.2486714 -0.17292246 1.414024 -0.962761 1.671825 -0.38354152 1.1623566 -1.0376215 0.46047604 0.42141166 0.30616945 -0.87609863
