2996 64
4 -2.4261606 0.7715776 1.3595833 -0.97310114 0.7631521 -0.123080306 0.3436061 0.5426203 -0.8977257 0.79925555 -0.2603865 -0.3416147 -0.031586763 -0.54413366 -2.0080426 -0.43985793 -1.8366431 1.0347965 -2.8596718 -0.8736634 -1.5587585 -0.918607 -0.37710318 1.53881 0.41498652 1.0586693 2.2488086 -0.9021103 -0.29239082 2.9041247 -0.03394019 0.6410395 0.66239315 -0.5087836 -2.1322567 0.8587605 0.98925465 0.267111 -1.5300028 -1.1701965 -1.088965 0.7473755 -1.2674739 0.2576325 0.5904247 -0.5833637 0.0374832 0.73314434 -0.31047451 0.8492161 -0.47149855 0.5777152 0.19824222 0.8332099 0.54257226 -0.81822604 0.65584147 0.009701865 0.7191418 -0.32402956 0.0910592 1.7248439 -2.868954 0.40410188
22 -0.32582754 -2.1812925 -1.1630492 0.72339183 -1.2073361 0.14075293 -1.8571497 1.107197 1.2963811 0.07073608 1.3101524 0.13929519 -4.266661 0.4587642 0.8966362 1.0214539 0.527338 1.932595 0.8968217 1.0332149 -0.75487643 0.8364314 0.017477298 -1.1308635 0.63000345 0.77711356 0.49274313 0.9377933 1.207214 -2.1769848 -0.6961011 -3.1914182 -0.8006643 -1.4188098 3.0192657 -1.1592729 2.0352962 -1.1339123 0.23391849 2.657208 1.4469573 0.0606432 -1.1703693 0.5065867 0.60541224 3.4787154 -0.4858907 1.5407022 -3.9170923 -1.1766723 0.033719487 1.3367563 0.7801114 -0.8308153 -1.2241728 -1.5560477 -2.7874315 1.8502698 -0.9883659 -0.4287357 0.5356367 -3.1345458 1.1879799 -2.283538
3 2.1145117 -1.8571491 -1.971519 -1.2175168 2.725765 -1.5893748 -0.9845817 -2.0324183 -0.14771223 -3.6623695 3.4799023 -3.8814106 2.6628914 1.5374166 4.0961785 -0.31378117 4.415769 -0.26565152 4.4663973 1.4137108 3.4976041 1.9004259 -2.5658422 -0.5443476 -2.902757 1.0199063 -2.4461696 -1.1547198 1.0258443 0.35001346 -0.6092722 3.073554 0.39970267 5.0410094 0.24607898 0.9865064 -3.8203347 1.4213815 -1.5174615 -2.151228 -2.6888614 -0.0015931707 5.501025 2.5852418 -3.3520308 -2.1798701 1.5509125 -3.9708793 2.5011911 -1.901632 2.6337588 -0.21797906 0.090815336 -2.6803908 3.34987 1.9963108 -1.9472234 -3.615968 -2.1938512 3.4810233 -6.2165356 -1.4146767 0.70018905 -0.5363483
45 -0.2692309 4.864925 -0.36566213 -1.040045 -0.5965068 1.9042736 0.45759276 2.8200033 4.000408 -2.8312027 -0.8807 -0.08741386 1.9898977 0.8915599 -1.149207 -1.6806806 0.47583854 -0.08970203 4.8144536 -0.74024093 -5.3241186 -0.21143262 4.095884 -1.4124509 7.981003 -3.742419 -4.6933618 3.9692068 -2.1374245 -5.321797 3.8852925 2.5625653 -4.2873254 1.3224021 -1.4349071 -0.6796524 -0.10440169 2.0544474 3.58272 0.06990673 -0.20783658 0.86166936 -0.013179454 -1.79556 3.023056 -2.087964 -0.93922687 -2.5734649 1.8523277 0.5391056 -0.4818453 -2.6698735 1.5091519 2.8578339 -3.1159205 2.3463886 -3.8112981 1.0838015 -4.486857 1.198406 4.227491 2.8867555 2.8599102 4.7092557
7 1.7608324 2.1021826 -1.1911123 -6.3016944 0.26773033 0.7704648 -1.1814114 -2.0537677 0.092291646 3.672634 -3.136066 0.36526042 0.6430625 3.528806 2.9719284 2.9889123 5.51624 -1.9824796 -3.1948159 2.3337386 2.3582358 -5.055471 -1.424457 3.1157675 -1.7374407 -0.6813336 -1.4258873 1.6050196 -2.5340278 -1.4406552 3.0623221 -3.8561347 6.1176033 -3.1498828 3.0246825 4.812479 3.3886404 0.9463234 0.96197104 3.8857477 -0.35648707 1.1448478 -0.39103892 0.82651556 -0.23524307 0.016942352 -1.1361017 -1.2355944 -0.70557475 -1.6253344 3.269596 0.15821987 1.034813 1.4724352 -8.145631 -3.3797872 1.5607929 -4.0556774 -1.4661461 5.3268576 0.39290398 2.9920466 1.6827681 2.6046665
28 4.977503 2.7197497 2.432312 -1.1408454 -1.7897907 1.5204084 5.129155 -3.1156325 -5.564618 -1.1077445 -3.4743505 0.9330718 -1.0470496 1.753991 -2.748493 3.0792775 -1.5048747 0.37192777 3.542178 0.79841447 2.8586655 1.3991979 -1.7724978 -2.740987 -1.5119435 1.5220096 2.344843 2.7118485 -0.122176304 -2.9685147 -1.7442923 0.5896134 1.4546438 5.31396 0.8549882 -0.9638991 2.5923758 2.2905817 3.1348786 1.9756656 2.9972622 -0.33981737 -1.7163733 3.6886718 1.3836246 2.2525077 0.13309424 -0.4539281 1.5201694 4.978711 -5.3181653 -0.25392956 -3.2294452 0.48668897 -1.4448386 -0.13713884 6.576055 1.4540093 5.0265427 -5.5409536 -2.6071403 -2.6447272 -2.0197265 5.7090206
42 3.428233 3.7292962 2.7325943 1.737542 1.3260015 1.1176132 0.38368016 -4.2703977 0.41401958 0.12660731 2.6350586 -4.0495977 -0.4087654 -0.25158057 1.5034188 -2.5379918 -0.8807394 -1.7113991 -3.7709422 -2.958976 -0.012515796 0.84408957 -1.8900431 -0.5645042 -6.682702 -0.17338446 -3.0319343 1.4143009 1.9618298 -1.6515378 1.9935198 -3.1872785 0.44386312 -0.03257327 2.302356 -1.3907588 0.2571909 -3.470376 2.961504 -0.32141006 -5.0679536 2.8194463 -4.0641775 -3.983278 -6.251336 -6.178574 3.2466648 2.7903483 6.240786 -1.9360688 -3.692819 -0.96360624 -2.311691 1.5961003 2.1539252 -0.94990176 -0.18847148 -1.3429974 -0.112817295 -0.08618871 4.3554525 -0.6626726 0.5491921 3.1463814
23 2.724203 -0.8172144 1.664539 3.9321926 0.2445982 5.185003 -2.283895 -2.8910387 -1.4088038 0.0021838853 -4.2567635 -1.44981 3.7940054 -1.1919314 1.3250693 0.85636306 1.8170717 0.6496254 -0.7676308 4.781577 0.023949161 -0.36257055 3.436267 0.74586433 4.924144 0.9876668 -5.112624 3.2208622 -2.7469387 2.3615777 3.93563 -1.3941268 -0.49229136 3.5667331 -1.4238249 -0.61053973 -2.1175935 -1.5898374 2.6239948 2.6347277 2.3154805 -4.553118 7.10535 -4.206013 2.8233035 -2.0625412 -1.9348352 -2.6641066 -1.1132329 2.7669146 -0.31322765 -1.2783918 -0.8089018 0.15073049 4.344268 0.48814702 -0.18664326 0.8393232 -1.4123604 3.8298132 4.789512 -2.8347688 6.1672893 -1.669123
25 1.7243973 -1.3185059 -1.2580438 -1.2865206 -1.060987 -1.7251642 5.154009 -4.952052 -1.813716 -2.171858 -4.1327915 3.586592 -2.7190735 -5.371599 -2.0332873 0.83239037 -1.4541341 -3.645491 -0.66288245 -2.1259663 -2.9513288 4.134625 0.50706506 -3.9058404 -2.0171182 -3.5449355 2.1295648 -2.3162577 -0.1051759 -0.9769722 0.549291 -3.3593464 -0.4715735 -0.19531399 -2.0561745 -3.3021338 4.3187075 0.06921353 -1.0674778 -2.6100838 0.02543875 1.3463656 5.1508317 -1.8445989 4.1886086 -0.0025688834 2.5269833 -4.0344257 4.128722 -3.8394477 0.7056578 1.1715987 -1.4156872 -3.3698711 -2.1285625 1.1338444 6.865433 1.3346531 0.60096836 0.49973622 -1.7153972 -0.0024105106 -0.7277805 0.36562583
24 2.1626632 0.21198738 -2.8993194 0.073894195 -4.6575346 -4.0907555 -2.7104645 -0.063103296 0.17448373 4.0656605 -0.14920539 -2.055006 3.3670409 -2.2455547 2.825503 -3.1508744 0.5703104 -2.2872016 6.4429865 0.6039154 5.1461287 -1.7573935 -3.2146351 -1.0600278 -3.121315 -0.49008128 -0.9886697 -3.5842838 5.8415084 1.5523548 6.7915735 1.3621731 0.95683825 -0.30300447 -1.537658 4.990312 -1.7112463 -0.503574 1.403013 0.71307623 -0.75602543 -0.91989195 6.920161 -2.4429877 -7.0207157 -2.3628464 0.29274812 -3.5596747 -1.6361113 0.8330561 2.899336 1.6065692 -2.428892 -2.9148111 2.4896424 3.4449484 -1.9249939 -1.5573726 0.47810522 -0.551201 0.6448444 1.0617754 1.0944877 0.5228982
26 4.6157303 1.0221441 -5.13532 0.30847967 2.618094 -7.4634404 -2.9343524 -2.3766935 1.4002879 2.07145 1.0735184 -1.7564672 4.371883 0.7875431 -2.348251 -1.21316 1.9842726 -2.3298526 2.1970992 -0.16294631 3.9385595 -2.2458196 -3.7856936 -0.7469804 -3.5142348 2.3430765 -5.9701033 3.0744123 1.3261522 2.2936707 -0.72173005 6.4841075 0.1869205 1.2390614 -1.8367622 -3.339275 -5.3038454 -0.96804565 -0.7550914 -2.3980165 -0.8878837 1.8970277 6.1174765 1.4662228 -1.0579276 -4.217363 -3.7871351 -0.754211 2.3567414 -3.1150527 1.2109617 2.8724923 0.34065244 2.1902554 1.2976254 4.6281314 1.9473628 -1.3108156 1.615098 -1.7155701 -1.8744965 0.5268179 7.7292 -4.918816
15 -1.9266881 -2.1636493 -1.8083284 -4.6256137 -3.599291 3.2331393 -1.2005247 1.4247644 1.817266 -0.34905648 -0.37706974 2.20752 0.59127045 3.7381756 3.9280446 2.6190703 -2.983628 -0.678464 -0.8362393 1.9938089 0.88635486 -0.19888914 -0.39619973 0.38405588 7.2706494 -0.42348033 -5.194529 -3.633508 3.07678 -1.6822896 -2.7780771 2.5689778 -0.9901951 6.214493 1.7530332 -6.862086 1.3920236 -0.9647195 -0.89187986 -4.103605 -0.6439912 -2.5323162 1.2551976 -6.50073 -3.2597914 1.5086732 2.185992 1.7972238 -2.268681 -0.40924594 -3.8462617 -4.10807 1.3254237 1.181649 1.0036128 2.3288755 2.9098861 0.29002693 2.0483897 5.900185 1.8311678 1.5146849 4.3457365 1.2017177
100 0.8140865 -0.44292447 -2.9124317 -1.2707794 -3.1227937 -1.7232302 -1.1959817 -0.474999 -2.9680169 -3.4417458 -1.7311611 2.3734088 0.09820698 0.58144104 0.036440175 4.0439878 -1.1235807 -3.4261816 0.6216138 -0.48206684 0.41187823 1.2595094 0.67591965 -0.6716853 -3.3357847 -0.11676783 4.492911 6.896084 3.146112 0.37941465 -4.2827644 -2.1418557 1.6722735 -0.58723116 -2.031495 -1.3972552 -4.627337 1.627107 1.6221327 0.6568833 0.6761821 0.9898533 -2.1060665 -1.2392385 -1.0372583 2.239803 -0.48732108 -0.5945175 0.0052710962 1.8297799 3.2868292 -2.4086096 4.3570366 0.13527474 1.7279015 0.056859758 0.57978845 -1.1103662 -2.592724 0.19908245 0.22759297 1.7265599 -0.096914046 -1.9119314
33 1.8456911 0.7953478 -1.0225149 -3.6330836 2.6469407 0.4577999 1.083546 1.223762 5.5508113 -3.099122 2.1495197 -3.8117652 5.466329 1.4122494 -3.8928025 1.4546634 6.1615744 -0.9895784 1.112108 -0.19041023 -0.4527222 3.4318209 4.5451546 -6.041319 6.2216077 -4.3516645 4.196883 3.5130455 2.8877168 -0.905398 6.87983 -2.1873353 1.9320514 -3.4090545 -1.51279 -2.570501 -3.2532067 0.6883088 0.52651626 -2.8156025 0.73409796 -5.8815436 0.9875832 -5.0363636 0.80335665 0.8650913 -3.0639348 6.2501493 1.8949466 1.1635191 -4.2442055 0.60601044 1.6840261 -0.9731919 -1.6586021 -2.4088323 1.1323384 -1.9724836 5.1314807 0.5740445 1.2862178 -0.6568958 5.027734 3.2853456
55 1.8934582 -2.1207485 3.4296417 2.9389453 0.92119706 -1.090916 7.014012 -1.9420701 -2.1211019 -0.5462933 -0.98123664 0.05139546 -3.8961487 1.98157 4.3669286 -1.6963683 -1.7157437 2.5290604 2.7089503 -1.9594572 2.3193755 2.322422 -1.224613 1.3592035 -1.2727005 -5.3174114 2.5860667 -1.677926 0.1633186 1.2222979 0.019721964 1.9937316 1.4107649 -3.365821 -2.7470825 -2.633186 0.44363526 0.96417403 2.7450223 3.1366527 2.939214 0.3532522 -2.1643264 2.140675 2.3898063 -2.3474164 1.8396416 -3.5435321 -3.072106 -1.4250708 -2.5695806 -1.6174788 2.2726321 -4.010969 1.5119972 0.59862095 0.7924704 -4.8710585 4.783844 0.07039294 0.4346931 6.4397807 4.01132 -2.1205094
20 3.1856444 -2.075695 -0.46443284 3.139898 -3.8551254 0.49567932 -0.30029175 -2.8483884 -0.2613409 -1.3568535 -0.67127794 0.66480654 3.8127685 -0.89454436 -0.18562274 2.331239 -0.59415334 1.8474647 1.4599136 -3.14632 4.50613 1.0823169 1.8282555 -1.9635845 -0.7835764 -0.8606344 -1.0052568 1.136891 0.66693777 -0.7308495 2.1712377 1.0106304 5.126388 -1.4176396 4.496704 -5.0170355 -4.9426103 -6.121187 2.5506434 -4.6061625 -2.7931507 -0.2135462 4.887115 6.0969625 -3.2004635 -0.24886505 -0.48470515 -1.4000787 4.3608336 -0.79628927 -2.4379244 -0.055635117 -2.042998 5.1281657 -3.2857769 1.068418 -4.72659 1.8594531 1.8975847 6.9534054 -2.4098554 -0.27576554 -3.141453 -4.3733225
59 2.5630002 3.1705642 -2.6511734 -0.6647248 -2.550934 0.08878437 0.39423817 -3.7498221 4.050538 -8.3503065 -1.3534752 -0.7368925 -1.4357122 5.427047 -1.3581972 0.8365741 -2.3287628 -4.3172846 -0.059280097 0.23751032 4.075559 -6.442943 0.45737672 -0.53146845 -2.3580606 1.6223559 -1.733881 -1.4507089 -3.9700603 -0.8866498 3.5325375 1.5979995 0.16784488 -3.032641 -3.2509935 -3.369469 -3.7203364 -2.97109 -7.857109 2.0785036 -5.426736 -1.2312791 -0.6006431 -2.346569 2.4901958 5.6373587 4.6013207 1.0273545 -2.9408712 3.889771 -1.9054899 4.473155 -5.969601 -1.0011802 -0.26442003 -4.756101 0.12334606 -1.8365623 -3.6746764 -0.70646375 -1.2862972 0.84618586 -0.009380266 -0.9926179
37 2.47119 1.2098125 -2.8325186 0.046509385 -0.8762809 -1.9653305 -1.2284945 2.2044966 -4.224513 -3.944276 -2.0053859 4.3289776 1.1534791 6.0615506 3.8357162 1.9999455 0.52040476 -2.0802984 2.3329244 3.8292103 0.4334374 -1.1437969 0.22336532 -1.8621167 3.5191746 -6.4017253 -0.83623075 -2.099852 -1.6395744 3.4846613 1.0782061 0.20662096 -0.12465381 -1.6553986 3.6253035 1.4921112 -2.8293774 -3.57536 3.485509 0.021300256 1.1774201 -4.4740376 1.5911385 -0.09828936 2.540176 -0.5749131 0.26139623 -0.58894813 1.0791007 -2.926831 -4.33413 -0.8772964 -1.8410965 2.9892166 0.042440753 1.5907826 1.4237599 -1.2336695 -3.0271292 -1.1512897 3.671693 -0.021185491 -1.4918944 4.035097
36 4.76159 -2.0853238 2.2480843 1.1799538 0.7432638 -5.295527 -5.912854 0.73344094 -2.0594404 -4.1431966 -5.4937973 1.5988578 3.2414339 3.9815426 -1.4292117 -0.94667685 -7.575037 0.3020072 2.494457 -1.0397563 0.9533494 1.6188642 1.6655307 -3.1090102 0.32753536 -1.2247384 0.51501644 -5.3255677 -2.6214774 -2.9554484 -1.4037752 -1.933625 2.1760693 -1.1076212 3.431851 1.8835213 -1.8827636 2.7029788 7.2385902 -0.57759464 2.8457358 2.2498677 1.8857663 0.54872596 5.970497 0.4244019 0.96102667 2.9779963 -1.1226786 -1.290983 -2.6262853 -0.23902978 -2.5072312 -0.6367254 -2.318615 -2.1495655 4.7893414 -2.29 -2.190601 -1.0929167 1.0266584 -1.5575284 1.1935284 2.1003075
5 2.405876 -4.7922406 -3.291526 3.9172215 1.6304013 4.877376 -1.0112166 1.463026 -3.209243 -3.3797448 4.0865607 4.6681604 2.1181755 -1.0759418 0.36595184 0.6105374 -1.7425386 -1.4559568 -0.41410407 -4.6769447 0.33515722 -1.2600255 2.264981 4.676502 2.8844702 2.8441546 1.5272635 3.273165 -3.0025475 1.6593877 -1.3473864 -3.701023 0.91675663 -5.679404 -3.616923 0.6122749 2.9550202 2.5355668 1.3508843 -0.23854946 0.00558912 1.814783 -0.47016388 -1.3714398 -3.084385 -3.984928 2.043822 -0.40930545 -0.31382373 0.2154586 -5.1952558 2.968101 0.63211644 -1.25544 -2.394164 3.496577 -0.21318659 -2.4735913 3.1244576 -1.057982 -1.198006 1.2048581 4.4854054 8.049492
87 4.21955 2.064992 0.8536017 0.55751085 -4.3144593 1.2042267 -0.5882158 -0.6078861 0.47190282 0.06638438 1.8494577 1.4103805 -0.77419245 2.1041603 3.0448532 0.14040284 0.34141055 -3.6083589 -0.08656265 -0.8494549 -4.6003785 1.6585563 0.87644607 3.1911516 0.35490638 5.0330243 -1.4288412 -2.1483655 -0.18135524 -0.22778822 -1.7791634 -0.35598582 -1.7708237 0.32882625 2.6569874 -3.1747143 -2.026938 -0.5088968 1.930988 -3.517425 3.3694413 -3.1706815 0.56029725 -1.4784131 2.3111968 0.06475105 -0.057129346 1.4002256 -1.8605226 3.401996 -2.0938778 -2.1010573 0.45948327 -0.7562001 -4.6085534 0.25007552 1.6976768 0.74194455 0.8880007 -3.8322914 -1.1821593 2.4438517 -1.6494015 1.1759647
1 0.6798698 3.1325188 0.21467458 -0.3003518 1.3265076 2.911596 -0.2617574 -0.24836801 -2.6063068 -2.092453 -0.17305748 2.3417106 0.9974971 -0.24816372 0.5561379 2.1615798 -2.530721 -0.32995957 -3.9993267 -0.6527792 2.6298568 -0.3799101 1.8686028 -0.17052379 -2.4644299 -6.7653456 -3.4804287 0.71737105 1.8153377 2.9963915 -1.0146823 4.145245 0.8470379 -0.27604613 2.5480804 -0.13113399 -1.1456114 -0.94550693 4.671624 -0.5776534 -1.727554 -1.1607032 -1.7287804 -0.2011094 0.14391331 0.10357075 2.657382 -2.560246 -0.9755192 3.9914916 -4.9718676 -2.4147906 0.6199397 -5.411417 -0.2252295 0.5940903 1.3238316 -0.7539398 4.854559 -7.436492 -1.5316885 2.8754888 0.8557145 1.7685715
40 4.7999244 2.212032 -6.3726635 1.1855235 -1.5284386 1.7984291 0.21905078 -0.7579337 -1.1240145 -1.3391114 -2.10377 2.8437414 1.370275 1.9892137 4.129566 0.24595985 3.1735396 -1.8106135 -3.3736992 -3.997203 2.3591228 2.0845695 2.246648 -2.4289732 1.2712568 -0.8519157 -1.3565964 -0.25303522 -2.4132667 -3.541069 1.1029917 2.0224793 0.11664936 -2.603921 -1.5023329 0.69209206 -3.4437604 0.78464836 4.874301 -1.1549113 3.69903 -1.401511 -1.7933416 -0.17233376 3.7191145 1.15684 2.4372408 -0.59630173 -1.9656354 -0.5309173 -0.68146807 -0.06553088 0.09559458 0.1384108 0.6506015 1.8490286 -2.0835726 0.97644275 3.514532 -1.9591358 2.6229496 -0.5803129 -0.46131292 4.680582
14 1.950427 0.9349035 1.4046832 1.5855972 -1.873169 -1.8175496 2.1115482 -3.2422805 -2.387284 4.820714 1.2119273 0.9122715 1.9249246 1.9854264 1.6470605 3.1728172 -2.3823626 0.046155427 -2.5938253 -5.2524395 4.280165 -0.8825438 1.4937478 0.64885217 0.10935357 -1.6187233 2.163165 0.28409123 -1.6342411 1.0324593 2.0301516 -1.5922078 4.121177 3.0820334 -1.3490664 -0.27874747 -1.4064839 7.314246 -1.5784061 -1.201549 4.658897 -2.8635926 1.884295 0.4477741 0.63595724 -0.14443494 3.1020854 3.5293956 0.49028406 -0.15071872 -2.0592458 -2.792383 -2.470797 0.013925629 0.5668129 2.311773 -1.6311972 4.0988874 0.3328013 -6.319453 -1.6910177 2.0142076 -1.732045 3.1796398
92 1.2407193 1.654989 -1.659095 2.4441679 -0.2651879 0.7415919 0.07478201 -2.697139 -0.39852643 -1.3997701 3.3670905 2.7798152 -0.8563216 -0.5234444 -0.7529097 -0.06109237 -1.5317054 1.7918714 -2.1377966 0.8152349 -2.345242 0.86509556 -1.8257943 0.95684046 2.5918865 -3.4258344 -0.531147 -3.1177511 2.1039755 -0.045615654 -0.5414322 -1.1332486 1.952507 -2.6662183 -1.6969944 -0.6906205 -4.3173428 0.6940032 -0.9272958 7.731156 0.56287456 0.899556 0.2881837 -1.5972184 -2.3194864 0.55235606 -0.13741352 1.0761449 1.4917022 2.6902006 -0.049347285 -0.829328 -1.9962289 -1.2087251 0.022406874 2.7069168 -0.3080207 -1.151423 -0.35772833 0.9910259 1.8529001 1.1900691 -2.9303145 3.695561
63 -2.8877573 2.3291805 -0.60020673 1.2416146 3.030411 -1.2996391 0.29199427 -3.58616 0.69711655 -0.068296984 -1.9362254 1.8875406 -1.1499326 2.071836 0.37961757 -1.4375273 3.0804048 -0.47604614 0.37607324 -0.07718693 2.9189525 3.0350585 -1.191305 0.5376944 -2.593472 -2.5135574 -3.0503478 -2.1579192 0.69015694 1.5711308 1.696619 0.05764154 -1.2039945 2.2042625 1.3908491 -1.1596119 -2.8310962 2.294573 2.369776 2.0896215 -0.6225985 -1.1436639 0.40863818 0.25974178 -2.558554 -0.30645987 3.9198294 1.8969605 1.8063956 -0.46973917 -1.0603553 -2.1560068 0.43042633 0.8399975 -0.8299291 -0.20205906 -0.6416516 0.23665152 -0.9203692 4.1694436 -1.7680846 2.761436 0.039780743 -1.4376143
67 3.0316281 -1.7829105 -1.2571318 -0.693665 1.4222729 -2.319191 -2.4269385 0.8895348 1.576723 -2.5921307 -2.7938857 -0.55115193 1.2310604 -1.6949315 0.54876834 -2.6868184 -2.5291238 1.9461908 2.3547473 -0.72326124 -3.1578355 -3.3595014 1.1026534 -0.0056664767 3.2376702 -4.416975 2.1133995 1.9082434 -1.002999 -4.111824 4.65355 -1.2276888 -1.7845633 2.7822537 0.9088305 -1.1252491 -3.0746448 -1.5260483 -6.200465 1.2583375 2.62056 -2.3828354 -4.94478 -2.50731 -1.1714259 -0.6383476 -2.6730292 -2.7940547 3.121124 -1.2698327 -0.6905193 -0.7819775 4.179551 -0.49526975 -3.6403613 -0.15331714 3.3992765 1.1007855 1.4283882 0.20833795 2.4132457 -0.5398385 0.5428676 1.116758
27 2.3635762 0.9942079 1.4530854 0.13723181 0.66459596 0.48712492 2.1195703 0.20444983 0.92794186 -3.002094 1.554043 1.701355 1.9515285 0.26000515 -2.4380233 -0.8399099 -0.18871318 -2.1391623 2.5994163 0.28659323 1.078341 -0.6831551 0.33817795 0.36579853 -0.7966032 -6.0336323 -3.504535 1.8587695 -2.2867084 5.4707017 1.3885347 0.6625282 0.47827765 -0.02934112 4.3933716 1.4447339 -2.625583 -0.5511821 -0.7629129 0.19580586 -2.979261 1.9589616 3.521353 1.343962 -5.6580157 -1.5176219 -3.165784 -1.059401 0.10865572 -0.55662084 -1.5949621 -2.1581328 1.1984936 -3.1250155 -0.9713402 1.9776919 2.2534585 -2.09836 -0.6142935 -3.2702136 -3.5346441 1.832587 2.8535392 -3.0120976
43 5.7789173 -2.7011378 -3.2217336 -5.429852 -3.4809062 0.9315372 -3.5709903 -4.1641054 1.1394713 0.120085105 -0.44301993 1.4049239 0.10028643 -0.3167168 1.2094631 -2.5415928 -2.9847436 1.7325994 0.43958664 0.5606698 0.04671389 -0.26034528 -0.8831999 -1.6547239 -0.24844357 -3.5345962 1.6679385 -2.014819 -3.3252106 3.0416234 3.1999145 -0.094934 -3.889585 -4.351695 -5.096521 -4.7643185 2.1686206 -0.010062944 2.9952717 0.48044023 -1.8483216 1.8986374 -0.83185214 3.6372259 -3.9679177 -0.09218209 2.925552 3.0444803 0.8996436 0.07019603 2.7562456 -2.5405943 0.89338 -0.46054462 0.05744725 -4.932984 2.5636356 -0.0009586596 -2.285481 -0.35157457 0.06518343 1.8159311 1.8688767 -1.0495228
12 4.6738486 2.413426 -2.4720953 -4.6734066 8.113905 0.6963304 -2.173917 1.2220474 0.33706975 -0.0443853 -0.6832221 1.6142261 2.0753262 -1.9634001 -1.6551517 1.6377782 0.032457948 -2.2261224 4.259973 -4.1124454 -2.3673642 -5.9361005 0.7266972 -3.8321686 -3.434022 -4.2278695 1.9302721 1.75745 -1.3588339 2.7139173 -0.07294681 -3.1968884 -5.189911 0.4794334 -2.4693968 -5.0340333 2.919675 -5.977075 0.6241848 3.6938024 3.5263624 -3.7722342 -0.16721624 -1.0435718 3.317521 1.3498982 2.864367 -2.11653 1.6969172 -0.4598716 2.786628 -1.2004943 0.68262887 3.4646158 -0.19194013 2.6453457 -4.048236 -0.8281282 3.6886916 3.0781872 0.9601397 2.1299076 -0.14656574 0.841031
16 3.279759 -0.71228313 -2.4890463 -3.3609414 -0.50373334 2.2870543 -2.7799923 3.0203722 5.7927103 0.56449485 3.4316518 3.7639816 -2.3323467 1.9461493 0.9772459 -5.0621147 -2.6763742 -1.634951 0.4503725 0.34047803 -0.6512402 2.435981 0.36166894 3.6398559 2.0448744 -1.3881327 -3.4086158 1.4316733 1.1568264 3.209112 2.2682018 -2.932678 1.5488696 5.1666074 3.152673 -2.0341249 -3.097184 -1.9595996 3.898267 -2.4778461 2.5235925 -3.792055 -3.2287736 -0.20684512 1.5598315 3.9961915 3.319753 -2.9015837 3.4403143 1.1141244 -1.7422458 -2.049576 -0.33589095 -1.2965837 -1.3577785 2.038328 0.64896643 3.8739069 -0.53206617 -0.3630929 3.7877293 5.1905546 4.483109 -0.5996963
21 0.75641584 -3.0131469 -0.7651885 2.7798254 -1.9057682 -0.86335254 0.73531073 -0.9398335 -0.6276282 -0.86035997 0.12432316 1.1123617 0.23544551 1.6914625 -1.0317715 3.2944722 -0.50978255 -1.6419997 2.0200655 0.044585347 1.3312572 1.7969155 -1.1521369 -3.3927789 -0.83198464 -2.164209 -1.1367483 -1.9019564 -2.8722193 1.1696918 5.3599877 -1.7055475 -1.9864954 2.7111492 0.24109007 0.69766647 -1.1690298 2.508383 2.5926132 -1.2556653 -0.47256052 -0.03187529 0.30474797 -0.11036089 4.614168 -1.8552701 3.4204476 -2.520342 -2.0071979 -2.8710482 -0.3341685 -1.6262217 1.2797096 1.4835702 -4.993965 -0.67598397 5.0659 -2.647847 -0.43369305 -0.37409022 0.6305629 -3.8864007 0.90479416 1.478248
30 1.9928597 0.6713403 -1.0523466 3.9756753 0.9585421 -1.080998 0.764518 -0.71144336 -2.965204 0.5501154 -4.0444593 4.1602416 1.2004782 -0.16749255 1.3350817 4.110021 -0.7273816 -2.8360884 0.93488955 -2.9627488 -2.5075037 -3.9972034 1.9868132 -5.718151 -0.6350592 -3.0255127 1.1770442 0.20203967 -1.4699965 -1.5066638 0.4185436 0.10500469 0.6975076 2.1571362 0.50456065 -0.2996119 3.5637176 -0.40390754 -1.1177496 -0.54713845 0.4209192 -1.7074531 5.7596045 0.12716384 1.0045542 -1.7861686 1.2300564 0.33511224 -1.8590294 0.34205776 -0.311612 1.7147654 -5.863502 -1.5759917 -0.501968 4.0190134 3.8351963 -1.7589799 -1.4019867 -3.654283 1.2577199 0.50023526 0.791911 3.3887448
29 3.7237723 1.3558538 0.9247752 2.981737 1.257158 -0.53510517 -1.8943009 -2.8127754 -0.04629255 1.2973671 -0.2958753 1.4113685 0.0074252663 0.44028798 1.2045474 1.168863 1.235263 -2.744624 -2.2609847 0.16511117 2.9502125 -0.60260904 1.4946171 -1.6208949 -3.7866085 -1.321106 -2.8881774 0.5152835 3.226018 -2.7735374 0.5272697 -2.6238732 1.6154414 -2.2319558 1.9791294 -1.714201 -1.0894371 1.2250831 0.8824342 -2.9110193 0.2127526 1.1998149 -3.2692945 0.14672084 -3.2746918 -0.75386435 -2.7038407 -0.94549024 -1.8638514 -0.121201694 -0.766131 1.2956036 1.1473458 -0.10532082 1.6355368 -3.3897665 0.57804245 -1.9848559 -2.1792645 2.2952259 4.49281 3.38476 -1.0371346 2.44553
51 0.6864626 0.45619574 0.732737 3.0681 0.2780164 -2.7154984 -1.2330701 -1.4153161 -3.1312783 -1.1066612 -1.3017664 0.75662154 1.4918203 -2.3493748 -0.19890217 2.1472673 4.4008565 -1.9047154 2.1661165 2.5432959 1.7927924 -2.0975983 2.3291786 0.3370217 -2.302865 0.78684515 -3.860013 0.5897264 5.228585 -0.13543275 2.2308292 6.285307 -0.48585498 -3.5507426 -1.1795259 -0.8254285 -0.69216 0.593949 1.2864951 -2.3318727 -0.76386905 2.7132063 7.72117 2.3047013 -0.69751817 -3.8382828 -0.44334716 2.1355147 -0.78238505 1.9599185 -1.2150841 -1.1491336 0.32443392 0.312607 0.4039118 3.0341132 -2.632496 -3.592987 -1.4534844 3.591299 0.39116767 -2.0998728 2.1744413 -0.46518955
60 2.638636 4.134163 -1.1534395 -2.169231 -4.35587 0.8309553 -0.09538298 3.202668 -0.40983152 0.7549576 0.69373995 1.4331579 1.5177829 1.0375386 0.38949916 -1.2930858 1.8559062 -2.2800083 -4.274022 2.0428994 -0.48010498 -0.7830355 -4.162466 -1.8647768 0.7406317 1.1623964 1.9815259 -1.1350244 5.2415066 1.0887631 -1.6997229 0.6077509 1.2190742 -0.37373987 -3.6436048 -4.218771 -5.2889714 1.1425935 3.532221 2.757733 6.2663846 0.94244605 -0.4731542 0.36868694 3.858638 -2.4956875 0.029887998 -4.3206267 3.221693 -0.71709293 -4.3427315 -2.0597186 -0.19508022 0.28445566 -1.0604016 -2.472169 -0.2685443 -0.5680439 -2.3654978 -2.7871385 -0.66848683 -4.4036455 3.1568768 -1.0700524
61 0.41193953 -0.45992634 -0.51753634 -1.2985166 -0.71391636 -0.7431578 -0.49293557 0.08107773 4.9991293 0.5914164 -0.54628384 -1.2761989 -0.7532916 0.5093679 -3.258925 -3.3769507 -2.3822198 -0.7623482 -2.6356697 3.2422793 -1.6628426 -3.4808686 0.6159471 -2.2546906 -0.24322362 -2.7823322 -2.7682068 1.5681556 2.253715 0.6706469 1.8675079 -2.4163992 3.1776962 -0.9789197 -0.5858101 -2.62382 -3.725353 -2.0098133 0.10848483 3.0627313 0.788324 2.312447 2.5001843 3.4360564 -3.345512 1.9243256 -0.7521478 -2.74049 -1.2371911 -0.91217136 1.8434645 -3.8253903 2.8974855 -1.1205086 1.2997216 4.925625 -1.2271788 -1.3922557 -0.04906868 -0.8297025 -0.93450177 -2.281227 -0.90836406 5.0012684
19 2.561375 0.11751013 1.6024662 0.15834226 -2.1307385 -2.5379598 2.1886346 -2.1926534 -0.49337864 -1.1646279 3.1029165 -1.2205639 0.3828356 -4.6622066 0.2955695 -0.53644323 0.32800686 -1.1926298 0.2770019 -0.9034285 0.74604243 -2.6723645 1.2228495 0.48407426 -3.7104483 -1.0308305 -3.174798 1.035633 1.0482514 2.7602985 0.36253852 -3.7583468 -1.2255999 3.3178637 -0.38937113 -1.9965177 -2.2112296 1.0669798 0.76276773 0.2829766 2.4177682 5.20394 -3.3539448 -0.7255725 1.3422092 -0.5851409 -0.5956236 0.69031996 -2.1985595 -2.986074 -4.44509 0.9132703 -0.044198222 0.665946 -0.38514552 0.02411322 -2.0092428 -2.1473172 -1.3101351 4.116063 -0.22784656 -2.6210191 -0.9067698 1.3852592
13 0.93744594 0.72734135 -0.8559963 -0.14343373 1.083681 -1.4535995 -1.3861401 -4.045498 3.6907175 -0.6788981 -2.280953 1.967789 3.5314171 -3.5296483 3.8336768 -2.8110607 2.0341585 -2.3428519 2.4525397 1.110261 2.7759562 0.14772253 0.3306667 -0.016228776 -2.0572226 3.1042256 -0.78191954 0.6282931 4.987282 2.1561923 0.6170338 0.059962865 -0.08234434 -2.0451589 2.5231848 -2.6829157 -1.7709432 -2.7045197 2.3827589 -1.4671072 -2.6368353 0.34899956 -0.17426218 2.3051798 -4.344732 -4.5759516 0.34886622 -0.40915433 0.65411246 0.70293736 -1.1370031 2.219244 -1.213045 -0.008125978 1.4334118 3.0236278 -1.4727283 -4.022811 -2.0508795 0.4737314 -0.46214622 -0.6408204 2.5981781 2.5293944
62 0.3823743 -1.328874 -0.5374171 -0.51534146 -2.740646 -1.7770603 1.9933096 -4.196265 -0.4587601 0.43999863 -0.9457894 -3.9562078 -0.3229354 0.06969837 1.4669695 0.085989006 -0.38983122 -1.7557853 -1.1148136 0.07069945 -1.3441205 -2.8251185 -0.61412686 1.7010598 0.95012075 -4.791214 -0.53474206 0.8045449 0.689074 -1.9299129 -3.5859063 -1.3629357 -1.6444925 -2.2458286 -1.1008888 0.67919874 -1.6662272 -1.979765 0.04943457 -1.7147192 1.281835 -0.89090616 0.45396382 2.0647423 0.1230216 0.5076457 -1.5522006 -3.5306897 -3.8995574 0.25796276 -2.1005409 -1.2035553 2.590324 1.9276717 1.8100864 -3.3251305 -0.7711657 0.11449811 -0.8018227 0.36730358 -5.2613506 -1.5850165 3.5234742 4.447781
64 -0.37854403 -2.3617296 1.0807877 0.39594978 -3.3545995 -0.3967324 0.031430226 1.4018906 1.6957469 0.5389467 1.9902395 -0.3938412 -0.065852284 2.3777332 -0.9539412 -0.58110315 2.0312252 -1.8257074 -1.1638026 -0.7559251 -1.1478983 1.6026325 0.25369498 3.2504892 0.45856515 1.4295958 1.0364021 0.9049368 -1.0819253 -1.4700754 -0.95300835 -2.7912006 -0.9347026 -2.52949 0.54549223 -0.53827333 -0.25523528 -2.6483734 0.13872539 -1.3455528 0.9365974 -0.34193605 -0.46198484 0.386654 0.661468 -0.055126783 -0.59969044 -1.4120928 -2.5325828 1.8781207 -0.6379094 -1.2758342 -1.068647 -1.7903137 1.0259454 1.685093 3.4937067 -0.80937433 -1.1056982 -2.7749088 1.3562979 0.21224333 -2.2056105 -2.7716713
35 4.505703 -1.0523765 0.4434582 -2.5795152 -0.5203018 1.7941726 0.506955 -2.4860282 1.5666497 -0.15388931 1.600912 0.035078645 -3.6926773 -4.4745455 3.4802146 4.451867 -2.9919503 -5.643303 3.6589844 0.029170992 2.240369 -1.2516563 0.18309207 -2.765745 3.6988049 0.89756656 -0.49138674 -0.2173174 -2.2062497 -0.4201205 1.7050525 1.7834758 3.5809023 -1.5883573 1.0327911 -0.5197433 1.006244 -1.3835552 -1.3580468 -0.24650799 -0.036801897 -1.9056795 0.8072627 -0.51474625 3.3730617 -0.8256081 -0.09748664 1.7276323 2.6178322 -0.92766714 -4.1575937 -3.0634391 1.1691841 1.026874 0.28563723 -2.951163 1.884326 -2.8320115 -2.3764205 -1.1271765 0.8490995 0.15355957 0.94222504 3.0490408
77 -1.6502441 0.9884429 1.3275282 1.0787336 3.542553 -0.09461059 -2.2645888 1.426204 2.770838 -0.2116841 -4.604994 -0.664093 1.1542623 0.65421784 1.376826 0.453159 0.7757191 -2.60955 4.125632 -1.7752352 -1.1442513 -3.2327914 4.549459 -3.874859 0.7635033 -2.1583 0.67846996 2.4632885 -1.9335356 0.23349936 2.0023592 0.72725105 2.1520488 1.7890404 0.49529886 -2.4633658 0.27398416 1.7785302 -2.8562162 -0.76087064 0.84937185 2.2032235 -1.7430747 -0.74987656 0.7523157 -0.09203065 -2.437327 -1.5384312 2.37744 -0.054461453 -3.1469944 -1.3191373 -0.1904749 1.6459938 -0.29805145 3.4655006 1.7190232 -0.3894601 0.65234613 -0.6795478 2.603719 -0.89771956 1.0169909 -1.2365172
88 4.812107 0.41123754 -0.029946327 1.6078054 0.40966898 -2.142867 -4.9181004 2.2286656 2.994851 1.6637089 -1.7994603 -0.03401636 0.72061455 0.36346644 0.4956153 -2.9785767 2.4107938 -5.472463 -0.58804643 -4.8497553 3.233656 2.6744406 1.9569162 2.2430096 -0.8702523 -4.296453 -2.2214675 -0.4773204 -4.0351114 1.9163105 -0.50253004 -0.026939813 -0.3578716 0.3760074 -0.71634674 3.132 2.4126248 -5.1105695 2.27381 -1.1742488 3.1539092 -2.7945964 0.13037033 -2.1924164 -1.1574224 -2.2474496 1.3061727 0.98091245 3.4238667 -2.7410216 2.215177 1.9136639 2.5844047 -1.354266 1.7900174 1.4929193 0.63457114 0.82750344 -2.5385895 0.048634242 -3.4043617 -0.54600066 1.2927648 0.10329551
53 1.1959099 -0.6370477 -2.8164093 -2.2281482 2.5636992 1.2352204 -2.4672139 -1.1405643 -3.805853 3.0015554 -1.1235226 -1.1067756 -2.6307483 -2.0184574 0.12717405 1.7761959 -0.8951417 -2.765989 3.5427709 1.8516734 -0.62759864 0.31296995 4.424622 1.3611205 1.8418092 -1.5970451 0.61427957 -2.3049283 -0.23486635 -0.70144707 4.071977 -0.9258069 0.3683348 -0.9418663 -0.7432907 -0.17350449 -0.898495 0.062207986 -3.1789277 0.23616081 0.41472316 -2.488286 -4.3179326 0.9918738 1.860108 -3.4123886 -3.049021 -1.8671217 1.6469138 -0.9689947 -1.2526084 -1.4721191 -2.4139078 2.4061184 -1.0837991 0.77236855 2.2732646 -1.4432827 -0.17170174 0.36868823 0.6092814 -0.51741457 1.6881407 -2.016036
74 4.416743 2.9782565 -1.8392361 2.748026 3.9253263 1.6962059 2.1054814 -0.7162845 -0.52310306 -3.3280673 -1.3880911 0.53081876 1.0786084 -3.119618 -0.14840645 0.74507195 -1.5398679 -2.3099968 5.878729 1.4920843 -2.3568015 -1.5584193 -1.829033 -2.6285021 -1.7831107 -2.0880873 -3.1090655 2.4859493 1.3562424 1.3882875 1.6310294 1.8783585 -0.34885752 4.3265066 1.0035897 -1.6862348 -2.6089857 1.3188396 -1.930021 0.31502897 1.0898302 -1.2021813 -1.6997857 -3.1754293 -2.7477727 2.0522451 0.21757 -0.6196605 3.081868 -1.3444616 -1.8497823 -0.30314204 3.7359288 -0.36233228 -3.4988365 -2.2379172 -3.4576664 -1.113313 -0.9381349 1.6854277 0.92626745 -2.1713636 2.0124836 7.208376
0 1.9069536 -1.0465897 0.953809 0.5780456 1.3851225 -5.847724 1.4698913 -3.014556 1.7992245 0.63699645 -1.0719556 2.3278089 7.790968 5.7243013 -1.2358451 0.39528525 0.23682544 -3.415843 0.9373673 2.1570039 3.326752 -2.406695 3.220202 -0.09358309 -1.4739959 1.5396026 -0.86977226 -1.1932901 3.4803133 0.07871023 3.0378397 5.294007 0.8325318 0.5983612 -4.530963 1.3286277 0.59359705 -5.4954696 3.1051643 -4.9277134 1.4798342 3.048744 1.8816892 1.5776275 -1.1842134 -5.532749 -2.7446425 -0.07778263 0.20405863 -0.6964143 1.6429007 -1.808599 4.8217397 -1.1065404 -1.4602239 1.4032955 -6.030563 2.7771235 -2.5565758 1.9383996 -2.5182967 -2.5881097 3.0409462 1.3643235
17 0.35908532 1.2792238 -2.420338 -1.1757058 -0.7635026 0.8352541 0.18073003 -1.6366763 4.7524734 4.6396403 1.3939413 4.49684 -1.1093792 -2.053184 3.4770389 -0.17284945 1.1787841 -4.946746 1.9225351 -2.2601717 -0.79104495 1.3668919 1.7476422 -0.6109402 4.3442636 -1.808717 -2.0497687 -1.7088573 -0.9233276 1.0600969 -0.88973486 -2.301007 3.6566544 5.396609 2.255953 -3.095541 -2.3164597 0.90190846 2.5495071 -1.218483 2.5336127 -2.779326 -0.746038 1.8575207 0.5268772 -0.31552842 3.3093958 4.238378 -1.1250358 1.7418158 -1.8047596 -4.2236686 -1.6427613 0.84400415 0.82641923 1.0401654 -2.2882805 1.6194623 -2.4389691 0.37373343 0.63856524 1.8865612 1.9580353 -2.0302217
47 4.0249968 3.5658686 2.0319574 1.4444294 -4.3493147 -4.097392 1.6052616 1.3094054 1.097254 -4.930262 -1.8797185 0.39134163 -0.94357467 -0.90224874 1.2055542 0.65942216 4.256845 2.639524 0.7887589 1.0644058 0.77100974 -1.8525031 -2.0397274 -2.9555652 4.178457 0.78401715 -2.9476235 0.7241693 2.0141032 1.988698 -1.4464076 -1.7074541 0.8055378 -0.41947109 -2.1871119 1.2879256 -3.9191313 -4.5701876 -3.8383605 3.0681634 1.0820919 0.57380307 -1.5912489 0.74512696 -0.109674886 -2.0096552 1.0589108 1.116376 0.5350119 0.31571186 1.8872969 2.3792183 1.7813972 2.795374 1.6481285 0.8556899 0.6309512 1.162912 -3.2048364 6.1461797 -2.3151286 1.5283927 1.7319715 1.0187801
52 1.0788457 3.1144617 0.38089103 0.68562365 0.46847132 0.9109612 -0.6543866 -0.07854689 1.8536812 -2.697928 1.3720784 0.9695765 2.4428906 0.082529925 2.053973 -0.048485417 2.7806516 0.97691274 4.330622 -1.772824 1.1558101 0.41294095 0.21711868 0.65028507 0.5178776 -0.06987835 -1.575645 2.3257914 -1.7208424 -1.9259108 1.4290322 2.7016253 -5.4175277 1.5764942 -0.59324646 -2.4421175 -1.7946674 0.26538974 -0.8546536 -1.8000517 3.623626 -1.2734922 3.769684 -2.7986891 -3.6077569 0.8989805 -2.2232301 -2.6448674 3.3296518 -2.0857568 0.9300493 -0.54847944 3.0746582 0.1068235 -0.5943684 0.53027034 -0.68340355 -3.252008 -2.0595763 2.2994084 -0.8786101 -0.3167966 -0.18842846 2.436087
76 2.9577587 -0.6002621 2.355946 2.886554 0.5124691 -2.1595001 -1.1265234 -0.9942563 1.9303168 0.5787482 -0.3051366 -1.4727999 5.53571 -1.5402609 1.850028 -1.5264035 3.1352508 -1.6098828 2.7281277 -0.32491928 0.94953936 1.1927339 -4.187561 -2.7110531 1.2044057 -2.3113046 0.24927457 -0.8045716 -0.81703377 3.099346 -0.15829173 5.865072 -0.62258685 1.5183179 -0.16264592 1.4093934 3.543629 -0.5950654 3.2626653 1.3175523 1.1054145 -2.7262437 0.018535826 -1.1972344 -2.3828933 0.23128125 -1.0119163 2.7551608 2.2254047 0.6264138 1.0640742 -2.8230445 -1.5331583 -2.2926874 -0.06271377 -0.021229476 -0.8335451 1.2721899 0.0021356489 -1.2950239 -0.7465854 -3.172523 -2.6888378 -0.8054747
71 2.8577907 0.8417341 1.0711243 2.2302146 1.5571654 -1.5137496 1.2368984 0.59845114 -1.5845958 -0.9064242 0.35341692 -0.8098979 2.6958563 -1.8136578 2.6242716 -0.04240735 1.655013 -1.9957699 1.2703699 0.02668412 0.8911188 1.2268418 1.5198758 -1.749666 -0.37610078 1.0046865 -0.56777227 -2.9991035 3.534606 -1.9058874 -0.5066385 -2.1309836 0.25142416 -0.013294382 0.6043886 -2.7853348 -1.7811495 -0.12024093 -0.9236946 0.49913666 1.4476142 0.7870972 2.8114822 0.71889234 0.11100228 0.88056403 3.0257583 -2.3336558 1.5272962 -3.8813853 3.4295003 -1.5231365 0.48478016 -3.9392922 -1.4074358 3.197606 4.1106825 1.2587677 -0.79700667 0.07142485 -0.5254288 -0.17457265 1.5460021 -2.0733156
91 0.68058234 -0.7892669 0.78118145 2.8763175 0.4445424 0.2464977 -0.9317374 -0.7098105 -1.5623436 -0.6986575 -0.45135427 2.1464977 2.6745892 1.9495226 1.8382739 0.38325515 -1.515467 -0.5418796 -3.0575306 -1.3031287 1.5537658 1.509408 -0.66831094 -0.9552509 1.2163254 -1.4881219 -0.49190181 0.5843558 2.3191001 -1.5382651 1.1642096 0.15524167 -1.6326116 -2.0017788 -1.2320651 2.1469598 0.12226082 1.242821 -3.548372 -3.8285818 -0.72778624 1.7621659 -0.7510081 1.3753016 -0.33387202 0.25686705 0.01686716 -2.0510557 0.86145294 2.689923 1.7338519 0.75449616 0.34070525 1.4103985 0.72463906 -0.8149554 2.611108 -0.602835 0.76260734 0.1358369 2.5699258 2.3001556 -0.78219616 -1.2284184
70 1.6652113 -1.7024266 0.30203924 1.9256084 1.8792646 -1.59402 2.151666 -0.70246434 -0.52795416 -2.4755354 -0.08145443 0.40787977 2.3468976 -2.4238763 3.561003 0.73405164 1.6611215 -3.8080304 -0.8554707 2.311087 1.460597 3.3851233 -0.3634068 -0.44182652 -0.81086576 -1.3754253 -1.310761 -2.790026 3.3949153 -0.7038215 -0.6694629 -0.36755568 0.31485468 0.8083994 -1.5108833 -0.8624387 -2.0458224 -1.134337 -0.46864745 -1.1037256 -1.3050861 3.4529831 3.0293293 0.5740128 0.7735784 2.7948775 1.6781336 -3.4607043 1.3300737 -2.0833445 0.7447113 -0.33892024 0.08349403 -2.1176236 -1.08719 1.9795477 3.2362237 2.2192035 -1.3257356 0.10797308 -1.6034802 -1.9529593 1.4456806 -0.34598604
48 2.1907961 -2.0306242 -1.622868 -0.85403776 -1.2096976 2.2264447 0.83390945 1.4181111 -1.2534125 0.052083746 -0.7845605 -1.0393382 -0.7693497 2.4874847 0.19705752 -2.7483585 1.641596 -5.4024143 -2.6438446 0.7528289 -2.8592188 -1.1662909 -3.1261394 -6.83504 2.5729368 2.1386404 -0.11117993 -1.8066956 -2.0107305 -0.88294834 1.8965085 -0.300423 -0.20806484 -2.1226382 0.024491679 1.9400201 -3.6665626 -3.1183507 2.0575695 4.0950565 0.006927481 3.0350947 -0.45335072 1.5554597 -0.8783272 0.41018844 -3.2625458 -1.9921539 -5.1562867 -2.8784337 -3.976786 -3.6638324 2.1995487 -1.1524816 0.38783377 -1.8404601 1.410982 0.9857649 3.1625495 5.6483083 0.5566416 1.4975556 0.19054344 -1.3058364
49 2.1677337 0.14701408 0.16455872 2.5935388 0.71702874 0.02973744 -0.55716103 2.4725454 -3.2198617 -1.601917 -5.698114 -2.28423 0.47274643 -0.34428754 -0.28108615 -1.2799733 -2.023493 0.8749884 -0.60570616 -0.69608974 -0.77427197 0.55714077 0.24845807 2.850173 0.8406248 -3.2453802 0.16578531 -1.3407758 -0.99792325 1.9610318 -2.8132548 0.17578807 1.2197078 -0.061934926 2.1256702 0.5803508 -1.1669284 0.4326339 -0.24428715 -0.5212897 0.80016446 -2.1475782 3.4871905 0.27198467 0.18945651 1.3330178 2.308052 2.3577566 0.31003293 1.6174086 0.43432108 -0.65132594 -3.6193724 2.5940592 0.19399652 1.0990837 2.9455712 -1.8297939 -0.2728549 -2.5388362 2.4980628 -1.0551833 0.3710983 1.3960994
31 -2.571456 -1.2718122 4.3592606 2.3492417 0.73644614 -1.4157367 -0.52678627 0.9121532 -4.1875253 2.0108705 1.2565995 -1.5553381 -0.59507406 -1.8490132 2.4014544 -0.29517406 -1.110079 0.38165137 3.22494 1.032542 6.849471 0.39202872 -0.72497874 0.8988318 0.38378397 -0.94931775 -1.3563533 0.44623142 -3.8786194 0.67890686 5.433071 -2.6445007 0.025224723 -0.04214373 -4.820315 -3.8575966 1.3691648 -0.39221445 -0.38235757 1.6061503 0.10628439 3.7130058 0.90296143 0.10007656 0.3488297 -0.39183038 2.9763181 1.2770804 2.751303 -0.05897744 -6.0809126 -2.704729 3.6385283 -2.6038296 0.09195216 -1.3303494 2.665638 -0.46310997 -2.8153756 -1.9699436 -0.8374001 5.176584 0.747081 2.4434412
68 -1.718711 -2.72619 -2.523084 0.85550374 -1.7619159 -0.3225846 -1.5145125 -0.57669705 0.7823018 -0.79286236 -0.84461594 0.15242253 -3.1284757 -1.7583257 -2.7680297 -0.28260854 0.052414723 0.19412702 0.3443022 0.14395972 0.4225747 1.6736839 -1.5875083 2.3659916 -0.26860806 -0.1261059 -0.7106839 -0.71230185 -1.1657352 0.5703047 -0.86629415 0.091978945 0.013609813 -0.3249869 -1.3058336 -0.018264653 0.13641913 -2.206145 1.2962991 0.69549024 0.031486485 0.726499 -1.6114632 -1.6926961 0.5157977 1.0602574 -1.7645186 1.1470094 -0.2836147 0.8428211 -0.16836375 -1.5593938 -0.00770746 0.7883112 -1.1054759 -2.4221265 -2.051783 -1.535594 2.3326192 -0.84939903 -0.35860363 -0.9430259 -1.1594225 -0.5277773
11 0.86319095 0.62309456 -0.70482093 3.7639184 -1.945315 1.4345796 -2.5647242 0.11852099 1.8468388 -1.0051559 -1.5645381 0.50845355 -1.3516443 2.8340244 0.44272786 -1.1065264 4.353126 -1.6656789 1.6128814 -0.49881065 -0.8674209 0.76512814 1.2371807 -2.1794274 -0.25938106 -2.058445 -3.093002 4.3312306 -2.7577188 3.8161116 3.1375031 0.076453924 -1.3971912 2.210905 1.1330277 -1.379884 1.5775324 1.2810583 -0.97039 -2.489802 1.1656841 -4.6487384 2.5852935 -2.1105556 -3.0483174 -3.1355608 1.4871463 -1.7096106 -0.25814292 1.942324 2.005723 -1.8354154 3.499048 3.3356657 -1.0093592 -3.3950586 0.13683543 -2.6630046 2.140984 1.6460441 2.5710356 -1.3444183 0.91748875 2.1054668
38 3.838818 -0.36924595 1.5819284 -3.4595466 -0.19051613 -2.071843 -2.8846211 -0.8388689 -2.0873485 -0.008670172 4.157415 -1.478028 -4.7428436 -0.04968593 -0.75648 0.6457419 1.3468672 -2.1002488 -1.8470247 -1.5333699 -2.737498 -6.033139 1.8647588 -2.233181 -2.2648268 -5.7040453 -1.7305247 0.621695 2.7225454 0.53146094 -3.1821115 0.72708285 -2.2638876 -2.6198752 1.8216385 1.5427903 0.39200008 0.6653549 -0.3713438 0.00044328952 2.9957366 -1.1467998 1.7433528 0.34763286 0.31819212 -0.40539306 0.59860146 -1.4095042 -4.020751 2.085502 -0.16157505 -3.7185566 -2.8004217 0.7532918 -0.5699732 -0.23424235 1.2991748 -1.4258399 0.8106153 3.852808 -0.5894743 -2.2483807 1.4487805 -1.1551327
39 0.5829392 2.078716 0.024797292 0.8221585 0.31634092 3.0061376 -2.551778 -3.1972842 2.7725072 2.5944977 2.0985613 -1.0740703 -1.5882282 0.15817565 -0.38736203 -0.683076 -1.5677339 1.6085019 -0.013199093 -4.2842503 4.0459046 2.2436953 1.1538434 -2.9502544 -2.0358298 2.8898146 -0.50902337 1.5583411 -0.07327841 -1.157079 -0.16482012 -3.4212704 1.7427689 -0.43137404 1.8240281 -1.6606089 -0.005472074 -1.0015962 1.7454123 2.1754682 -1.6811415 3.2006717 -4.616286 -4.479948 -1.4543669 -0.8502765 1.6335478 -1.3555923 0.9819094 0.83127344 0.9610986 0.20819768 0.0035774445 -0.89649415 -1.0639123 -1.5042568 3.4298837 -0.22155224 0.6756708 2.2098596 0.09644661 0.017787274 -0.3326537 0.42458153
82 0.9172866 0.3744405 -1.1416528 -0.0010300985 1.6569464 1.2514166 -2.1935987 0.9549465 0.21315804 -0.6848567 -0.37441665 3.9440155 -2.4373515 0.13404898 0.83916545 -2.219877 0.7229861 -0.9600189 2.5667033 -1.0119269 -0.6609142 0.15689498 2.229874 -0.55332386 -0.4292554 -1.3662182 -1.5790762 0.9289834 -1.9352448 -0.11353868 1.0715992 3.2964988 -0.6591161 -1.0187231 1.7669001 -1.3870237 -2.36605 0.22354332 -0.87788296 0.26183274 4.366458 -0.05477021 0.76106435 -3.5844436 -3.2604454 1.658867 -2.0988798 0.01648607 2.0472174 -0.21325997 -1.8123456 -2.1462915 1.3333356 -0.89794517 -1.4782332 -1.402069 -0.29526043 0.2043531 0.015138337 1.2546608 -0.31394324 -3.5631218 -0.33965385 3.2641563
2191 1.9494578 -2.3054495 0.8331992 1.0842726 0.3668476 0.2773891 -0.61708677 2.5898972 1.8266147 1.4064012 -4.402575 -0.3521194 -0.40586612 0.3100873 -2.2874699 2.94008 0.42944476 -1.3030756 -0.391806 -1.5743748 1.0712409 -1.5575825 -0.08103879 -0.40722272 0.5269503 -0.35971215 -1.4553031 1.2260394 0.5325793 0.17973883 -1.233942 1.3909944 0.44350782 1.33067 0.31250066 0.29870993 -3.0057485 -0.707351 1.7365885 -2.1937523 0.2992096 0.05996815 -2.205944 -1.9839678 0.35425544 -1.2961026 0.6368678 -0.34467673 2.2551873 -0.15271066 -0.37921238 -3.9581308 -2.0402749 -0.91540617 1.6174833 2.0264654 -0.9522316 0.75336 -1.4208653 0.06310519 0.29520005 -2.2172754 1.5867221 -1.2753286
95 2.0860567 -2.4415185 0.7079924 1.1821363 0.30401167 0.24942243 -0.6100202 3.0254602 2.094657 1.5771914 -4.7750616 -0.5973561 -0.5505082 0.4796153 -2.4572706 3.3073308 0.46798176 -1.2573001 -0.38444802 -1.2985655 1.2045903 -1.7389188 -0.07575148 -0.32866532 0.48254204 -0.16892952 -1.4711715 1.2825768 0.409615 -0.0739343 -1.0191609 1.6944275 0.41651437 1.4118128 0.6085724 0.35809192 -3.0005817 -0.6837724 1.8892839 -2.3979151 0.3802681 0.28083867 -2.4683616 -1.9909502 0.4603811 -1.1800997 0.736968 -0.55168676 2.4771414 -0.12021196 -0.41335467 -4.1686926 -2.2476597 -1.2634956 1.5566589 2.1229427 -1.2291082 0.97446215 -1.6244562 0.39695936 0.26946923 -2.4407706 1.9922998 -1.1321625
1753 -0.5469609 -2.8436694 0.8355879 2.1127543 -1.2027446 -2.1586182 1.2730141 -0.059407916 2.3785915 -0.5194576 -1.8388762 0.19858082 2.046455 -1.2888336 -1.4333647 -1.6851548 0.40162995 -2.5631404 1.2661338 -1.601917 1.2439749 -0.6229609 1.2935913 -1.271223 -0.51294416 1.2003064 -0.032942243 1.53706 3.2430289 2.0271857 -0.9355937 0.5287186 0.43940434 0.9533766 -2.223865 -1.1285346 -0.026107972 0.7628801 0.22517708 -0.9989546 0.47398522 0.8855737 2.5468726 0.6827762 -0.9931588 0.20503078 -1.3657926 1.7074218 1.6762453 -0.5571761 0.6756292 -1.7296419 -3.241464 0.63466495 0.8802112 0.019159531 1.6380951 0.05517567 -1.5293341 -1.0812595 1.0594338 -2.4735193 0.02905946 0.27431288
97 -0.5415373 -2.8447318 0.87020534 2.0771372 -1.0751563 -2.0473032 1.2470555 -0.13510485 2.1519113 -0.4486399 -1.900963 0.28283688 1.9857475 -1.3461347 -1.4865578 -1.6365403 0.3815556 -2.6281924 1.2380315 -1.7974845 1.2080631 -0.54431546 1.2099136 -1.1804157 -0.47957653 1.08594 0.043671336 1.4932694 3.2669947 2.1500766 -1.0198232 0.6042893 0.35790667 0.93656117 -2.316407 -0.9924159 -0.1440445 0.55625015 0.20763831 -0.95554554 0.48269957 0.8120659 2.461799 0.5492376 -0.99466133 0.19195586 -1.2657238 1.68625 1.7214277 -0.55478776 0.636808 -1.7099524 -3.132683 0.6015108 0.94813675 0.077552 1.7712365 -0.060426213 -1.4778658 -1.2260721 1.0814105 -2.3816426 -0.083686285 0.076725096
72 0.28671578 0.11375913 1.7851975 0.09408322 0.3601547 2.9954424 0.5022294 -0.9942203 -0.20276178 2.7825942 0.67245793 1.1875044 2.0297945 1.0513905 -1.1521832 -1.4570596 1.370059 -4.423179 -1.0573689 -1.6778854 2.081243 1.801485 0.2887794 1.4109308 0.05489162 0.04801043 -0.67270494 1.7928809 -1.047721 0.68124163 -0.21167557 2.711771 -0.58059615 -0.70404136 -0.54946136 0.28825814 -3.2417614 -0.7593185 1.3637978 1.206291 2.931978 -2.199737 -1.6930835 1.3337184 -2.317607 1.4769298 -0.7446622 -0.028787842 1.4037812 -1.9275731 -2.037452 -0.45403793 -3.4218364 -0.16710362 -0.38691768 0.45659193 -1.4980755 -1.482821 -2.1037765 -0.3372262 2.313494 -1.423425 1.6104082 -0.4063141
1944 0.20538402 0.04631409 1.8420982 0.13577442 0.34868327 2.8469253 0.46732005 -1.0310727 -0.26151663 2.6804588 0.5029141 1.10263 1.9169493 0.9562736 -1.164996 -1.5018942 1.4204193 -4.3261824 -1.1167847 -1.8468682 2.0230105 1.7301536 0.24014635 1.3873304 0.12255734 0.09158283 -0.6231323 1.7421627 -0.9199948 0.777893 -0.15880883 2.6240032 -0.5553518 -0.63908976 -0.6100039 0.31072897 -3.1441598 -0.79837465 1.3270288 1.2428538 2.833378 -2.1613772 -1.6988683 1.2092454 -2.2556186 1.4887155 -0.71170056 -0.06744783 1.3913087 -1.8176024 -1.978609 -0.4571448 -3.2571983 -0.12521915 -0.2416781 0.4568414 -1.4011014 -1.4348482 -2.0539396 -0.41436908 2.2487586 -1.3833607 1.5045348 -0.5404977
1642 0.77330005 -1.6238605 -0.80604255 1.7328248 -1.2849971 -1.7980119 -1.3254218 0.40669107 0.12919825 0.92714244 -3.1238596 2.914207 0.42347342 -1.4584832 -0.6991857 -1.1799546 2.6480029 -2.8224907 1.5021701 -3.0481198 1.6926129 0.22545263 2.7268403 0.33152646 0.9867094 -2.0501413 1.2910407 0.41667828 1.065773 -0.18481684 -1.4879951 0.9556114 0.22483179 2.2316413 -0.43627548 -0.25847548 -1.6864761 -0.21783023 -0.53393096 0.96129084 -0.04088774 2.0483224 0.20546779 -0.2900949 -0.3237733 -0.011315854 0.92712617 -2.0248778 1.5863576 -1.8976016 -0.00924384 -0.7056103 -0.92777234 -1.7273059 0.8337898 -1.0304228 -0.75042886 -2.8329086 0.734952 -1.4383265 -0.11516606 -1.2683669 0.4972073 -0.41744637
79 0.7356887 -1.7024792 -0.59198 1.7344395 -1.1286256 -1.6165082 -1.1233163 0.2424521 0.08922087 0.8967143 -3.0185714 2.7748322 0.45902354 -1.5227439 -0.64430594 -1.1286701 2.4586148 -2.7818265 1.4522154 -3.2502015 1.6063393 0.27767333 2.5262263 0.25817388 0.8535175 -1.9187226 1.1129119 0.28911066 1.2438501 0.049045622 -1.4459083 0.9929066 0.17002505 2.0520477 -0.6272448 -0.18696693 -1.6524384 -0.36311436 -0.49291766 0.8520254 -0.018018473 1.7626712 0.18805024 -0.33318427 -0.3860687 0.038163386 0.8702355 -1.8442242 1.5237873 -1.8189133 -0.07434079 -0.69422704 -0.85645556 -1.6405536 0.8445671 -0.86341834 -0.54946685 -2.6048162 0.70631546 -1.5219473 -0.0377067 -1.1194351 0.31202567 -0.62894
872 -3.020898 -2.5307565 2.395988 0.73461115 -0.80523914 -1.2810491 -2.3914495 -0.7486005 -0.2664565 -0.21134265 -3.6224334 1.2300323 2.8670344 0.37724116 1.4403285 -0.6994623 0.99790514 -5.1354265 1.7574126 -1.7778273 -0.06681186 0.5134291 1.6261611 0.41301224 -0.6854229 -0.5286043 -3.2798774 1.9210435 -0.516508 -2.2941718 -0.44525144 0.08341126 -1.1842835 0.06046967 -0.4481383 1.2499166 -2.738616 -1.7080272 0.52049524 -0.7490468 0.797014 0.30246118 -1.6714911 -0.7718744 0.78974223 0.4346113 0.9880195 -1.958379 0.884283 -3.4850395 -0.012716656 -2.574656 -0.6277078 -2.4733264 -0.3257655 1.4759976 -0.3002421 -1.2695433 1.9172246 0.25515157 0.14344683 -1.4797788 1.5825226 0.36731988
32 -2.8491843 -2.5294282 2.2000594 0.65135807 -0.6396141 -1.2036465 -2.1632884 -0.72089356 -0.55142444 -0.109945886 -3.4049127 1.2393293 2.6116982 0.36169505 1.2988969 -0.7167095 0.90048605 -4.7702546 1.7024417 -1.8687564 -0.0060186083 0.5475638 1.3736666 0.2031734 -0.5490091 -0.58300203 -3.0349627 1.8447468 -0.3243342 -1.8484036 -0.42141256 0.18917727 -1.1133996 0.16049631 -0.6737085 1.1271828 -2.617878 -1.6273305 0.46746552 -0.67712754 0.6819978 0.27722752 -1.556469 -0.8801074 0.6382822 0.31654602 0.9129851 -1.5766209 1.0375537 -3.2921064 -0.05332198 -2.479676 -0.6522876 -2.2077107 -0.1856412 1.4398335 -0.13136953 -1.1814165 1.5830313 0.009391275 0.23547062 -1.3612729 1.3567148 0.09155873
588 0.8827791 -1.3195002 1.3218921 1.901375 0.860014 2.563066 -1.0808443 -2.3726537 -2.0929415 2.2405088 -2.0514457 0.23873268 0.3898017 -2.116141 -1.9367789 -1.9876406 2.034659 -2.3338943 -0.2057355 -1.7571702 3.0002172 -0.2908782 0.9958791 -2.6521404 1.3731583 1.6008828 -3.2179432 -2.6533408 -0.54551023 0.25290164 0.51543903 0.69089895 -1.9109972 -0.07876603 1.4558278 -0.050973166 -0.98807526 -1.9669092 -1.0641329 -2.5664458 2.7470162 -0.5368964 0.2516629 -0.93606937 0.11590135 -0.15148002 2.4105608 1.6649266 -0.24147807 -1.2809571 0.7659699 -0.9035069 -1.9649692 1.2149421 -1.7475533 -0.40578508 1.6478564 -0.86993545 0.90582794 -2.2036977 0.59270704 -1.5382261 -0.3089501 1.1751466
86 0.9017932 -1.1521904 1.2563617 1.8856848 0.82249296 2.8306391 -1.117015 -2.4165747 -2.177339 2.3738625 -1.8879368 0.15106833 0.34673983 -2.2226017 -1.9924028 -2.132895 2.2764606 -2.3965847 -0.14792958 -1.4126484 3.1671 -0.42511356 1.1070217 -2.8202634 1.4342309 1.7803566 -3.3635452 -2.7112386 -0.8163616 -0.007158503 0.60862476 0.60767806 -2.1034925 -0.12675758 1.8007083 -0.19913189 -1.0421274 -1.9880773 -1.1557797 -2.6978073 2.9492488 -0.5156203 0.2838017 -0.8355129 0.09798101 -0.19382422 2.6723142 1.7926362 -0.352679 -1.2549995 0.82212764 -0.96230626 -2.0525982 1.277415 -2.1502814 -0.47399613 1.6955533 -0.8751134 0.957607 -2.0697935 0.5208802 -1.5837096 -0.20523131 1.331012
81 3.3732445 -0.54267627 -0.34479356 -0.06781293 2.448859 -2.004453 -2.9852006 1.7060314 2.4263165 0.9410315 -0.47330636 0.034488108 1.9901749 -2.3549418 -0.3905918 -0.8603983 1.3151336 -1.0212948 3.2852302 -1.605293 2.760615 0.068161346 0.74752706 -0.59626746 1.1296612 -3.428361 1.192659 2.875612 -0.7992757 0.47684687 4.053833 0.45372215 -2.779312 1.3454949 2.5039046 -2.9204144 -2.1135073 2.2182026 -3.2059772 1.0759413 1.9605128 0.011092979 -1.2342968 0.27222997 0.42973366 0.21538614 -1.4261793 -1.6578456 2.7753408 1.0770383 -1.1634457 -0.37547702 -1.3262352 3.005746 -1.6270099 0.19205657 2.4782226 -1.1309861 -0.8040743 -0.87357223 2.097392 0.08828403 0.6528527 -2.6581745
46 -1.4051389 -3.1892335 -0.5034797 2.6900268 -0.3444102 0.08882841 -1.0421051 -0.49770725 -1.2373437 -2.1015036 -1.3711792 1.6930462 0.6567278 -0.41271204 -0.6827862 -0.015779277 2.7571201 -1.825505 -0.33750808 -2.5205996 2.3389952 -1.5248315 0.88646644 -0.17091309 -0.24943203 0.09302208 0.15903711 0.28995192 1.6159676 -1.3129816 1.2687553 -0.93803674 -2.2056682 0.75293595 2.3343756 2.3496833 0.6799075 -0.43458885 0.8887933 -0.55663574 2.6095703 -2.4876804 0.1427476 0.5997226 1.0856631 -1.3128496 -1.3100939 0.62044394 0.47096014 -1.9647257 1.8168654 -2.8968203 -0.55024904 0.32488912 -2.067496 3.3204122 2.9431345 1.0947304 1.5167215 -3.2397943 -2.0429015 -0.5007864 -1.305082 0.63905823
56 -2.9635816 -1.3131636 0.7449981 -0.5055886 -0.5061439 0.94824517 0.26613775 2.1463456 -2.5864127 -1.1788119 0.43874022 1.6489128 0.36931655 -0.5708683 2.2181108 0.77296335 1.4812387 3.2088907 -1.5916597 -3.8163402 2.2059672 -1.5083444 0.17375241 -1.5925118 -2.6295488 1.9862694 1.7726625 1.1160864 2.3122225 -2.6014888 3.3878007 -0.456288 -1.9220241 -1.2226226 1.9442803 -2.1233165 -0.67915016 1.1168051 -0.043906722 2.957998 0.047502436 -0.5153443 0.23052819 1.2515343 4.1353955 -0.58962256 0.1589014 0.102408096 -2.0996063 0.96242964 -0.5836579 -0.8730001 0.35333893 2.9703689 1.1562651 0.4859844 3.5356872 1.7215347 1.1790156 -2.1373017 -2.092758 -0.77703446 -1.756064 1.5677788
2174 -0.9832565 -3.0545492 -0.56410927 2.9198136 -0.12963371 -0.28340128 -0.70582473 -1.1217644 -1.0221399 -1.9342395 -1.7947643 1.9413928 0.58434767 -0.49684986 -1.0653657 -0.05375937 2.6672196 -1.956778 -0.23115413 -2.4633327 2.4976752 -1.5066011 0.7957281 -0.059994027 0.15566383 -0.09432131 -0.10564338 0.10023645 1.8315074 -0.86966586 0.8985525 -0.72697735 -2.1735442 0.92498815 1.8488598 2.517957 0.57615614 -0.494586 1.1318643 -0.8788749 2.708086 -2.8250186 0.09734217 0.1259176 0.6978259 -1.5234236 -1.3648846 0.660871 0.6995064 -2.209572 1.7100827 -3.0861757 -0.7013747 0.2134173 -2.2867076 3.7681983 2.8013666 0.75342953 1.6418989 -3.3068638 -1.6150115 -0.5838563 -1.4040186 0.24504419
50 4.104848 -3.9041865 -2.5255656 0.38630223 4.187936 0.21495047 -0.5364627 1.3095053 -0.80653447 -2.5297637 -0.15618704 2.3059895 2.4474628 -1.9257269 -4.989331 1.7628168 1.158651 0.28282684 4.108414 -2.5665958 -5.435549 -0.18371256 -1.499613 0.2952411 -0.59180796 -2.4665513 1.7271831 0.9280073 -2.6471937 -5.1015706 2.768544 1.3758507 -0.14743957 -0.18757276 0.92025465 -0.07082537 -0.25131112 -2.7752762 -3.4079518 -0.55187714 2.313882 -8.54185 -6.349266 -2.492318 -3.8914347 0.41499048 -1.5405424 0.43065313 2.8930137 -1.1495502 0.04847233 -0.8376265 1.0437427 -2.7569594 -1.9204104 -2.105876 -1.8637079 -3.7909756 0.6094836 4.306086 4.6205554 -0.9814983 3.7227979 4.3434772
66 -0.26301426 1.6020253 2.8839612 -1.0405111 3.080412 -1.0557743 0.6266835 0.655232 0.041404527 0.6272805 0.59242374 2.3165784 -0.15172316 0.5909272 0.52911454 -1.5941846 0.39252323 -2.955579 2.3517783 -2.4949098 -0.40002534 -1.1212105 -0.010976498 1.8503951 -2.496453 -0.90913683 1.4852839 -0.016162388 -0.052576955 1.0309407 -0.6838256 0.29654673 1.5188651 0.43663344 -1.1216363 -0.099871196 -0.28753158 -2.5116677 0.68926764 0.4874153 1.1095299 -1.2826487 1.1935838 -1.0649115 1.1837769 2.3911533 -2.2072408 0.6217597 0.56979454 -1.9334 0.067044854 -0.6779792 -1.0785992 2.3427944 1.466757 0.77995324 -1.5174129 1.6024445 0.610284 0.12594455 0.55873525 2.266721 -0.49007112 2.115888
75 -0.2859818 -0.2697145 1.4814965 1.7058835 0.5102673 1.9468237 1.5883104 -0.8152511 -0.053595096 0.52640045 -1.9037377 0.6107976 1.3522242 -0.49948615 -0.95051354 -0.55754155 1.4977704 -2.2284994 0.13656853 0.06073332 0.12517758 0.44374174 0.1426594 1.0048724 3.6545396 1.220012 -0.7579552 1.4498929 -0.57178146 1.481205 2.9702532 0.5348828 -2.4084513 0.72302175 0.5343561 1.847515 -0.62783694 1.328852 -0.901464 0.7976118 -0.32575324 -1.2614192 1.4104538 -0.6178018 1.5591257 0.014759925 0.35955355 -0.48973754 1.5524373 -0.76222533 0.32386026 -1.7323213 -0.4517314 3.1661487 1.9848206 2.2536473 -0.024658307 1.9799271 -0.5978802 0.7197028 1.7562758 -0.1422082 4.3690886 0.03839217
65 0.4903471 1.2003295 -1.5341303 1.2235341 -1.6828794 1.7040445 0.25389007 3.2308576 0.84424007 0.010850497 1.5307914 1.3396899 -0.4097369 1.9962811 -1.9452056 -0.21699725 0.5402395 -1.9367042 1.0951896 -2.1938946 0.9704775 2.0081327 2.6043165 2.259818 0.9011451 -2.5897205 -4.4841805 1.5525051 0.5840013 -1.5733572 2.6450717 1.2208215 -0.7359316 2.1397536 -1.68956 0.770073 -1.9788377 -1.0338874 0.37165308 -0.8996282 0.07931138 -1.5502564 1.3777355 -2.1980605 0.86189264 -0.18988703 0.670962 -0.5209148 2.350539 0.23978248 -0.30442286 -2.0893955 0.8092587 0.40826952 -3.2910106 1.0533433 -0.7198685 2.3998606 -1.3271525 -0.19155498 0.74264896 0.23574431 1.8099788 0.71595705
69 1.6560329 0.7570607 -1.1835021 -0.4517036 0.022557352 -0.9218996 -0.4346343 2.3677676 3.1408312 -2.6389945 -1.6810198 2.178385 2.4128842 1.599459 1.7556516 -1.5718863 0.9891693 0.77832514 0.45118597 -2.351208 -0.3329235 0.51702625 -0.021534037 0.29003388 2.4987597 -3.5000463 2.6012914 1.1442834 -0.92670494 -2.1014726 2.9093091 0.8901568 0.5435558 1.576729 0.953607 1.2299412 -0.36262804 -1.2336363 -2.138245 1.6949695 0.7886984 -0.3332713 0.11846944 0.87915415 -2.0391092 -0.7976082 -1.3907541 0.41118336 1.1359007 1.5657105 -1.555465 -2.8307657 -1.0538844 -0.38826272 -0.071684934 -0.57959914 -3.4598114 -0.31601405 0.7924491 -1.072613 1.4845275 -1.8865657 2.6622462 0.14272343
99 3.621145 2.0147226 1.1571379 -1.0360864 1.5631292 1.1367612 -0.3705015 3.4880526 3.2329288 -2.8171415 -0.005429813 0.58366686 2.4497476 0.17536369 -0.9191029 3.9255676 -0.16515008 0.6892289 -0.03376546 0.116452895 0.46252894 0.30142322 1.5136521 1.3123658 1.6180744 0.70817226 -4.0115366 0.10961427 1.010109 0.85128075 0.40483528 -0.80252606 -1.9528403 0.73502845 1.2151486 0.1590688 1.2498752 1.1897577 0.9112169 -0.7256479 0.5288551 -1.3300915 4.16566 -2.2420208 -2.1312141 -1.0606238 -0.7062655 -0.4827329 0.5222286 0.43687984 3.0802495 -2.121017 -0.7446686 1.0206546 2.7489645 -0.6396222 -0.8332965 4.451784 -2.8208017 0.5213811 0.6277909 -1.6043706 0.3135226 -0.24820855
802 1.4954802 -0.5239575 1.3415177 1.5390365 0.3509481 -1.271561 -0.5926064 -0.7496622 0.8757986 0.31369078 -0.3073923 -0.6936971 2.9101298 -0.91566986 0.91402096 -0.9696057 1.5768753 -0.9494941 1.3635638 -0.5532359 0.46402326 0.64889437 -2.2273238 -1.4957887 0.72172904 -1.1967062 0.16515721 -0.534345 -0.23015253 1.8671943 -0.16900128 3.2865596 -0.354272 0.8460451 -0.20738544 0.7267091 1.8915294 -0.40791392 1.7620635 0.67858416 0.47114816 -1.6144321 -0.04479245 -0.73815316 -1.2378293 0.13258566 -0.49134627 1.5017841 1.3652493 0.28070256 0.5694352 -1.3430567 -0.85852844 -1.2405471 0.14860019 0.080817685 -0.22768323 0.56623024 0.04375973 -0.8589125 -0.2392913 -1.7421347 -1.6518254 -0.5931663
1248 0.38424888 -0.45761845 1.0772399 1.3867773 0.37014928 1.5538976 1.0664698 -0.86180824 0.08663032 0.14483365 -2.0442047 0.83303297 1.4041451 -0.53447217 -0.54581714 0.07545756 1.5399657 -1.887185 0.24352778 -0.14040534 0.11341166 0.53806907 0.62117904 0.35759422 2.792525 0.27651775 -0.7051762 1.19836 -0.13939625 1.1966145 2.19895 0.47908342 -1.8602111 0.58042336 -0.114490524 1.6686878 -0.90728474 0.56505907 -0.16900313 0.5002015 0.23969218 -1.0231805 1.6303297 -0.537256 1.0535825 -0.15564781 0.5879248 -0.5750324 1.4022238 -0.62431055 -0.22304581 -1.5783209 -0.521911 1.8052485 1.7151396 1.6729624 0.38886794 1.0308468 -0.39454308 0.2949046 1.5576028 -0.55413926 2.9796622 -0.4622693
1414 1.472197 -0.53409 1.3134853 1.5057936 0.34853122 -1.2272755 -0.56376356 -0.67758226 0.8404071 0.33239388 -0.33000124 -0.67553586 2.8465521 -0.9091168 0.89798456 -0.9233763 1.5727686 -0.95737326 1.342579 -0.5901514 0.48502055 0.6343574 -2.1888251 -1.3790683 0.74607944 -1.1593887 0.15163785 -0.46305695 -0.17674536 1.8251262 -0.1532512 3.1746821 -0.3334314 0.83390516 -0.30258968 0.73444533 1.8019786 -0.4687285 1.7340828 0.68265814 0.4665519 -1.5647789 -0.02778772 -0.7685777 -1.3026224 0.08251929 -0.5043945 1.4763068 1.3177642 0.29411247 0.5808584 -1.3521446 -0.8418312 -1.2287053 0.14337528 0.052857682 -0.23064849 0.5316534 0.040145874 -0.902618 -0.2593136 -1.7254448 -1.5988938 -0.6067012
2677 2.1824746 0.15910698 -0.59897935 -0.057513796 0.25156975 -0.3950812 -0.4098256 1.7567687 2.2936356 -1.6644464 -1.6750418 2.1305819 1.8351225 0.8499531 1.3498669 -1.1151721 0.90179753 -0.24416058 0.6122508 -1.434987 0.28903437 0.060780924 0.45129853 0.10071868 1.8745164 -2.960582 1.5407857 1.2575377 -0.17395118 -0.94597775 2.3469632 0.7683319 -0.23331703 1.3167588 0.16347276 0.79308325 -1.0149647 -0.8532301 -1.2210675 0.94093174 0.2866635 -0.1632992 0.9874549 -0.24012816 -1.6388512 -0.44601455 -1.1984951 -0.043259658 1.0793939 1.1418434 -1.7931248 -2.4595284 -0.3358676 0.6437124 0.068640456 -0.4219815 -2.0958333 -0.8799555 0.97740006 -1.1111329 1.0668923 -1.5757055 1.4817755 -0.33861998
1251 -0.5897103 0.5956728 2.0006983 -0.6392096 1.7146282 -0.5933131 0.45199537 0.07911358 0.042309653 0.66233075 0.08572018 1.906012 0.2714648 0.4252909 0.2631483 -1.2983841 0.50844043 -2.432699 1.5223982 -1.9934818 -0.21720944 -0.5699505 -0.016811904 1.0352188 -1.4471822 -1.1759965 0.7405859 0.25605676 0.26103258 0.71943855 -0.81129634 0.31404114 1.3303573 0.029992422 -1.3451722 0.23577629 -0.7345732 -1.0822331 0.6554152 0.21241884 0.91256756 -0.9210677 1.2825427 -1.2062962 0.6513351 1.3896564 -1.2458849 0.24209121 0.5626412 -1.0302207 0.05861886 -1.0019535 -0.94006723 1.4986066 1.0133846 0.57813704 -0.25367007 0.55418533 0.09566469 -0.6818737 0.2511876 1.2422568 -0.4574323 0.93737614
2843 1.6598084 -0.107808456 0.058274906 0.63495046 0.2618984 -0.8686503 -1.7509261 0.799707 1.0968131 0.6414947 -0.89466846 0.03792642 0.2516533 -0.053483162 0.10410239 -1.208702 0.7423304 -2.1760716 -0.28926584 -2.4091892 1.1275938 0.99524015 0.81814903 0.8720796 -0.10039025 -1.5363986 -0.8715439 -0.39225417 -1.2732124 1.0402055 -0.36035398 0.12860443 -0.15739933 0.28079528 -0.8630777 1.2126926 0.98298866 -2.1419497 1.1103246 -0.42784992 1.0127748 -1.2637172 -0.0667182 -0.86505485 -0.654593 -0.8956963 0.38365993 0.5841064 1.5740501 -0.9894981 0.8740476 0.8475184 0.96213144 -0.6309482 0.96489394 0.5777917 0.6091138 0.12181154 -0.83204526 -0.30753073 -1.1532092 -0.39118937 0.13958152 -0.16746727
134 0.44273022 0.9415594 -1.1930474 0.90235174 -0.9847498 1.6268172 0.5486169 1.7090902 0.22519946 -0.14557937 0.5646078 1.0838035 0.042912245 0.8663529 -1.2576673 -0.12352871 0.6287692 -1.3760753 0.82287747 -1.9216735 0.5483177 0.9213999 2.0723217 0.7603829 0.770937 -1.7355237 -3.3028378 1.2443479 0.8248184 -0.98293734 1.5961312 1.3538959 -0.868293 1.7907155 -1.5427233 0.791509 -1.8106313 -0.8383215 0.39684513 -0.80509573 -0.42549008 -1.466466 1.6807128 -1.7756934 0.346055 -0.33471608 0.31865036 0.034529414 2.0217137 -0.3599303 -0.43638366 -1.6233404 -0.0040807175 0.30442974 -2.0461028 0.8298409 -0.22774652 1.0004511 -0.94838566 -0.4865378 0.29480058 0.67334265 1.2149345 0.5813291
334 1.6437724 -0.1538929 0.098487206 0.69580066 0.31688613 -0.87022537 -1.7479275 0.8033013 1.0790176 0.6296183 -0.8774223 0.043051023 0.26972193 -0.13824394 0.07886375 -1.303081 0.7938559 -2.2658014 -0.36553374 -2.4525125 1.1537018 1.0602398 0.8230292 0.83470374 -0.07928824 -1.6050133 -0.8963898 -0.43512866 -1.3396816 1.0968294 -0.36736178 0.1681452 -0.20774056 0.28776786 -0.8855326 1.239749 0.9802659 -2.177187 1.1080252 -0.4667839 1.0524914 -1.3364835 -0.04427948 -0.92320484 -0.59263 -0.97728074 0.36398673 0.5802406 1.6220818 -1.0656525 0.9120406 0.86726046 0.9653047 -0.65508866 1.0343941 0.65422726 0.6527924 0.09390322 -0.8683764 -0.3326455 -1.1441065 -0.37823418 0.14483313 -0.19078031
2715 1.6264316 -0.042300258 0.102127865 0.6018895 0.23230611 -0.904276 -1.752651 0.7995599 0.99627274 0.62335414 -0.85017145 0.0094822245 0.26336947 -0.081785 0.05988183 -1.183892 0.7924415 -2.1372445 -0.36995283 -2.271422 1.1384153 1.0204225 0.7787183 0.8326597 -0.12279521 -1.4709119 -0.8482745 -0.36103803 -1.2648404 1.0358826 -0.32363787 0.1063923 -0.1724073 0.2572018 -0.803595 1.1938517 0.9740623 -2.0844162 1.0480481 -0.44698912 1.0169587 -1.2552209 -0.030298606 -0.87486094 -0.65074664 -0.96921074 0.3536908 0.56115973 1.5344042 -1.0465882 0.84604234 0.9090126 0.979012 -0.62866944 0.95452297 0.6365677 0.5511094 0.14453386 -0.8488098 -0.26873812 -1.1501741 -0.32529378 0.16390212 -0.20133676
2737 1.8908844 0.004833639 1.0338718 1.0586278 0.83406836 -0.22962153 0.5697013 -0.19047326 -1.3841931 -0.5339884 -0.50406855 -0.68626165 1.4908719 -1.5133204 1.3944238 -0.0125558935 0.84560543 -1.6767035 0.5999789 -0.8083084 0.73467326 0.44401082 0.9496226 -0.97121 -0.30917293 0.33077934 -0.08823143 -1.6428622 2.0278738 -0.6249696 -0.30874294 -0.6072885 0.049100902 0.47831613 -0.16074498 -1.306333 -1.058299 -0.06239864 -0.03135397 0.24609983 0.7102775 0.26711607 1.4021761 0.04949686 -0.056269024 0.061967485 1.136163 -0.99104947 1.2422124 -1.9431579 1.7816361 -1.0657358 0.0777552 -1.7025639 -0.57277125 1.8421805 2.1859305 0.39192584 -0.28925443 0.12829879 0.40718865 0.091708526 0.21382979 -1.44486
2397 1.747756 0.63074774 0.8851934 1.7099367 0.61055773 -0.90361655 0.28050613 0.15683742 -1.2159219 -0.15935959 -0.33089173 -0.2633246 1.8617324 -1.1820967 1.0222952 -0.18680169 1.1601129 -1.1929638 0.6693313 -0.64045024 0.72267675 0.5906452 0.6477831 -0.6680329 -0.171097 0.3276528 -0.6161067 -1.4041048 1.7642404 -0.4218305 -0.40979388 -0.7982563 0.3948456 0.25924575 0.143923 -1.1701189 -1.3965114 -0.06512606 -0.0056679314 0.42270154 0.98096555 -0.05604151 1.035058 -0.0078109098 -0.14631811 0.40249607 1.405211 -1.0745198 1.2521898 -2.10671 1.7224977 -1.3116143 0.34303504 -1.8811342 -0.48948 1.6974252 2.2886584 0.42163807 -0.2797381 -0.20293774 0.23401737 0.18331075 0.48025844 -1.3169452
745 2.6155593 0.0077860127 -1.612428 1.5914965 0.5601372 1.058557 0.43359345 -0.31734532 0.78141963 2.490993 -2.9414904 2.1780508 1.2079802 -1.5359669 1.0052152 -1.260917 3.0737588 -3.121391 -0.07341796 -2.3895237 0.8804115 0.043193776 -0.7173357 0.4236146 -0.7713484 -0.5589095 -3.4238226 -0.35097826 0.5781776 -1.9347112 -1.6001157 3.2532089 0.88778687 0.8094364 0.1961222 1.8882962 1.2358972 0.25180373 0.27511978 0.3139922 1.6957296 1.2715329 0.63918597 -0.6062739 0.15038669 -0.8876591 0.8665545 -2.9400663 -1.3322667 -1.7117897 0.9000823 -3.7573454 0.19527557 0.08437143 0.9196038 1.3124217 -1.553425 1.3056484 2.2626154 -0.8168783 0.44453633 -1.3196738 -0.9039713 -0.2946677
2328 1.1465285 -1.1717575 -1.3374015 0.059930254 -0.91933674 0.44922173 1.2627056 -0.35738552 0.9994342 0.031055134 -0.2116847 0.22275692 2.511818 -2.204435 1.2471343 1.0952971 0.9409708 -0.25370088 3.2607598 -3.6512477 0.32129395 -0.50806296 0.98240227 1.6292503 -2.2780073 -0.54213935 -3.4513612 -1.0414882 -0.30095872 1.29192 -0.9109281 -1.4753187 -1.1454573 -0.45145458 1.1858103 1.6639725 -1.3026477 -0.28628954 -1.099738 -0.075320035 1.0819646 -0.07311407 -0.64298207 -0.92770875 -0.24066502 1.0932289 1.459446 0.33142045 1.7480493 -1.3941427 -1.7190039 -2.1270854 -1.2740183 -0.36396915 -0.0033862821 -1.0531948 0.95861936 0.14430435 -0.95230347 -0.9105996 0.7671185 -2.0416539 1.1545792 -0.15005119
2398 0.7269032 -1.7118767 0.26976147 -0.6895191 1.7276274 -1.5018278 0.8842173 -0.44464192 0.9052251 -2.132383 1.7071713 -1.7324811 2.4505703 -0.98880273 5.051826 0.70258623 3.1050408 -3.688591 0.091060646 2.41746 3.5462837 3.4476717 -2.3978803 1.0592545 -2.2509015 -1.0659198 -2.4995503 -3.2621944 1.1355888 0.90150845 -1.2296281 2.4364882 0.22427471 3.4492135 -0.37520453 0.20288247 -3.484031 -0.044983514 0.28886312 -1.4737849 -3.3698938 4.2361517 2.9918237 0.33967155 -0.5364842 2.7436473 0.5428491 -3.8760586 1.8317986 -0.5552652 1.196268 -0.8790312 -0.19165736 -0.94877356 -0.18441656 2.7421324 -0.19635601 1.3996809 -2.6105049 -0.4431941 -3.2729278 -1.6439943 0.7768008 0.7053497
2389 -0.36992618 -1.7790788 0.055780843 2.2576377 1.6436402 0.28470883 0.7756817 -2.4902945 1.9223404 1.1704695 -0.32589224 0.9319788 2.0460868 1.5043392 0.18601575 0.88521916 0.8270965 -2.180996 -0.20136434 -2.1092198 0.6558994 1.0371555 1.0225616 0.21386428 1.1840721 -1.4702084 -1.3064836 0.55921113 -0.06674929 -0.20901547 -0.9622378 -0.32852572 -0.8905954 -1.4904584 -0.1858774 -1.4221162 -0.4295891 -1.1401755 -1.0985233 2.0010955 -0.06553919 1.9909395 1.6030356 -0.038800634 0.8432305 -2.021312 -1.9917957 1.8323146 2.1885796 0.692314 -0.9293073 -2.287528 -0.21274029 -1.1591058 -0.2112893 1.4795332 0.81566113 -0.7887339 -0.14092539 1.7011238 0.55045044 -1.7983725 -1.2180767 0.99447846
682 0.7235795 -0.71649903 0.12519419 1.6832743 1.9474953 0.9875984 1.2677081 -1.7996175 2.9106061 2.010467 0.08329331 3.0255685 0.90744704 1.1709135 -0.49032116 1.7715554 2.2135613 -3.0193725 0.71192616 -2.45682 -0.041720625 2.035355 1.2183493 -0.100755624 0.9082021 -0.9040648 -1.4821243 -0.2684973 1.0642296 1.2819409 -2.1094382 -0.080494314 -0.2263262 -1.6954178 -0.92327124 1.7401003 -2.7351441 -2.602849 0.08274327 2.1260567 -0.37124678 0.99389917 1.6598034 0.0070700916 0.63319147 -1.0391757 -2.0005646 2.2181714 1.4889048 0.09449628 0.48075604 -2.72729 -0.975821 -0.8023966 -0.75881267 2.5004492 -0.15822501 -0.3844035 0.7049554 0.67554694 2.0277805 -0.70367426 -0.5345144 0.5327507
2650 1.1248502 -1.6388966 -0.4131494 1.1292377 0.5731261 -0.91074604 0.70776445 -1.196715 -0.3200039 -1.556575 -0.8042537 0.81010395 1.4291209 -1.5527391 1.4825668 0.22564761 1.0519468 -2.175078 0.14181538 0.59000343 0.7780962 1.9437437 -0.12873842 -0.52228457 -0.7672087 -1.0646585 -1.2288165 -0.9320108 1.4398985 0.44545057 -0.31839964 -0.16009574 -0.2693706 0.72735083 -1.5099427 -0.23691565 -1.0540973 -0.6466851 -0.18182181 -0.25833637 -0.69448304 1.2424752 2.0696661 -0.37709302 0.33659405 0.50146425 0.63930255 -2.2094102 1.0452669 -1.3695419 0.37284517 -0.49691164 -0.3196481 -0.7001817 0.3283825 0.81219625 2.144264 0.7311402 -0.9677937 -0.13086809 -0.9640245 -0.69826126 0.9755197 -0.38027203
2125 -0.17403299 -0.02851555 0.92219746 0.9574332 1.2653025 0.352051 -0.42280766 0.53138 1.1148854 -0.2543796 -2.2025952 -0.32831988 0.7844028 0.34682548 0.69690174 -0.05646939 0.6591931 -1.8011537 1.9782457 -0.96578676 0.12794143 -0.7918197 1.9840207 -1.5660435 0.68419796 -1.2009454 -0.40106696 1.165982 -0.13920006 0.02535404 0.6303477 0.17235872 1.0919219 1.3447912 0.35310096 -0.7248359 -0.10496293 0.99281186 -0.40281022 -0.5387959 -0.09887498 0.46226496 -0.5049949 -0.75170547 -0.19436325 -0.27596527 -1.1824625 -0.34203404 1.7844441 -0.28418455 -1.6745735 -0.9876731 -0.34547257 1.1909035 0.08996066 1.1515309 0.7571721 -0.7836549 0.30505872 -0.5843797 1.0393085 -1.172768 0.26734084 -0.62845945
1658 -2.8895168 1.4226267 2.392679 2.8723052 0.8183213 3.3310997 2.144289 -1.2483858 0.882612 0.36505833 -1.809639 0.2661331 2.5258722 -0.876065 -1.4236261 0.13079529 1.6118251 -2.111875 -0.64341396 0.6192782 -2.0258315 0.698959 1.3533537 2.5436225 6.427236 2.6394582 -0.48904774 1.0377913 -2.7380824 2.558458 3.6216602 0.93893033 -3.841242 0.26303035 -1.3504419 3.3738685 0.47117326 2.2462204 -0.14978854 1.0729585 -0.5514812 -1.6339613 1.2907996 -0.4448579 3.3696055 1.0320034 0.8017674 -1.2510189 2.092188 1.1909264 0.037936103 -1.7696235 0.2539127 3.3810194 3.4609835 1.9827244 0.053890068 4.1159377 -0.9718328 0.23376323 3.725678 0.47465068 5.8173428 0.07879705
1672 2.2893825 -0.4513665 -0.14978762 0.060770813 2.0690894 -0.8551415 -1.7741165 0.6304734 1.6989455 0.759648 -0.50852764 0.7731496 1.2374545 -1.5552491 -0.35390553 -0.647258 1.0166024 -0.8297226 1.8693926 -1.0103143 1.4283055 -0.15869729 0.6194047 0.043445088 0.8441084 -2.4911757 1.1262888 1.6525682 -0.02541315 0.24653922 2.378349 0.18970768 -1.3509151 0.943189 0.6706357 -1.7189916 -1.9640275 0.9015307 -1.8555025 0.17475694 0.9190754 0.061158236 -0.26704338 -0.5421667 -0.27646354 0.12653026 -1.2241154 -0.9529411 1.9972892 0.9263051 -1.0088023 -0.31463832 -0.9082962 1.9634125 -0.6590739 0.21554942 2.1748705 -1.4975353 -0.3719735 -0.80388063 1.0808657 -0.011513266 0.25632453 -1.9502022
2337 3.513617 3.4974945 -1.6817347 3.904378 0.32680178 -4.5648494 -1.574107 -1.2653065 4.0416183 2.6528184 1.2833391 3.903366 3.037005 -1.336299 -2.4840202 -1.3984705 3.00214 0.62696236 3.1530416 1.8509521 4.6936374 2.1173131 -0.5296897 0.4016872 0.60929674 -0.48542133 2.6812396 -1.2157094 3.152422 -0.34412175 0.7111794 2.4541824 2.4569309 0.5951106 -1.3607472 -0.7990801 -2.314729 -0.73857 -2.0220249 -3.8088367 -5.4278936 -3.6759825 1.959448 1.137967 -4.4790316 -1.8226424 -4.663246 -2.119321 -2.1954324 -0.4388904 -2.1629312 4.174935 2.251152 -2.5356364 2.1518483 1.7512524 -1.2982298 -0.48578206 -1.7333068 -0.48122433 -0.5675044 -1.1147935 0.5154324 -1.3174452
2461 1.1201229 -0.5200739 -0.4406743 -0.6437599 0.748941 0.26279697 -1.2180448 -0.40994483 0.90408194 -0.8026241 -0.12805383 2.2195005 -1.6469494 0.582879 -0.056628153 -0.90912825 0.37144026 -1.3031203 1.9805174 -0.95673484 -0.14881533 0.16197416 1.447142 -0.34089214 -0.43863696 -1.4657274 -0.78850937 -0.12705268 -0.23840384 -0.33254427 0.18480068 1.0791156 -0.32520407 0.32138377 0.27930263 -1.3347974 -1.3802215 0.07679176 -0.8112201 -0.0055045695 1.4845295 -0.17921856 0.24522027 -1.8560933 -1.4812735 0.32684577 -1.0462515 -0.24796645 1.1948957 0.6981864 -1.2428266 -1.729133 0.066658646 0.33041176 -0.8862247 -0.13413662 0.5430926 -0.34241578 0.42881086 0.62350094 0.7161365 -2.0766542 -0.5925993 1.3342402
733 1.6407223 -0.915896 -0.23793696 2.0133579 0.25646064 -2.6238759 4.666646 -0.7659862 0.4977191 -3.467572 -2.5595567 3.0575297 1.5540954 -4.6360235 2.1809118 2.2102425 0.82334715 -5.0572524 -1.4544915 1.3187735 -0.6098969 3.9527333 -0.41387662 -0.40773347 -1.1165271 -3.639489 -1.2992218 -4.320059 1.6671556 0.36801815 0.7397755 -1.1026281 0.06941784 0.926121 -1.6401888 -1.141887 1.3653511 -0.94266295 0.5208918 -0.7338389 -0.9415404 4.6674337 4.38791 -0.9055289 2.8661342 1.8736688 0.22854273 -4.5441527 1.5629176 -2.6688373 -1.4012853 -0.647799 -1.0674044 -1.5939974 -1.4497262 -0.23424804 4.2771544 3.2875915 -0.6991866 -1.8328764 -0.39258915 0.43030167 1.0623823 0.61728704
116 0.5775992 -2.6572187 0.4745524 2.5458403 1.1731883 -0.9459624 0.03794692 -0.5800171 -0.6247305 -0.16377492 -1.0110896 2.422103 1.8516006 -0.9411419 1.6481265 -0.57379305 -0.496876 -1.2732354 -1.3714727 -0.53610694 0.6279801 0.7716706 0.38344923 -0.55368537 0.3433017 -0.3978369 -1.8960285 -0.5541531 1.0407226 -0.76388925 0.27875236 0.1689275 -0.49590692 -1.7731605 -1.6615773 0.43032885 -0.72607064 1.3389026 -0.8920334 -1.9227513 -0.40307248 1.3532959 -0.6570452 0.25955853 0.23395425 0.43294215 0.26573786 -1.5817238 0.7624413 1.4216423 0.8410431 -0.5516656 -0.36934155 0.47727004 0.8698826 -0.17098337 1.4819605 -0.5130265 0.78238374 -1.0329239 0.8560766 1.1382987 -0.5159632 0.2807514
1928 -0.7468462 -0.3938068 0.46363008 0.8225154 0.73458743 0.0691807 -0.48112294 0.46944016 0.8888731 -0.54899865 -1.8343766 -0.029221706 0.6483856 0.025106939 0.4490856 -0.3681478 0.59106517 -1.1382625 1.5015986 -1.3167596 -0.13517791 -1.3178915 1.4565243 -1.2734392 0.42988232 -1.0018107 -0.0029302007 1.0462624 -0.26850873 0.79378796 0.30792806 0.599693 1.1254101 0.7833079 -0.19402356 -0.9097141 -0.044759028 0.7707824 -0.69090664 -0.00044076206 0.33584678 0.6897006 -0.56721103 -0.27130353 0.37733704 0.07267485 -0.8097995 -0.85517037 1.1427488 0.240633 -1.1410344 -0.73458296 -0.30897966 0.29269615 0.417443 1.1032019 1.0712781 -0.04709098 -0.10617372 -0.46389803 0.9449016 -0.52788055 0.1700537 -1.0793166
2578 2.286904 -0.013389384 0.48603883 1.0833861 0.7136601 2.519796 4.7680416 0.9461384 2.7834454 -1.9052905 -2.6039221 0.7899643 -0.38787743 -1.0053126 1.4087559 -2.1566393 2.5838761 -0.40922496 1.0027587 -2.4645472 2.7710834 -0.10374139 1.2132716 -2.3227758 -0.86079925 -1.2291104 0.25291264 0.062234204 2.2247756 -0.020549485 -0.36147124 1.1063956 1.9674829 1.8887708 0.80358726 2.3435745 -0.20904951 -2.4361775 1.9118217 1.3579619 3.803506 -1.7558835 1.6092497 -1.2974159 0.85964936 -0.17704928 -0.1628723 -0.7460803 0.4424339 -0.83471614 0.25944856 -2.4471953 -2.001868 4.2885528 -1.4311591 -0.6585967 3.1659749 -1.362062 -1.6582441 0.06432987 -0.72608614 -3.2962718 -1.4147464 0.98334277
2349 1.599991 1.0932516 0.38784346 -0.84301215 0.19746755 0.93951666 -0.49556714 0.5383138 1.6642008 -1.4631344 -1.2661431 0.4677749 1.6719617 0.53423095 0.13141778 1.9576507 -0.11575915 -0.046659328 0.79918504 -0.18011071 -0.0031794568 0.2916559 1.1312752 0.49983165 1.5160857 0.095299155 -2.4986267 0.08421725 0.62609094 0.7612336 0.34629902 0.2543762 -1.4930559 0.48827112 0.6017338 -0.21487959 -0.6430458 0.51997286 0.3760941 -0.44035348 0.2954899 -1.1376289 2.5044441 -1.2628222 -0.7224277 -0.8132117 -0.12112755 -0.3894738 0.50886285 0.36655498 1.1567564 -1.4852995 -0.03293359 0.026458962 1.0268835 0.16679671 -0.20107408 1.6223744 -0.9251163 0.6697375 1.567116 -1.312793 0.6914408 -0.092063546
2532 1.9325362 -0.569382 -0.2790827 -0.66025597 1.5632902 -0.84093744 -0.71247846 1.7946409 2.6580923 0.71665984 0.4379123 -0.29169503 1.5544723 -2.357662 0.537845 -0.7268799 0.42730257 -1.7930553 1.4874532 -1.2880439 3.5681262 0.43752524 0.90117764 0.6893535 0.74746066 -2.0279377 0.49130294 2.170425 0.4893318 0.5814481 2.6064897 1.2566562 -3.4980245 0.92893165 1.2133644 -2.4767597 -0.65120196 1.8749776 -1.807345 1.8504635 0.61805993 0.17750613 0.13448124 0.007104471 0.06905647 0.34592488 -1.4309715 -0.604435 2.3888834 1.262303 -0.8441667 -0.6173532 -1.2860128 2.2225764 -2.3263807 -0.46942207 1.9775815 -1.758804 -1.3395426 -1.0634142 2.7098794 0.24774513 -1.703012 -2.7605548
1752 0.9344558 0.274582 -0.01600024 -0.24718265 -0.2215039 -0.13651323 0.07705166 -0.29579598 0.21697477 -1.0133631 0.14563769 0.5474509 1.3351455 0.0020853844 1.6345115 0.08844254 0.59138525 -0.8230577 2.1842024 -0.6671092 0.3547607 0.2885852 -0.42825124 -0.4013545 0.4671865 -0.3711594 -0.96293217 0.6240543 -0.35127684 -1.0429865 1.1736214 1.1643502 -1.4685774 0.8841632 -0.10923853 -0.67927253 -0.97898304 -0.25530434 0.0525997 -0.8098744 0.49516472 -1.0600003 1.9137899 -0.912734 -1.7545848 -0.021096952 -0.17929152 -0.57216156 1.6607926 -1.1330009 0.32853362 -0.956949 1.5736552 0.4933585 -0.22506724 0.47283608 -0.45681387 -0.7908421 -0.63682663 0.4280298 0.9259801 -0.30713654 0.09709245 0.9376405
2761 -1.6095458 4.2383366 0.65464497 2.599616 -0.32512447 -2.0696843 0.23634587 3.9379792 1.8854961 -1.2671763 -0.5943275 -0.38822272 2.3994648 -2.3710554 -1.4099106 -0.18488532 2.3552058 -2.0772636 2.728556 0.15587743 -2.3867998 -0.4023844 3.0921307 -0.5931884 4.1333275 -2.1231046 -2.848211 1.6646606 0.85219514 -3.0103083 -1.1957185 2.0561376 -1.7273569 1.7695028 1.2371104 1.1333052 0.8481489 -2.3061817 6.3947625 -1.6096942 0.46580473 0.9355244 0.038927097 -1.4055213 0.71554506 0.24800746 0.9721407 -3.016179 2.0618017 1.3589762 -2.4926634 -1.1906382 3.4058785 0.61493534 -1.0140494 -0.15324084 0.30347726 -0.6585579 -1.9740816 1.6107441 1.9705395 1.1138153 2.2621675 2.6851912
1247 -0.12625445 -0.11808998 0.7157589 0.48588252 1.3135396 0.3066505 -0.29441756 0.17559968 0.6923593 -0.5665007 -2.0678763 0.47455874 0.6627028 0.21563947 0.4554136 -0.496699 0.55388373 -1.3230138 1.7593114 -0.7599052 0.26697105 -1.2973113 1.2313402 -1.728276 0.64030504 -1.2566491 0.38752544 0.9019986 -0.30542707 0.60784894 0.075217806 0.543594 0.9113122 1.46528 -0.41582498 -0.6647256 0.17886782 0.5346351 -0.8244134 -0.3697052 0.26977912 0.7338465 -0.23116276 -0.4607537 0.056850687 0.16902578 -1.1993301 -0.71828634 1.1119705 0.07036452 -1.1759024 -0.86586905 -0.32386982 0.94975287 -0.22623375 1.3156822 0.47054344 -0.57180804 0.3023347 -0.79549503 0.5258145 -0.56991255 -0.41901356 -1.213328
2975 0.19923963 -0.8653326 0.49576655 1.057268 0.3669827 0.47321826 0.53723073 -0.8127851 -0.6164691 -0.1472599 -0.9741551 0.84531033 1.1940179 0.44548354 0.66078633 -0.3146479 0.17932376 -0.809634 -0.93285686 -1.1818098 0.94521743 0.32783812 -0.43443775 -1.1439484 0.35529652 -0.61156416 -0.63190514 -0.12003736 1.4149367 -0.7517787 -0.18920027 0.5283991 -0.57730454 -0.21694916 -0.8726963 1.0956194 -0.07666795 0.009243517 -0.9853031 -1.389355 -0.7313271 0.4190764 -0.23710263 -0.35316676 -0.47971514 -0.70980483 -0.23100072 -0.94341767 0.8497199 0.95077664 0.49618974 0.3814798 -0.5845748 0.61739135 0.79329485 -0.5126638 1.2087967 -0.94610566 0.020347394 -0.79437363 1.5747968 1.4080501 -0.0018862507 -0.70662224
2912 1.0952463 0.3193427 -0.32262877 -0.4157349 0.38138196 0.0010456679 0.94084525 -1.2781211 0.6615538 0.8153821 -0.806193 0.10818999 0.8252516 0.20378077 1.2948422 -0.29450008 -0.1911438 -1.1425579 0.02455976 -0.30383468 0.9255269 0.35343346 -0.430622 -0.724867 -1.1178532 -0.9799415 -1.1824425 0.14296329 1.3061807 -0.47285685 0.4601227 -0.7381849 0.40874952 0.05063758 0.5648197 -1.2000065 0.085615896 -0.17490298 0.33827868 0.16183442 -0.5619394 -0.3523265 -0.24561583 -0.44485274 -0.63072056 -0.51641047 -1.0037738 -0.48980546 0.010781687 -0.8844062 0.33433473 0.31906572 -0.021297328 0.38125363 -0.13658664 -1.5195093 0.45055804 -0.6988157 -0.7500272 -0.6770302 1.5676731 0.3188562 0.21409647 0.049015924
1258 -1.7913201 2.7008781 -1.7220768 1.0821705 -3.2788754 2.5556936 0.6782198 3.7530358 0.42555195 -0.8810432 2.1689851 1.6909835 -1.7612585 1.0604616 -1.745409 0.20075154 0.58638895 0.049092952 0.39012748 -2.51449 -0.9188411 0.7342934 2.9650989 0.18004322 2.7003024 -2.2877653 -7.041412 3.4660888 0.82611245 -4.679371 2.4906943 3.3352888 -1.897687 2.2016673 -2.7018418 2.4588602 -2.4585216 -0.17521733 1.0695646 -1.1387805 -1.1858785 -2.0802057 2.3183184 -2.922537 2.023355 -0.8742212 -1.2220103 0.75204426 3.309513 -0.14550546 -0.23638576 -0.851437 -0.44296557 -0.3635576 -4.818517 -0.21624736 -0.7797431 2.035515 -2.7337348 -0.32950348 0.30105284 1.33581 2.052085 2.4497602
2668 0.9780327 -1.1299309 -1.5549787 -0.057694618 0.06506575 0.049556885 0.18926172 -0.5009321 0.15108176 0.68803424 -0.7264468 1.2141252 0.41539994 -0.51131284 1.1759127 -0.22809477 0.54893064 -0.54803634 -0.37935796 -1.0330176 -0.1384509 -0.041020602 -0.13234667 -0.94625974 0.4909111 -0.57342714 -0.9194808 0.72513974 0.16064501 -0.8017368 -0.67976314 1.0223403 0.09442986 0.065827146 -1.295405 0.44214314 -0.38208932 -0.5555813 1.0120788 -0.22725894 -0.124854125 -0.13747174 0.44267705 -0.93849576 -0.57480735 0.27397037 0.24063069 -0.5009592 0.4010626 -0.44127947 0.12671441 -0.17436361 -0.15182994 0.07699367 0.7401994 0.698116 -0.008980619 0.095025234 0.4198 -0.6953524 1.3000348 -0.87455684 -0.47927883 0.13335851
1089 -0.002303988 -1.0810946 -0.5479756 -0.10922767 1.2100729 0.42232963 0.6684659 -1.307846 0.72404575 1.114765 -0.6665844 0.5797698 1.2602277 -0.2474065 0.30250388 -0.48206288 0.2640145 -1.4324863 -0.17453569 -1.9553856 -0.1401995 0.5059752 -0.060412183 -0.074821375 -0.044180878 -0.74827456 -0.6982001 1.2922444 0.6727665 0.0040629823 -0.7497151 0.11447234 -0.6425153 -0.20893995 -0.8379459 0.23868084 -0.4107307 -1.5425968 -0.09713583 -0.007478407 -0.76408386 -0.12947382 0.35768938 -0.64798486 0.69316673 -1.873884 -1.0467062 1.3626733 0.6219486 -0.39290366 -0.59673935 -1.3584956 0.39020148 0.2723069 0.4629455 0.14063747 0.748608 -0.2135684 -0.07292724 -0.7827621 0.17144889 -0.354321 -0.3953532 -0.70852464
1249 -0.28292513 -1.3316383 -0.8939054 0.14128445 -0.3947505 -0.12862091 -0.27341524 -0.0031789013 0.3528616 -0.62429446 -0.9454172 0.3617037 -0.38309345 -0.95509535 -0.7181493 -0.40872264 0.30309314 -0.31749588 0.48042226 -0.48764613 0.7944763 0.4051949 -0.4549329 0.6724657 -0.012459358 0.043251846 -0.42227978 0.05978645 0.08111896 0.8092129 -0.3414957 -0.14168307 0.06551188 -0.08130231 -0.28144673 -0.09470576 -0.09570202 -1.5301127 0.6103705 0.46087426 0.1803407 0.21146648 -0.23714454 -0.83572894 0.42448393 0.2310516 -0.7555549 0.58664954 -0.26616448 0.14995012 -0.017273016 -0.7684087 -0.033037066 0.06132824 -0.3480197 -0.35074043 0.0811478 -0.397683 0.9005444 -0.14774987 0.6222369 -0.6462391 -0.5168352 -0.947577
237 -1.4815987 1.8689166 2.0125148 0.5490009 -2.8590903 1.9995208 1.9989836 -1.7435433 -4.208701 1.0529726 -2.5965245 -0.8844071 -2.088829 2.4804554 -2.2812657 2.1125336 -1.1211427 1.7591488 -0.6726363 1.958412 2.3205037 2.063976 -1.7650653 -2.4555435 1.4412227 1.9031502 1.8745259 -0.7271835 -0.03297376 0.17748389 -1.5928537 2.6868818 2.7994695 -0.2681771 -1.005435 -2.1028607 0.37480286 2.7901304 4.2427893 0.68904626 -1.486234 1.3055139 -0.81775117 -0.1942736 0.66525227 -1.415887 -1.0673165 0.827613 -0.012379377 3.7693186 -1.9961923 1.4550511 -1.0485408 0.6126223 2.3335574 1.041948 3.4097655 1.2109 2.4388425 -4.523944 -3.673845 0.41996896 -3.5128405 3.1715214
2539 0.78120536 -1.0378441 -0.64206636 0.97053266 0.35768974 0.3418264 -1.7517054 2.7865646 -0.5474798 -0.8935993 0.93784213 2.6694837 -4.347929 -0.58990043 2.2891593 -2.2917101 -0.40507528 0.12694171 1.5965867 -1.1039815 0.18948151 0.20635769 1.6860095 -1.1779636 -1.9195486 0.47471 1.0600275 -0.4905553 -0.5576207 0.41186535 -0.4087352 1.1981077 -0.9912923 -1.3618256 2.4750624 -2.0983114 -0.7565572 0.9994932 -0.47949943 3.0650423 2.4053926 0.8356383 0.7650937 -1.8575706 -2.1965034 2.2471178 -2.0142274 1.9072331 -1.9504455 -1.6738683 -1.0904356 0.3522638 2.3513079 -0.77171177 -3.4149816 -4.281953 -1.653715 1.7196734 0.38369548 0.25732994 -0.0069042225 -5.648778 -0.22089832 0.037526313
504 -4.3140416 0.80570394 4.3680367 0.13625346 3.7346087 -1.4109176 1.3386726 -0.024107667 0.12741503 1.9514198 2.7398574 2.5699477 -1.1535848 1.5792502 -0.8319396 -2.4831305 -1.1005136 -2.246639 1.4974203 -0.9436477 -1.4172959 -0.6918099 -0.6945472 3.3175347 -2.3997464 0.33165988 2.9570785 -1.0986136 0.8082695 0.5705231 -3.1173358 -0.0880548 3.2802558 1.5205988 -2.320938 0.47392052 -0.4052183 -1.9854386 -0.39899936 -0.72151536 -0.49281466 -0.2470747 2.7708075 -1.7128718 0.8885622 3.045014 -3.4480822 0.05494702 0.8235877 -0.5518959 0.78436744 -0.77410907 -1.6396183 3.333996 1.0371422 -0.77031285 -0.45490035 0.5254269 -0.07971385 -1.4113401 1.7205511 1.8961593 -0.13455491 2.0637581
1777 1.1943269 0.087913774 -1.7377906 -0.8111036 0.16194 0.2731449 0.9280039 -0.4047779 -0.36271694 0.33804807 -1.3526055 1.0496411 0.3772131 -0.40457222 1.0964775 -0.09638573 0.3841164 -0.2679832 -0.033122152 -0.73868257 0.5213882 -0.077705905 0.17722976 -1.0714636 0.83828497 -0.5616086 -0.9731205 0.5796754 0.49536848 -0.61948234 -0.5013142 1.4796325 -0.1055331 0.025308603 -1.3300825 0.39148495 -0.058643803 -0.66008437 0.8675531 0.0923366 -0.11526582 -0.056181204 -0.04172242 -0.5660386 0.31413504 -0.23673025 0.514564 -0.74336237 0.5813029 -0.11544729 -0.36001506 0.104147635 0.029280843 -0.4539715 0.5721293 0.631803 0.2254423 0.1111595 0.5751677 -1.1769369 0.8764088 -0.55107474 -0.92863876 -0.23510392
2796 2.054589 0.20435318 -0.35387298 -0.9300033 0.15761833 0.07422458 1.5605984 -1.7897944 0.2679418 -1.2861353 -0.8877961 0.8713115 0.08716744 -0.16374257 -0.0020552583 0.77687985 0.7321746 0.28722265 0.41946316 0.032428782 0.25276694 0.6058156 0.761493 -0.8336735 -0.20161307 -0.68893987 -0.8466444 -0.43857306 1.5780734 0.22927375 -1.0288544 -0.3047789 0.6803281 0.71632427 -0.44948983 -0.19664355 -0.3298152 -0.05146893 0.42498198 0.5173834 0.53013027 -0.66708195 0.7625004 -0.550165 -0.34419695 -0.284593 -0.012642222 -1.0389462 -0.10056169 -0.7465375 0.67649794 -0.08557677 -0.9938461 0.56587225 -1.2539834 0.63612777 0.55267245 0.11735005 -0.39376518 -0.077241175 0.7625419 -0.10601897 -0.0030950736 -0.2771122
1389 2.7867162 -1.3649791 -1.0587384 0.46078685 4.168879 -1.576893 -1.2466447 0.3205015 3.8922632 0.5229172 1.2606353 2.8534367 0.3605099 -0.03172387 0.8980324 -2.761116 -0.37983012 0.751069 3.7214072 2.3822443 -2.561031 -1.2892073 4.98639 4.32567 1.0391469 -3.1230774 2.855821 4.0964847 0.39095145 -7.697578 3.1785438 -0.8222065 -2.714797 1.1740105 -2.2849288 -2.950127 0.18058784 -0.14318514 -0.45161602 -1.5686793 -2.3208687 -2.2018592 1.2216861 -1.1629912 -0.5195216 4.4033384 -2.735591 -1.3951211 0.19663687 0.94710016 -1.4437673 -2.8737383 1.8714658 3.6673634 -2.532852 -0.76867485 -0.9856616 -1.7792989 -0.240255 -0.8603811 2.93926 -1.6906999 1.4512519 -0.4060169
2916 0.89545035 0.022733102 -1.5852336 -0.12487357 0.1709708 -0.012045585 1.0059744 -0.30365267 -0.3459735 0.48681048 -1.1151779 0.7987118 0.47364625 -0.39246234 1.205132 -0.08493844 0.22285244 -0.14466172 -0.23243561 -1.027257 0.4325488 0.2788851 -0.3360406 -0.7759651 0.39230573 -0.20511438 -0.6535378 0.90981096 0.7194278 -0.86773396 -0.41239238 1.3438286 -0.21104345 0.2559837 -1.5594532 0.64056987 -0.052354556 -0.58503526 0.66687083 0.41978726 -0.19084014 0.1643224 0.42296192 -1.1227306 0.43095723 -0.31608573 0.12348032 -0.5748842 0.25291348 -0.24311113 0.21433939 -0.17738622 -0.18442355 0.32894698 0.20052442 0.47212198 -0.018381266 -0.49008808 0.8998459 -0.28897256 1.1084445 -1.1176846 -0.54836005 -0.33812585
1189 -0.67618424 0.20552793 0.7455075 -2.6503432 1.3369186 1.4538889 -1.2076656 1.2760959 1.665536 -0.10927651 0.04747514 5.1994305 -0.65454775 2.6511629 1.7101054 -1.5242594 -1.136205 -2.2656264 4.6630435 -2.1040456 -2.7543993 -0.1970163 1.8203802 0.95257956 -0.17831546 -0.4982254 -0.7941613 0.6763102 -1.8377136 -1.4922642 0.7376181 3.1661992 -2.4976034 3.507214 -0.41473618 -6.033595 0.7392711 0.6914805 -1.4153984 -4.5967917 2.6950574 -3.4015272 5.6683693 -6.3116097 -3.7794929 0.21080458 0.19520111 -1.8189573 2.2034752 1.7484791 -1.2290993 -4.608409 3.6532462 4.8170495 -3.587474 -3.957038 -1.1091133 -1.6051579 1.9933012 3.0546784 6.1949425 -0.28868487 2.7128906 3.5649748
1270 -0.30185133 -1.240954 -0.46893245 -9.729804 -3.907433 0.9228849 -0.18733744 2.5599587 -0.09978245 0.41144064 -0.35890725 2.3207765 1.4054143 2.745632 0.60679835 2.5669734 3.8356957 1.3273143 1.6403984 -1.5484706 -0.27124783 -0.51311463 -0.42986903 0.38218015 -1.5264585 0.884807 -2.8718562 1.3586538 -0.6411071 -0.61793077 -1.9194535 2.706428 1.810206 2.1971076 -0.82453156 -2.488079 -6.017471 2.3621063 -1.1027622 -2.0190668 -2.0869734 1.6522713 1.7915262 -1.592981 0.664438 0.13745129 0.12969455 2.6889524 2.206789 0.63166267 1.5956947 -0.019629767 1.0318002 0.060415205 -1.1285163 1.9941406 -1.5246844 -0.056896448 -3.2006657 0.021719461 0.08597694 2.1461635 6.304221 -2.5347514
1341 3.9653792 0.15485537 -1.9408187 0.3260235 2.2820292 -0.7401155 0.9443098 3.7408786 5.879152 -1.0221832 -1.0497564 3.0889757 0.8144527 0.51545537 3.568119 -2.699124 0.17367813 0.88159597 0.6595724 0.30989963 -1.5523272 0.4653495 2.444234 2.5008433 2.2290442 -3.1434348 2.3748612 3.5024424 -1.7474015 -6.2450395 4.9282513 1.3942316 -2.355877 2.1154385 -0.8109047 -1.1324689 1.3493418 -0.48407602 -1.1938603 0.87017643 -1.6568364 -1.1784264 0.4934528 0.30407384 -0.998523 1.4307882 -2.4314418 0.43549454 0.34816045 2.5143387 -3.2749283 -4.3392906 1.0566491 1.65481 -0.9014785 -2.1057339 -4.1584334 -1.6122515 0.8275213 -1.5399396 2.0065022 -3.069002 0.7636649 -1.8177283
710 0.09774073 0.64994144 -0.27668306 -0.55251276 0.76336884 -1.1986686 0.19107221 -1.57251 -0.8831916 -2.295783 2.0210845 -0.10537456 2.5961113 0.59158623 3.2580645 0.12710188 3.7110615 1.7284564 2.8588219 -0.8829654 2.757669 3.1160173 -1.1148151 -0.10129 -1.7988523 2.667596 -0.5709977 0.37752247 -1.5538297 -0.32726017 -1.0145984 3.846891 -3.940438 2.5983565 0.33766848 -0.69541186 -1.7553042 0.65047 -1.3484323 -1.8908936 2.414135 -0.3488013 4.9718676 -0.5107838 -5.084686 -0.82731575 -0.9311783 -2.6700757 3.3112154 -2.2635248 2.9557946 -0.11128908 1.7109417 -0.7380847 0.9947136 0.95990795 0.034756 -4.5566454 -2.0384796 1.2418911 -3.722787 -0.78515637 -0.99607944 1.4147414
1599 1.1042736 0.5673205 -0.5702657 0.36312354 0.004429247 0.45081916 0.67750657 -1.2370956 -0.03895683 0.6337421 -0.5023866 -0.9534611 0.56751585 0.331147 0.60968363 -0.80047697 0.16156477 -1.276197 0.18849169 -0.63379836 1.4032502 0.36505628 0.04098146 -0.79331136 -1.2907966 -0.94449914 -1.231603 -0.015483752 1.4510616 -0.21972287 0.46139753 -0.38737342 0.45759645 0.52186406 0.6833458 -0.3712538 0.09035853 -0.80713254 0.7407625 -0.20315294 -0.3863464 -0.19360547 0.19134611 -0.9316422 -0.48506185 -0.6410067 -1.1466144 -0.15068999 0.52498853 -1.206911 -0.13847569 -0.50418663 0.33157614 -0.20082933 0.0562795 -0.9597921 0.16720685 -0.8147765 -0.81303763 -0.43698594 1.3576761 0.42377254 -0.8771405 -0.43973377
2807 -1.6762153 -0.6173433 0.35890052 -0.528687 -1.9267272 1.8552103 1.8646766 -1.3684886 -1.7082598 -0.46309096 -1.3555657 1.29075 -0.86029124 -0.104421064 0.9523114 2.219742 0.1749407 1.3474944 1.5440189 -2.1391463 -1.0118253 -1.4253895 1.5616359 -3.3867798 0.77726907 0.42166233 -2.422694 0.291032 1.7595575 -3.5964224 -1.176905 2.3084977 -1.5574554 -0.35650787 -1.519384 0.7776986 -2.102742 0.3627231 0.49733678 0.2171335 -1.8338829 -1.1736177 2.8930395 -3.1058846 -0.17463136 -1.9904863 -2.3666902 2.9092534 0.11849791 -0.14539465 -1.6365323 0.7296449 -0.31181586 -1.2081944 -1.2774267 -1.2823595 0.04388176 -0.39242584 -1.4671861 1.0922959 0.59780014 -0.7056383 0.029785931 0.9209144
706 0.49150074 -0.24034315 -1.1883823 -0.007726795 -0.1579097 -0.26577556 -0.047848716 -0.5063196 -0.4308705 0.10096734 -0.8357164 0.7203687 0.18486246 -0.79641414 0.5087876 0.2525183 0.6395535 0.00910438 -0.3481969 -0.6862714 0.2604077 0.36161438 -0.001344629 -0.4654769 0.3833763 -0.5898989 -1.1982971 0.08611266 0.69913113 -0.66804636 -0.6296458 1.7369081 0.039814092 -0.14440948 -0.8294389 0.27606133 0.1333893 -0.6728617 0.89045936 0.13281694 0.6391614 0.099205144 -0.23387304 -0.54466796 0.4605389 -0.16260323 1.0042864 -0.78935623 0.28374794 -0.21953201 0.03029011 -0.07866419 -0.039370056 -0.53030723 0.53509814 0.659473 0.30580187 0.2148602 0.13348947 -1.0638291 1.4061419 -1.15293 -0.81320125 0.092577465
701 -0.43282154 -0.40138987 0.83587784 0.16563937 0.39817867 0.38315943 0.89991516 -0.92486596 -0.73898995 -0.104127556 -0.2853882 0.35983184 0.67699254 -0.061364885 -0.24703403 -0.3372479 -0.00639153 -0.45414954 1.0972797 -0.1977561 0.3096752 -0.16968168 0.22917609 -0.5096994 -0.57053775 -0.9554781 -1.5670526 0.19706619 0.31637526 1.530356 -0.36303404 0.26939365 0.32862335 0.4781077 0.5225258 0.7913613 -1.1967497 -0.06964159 0.68627155 0.21817493 -0.955888 0.22356701 1.0499644 -0.05907982 -1.4551045 -0.8755096 -1.1145457 -0.44691017 0.8811858 -0.05366752 -0.08345284 -0.3388489 0.051790297 -0.5281934 0.28486755 0.25165457 0.88011134 -1.1598816 -0.34980214 -1.6206852 -0.5506966 0.0724075 0.2764615 -1.2540506
2635 1.1313585 -0.72048336 0.018761873 -1.2332691 0.5391148 0.7179892 1.0264918 0.14782214 1.8812177 0.32768086 0.3821071 0.062297273 0.9779891 -0.26087323 0.8451716 -0.2533619 0.19522768 -1.412491 0.9194867 -0.15432027 1.6115266 0.3796451 1.9155566 0.48335612 0.9276575 -1.7908266 -0.5537216 1.0061402 0.9845057 0.04706013 0.8495418 1.3378423 -1.3299503 -0.10983147 -1.1880236 -1.6665972 0.30846176 0.3787561 1.033122 0.8068077 -0.3925943 -0.71680593 1.5598035 -0.7663556 0.22599952 -0.21031852 -1.4304837 -0.25061023 0.5270425 0.8972097 -0.94781125 -1.0155528 0.17091618 1.5738122 -1.0016137 -0.77745 -0.025572812 -0.5476738 0.1097706 -0.28973186 1.5016598 -1.4242853 -0.7998378 -1.0148059
637 1.6289574 0.25470805 -0.7702149 0.57160044 -0.0009461517 0.3890228 0.84214044 -0.37178394 -0.88999116 0.6438832 -0.87033087 0.15473582 0.6028558 0.47097972 0.26842538 -0.07134409 0.06839384 -1.5296764 -0.34264314 -0.6306962 1.1991559 0.25052464 -0.50037676 -0.3247798 -1.2545191 -0.55186445 -1.1409689 0.7753518 0.8336985 -0.56673414 -0.4683229 -0.9095668 0.94353825 0.2673753 0.66272736 -0.866827 -0.39804313 0.1173589 0.7103474 0.5491213 -0.7863438 -0.2585817 -0.2724534 -0.54106337 -0.35892877 -0.5778379 -1.149537 -0.22217639 0.7681121 -1.0856066 -0.08188404 0.01585336 0.24943049 0.10312629 0.20376956 -0.770893 0.77153116 -1.1778785 -0.7507179 -0.015091548 1.4266565 0.54899734 -0.6000945 -0.30259436
958 5.5069833 1.0098846 -0.9289229 -0.6106048 3.9883854 -0.35146788 1.863505 2.9651902 3.618721 -0.81059575 -0.25476077 1.5178924 2.511703 -1.7440975 3.1991029 -2.7565703 -0.006426995 -0.263508 2.2150905 0.6991755 -1.5487341 -1.4485368 4.164791 1.6674807 1.6297685 -3.0231078 0.20600362 3.700098 -1.3723594 -4.374397 5.0743966 3.9621944 -2.6749277 2.8432615 -2.9673045 -2.435172 -1.2287538 3.217401 0.08982327 -1.359925 -3.1585877 -2.7209165 1.2937225 -3.971322 -0.16482739 0.5540008 -1.0178949 -0.8312582 1.5475487 0.036048356 -4.54132 -2.6090345 3.777251 2.5590923 -3.566095 -3.4582949 -2.5795372 -0.804002 1.55537 0.06542729 2.1234574 -2.4021304 -0.5448189 -0.30379355
2444 2.2208416 2.1683161 -0.06940941 -0.14392465 2.449257 -1.0474846 1.0161431 3.11994 2.9030857 0.1491492 -0.1286912 4.023693 0.8044785 -2.355186 2.03605 -2.0678446 -0.2480519 0.84053636 0.6412271 -1.1188635 -0.8662453 -0.38918766 2.411082 2.6723356 0.36887145 -1.0007205 2.4783208 2.8221922 -2.4998307 -3.437118 3.4212275 3.4690616 -4.0722938 -1.1719377 -1.3492873 -1.8174764 -0.043344077 1.0541605 -1.3115934 -0.77749735 1.2746973 -1.8618991 0.65911204 -4.3921847 -2.8396754 2.0799878 -3.2292514 0.44497585 1.3608669 -0.3227346 -2.5280645 -1.848545 4.187859 1.1534154 -1.9453994 -4.066762 -0.71058106 -1.5881786 1.0035559 -0.06551128 0.6156883 -2.8327374 -3.1471388 0.12569644
2419 2.839315 0.6421366 -2.3989818 -4.4333277 3.9479127 0.2278464 -0.17209296 -0.340098 0.9372115 2.0745869 -2.0988271 0.6539564 1.8069108 0.7463244 2.0223157 0.7752116 1.5685608 -2.0556939 2.1204472 1.465518 -1.0953901 -2.5216773 5.476274 6.613311 0.26048312 -1.8548739 -0.6090618 2.4246485 -1.9427369 -8.011732 6.389337 1.1699411 -0.69315445 -0.40087476 -1.1873442 1.051898 1.002292 1.7054881 -0.62403524 0.34263656 -0.31870136 -2.8273447 -1.713065 1.5863818 0.10564463 0.041448347 -2.4512436 -2.5464787 2.182256 -0.6655158 -0.31030965 -1.9975431 1.4948918 3.1932 -4.1304364 -2.0141985 0.25600913 -2.2512858 -0.8040074 2.5405915 2.7769446 1.5100107 1.7768241 0.47512233
380 0.16569827 -1.0955656 -0.23032078 0.111205444 0.78430754 0.87218595 0.86224896 -1.0632058 0.38093817 0.017676536 -0.8506025 0.59572303 1.3346789 -0.0949914 0.27603543 0.57877564 -0.28515095 -0.6736306 -0.41757625 -1.1282839 -0.054659862 0.425853 0.7007471 -0.30585292 0.015639203 0.59648407 -1.5785642 0.35181937 1.4839348 -0.15629557 -0.51191676 -0.65256965 -0.81416905 -0.23602955 -0.5849603 -0.29292515 -0.64508224 -1.374676 0.5183027 0.5294882 -0.51135397 -0.096429326 1.1110145 -0.46896002 0.7778521 -1.0751824 -0.42925435 1.4609401 0.7705442 -0.17623466 -0.101926334 -1.1470823 -0.1613552 -0.18542618 0.34619817 0.0018236012 0.88836634 -0.46316636 0.18529989 -0.24107164 0.51417655 -0.46118948 -0.6567442 -0.77777785
2445 -1.0118438 4.145881 0.76846683 0.6153073 -1.7344431 0.79209125 1.3936734 1.5212641 2.2265904 -1.3203299 0.38762927 2.04834 1.9493246 -0.0025197219 1.060885 -0.44092357 0.8223135 1.1153345 2.30103 -2.3239243 -1.8858888 2.1171188 1.0965921 -0.56538624 4.64625 -1.1376026 -1.7674873 3.1996415 -3.1221995 -4.144232 3.0126696 2.2149405 -6.2354717 0.08185167 -0.36753651 -1.711923 0.96079093 0.76223445 2.390099 -0.3431533 3.7248924 0.100195885 1.6728977 -2.1342566 -1.464173 -0.21451396 -1.9970174 -0.989315 2.4369206 -1.2751389 1.3438482 -0.58812106 2.4606202 2.5283542 -1.8992288 0.6029398 -0.9525306 -1.919078 -3.2074513 0.2629454 2.03746 1.4884228 0.3223636 4.694928
595 2.147282 0.29964727 -0.057212733 -0.8701829 0.63122094 0.6273054 1.0425614 -1.2723646 0.020191591 -1.5989504 -1.0928249 1.1190476 0.76885253 -0.5091973 -0.13994972 0.7769922 0.7104244 0.2072511 0.33573657 -0.08073188 0.6497164 0.32408702 0.760643 -0.87430155 -0.24673465 -0.9803937 -0.43528038 0.15212978 1.7505797 0.018892067 -1.5114589 -0.020468546 0.74173635 0.8284596 -0.5891835 0.18336485 -0.17652862 0.06609179 0.67584866 0.85423493 0.3616062 -1.351361 0.77254105 -0.32501805 0.056067742 0.20175445 -0.02582517 -0.8897114 0.1384009 -0.032104712 0.6824533 -0.0492551 -1.063456 0.6105788 -0.7670553 0.29745734 1.3708961 -0.0888821 -0.59396845 -0.82657737 1.0918143 -0.39433828 -0.059808895 0.38700864
462 0.1513626 -0.5845334 0.4717419 0.7096276 -0.033986654 0.077470645 0.7805031 -0.8886106 -0.56043166 -0.19111706 -0.09395636 0.08746016 0.43797392 -0.24201621 -0.042197637 -0.44972515 0.16234548 -0.5681853 1.2722682 -0.44586596 0.74110264 0.13783097 0.28661892 -0.49552602 -0.4208573 -1.304179 -1.4459728 0.35843807 0.37357926 1.3017131 0.055448025 -0.3869794 0.35146153 0.3473512 0.69099087 0.8347318 -0.965946 -0.46711984 0.8187865 0.2975512 -0.7067606 0.27915376 1.1844203 0.32571322 -1.4731967 -0.68247503 -0.7553659 -0.13073954 0.58219546 -0.6815184 -0.21465601 -0.265387 -0.3497697 -0.36763364 -0.10692683 -0.34102094 0.69878465 -0.7361123 -0.1535591 -1.562023 -0.27134395 0.14254516 0.6071403 -1.4067708
