2996 64
4 -2.43017 0.401429 1.4123363 -1.361614 0.6028557 -0.1751988 1.1941603 0.5194721 -1.2446145 -0.015745169 -0.8423057 0.6925613 0.18562083 0.36572543 -0.85566735 0.3940079 -1.6125644 1.2566806 -2.1463134 -1.1205199 -0.02340946 -0.035498515 -0.5919482 1.1717837 1.7661452 1.7041447 2.380267 -1.4861151 1.0212389 1.8135684 0.29281348 1.8203927 0.46375647 0.13254026 -1.7713748 0.99898636 0.53047055 -0.89849496 -1.7083205 -1.4382024 -0.1703919 -0.29353815 -1.1118311 -1.1478707 0.29388037 -1.0158004 -0.83942604 0.23989086 -0.58574414 1.3565395 0.14960058 0.66918206 1.115143 0.77626973 -0.4165454 -0.11347001 -1.0278605 -0.27918285 -0.6847213 -1.1502243 -2.0306911 1.3717805 -1.7716337 -1.5075866
22 0.5150758 -1.3641205 -0.45687944 0.63048935 -1.0069675 -0.8182687 -2.8985014 0.5231647 3.732617 1.2511808 -0.66518354 -1.1390163 -2.0984223 -1.0329411 2.58219 -2.5935931 0.83495635 0.40068778 -0.12556192 1.6022577 -1.5506625 1.1990511 -1.2034628 -0.7514342 0.2826726 -0.6821643 -1.4151124 0.7703343 -2.0219893 -1.2986512 -0.24834117 -3.123804 0.2803903 -0.80559164 2.3248026 1.5679953 2.1176994 -1.0562603 -0.7875232 3.194594 0.32605243 -0.67572707 -0.80538225 2.1602767 -0.3322532 2.3068264 -0.6925792 4.3923035 -4.1923046 0.17712268 0.026155531 1.2022356 0.30994874 -0.85325646 0.95788085 -0.89520794 0.9524768 0.859179 0.03889329 1.4467404 0.6406263 -1.0515417 0.20794773 0.4483852
3 0.1413616 -0.43436038 -1.147825 -0.20069452 1.9253434 0.7800483 -1.4317703 -0.2988919 -2.1517255 -3.1163013 3.3993397 -6.238156 -0.41560733 0.6344354 -1.5576515 2.2956429 3.7779965 1.2619883 2.2863538 4.772081 0.69006574 -1.3271728 0.9273061 -0.67705154 -4.767581 -0.04249572 -5.2841988 -0.039221004 -0.5046092 2.6325116 2.2386122 3.110605 -3.0710273 2.1878955 1.624293 -1.1925482 -6.695454 1.995092 2.5459871 -1.573363 -0.4810163 2.6581223 4.623522 0.92983127 -3.8563902 0.013419294 2.1520662 -4.6725116 3.9727657 -1.57985 5.322555 1.8544408 -3.5418699 -2.4214697 1.0976332 -0.11823682 -3.0168908 -3.3330796 0.6412896 1.683559 -1.7547492 1.0655416 0.94301 0.29939464
45 -2.24379 6.8465858 2.5047836 1.8731966 -1.3852228 -2.545619 4.9013777 -2.1738045 -1.505117 -3.94309 6.4105377 5.1930966 1.2890065 1.70549 1.1123822 -3.5051284 1.1232039 -3.6884103 4.9159536 -0.1283614 -2.9666712 1.0996473 -1.0490086 -3.555985 2.1452944 0.37017107 -0.5413582 1.0615873 -1.2134414 -2.9354093 2.999387 -2.8646777 -0.9377487 -2.4345727 -0.78211886 -3.8711815 0.6020924 3.5233352 4.8292317 0.9401863 -3.0369697 0.22628428 0.13293713 1.3296598 1.4194602 0.39479113 -1.258661 -1.0755894 -0.37690622 -1.7953196 -1.3947294 -3.6334753 0.027917385 5.527295 -3.758639 1.2493036 1.1021826 0.100139484 -2.7596414 1.3390297 7.147558 -0.13264841 0.66527426 2.9167469
7 4.9859943 2.6707418 -2.2076654 -4.1468296 -0.027558338 4.435106 0.61208194 -4.1250253 0.42773446 -0.23853083 -1.7363461 -0.53619164 -2.215845 6.9150085 1.0280932 -0.15149593 3.907362 -1.0329639 -2.9242215 1.8064464 1.8532684 -5.0863233 3.5933278 5.9108744 0.1336822 -0.66717845 0.81488264 2.3978627 -2.458268 -0.67455727 1.8127462 -1.9378145 4.782731 -3.9100597 4.2250214 4.008893 -2.7441409 2.221703 -1.0540239 -2.6302056 1.0069014 -0.3099331 -0.6932309 0.89957273 -0.07224497 -1.2769165 2.6780586 -2.20414 -1.447282 2.2539084 -2.399627 0.08559589 3.6106071 3.3741863 -2.9479437 4.3410783 -0.2191183 6.15435 -2.9695582 5.1375184 -0.91243374 -0.8522999 1.3774395 2.989216
28 4.990964 -2.867075 2.6190317 -2.2167645 -0.5104009 4.2043314 2.3054938 -2.7057261 -3.4652905 -3.1633148 -0.15986821 1.4253484 -1.7496626 -0.8691561 -0.9253831 4.131362 -2.8848045 -1.6596162 3.8811514 -1.435008 0.8563685 5.7208934 0.48440135 -1.1753733 -0.35413054 1.9877776 1.3016826 4.1672335 -0.053769093 -3.2762299 -4.116184 0.94799405 5.1558733 7.2352147 0.66118884 -0.5850893 5.4865522 -1.9263479 2.1144836 0.78845054 0.66276056 1.3182058 0.41919217 1.8888999 0.672032 0.5666226 -1.6317565 1.2864798 5.720635 -0.12161953 -3.3783076 -0.19894399 -0.37468374 -4.615877 0.4649394 -1.0090177 0.52718425 6.0723157 0.47309673 -2.3692985 -4.4252014 -2.7748199 -1.2992349 3.4945705
42 4.5162797 -0.6100122 1.8751678 2.4853718 1.836099 6.098966 1.7828947 -0.45807278 -1.101178 -3.3000128 -0.059158403 -5.593479 -0.57892984 0.71040374 2.0267823 0.1228836 -2.675051 0.3503964 -6.0218596 -6.4063168 2.2797637 -0.2749591 1.5020041 0.32323858 -0.55780447 0.029075703 -1.0202091 -1.0228227 5.07549 -0.87901384 1.6947103 -5.0120897 -0.42074016 -0.23829375 -0.1710541 0.17183124 0.6751806 5.359971 2.044365 1.8046162 -4.333493 -0.011288675 -0.09589089 -4.846797 1.4129677 -4.774059 3.6002638 2.2813094 2.7164385 -3.2934222 0.09750861 -3.9335034 -1.9326415 -2.758783 -1.1285396 3.0942638 -2.7053807 -2.3845017 1.8558698 -2.1901388 1.8360744 2.0677204 2.4677145 -2.393996
23 -0.39781293 -0.91150916 0.8270423 5.430873 2.7265687 -0.808827 -0.43700948 0.021647392 -0.07215756 1.6368583 -1.0481014 3.5847478 1.7629498 -1.3533186 -2.0466175 -0.2926506 5.9170327 -1.3104665 2.194689 3.9072356 3.5788906 1.5977753 3.054998 0.1248475 5.148336 1.7004365 -4.931507 0.03560511 0.70359445 -3.326604 2.1287353 -6.5388055 1.5989771 1.8727341 -1.9927777 -5.555709 -3.3892 1.0077752 -0.918959 -0.074843496 2.0219486 -2.075435 2.121172 -1.1374538 4.621563 2.795451 -2.3962283 -7.2835765 -0.27639854 -5.3532925 -2.8064551 1.8749884 -2.924547 3.2299786 1.1892508 0.85823244 0.6374932 -0.6180929 -0.6346292 2.8577216 3.970752 -0.9825928 4.1338673 2.050568
25 5.7131786 0.49255884 -0.3720408 -2.2629366 1.1085062 -2.716816 -0.09030535 -2.6537356 1.7706687 -2.2778733 -5.3114448 2.0155833 -2.979992 -4.028521 0.067962185 -1.2687402 -0.03426178 -2.916056 -0.27930894 -0.28966823 -5.1172233 1.5938329 1.9047997 -2.844901 -2.3197348 -3.534368 5.360888 -0.2623191 0.90105957 1.7034264 -3.9674203 2.293101 -2.63979 -0.18188998 0.23369792 -6.5239544 2.3370357 2.8033178 -0.7094756 -5.6818566 1.3959204 1.6758677 2.4027412 -1.1047169 1.7590466 -1.9030341 1.7045133 -2.9995172 2.7326362 -3.3225021 -2.6199043 0.1992961 0.13351691 -4.0355144 -0.4087565 0.8745806 1.7295821 1.1970992 -0.9537923 -3.1332207 -2.61203 -3.3548713 0.37290534 -2.2090943
26 5.3091555 0.50551957 -7.6681223 0.9702378 2.084755 -2.7736297 -4.322153 3.2933452 -2.8662894 2.6835845 5.074147 -5.3234525 2.0476375 3.6999898 -6.9863567 3.7872813 3.5155444 1.1222581 0.7704633 -0.037610423 1.5150054 -5.814197 -0.18906762 -3.0617943 -0.46563113 3.031591 -2.8259594 1.4747943 2.7001255 -3.0763447 1.0833502 4.0401983 -1.5463828 -2.488163 -1.4694523 -3.2575626 -4.4959683 -2.391333 4.403202 0.61649054 0.20127673 2.9296303 4.381304 -0.9008508 -0.29866585 -1.130291 1.3995683 -0.7788208 5.9068737 -3.6068294 0.79005027 3.3603332 -1.5881883 1.2464285 -2.0470152 -1.4993436 -0.13982284 -1.298104 1.2157398 -1.4059504 1.661769 -0.945837 4.4769945 -3.255949
24 2.4230533 1.1915106 -4.2408433 0.72084975 -3.411714 -0.59501207 -2.7221358 2.6275887 -1.0022662 4.0589256 0.08138234 -2.293599 -0.26454782 0.48462954 -1.0122576 3.4158273 4.7929463 -0.5728581 7.523991 0.6878621 4.334751 -4.18276 2.5909464 -2.291868 -4.5819535 -1.0631796 1.2106776 -5.0967255 3.2496316 1.527498 3.734189 -4.055674 -1.2958966 -2.8206306 -2.2357302 4.232085 -2.258683 0.16983125 4.7576084 -2.9431274 1.0729175 -0.4162459 4.6997848 -3.0493963 -3.7283134 -1.5758889 1.2429236 -4.340915 2.0944312 1.2549407 1.8209517 2.0479455 -2.552532 -4.0802956 1.5697579 2.1465313 -3.2037063 -1.0257243 1.0265915 -2.2198803 2.9252114 2.5645232 1.4859993 2.5643847
15 -3.5519404 -3.1509666 -1.2361462 1.0710229 -2.1765823 0.5114558 -2.314631 -0.9584634 -1.9244959 -3.3395574 3.6238205 5.0472555 0.65315306 4.4189286 5.4669175 1.1127781 -1.7909838 -2.072347 0.38516104 5.428924 2.1139405 -3.9384964 0.109037675 2.4262729 0.4045046 0.6598575 -3.6918945 -5.7198586 3.5221634 0.0891603 -3.865658 -1.7136083 -0.78548133 3.9448762 1.4865286 -7.3826914 2.6885033 3.1431255 2.1319902 -2.686751 -1.0236678 -1.0513725 -0.30928573 0.2745671 -3.2505229 2.6997132 4.480798 0.096306 -3.7446055 -2.5039914 -1.701292 -0.59491414 -2.661036 2.78265 1.6144669 -3.240381 4.589981 1.2654628 0.88891226 0.46772864 2.9575229 0.51069164 2.8061936 -1.267913
100 1.2096808 -0.19608422 -1.9498972 -0.21512616 -3.3003967 0.6874921 -2.442683 0.9019938 0.36142862 0.5619268 -0.47555828 -0.4748517 -1.3412652 -1.8659296 2.8304203 1.1949217 -0.22228114 -2.914828 0.64513505 1.7051569 1.985489 -0.14331907 -0.9360683 -1.0800555 -3.3994968 2.3888931 1.969183 7.185563 3.1109488 1.5244159 -3.8426728 0.9059677 3.261353 0.4486616 -0.25815424 -1.992411 -3.926924 -2.3654835 -1.5821548 1.3840306 0.019922135 -0.69456255 -3.6917512 -0.7754335 -1.9183178 3.5707452 -1.3555508 0.39706394 1.0313575 -0.78689015 1.2225678 -2.4239626 1.4601623 1.444381 3.8137121 2.3372123 -3.5322332 -1.2188511 -2.3020394 1.5541385 1.2832657 -2.5361836 1.1019282 -2.1232533
33 -0.14421399 5.9232802 -0.7072368 2.330139 2.7383778 0.74254036 1.981037 -2.34694 0.20396128 -6.165453 -0.7303161 1.4433973 3.6159008 7.0197945 0.67273694 1.4849367 4.582603 -2.2400944 0.6148325 1.6591377 1.3515562 0.90735143 1.5724071 -1.1549038 2.1215255 -1.7063216 5.4389224 3.759508 1.3685405 -2.5262575 5.0432706 -1.2856361 0.503142 -1.4566654 -1.4552948 -6.071139 -0.6600973 2.2699986 0.8942023 1.636408 -4.9626145 -8.292453 2.4516666 0.21278128 -3.0352693 6.66829 -3.1605322 2.2057636 -1.441592 1.6983553 -3.3291752 -1.3402766 2.9568653 -2.3648658 0.6950643 -4.1746745 3.7253335 -3.408482 6.1144366 -1.9050809 1.1518381 -4.169297 0.96743226 0.53827643
55 2.8412611 -0.2882001 -3.0670896 0.63956106 0.34778112 -2.983245 0.79051673 -1.5207148 -4.8510375 -3.12735 -3.379341 -0.838601 -0.31035516 1.1975274 0.53465974 -2.2974572 -2.3699315 2.3209083 5.203417 -0.91032153 1.9712653 3.0834594 2.6717262 -1.009482 -0.90656614 -8.861088 -1.7317196 -2.7985277 -3.3251648 -2.9323556 -3.9115355 3.4836316 -0.30905768 -0.042932022 -0.6872181 -1.0789992 -0.6140325 -1.3382068 -1.4934541 -2.0331407 -1.1724776 0.271691 -0.8983272 0.4188337 5.599887 4.124582 0.68895316 0.20391957 -0.39140147 3.3677518 -1.9000213 -2.1325107 3.3992472 -2.5164673 0.5843457 0.09849091 -2.505974 3.711778 2.3368137 -1.6678135 0.6019933 5.898042 3.0540848 -4.5310407
20 -0.43572566 -0.300547 -0.79249597 0.9766728 3.4415686 -0.94809073 -0.34909725 -0.18667258 2.3955574 0.4488727 -4.173183 1.2240543 -0.37152177 -2.314055 -1.1097314 5.994091 -0.10001426 2.3093987 0.68650943 -1.3081588 -2.2119157 -1.6984632 3.6226497 2.1187973 -2.4472904 -0.9153687 -5.6277294 -0.15515767 0.0034889998 5.656711 2.865755 3.2677867 2.9868462 -0.23137598 -1.4634615 -1.3310009 0.8289084 -2.2701879 5.67035 2.9301393 -4.1323953 -1.577634 3.226823 1.6062108 -6.688198 1.3514853 2.5576491 1.3731306 2.5391989 -9.240501 -1.1731763 -1.1599468 1.2803134 -3.3309562 -4.2961855 0.52894676 -2.3471937 1.394892 0.13989699 3.8208928 1.3067133 1.3810337 6.0973725 -1.2975221
59 -2.9007716 -3.2967885 2.0024948 -4.0911293 1.4795126 -0.16271047 1.4636278 3.828361 2.6389554 -3.0062015 -0.24614173 0.60128343 -3.0591726 0.16846955 -0.38315645 2.0721421 1.0267501 4.7089314 6.0585318 -8.673789 4.662861 -8.002786 2.104047 -0.6570617 0.5365845 1.7020276 3.4262571 3.7451441 0.26170027 2.315952 2.1276474 0.63479275 -2.9596922 -0.9371262 5.234553 -4.65416 -4.743976 1.7133383 -0.7318847 4.9672 -3.7235954 1.9357275 -2.5377111 0.38949326 2.938781 3.5140562 1.9590981 -0.22021982 -3.7418127 -0.2708087 1.5839511 1.678308 1.1504235 -1.8384216 1.578102 0.57728726 4.415107 3.2626014 -1.3224947 -1.2988918 -5.110671 -1.1066352 4.843087 3.71882
37 0.42460972 1.316579 -3.047947 -0.802165 0.061090473 0.16614503 -3.2880437 2.5764186 -1.8992494 -4.156295 -1.0188373 3.2510176 -2.876881 1.1806024 1.383507 5.26261 -0.8957082 -1.0613834 -0.17657083 -0.71660566 3.110496 1.6358974 0.18525654 -2.2292755 5.271556 -6.930347 -1.3909771 0.772556 -0.25912154 2.9911478 -1.1083196 -3.03445 -0.67638224 -1.3957835 3.7265122 1.1875291 -0.9873793 3.0889864 0.5207768 -0.81027114 -2.9626868 -0.5842894 0.19353491 2.3225083 1.4427835 1.1474916 0.93986297 -2.7997773 2.1031375 -4.9977894 -3.808192 -3.2815382 -2.3889678 3.4979053 -0.37183702 -1.8269258 -0.65042686 -1.0381508 -1.8736258 -0.09135224 2.235444 -2.865624 -1.5956637 5.4631653
36 3.4137506 -0.14184597 0.48924276 -2.983867 -3.6403918 1.0771861 0.12167526 1.5165288 -3.0409079 0.7049585 -4.7488527 -2.831592 -1.2840047 -0.12776518 1.1134671 2.6156747 -3.6305947 1.603632 2.617342 2.7474337 -1.6065148 8.16535 2.0398843 2.8041918 1.6057215 -4.0419073 6.0131063 0.31892964 1.6660023 1.741074 -1.9949914 -1.1730893 1.8531874 -0.7461651 2.3949971 -0.7415882 -2.937102 -2.0854094 7.7789474 1.9907763 1.1361572 3.8903985 2.445988 1.3888474 6.717908 2.3260772 1.1933256 1.1727906 -0.21386476 -0.9718105 -4.9107876 -2.2503412 -0.63835806 4.1039186 1.7552562 -2.0468028 4.296376 -2.1053407 -1.7664704 -0.98812664 1.2019744 -3.3286798 1.417415 5.029927
5 1.3924477 -1.2946924 -3.5514226 3.6152008 6.353251 -1.9631331 -0.65659976 -2.0162878 -0.6401565 2.4995008 -1.181228 1.423505 4.7965164 2.86198 1.4879912 -0.9656053 -2.5267503 -2.7330232 4.058383 -3.581746 3.843065 1.1072103 2.2284384 -0.58010733 2.0828254 2.4094956 5.2317314 0.20422366 -4.1691494 0.235883 -4.580682 3.0812094 3.2161155 -1.8705181 0.43803284 1.1825218 -2.3371203 5.7989426 -0.37550834 1.3592017 -1.048809 2.471063 -4.9302254 -1.4060706 -0.25486654 2.1880672 2.9010425 1.6257545 1.7498618 1.8362368 -1.2561548 -0.38283268 -4.3546357 -1.6209675 -1.0635158 5.5491924 -0.0011709789 -4.313203 1.7949651 0.74226165 0.6461652 1.6224195 -5.867357 2.6498582
87 4.2859526 -2.4695873 5.175546 -0.7061456 -2.6076732 0.23670383 2.064252 -2.2864208 3.4251442 2.2811606 2.4610214 1.7607943 1.2924852 0.3479655 1.7908555 0.050500877 -0.7526551 0.596408 3.6484654 1.1880306 -2.1133177 -0.95001227 -1.4734534 3.2656229 -1.6386048 3.123418 -0.62655133 -0.34108877 0.10980742 -5.3564053 -1.3187975 0.9874376 1.0840777 3.2277648 -0.8914286 -0.5482503 -0.51617855 -3.5795062 3.086573 0.20413683 -0.7709676 0.610532 0.549455 -1.0723876 0.7421583 1.3759714 1.3810121 -2.0874214 -5.1857085 -0.109925985 -4.752961 -5.7008424 0.0052205445 -2.3942947 -0.29419816 -1.2711798 4.006712 -0.64923525 -0.046988416 -2.8095627 -0.32529414 1.0349314 -1.5018599 -3.3458953
1 3.0160313 -0.53003865 0.8155226 2.1133447 0.57665646 2.5958002 2.261027 1.6607105 -4.414891 2.7474718 3.8119044 2.8113084 -0.1396479 -1.0625285 -0.23208229 0.69904345 -2.8028393 -1.6805993 -1.1505668 0.77943504 0.96138793 2.0623546 1.52272 -0.49974483 -2.8803477 -4.831962 0.66215426 2.2972486 -0.62310046 6.1670485 -2.3730283 3.233557 1.664819 3.852134 -0.31795636 1.3932929 0.5345901 2.534893 -0.80507964 2.237857 -0.5960623 -1.0796812 -4.643053 1.9223449 3.180511 0.72872114 -1.3787732 -2.2971475 2.7618117 -1.691653 -5.7187967 -2.8779142 2.6203556 -0.66914994 -0.41809943 1.4417263 0.4127871 1.1955864 5.2911534 -7.1286654 -0.63934606 3.3786426 3.1885252 2.7606468
40 2.6626086 1.5017139 0.23364985 2.942392 1.5471115 1.3726852 0.9146607 -1.3618473 0.24498032 -0.06710031 3.5465932 3.9327502 0.32265085 1.6774377 4.807545 3.378054 1.054173 -1.5724696 0.34895238 -1.9623128 0.5812875 1.3889587 -1.8016267 -4.2559733 -0.51755744 -1.6418114 -1.7696985 2.698808 -3.1750994 -0.94293594 -2.1742065 1.9678404 0.012666205 -2.7691529 -0.94383883 1.9907432 -0.78003514 2.1487107 2.4023144 0.5375896 0.5993457 2.112605 0.28137562 1.5473421 4.01867 4.713386 3.0930066 -4.0030475 -3.1896236 -1.7626776 -1.2434106 -4.556361 0.8531734 -0.50217736 2.508757 1.2803931 -1.1669772 2.022746 3.374966 -4.128547 1.1309912 -1.7564157 -1.6834159 2.7262187
14 1.2811692 -0.6975673 -0.11362117 1.0361052 -0.55375564 1.6128594 -0.16348405 -4.5026546 -1.6485467 3.283259 -3.5223699 2.9088743 0.94170374 -2.012937 3.8266704 7.055801 -4.263081 0.9048753 -0.11741511 -3.4274168 -0.83292055 -1.867603 0.062396124 -3.8249946 -1.1121355 0.8655015 1.2793658 3.2094185 -1.9754992 -0.93746626 0.7555718 1.8626391 -0.15709198 6.2261953 -1.2115781 0.69853216 -2.5205207 0.27452248 2.17079 0.33635634 3.3556578 -5.5644603 1.1933616 0.92789805 0.3293063 2.9046845 -0.15388927 -1.9303608 2.161882 2.6422772 -2.0127692 -0.5801873 -1.8039488 1.3265777 -3.4363325 2.2443988 -0.055977803 1.3804418 1.6865727 -6.350264 -0.6921414 1.3060111 -2.3857489 0.34671977
63 0.3523861 1.3819429 -1.6162107 0.06026477 0.57361764 -1.4635872 0.70561033 -3.0404067 -0.7007976 1.2914501 -2.250545 -0.0069854157 -0.24606496 -0.08625917 0.80807996 0.1825045 -0.63064384 -0.54039735 1.2446393 -1.1125814 3.6840746 0.62187463 -0.19167781 2.6544807 -1.9395298 -2.7362509 -4.1564455 -1.7967411 1.7863859 -0.8717713 1.5081093 -1.4573747 1.2895219 0.8691615 0.31225446 -2.5078256 -6.3693557 3.777771 1.9696621 2.0815797 0.29342645 2.276098 0.6304061 2.7947576 -0.3362861 -2.355433 3.348891 0.22305639 1.5540221 2.8816764 0.8729153 -2.7435226 -1.2046595 -0.5638531 -0.9152031 -1.50421 -1.1974379 1.8759927 0.43599302 0.74393255 -2.3668873 1.0846721 0.92289746 -4.269661
92 -2.2317638 -0.95290834 -1.2540566 -1.6565185 0.68175256 -2.1414127 0.92473674 -1.3941551 0.86001915 1.0713497 1.1378384 0.41845113 1.3971236 2.1887424 1.3538412 4.3875647 -0.91475147 1.2586672 1.6486272 0.36836982 -3.1840577 1.5289812 0.3273503 -1.2601742 1.4928435 -3.577628 1.1540108 -3.8370364 2.005363 1.2224556 -2.0622296 -2.9464285 2.260242 -0.6607141 1.0449442 -2.5457735 -3.4382513 1.4058473 -4.3012953 4.953937 -1.42363 0.46915737 -0.23101732 -2.8651743 0.94493693 -3.895224 -0.65944785 2.338144 0.96677446 -0.21038671 0.060766056 -3.9624717 3.2929535 -2.8541975 0.25690126 3.3175285 -1.2384208 -1.2183592 0.2619271 1.1665083 0.8853397 1.9780588 -0.4911047 2.8246884
27 2.5819588 1.5028765 -0.69623166 4.439682 1.8527304 3.0008123 0.9083352 1.3532306 -2.574167 4.401405 3.4379106 0.5012661 0.96625453 3.2000551 -3.7417254 3.0928586 -3.0869973 -2.1834495 0.31259564 -0.015491103 -3.0575988 -1.8333123 -2.5788617 0.35324714 -4.839627 -2.5334616 0.1898763 2.0143309 -1.4163656 4.9270797 1.4595807 -0.88880086 1.9895906 -2.118644 1.5055479 -1.817583 -3.6052547 0.032173797 -0.14396352 0.055887893 -1.0648068 3.087392 1.1143731 3.510481 0.34556907 -0.89203954 -0.67290515 -3.731789 1.5681 -2.712191 -0.65547764 1.6155646 -0.54020655 -1.160312 2.1727738 1.5843873 3.1000278 -1.4425962 4.8743205 -0.58283293 1.1846379 2.0274982 3.3782275 0.4760237
67 0.455932 0.18398683 -0.89513344 -1.6434199 -2.060839 -2.247453 2.1485863 -0.43371016 2.0755851 -2.2053742 0.33881417 -0.79983974 3.4677193 0.4514403 1.0333287 -3.7093832 -2.0993578 -2.0910537 3.1603208 -1.2012312 -0.88667214 -1.169307 -1.4027958 1.3789349 0.22216003 -2.445005 4.0212336 1.1583927 1.0459691 -3.5435023 4.495814 -2.783826 -0.17429024 0.36773843 0.29185334 -2.3174248 -1.8945674 -0.1777903 0.6367354 2.282265 2.8617396 -2.7001588 -4.346752 2.3643026 -3.32618 -0.20059542 1.1581149 -3.2725356 4.665362 -2.9570932 -2.5620508 -2.315233 2.9912736 1.2569917 -0.67133254 -4.7070384 1.5241362 -1.5377786 2.351948 2.1892762 4.3670826 2.4721627 -1.9129608 1.5744157
43 4.1779847 -0.4390992 0.34794295 -1.2866291 -1.8762858 1.7074368 -4.096495 0.11761829 -4.0669227 0.08690521 -0.08679395 -1.7082183 -2.030698 0.07187865 0.8016348 -1.0097948 1.2468575 3.9102802 1.7771866 -4.7839265 1.4525669 -0.13907726 0.8081579 1.3402836 -4.557878 0.7969059 4.107601 -0.40143558 -3.476112 2.5596235 -1.6601251 -0.9687618 0.36834782 -7.0016584 -4.74523 -1.3104489 -0.7578001 4.417673 -5.0242486 -0.03375107 -2.1779032 2.0051637 0.85860014 0.7221232 -1.1634953 2.0411234 -3.256211 -1.2408854 -2.6621463 -0.8894551 -2.9737759 -2.9485292 -3.721017 -2.0348911 0.5655152 -2.4076257 0.04058809 3.1155894 -3.1739037 0.17420891 1.9999136 0.11950924 1.3723781 -1.0286059
16 1.8512696 2.2143047 0.28101197 3.278268 -5.44902 -0.5318366 -0.46632 1.9039505 0.21098153 2.2563407 4.866203 4.9864645 0.22316593 0.23468307 3.073266 -3.8598475 0.636231 -3.5630753 0.4560627 1.0179144 -2.3897598 -4.581918 -1.0250266 2.390355 1.4400306 1.867985 -2.5686238 -1.6931102 -2.4496706 1.1667682 -5.7937922 -3.8759127 3.1026201 3.4853177 3.8888433 -2.147491 -4.429588 4.183522 -0.49291348 1.5594406 -3.2303154 -3.1392019 5.0532403 -2.6691809 0.97323996 0.74766535 1.305129 1.3812484 -0.6471922 -2.7267354 -0.6944855 -4.8529253 -1.006174 -1.5211692 -4.1627994 -2.7344353 3.1461997 -0.61188304 1.6367972 -4.0475025 0.94287664 2.7044735 -1.4846991 1.5364002
12 2.072719 -0.019654905 -2.5667965 -4.591404 -0.71332896 0.75376326 -2.6605234 -3.8200438 -0.5214249 -2.9442966 2.5925539 0.3363965 -0.7876154 -2.3558323 -3.0478327 -0.045938365 -1.0094644 -2.8347056 1.6511363 -0.7952505 1.7786151 -0.39609224 -1.1931605 0.90487087 0.3144994 -1.8225518 1.4819474 4.435054 5.4871817 0.8494507 1.2280138 -4.3107276 -2.9678915 -4.1461377 -0.53900474 -3.6007192 4.019883 1.8511994 -4.3323755 2.1758823 -0.33696887 4.483616 -0.47648373 1.2166919 2.0078394 5.0302873 1.5092053 -4.7995872 1.1147772 3.2223856 0.8342212 -1.2910311 2.1500318 -1.3128413 -8.919097 -2.9533422 1.876383 -4.9115915 -1.5103722 0.6023674 3.2070184 -0.8035025 -4.2111897 -0.35681963
30 2.3894012 -1.5782048 -1.1801382 -0.49459657 3.3036034 2.5143301 -0.98950535 1.4711765 0.6124591 -0.9860432 -1.8100334 1.1127254 -0.21611875 -1.1747776 -0.52180815 2.8560228 -1.3207676 -2.650817 2.7439914 -2.196576 -1.7400361 -0.6712995 2.9496365 -5.5648036 1.0355182 -3.0890813 0.920067 5.619349 -1.0215213 1.4633077 -4.7856755 -1.8066132 -0.39149272 0.42449826 0.14269675 -2.1091707 1.9458998 -1.4269389 1.7411784 -3.4810376 0.19706471 -0.7235768 4.0240016 -3.1310287 2.776462 0.90237325 2.5399556 -2.1304533 1.0560564 0.5195258 -5.5320187 1.2942053 -2.0867114 1.9976772 -2.435766 2.3888307 1.0445787 0.3499524 -2.2162962 -1.2145665 -0.3384002 -0.57381505 -2.8400025 2.5350456
21 4.821179 -2.1689012 -2.836303 -0.6496133 -2.046521 -2.0507503 2.9826405 -0.68229693 2.7090366 -1.7245597 -2.5704443 -0.44256467 -1.1612875 1.0574598 -1.603533 1.0501643 0.29022098 -1.7484895 2.5199416 1.958028 -0.346166 2.155666 1.8786345 -2.24303 -2.220304 -3.4867516 0.010671666 1.4821979 0.043303523 2.041391 -0.17655993 -0.55726486 2.7178786 2.9172816 -2.518163 1.2099421 -0.72828364 3.6815763 1.8762579 -0.52761006 -0.7447379 0.19530557 -0.28204334 1.3121053 5.023446 -0.7421837 3.9883904 -1.5114218 -1.5033225 -3.663424 -0.39442512 -0.6326352 0.5449402 1.7458007 -2.606795 -1.6589679 1.7876596 -1.8640074 -0.49368468 -0.8235598 -1.4030743 -4.258732 -1.1093922 3.111131
29 3.0560892 -0.094010234 -0.828788 2.7489178 -0.55630916 1.6311549 -2.3937156 0.014464328 1.8565837 -0.6121139 -2.0841467 -0.7822388 -0.48276252 2.1059272 0.957554 0.3625937 -0.97933406 0.5340073 -3.5905976 -3.917324 1.6678308 -0.7816966 2.3835788 0.11499309 -2.8644993 -0.045197755 -1.5121183 0.20138727 3.0714896 -2.3575373 0.39373806 -1.0911713 3.4910648 -2.6529753 2.7737844 0.66835713 -1.4294931 3.6679149 1.0577289 0.05205609 -2.1431801 0.18185759 0.031579196 -2.1078274 -1.2472516 -2.6477425 -0.4593321 -0.27704728 0.50158733 -0.11572637 -0.6182858 1.7694625 2.183952 -1.7108545 -1.2227358 -1.3420172 1.481086 -0.11391584 -3.0695336 2.9939454 2.0189626 3.0783334 -0.28552097 0.44417882
51 -0.10962828 1.584302 -0.13228121 2.9894676 -2.7209537 0.74812347 -2.1140146 0.78873926 -1.5078849 0.75289506 0.5767866 2.0818918 0.47612402 -0.81546634 -0.8935503 2.2791622 4.3488417 -2.0359669 0.8072582 0.2247561 1.3956324 -2.988779 5.6786413 -2.1861148 -0.36947125 0.8425901 -3.0352824 -2.160914 4.9541116 0.39221403 5.217092 2.7303593 0.37452286 -4.2609587 1.408834 -3.7887406 -1.3149201 -3.4344208 3.7637146 0.50019956 3.3862739 2.9837 -0.14101757 1.7723389 0.36615267 0.6028429 2.314908 -0.89772564 4.4502764 0.40327024 -0.18423553 5.083607 -3.8134367 -0.8528561 -1.0944027 1.0553651 -2.9462333 -3.8466945 2.2315996 3.6475205 2.5328355 -1.2616894 1.5574015 0.4753746
60 0.4513445 2.8369496 -0.00241835 1.3631347 0.9242594 -1.7167652 -4.9982796 1.0869528 -0.99379116 0.7740405 2.8505878 -0.3782543 1.4726629 2.4858701 0.34621072 1.4007881 -3.781433 -3.5195405 1.2993106 0.63374776 0.47552788 -0.7818054 -4.2894654 -2.525312 0.18691637 2.079087 -1.4345355 4.2967806 1.7197309 1.0281487 -2.5227356 -2.5208936 -0.5981238 -0.22605038 -1.9893174 0.7171168 -1.840172 0.72616893 2.5174148 0.57216495 4.98252 -3.2680724 0.12857589 0.8593858 4.8989396 -0.08674108 -0.6424574 -1.0181562 2.0937018 -0.91548413 -2.0766747 -4.1237335 1.589717 -3.9096465 -0.9285736 -2.163992 -1.1394585 2.447758 -1.2689717 0.25503796 -3.6581635 -1.7770249 4.36435 -1.207269
61 3.5978534 1.268262 0.4584517 -3.5358102 -2.1824894 -2.9645345 1.9913063 1.126966 5.268213 -0.59550077 0.4863815 1.2202629 0.1945245 3.0373237 -3.6263313 0.113414876 -7.1045465 1.0632486 0.35459197 2.2543347 -2.3026755 -5.0514584 2.2633781 -1.4899677 0.77302635 0.8149028 -2.2385924 0.8463217 1.4025177 0.1652042 -0.77553004 -4.679702 -0.5236561 -2.4831314 0.25401035 -2.474788 -1.3106132 2.5954483 -2.6654596 1.2296811 -1.5867722 1.3142802 3.7900326 3.4528732 -0.24183418 0.9853698 -4.5251694 -0.980848 1.4510621 0.2993685 -0.15477233 -0.10083432 0.3267503 -2.5951018 1.8094584 3.0007272 -4.693224 -0.14739898 1.2648785 -0.38533396 5.9321203 2.0025203 -2.9475749 -0.5115951
19 3.5682583 3.5201993 -0.15146126 0.6647396 -0.6717387 1.2537972 3.0083618 -2.980744 2.9917803 -1.836823 2.9087863 -3.2245731 0.20292966 -3.0752192 0.47534707 2.6409407 -1.3291922 2.1410825 0.25149256 -0.6044847 0.4277177 0.36745775 1.8040442 1.1817188 -3.9209828 0.13075648 -3.2708163 0.3171802 3.5817962 2.9844635 -0.27615812 -1.9544402 1.0411419 -1.6001732 -0.1622486 -0.27110153 2.020029 1.7031882 -0.55284774 1.635265 1.9967122 2.331473 -3.8061023 -3.706693 1.5359225 3.1908588 1.2673055 0.62012005 -1.2540804 -0.8520926 -0.5445815 0.90860754 -2.6949341 -1.4430578 -1.531817 -2.1000035 -0.59731245 -0.83554494 3.0918992 2.3531435 1.0984042 -1.0553836 -1.9385685 -0.4361948
13 4.8804913 -1.035951 -3.6004996 3.5090616 0.18136439 2.790962 -3.3663356 -1.0553958 0.5788763 -2.0345912 1.7980014 -0.11374134 1.4338244 -0.46006814 1.6344026 -0.24637099 1.8685321 0.91123784 1.5330135 0.68683684 2.8557103 -1.1069407 0.15782003 0.73051167 0.20870866 1.6535611 -2.173895 -2.499422 2.7431662 3.0162091 0.43602502 1.4710609 -0.67652583 -4.395438 -0.3154515 0.364736 -0.22132227 0.6464117 4.9787607 1.845775 -2.603928 -1.893703 0.8399389 1.307065 -2.6858513 -4.129116 0.91950876 -2.4984643 3.1481242 0.101151325 0.10043809 2.6780791 -3.1969972 -2.593435 -1.0956901 4.336536 -0.8851509 -4.8011956 0.1093008 -1.3011035 -0.37387973 -0.3675518 3.904166 -0.3974929
62 -0.71741873 -2.2951126 1.52949 0.92394465 -4.655822 -0.17095497 -1.7444137 -1.9443744 2.820581 -1.2772774 0.569953 -1.1367878 -5.6924434 2.7463813 -0.4546347 -0.74335724 -1.6980941 -1.8032626 2.1193433 -1.718444 0.07068107 -1.011485 -0.05284139 0.11427448 1.5567719 -2.4431686 -1.1508572 1.246779 -1.4685459 -1.0643371 -1.1669804 -0.20051326 0.9209315 -1.2427667 -2.363171 -0.59485894 -1.3016456 -0.054392334 1.5747551 -0.30987677 -1.578374 -0.13775837 1.5684088 0.7043851 -0.50826925 0.58454096 -1.2453064 -5.5031366 -1.4386114 0.6944976 -3.156097 0.9398482 1.6651701 2.4563696 -0.023372954 -5.0004163 -6.2346535 -1.1938578 0.67843133 1.2293838 -2.883797 -1.8897375 2.1650047 0.1639377
64 1.6102527 0.05212194 1.1748785 0.21416228 0.99977875 -2.3146598 1.3444355 0.32238796 3.7366583 2.0371308 -0.30410245 -2.9040418 1.9231013 1.4502109 -1.435163 0.7570295 -0.5390429 0.3831696 0.4833296 -0.7746322 0.7279135 1.1498678 -0.67050886 3.5752895 1.1508099 0.5708121 -0.7637822 2.301716 1.4119174 0.32276955 -0.57783216 -0.54390955 -0.83705974 1.0071405 -1.7935021 0.7825265 1.2645414 -0.37501198 -1.2137465 0.14837529 0.26055494 0.00046234633 -0.6169243 1.0801326 -1.7097673 -0.43100736 1.6200279 -0.95426357 -3.8143537 1.0515188 0.41875643 -3.5438817 -0.1872983 -3.388322 2.3433337 0.52434176 2.8983376 1.929568 -1.849257 -1.3141893 1.6389837 0.34916764 -1.1887217 -1.5449485
35 2.609613 -0.13543947 -0.61854446 2.096593 2.5276258 0.3862776 -1.0831679 -3.2227905 1.163014 -2.732202 0.25273234 -0.4733148 -3.372062 -1.2899507 7.1316814 4.5852165 -0.38192314 -4.88995 2.8782477 -1.1205006 1.5406083 -3.680738 0.6827623 0.39801195 4.193423 0.2061818 3.7097235 1.0760932 -3.389608 -0.0604918 1.3483675 -1.8882161 1.4944118 -0.57257736 2.2499065 -2.86112 -1.0940837 0.26706773 0.30319887 -4.442918 -1.9134405 -0.19411495 0.8005992 0.5838837 3.2586272 0.8332986 -0.30857044 1.4919065 3.3471894 -0.38353345 1.5156739 -1.4422984 0.32433134 1.0822554 1.325703 -4.2541504 0.4511963 1.5338558 -0.66646945 -0.14185147 -0.19721626 0.41248298 2.2250173 0.89838433
88 2.1622324 0.7965756 0.9229851 3.4641876 2.4343302 -0.46395728 -3.4425995 2.4976048 2.4457757 0.9700577 -0.42478245 1.4561162 3.580034 2.908103 0.022900606 -3.4408755 5.0539575 -2.169731 0.5442251 -5.9523726 2.8100634 0.047082026 2.7432787 1.5348858 1.8532579 -3.4864388 -4.7595224 -0.3323461 -2.3264692 -0.011903914 0.09711257 1.3603638 0.5701534 0.6965352 -1.5635645 4.452084 0.7280577 -3.8485672 4.6421766 -2.562909 2.8405719 0.3858287 1.6413981 -0.708197 -1.3286531 -2.6843352 0.31676233 0.95086455 2.614904 -1.9341286 2.955802 -0.6033568 -0.38329077 -0.8579101 -0.92788124 -0.19353127 1.7725644 -0.2763838 -0.036239885 -2.3436558 -2.6965802 2.1795611 0.44917995 3.7387788
77 -0.87537646 1.4748508 1.3212923 0.7730679 1.6035161 1.228052 0.59532756 3.0545979 0.71511376 0.6301835 3.0912862 -1.8850785 0.7111102 2.862082 -1.9759957 -2.30297 -0.12192551 -4.657817 4.866202 -3.0335436 0.71959287 -2.8156638 0.38892755 -3.1151037 1.0588388 -2.991699 0.9364446 1.1206006 0.7829757 0.1557672 -0.45928556 -0.32642543 1.2223753 -0.16780406 -1.0953542 -3.6695144 2.1845136 1.3907865 -1.6859428 -0.7240377 0.8413868 1.1471956 -1.5032856 1.764777 -0.29723734 -0.40871242 -1.7063655 -1.663109 2.5176432 0.27662808 -3.188853 -0.645986 0.7795311 3.481189 -1.5985528 -0.15859495 1.3182728 -1.9217523 1.1377355 0.7233513 1.3875418 -2.6812816 -1.8420876 -1.6848818
53 0.9408539 -0.58911926 -1.922156 -0.4669371 1.9598416 0.45686325 -1.0232277 0.1827781 -1.6705595 -0.9847396 -0.8071191 -1.3071839 -3.752467 -0.94288236 -0.07383077 1.1262739 0.12825742 -3.9936376 4.331772 1.5954516 -0.81419915 -1.5571809 4.11246 2.5305958 0.5241295 -0.58573395 2.087909 -0.17604287 -1.0122116 -2.1763465 4.027694 -0.43043718 0.5371492 0.8863162 -1.7282183 -0.42698583 0.15228485 2.317984 -3.255056 0.32544076 1.3596121 -2.1919503 -2.8176858 2.2997427 -0.28291783 -2.188033 -2.6649208 -1.5476431 1.8586618 -2.1062908 -2.4924219 -3.3715134 -0.27339733 2.5698113 -1.1424099 -1.6581409 3.7487142 -1.9102215 -2.4142048 -0.26123327 -0.18306191 1.0513598 0.6439851 -1.2933335
74 3.2398531 1.7134383 0.8269439 4.2402644 -1.0607212 1.685569 3.9042861 -4.114634 -1.8602401 -2.5305898 1.774253 -0.36937687 -2.5952218 -1.963687 1.969332 -0.31482813 -1.9051005 -3.146735 4.405553 0.09010778 0.20626324 1.4475269 -1.7029654 2.3130045 2.4319353 0.6357196 -0.8629991 2.085115 1.7134464 -0.41808355 2.8818696 -2.139617 -4.2507467 -1.0363106 1.2353944 -2.8617253 -3.4655185 0.64910287 -1.9435437 3.5182679 1.6892947 1.1786109 0.4058284 -2.2065072 -2.3939304 2.5618827 3.9436007 0.71382004 4.828285 -2.147897 1.3601853 0.40530524 1.547109 -0.32671484 -3.76816 -1.8122005 -0.93022746 0.8293192 3.5936818 -0.63920873 1.6156017 -1.7475971 0.9468433 4.761115
0 3.8502216 5.2450643 -2.539807 3.5833151 -0.24536952 0.95210505 3.2046702 -3.3515685 1.7576172 2.918176 -1.1844034 2.8475003 1.3782681 3.2308176 -1.7719339 2.0956733 2.4208162 -3.7131183 1.0991471 1.444612 3.03951 -3.9432747 0.14546557 -1.1241356 -5.7616396 5.625524 -0.67236686 1.3354619 5.596809 1.770681 4.7257066 2.426816 -3.3165703 -0.8807995 1.166213 -0.87790924 -1.8855114 -4.5934753 3.7484438 0.7685591 -0.27337518 2.4840171 4.165895 4.42298 0.19064184 -3.500312 3.5999062 0.35679275 1.5024574 -4.614946 -2.8157725 3.017949 -1.2786543 5.2272906 1.8803822 -3.1230924 -2.5056765 -7.915987 -4.488959 0.916126 0.059967153 2.432693 -0.13264316 2.9123225
17 -1.1926339 -0.26039428 1.5402267 1.6380427 -2.7700286 -1.3063356 0.695096 -0.9470604 1.8560008 3.9843726 4.106799 3.5916982 0.93644524 0.6516369 6.1962066 2.2848375 1.5382837 -3.3955915 1.2337495 -1.5391395 -2.31057 -3.4053595 3.7519877 0.81771094 1.7094573 -0.07106269 -1.6050851 -0.73975646 -3.8879373 1.0613394 -0.90376794 -2.2661328 3.2620306 4.1118493 1.6332748 -2.6290894 -3.1019907 3.5517776 3.7855732 0.5840388 3.8623543 -4.0937786 2.7636843 2.8613944 -0.56109005 -0.82765305 2.6078265 2.8080654 -0.13164333 -1.1048309 0.67540324 -2.4510565 -1.245774 0.6996008 -0.19032456 -2.0793824 3.4984043 -0.8926366 1.1569728 -2.0917487 1.1867666 0.80375445 0.277805 -3.4886792
76 4.3289213 1.0010084 0.9295406 2.0466266 -0.034011878 -0.8960405 -2.2246697 -0.9203309 3.0417404 0.48060992 -0.09916143 -1.7376351 5.072332 -1.183798 -0.5226237 -1.1026537 0.559824 -0.25094098 3.9841297 -1.1362745 0.49030483 0.26163736 -3.2997959 -2.6199603 0.645725 -1.4821693 -2.8384438 0.9583717 1.9420629 2.7370796 -0.41320947 6.8767657 -0.36532038 1.4652671 -0.9054014 -0.9824908 1.3470857 -0.35416797 -0.36409706 -0.7935244 0.8907531 -2.8729365 1.9530584 -1.1916875 0.1594 -0.8280584 -0.4088253 2.585143 3.5830507 -0.4678601 1.0223058 -4.3608556 -4.196404 0.2022647 0.38359833 1.1829772 -0.32089916 1.9633058 0.95132166 0.032241054 -1.5281428 -3.2128408 -3.3819308 2.628796
47 2.5921357 5.7240996 3.2655854 -1.8268104 -2.3035617 -3.015357 -0.16597636 2.6438768 1.0282027 -2.3844054 -0.85305226 -0.009698744 -1.6679604 2.3970482 2.655149 4.623304 2.6412518 5.3972545 3.5836973 -0.007976865 0.14449711 -1.610017 -1.2006017 -2.711949 0.106121674 -0.016614597 -4.4516463 1.1107363 0.5987083 0.22462681 -3.4741716 -4.076848 0.5572727 -1.792381 0.10456175 -3.5438168 -0.85779524 -2.4154568 -1.4067967 3.0520113 -0.8769293 -0.23112419 -4.1565275 0.18759449 -3.0826375 -0.6465966 1.3049957 -4.8685474 1.6724291 -1.1187555 1.639652 0.2584353 2.0042593 1.9947417 -0.62447447 0.08657301 2.499368 -2.410981 0.8888735 0.95447445 -1.0546983 3.5902114 1.5213813 1.3295635
52 -0.6303721 0.2101893 -0.9029433 0.42857948 0.12135682 -1.6622624 0.38393915 -2.6731074 -1.9721447 -2.5771444 4.2310996 -0.44883257 0.052056048 1.3267512 0.4381743 0.5860293 2.0534165 1.3695232 3.9259288 -2.6723638 0.7495777 3.017879 -1.3198963 0.6769809 -1.6084702 0.47170478 -1.7890605 1.4744017 1.0480753 -2.6199625 1.6977243 1.1346949 -4.015179 -0.3845997 1.3796573 -2.2397003 -1.6175209 2.2510161 1.6217287 0.8996292 2.6901882 -1.2689143 4.123415 -0.3453875 -3.6721833 0.21275342 3.5179827 -2.8708603 1.4910818 -1.7161144 -0.9088559 -1.8201603 -0.6781943 1.474098 -1.0483913 0.33796686 0.86275023 -3.3787155 -1.0880587 2.4560628 3.066493 -0.57288194 -0.21228987 1.8850495
71 3.802451 3.1821547 -1.6130329 0.012686729 1.5563203 -0.6121809 -0.46441102 3.7637753 0.8032449 -0.12963206 -1.5595906 -1.9417524 3.762079 -2.9270184 0.67214906 0.53692853 -0.31271103 -1.8174119 0.5496447 1.3621264 -2.7528212 0.1170547 2.77211 -1.7487327 -1.6621499 -2.1053905 -0.75590765 -2.5699105 3.0160732 0.61956036 -1.2372181 0.27517262 -2.416683 2.0109053 1.5412154 -0.9475083 -2.4932976 1.8945327 0.7800162 -0.2625738 2.0749695 1.7311761 0.9431105 1.9527767 -0.68849576 0.72713727 0.3808276 -1.2242521 1.0623515 -1.5814444 2.6509008 -0.6648264 0.82748157 -1.8831964 1.0718896 2.7080762 3.2091916 1.5597093 0.6832253 1.8897702 0.17915507 -1.7781367 -0.80001694 -0.15305763
91 -0.79504097 -1.7264656 -0.80477643 1.6332777 2.0229907 0.71600777 -1.2795181 1.3964003 0.44179052 -2.2046857 -2.704242 2.7165809 2.076713 1.9676899 0.3966169 -0.4532766 -2.3402991 -0.49221367 -0.05909659 -1.2523956 1.0859861 0.28633192 -0.25987256 -1.9172736 -1.8036386 0.35381043 -1.4241334 0.95578635 1.7868915 -0.30866674 0.5760972 2.021043 1.0122862 -1.0007924 -2.7815259 2.1887743 -0.3994175 -1.2043948 -1.9989277 -2.013066 -3.0464873 0.84169954 -2.0329597 -1.0627271 0.23528658 -3.8043232 0.07834132 -2.6502395 0.45836332 3.1709926 0.8424773 1.1862618 0.93041337 -0.54228115 0.8919258 -0.23346907 1.537919 0.5898312 -0.113703266 0.45205483 1.5743891 0.5412096 1.9455284 -0.036846023
70 3.4134867 -0.73700327 -2.8293478 0.26898253 2.4656825 0.82571507 -0.89729035 0.21130428 1.7933184 -1.4201226 -1.8433834 -0.6106563 1.8976295 -2.7133145 1.0861773 0.9403786 -0.9185309 -1.1968539 0.4566972 3.7015772 -2.4416854 0.5241217 2.0538595 -1.582943 -3.2595682 -1.6676352 -0.44460407 -2.0624423 2.664021 -0.055567253 0.08979422 2.6930115 -3.0585923 -0.5548209 2.0380778 -1.0267926 -4.1439447 1.0648408 1.5205935 -0.73489076 -2.35828 3.5731823 1.3261074 -0.8882712 0.19504574 -0.19936681 -0.59776163 -2.2094138 1.7841122 -1.8958426 0.87921983 0.4122572 -2.2650218 -1.409114 0.5922644 1.6553985 0.38692927 2.5225208 -0.355477 -0.4754003 0.1951717 -2.6104243 -1.1847336 0.1317393
49 0.8063604 -2.3832731 -0.26164764 2.0162005 -0.3549396 -0.3056297 1.2470447 2.1007707 -1.9361781 -2.8368096 -3.8489714 0.78105944 -0.76438206 -0.24409235 -2.6659968 0.30399576 -1.9019542 2.266178 0.6169887 -0.32791883 -0.015433029 3.2045176 3.6307156 1.8081121 2.5300677 -1.4241148 0.34831348 0.9876549 1.968054 -0.068867266 -3.2292004 -0.5111057 0.7769069 1.1722687 2.5352607 -0.39188707 -2.2605133 -1.398186 -1.2598443 -0.34533364 -0.76155835 -1.580014 1.9921358 -1.1220146 1.1239104 -0.39494735 -1.78078 1.6701622 2.5486238 1.810859 -0.4440857 1.3340992 -2.7472394 4.115481 -1.4232976 0.43648294 1.0518453 -1.3650697 -2.082327 -2.3766167 0.6740968 -0.92319924 -1.5446548 1.4154005
48 1.028087 -0.21651702 -3.811468 -1.5158184 -3.4402113 -0.63329583 -2.4213026 0.71620643 -0.39079413 -2.1481671 -5.4165587 1.1614687 -0.30883428 4.722617 1.0618882 0.171795 -0.10541414 -4.9017773 -0.71641344 -0.24395551 -0.9107245 -0.76552385 -2.756004 1.0073664 2.743805 -0.17572057 -2.7211602 0.44584706 -4.3085155 -0.2760044 1.9149603 -3.7166092 -0.34968945 -1.4341656 -1.2546355 0.14896807 -2.5443175 -1.6309121 0.76691616 0.75934106 -0.6096998 6.5034795 0.73559564 1.8889834 0.24512044 1.5895793 -1.8705972 -3.8718786 -3.6533906 -3.6620772 -4.104825 -2.6030927 0.98521066 -3.6146019 1.0239779 0.3925646 1.507556 -1.7202749 0.9629728 1.1785296 -1.7162225 2.1305196 -2.4191206 -1.571918
68 -1.3662311 -2.4679332 -0.6902512 -2.127606 0.42752722 -1.0412452 -1.2357867 -0.06155898 1.4168259 -0.5643312 -0.5493871 2.4663506 -1.6508238 -0.8402585 0.88984674 -0.2822832 -0.021885622 0.82256377 -0.6869841 -1.6773537 -0.11783075 0.5598934 -1.8735652 -0.52987033 -1.5795667 -0.88577497 0.57077 -0.9755234 -1.2904248 -0.6055528 0.2292423 1.2538548 1.2436098 -2.4779358 2.040703 1.7280203 0.023320133 -0.8440311 -0.25154006 0.22811055 0.71911716 -2.1295872 -0.0013625831 -1.8286229 1.7025422 1.0377358 -2.79215 1.2004077 -0.4993984 -0.28058586 -0.079629 -1.1179343 -1.3204286 2.0985653 -1.3062482 -1.6240481 0.6591603 -1.9163268 2.9960833 1.2667441 0.56300336 1.9089708 0.8440318 -0.6071145
31 0.47411546 0.29552615 1.6796712 -0.3377522 1.2749437 -3.273745 -1.5713596 -2.0841062 -1.5805597 4.3498116 -1.3163311 1.4165967 -1.972775 1.5986394 1.9617984 -1.567288 -1.5218257 2.716169 3.8964577 -2.0402331 4.7882485 1.4616876 2.6044097 1.8914211 0.7999991 -1.4935683 -1.7727485 2.5133598 -3.1312842 0.72944015 3.5087209 0.25255853 2.3503652 2.4116971 -1.7732002 -2.184671 1.2941456 -0.55029345 -1.1270711 -4.717276 -3.0730815 2.250473 0.96286875 -0.78244096 4.2268915 1.7651446 4.798437 2.8674922 5.861675 2.8256166 -2.6189163 -3.5647662 -1.245391 -0.60508424 -0.25410584 1.7151293 -3.703915 -2.8549232 -1.5433244 -3.7506948 1.4417098 0.33404204 3.1388097 0.1105003
11 0.9612051 -0.36112523 -2.5996125 2.1734211 -1.2029052 1.4483585 -1.197912 0.049334824 0.19884096 -3.686913 0.49996415 1.7095836 0.1415929 1.9663106 0.2520344 -1.9552898 4.2240167 -0.846905 2.125618 -2.9527588 -0.73105764 0.14637668 -0.01584551 1.9006395 -0.43410355 1.3171101 -1.1553321 0.4615465 -0.3761412 0.24661149 4.160785 -2.8440132 -0.0016430536 3.4130347 -1.9836346 -2.9715776 1.9355493 1.2934529 -1.5111815 1.258389 1.2251099 -2.4551463 3.0029404 -4.071718 1.0225389 0.34430543 2.1139224 -1.0243568 0.7003761 -3.7528925 0.9073735 0.25739273 1.7432984 4.892175 -4.0430856 -2.6770978 -0.86107767 -1.4673543 2.94256 2.9985197 1.2431107 -3.6025026 1.4174296 3.2236068
38 0.23982564 -0.6705467 1.0806396 1.4372499 -0.79694575 1.5597521 -1.44977 -2.3845565 1.5736451 -1.3094323 1.9494694 -0.27431527 -5.0078616 -0.7391236 -3.135966 4.6843424 -1.6104653 -3.3649914 -1.2889827 -0.43671736 -0.8465836 -2.3043969 4.4684634 -1.7765037 1.9696336 -3.7728934 -2.7528985 -0.9274944 1.9957147 0.07947907 0.35297662 -2.4504857 0.568758 -3.3091009 -1.7576615 1.2999055 -1.77673 -0.8644388 -0.5289114 -0.80103725 0.6843691 4.46737 -0.38003477 1.0472149 -0.5359175 3.1855364 -0.68004507 0.23090594 -2.983603 5.3039746 -0.013884236 -2.1206067 -1.2832824 -1.1578132 0.12989011 -1.9848677 0.1710414 0.08151639 -1.6466364 3.0330663 -1.2767885 -4.228647 1.2306672 -3.2296438
39 -1.2701477 -0.2198663 -2.0721984 1.1540885 -0.8295665 5.1066537 -2.6558015 0.13844362 2.3602326 0.028780146 -0.056239095 -4.5613637 -2.2476158 1.16885 2.096092 -3.5925765 -3.756016 -0.5078413 -1.579796 -2.5211923 1.2533544 2.506644 0.26400003 2.1675637 -0.26282698 0.23897077 0.80768454 1.072514 -0.004704493 2.3271286 1.657692 -3.3161879 3.0473628 -0.41271186 -0.3597883 -0.23096912 1.4421691 2.440884 0.9404223 0.98057 -1.1889018 -0.90987444 1.6613246 -4.021713 -0.0016130671 0.06877584 1.5065395 -0.1767602 1.7271992 -0.17827468 -0.94120175 -0.83082664 -0.036591634 -2.7348242 -0.40278697 2.526191 2.346883 3.7188005 0.71580964 -0.35373098 0.91098315 -1.5800241 0.39786607 -2.775943
82 0.15761349 -0.52950454 1.7779869 1.7491032 1.7209677 -0.31970698 0.9827698 1.4371578 0.2387425 -1.1602696 1.4843876 0.99775034 0.2859918 -1.018378 0.46097434 -0.24152188 -0.58155406 -1.7497518 1.6547276 -2.027087 -1.3650197 1.1790034 0.18405126 1.2963996 -2.0770836 0.48839998 -1.3154525 1.2767887 1.2939522 0.628087 0.13801603 -1.2536737 -0.19647463 -3.4276645 1.483634 -2.7535062 0.052016795 0.9516185 -1.9033608 2.3776133 3.840503 0.33328763 3.1687443 -1.418081 -3.8147457 -0.10188598 2.615653 0.030508997 -0.4050515 -0.4565677 -1.9426997 -2.6882625 0.7212532 -0.42202717 -1.5256047 -2.6752355 0.43758357 -2.1447356 1.7633704 1.7863064 2.1127043 -1.5603131 -0.32320344 4.26473
97 0.25187424 -1.8511244 -1.2370771 1.0176224 -2.0940285 -1.4960009 0.81878644 1.1326641 2.282392 -0.43821818 -2.715821 0.35758984 2.2559903 -0.7327786 -0.49640208 -2.5627382 1.6540009 -2.8076742 3.038951 -0.004562513 2.147911 -0.51876837 1.3561388 -1.9947321 -1.235507 1.6325939 0.29525286 3.0370998 4.3045425 2.4250572 -0.20178375 3.0741231 1.9524902 -0.114332706 -1.6786455 -0.21639335 -0.35495806 -0.31213197 -0.12179961 -2.6983073 2.5022326 2.380651 2.52606 0.5875643 0.5397606 -0.31940162 0.0045397175 -0.39810082 0.30228832 -0.42824566 1.0245125 -2.7880378 -3.3397064 0.7543464 0.17901118 -0.81818455 1.4558438 1.4300133 1.0950702 -1.9460139 0.23783374 0.15771233 0.60057664 0.8343794
1753 0.12610772 -1.8288543 -1.3219371 1.2485169 -2.3731596 -1.3621515 1.0659422 1.1786973 2.529368 -0.5133609 -2.6581247 0.2723238 2.3893874 -0.7525011 -0.5418925 -2.6857846 1.7163492 -2.7611432 3.0317438 0.12808695 2.3027048 -0.65605634 1.3685828 -1.9046042 -1.3117154 1.6231649 0.36792824 3.2609124 4.1288567 2.3622766 -0.18968968 3.0872712 2.1068015 -0.05777892 -1.7930063 -0.30894375 -0.25059524 -0.12637624 0.021408336 -2.7391448 2.5379825 2.4819922 2.6625304 0.64735883 0.5533797 -0.43993354 0.0889449 -0.30264196 0.29634905 -0.42206717 1.0258775 -2.9045074 -3.4921873 0.66755193 0.044912968 -0.8886085 1.3958468 1.5272541 1.2148285 -1.6847336 0.13448602 0.12770154 0.70573866 0.9962664
86 0.6324004 0.2902711 1.7230561 -0.47527444 -2.2823832 4.1075454 -0.19998105 -2.6624613 1.4781876 1.1655791 -2.161341 -2.3779528 -1.1142181 -2.431065 -1.6547471 -1.9761813 0.39293563 -3.885877 1.1348307 -3.468065 1.6235337 -1.6867039 0.50388706 -1.3868619 -2.7675598 1.2405671 -1.9660687 -1.7112644 1.9972804 0.5651513 -1.7432096 0.7953996 -2.565764 0.15923233 1.4397233 0.31329766 -2.1752355 -2.005936 -0.06017531 -1.2427492 1.4986789 -1.6117476 1.1067321 -0.60228544 -0.7950329 -0.6548176 -1.9706845 2.1436305 -0.019258741 -0.19197947 0.50129217 -0.93473065 -1.5054835 2.1375809 -2.5644574 -0.04664968 1.3701106 0.09285264 1.7742279 -1.6367841 0.62413275 -1.0091696 1.1999131 -1.8259883
588 0.6005873 0.5156317 1.8237131 -0.5439582 -2.7648861 4.4947543 -0.104120165 -2.7194934 1.6433845 1.2073655 -2.2916098 -2.700077 -1.1560049 -2.6649756 -1.5676577 -2.0535898 0.43303314 -4.232404 1.1827207 -3.292655 1.6994505 -1.797898 0.5262554 -1.54795 -3.0468729 1.4064721 -2.1825974 -1.6162487 1.885415 0.1628934 -1.5257864 0.8309416 -2.697418 0.18990883 1.8769015 0.20382878 -2.134603 -1.7976046 0.021411186 -1.3745557 1.590711 -1.7843293 1.2978001 -0.5811863 -0.6135424 -0.49775308 -2.2127893 2.236676 -0.39926448 0.040443916 0.38131255 -1.0258721 -1.5226681 2.4455962 -3.0548432 -0.0427701 1.2420915 0.3811997 1.8600738 -1.4767768 0.4734802 -0.91926473 1.4890182 -1.533883
95 1.5882967 -1.3595449 0.682588 1.8118486 0.25046748 0.060770225 -0.7967099 1.7283568 1.6564202 0.6846563 -3.517107 -1.0833727 -0.40261745 1.3624992 -3.0204976 2.0627875 -0.238664 -0.70032966 0.061968915 -2.5116348 -1.3207259 -1.8195479 0.5927114 -1.6715056 0.873521 -1.6309685 -3.2730925 0.79934007 1.3863101 1.2472265 0.43707415 1.4051383 1.3464041 1.039478 0.9851444 -0.3236082 -2.799241 -1.3332238 0.9941895 -2.5326269 -0.26447412 0.6873348 -0.91007686 -0.6426661 0.76006514 -0.704047 -0.92251825 -1.1042674 0.6349287 -0.7466055 -0.8037396 -2.3267305 -2.1450076 -0.19928327 1.2342387 2.1397016 -0.70360535 -0.3097956 -0.58225185 -1.6010394 0.7156642 -0.75425136 0.6726455 -0.43186355
2191 1.5969785 -1.334032 0.72480816 1.952575 0.13324259 0.0576243 -0.75113064 1.9149966 1.7692475 0.64303535 -3.6531107 -1.1366987 -0.40096334 1.5572532 -3.0366209 2.1738455 -0.25225332 -0.64784974 0.07854589 -2.4457235 -1.3471732 -1.86186 0.6812419 -1.7274634 0.8228437 -1.7545668 -3.37931 0.9539119 1.2410558 1.0288552 0.47666964 1.3399397 1.3920559 1.1168061 1.1575272 -0.29895863 -2.8095937 -1.2549953 1.113252 -2.5708191 -0.30743167 0.8276136 -0.9622294 -0.6196288 0.78089964 -0.6742143 -0.9138078 -1.1018789 0.52568394 -0.67746323 -0.84757817 -2.433486 -2.2210767 -0.25783598 1.2627914 2.2118165 -0.8214969 -0.2148922 -0.6274568 -1.4916347 0.7899787 -0.8130074 0.7401778 -0.29915366
32 -1.4627767 -1.8545656 1.7264919 0.28768525 0.423828 -0.049928926 -2.7107148 -0.08492621 0.30240417 -1.2735366 -1.8250436 -0.4363756 0.95708877 0.85924816 0.08250452 -0.466865 1.3564769 -3.8155134 2.5791328 -3.429228 -0.4704888 -0.2512596 0.13173652 -0.7300961 -0.0034956317 -0.57399607 -3.5914555 1.7161403 1.6612654 -0.87821436 0.12342055 1.4127549 -0.34147596 0.7412167 -1.4057834 0.2678226 -2.0002108 -1.5331087 0.023476385 -0.2165233 0.1841554 0.9146751 -0.43376595 -0.6188639 1.2367985 -0.562183 -0.0627684 -1.7649597 2.0896719 -2.9785752 0.79961646 -2.5299842 -0.47829828 -1.37579 0.13522835 0.412782 0.42849287 -1.1475827 0.8507193 -0.11011425 0.83682686 -0.87808645 0.8476838 0.7899483
872 -1.4352803 -1.8105856 1.7435741 0.30353698 0.47073364 -0.05891351 -2.6538184 -0.109189585 0.2876163 -1.2498307 -1.8172617 -0.4854917 0.874073 0.86396295 0.112362355 -0.53109866 1.2769291 -3.7584462 2.5638628 -3.466054 -0.47876546 -0.29105014 0.08306503 -0.73754424 -0.010988008 -0.5871704 -3.5081685 1.6387485 1.632123 -0.9564097 0.18695053 1.383261 -0.35407495 0.73500115 -1.3793023 0.18801966 -1.9399333 -1.5121797 0.07034008 -0.28529865 0.16914158 0.87330675 -0.44890594 -0.61653334 1.1848018 -0.6178995 -0.018474616 -1.7846556 1.9631796 -2.997206 0.7952881 -2.460216 -0.48355022 -1.381919 0.08508691 0.42309728 0.4190658 -1.179188 0.8354205 -0.0659498 0.78331006 -0.83836186 0.85790014 0.83821285
79 0.2666075 -0.9314426 -1.225637 0.88692236 -1.5973672 -0.94007856 -1.3887615 -0.0939513 0.8982098 -0.09883493 -2.5855744 0.87283957 -0.8736305 -1.0783597 0.08282299 -1.1622117 1.4505608 -2.0050302 2.2348113 -2.837013 1.5546168 -0.25418797 2.324251 0.21667457 1.3637003 -1.0682552 -0.53655577 -0.21907413 2.5037096 0.051954 -1.1362869 1.7380549 -0.015652213 1.435051 0.41198355 -0.97533846 -1.4910759 -0.87978786 0.026898867 -0.048958756 -0.6603431 1.7574257 1.1032705 0.11999232 0.28746033 0.055711705 0.9698608 -2.0683944 1.7866921 -2.0376344 -0.29175633 0.23379318 -1.9746082 -1.0222843 0.04198552 -1.2184453 -1.022861 -2.7714171 1.9838746 -1.6498668 0.10614748 -1.31725 0.52611953 -0.05568153
1642 0.2150048 -0.8791722 -1.3133681 0.9198657 -1.6870896 -0.9615704 -1.3286767 -0.061602317 0.90877604 -0.09345294 -2.5255306 0.8458016 -0.9463556 -1.0288471 0.0776494 -1.1974685 1.4727983 -1.9851918 2.265341 -2.7995195 1.5936967 -0.2811789 2.374234 0.3010022 1.4052867 -1.0773 -0.49213135 -0.13508306 2.4337225 -0.043128416 -1.0280542 1.6488056 -0.047097124 1.4856611 0.5087627 -0.98671806 -1.4514552 -0.8066392 0.04694864 0.027877135 -0.72036797 1.8890738 1.1452836 0.17046744 0.28213713 0.07244855 0.9566016 -2.0798652 1.7459669 -2.0364249 -0.30328137 0.26639953 -2.0133064 -1.0631158 0.012849752 -1.2432072 -1.1297448 -2.841708 2.0850608 -1.5737566 0.03346797 -1.3213418 0.5761961 0.058215063
1944 -0.71187645 0.31445476 1.3854871 0.042045794 0.47470072 2.0816753 -0.72938585 -1.984264 0.4381993 2.95869 0.6436913 0.4066969 1.1340368 0.1996387 -1.9023453 -1.3572317 2.456693 -4.7290335 0.94922715 -1.3056575 0.4346683 1.6599894 -0.54725605 1.46782 0.12946497 -0.89214736 -2.9426856 0.71282804 0.6153949 0.9439174 -0.3291607 2.2522929 -0.2014519 -0.90776837 -0.08584184 -0.60706985 -1.9736764 -1.1660205 0.064046234 0.6883359 1.7969065 -1.6280437 -1.4157588 1.1100038 -1.7847948 1.2199134 -0.58560455 -0.5721327 1.6219252 -1.6941164 -1.4457761 -0.0573733 -3.1339223 0.75670314 0.45652023 1.1096044 -0.93661344 -1.0506296 0.7486945 -1.7856156 2.4892607 0.050253995 1.0695851 0.57829696
72 -0.65117306 0.21864372 1.3156826 -0.009711048 0.54331064 1.9849312 -0.75551564 -2.009318 0.42086944 2.896344 0.59435076 0.40925264 1.0837989 0.15549183 -1.8548937 -1.358549 2.3813958 -4.6611 0.9392107 -1.435351 0.27853304 1.6514992 -0.58343464 1.3804659 0.14499414 -0.8324655 -2.9082768 0.6258923 0.8207842 1.0633433 -0.37330505 2.2442622 -0.16781107 -0.86969566 -0.15236576 -0.6056561 -2.0044906 -1.214588 0.00271995 0.61099195 1.7592899 -1.5760952 -1.3661859 1.0297865 -1.7525486 1.2246624 -0.5975359 -0.6069858 1.5945997 -1.6813018 -1.3158729 -0.040652 -3.0976448 0.7406519 0.5004628 1.114698 -0.8402218 -1.0459194 0.71887386 -1.8903317 2.4531019 0.08743369 1.0232354 0.46161097
46 -0.67343444 -3.2543156 -2.746717 1.530296 0.5379321 1.1975089 -0.25549093 0.5267737 -0.22447184 -2.0979986 -0.24506454 1.6649528 0.6410869 -0.49543038 -0.18308136 2.0035226 2.260293 -0.17542966 -0.62656814 -1.6809685 -0.85911775 -1.1090386 0.22159481 -1.6066633 -1.9173295 1.5309851 -0.89791363 -0.7207151 3.0961761 -1.4279921 -0.37316912 -1.0385596 -1.8441007 0.52090174 1.1999093 2.397734 0.9267828 -0.6491306 -0.10725526 1.2224979 0.7262219 -0.9353557 1.0354173 0.3692496 0.11739813 -2.0624933 -1.0256965 -0.8925884 -1.0535221 -2.389003 1.1407075 -1.2237893 -1.1196277 0.37580124 -0.29656586 1.013534 3.8990352 1.3159289 1.8159484 -1.735915 -1.5833613 0.46165743 -2.1922278 0.68396133
2174 -0.1978797 -3.313375 -2.7835178 1.6266218 0.70761794 1.2463868 -0.031268258 0.19121146 -0.28130364 -2.2877328 -0.21737956 1.9431208 0.489054 -0.23108464 -0.4779704 1.961276 2.5858138 -0.47038966 -0.40860856 -1.771753 -0.33982468 -1.1773466 0.34167007 -1.7289878 -1.6849735 1.4210142 -1.22937 -0.7014659 3.5503867 -0.9332033 -0.5723169 -0.9101647 -1.7518274 0.19855195 0.8118603 2.0408711 0.5831746 -1.143324 0.32369238 0.6855853 0.7855328 -1.1371121 1.1208466 0.0010247693 -0.031995192 -2.2421827 -1.096184 -0.82956874 -0.7284512 -2.6355755 1.6315854 -1.2036287 -1.3694277 0.35545486 -0.21401666 1.1958114 3.8579376 1.0807024 1.9772712 -2.0812929 -1.38593 0.7703111 -2.0726936 0.30479798
81 1.6401302 -1.7549269 -1.715674 0.47306073 1.8292837 -1.2180886 1.6710643 1.2961881 2.3784223 -0.20515162 2.2102602 -0.17580199 1.0660514 0.43842933 -0.6901241 -0.88272506 2.2339716 0.15194689 3.5357 -0.8375705 0.483453 -1.9809753 2.287987 -0.5195039 2.369191 -2.947978 1.1057274 1.3234662 0.44564897 -1.1226858 3.695716 0.690517 0.12421599 -0.7256932 -0.20923021 -0.52182823 -2.0463092 0.12602665 0.2408386 5.016722 0.62643355 0.12696934 -1.3534693 1.9200234 -2.2245295 1.8753116 -0.5462001 -2.4083662 4.1785536 0.82124364 -2.8889744 -3.115645 -0.53580356 1.2378755 -3.2172663 -1.7561781 1.8956397 -1.7065815 -0.39735124 -0.90200305 4.324206 -0.6931949 -1.0539036 -1.0949805
56 -3.1199293 -0.61290294 1.2549624 0.86123705 -2.2961411 -0.27320334 -2.955023 0.864212 -1.7365407 -0.26819915 -1.7820674 -1.162601 -0.036412038 -1.352835 3.7628949 0.9396367 0.44750267 1.6485826 -2.0911407 -0.4414491 -1.7106931 0.798177 -1.2606434 -1.2657803 -4.883153 1.8632904 -1.8961663 1.7836206 2.3360624 -0.92407185 1.0443678 -1.5291231 4.339037 1.7766285 -0.21946968 -1.4900694 0.43837255 -0.807843 -2.9354837 0.5297563 2.239447 1.4434373 1.1890265 2.6046574 1.7871509 -1.8094985 -1.664323 1.0515486 0.17160322 2.0827098 -2.5863695 -2.104485 3.5495522 -0.51041865 -1.616545 1.0035911 2.3081362 2.4095488 0.5248333 -3.5812185 -0.91162235 -2.9079988 -2.8169568 2.1297162
75 0.9303314 -0.97849685 1.6005883 1.3009492 -0.38355434 -1.1829556 3.4834652 1.0419925 -0.3158087 -0.31513265 1.2894152 2.6109378 -0.6623335 1.328708 -2.4149485 -1.0783342 1.9301255 -3.282837 1.5574602 -0.5708257 2.6573915 2.2305083 -1.2482 -0.07441668 2.7874086 0.42178386 0.7173555 -1.491381 1.3438622 -2.322 1.398184 -0.25704527 -1.4186313 -0.20411256 0.46659335 0.0021772962 -0.85559875 0.3230625 -1.5206112 -0.42870092 -0.20331128 -1.6710471 -0.21567996 1.0212476 1.1401076 0.2539859 -0.2529183 -1.7510686 1.598025 -2.6168373 0.6353318 -0.38898924 -1.2483796 3.0811436 1.8521821 2.2837865 1.1254398 -1.438923 1.169677 -0.25772732 1.6078103 -0.4208994 2.3949313 0.032095704
50 -0.25757805 -1.6656387 -4.2305956 2.4898047 -0.101313345 0.07467215 0.5571199 -3.975856 -1.9548604 -7.0742474 -2.2168293 -1.2378535 3.3526983 -2.3856163 0.46375147 0.23646215 -1.5507649 -3.6891522 4.2314286 -1.6886247 -2.2751224 -2.7771645 -4.254553 1.3028785 2.0946422 0.2732887 2.0409324 -0.23450027 2.8132668 -5.260846 3.5110452 -2.4218311 0.20812841 -4.9043875 -0.5707964 -1.1274238 -2.7878268 0.118145816 -0.604197 2.1480503 1.4974182 -5.4591784 -1.65771 1.9465847 -3.6900175 2.5414493 4.57299 -0.8570721 0.96711653 0.8554449 0.82378 -2.733353 0.39758414 -3.6716568 -4.497794 -1.1303179 1.6372544 -2.6383975 2.162803 3.4789462 2.449646 -3.4414518 -1.96104 4.065483
65 -0.56179905 1.513033 -2.7975285 3.577285 -3.0490475 -1.0395274 0.7881337 -0.6374674 -0.15522507 -0.5368573 2.6711571 3.4889753 -1.0379976 1.8911929 -0.85567975 -1.2170388 1.4271506 -2.4948645 0.9589081 -1.7162538 -0.0032099467 -0.51271397 -0.2643488 0.25991693 -2.083187 0.034422528 -1.5822153 1.0665457 0.3366155 -0.07257605 0.9454035 -0.7561842 -0.66366524 1.2767063 -0.6376732 -0.84971845 -1.5350988 0.52363104 -0.13166903 0.7693136 -3.5269392 -1.0758924 1.2184646 1.1386237 0.21580344 0.6205648 0.9034022 -0.9791477 0.8949301 -1.2869964 -1.3143137 -1.8500005 -1.6373975 0.9591277 -1.4567034 -0.67153096 1.5104407 1.9399045 -0.9380706 -1.226889 3.005522 0.059249733 -0.41813856 -1.5398622
66 -0.15181673 0.3891085 1.0355608 -1.33602 0.12125652 0.28288212 0.9922031 0.30898592 0.6712221 1.5634532 -0.1839571 1.0142831 1.3647026 -0.8383535 -0.48084685 -1.7923359 -0.5892992 -1.3981496 1.0430357 -2.4737732 -0.2803095 -0.70438313 0.86713797 1.112388 -0.9379749 -1.0983725 2.7912219 0.12021334 1.2223787 1.2846037 -0.83719087 -0.35741976 -0.24167402 -0.50324357 -0.865747 0.502567 1.2901046 -2.3510695 -2.1535206 1.5926931 1.3649476 1.4465541 1.6969312 0.5630358 0.7095093 3.3386896 1.6967528 -3.0563402 1.724919 0.8059854 0.6669998 -2.2376304 -2.3509703 1.0107216 -0.96102804 0.5502431 -1.3805695 -1.0873054 0.99898857 1.0423995 -1.0124062 2.2214522 0.8684341 -0.5619341
99 -1.9669199 2.9957747 -1.5189142 3.0295296 3.0725887 -2.5069027 0.73798776 0.65932316 1.2604687 1.5609988 3.5161593 0.33224607 -0.30398425 -0.653128 -0.7544907 0.36037076 -0.0020159704 -2.5530732 1.5606503 0.42033446 1.6315169 0.97251266 1.8914785 2.191628 1.5740852 -0.11436478 -4.048011 -0.080849774 2.3210516 -0.24713261 -1.233859 1.0771493 -1.285349 2.2115877 2.5397303 0.22913295 1.7841194 3.4987435 0.83570856 -0.5305439 0.07113036 -0.75567865 3.6266968 0.20434357 1.0258322 1.3530277 -2.4095514 -1.0758436 -1.214352 -2.0479693 0.8776013 0.9835543 -0.7718803 1.9427027 1.2159662 1.3762217 -1.8050159 -0.9268209 0.4967343 1.0535758 1.2126476 -1.0329833 0.8352284 0.3448222
69 0.52649194 0.3650424 0.23965502 0.56309533 -1.2479453 -1.899616 -0.35023582 1.538387 1.4885291 -4.009479 0.85487 1.345519 3.5227785 1.0736752 0.5439498 -2.3651924 -0.7672188 -2.362587 0.79614985 -1.1085266 0.5238352 -1.1346314 -0.31197232 0.24686395 3.029386 -2.52206 0.56296265 0.83282036 1.0182033 -0.90548635 1.941168 -1.0108792 -0.23229732 0.5196332 2.0411954 -0.25392786 -1.6548258 -1.4077526 1.6431363 1.6411086 -0.4204964 -1.0387666 1.763561 3.37096 -0.80514354 -0.40326315 -0.38981044 0.83186764 1.5951202 0.96957433 -0.10781207 -0.095072545 -0.9466104 0.64084345 -0.049625494 -0.53992003 -0.753507 0.9042673 1.3405703 0.8252779 2.1026685 -3.2739682 -0.7788077 0.5313141
802 2.3087838 0.30618474 0.63670915 1.0611558 0.13827443 -0.44570896 -1.4011976 -0.73868316 1.586072 0.2849487 -0.37605596 -0.7308073 2.9079714 -0.7000415 -0.30970627 -0.7490506 0.49014428 -0.37102953 2.1886225 -1.0113573 0.30235177 0.24117972 -1.6105703 -1.7471342 0.38396066 -0.7530954 -1.684013 0.38261992 1.508517 1.7656618 -0.38873404 4.0212665 -0.1913093 0.84486294 -0.56904745 -0.4667717 0.58993244 -0.6937143 -0.2521931 -0.46760315 0.62889045 -1.8176003 1.032201 -0.8439579 0.12579833 -0.63438153 -0.25637656 1.3318949 2.1553955 -0.43058106 0.71450746 -2.1842263 -2.282952 0.052348584 0.30977964 0.563151 0.042258974 0.944939 0.41823268 -0.42324302 -0.5346829 -1.7193439 -2.0087962 1.0868399
1414 2.165562 0.3859197 0.5060417 0.91282654 0.13821328 -0.5188512 -1.2099261 -0.6007955 1.2729036 0.26973507 -0.15927544 -0.8037738 2.581968 -0.55047053 -0.2947184 -0.81581306 0.30117074 -0.13797928 1.9224652 -0.83265835 0.27877143 0.116764165 -1.4964483 -1.4612293 0.3673878 -0.64056706 -1.5232416 0.32230547 1.3010668 1.6150542 -0.27483982 3.5714264 -0.17770389 0.78153384 -0.5024168 -0.46433887 0.5768531 -0.5452131 -0.3660861 -0.50029397 0.4761219 -1.6870185 0.8923937 -0.8514106 0.073457554 -0.4941429 -0.28144273 1.2637619 1.8410774 -0.22663482 0.650739 -2.1581085 -2.0447764 0.069493204 0.41514364 0.496185 -0.13435215 0.9505874 0.40840957 -0.24980472 -0.69222564 -1.5582716 -1.7340381 1.0583913
1248 0.65046096 -0.6620063 0.7817323 0.8790073 -0.14504007 -0.44427156 2.6108918 0.505912 -0.22946508 -0.32434314 0.56054556 2.1606045 -0.2268845 0.9156165 -1.5034263 -0.6900604 1.8105218 -2.4621456 1.877055 -0.6020607 2.1172593 1.5301856 -0.74912685 -0.33712533 2.0858204 0.05025397 -0.10065199 -1.0610371 1.7303833 -1.7196037 0.7834074 -0.22537859 -0.9587568 -0.279559 0.118382454 -0.21765131 -0.882657 0.029748 -0.65761596 -0.7654413 -0.05962245 -0.75500804 0.17955697 0.49796614 0.9389442 0.26983595 -0.20699054 -1.7193971 1.8933136 -2.462265 0.4950986 -0.5798744 -1.322838 2.3076959 1.3183172 1.5437031 1.2175988 -1.1599886 0.8869408 -0.760954 1.687933 -0.35789838 1.7791419 0.1591268
2677 0.71390545 0.46676928 0.33877555 0.27707753 -0.33621654 -1.3185339 -0.05506437 1.0562441 1.1939125 -2.8352964 1.0468878 1.3381275 2.582139 1.0111492 0.7585311 -1.8078544 -0.43165126 -1.6817306 0.9454789 -1.1108742 0.6436 -1.0297046 -0.16545905 0.07641642 2.1130924 -2.1998572 0.021434333 0.7809119 1.1584942 -0.39043257 1.5909469 -0.5128194 -0.21178198 0.17964688 1.2597632 0.10216751 -1.6723189 -1.0430913 1.2989885 1.3294227 -0.30087122 -0.644132 1.8670404 2.6172702 -0.28834698 -0.23961416 -0.6569075 0.854805 1.7152131 0.5066744 -0.34451884 -0.31439298 -0.27817896 0.97790784 0.3698727 -0.30589134 -0.11437283 0.38328928 1.1872103 0.45496058 2.0716715 -2.385401 -0.71363264 0.17692094
2715 0.779269 0.24433911 0.40313905 1.1201607 1.2470368 -0.06956067 -1.5412447 0.7069893 0.77028507 0.2829144 -0.3106233 0.5952618 1.4123322 1.1602361 -0.17408806 -1.4630599 1.994591 -0.94578063 0.1287364 -2.6098642 1.0785508 0.06103714 1.1692659 0.4054056 0.949534 -1.2547983 -1.859802 -0.31685683 -0.5526951 0.49694768 -0.13583308 0.6451383 0.43506888 0.22115195 -0.8096458 1.90411 0.18961972 -1.8623614 1.742604 -1.2262632 1.2029368 -0.06655346 0.6082844 -0.5438042 -0.43698937 -1.1215547 0.020222157 0.37343973 1.2326723 -0.90271777 1.3674062 -0.04643225 -0.13710894 -0.31487182 -0.12457447 -0.15941839 0.8434976 -0.13228785 -0.1257319 -1.434798 -1.0205286 0.9676923 0.04095928 0.9995835
2843 0.75209594 0.19869027 0.37228382 1.1127651 1.19385 -0.062831216 -1.4984369 0.76936585 0.7749119 0.30887654 -0.3702495 0.5959189 1.4034632 1.1240383 -0.14251155 -1.4348115 1.9159447 -0.9522482 0.08840113 -2.5736618 1.0648422 0.04517087 1.0950351 0.44092447 0.8914602 -1.2730162 -1.7435582 -0.27318126 -0.61412567 0.4412367 -0.19613476 0.63205624 0.3786573 0.1478014 -0.7838776 1.8506829 0.25525612 -1.8089099 1.7164779 -1.1713762 1.1685485 -0.024672389 0.5877048 -0.51300406 -0.39969543 -1.0685157 0.044279143 0.3853962 1.2532824 -0.86691964 1.3793873 -0.09755503 -0.09720075 -0.33320358 -0.14344953 -0.1899549 0.84814507 -0.12726428 -0.16094542 -1.312306 -1.0628788 0.91774064 0.050110057 0.95763355
334 0.7431652 0.17165087 0.3136891 1.0699377 1.1799791 -0.09776547 -1.4718406 0.7351737 0.7530736 0.3286071 -0.3282595 0.6137595 1.3763778 1.2001197 -0.14157255 -1.4410435 1.9204586 -0.9281637 0.11853712 -2.5902815 1.0087526 0.058580305 1.1083149 0.40240377 0.90952504 -1.2879685 -1.768189 -0.24833685 -0.5578708 0.42815906 -0.1869598 0.6106605 0.35596645 0.19470713 -0.8156472 1.8197823 0.19506834 -1.807697 1.697362 -1.1550297 1.1736677 -0.037851926 0.576749 -0.51652473 -0.4423975 -0.9981891 0.084253676 0.32064554 1.1864411 -0.8228865 1.3489128 -0.12715165 -0.120622724 -0.31861183 -0.1479108 -0.21185282 0.83541644 -0.07506985 -0.17348321 -1.302674 -1.0259347 0.9101844 0.043301795 0.9749616
2650 1.9255028 -0.19060357 -1.9123777 -0.096137926 1.4942188 -0.07818688 -0.8499446 -0.6263827 0.88465816 -1.1290691 -0.83984256 -0.3902233 0.71359915 -1.7995732 0.32964975 0.33493593 0.16939734 -0.4968324 0.81525344 1.1680747 -1.0477221 0.02475594 1.601111 -0.50460696 -1.8874537 -1.7231234 -0.6736095 -0.7590393 1.2422687 0.5550793 -0.6895525 1.2883838 -0.9035582 0.30653316 0.53979087 -1.0800424 -2.16652 0.9751181 0.562387 -0.8021671 -1.4247185 1.7993892 0.8816806 -0.67341226 -0.20683049 -0.3650559 0.28983024 -1.4762049 1.3775307 -1.5817486 0.63958645 0.07154774 -1.5044456 -0.96777 0.7384507 0.5629407 0.10029099 0.5326071 -0.06603156 -1.0157291 0.08370377 -1.5044101 -0.08876873 -0.2975211
2397 1.9327875 1.3423306 -0.58699375 0.12052529 0.71599597 -0.1635247 -0.5415956 1.4915898 0.17253026 0.055428833 -1.1078594 -1.0136372 1.8130106 -1.5077949 0.09035723 0.0975715 0.40186366 -1.2628496 0.57370454 0.036153432 -1.1433486 -0.03602022 1.4404938 -0.6618288 -0.9916199 -0.9553087 -0.34720707 -1.4040006 2.0345259 0.96638465 -0.9395515 0.5751893 -0.9938437 0.92711014 0.37467876 -0.5914086 -1.5445338 0.5398927 0.52931273 -0.2942287 1.0819304 1.0309706 1.3081759 0.7103189 -0.3838431 0.112681724 -0.2563674 -0.7859222 1.2380342 -1.1077828 1.448527 -0.76762915 0.08121616 -0.38337803 0.580201 1.2144406 2.1369972 0.38178945 0.4487381 0.25307688 0.7781602 -1.0415155 -0.25798106 -0.5590751
745 3.0902412 -0.618525 -2.446363 1.4489088 0.11990051 0.47542566 -0.6033629 -0.14241216 -1.1941673 -0.3683337 -0.984916 2.2338212 1.4979738 -1.9300834 0.55793774 0.14802645 3.6349235 -2.044883 0.30703792 -1.8718863 0.40812966 -1.1093462 -1.8443838 0.049856152 0.16819988 -0.4928628 -1.6054485 -0.53636986 1.4766244 -0.106165156 -1.4473612 1.821499 1.8059502 0.44854444 -0.22532757 0.060354125 2.219669 -0.18640026 0.91329217 0.30406487 2.1570208 2.194814 0.24394862 -0.054060947 -2.1064477 -0.84499294 1.6367366 -1.5674789 0.26096213 -3.6957736 2.7769399 -1.9344162 0.26935208 0.33691293 0.7365351 1.3329772 -1.3008771 2.1139195 2.8239675 -0.94987243 1.6985219 -1.9415773 -0.60606307 0.99655706
682 0.96523917 -2.2682335 -0.39247364 2.8141146 0.9621826 0.030226259 1.2603674 -1.8932819 2.2500625 -1.0370758 1.5426451 1.7973466 1.8710816 1.2139896 -2.3716285 -0.6641732 1.5724821 -1.411565 -2.6971104 -2.6119606 -2.1961129 1.3670412 -0.54917127 -0.8928127 1.1448156 -2.8456142 -1.1340581 0.1455548 1.1801027 -0.061874602 -2.0657895 0.41709286 1.0418012 0.09617172 0.41648483 0.49584872 -1.11117 -1.0798658 -0.21297765 0.71612287 1.3389153 -0.8661134 2.4974868 -0.68973035 -0.095471285 -0.40916952 -1.5230911 0.6975757 2.0003746 -0.62233454 -0.37803683 -2.6166234 0.643644 0.16063496 0.18351972 2.0783026 -0.04960008 -1.1640879 -0.8781971 0.68030244 0.06417528 -0.6345644 -0.39468884 0.8480023
2737 2.4554384 1.1005055 -0.62777454 -0.2616655 0.9146934 -0.025494419 -0.23158577 1.0867532 0.16144626 -0.10580987 -1.12956 -0.42384166 1.8442576 -1.849402 -0.055885233 -0.32710287 0.3979376 -1.4434876 -0.08135212 -0.4026227 -0.67955804 -0.29087552 1.8302311 -1.0939426 -0.42330894 -0.95460933 -0.5641762 -1.233905 1.751677 0.752374 -1.1216408 0.25489232 -0.9704213 1.009083 0.5655934 -0.73477304 -1.3731477 0.5359323 0.03602221 -0.26388827 0.87410223 0.49098197 0.3780107 0.6019463 -0.04609681 -0.2238898 -0.058832116 -0.8896144 1.085259 -1.2698743 1.1500547 -0.58529955 0.37195906 -1.0114852 0.2673934 1.3945975 2.0142546 0.37638333 0.5553315 0.33109382 0.5968332 -1.116999 -0.50811183 -0.82182443
2389 -1.446585 0.037754815 -1.831823 1.1246953 0.6103916 1.0427595 0.6726348 -3.0909424 2.898173 -1.8879422 -0.47454238 1.8312124 0.27752963 1.7046573 -1.0248588 1.0371325 1.7962233 -1.1885216 -0.11705911 -2.7233617 -0.08853545 0.95057255 0.40340915 -1.0479739 1.5170515 -0.0021489263 -1.3978045 1.0949099 1.8891844 0.8096912 -3.0180273 0.80762273 1.2821709 0.1639558 -0.0050728605 -1.8174062 -0.7187215 -2.9927912 -1.451451 1.1968923 0.59442633 1.3549434 1.3474343 -1.1737921 1.167197 -1.6065909 -0.60925716 0.6150928 1.3258568 0.1969182 0.6484755 -1.0079246 -0.11761332 -1.0980287 0.74448824 0.9777743 -0.15530463 -0.011698925 -0.34303036 1.2657743 1.683909 -0.7805215 -0.24983041 -0.3138224
134 -0.149037 1.4837924 -1.6262816 2.4507263 -2.2064018 -0.4948621 1.0018228 -1.0387621 -0.28615367 -0.5533336 2.0460958 2.8810682 -0.27299076 0.50235873 -1.013636 -0.9067516 1.6956433 -2.0772548 0.8027845 -1.8240966 0.18838774 -0.11311565 -0.19319513 -0.26468825 -1.0049013 -0.56478477 -1.2661668 1.1951995 1.1970388 -0.60625964 0.896287 0.06907049 -0.63097453 1.0684282 -0.68778366 -0.20457228 -1.4566468 0.30096933 0.38277835 0.12011614 -2.6455178 -0.8636317 0.7280887 0.81610084 0.2339777 0.5389273 0.44529343 -0.9880211 1.3100497 -1.3179282 -0.55215573 -1.4546992 -1.7377388 0.4975598 -1.224377 -0.028884115 1.3700938 1.2997866 -1.0734298 -1.1206194 2.4645486 0.1271423 0.063583866 -0.8095161
1251 0.24533667 0.07178631 0.61676884 -0.87216896 0.07818254 0.33689323 0.5227776 -0.08546023 -0.12131955 0.85831046 -0.35180077 0.9193809 1.085823 -0.62141734 -0.36053377 -1.3230616 -0.11916698 -1.1717925 0.84703636 -1.9674257 -0.18993 -0.343746 0.50018024 0.6082381 -0.87993073 -0.997552 1.778283 0.27816343 1.3815768 1.3382791 -0.59813285 -0.010801162 -0.11548678 -0.7975568 -0.9811093 0.22594586 0.5069942 -1.5236479 -1.6061668 0.81256574 1.0342289 0.84345746 1.482654 0.24794212 0.15873209 2.0261579 0.8578905 -2.0053809 1.8655702 0.24913315 0.79133385 -1.7651734 -1.7432181 0.5658782 -0.6117676 0.37524945 -1.0534995 -0.7631804 0.6016337 0.21737832 -0.40877172 1.1579343 0.37391073 -0.4027471
2398 0.68051904 -2.220366 -2.7935905 -1.4742919 2.9832313 1.1406885 -0.9605374 -0.41059697 1.1054379 -1.1294149 1.1660528 -1.7952014 1.9346951 -2.4659612 0.22935896 3.0753906 0.10088179 -0.9147037 1.2309582 4.659736 -0.6600452 0.28188813 0.95005184 -0.699092 -3.5095196 -0.037119716 -2.164333 -1.2465835 1.2406812 0.5254178 2.0011427 2.8374195 -3.617953 0.85566795 2.8490722 0.6540597 -5.3787866 0.41988897 3.1229634 -0.55180526 -2.9786277 3.642183 2.306507 -2.275174 -1.5798266 0.24577516 -1.3366756 -3.0357978 2.5829396 -2.4232242 2.632309 0.5803711 -3.7725828 0.431523 -0.6006142 1.141662 -2.0571492 0.78811556 0.47436345 -0.34785327 -0.9081646 -1.7364022 -1.9289333 0.90755063
2461 0.62376696 -0.8894921 0.9732959 0.37709728 1.6357958 -0.18858004 -0.5788888 0.016444854 0.58914244 -0.8438034 1.0047126 2.1820798 0.12420399 0.029819034 0.56628513 -0.43248338 -0.26090172 -0.46322823 1.5561584 0.048905753 -0.3672626 -1.2579466 0.8785829 0.60904306 -0.7111355 -0.33240327 -0.6552295 0.9376517 1.0881443 0.33294713 0.16171053 -0.8248298 0.45922676 -1.4068936 0.41333953 -1.52134 -0.08651254 0.21496445 -0.12367893 1.4954203 1.682472 0.31443876 1.7466468 -0.36086324 -1.6061264 0.12207731 0.5149654 -0.33837438 0.73504674 -0.27679798 -0.5850323 -1.5472752 -0.2567853 -0.05093612 0.36256802 -1.734783 0.475971 -0.88562196 1.0272323 0.59826684 1.8648722 -1.1961912 0.24279235 1.8597375
116 -0.17517245 -1.6732787 -0.16060638 1.0184106 2.085032 -0.51171154 -0.7239626 -0.3217264 0.49589604 -2.0128388 -1.2559497 2.590297 1.764686 -0.052676994 0.61987317 0.14591518 -1.1359113 -0.86031353 -0.76846147 -0.009092528 -0.06864545 0.11436014 0.19302851 -1.4481722 -0.47114754 0.49342605 -0.5537878 0.14429653 1.5073154 -0.06724071 -1.5752001 0.95344603 0.75788516 -1.9111366 -1.3475379 1.4730238 -1.33458 -1.0660291 -0.11759072 -0.6842315 -1.2679181 1.5712221 -1.3813927 -0.33144692 0.49057448 -1.5199125 1.4619576 -2.033601 1.4496745 0.8260219 0.6571914 -1.4210109 -0.51097727 -0.48637488 0.50689113 0.34362262 1.5439403 0.2771698 0.0677612 -0.3833377 1.9152511 0.27973863 0.5114377 0.43002328
2328 2.202816 4.3173532e-07 -2.253743 1.8875802 -0.48539096 0.14672126 1.0835856 0.12222471 1.0001873 -1.1993928 -0.11382512 0.111818455 2.50464 -1.7355506 1.2542074 0.5349232 0.61823756 -1.2084885 1.7048904 -3.407651 0.8247814 -0.41768232 1.1160873 0.8861065 -0.95092356 -0.61720693 -1.6868784 -0.033341594 1.4505997 1.3836925 0.71291536 -1.5983549 -1.8925542 0.4890641 1.6325823 1.2875823 -0.7775589 -0.026898587 -1.1608564 -1.4493436 1.2288516 1.134861 0.06904413 0.064546 0.42536163 -1.2843565 0.1079625 1.0997392 0.4532835 -2.7244732 -2.1228635 -0.09804507 -3.266295 -0.4732368 -0.5784206 -0.84609765 1.5774336 0.72084886 2.72384 0.20261803 -0.5757544 -1.0401462 1.0833467 -2.0594208
1658 -2.4802938 -0.71911305 2.493277 1.8218795 -0.1448256 -1.9076961 6.0726266 1.7260169 -0.94307643 -0.11641341 2.3745492 3.2862701 0.12485804 0.93715525 -2.8488507 -1.5035452 3.1841614 -3.6950629 1.309229 -0.403281 1.6936092 4.1473923 -1.7439481 -0.7000514 4.9501743 1.9937996 1.3795453 -3.0796819 -0.11197244 -4.005236 1.6279018 -0.70451266 -1.375165 -0.24920765 -0.6428913 -0.5487745 -0.9798827 0.7729657 -2.7868638 -0.6893468 -0.65785336 -2.779984 -1.0367186 0.733799 2.2951071 0.7890255 -0.38373324 -2.6322067 0.9655066 -3.476456 -0.4169778 -0.18550691 -1.6558206 5.518262 1.7158848 3.1026561 0.6977432 -1.5112816 0.77518344 -0.5503104 2.1835637 -0.09100093 3.4087005 0.96660817
2975 -0.124627024 -1.0040191 -0.07280325 1.0706928 0.49734953 0.7677943 -1.1035093 0.035116423 -0.81523 -0.8337555 -1.2097983 0.6791442 0.66647923 0.574128 -0.37476453 0.08790902 -0.31311733 -0.7704263 0.14398338 -1.5481795 1.0642136 -0.23526053 0.16663638 -0.87915826 -0.74425495 -0.86839026 -0.20011596 0.6521558 1.2774159 0.18449342 0.17296726 2.139639 0.8527916 -0.5944836 -1.894958 0.74981076 0.0009583863 -0.7151067 -0.9287126 -1.3214427 -1.0923667 -0.06156812 -1.2412331 -1.1909184 0.102266416 -1.0769691 0.22637856 -1.6720388 0.6987765 0.5110993 0.3405359 0.31129888 -0.14686407 0.45863014 1.02586 -0.05178569 0.9699868 -0.16513184 0.5601557 -0.61180073 1.2128526 0.07978731 0.5633893 -0.41331547
733 4.447688 -1.064206 -2.1245656 -1.6403375 3.0799706 0.30852443 -0.8194085 -0.9557334 2.8343613 -2.254366 -3.6226501 1.754129 1.0384773 -4.549423 0.2887483 -0.6208166 1.0401269 -3.73923 0.617421 2.574633 -3.298625 1.0186673 2.2960038 -0.4760337 -2.3971498 -4.0390472 2.1210742 -1.5613664 2.3876452 0.23907638 -0.41119552 4.283635 -2.5479434 0.85016054 1.1512926 -1.7578865 -0.14149937 1.982896 0.07291152 -1.7785522 -2.666397 3.8899176 1.9195471 -2.2311373 2.6012201 -0.631515 -0.5514966 -1.7099069 1.1523298 -1.5287896 -2.2659647 0.3616582 -2.291363 -0.6926533 -0.8950867 1.6984745 -0.7940777 2.4856353 -0.38354188 -3.360343 0.3212558 -4.507032 -0.899763 -2.0867338
1672 0.99631524 -1.954432 -0.34882027 0.758699 1.5474616 -0.77233064 0.94895935 0.46669963 1.436505 -0.09838418 1.1563624 0.43198508 0.8865311 -0.06306486 -0.028223827 -0.8019671 1.4813645 -0.14196867 2.218798 -0.71036375 0.48057818 -1.356515 1.6425451 -0.9876293 1.084472 -2.2194684 0.7642147 0.8893122 0.94387895 -0.18772699 1.9636278 0.3845592 -0.05995774 -0.45262745 -0.4186483 -0.18597877 -1.8121856 -0.14744939 -0.033817023 2.5684314 0.3336834 0.10270885 -0.3696564 1.0259519 -1.2629435 1.0001934 -0.6091857 -1.4778413 2.5828598 0.5136244 -1.4170126 -2.038315 -0.51694953 1.0019307 -1.6129723 -0.38684618 1.4898406 -0.9987188 0.24715637 -0.87318736 2.6583974 -0.29738665 -1.0211114 -1.0490764
2337 4.204119 0.5185028 -1.3627713 4.6438947 1.6617317 -4.450983 -2.704717 1.500175 -1.238028 1.8212079 2.5529943 0.30031195 3.321003 -1.8882362 -2.0984108 2.1868138 3.7665098 1.4025714 1.7704207 -0.51866597 2.6183014 -4.3625784 -0.30272597 -3.349761 -1.8400748 -0.6939828 1.0788641 -3.0895772 2.340673 -1.1690568 1.0811868 0.938735 -0.7482137 -1.9944046 0.773085 1.0869164 -2.747284 0.8779725 3.2138019 2.5420496 -1.6985811 -1.613036 1.8700035 1.4855055 -6.898406 0.0020848578 -2.1988757 -2.3598607 0.9128951 -0.81061405 -1.6742669 5.521011 2.8168166 -2.1569345 -0.13324939 -2.0191312 -2.9236276 -1.7284297 0.3991441 0.6891845 -2.6153383 -0.16539994 -3.2020938 -2.6971252
2349 -0.90629846 0.92898285 0.1519174 1.5475279 1.4091703 -0.9398727 0.05062307 -0.22606249 0.7475182 0.6480452 0.97961754 0.9942576 -0.2423198 0.026993955 -0.029556405 0.6030365 0.20458117 -1.4702908 1.89808 0.24600378 1.0173085 0.44760764 0.97791564 0.4858106 0.7742112 0.14832719 -2.4917746 -0.29447758 1.2616236 -0.24271363 -0.41336223 0.1450365 -0.7356724 1.4311281 0.8194987 -1.1557829 -0.7791291 1.9364753 0.9164697 -0.54578125 -0.502713 -0.70515144 1.3407133 -0.31451073 0.75239754 1.1233377 -0.69860613 -1.4447488 0.046211984 -1.4923309 -0.29232535 0.26831335 -0.36863253 0.8126954 0.31935474 0.3593082 0.3983398 -1.1694549 1.0557672 0.8866442 2.0075426 -0.5021476 0.9795955 0.1819187
1928 -0.06447326 0.36490202 0.91435945 0.18570858 0.7285727 0.5215867 -0.0038534184 0.64734524 -0.26430273 0.09168191 0.5651663 -0.14227548 1.0731201 0.8392005 -0.28723627 -0.7021972 0.41356704 -1.6721792 2.6745899 -1.7267989 0.34102884 -0.9521347 0.17049728 -1.5301296 0.51379466 -1.2847489 -0.053065125 0.5906837 0.7393518 0.51133853 -0.9718753 -0.39972055 0.35235116 0.4086999 -0.5357631 -1.3451942 0.6770787 0.11295935 -0.15607849 -0.5747233 0.5233858 0.30929053 -0.12204618 0.17156655 -0.031014754 0.049237795 -0.31316388 -0.76107764 1.3488293 -0.57738334 -0.88748986 -0.6215946 0.0056070634 1.0390949 0.10804306 -0.1693243 0.5000483 -0.6130597 0.25055507 -0.08057493 1.2687823 -1.0744462 -0.67073274 -1.0079601
2125 -0.11551399 0.19231871 0.6680589 0.4683765 1.3396882 0.6021206 -0.07687421 0.8916221 -0.03609955 -0.25309983 0.6930817 -0.51212674 0.7033509 0.70062244 -0.5363981 -0.8251854 0.4916759 -2.0387435 2.311845 -1.2691662 0.46522593 -1.2663223 0.6077346 -1.2290491 0.20824122 -1.390426 -0.38620472 0.43363175 1.0174631 0.6096866 -0.97319233 0.3958861 0.75680983 0.45802823 -0.1975882 -1.4923794 0.16741212 0.58143646 -0.8025623 -0.30021507 0.34691978 0.212566 -0.30535513 0.3551602 -0.54402643 -0.34379232 -0.6828753 -0.682549 1.5475729 -0.033687364 -1.1460024 -0.46708772 0.21374615 1.5028716 -0.45905685 -0.14220938 0.68984336 -0.94320285 0.3946499 -0.01421447 0.51667196 -0.87305975 -0.6638768 -1.1091129
2578 1.0909909 2.230672 -0.85765654 3.0397823 1.2577631 1.8130244 1.514103 -1.2416569 3.4229636 -3.0883162 -1.1343659 1.4230176 -0.9441086 -0.2061784 -0.4671323 -1.5149546 -1.0647311 1.3818834 1.9035552 -0.5431717 0.9437392 -1.5599095 1.3623126 -0.82713705 0.94267184 -2.7576656 -2.358558 -3.309871 2.5557609 -0.99826634 -0.7518491 1.6276671 3.310687 1.9271195 2.6384473 1.2835729 -0.4452813 -1.6951737 -0.638353 0.9436869 2.5608082 0.20207655 2.2951279 2.3533897 1.2830908 -1.6869601 0.56077206 -1.2503432 2.483559 -2.5507796 -1.2135036 -2.645216 -1.1086279 0.9868987 -0.63153803 -1.4020358 3.1039402 -1.3770179 -0.044375233 -1.441077 -2.1163454 -3.3097124 -0.4120412 1.5681508
2761 -0.4688934 2.7372367 -1.8808262 2.1999512 -0.12335356 -2.1892097 3.6423936 -1.3110386 0.50154144 -1.07502 3.9693408 0.835779 1.966952 0.9510397 -2.4062302 -4.409834 -0.6696863 -1.9377431 2.9469588 -0.83630204 -1.4086401 0.97822976 -1.654498 -2.6299067 -0.69830245 1.6658721 0.73053515 -2.186677 -0.80074763 -1.2247113 -0.5951521 -3.9895966 -2.044734 0.7098739 0.49008885 -0.8291614 -0.8465016 3.5426977 1.6443175 -0.17285676 -4.5187106 1.3957802 0.22345814 1.1953346 -0.11101473 1.4816949 0.33895585 -3.2219803 2.0982697 0.4045674 -1.6757307 -4.1277757 3.4276977 3.0223196 1.6290517 -0.30847415 2.3763988 0.41457024 -3.1634333 -0.02035183 1.965281 -0.20707917 1.9897777 2.1589901
439 0.31178862 0.12586991 -0.15509252 0.81953424 0.90584016 0.8009328 0.08010728 -0.24118988 -0.9750992 0.6446171 0.93352944 0.576467 0.38588881 0.11725752 -0.30428517 0.13636835 0.20645913 -0.78128356 -0.22715804 0.2792864 -0.7115991 -1.1582935 0.047829024 -0.284219 -0.49633804 -0.48265675 -0.12140335 0.29053664 0.06274481 1.4672827 -0.11073622 -0.86134493 1.0031139 -0.36801475 0.09904335 0.35698295 -0.52960956 -0.9230947 0.13118999 -0.18686153 -0.20547798 0.4391779 0.39222762 -0.15890245 -0.8456125 -0.9986882 -0.1817748 -0.67864686 1.2591248 -1.1729497 0.6724792 0.28145355 -0.7805472 0.22139467 1.2119299 -0.76132476 1.2492915 -1.0629526 1.1157551 -1.2522671 1.1170963 -0.34667328 0.6936281 -0.08982376
807 1.2453173 -0.7903042 -1.0875902 0.8002617 -0.69288534 0.8178972 0.443192 -0.20357911 0.07574898 -0.626341 0.040302765 -0.19343036 0.62058675 -0.32632357 0.95718396 0.3655732 0.85409397 0.45460823 0.46668553 -1.4078251 0.78938854 1.0840336 0.728487 -0.4046191 -0.32728967 0.20545943 -0.82842374 0.059228644 1.2490362 0.9649712 -0.23518458 -0.59566677 -0.5265899 -0.10113588 0.5967811 -0.15293793 -0.48435134 0.27631354 -0.6105199 -0.90073705 -0.3855421 0.051962297 0.85284746 -0.26017022 0.5257982 -0.8101357 -0.049868226 0.35656717 -0.15533583 -1.3808786 -0.2170257 0.0336399 -0.43691507 -0.54469484 0.38066423 -0.3682463 1.0793641 -0.003094602 0.8292866 0.060297195 0.016754143 -0.03292615 0.9165131 -0.85509884
1249 -0.29920197 -1.4701542 -0.88182944 -0.78046143 -0.03816481 -0.95905524 -0.3639636 -0.06927514 1.0194492 -0.08867927 -0.5687279 1.2609072 -0.22100386 -0.47156054 0.03861094 -0.1061756 -0.41989437 -0.0988405 0.020608697 -0.7902774 -0.16764137 0.019115575 -0.39488456 -0.814932 -0.43419674 -0.49446607 -0.079761066 -0.11117455 0.5419049 0.09096979 -0.3232041 0.22516385 0.57340384 -0.68441767 0.46228322 0.2292964 -0.39980105 -0.35023406 -0.22867356 -0.11970661 0.81482357 -0.3767389 -0.27920622 -0.517679 0.7143183 -0.12783654 -1.0486389 0.5289081 -0.020312324 -0.25081825 0.4449264 -0.6319115 -1.1070373 0.59241986 -0.6262569 -0.65162355 -0.05801018 -0.42026234 0.3661348 0.23744889 0.68545073 0.57653606 0.45356208 -0.23544547
1999 1.0217258 0.3827019 0.9508172 0.006596227 1.0028396 1.1979246 -0.7331032 0.58604497 -0.7000075 -0.7507003 1.9411511 -0.52518916 0.6424712 0.77519554 1.6611933 -0.30089235 0.5479469 -0.59787035 0.88963825 -0.60331523 1.745341 0.7105953 2.220197 -0.37454915 -1.3966672 -0.7426128 -1.090732 0.38590413 1.2235398 -0.6070449 -0.03446539 -0.12569213 -1.3091508 0.94445264 -1.2458744 -1.0643817 -0.14431512 1.0140435 1.445534 0.017632872 -1.0728246 0.19253628 1.061465 -0.18167675 -1.4175869 -0.30201048 -0.12822266 -0.27304545 0.33201545 -1.2153412 -0.6460787 -1.0258381 0.38768664 0.9041567 0.115952246 -0.83263856 0.9297405 -0.33352065 0.08552215 -0.6207992 1.6751499 -0.7679094 0.17852524 0.7600071
1550 0.99153614 -1.097928 -1.7147912 0.92177385 -0.84580433 0.5096249 0.20700452 -0.61481994 -0.12556036 -0.37331617 -0.36434937 -0.63194996 0.4498914 -0.6192569 0.7724892 0.7297592 0.8902723 -0.3283434 1.2169458 -1.1425636 0.6742537 0.38391715 0.76211023 -0.52991116 -0.32402235 0.2900457 -0.8953404 0.31663734 1.0791745 1.1623807 -0.074607156 -0.4525141 -0.9234166 0.0011509169 1.0113009 -0.41783926 -0.93298185 -0.010219586 -0.4397711 -0.34719524 -0.12183549 -0.2646772 1.4543302 -0.20935343 0.32001203 -0.9899579 -0.2799515 0.51761174 0.10691319 -1.1287061 -0.6235449 0.029870212 -0.22973895 -0.5568917 0.84750324 -0.66490203 1.4833118 -0.25357535 0.5407446 -0.834695 -0.15049979 -0.8850432 0.91293466 -0.5833662
2532 1.2719269 -2.5831778 -0.59472054 0.63506144 1.7760016 0.053911414 2.952749 0.35343733 1.777551 0.10799009 0.903423 0.33296955 0.0840628 -0.32674116 1.2972765 -0.3900452 2.7410011 0.40715632 1.693114 -1.4703145 1.5484409 -1.0986263 2.6476543 0.007254883 1.7735623 -1.6474377 0.584693 0.34928405 1.1898673 -0.45940393 0.83137155 1.2455271 0.6015301 0.03174212 -0.27115664 -0.42271248 -1.4316685 -0.060607493 0.015118689 3.0706792 0.5913777 0.7253169 -0.06870905 1.2092794 -1.5147945 0.8149763 -0.9904235 -1.4078947 3.065674 2.2194672 -1.4743005 -2.4644356 -0.5315267 0.6873636 -2.685789 -0.46676853 1.018982 -0.3523069 -0.6326832 -2.2713838 3.7285688 -0.8989189 -0.38560662 -1.1891478
2929 0.62000453 -0.338068 0.21052812 -0.25905284 2.2823029 0.28303108 0.3328983 -0.2955815 -0.5694067 -0.36893392 1.2390382 0.4104141 0.10146415 0.053227767 1.2814146 -1.0395017 0.91298157 -0.18051063 1.0159115 0.3030829 1.1914904 -0.21028538 1.9302449 -0.19100292 -0.389989 -0.6321972 0.2026507 -0.045003783 0.62839687 0.21336089 0.046491448 0.6160248 -0.35349852 0.29833677 -0.3053517 -0.39281327 0.2038387 0.10260285 0.5518484 0.87263036 0.07065893 -0.5085673 1.0206268 -0.27795407 -0.110061646 0.16089433 -1.1258986 0.8249413 1.2804002 -0.0768648 -0.23340221 -0.59977794 0.49046493 0.84274596 -0.35987684 -0.15881176 1.1233665 -0.252616 -0.9028165 -1.1788327 1.7189097 -1.0258749 0.06736394 -0.28907534
1929 1.180934 -0.04741193 -0.27798712 -0.5743641 -0.022051973 0.4296598 0.036495432 -0.58502674 -0.84244716 0.26940623 0.27098465 0.886651 0.5607136 -0.08317999 0.7968022 -0.41967952 0.5117808 -0.3565247 0.2642395 -0.7772039 0.8679849 0.130331 0.1637834 -0.6627419 0.62367606 0.098346256 -0.13915728 -0.24625073 0.12398185 0.12255521 -0.15081048 1.0766134 1.0392954 0.3012243 -0.480931 -0.52682626 0.032514613 -0.4476571 0.5027781 -0.29849282 0.3696948 1.1470467 0.8881409 -0.4078464 -0.012237327 0.0779012 0.38729712 -1.0053514 0.7515465 -1.6214727 0.45958418 0.17268583 0.7277184 -0.12020105 0.8798216 0.6141669 0.56628615 0.27423817 0.9521103 -0.9851014 1.6190386 -0.6578365 -0.24719557 -0.29872778
929 -1.6086942 -4.8516145 0.46620074 1.6559116 1.412639 -1.626077 -0.06484563 0.4060686 0.55821615 -3.7406518 -1.8405802 4.096039 0.5667636 -0.15427686 1.2096623 0.73610383 -3.0709941 1.5347742 -3.42492 2.2389328 -1.4748783 -0.4023836 -0.88404673 -0.96116817 -0.47765607 2.3020172 -0.2797773 -0.1468412 1.8257838 -0.11979529 -1.571852 2.0011482 0.69971484 -3.9352355 -3.4568954 3.3981786 -2.3823822 -3.6522396 -0.53566444 -1.7504145 0.0017216962 1.2789981 -3.0146515 0.16141278 1.5005516 -3.1281881 3.1199405 -2.8341224 2.307808 3.0933454 1.3787636 -2.3343716 0.5297104 0.0716975 1.7795768 0.3789225 1.530653 2.4131868 -0.44840404 -3.0698655 1.1568084 2.1761787 0.8860987 0.7790048
147 0.4057928 0.22138526 -0.83602107 0.768921 0.5152136 1.1491054 -0.23109949 -0.48895568 -1.0278023 1.1454656 0.8067726 -0.009956046 0.16136938 0.45950624 -0.8964785 0.6196746 0.14288181 -0.59045905 0.083313376 0.3753952 -0.88659376 -0.93755704 -0.28737944 -0.31035715 -0.51437885 0.118764244 -0.59650874 0.3752793 0.019903246 1.4374138 -0.46076083 -0.4448263 1.0074464 -0.71456075 -0.03637238 -0.11055029 -0.3708176 -0.8490284 0.48973006 0.36551797 -0.076988935 0.46364757 1.0172304 0.27704698 -0.68958396 -0.90268224 -0.27901176 -0.6906559 1.2441208 -1.3366623 0.75352776 0.6895078 -0.7806896 0.24182361 0.95167387 -0.9397627 1.2687641 -0.7288784 1.162534 -1.4351077 1.0929377 -0.25354573 0.8596251 -0.12230851
373 0.35036734 -3.7768676 -0.44887498 0.22506031 -3.0156236 -2.1601157 0.9518589 -2.2979858 -0.32989344 0.7982207 0.9532689 1.4341992 -0.09037914 -0.04798383 2.8057475 0.0014153372 0.9414613 -0.029786494 -2.6004257 0.49444565 0.21965362 -4.1713476 -2.069572 -0.32380193 0.2727894 -2.221961 -1.4387531 2.1826465 -1.4891157 0.22016947 -1.2156831 -1.089326 1.1175808 3.8782325 3.803929 -1.5660751 0.7317645 2.0406942 0.78224045 0.08578027 2.8186815 -2.2063723 0.32538083 1.1415081 -2.6348193 4.5307856 1.1256902 -0.36771435 -3.2655113 0.85149765 -3.3979752 1.0253494 -3.58203 -1.6324357 1.6168458 -2.6782706 2.8636558 -2.026917 -2.390478 -0.30367115 4.007542 -0.2480164 4.4119368 -4.405395
952 0.9458616 -0.63224226 -0.24185038 1.0398563 -0.34763268 0.7586268 0.55201864 0.19137955 -1.0881528 -1.2418092 -0.90535223 0.50835073 -0.5092774 -0.47517675 -1.799121 0.22976539 -0.08181447 0.6610837 1.0862592 -0.1954415 0.60888106 0.94582593 1.5638788 0.029728908 0.8880339 -0.70053 -0.30918688 0.21345346 1.039096 0.5823017 -1.5376102 -0.4360627 0.90021014 0.85010207 0.45462993 -0.27444994 -0.90257686 -1.5738964 -0.157456 -0.6375482 -0.16634576 -0.41288716 0.80511284 -0.3896246 0.5164446 -0.3441505 -0.8395037 0.4703729 1.5175334 -0.5988173 -0.16646975 0.10746542 -1.1068729 1.2074556 0.21003671 0.42932633 1.9073329 -0.3626023 -0.12174049 -1.1714653 1.090543 -0.62165356 -0.030769316 0.85446477
1862 2.931834 -0.23176008 -2.05906 3.8509858 0.0061611645 1.1979612 1.9017282 0.761393 -1.366879 -4.2373395 -2.6593091 1.4815438 -1.8220636 -0.6764794 -2.061482 -1.5044763 -1.2198011 2.6259942 0.52963907 -0.8765348 1.8302193 0.15124047 3.7340984 -1.0553542 0.5259242 -1.3124148 -1.0154407 -0.03996808 0.70385045 0.60466903 -2.9277112 -0.014744415 2.503222 2.5094314 2.754954 0.15948087 -0.06839459 -2.5862858 -2.1952808 -0.3732758 0.30733868 -2.770833 3.257263 -0.46153444 -1.1324499 -0.7352408 -1.2580432 1.7321715 1.806441 0.49848965 1.8015584 0.267196 -3.100422 2.8624542 -1.3102148 0.7689766 3.3743706 -1.4813633 -2.4844058 -1.5363483 2.3972855 -2.6398137 -0.8134562 1.0181746
746 1.0461397 -0.20575675 -0.24057332 0.019178836 0.58789855 0.16526814 -0.23720756 -0.4473411 -0.706879 0.19539775 -0.34196913 0.78166676 0.290785 -0.029682985 0.77510554 -0.22794278 0.7796717 -0.33951578 -0.21104003 -0.3664639 0.82646036 0.07382847 0.27331808 -1.0955783 0.31957874 -0.11862425 -0.4695463 0.0071060155 -0.16707249 0.71623325 -0.876837 0.51189816 0.9971745 -0.4490153 -0.47514617 -0.51235986 -0.083391406 -1.1709957 0.89399844 0.16648988 0.04402143 0.5941438 0.8656584 -0.5965028 0.26611397 -0.10901202 0.20538971 -0.64638877 0.6628323 -1.1245797 0.46073195 0.20688263 0.5929613 -0.08767312 1.3163885 0.04426461 0.61727047 0.35744625 1.3754213 -1.0879554 1.2975173 -0.99536437 -0.4880385 -0.25744066
1752 0.31561807 0.7827886 -0.18332599 0.07938365 0.19646247 -0.27002007 -0.46783087 -1.0806441 -0.6528929 -1.1555563 1.2611463 -0.38784614 0.5446562 0.6672937 0.70102274 0.6889552 0.85554403 -0.5263813 2.1205182 -0.72374314 0.57043976 0.19902623 -0.24514306 -0.37740818 -0.41333422 -0.2507155 -0.975134 0.39845094 0.80276334 -0.734845 0.5706112 0.34147254 -1.1894667 -0.10323354 -0.10886754 -1.2970746 -0.9254294 0.6829596 1.2750244 0.14108896 0.2870014 -0.10737813 0.8361531 -0.6239936 -1.5550755 0.37032416 0.9051055 -0.59133315 1.1534492 -1.451774 0.113344096 0.046342675 0.1721971 0.9573479 -0.6429643 0.2455192 0.36813247 -1.0817789 -0.30813062 -0.2531951 1.3485031 -0.21859889 0.2752906 0.2775823
1608 0.67593306 -0.7098643 -1.5987076 0.72008514 -1.0679111 0.40779147 0.55169165 -0.97907937 0.39879134 -0.45557436 -0.09785257 -0.6233853 1.2766206 -0.16535725 0.6883888 0.45680028 0.6515822 0.3105371 0.79334646 -0.9915519 0.5114858 0.9173512 0.66727996 -0.7735296 0.13471964 0.31746405 -0.8453443 0.18673487 1.0382102 0.9283069 0.05490585 -0.576652 -0.716555 -0.18078476 0.33939484 0.07019973 -1.2303398 0.12949567 -0.2733322 -0.522827 -0.35622543 -0.22103095 0.9406394 -0.2932404 0.32941714 -0.12898274 0.15039402 0.6117535 0.021202747 -1.2478467 -0.13242635 -0.87732327 -0.16328375 -0.2669067 0.2752662 -0.27057898 0.15773268 -0.64438623 0.38461515 -0.6765303 0.6223226 -0.353183 0.6377862 -0.33675426
335 2.1939404 1.8457456 -1.5444232 3.0367289 1.9930254 0.75080305 1.1414602 -0.8079171 2.2409475 -4.3830347 0.056202725 2.2198834 -1.5506645 0.20107403 -0.2761268 -2.111387 0.09842651 -0.71550494 0.38008097 -2.1241438 1.9131855 -3.431774 0.2996604 -3.5798903 -0.7656103 0.3573387 -2.840041 -0.54469746 -1.0734864 -0.45994034 -2.699807 0.79154503 2.4958594 1.9404149 0.15047082 0.8428301 2.1804378 -1.3012406 -2.1290667 -0.76472366 1.8615959 -2.7024133 0.57744086 -0.026904803 -1.4038947 0.7385254 -0.47686055 -0.58966833 1.511027 -1.0978655 1.170082 -1.4314525 -0.8685441 -1.5748456 0.5291592 0.3652731 1.1700578 0.08608854 -1.9745857 -0.62901956 0.12836024 -1.1604868 -1.2400714 -1.1882144
1038 2.926863 0.04226618 -2.219694 0.58740026 1.6006724 -1.5292114 -0.12368712 2.5609555 0.26829103 0.64206386 5.1754384 -1.2210788 1.0329645 -0.92592126 -4.5243835 4.217862 2.5314844 -1.5780646 0.6087273 -1.0598812 -1.7888095 -5.0490923 0.83922833 -0.14099826 0.43525535 -0.9010922 -4.9207397 -1.820402 2.0322802 -2.5857866 2.0058265 3.9370027 1.1797484 -2.2660546 -1.1271893 0.10180496 -1.0142691 -0.6103046 1.0276816 3.8668828 3.6781566 0.9729179 2.6835313 -1.0467442 3.0665731 -0.68645495 2.7179325 -3.2890828 2.520496 -1.4380183 0.70820737 1.7967019 -1.8218286 -1.8261865 -0.44570184 -3.5934024 0.70310444 -0.285178 1.018458 -0.1241626 1.7572021 -0.5344256 2.1099963 -1.2355239
2820 0.38357648 0.40369225 -0.057525095 0.011611471 -0.06037393 0.11256834 -0.28619233 -0.8159681 -0.85270107 -0.2897808 0.1918642 1.1979783 0.35983157 0.14594325 0.82550883 0.116973504 0.50156844 -0.46541953 0.04144323 -0.84530455 0.6192062 0.14132002 -0.12626684 -0.91033256 0.52227217 -0.09898703 -0.09439814 -0.15565987 -0.03905966 0.57278067 -0.43057144 1.1256859 1.0766425 -0.02094343 -0.74278414 -0.44228747 -0.18097427 -0.6741359 0.3251393 -0.5019573 0.1648415 0.8260796 0.67689294 -0.5348959 -0.2666248 -0.44563186 0.34697634 -0.9488751 0.69901276 -1.2355974 0.6706577 0.3996636 0.6397003 -0.089271575 1.3324358 0.39474824 0.7399104 0.15272082 0.7863968 -1.2232907 1.6780261 -0.8133124 -0.24717475 -0.6241382
1085 -0.20050013 -0.21562684 -0.12875253 0.8418217 0.045847584 0.16968963 0.08890078 -1.6904675 1.0257982 -0.38317436 -0.009568843 1.4422475 0.32302013 0.86557114 0.20014201 -1.1494915 0.95751864 -0.07549662 -0.5102582 -0.7218105 0.3146146 0.78024644 0.19240451 -0.15182836 0.35004315 -0.2758483 -0.6142765 0.61412954 1.2142417 1.5009925 -1.3228071 0.6193021 0.05667666 -0.9682029 -0.34546804 -0.36419183 0.17411333 -1.5931485 0.21893309 -0.21588996 0.5080356 0.08555277 1.2303607 -0.7675704 1.221483 -0.2318908 0.22798872 0.415283 1.162822 -0.5739034 0.40525422 -0.45355678 -0.45086953 -0.20930786 0.07625944 -0.23832965 -0.3755726 -0.15157934 0.015203783 -0.67943007 0.21578664 -0.06320483 -0.25037828 -1.3512937
2916 0.64955413 0.3580277 -0.24507831 0.25875857 0.23726761 0.1611335 -0.30460158 -0.682233 -0.66575766 -0.4748387 0.36183873 1.2762963 0.3825735 -0.4242245 0.7441213 -0.073494665 1.0007797 -0.35662833 0.22936246 -0.45240414 0.6236005 -0.042838946 -0.48924047 -0.5789819 0.2614105 -0.23264523 -0.276784 -0.08710311 0.91497546 -0.2349847 -0.50840276 0.17126076 1.4564184 -0.7629718 -0.4188791 -0.6059782 0.34687728 -0.71465504 0.6435893 -0.42346093 -0.25159585 0.4385019 0.64569944 -0.51477987 -0.40167764 -0.110462375 0.9209428 -0.7484558 0.428203 -0.8991919 0.33020467 -0.20438963 0.5298807 -0.09946498 0.8983622 0.18713911 0.587681 0.627539 0.55106103 -1.0345973 1.4332603 -1.0231323 -0.106375925 0.008978263
701 -0.0780212 0.538185 0.3766412 0.92086643 0.7769022 0.8791453 0.32423413 -0.555763 -0.88785195 0.9488294 0.584887 0.3476402 0.25624388 0.118352614 -0.28916836 0.17533341 0.3374569 -0.7336993 0.017480077 -0.29603377 -0.8662421 -0.56402785 -0.3093338 -0.021819675 -0.66546166 -0.62762934 -0.2353801 0.26849496 -0.039798692 1.8950834 -0.2073662 -0.5973792 0.7189852 -0.31763002 0.20094095 0.5544289 -0.15044856 -0.84191394 0.4414155 0.09268524 -0.3273973 0.35882896 0.62575334 0.14378664 -0.775958 -0.88326925 -0.41919357 -0.4087142 0.9646457 -1.2958119 0.90308225 0.7109964 -0.62332463 0.11773894 1.4511839 -0.57970953 1.1887933 -0.7414946 1.1305997 -1.221518 1.0223213 -0.4516068 0.28192312 -0.022284634
1777 0.91863334 -0.01623536 -0.7031746 -0.2196955 0.5043132 0.18382996 -0.37218586 -0.7197444 0.0008666531 0.34064335 0.328106 1.2234286 0.41771424 -0.46731624 0.89715326 -0.2909261 1.3661915 -0.5615898 0.06580061 -0.52102053 0.9139935 -0.17886615 -0.54130507 -0.8686197 0.51069677 -0.118969284 -0.2814518 0.121798985 0.14763482 0.5107318 -0.5785607 0.6064521 1.1093495 -0.3307394 -0.43395168 -0.42575943 -0.22499196 -1.0719311 0.6485693 -0.34446412 0.20693657 -0.02800303 0.66754305 -0.33109868 -0.51968646 0.092279665 0.46264338 -0.44285536 0.66569805 -1.1230662 0.90396655 -0.13802281 0.26239988 -0.17421487 1.0311673 0.34838364 0.5532431 0.2559998 1.1042217 -1.1728071 1.5168602 -1.0974543 -0.3848613 -0.010915241
1341 1.5089941 0.2786519 0.5266216 -1.0632373 1.4876875 -2.608028 0.28012013 0.9240773 2.109221 -5.3441677 4.4689016 2.311017 4.4653807 -1.7813919 4.7341857 -3.6469092 0.0019046224 0.87180203 2.3463721 0.24572976 -0.22649693 -1.6572597 1.3029319 -0.06852317 3.5852342 -3.1145523 2.537641 -0.02239587 0.34508303 -2.2865798 5.632393 -2.6236925 -1.4719123 0.0014299833 -0.835351 -0.46681273 0.114840806 -1.2929062 1.5299555 3.8497472 -0.07116854 -0.7839524 3.7990825 4.2398486 -1.5277082 0.744555 0.6473184 2.8496637 3.2564714 1.1076217 -1.3579979 0.011069403 0.77130145 2.3690965 1.019058 -0.8473051 -0.8599038 0.99863297 0.63642675 2.2505817 3.4632115 -3.4823196 -1.8369477 0.5426595
127 0.07434921 0.3768563 -0.19767673 1.0375677 0.6843689 0.88579863 0.25163782 -0.30588806 -0.8318439 1.1529516 0.86256 0.50642896 0.57490075 0.23920949 -0.4550047 0.2060113 0.12278154 -1.4800415 -0.35583913 -0.26146984 -0.964733 -0.7191275 -0.16181315 -0.07554656 -0.5375155 -0.5166771 -0.4587199 0.3845401 0.06630876 1.8640525 0.05554735 -0.65259 0.8331419 -0.4012866 0.26875558 0.68721396 -0.36498117 -0.9414688 0.17776752 0.21398734 -0.26285622 0.7369246 1.0327225 0.058153894 -0.7323282 -0.9639042 -0.51634806 -0.80098796 1.0072097 -1.2523414 0.82602 0.6457566 -1.0067618 0.12715258 1.5140215 -0.7746921 1.4187185 -0.7862949 1.2996683 -1.1398767 0.8662797 -0.25681058 0.20933783 -0.3198068
1247 0.2883927 0.18994321 0.71616346 0.56643593 1.0363457 0.666783 -0.07738525 0.82968426 0.33027542 -0.18035787 0.7839073 -0.46808296 0.44992876 1.1192287 -0.6022596 -0.5192148 0.6238482 -1.8807478 1.9210331 -1.4907334 0.3491796 -1.0358359 0.17810595 -1.8005345 0.09843676 -1.1649282 -0.013312121 0.4919546 0.50746334 0.60531855 -1.144868 -0.18976721 0.8643735 -0.10467906 -0.3335234 -1.4902035 0.6171683 -0.21433695 -0.39914683 -0.638159 0.25687766 0.2613522 0.2604804 0.5531729 -0.16600324 0.11956288 -0.80374897 -0.68034536 0.675087 -0.3305525 -0.8578487 0.08194182 0.05657266 0.8441173 -0.2814562 0.42506787 1.0079767 -0.94438493 0.50575995 -0.00481989 0.37598553 -1.1532385 -0.3292079 -0.44652826
2393 3.1300519 1.4870068 -2.1000733 -1.7978309 1.916862 -1.6308413 -1.3680289 2.2651572 3.2360206 -1.4360267 -1.9781066 -2.6677055 1.3057588 -5.220981 1.5639191 -1.1212895 -0.19041456 -0.90902936 0.014475621 4.511288 -4.3636327 0.6549414 2.698551 -2.3563845 -3.6967444 -2.4848824 -0.28900206 -2.994503 0.7210697 0.74392194 -1.1426033 1.3694205 -4.119412 2.1746416 3.0745645 -1.2172893 -2.6836538 1.9562554 0.5769919 -0.5639472 -0.10404149 3.9166806 2.2941873 1.1994554 -0.8905635 0.58914375 -0.99541086 -0.5095402 -0.8317311 -1.7975533 3.0935812 1.0350766 -0.52045494 -2.6786325 0.33271134 1.1151341 1.7369754 1.6175474 0.6177912 0.46253732 -0.18095417 -3.6512327 -0.90408754 -0.88241583
1169 0.5670591 -0.26760998 0.73443115 0.10706386 2.1716173 -0.084241286 1.0635512 -0.55222327 0.00540043 0.3220214 1.6321414 1.0043566 0.280815 -0.10246735 0.78150266 -0.94782615 0.9263172 0.12706682 0.939743 0.20381866 1.0794578 0.095069505 1.8854262 0.226378 0.26852047 -0.31922206 -0.4060212 -0.4802443 1.4830481 0.40529725 0.0008967172 0.8210998 -0.25325462 -0.36024892 -0.40650475 -1.3266159 0.15458252 0.759855 0.16435711 0.567325 0.277733 -0.07437719 1.452792 -1.1407905 -0.0536329 -0.0843291 -0.8500397 0.70859784 1.6358488 -0.5370077 0.17674592 -0.8505366 0.20312788 0.9410959 -1.2327111 0.1490552 0.05468204 0.01971111 -1.1903143 -1.6358638 2.5234728 -1.3011657 0.056745756 0.07052986
788 0.35263965 0.14833951 -0.05470929 0.6117339 0.6496367 0.7076482 -0.089375585 -0.24047436 -1.1642807 0.7993439 0.54804236 0.3912904 0.7555957 0.7052458 -0.35134792 0.3826079 0.1660542 -0.74848557 -0.32603902 -0.022093227 -0.6749378 -0.7290332 -0.22379883 -0.0894602 -0.5690315 -0.27765396 -0.3626028 0.4880852 -0.021698037 1.8485681 -0.17900288 -0.40022027 0.38740215 -0.5462783 -0.2499778 -0.09980395 -0.4855495 -0.5960117 0.08835291 -0.14841282 -0.23793602 0.51242226 0.97179013 -0.051897686 -0.6304883 -0.63126177 -0.26820502 -0.8637102 0.92565423 -1.0753744 0.84287274 0.6539139 -0.7447303 -0.073685564 1.4253738 -0.7517051 1.4762348 -0.5228039 1.303641 -1.1294442 1.0441142 -0.31411391 0.73534536 -0.4157283
1376 3.1146927 0.50158036 0.018186418 3.6395557 -2.8695695 4.4907594 -1.467332 1.1488826 -0.6530693 -3.806663 0.30505082 -1.2204871 -3.3335721 -0.057030473 2.1895623 -0.9507826 -4.0124116 3.2138784 2.328138 -1.1885573 0.3765055 2.4140995 0.057144772 -1.7495098 0.75261897 -0.34294954 -1.9183872 0.6020475 -1.4807976 -1.6320679 -3.1030092 2.687434 4.0218663 4.067871 2.139621 1.5540245 4.278906 -3.323762 -0.7496578 2.9817321 3.5207133 -0.5306005 0.24641743 2.540932 1.5985875 5.0530853 -0.018258398 -1.8412449 1.4342308 -1.6942507 -2.3585558 0.8620697 1.7027631 -3.904635 -0.9077748 -0.6685396 1.8987947 0.2084428 -2.2651772 -2.3833327 -0.71255505 -3.9858289 0.62311363 4.6531105
1917 0.37985703 0.63967174 0.21980481 -0.46415696 1.2954098 0.45100138 -0.76754665 -0.23898281 -0.17531158 -0.8535218 0.037917554 0.9440276 0.7110392 -0.61730266 -0.36922875 -0.07685725 0.8611906 -1.0029544 0.9512816 -0.052776214 0.11856699 0.28604242 1.8154937 1.3236161 -0.28760132 -0.5939032 0.2543616 -0.088774785 0.8656708 -0.6971628 -0.05785816 -0.31003064 0.7075467 0.1316956 0.13127227 0.29473534 -1.4744539 -0.04666804 -0.17136194 0.12967512 0.1849901 -0.57249564 0.46772537 0.30172417 -0.289186 -0.50387204 -0.586878 -0.5868499 2.0062113 -0.25521478 -1.3013722 -0.4936795 0.58268356 0.51305395 0.9982601 -0.08178071 0.822156 -0.6047132 -0.15190552 -0.3067685 0.6954392 0.040575534 0.15652414 -0.7019587
1883 0.72432965 -0.9030557 -0.00917546 1.0083061 0.0025950973 1.148804 0.23897533 -1.1365547 1.5401269 -0.82891047 0.3219893 1.1266487 0.44273373 1.1545106 0.338351 -0.6894557 1.1987338 -0.40677246 -0.9150663 -1.1926991 0.8562485 0.42481756 0.34396517 -0.5475822 0.69586945 -0.24424016 -0.51751745 1.2901194 1.2673048 1.4023317 -0.7922023 -0.001108338 0.33969617 -0.53836215 -0.5663887 -0.7045607 -0.026515033 -1.3456705 0.4713072 -0.15912114 -0.09696979 0.6174976 1.0591087 -0.5659626 0.31330106 -0.09332117 -0.36801326 -0.073300675 0.8841549 -0.5626785 0.7668437 -0.5948399 -0.28479043 -0.1328947 0.5193033 0.18801185 -0.101405405 -0.3857911 0.2353928 -0.3941894 0.60220134 0.36870077 -0.03828021 -0.20185652
