2475 64
1 1.3801324 -1.4062254 -0.7534195 -0.9392661 -1.6757869 0.5436885 -0.55444723 -0.8176375 0.08163487 -1.1953778 0.25191844 0.10299461 -0.34113187 1.3286843 1.6420668 0.4705981 0.08702556 0.25456363 -1.1742992 -0.06958701 -0.3049052 0.3599277 -1.0299232 0.02005059 0.46918675 0.62508625 0.0072377175 -0.007901718 -1.2308081 0.24352598 0.0149280755 -1.1606582 -1.0041313 -0.035749137 -1.447782 0.64747465 0.41735044 0.69517297 1.818571 -0.7226553 2.2211368 -1.0721282 0.77670467 1.2034494 0.81246334 1.131091 0.48314926 0.27478164 0.6852176 -2.205379 0.45476168 0.22664545 -0.03994362 0.23743376 1.4769036 -2.5362175 0.8094603 -0.74170834 -1.8075098 -0.037565887 -0.45085204 0.79192823 0.29688025 -0.16286872
0 -1.8559301 1.8391311 -0.047687314 1.2774048 -0.33733705 -0.6772338 -0.8379632 0.13553394 -0.83399576 -1.0274818 -0.31242958 -0.59893376 1.1828656 0.023081895 -1.1436472 -0.92594093 0.47285473 0.26805052 1.2825752 0.063160576 1.4530463 -0.92342716 0.74779826 -1.3675686 1.1656483 -3.411193 2.235141 0.10016533 0.9124574 -0.15412068 -0.17145102 1.9363034 1.2472973 0.49719685 2.6354167 0.78231204 -1.5571632 -1.5050192 -2.0655541 -0.43373004 0.849886 0.92193645 -0.45371163 -0.37720686 -0.034220185 -0.29175982 1.0065763 -0.59753895 0.31536427 0.29724735 1.4686049 0.9577258 -0.3769902 -0.85481477 -2.4360151 0.7561967 2.2676978 0.37613887 -0.0026746723 -0.3564374 0.412075 0.75173134 -2.202798 -0.6566203
2 0.7573653 0.81786907 -1.6900465 3.0945113 7.9012775 -0.17946208 -2.014639 0.5119011 -3.3795228 2.57525 -0.56033796 0.27487898 1.692143 -0.7301174 -0.49988165 -1.2801386 -4.8458424 1.48415 -3.8169699 -1.5458059 0.17911595 0.51175123 1.0645267 -0.9688592 -3.0212097 0.49834618 -0.78523475 -1.5539049 2.5342207 3.074244 -2.5484078 0.5394202 -1.278954 -0.1514843 -0.16206837 1.3689322 -0.58194447 2.1187904 0.28010637 -1.0542248 -1.507627 -0.05044414 0.08716482 1.174251 -0.17039846 -1.0602306 0.568528 2.3559372 3.0955865 5.7399554 -2.5419302 -2.1412666 -2.485462 -1.8324544 2.2927167 3.3014822 -6.073606 -0.18799797 5.625408 -3.8851397 2.754099 -2.7138834 5.688866 -0.7681265
3 3.7276897 0.52419335 1.6990411 0.7279158 -0.3106384 0.25108942 -0.5750425 -3.3585427 -1.8426633 1.7681475 3.5623577 -0.012039654 0.1423886 1.8361752 -3.3476894 2.0764391 3.7584581 -3.713186 0.047474265 0.6456862 -0.81069434 -0.42891145 -3.3959875 -0.6174187 -2.7021537 0.4267822 -2.4146962 -0.27715856 0.1982915 0.27783427 5.9692025 0.59064215 6.5064297 4.354121 2.5692277 2.3212557 2.885545 -1.1252984 0.10701497 3.995731 -3.597461 -0.09295074 0.45768014 3.244854 -0.35871875 0.8177056 1.5934289 0.79877317 -4.975779 -4.32177 -0.0019010525 -0.13095634 0.9222165 2.0615947 2.3899918 7.027615 -0.102895826 1.1588697 4.8560944 0.27726722 1.7599701 -0.6154676 4.350369 3.2983842
4 1.5881642 2.3696482 0.65110356 -3.1260126 1.1014719 1.5665038 -0.28005993 -3.8732572 -1.0028312 3.9903848 2.0787995 -6.820249 -0.48381895 -4.0298414 -2.015174 0.22860967 2.7391248 0.8236045 3.2223744 -1.0766836 -0.20784435 -2.5383995 -1.8492408 4.951637 0.7593064 8.6035 -1.6346773 2.2007113 -0.26474518 0.34084582 -6.0083227 1.3128618 2.928538 -2.8750346 -1.4370762 -2.0912113 0.004612297 1.5376518 -0.82941204 0.15977287 -3.701646 1.9763029 3.1994677 2.2491724 -6.450802 -5.139373 0.90699846 -1.9356081 -1.244757 -0.90124553 3.379461 -0.96698636 3.3462825 0.3377148 -2.5841115 2.696034 -2.7923634 -1.7496617 0.09066747 -2.4010124 -2.9412308 -1.1030909 0.8194339 -9.111828
10 -2.1336713 1.2300184 0.24001068 1.2616184 1.1196007 -0.32299125 1.4652448 3.15321 -2.436292 -3.0994816 1.5169983 -1.1606275 -1.3604355 -3.4729452 -8.743227 -4.609286 -1.9957217 -0.24489059 -0.056249402 -0.36486265 -1.1216978 -4.1226916 -3.5508907 -3.8234053 7.641569 -0.009816053 0.54708916 3.5239272 7.7137175 -2.641632 0.026468603 -2.127365 -4.0272365 -3.785426 0.85790205 3.0689728 2.2689397 1.9402725 -1.1961964 5.715987 0.9336149 -2.9176924 3.4794035 1.0964488 -4.6687784 -1.5078602 -1.9296906 -0.6107438 3.8712654 1.3443093 1.7342632 -5.0367064 3.9484072 -1.8161048 8.291394 2.995987 -4.9006047 1.7794915 5.442015 -3.5275505 -2.7779891 6.7050796 -1.1759225 4.8140693
21 -5.9910955 6.4462194 0.1013231 4.1232414 1.5624386 0.55152404 -0.49535808 -1.2844951 -2.479768 1.2950355 3.5814927 0.10478393 5.3393655 -3.759746 0.34371525 4.82813 -0.49287796 6.449435 3.451767 -4.771896 -0.4027331 -3.4375753 -8.575118 0.78117913 3.3237174 3.1321194 -0.45720896 -7.038684 3.5055597 1.5259613 -3.0397692 0.3543756 2.2004554 -3.0096939 5.505931 1.0345339 -1.7966079 1.8086774 2.1869774 9.948977 7.403631 2.4769654 0.5059459 4.773051 -2.7618098 1.9820634 2.036927 3.8052652 0.093892545 0.8181126 -3.5845263 -3.8988392 0.9565912 -0.41060033 -1.8744315 4.470961 -12.762755 -4.2832427 -6.1230874 3.1599817 0.6987745 -1.5514714 2.2807522 2.0375624
6 -2.3040826 -2.4493268 -0.6814642 -1.6891056 1.1168814 -2.3267465 -3.7132022 3.9939463 3.0744224 3.6095426 5.9608846 -0.27632183 -1.0047482 2.8919668 -1.8247921 4.5610867 -4.77228 1.3171018 -4.8263097 1.824725 0.9216285 3.8080652 0.35233852 -0.5391297 3.8883407 2.7277868 1.4649599 -3.1231523 2.9933677 -3.0195723 -1.2807384 5.698965 1.7545615 0.31169984 0.16518739 -3.1683936 -0.72896224 1.6146034 3.7591734 3.9579532 -3.7389321 4.341044 2.5663638 -1.7071799 -1.3456038 -1.630445 1.152403 -3.3362272 -4.0751824 -1.1091334 -0.7282733 0.24024719 4.105842 -2.672135 -0.4462834 2.3993313 0.60296506 -1.4983462 -0.7347035 4.8589635 2.1237013 1.1200228 -2.3570657 0.357899
7 -2.918911 2.640094 4.14472 0.20284161 4.2014923 -2.6092281 -0.30797163 -3.6144032 -0.982921 1.5768087 6.039674 -2.4902232 -0.77884626 2.402226 -5.1817036 4.306746 3.676052 1.9815611 2.3221543 4.078786 -3.7228806 -6.821787 -6.305966 -5.8792267 -7.502431 4.0316224 4.2361574 7.8297224 2.9430995 -1.2442789 -1.7643615 5.634378 -1.0374601 -1.971186 -1.9988605 -6.227937 4.0696993 3.070846 1.1229136 -1.6272973 3.015432 2.2079556 -2.4279277 1.9351646 -0.193211 -4.4995084 0.17111725 0.9983577 5.401963 -2.7038307 1.7967912 -7.4636545 1.2726513 -2.9023385 0.2933898 1.341957 0.84881705 -4.6313777 -1.0399861 2.254692 -2.3787067 -3.92483 2.4241312 0.39984837
14 -3.811435 -1.7935495 5.483256 -0.6141022 -4.846028 3.6291223 3.7802927 -0.28102 -0.059041247 5.7454805 2.1306522 2.582165 -3.8675625 -0.8432089 -0.37465242 2.1175163 -5.1195645 3.6198149 -0.30453935 2.827026 3.126984 -2.4390633 -0.38244644 -2.2943013 0.6240431 3.6890461 2.0374963 2.6663988 -0.026479006 0.7332192 -3.9966292 -1.797642 4.239034 -2.1572182 3.6954665 2.6472852 5.2747903 -2.3299248 -6.4696136 1.1346755 1.1017697 -3.4524996 0.42595392 -0.25618356 -2.13933 2.1684136 0.9616411 3.5894103 -2.7205403 0.72034156 1.2314384 -4.142255 -2.9830124 -4.667197 1.0483253 -1.3007351 -2.2526977 1.4121628 2.6388173 0.23767564 6.9625497 0.2501817 -0.6295194 0.79805714
11 -3.5900548 -0.4114236 6.081063 -4.691819 -0.82504505 -0.8431651 -3.0487301 -4.1283274 -10.034894 5.038553 4.5844836 2.4215162 3.909044 2.096278 3.1078396 2.4709396 0.69157887 3.0786564 3.169509 2.8702924 -0.40436563 -0.95957506 2.7513313 4.403698 -0.5920961 -0.64986664 -3.052159 -1.7157898 3.1888459 3.299323 0.8127288 -0.94493955 1.4356163 0.056338318 4.3640594 -3.6209214 -3.8651493 1.6209786 -2.8726432 -0.22440428 -3.0458777 -1.8010261 3.9550276 -2.9025652 -2.0268238 -1.1109477 -7.8604913 1.3573472 6.8728905 -2.2884927 0.2434505 -2.8944812 -0.31975657 -1.0948148 2.2057693 3.2077808 4.2204647 1.0366914 -1.401761 -1.5570226 0.013701748 5.336264 4.219256 0.18551701
13 -0.27360314 2.9855175 3.4834132 1.4002947 -2.2783148 1.9262242 -3.913337 -3.7275171 3.667035 -4.3122597 -0.69908756 2.727009 -2.032118 2.053496 -5.5370684 -1.6474984 -2.2621493 4.7274165 -5.7671676 -4.3275204 -2.8178148 1.8969347 0.9059523 -1.6832635 -4.7101583 1.8413556 -0.7132762 -2.8232262 4.0588236 -1.3473524 2.2509825 2.7607462 4.007098 -9.273337 -1.2951069 1.406542 -4.10205 -2.3037848 -5.9471846 0.75174385 -5.4033055 -3.637656 2.9265952 4.4684772 -4.1612854 -2.0907903 1.9095675 6.5159907 -0.8282867 -6.203968 -6.911395 -1.6883191 0.24814382 -1.1017287 -3.7047837 1.9869832 -0.5053064 0.2522595 -2.8517063 0.59329593 -5.82807 -0.12835722 -0.6560721 2.8910797
27 4.0739155 3.6045353 -1.6571448 2.846532 -3.0856023 0.6786315 -0.5562999 -1.5077426 -4.196711 5.5549083 6.604659 -0.13263065 -7.234815 -1.3549603 3.9348075 1.0735061 -5.986352 8.815787 -2.1642027 2.574136 -2.7929807 -2.7447207 -4.9983673 6.481098 1.2996589 -3.5970047 0.014427081 2.4821877 7.3815093 -2.2815554 8.2078285 4.4335556 -3.1358807 3.6402624 4.2717896 0.4347655 1.5312716 1.2311001 -2.2814217 -6.0742016 -3.7300324 -2.979742 -0.9607616 -1.7413739 0.37277225 -4.2025642 3.8328712 -7.178112 2.3380873 -7.1541133 -7.8767133 -4.0073137 3.965009 1.8750709 -2.4082048 4.1351876 -3.321006 -4.171324 -1.4937407 -2.7739413 -1.329031 -1.159155 -4.7489257 -5.482054
12 -6.881283 -5.506209 -4.909934 3.164389 2.4015152 0.046171326 -3.6935549 -7.462455 -5.137512 6.6948285 -3.9447217 -3.3989525 7.0586715 -0.8459531 -2.9653144 -1.02492 0.42049173 4.6791215 -7.1462307 -1.1412225 4.960548 3.3032691 -8.039423 -0.3120646 3.9500031 -0.07222105 0.55375 3.8515975 -1.0697286 -2.3080356 -1.34371 4.579577 -0.31395817 -5.622987 4.1634874 -6.8720655 9.279857 -1.2140359 1.2000159 7.8688636 -3.2965798 0.81647545 -1.3354577 -4.329028 -0.6466967 0.39893848 0.791286 6.8526883 7.8895407 -6.749897 -6.262823 6.4971147 6.1949863 5.7999606 -1.3954057 -0.10946079 -1.3972374 0.46296504 0.090713136 -4.37732 4.054991 -1.4107679 -0.73173994 -2.8939252
8 2.3140855 1.5891832 -2.046037 0.60955906 0.18655787 0.9452561 3.1291056 5.2750936 -8.433296 4.323453 7.4972944 3.2172344 3.5630097 1.4101644 0.04289562 -2.7128181 0.86999434 0.72826475 -2.05585 5.0950556 -3.8974805 -0.24415924 -1.2137166 2.6964202 -0.20336504 1.855622 -1.7808158 0.7430412 1.1558926 -4.430408 -5.262753 1.0207585 5.3661942 -3.6943762 5.47847 2.1827242 0.54984504 0.8367745 1.9530823 4.364479 0.6775088 -3.370445 4.3041563 -6.0453897 2.9965665 -2.1750531 -3.008883 3.6246455 -0.44883227 -3.8555288 3.1631289 1.9495465 -3.179002 -10.065264 -2.2672563 2.3444057 1.9269007 -0.42801392 1.8561996 -0.82932794 -8.663917 -3.228894 2.7654812 -0.038023055
15 -0.07251768 1.6544266 0.48965034 -4.8993244 2.8128364 -3.5618515 -2.6529186 0.2827497 -0.23788702 -4.260122 -3.8172626 0.96083754 0.4382177 -1.0136448 2.9718556 -3.478557 -1.5744188 -2.5902386 -1.0579958 -0.43712366 -0.81377155 0.54950523 -2.8071043 1.0717645 -0.98947316 3.1565666 -0.039211173 -2.7015777 5.0738616 -4.710358 -1.2827185 5.31252 0.20004782 1.1733885 2.3934646 -1.2463795 5.6938486 1.2492145 -3.7955005 -1.384664 2.5986595 -3.0512238 1.5263605 -4.7491426 -1.100025 -0.5016015 3.4463928 0.79121035 0.93110424 1.6979645 1.9240953 -0.8821505 -3.7719374 -0.57653975 5.63727 3.491621 -2.0588462 3.4143836 -1.24439 -0.16810888 -2.4019074 3.823247 -3.4998124 0.5413306
23 6.216007 0.04201331 3.3005672 3.2771397 3.4446144 -5.538021 0.21045877 5.549009 -2.1780047 2.7517216 -5.533872 0.2886825 3.7612002 4.79319 5.4298296 -4.8319592 0.36095002 0.19421533 -0.19085683 3.4531195 1.3858685 -8.877698 -2.2934124 1.0966525 5.6521273 0.6283542 -0.66460806 -1.7590489 5.8403077 -10.026543 -1.3226738 2.7629259 1.9683745 -4.2406573 -2.1380353 -0.7638351 1.2599735 4.194447 1.3795671 -1.7600807 0.011089831 -4.442876 5.6193466 5.0560775 -6.166187 -1.0410376 3.5035965 1.3623401 4.0404654 2.4174607 0.8873687 -3.1356664 3.0918343 -1.5727553 0.8868445 5.2737665 -1.9913965 -0.1665693 3.9354875 -2.2830458 6.2597055 2.5762467 -6.169394 6.678238
33 3.1395404 -2.682855 3.3443592 -2.441806 0.38687727 -4.9703083 2.1773198 -1.6917936 -8.537729 -0.64829516 -1.5223244 -5.4251485 -3.9737499 3.0868177 6.559789 4.043623 2.4464326 6.044081 -3.8389254 -3.033679 -0.39993045 -1.4318411 -0.8905878 -10.73107 -0.47591108 2.1520212 -1.9650729 0.8669463 7.092329 0.31596544 -6.496777 -0.60042423 5.1222105 -0.93504244 0.23113602 -0.23462984 0.2522623 -3.9619515 3.4239233 8.838956 -4.640807 -0.85214585 -0.46616217 -1.7252808 1.6014382 -1.4542979 -1.032408 -1.1091655 -1.7238457 4.5221477 0.07892349 -2.6951237 0.8395628 -2.457454 1.489163 4.180248 1.1270013 -9.208092 2.8584774 1.019215 -2.9007008 2.6934912 -5.6234226 -1.7723486
42 -5.919942 2.864948 0.4661894 3.7084677 2.0922394 -6.1033874 2.6402276 1.163721 4.962273 0.5663512 1.2155483 -1.7060359 1.731116 -1.3765558 1.8366355 -1.7386508 -3.4311025 0.806605 -0.294173 1.461401 2.032644 -1.6021098 -1.2808896 2.320271 -3.6784084 2.4299235 -4.3518333 -3.509646 -3.2287557 0.8745805 -2.724957 -0.117984846 2.3732483 -1.248281 3.7022088 1.9391378 3.125535 -1.7247463 -3.2646046 9.0635 2.7864313 1.206945 4.729066 1.0594195 1.5358707 -9.036315 0.9635626 1.167341 8.251865 -2.835029 -4.86842 3.0958583 0.8528158 2.9923348 0.25610146 1.9468551 -3.8857608 -8.416422 3.078506 -0.5566059 4.5412426 3.5205083 2.7108982 -1.3360443
16 -0.36418134 -0.58684224 -5.4047337 -1.9003369 1.4805753 2.3750615 -3.819651 -1.1504612 -3.3776374 -1.5447861 7.6302147 1.0403379 2.4374344 1.4188793 2.9769638 5.455447 3.2223225 2.920345 -2.2825058 2.0112004 -1.6333176 -3.9491453 -6.253303 -0.84358263 -1.7880918 -2.825166 -3.4809628 1.951475 3.4611452 -3.662266 -8.021441 -4.5092635 2.1773274 -3.5158966 8.110238 -9.0088 -4.1977625 -3.0114253 -5.0822697 -4.4967437 -2.7241452 -4.644644 3.9365742 3.4484127 2.4524992 -9.518304 -5.0399566 -1.1381278 -4.0442085 4.339742 2.3918095 6.6524906 1.6108266 3.091674 4.4024076 1.7276276 -0.7381602 0.9509614 -4.4248257 -5.5459065 3.7078216 -0.60949254 1.3064418 1.518931
19 1.2936575 1.355252 1.12498 -4.264178 2.9114747 -4.532704 0.99070066 3.903221 -8.915568 3.1267984 3.0333822 -1.9982474 5.251321 7.4472876 -6.896777 9.074324 2.290155 1.9499062 5.1208167 2.796174 0.893236 0.26161486 -6.1619115 -3.6999474 3.0239532 0.61923105 -2.918103 -5.766151 1.2976576 0.11993378 -3.7023907 -0.94863874 0.9252602 0.07235985 0.031762227 1.3417836 -3.5998614 -7.0458026 -8.795849 1.3389304 0.024776183 -7.5228124 7.009428 -3.2852516 -4.742821 -2.9602172 0.08982923 3.505119 0.80223393 -1.8981665 -2.306397 -1.8830513 0.25536388 -1.9807775 7.3324294 -3.470179 1.2314826 -2.5558047 2.0639179 0.087271765 -4.8949275 -8.951873 -0.8585739 -6.0985785
1442 5.71835 -0.6393308 -6.933698 -4.1210017 4.7802014 5.6536055 -5.0500364 3.9119391 -0.70774245 -0.46708003 1.3551033 3.742687 -1.2831056 -2.497542 -6.357921 2.4022565 1.3564146 2.4498706 -2.9800568 -1.9184469 -0.549835 -8.890328 1.8611737 3.2523537 1.024058 6.0707 0.019230794 2.2721546 -0.028214285 3.4748306 2.2217526 3.221837 -1.5830616 -2.5623972 1.5066963 4.3344693 5.3533874 -2.3956192 -1.221327 -1.1856575 5.4916096 4.3579807 2.9460194 1.9498341 -3.3312395 -0.06167867 -0.45201236 3.953274 3.6311376 0.18162692 1.1252209 2.1569052 -0.7848878 0.14263926 -2.620356 8.002718 1.6192743 -3.7155218 0.6200764 2.3261266 3.2640495 8.292255 1.4108874 -1.2959174
30 0.6132465 1.6326759 1.6702646 7.193557 1.7008722 -1.0251669 6.5612626 -1.3306444 -0.9286005 -6.786744 6.725813 -6.121158 0.6126568 3.1793098 -1.3161478 3.3613393 -4.8324094 2.6347184 1.7799728 2.8965387 3.577288 3.0923858 -5.676568 3.2654796 1.0496819 4.1248665 3.3901365 -1.4365159 12.613555 2.0941277 -1.0722352 -0.32202694 4.764393 -10.537929 -5.6626062 3.078113 -0.7235977 -2.925105 -3.4205954 2.8039775 -0.08020089 1.807402 3.3303776 -2.13073 4.679689 2.0574555 1.5168397 4.9867954 0.7911225 -0.7258918 1.1702222 -3.3053381 3.2782123 -0.4162974 3.1640356 6.390935 2.775291 4.869491 -0.7191524 1.8382689 0.41068414 -4.011789 2.1941085 0.37612337
5 -2.6131034 2.1263397 -1.9923214 1.7771384 4.7121863 3.0738602 1.8307185 -0.58871126 -1.7043312 -1.1507334 -2.074835 1.4271042 -4.930117 4.7331047 2.724713 3.194537 0.3161246 1.3105303 -0.46295428 -0.9267304 -2.0781102 -4.455388 -0.44145003 4.0585685 -0.8578362 -0.5816714 -0.48909625 1.3434485 0.6894158 -1.22921 -1.5270977 -2.3073177 1.5463976 1.4712654 4.159501 -2.7634435 0.2503948 -0.141234 -0.31976736 -2.7784903 0.5236666 2.9719367 2.1526108 -1.6566883 -2.5100136 -1.856906 1.0416028 1.6283458 1.0508358 -2.8563883 -0.5962888 -0.54113007 2.3975077 0.043047283 4.3887186 3.6044903 -0.18092762 -0.7621066 -1.4877828 1.7127451 -0.8572934 0.18711315 1.6397443 -1.0264592
1011 0.021679183 3.916902 5.4658284 3.1310694 5.118563 4.095988 -5.518576 -2.0911376 -4.415407 -0.05230356 -3.094923 -2.7659984 -6.1265807 1.6206846 -0.028730186 3.3868544 -1.1228529 2.3502061 1.5419089 -4.3504663 -2.4930866 -2.085273 1.2652651 3.3009863 0.5282788 5.422061 2.154836 -2.7096283 -6.3173785 0.84879214 0.4497069 3.752729 -1.7192589 -2.0731084 1.9998325 1.6799489 3.7093682 -4.5635443 2.037928 2.3823438 2.6230354 3.729712 5.316362 1.9040308 -1.1157223 1.0709378 -0.8386033 1.9779447 2.02244 -0.6381355 4.8066664 3.3864052 2.0025733 -5.380725 2.5936294 3.0454738 1.6829913 -0.6032747 3.6795065 0.47593838 0.17675531 -0.75678635 2.9432666 0.9817581
157 -4.5183153 -1.163492 -1.3255944 3.962823 -1.1737915 2.1938586 -3.5597794 -1.41141 -2.712063 -4.461047 -0.95896244 -4.027086 -2.5522785 -3.5611515 -3.303641 1.6407481 1.6110617 -6.2881613 -2.9194748 0.23336555 -0.85800624 4.4285827 0.06116456 -2.3489497 1.8666395 2.683557 -1.9769595 -0.12834941 1.7615881 -2.1179006 -2.1558948 -0.25109228 3.348829 3.8008342 0.34669533 0.546206 0.61619127 -1.7032973 0.034784477 -2.4535398 -2.7039037 -0.013145088 2.0437577 -3.499556 -2.806958 -2.676569 0.20135467 0.4505403 1.9305354 1.8914292 2.6109521 -0.74795485 3.9508243 -7.152157 0.7002082 -0.23224042 -3.8130727 -1.6230192 1.5594786 6.9704533 1.8665017 2.5658355 6.975251 -1.7727994
430 4.883146 2.862052 0.20577285 -2.0344453 5.9883294 0.99883264 -4.68512 4.6942487 -0.4908693 -2.95557 3.7650907 -1.9239372 -5.759673 1.0694036 2.173907 -0.3928176 -0.7695565 2.5477204 4.0137873 -6.230014 -2.3547773 0.26438537 1.4321538 6.8867254 -1.4860611 -0.05669184 0.34716082 4.1128798 -6.923247 3.9032748 0.37834328 6.0875497 -2.0943248 -2.78828 1.4776508 1.594931 2.7133145 -5.502418 1.1372379 -0.0010425063 -1.3037028 5.5004954 -0.0044457545 0.74502385 -4.8451595 5.1153 2.1095707 4.9307666 3.0565002 -4.0060263 2.4752114 -1.6676817 1.8277218 -0.7565641 0.06901535 2.8955448 -0.5204368 2.1373045 2.4330761 -1.2889985 7.377257 5.4958262 2.3536115 -0.80756634
769 -1.1077905 2.0597334 -5.5248795 -1.5876582 -0.34115395 1.8680682 -0.0005833911 -3.135623 -0.9100194 0.85564977 2.938202 5.6938367 -1.4926031 -5.534662 0.02769838 -2.6670153 3.5006266 2.376677 -3.0547335 -2.67128 0.25980514 -6.6991377 1.1494635 -2.6757858 -0.11380437 4.2157383 1.9666904 2.700701 1.7394332 1.1071295 -1.0796008 1.6083937 0.20899683 2.5767944 -2.3248553 2.7584925 -2.3660936 2.5267398 1.385588 0.9254685 2.940679 1.5895337 1.3718768 0.91993517 -4.184095 -2.420374 2.9610288 5.7434444 -1.8226126 -2.354923 -2.5344653 2.338142 -0.85104674 -3.2494268 2.419408 3.8574889 0.2852253 0.5259345 4.221172 0.0529388 5.3465166 7.0577965 -0.5354052 -2.2834074
40 -7.626106 -0.6225873 1.8286146 5.1207066 4.8205113 -1.6382213 3.0429647 3.3374903 1.9715285 -0.30028218 -0.3933625 -5.60728 3.788451 -1.9601706 -4.478404 -5.1661286 0.38264054 8.191901 -3.875583 -1.2524843 1.7052821 -0.07451831 -0.47823372 2.3990939 -0.980799 4.3033204 -3.0976753 -0.4504455 3.1529508 0.58102083 1.8805999 2.150178 2.5273964 -0.8003108 3.7765617 4.8954053 -0.14796734 -3.109834 3.3648632 3.2697487 -2.200441 -5.6683974 -2.0397153 3.2303069 0.5692099 -1.4384719 -1.8636236 2.8441646 4.543003 -1.426844 -2.7083712 2.9207635 1.474561 0.011245515 5.27064 4.075116 1.4007086 -2.8367565 -3.4757147 -0.08613036 6.1378107 -2.139373 1.7344345 -1.7583604
1393 0.9571591 1.6966474 -3.7266524 1.5909549 1.1801014 1.9064842 -1.1729202 2.5048583 3.1824806 5.385544 -6.24252 -2.6005123 -1.3490411 -1.0246758 3.9615026 2.435402 0.77232957 3.2576842 0.7143364 2.75339 -7.310431 2.9854522 0.25619656 -1.506808 -0.30797404 1.3381274 3.4387503 1.8068466 4.1953397 4.7949753 1.1674833 1.8455777 -2.2789445 1.6938925 -2.271049 -5.4679704 -1.4006519 3.5933664 -7.278027 4.279541 1.9663877 0.9031957 4.499878 -0.39989984 1.1475896 3.276535 -5.8642135 4.051474 -2.166113 1.5198236 -0.9818994 1.2785195 -1.1345904 -1.1832017 -0.5249497 2.2330601 -2.3894854 -0.09521666 1.3351331 0.86452097 0.23070502 -1.6141789 0.25446287 1.7086958
9 -3.078564 -3.3034625 3.6879368 2.2697208 2.6239252 0.545279 -2.7957692 1.9003904 -1.5415571 2.0170915 -0.035661753 -1.0704166 -0.8782196 -5.822445 3.2401416 3.4243271 1.7904897 0.99814427 0.5009397 4.0977817 1.2065524 -4.7525625 -0.26596332 0.6561998 -1.3482115 2.7014177 -2.297256 0.29638273 -4.886215 1.2191509 0.9247361 0.8049913 2.2834349 -3.5222905 1.2853411 1.838948 -1.704077 -2.6709208 0.18294153 0.08905899 1.7399787 -2.5204797 -1.3098007 0.08115172 -0.012090227 -2.2010317 4.903299 1.7930074 -4.3300195 -1.568824 1.1388097 -0.8960954 2.7094538 0.49541724 1.8770343 3.5988827 -2.8712447 4.180107 1.7441453 3.1600275 -2.7927516 2.532357 -2.425781 -3.773684
47 -2.7492383 4.4772387 2.561902 3.1386564 -1.0426621 -5.807027 -0.19629863 -1.968467 -1.47683 -0.37073347 5.2970576 -4.0125756 2.15045 -2.735393 2.4660733 3.2070713 -0.7287259 0.14290953 -0.77085996 -2.5251667 1.0152265 4.7359586 -3.1412594 0.5934653 -0.9804465 -1.7478052 -5.329612 4.2644706 -1.2166927 -0.8667475 1.9831017 0.08690343 5.4021573 -8.190082 -4.5853586 0.660396 -2.106645 6.3894987 -6.197709 3.9881282 4.7773857 0.27528313 1.4777714 -5.5488925 3.009133 1.7859913 5.4934955 0.5368847 2.064235 1.9424943 -0.8841595 2.8090084 3.4190643 0.49039406 7.0589495 3.9569051 1.0584155 -9.530866 4.235289 -1.2536478 4.20149 -2.2792516 0.1315097 0.5413123
36 -1.6876127 -1.5441736 -0.23614876 -2.778884 1.7005613 1.5080501 7.2611785 0.7566558 -2.9880722 -0.732866 0.256319 1.9109873 2.006019 3.388443 2.4306228 8.693145 4.5186796 4.5625677 -3.0017736 -4.8958545 6.833525 -4.3288584 1.9584231 0.167252 -1.3969128 -7.366701 1.5123285 5.5694456 5.788968 0.00039530906 -3.444364 5.7958326 7.8433948 2.5161686 0.634933 -2.634748 -2.881011 5.661223 -5.443083 3.6018434 -1.0625099 -2.731162 0.9927432 0.77089286 2.918909 -6.717834 1.0115885 -3.3401196 3.437795 -3.6074002 4.594864 -3.966175 5.4158025 -0.3658924 7.764793 -0.96290267 -5.0394745 -1.5472318 -0.04038498 0.049298897 -6.7171416 -3.6116636 3.8947506 0.68020225
22 -0.30834976 -1.468806 1.9996134 1.2912097 1.7040576 -0.17878404 1.6841954 4.7185516 -1.226195 0.032971293 3.2738893 -3.2395265 -1.672022 3.9415686 0.91353637 -3.5114186 2.2568686 -2.7607105 1.8109806 -0.03137375 -3.3113348 -8.648391 1.1123415 2.2381234 5.378648 -1.5379615 2.2885032 -2.4684799 10.230694 -3.569344 1.0914004 2.6808796 3.3633695 -8.109531 0.3483924 -0.22444552 4.569369 5.5314994 1.1796467 2.4723678 0.8639344 -3.8847816 7.192675 1.9935257 0.3769331 0.31254527 1.0184705 3.4995015 2.8656192 0.61961263 1.4911516 0.76702285 -3.2609148 -0.6967249 -0.09050768 -1.8307414 -5.4731236 2.9571233 6.8851385 -2.500128 4.5354557 0.3589777 -4.321617 0.31172556
110 0.84749216 3.7540517 2.451334 -1.1160057 5.3657956 0.95620245 -4.5604997 3.4044478 0.4674592 -3.3272574 4.1726246 -0.03529003 -6.3005695 -0.8132634 6.8921566 -1.8320988 2.61379 1.2655871 3.7198865 -6.5981607 1.8830247 1.0100867 1.6837422 2.4882715 -1.997415 0.54351413 1.4609035 3.3702962 -2.874696 4.3648787 -1.1001046 3.3667665 -0.86506623 0.46949968 -0.6244731 0.70832103 2.6672301 -1.9974353 2.571286 1.4264842 -3.5318894 1.5231215 -0.5513448 0.048348907 -4.666101 2.7880394 2.4458518 2.7890933 2.0742698 -4.7009788 1.3124975 -1.7231162 3.276573 -0.17872547 -0.8573315 2.607549 0.23340285 1.6109327 3.3639128 -2.5520837 4.947989 1.8435254 2.892908 -0.81143445
1484 -0.1833309 -1.8185968 -1.6192707 -4.821149 1.784346 -1.8712356 -3.0609953 -1.0137756 3.3138404 -0.14740029 1.4558233 1.2741414 -7.207007 -2.2119076 -2.4508767 5.5192165 2.063542 2.3850982 -0.025927415 -1.3282747 2.0140781 -0.09448243 -0.8967805 -3.0743766 4.7067614 2.2855825 2.064021 -2.3617935 -1.7499644 3.2687929 3.8338215 1.4887652 2.8749986 0.8678725 2.4733922 -5.4187446 -0.6732573 2.085183 3.7344882 -0.8757317 3.3778398 -2.0023575 1.4641708 3.6180747 -5.1877394 -2.6446664 3.1944163 1.9900258 2.3597403 -3.4449124 4.1249523 3.3958633 -0.61415255 -1.602201 -2.0065074 7.5856266 -0.65791476 -3.5887344 1.8771267 1.6558322 2.7807972 0.27605906 0.53500956 -4.3661532
41 -8.539318 1.5057071 -1.7656995 0.42469266 -0.49535894 -2.5239115 4.5313053 2.3774924 1.2152761 1.0080609 2.7422256 -5.7283683 7.314653 0.7444518 -1.6649185 -8.330058 -2.8231454 2.8120837 -1.0317385 -4.640275 0.5162401 -6.5958333 -2.6148167 0.16896711 -0.7835202 7.065245 -2.5797913 -6.1164975 -2.032657 0.034213815 2.3826716 -1.1424646 0.10792511 -1.5791276 9.749928 -0.089337304 0.6473311 -0.91297877 0.26701102 7.4057584 -3.5189207 0.29268247 -2.5235956 0.11160878 3.8533149 -0.6822222 10.079782 1.0473778 9.414957 -1.3819336 -2.8487976 3.4233303 3.9737492 -0.9324118 4.433603 2.958665 -2.2947383 -7.8381033 -2.9110055 -0.09078244 6.9108176 -0.7809363 5.452025 -1.3021543
897 -4.214247 1.3940139 -5.6105585 4.280044 1.0040329 1.4532192 -2.3228142 -5.2246304 -2.1269875 -1.6827867 -0.5871802 -0.0667699 -0.79122514 -3.1745512 -1.7465955 1.5289588 -1.4593223 -4.200136 -0.20313181 -1.6997153 -0.8187143 1.4885976 -0.9646131 -2.2775064 -0.18362245 4.6445127 -3.7823815 3.0802932 2.0938663 -0.30852702 0.75920546 0.114753075 -1.7987306 4.7118216 0.89881235 4.7370744 -0.047840204 -1.1361096 -3.4032996 2.1209857 -1.26272 -2.4381514 0.38765624 -2.4780195 -3.0346594 -4.3094416 -1.4004354 4.14866 -1.2804536 0.52833813 6.5936074 -2.982639 3.365788 -4.3338494 -0.8996444 5.6371527 -4.3102527 -2.2550042 -0.5089131 2.9639707 1.9601624 0.5545237 3.430729 -3.905417
17 3.3347414 -4.9513226 0.39505634 4.525269 6.0471563 -0.1240834 5.5966587 -2.7132392 -1.049549 -1.3040358 0.9695612 0.06383113 -3.4477887 2.0071247 2.2085464 -2.4242446 2.726068 2.1015735 0.902456 0.027133983 7.7100725 5.2100716 -8.1622925 4.455104 -4.485936 2.0298097 -0.21074812 1.0649462 2.963918 2.1492474 -1.2225765 1.1380005 -5.664765 -0.8926965 5.5625424 5.9051423 -0.8507454 4.892305 -2.3376944 -2.4048917 0.26893508 -0.97242975 3.9807668 1.7810012 0.13281126 -2.9365323 0.24243496 -2.724096 -0.8622957 -1.4427762 -2.391303 1.4737226 -2.2188756 -2.4417074 0.565355 1.9165181 2.4269738 0.56695276 0.79734635 7.967843 1.2325658 3.208736 -1.4207191 0.82770723
92 -1.1485709 3.3321686 -1.5484667 -1.4999993 5.778957 1.5687212 -4.7574987 0.48529854 -3.1078997 -1.5543208 2.3416455 -1.8498124 -2.6704178 -0.66745687 1.7295865 0.87758505 -1.7517436 3.6152077 4.3728004 -1.4635363 1.5550827 -1.2273823 1.4431581 2.6394057 -4.545524 3.2687578 -0.20787853 -0.99420977 -2.4390492 0.004758793 2.262111 -3.0085325 3.3571184 -0.096717425 0.8021938 -1.2373004 1.7292119 -0.04672021 -0.096858315 -1.0206416 -0.6118362 -0.4873051 4.2594624 4.3555818 0.44758013 -0.4974142 0.790709 -3.5969791 -1.2859287 -0.7334771 5.1757073 -4.1689267 -1.1721773 -1.1746018 -0.11455941 -0.37691325 3.765364 -1.6764265 4.754853 -0.1969733 -1.7745104 -1.289657 0.74088186 1.0484576
973 -2.4165998 -3.920803 -0.86093706 -3.8555226 -2.9882417 0.060018 1.1372234 0.68836874 4.137749 2.3310957 1.4775441 0.82046926 2.107721 0.1908979 -2.8154423 3.214985 -2.5039968 -0.034403216 -0.67637414 1.8439393 -2.5933566 1.6039109 -3.8564641 6.057874 -0.4586706 -0.8810635 2.986296 1.2733059 -0.66290706 -2.5502977 0.07026266 2.746872 6.2340198 -2.055121 4.113561 1.0910898 -2.5168097 -0.16214745 2.1874347 -3.8539643 -0.9083631 3.4378982 -1.0066898 0.6644446 -6.853894 0.31552246 1.448201 2.334254 -3.1284208 -1.4328988 2.4055307 -2.480914 -0.78402174 -0.21726695 2.025862 -0.62527937 0.4203309 -0.6515008 4.312518 3.120408 2.6762114 4.950485 1.4960103 -5.4978733
799 -2.0115762 2.7259731 -2.1177242 -3.097885 4.1617985 0.6875793 1.5240626 6.5677958 -5.200563 -0.8150999 -2.2652454 2.218906 0.21450041 -2.4514716 0.09389101 -0.14722914 -2.6812224 1.1698779 -3.6880324 -2.0294852 -4.086062 0.785429 1.5845121 2.449536 -2.0983808 1.9035196 2.9628437 -1.6258423 5.456241 3.8225303 0.6059909 -2.8213246 -2.1990874 3.0430148 -0.31757274 -0.41332462 2.6791651 2.0053573 -6.095362 3.2716117 3.641853 1.3475121 2.3808486 10.526649 -0.15495315 -0.58191645 -4.429901 0.3907147 -1.289668 2.6543067 -1.0094962 -0.47676787 1.0078137 -2.4075332 -4.7667556 4.496613 2.5509403 -1.5764451 1.9624993 3.067771 3.0226781 -4.787353 -1.5289146 -0.3165285
111 -0.8487511 2.1821122 -1.6357452 -0.53688866 5.9628973 5.317722 -3.6654658 0.159013 -0.32786852 0.9203305 4.465092 0.3225458 -2.9218905 -0.88504606 5.366367 -3.3352447 4.7119594 2.1438737 3.6391017 -2.909687 0.16041376 0.6642928 1.0405362 2.392594 -2.0556157 -0.002521822 1.119957 1.6618241 -1.4415694 0.2762689 -0.6463154 1.5371587 2.8923018 -0.6319746 -1.3064442 2.1348324 2.701359 -0.44749284 1.5593026 -0.8885718 -4.4674997 1.7809682 0.93292356 -1.0560837 1.0301552 0.5438967 1.1785401 2.27688 -1.6990626 0.81584686 -0.12318994 -2.246123 2.9150546 -0.21294607 -1.2335362 0.9911296 0.85932374 -1.2808939 2.0684571 -2.330779 1.726373 6.1931734 2.943804 0.91911906
697 -0.68418455 4.608801 -6.9515457 5.510446 -0.6672896 0.9806265 -4.1249857 7.5377536 0.9660521 2.3512967 -2.9943926 -3.407356 0.020843863 -5.2579913 1.943585 1.5706985 -1.0734988 2.2736843 -0.27184567 4.298681 -3.735012 -0.4867045 2.4375775 -1.4821297 -0.9927697 2.4757712 -0.67376083 3.117166 5.652781 5.5542555 -1.1900955 -2.1938875 -2.878732 0.95445305 -2.3062592 -4.719607 0.10415752 3.4057245 -8.484788 2.0952811 -2.9684033 0.6359729 5.657126 2.2789547 -1.6228129 1.6760725 -3.9081173 2.6754742 -0.048781823 -0.90908194 1.4041723 -5.810336 -4.3168626 -1.7602519 4.4993443 3.4832304 -2.896338 -1.4816763 8.29136 3.42901 -2.7824562 0.3362499 -2.128699 5.4050717
1112 -0.39421943 -1.1827707 -1.2976452 3.008669 1.4740775 -1.439731 -1.4022988 -2.9251733 -2.2171302 0.8946128 -0.98209286 2.1201732 -4.683156 0.20293702 -5.0386906 1.917734 2.8799427 4.2151327 -1.3594133 -0.64295554 -0.16511586 -4.2142153 -2.7219768 -1.9101449 -2.6530774 -0.3115946 -1.0262182 -0.8174251 0.006108947 -0.035138972 5.0038853 -1.5399804 3.4603043 -2.3287573 -1.6568917 0.79350924 -0.6007337 1.4209547 2.3909216 2.3364625 1.4096961 1.1804824 4.3481526 -2.433606 -1.7845529 -0.6383958 4.198243 -4.849497 -2.7275054 -3.0602481 3.6314785 -1.0619913 -3.1382596 -0.40564954 -0.23313305 -0.93708915 5.237304 2.4100664 -2.9568608 -3.0542424 1.8288158 -0.50773394 2.2800221 0.29073268
28 -2.0956383 4.9815803 -0.14271703 0.09693267 4.400192 -11.962443 3.2800627 -1.5972306 -8.911246 0.23397139 -0.44189677 -0.70203614 -1.6809151 1.2358342 -4.623004 10.189997 3.4638734 0.776952 0.834144 3.0697472 -0.12340225 1.5503448 -4.2064257 2.755116 -0.35133204 0.41792965 1.3983666 -1.1728644 2.5510433 -1.8645142 0.31406808 -1.4738547 0.11677421 -0.96446776 -1.7268964 -1.5530325 0.43677908 -0.87191796 -4.0775995 1.7728037 -3.3225393 -1.1096517 -5.8833137 -0.10348241 -2.8904974 2.0132654 5.2203274 7.4098706 -0.8129894 -1.9085057 2.5961013 4.7963734 5.820972 -2.516745 3.9483004 -7.695741 -1.3927512 -5.001792 4.4732924 -4.253645 -1.8793501 -1.5366874 -2.9828436 -1.9006858
1638 1.2847605 3.1371708 -5.2096334 0.87653536 4.6703725 -0.82164574 0.02412555 -1.4594543 2.1311715 -1.156441 -0.717147 -0.06669566 3.2487128 -3.111728 -4.0579925 2.3961062 -1.8869241 -2.2145224 -0.2863083 1.1184945 -2.984695 -3.4086094 1.0088285 2.373907 3.0117133 0.7941096 -0.4262716 4.305557 -0.7324919 0.5049505 1.8545207 1.6313158 -0.29746374 -1.2210878 5.2921743 4.3214154 0.8972555 2.3393598 -2.161765 0.16033684 -0.020174494 2.0998955 3.1541073 2.704926 -3.7274492 0.5263582 -0.6672788 4.8926272 -1.2414377 0.023593714 1.5587188 -3.074307 1.4264878 -1.1472781 1.980631 3.948459 -2.7062848 0.10307571 1.0798705 1.0471209 1.9891888 2.8684273 2.262486 -4.9906034
1056 2.432419 -0.5793092 0.051845863 3.290552 3.4349167 2.2518609 -0.8681807 -1.506419 -1.1707537 -1.1108294 2.1420772 -1.9193393 1.1897548 -2.1921296 -4.018057 -0.44782868 -1.6018137 -2.6593118 0.0070501673 -1.2013204 -2.4072056 -2.4867535 0.29875532 1.135041 2.154676 3.3912525 -4.206415 2.7498324 -1.4368451 1.1610475 0.9093672 0.18284392 -2.1902158 0.54968727 -0.34985635 0.4825544 1.6574225 -3.4746242 -0.42364657 -2.0675633 -1.6213537 3.8539276 3.4558144 0.42743656 -1.8842995 1.7820929 1.3356093 1.6258658 -0.47020108 1.1525952 1.2645968 0.79963994 -0.7825643 -2.2646544 1.2861099 2.3203592 -2.1723897 -1.136788 0.7858056 -1.7073231 -0.0080887675 3.9032962 -2.1709461 0.57232577
956 -0.7955329 2.8918753 -0.35863262 1.4901822 -3.1031072 -0.20708083 -2.2673538 -2.2352006 -2.1202064 -4.5348334 -0.68875617 -3.060951 -1.9331765 -2.6197834 -2.0383978 -1.3490626 5.022734 0.43097228 -1.6299268 1.1311172 -2.041237 -2.3765454 2.4194365 3.6625519 -2.0186057 1.3836045 -3.455511 -3.6802602 -1.287841 1.4867754 -2.657894 -0.5340626 3.103482 1.5212228 -1.6454706 -2.3204696 0.043755166 -0.24716951 0.008650237 2.3091547 1.3100464 1.3049912 4.9400697 5.52851 -1.3304118 -2.7674477 4.154908 -2.9783607 -4.4703126 0.034800194 1.2426732 -3.032001 -0.6157744 -4.879481 2.6726823 -3.0998585 6.092522 3.2505586 3.1510468 5.024022 1.2493231 -1.5973145 1.2102772 -0.33859766
841 -0.78549933 3.9711857 -1.6579456 0.9039322 5.1745634 3.1201625 -0.4276642 5.689396 -5.4744864 -1.4304796 -6.4201097 -0.91680884 -0.91679555 -5.359206 0.49262744 1.4534793 -3.221999 2.156344 -2.1442382 4.1405387 -3.7798216 3.0635757 0.0018569719 1.4348106 -2.484391 0.030148957 4.1430545 -0.16185439 3.5630178 5.6360483 -0.16004394 1.384414 -1.5377662 3.7894478 -2.607749 -4.249569 -2.4655514 3.5598795 -5.3560367 3.8717716 3.009972 -3.4537702 5.5062814 5.2073417 -0.56561947 0.3024538 -3.1532254 3.2075584 -6.6932487 1.176388 2.59123 -4.068605 -0.9202241 -0.20598853 -1.8058718 4.2819724 1.804759 -2.23509 1.1812526 2.1729174 2.0422993 -2.3287773 -1.4440916 0.111656494
18 -3.23764 2.162441 -2.7901306 -0.41300848 -0.54026896 -1.027141 6.4280643 -0.7411587 -1.3691691 -1.9264727 -2.7991817 0.6165665 0.0015819861 -2.4924939 -6.4495463 -3.6466253 1.2040348 6.213198 1.3612596 -4.9429703 -1.5512927 1.1747348 -7.0937004 1.2359735 1.0072193 2.2880464 -1.6108238 -0.9102833 1.807681 1.3951231 -0.6819102 5.9582763 1.6733372 3.9265506 3.091823 0.67260176 3.8070624 -0.31372866 3.9026115 -2.2839427 -5.258491 -1.8604385 5.5648212 0.22419348 -0.23348695 1.9793044 -2.1113153 2.1471925 2.1452992 3.1459987 1.6754141 1.1067305 -1.6854895 2.0344312 2.5306406 1.8926494 -0.1176458 -3.880349 1.2475344 -1.8398874 4.0091095 -0.46226618 0.92435694 1.8923295
636 -2.0827913 -2.268681 -0.48864588 0.34170982 -0.49244502 2.1678162 -0.23063105 -0.40244952 -2.4966426 1.0488515 -1.0231127 1.3634294 -0.63081545 1.3334469 -1.3477331 2.835739 -4.521243 0.64711195 2.5862947 0.41069695 2.7529662 -2.675731 -1.3581893 -2.2952516 -6.148967 3.5736709 3.255068 1.367638 0.05197925 -0.5800982 3.2552195 0.25503373 3.639597 -0.8551939 1.284517 0.7105528 0.021163687 0.78639334 2.5138202 -1.177582 2.5088205 0.58995944 -0.04374485 0.47528645 -2.4299643 0.6599074 0.7188851 -1.0507209 -2.0310354 0.42925555 -0.78691286 1.6016988 -3.1804972 -1.4010074 1.6665554 1.2796888 0.882907 -1.2947022 3.7301192 -3.4734962 0.61902267 -0.025581397 1.7047315 1.4182539
107 0.012295507 2.136495 -0.57045716 -0.3504351 2.512657 0.85043514 -1.0126069 1.7026259 -1.094166 -2.5546768 0.4518443 -1.4147564 1.0136002 -1.594581 0.30371535 -1.310327 -1.6727431 -0.819454 2.0772398 -0.5704326 -0.7466061 -0.7659998 1.1133047 4.125736 -2.1044924 2.305437 -3.9524276 0.47867194 -0.5076351 2.437127 0.41218007 -2.5219402 2.8362832 2.9255307 -1.1211187 -1.8354076 -0.24356003 1.4569956 -0.9562889 -0.3482458 -2.0639648 -0.41576692 0.7609136 4.459723 0.056722526 -2.093274 2.4001806 -1.5250388 -3.9989848 1.3546306 1.3826659 -4.177085 -2.0103207 -0.21379139 -1.0594364 -0.2822186 1.7178178 -0.72486705 4.52833 2.549387 -0.48484886 -1.8100058 -0.5905482 -0.9797377
674 1.5909138 -0.6126348 0.14678778 0.5397629 2.1956353 -1.9346422 -0.0474064 0.011200039 2.118475 -3.1285539 0.7314437 -0.9990449 -1.4069369 -0.05064451 0.37458336 1.2225789 0.9842334 -0.6258822 3.7308447 -2.3701313 0.9954935 1.4296949 1.0013984 0.3737056 -1.434798 0.5873531 -2.151992 2.0774963 -1.6886117 5.062151 -0.17451702 0.2498628 0.6186522 1.3377104 0.047386974 -2.7893636 1.1110712 -0.02184594 1.9808941 -0.5299636 -2.0263479 -1.3676779 0.8320579 2.0739303 -3.9015744 0.7119767 3.6874444 0.12172948 -0.5097362 0.4830032 -0.4647986 -0.7870689 1.177664 0.0638127 -0.5118644 3.4345605 -2.241611 2.0969076 0.6995974 -3.2093372 2.8662655 -1.1284633 0.3388667 -2.934754
1268 1.3278996 2.31438 -3.4067152 -1.5080488 -0.9632024 -1.2666767 -1.0789921 -4.61751 -0.54529303 1.1018183 -0.4817778 7.133476 -2.726047 -2.055514 -2.3087761 -1.7756823 4.907606 4.8281393 -2.8781395 0.059981916 -2.0390234 -3.343277 1.3037704 -4.054099 2.752396 0.44230068 -1.4825549 -2.929342 -1.6917548 0.70973307 3.306308 1.4135982 0.7135883 3.4010665 -0.0397336 0.20234859 -2.6346211 2.305796 0.36754033 3.3863807 5.929548 0.8606369 1.4081292 3.4187965 1.0163834 -2.701258 1.3239338 3.345272 -1.6874473 -3.425166 0.3630484 3.7006884 -1.1933671 -0.2930811 1.2828811 3.284991 0.13990816 0.6558313 0.39929816 3.2788634 3.214623 0.3918961 -0.41712585 -3.4841235
266 2.5726414 0.5053789 -0.8187083 -1.6558251 -0.32653478 -1.5236726 -2.3953898 -0.47819197 -1.8846147 -0.38431022 1.5819663 7.0268707 1.5433683 -1.0286186 -1.1749303 -1.2183783 0.013262598 0.9977538 -0.7782382 0.5504852 -0.08197638 -3.295812 4.4065356 -4.45764 1.5485479 1.4316677 -0.83735025 -0.24630181 -1.4383696 0.70222163 2.568695 2.4406948 0.6900887 2.2185714 -0.82260406 -3.081195 -1.0791204 -1.0132762 0.39283642 0.51356155 -0.3145684 -2.65957 -1.7002475 1.6102117 1.2738104 2.6058974 1.5153449 -0.28253543 0.82479316 1.0728723 -0.16825303 5.300251 -1.6253041 2.5820389 -0.99420357 0.9363234 -2.8196146 -1.2879326 5.7482414 1.903447 1.1623155 0.1505084 3.6399822 -2.968768
1129 -3.7752266 0.45839953 -2.1711273 1.30652 -0.14191787 0.35915974 2.3147438 -1.6990861 -0.62703425 0.71114695 -0.39946556 0.56160665 2.1809967 -1.7222353 -0.16462024 0.88653916 -5.693119 -0.8491478 -1.8974216 -1.6889493 0.31129405 -4.390239 -0.16335374 -1.977301 0.041766696 1.6764336 5.707567 1.998764 0.83910084 0.97678167 -0.99467725 -1.094814 -2.0728648 1.6813731 0.095312476 3.623759 -1.7769411 3.543866 -0.5856384 0.8471777 2.3084135 -0.8885726 0.7921036 0.13976479 -2.845429 0.3449563 -3.7323365 4.9980755 -1.91621 1.3721601 -1.8160925 0.43673015 -0.87074953 -4.1125736 4.6131043 3.0384583 -2.287516 -0.73575556 1.0805856 -0.23965974 1.3542235 2.885436 -3.0657969 -0.114718944
152 -5.9877677 -2.158731 -5.604848 4.2719984 -1.3541939 -2.73907 -2.1106799 0.028358378 -4.720346 -0.93623304 0.3198662 1.8465099 0.6817888 -3.9535139 -3.1156704 0.57431775 -2.6491606 -2.559987 0.47943288 -2.3969424 1.6920481 2.0480385 2.604547 -1.9158773 -1.3476574 1.4620513 -1.4551232 3.9177635 3.574388 -2.9213827 -0.70498353 -0.7676163 -6.878361 1.2047294 -2.1468146 4.6906595 -1.1123924 -5.6285224 -2.6832716 0.85630816 -3.1152442 -0.98027426 -0.96959907 -2.0591214 -0.4725766 -2.6538005 -1.3881832 0.023982847 0.59994876 0.627555 4.6559687 -4.54806 -1.2998743 -2.8209765 1.0505153 5.629782 -5.285096 -2.1340086 -0.8150862 1.2596335 2.0142856 0.163068 3.527492 -0.64378184
1435 1.8070574 -0.22781062 -4.1250834 -2.121155 3.8944256 -0.24452642 -1.4481536 1.1588665 1.2770443 0.7414477 -1.9250215 -3.1522765 0.13617872 -0.9065566 -3.7790024 4.4148226 -3.0541756 1.7243491 2.7900565 -0.719784 0.30153915 -1.7567043 1.3384877 3.2826393 -2.6939814 2.1170757 -0.032152653 3.1500146 -1.4506817 -2.1619027 1.7346156 1.8334094 0.33069423 -5.323469 3.4249954 0.092326686 0.18523082 0.9737761 0.64005595 -3.2517416 2.8617876 2.5311835 2.020655 0.6774461 -2.801263 -0.02038146 1.5374968 -0.36669227 2.73426 1.7496641 1.9219171 -1.9915054 -1.8926381 1.1496098 -1.5037922 -0.95164084 0.788151 0.12170057 0.5542703 -1.6028873 -0.5612629 0.3972707 5.0852375 -3.384997
1135 -0.609236 1.5533191 -2.5170536 4.4519506 -1.1353079 -0.6237632 -0.2986976 2.3891876 -0.01666771 -1.0414623 0.67281 0.7511814 2.3411295 -1.1629013 -0.61777335 0.029687233 -1.1070985 -3.1665576 -0.50805366 2.1155038 2.049324 -2.2435036 2.2343805 -4.646824 1.2173402 0.93149406 -1.9800972 1.3904779 1.066892 1.5064104 1.0987948 -1.1619164 -1.4603046 0.64899224 0.9820832 1.9406874 1.3063318 1.4604156 0.02358903 -1.6303802 -4.171885 2.2969437 0.9354383 0.9403077 -0.13531739 1.4898247 -1.5724674 2.187982 0.18317571 -0.43300572 -0.53352565 -1.3682114 0.33386377 -0.13967155 3.5961154 2.245379 -1.8981187 -0.3142013 2.0147252 -0.4734427 -1.8288901 0.10785747 0.0072664227 2.1160142
369 -0.24220257 1.2206529 -0.70289516 0.72694653 4.1170487 0.578783 0.17138515 -3.0017192 0.7115903 0.3523608 -1.0222362 0.30303612 0.98246396 -0.59487635 0.82803696 0.8410463 -0.336148 -0.38182756 0.7389998 -1.263696 -1.9609895 -0.7657977 -0.07603876 0.32962972 1.9442393 2.1303601 -0.7904926 -0.20842722 -1.4698571 2.2974372 1.2044457 1.0188334 1.3550018 1.3780518 1.2584105 1.1834401 0.7732128 2.8378785 0.10852198 1.0786637 0.6099853 -0.27078232 0.66207874 2.6581373 -0.22371809 -2.5814168 0.31175393 3.0401356 -3.2581048 1.629113 0.007624319 -0.30715966 1.6138246 -0.14353788 -0.6761682 2.5927217 -0.45176104 -0.46878186 0.5201025 -1.4890122 0.12532039 -1.2085986 1.0471066 -3.7172074
758 -2.4783168 -1.7090892 -1.1066501 -0.4110382 -0.060967032 -1.9579068 0.09959787 -2.757729 0.33529347 0.5731554 1.39511 0.78871423 -4.404563 -1.5347458 -0.7073872 0.0030457291 0.924563 2.802158 -4.6603265 2.3705769 -4.5136056 1.5122126 -2.0502367 -3.2781692 4.9303102 -2.4888256 0.7297176 -5.7717295 -0.12265588 0.40342626 1.9850805 2.238214 3.0663598 1.8889527 1.0547673 2.4532921 -1.8239411 4.681605 0.39352685 1.8373455 1.594705 3.990978 1.726998 2.4424324 -1.2436126 -2.3202639 2.276124 3.288809 -3.1470897 -3.489441 1.001512 0.2405492 0.57235855 -1.4433831 0.8728767 1.7101948 0.9028292 0.53929895 -1.7209886 3.508558 3.7750869 -0.9863048 0.32058987 -0.9291097
149 -3.3926713 -1.2696241 -5.5410004 3.6648717 -1.592004 -1.0054909 -1.9709431 -0.17170955 -2.626156 -2.1873262 0.112538405 0.34236786 -0.343229 -1.239222 -1.9757087 -0.15528823 -2.9735713 -2.8085935 -1.0789764 -1.5620626 1.6817853 2.5111723 2.096149 -2.7890213 -3.00435 1.7384118 -3.0755298 2.6184626 2.8403177 -2.1168242 -0.5318827 -1.4849926 -6.5230637 3.140233 -1.6322746 3.6277902 -0.28495625 -3.2285385 -3.0112224 0.15815945 -0.865962 -1.4968159 -1.9235349 -4.1949263 -1.1680272 -1.1333126 -2.5850217 0.96386856 1.7274073 0.6798001 4.107986 -2.3453317 -0.15062276 -1.645376 0.93181896 2.5560014 -4.6722116 -0.99059784 -2.2525182 2.096173 -0.33408347 1.4452735 2.0042355 -0.20785797
922 -0.9021297 0.56068236 -1.5390339 -1.0739076 2.9554176 1.9691558 -0.82855314 -3.836186 1.2469116 -0.06870434 -1.8594692 -1.5456201 -1.871752 -0.6285134 -0.3386509 4.4017305 0.24681346 0.40786737 1.6628478 -0.17533575 -0.1506267 -3.3138397 -2.0758526 -0.9890625 1.8701473 4.609896 0.2952147 -1.3859942 -2.76664 1.136363 4.156403 1.557944 2.8501573 -1.2810684 2.1394951 1.0532234 1.0325116 1.9114572 1.0632708 1.0387949 3.8256955 0.0008214364 2.192784 1.9920764 -0.8335615 -3.0236797 -0.21370864 0.4009537 -1.8049052 -0.7419008 2.8412664 -0.045540035 0.8017643 -0.78226596 -1.819306 3.3892417 2.1880212 -2.3919146 0.016373446 -2.5742288 -1.1846846 -1.3927269 0.9812924 -1.959558
1437 0.2986882 -0.783938 -0.9501394 0.5844724 3.9423876 1.6684306 -1.272459 -1.1176785 -0.7516273 0.40625405 -1.1195254 -1.4778477 -1.0397398 -0.38783637 -0.90298164 3.0262764 -0.12784192 -0.068978995 2.89706 -0.4013003 1.5911903 -1.6342797 0.14891812 -1.0985204 -1.7882849 4.200793 -1.3089 0.6530685 0.17538334 -0.05169908 2.8867004 0.47543734 2.6428585 -1.0521467 1.2978197 -0.8498254 1.5397243 0.6342483 1.9817625 -1.4951706 0.5082797 0.53544295 1.8245701 1.0731709 -1.0374341 -1.403274 2.7061756 -2.1713212 -0.2791724 1.13066 1.6647774 0.100643426 -0.6509475 0.2709754 -1.1298541 1.003197 1.3523638 -1.3865238 1.7062966 -3.652278 -1.8619434 -1.4890014 3.090976 -1.0375628
121 -4.06106 -1.3362186 -3.1972249 2.6022253 -2.4430716 -3.0990615 0.06782457 0.49902648 -1.1103324 -0.95379823 1.6690639 2.0333602 -1.4197361 -0.9121404 -1.499492 0.6995793 -6.0206447 -2.0900977 1.0626059 -3.071423 4.67902 -0.8358042 1.1252407 -2.9164283 -5.7721567 0.3336488 1.3158458 5.3865047 3.047024 2.3458383 -3.4177125 -1.3641063 -4.413747 2.7898688 -0.51152146 0.6410718 -1.7875082 -2.2950466 -0.39262947 0.45773545 -0.785739 -4.3150654 -0.50556064 -1.7624177 -9.69173 2.3287334 0.84344923 2.0061934 0.88458914 0.12945318 2.4433725 -1.6551942 -0.548027 -4.035088 4.4034314 7.105789 -4.185265 0.8948025 0.5093125 -1.817391 5.342748 2.6788187 -2.3103578 0.48866478
1412 0.43412772 0.75211847 -1.272774 2.005605 1.8305931 3.5008614 0.24586464 -1.8488296 1.873388 1.9918481 -3.4312572 -1.0716832 0.10834506 -1.2062316 2.2714918 2.619275 2.8628473 0.35392734 0.30629417 3.3288696 -3.8257124 1.0926534 -2.2861972 1.8208448 1.1520603 1.4869043 1.4679238 0.10937486 -0.79440445 4.2058563 1.8086543 3.3689418 0.19657424 1.2813002 -0.44096535 -2.2503867 -1.0471933 1.8822765 -2.5795076 3.4748838 1.4011965 -1.371328 4.153901 1.4154352 -2.3077235 -1.0823896 -1.006539 3.0635319 -6.6131535 0.011922118 3.8827686 -2.3722315 1.8523678 2.5069304 -0.2931912 3.6996152 1.0414684 -1.9461609 0.57622236 -0.43991745 -2.1679316 0.20903365 -1.0825758 -3.1485832
875 -1.4062912 1.3085111 -3.8881848 1.1066644 5.6879063 1.2050852 -1.1332139 -2.8559582 -0.38987646 0.014048539 -1.2392646 -3.6687677 -0.7572197 -4.1215477 -1.347264 4.4679737 -2.4369476 0.06321289 -1.3147993 -1.2298241 0.89772534 -5.039068 0.10824605 -3.1701002 2.8188019 6.858213 1.6835732 2.141759 0.21898074 -0.13494125 2.1005886 -0.9153562 -1.628954 -1.3957363 0.7815151 2.2658005 0.92844146 3.9946225 0.7087392 -0.8773831 2.977717 -0.84234995 5.20172 1.5011704 -2.8588023 -3.2027373 -0.68944216 2.5626657 1.9795468 0.8846541 1.8632625 -1.4649403 -0.6910036 -2.6572034 0.67953247 3.258421 -1.1724505 -2.3836937 -0.8414897 -2.7682192 -2.6909163 0.72106755 1.1724709 -0.8970639
804 0.92940944 2.4260209 -2.415996 2.62639 3.4051948 3.3558054 1.8867944 1.6668986 -2.126001 3.4637253 -4.8468366 0.3434771 -1.1029977 -2.4849126 1.0325599 1.252632 -1.888773 2.2708833 -1.3134568 2.8275478 -3.9652767 2.2191503 1.479894 -0.5833201 0.5874895 -1.1376013 4.9228745 0.9749027 3.222252 2.2564328 1.3185483 2.9700546 -2.1155436 2.2259402 -2.3570712 -4.1958303 -3.4172242 1.286081 -4.2303987 5.371096 2.1726136 -0.8650466 3.6026788 2.647522 -1.8892704 1.2151095 -3.3709667 6.0721426 -4.2831125 4.049799 1.9160544 -1.0499384 0.6305774 -0.37089473 -2.3770843 4.482603 -0.058272704 -3.039063 -1.1336381 -1.8740593 1.3205578 -2.5722315 1.8669673 0.39010158
1227 -0.23337168 2.2329197 -2.5286605 -0.42564157 6.2918954 0.2360799 -4.7039976 1.8861592 -1.3091338 -2.5580018 5.0022545 2.4656956 -5.9019475 0.8723334 5.323694 -2.3288674 2.9688854 1.6156688 4.4460716 -4.387537 1.8468506 1.3088683 2.6625953 -0.15316384 -3.838145 -2.5817764 3.3960767 1.8195815 -1.9934471 5.68452 -0.6542986 2.1940007 2.2453637 0.30945542 0.20047246 -0.2404146 2.6211896 -1.7977421 0.7800425 -0.52319384 -3.6932428 -0.28392062 -1.0167032 1.5373925 -3.1777937 3.6332638 1.8122432 1.5501475 1.6428988 -2.3308713 -1.0438491 -1.479474 4.1764755 -0.4401672 0.27559537 5.55656 -0.43276873 1.561007 1.689248 -3.3806305 7.061446 4.380421 2.4670286 2.6669796
1147 0.7740644 -2.5235999 -4.1919603 -2.9063609 1.3250116 5.2824016 -5.1640024 2.2925165 1.6515162 -2.5659833 1.6773077 0.7109365 -3.7133093 -0.007403211 0.83222175 0.63988024 2.4230404 0.8287658 0.9267567 0.24985744 1.933104 -6.4284515 -1.445443 0.027541956 -2.4300754 2.913505 0.10805746 0.99719334 0.68828106 3.5862284 2.387701 3.6286979 4.3166475 -1.4301211 -0.7544818 3.359969 3.9483035 0.21839792 1.3587867 -0.21649452 2.2494235 1.2556534 -1.0834211 -2.9067035 -1.1170281 0.41527867 0.52378225 -2.917758 0.93512 -1.4141816 -0.82140213 0.21393067 0.5975184 2.6735117 -4.1567655 3.229589 5.614502 -1.682908 -0.19822732 -1.7626578 1.5456227 2.259741 3.3567963 6.4858017
1372 2.6026964 0.62319684 0.3890239 1.1712477 3.9523695 6.2036853 -0.6123373 7.284677 -6.114208 1.1832052 -4.6803446 3.880077 0.75991637 -1.7713574 -1.6069684 1.2969167 2.296057 0.7223871 -3.7362363 6.2646885 -2.5270882 4.089393 -0.3411474 -0.78894836 -6.08125 1.0872629 2.789135 0.70570636 5.5323 5.31144 3.394822 1.1280593 -1.0412595 3.7981722 -0.5799186 -3.32438 3.141175 -0.10985196 -3.2047758 3.1235874 -0.3709984 0.06672898 5.2599015 5.028369 -1.6922691 2.712291 -2.0570471 2.6494858 -5.3669944 1.2981739 0.73422146 -1.3327541 0.26373455 2.585639 -0.6284535 5.5754843 -0.40394288 -0.595954 1.740343 -0.58824176 1.3839606 0.16864255 1.788722 -2.293983
743 2.7891889 1.5477455 -3.9572203 1.8645815 0.13971047 -3.6889877 -4.3584247 -1.2845103 -1.4455088 3.2065861 -1.1036665 7.2254243 -1.8312125 -1.804595 -2.202941 -2.5402844 5.951338 6.276937 -1.2244389 1.5753045 -3.4374115 -0.76821977 4.887525 -3.724935 -0.98168635 1.8433809 -2.2360902 0.24300517 3.233931 1.3740504 0.81119126 -0.32802752 1.2463428 3.2982142 -0.8541309 -2.4753592 -3.6895196 0.7655309 -3.1417341 0.765618 2.468433 3.3599722 1.7270696 1.2926357 0.618505 -0.40099126 5.354664 0.4071767 -1.3161695 -3.6821992 -0.99555326 2.604847 -4.15445 0.31856737 1.7764547 1.9890214 -1.9057568 1.779552 6.7686253 1.7298707 2.5793462 1.4349276 2.636751 -0.5159824
29 -3.6135995 -3.2662818 -2.561873 2.9365482 1.756897 -3.3119335 -1.5191494 -0.59464866 0.5479244 2.4015017 0.78714263 2.2946224 2.0104737 -1.9161547 3.737207 0.7211589 -2.2146826 -0.060324803 -2.6073287 -2.0564067 -1.6428378 1.4935807 -1.1210115 0.5935893 -1.2802248 -0.717177 -1.8954415 1.9244711 -0.50948405 0.8693997 1.087834 0.17919353 0.77711844 -1.8656101 0.42085359 0.20186362 1.8613443 -1.7464161 -1.63823 2.9856982 4.093095 1.7597761 4.9782977 1.8947542 -1.8099767 -0.47887766 0.91541237 1.9765942 3.6600614 2.488174 -1.2080427 0.6768491 2.6340373 1.0193653 0.18528363 1.9800282 0.43814445 -2.4488919 3.161894 0.14528836 -0.95105016 -3.5380995 0.028057443 0.4807352
37 -1.4839193 -1.9950693 -2.1333106 0.28001437 2.4767535 1.3677161 -0.7028509 1.6332531 1.3007524 -0.15521002 -1.1967111 -3.0169027 0.9917505 -5.572776 -2.5377276 -5.1277437 -1.4396738 4.5439973 1.8878759 -0.3200501 3.4357078 0.29244223 -1.948075 1.375262 -2.100286 0.98704946 -2.057902 -2.642169 2.808259 -0.4161497 1.527265 0.62484926 0.7945375 2.0784621 4.928001 2.3561895 2.9220045 -0.75457126 2.514221 3.922454 -1.59394 0.22862238 2.065899 2.642363 1.5296717 -3.5209193 0.17036103 6.07128 5.171756 1.4970695 -0.7173373 2.910829 0.9185002 -4.4791045 7.6544123 1.9995623 -1.0059148 -4.6757674 -1.1905793 -1.6605912 3.5354524 -3.125711 -2.151729 -1.4322399
1191 -2.8496974 -0.40286076 2.1456196 -1.2575666 -2.3635108 1.893693 -0.3996777 -1.802155 -2.080869 1.4259264 4.3026958 3.038338 0.67156357 2.8345776 2.8883183 -1.3724908 -1.1189758 2.16677 3.1771436 -0.36585185 0.9771728 -0.14790276 -1.3584454 0.7400422 -5.4396605 -1.3038912 4.4869533 -0.83442765 -2.2190306 -1.2951171 1.3141482 -0.82854027 3.538667 0.9679492 1.1918356 1.6747658 0.25133872 -2.6251242 0.529077 0.39429387 -1.0930569 -0.21446075 0.45957455 0.13769555 -0.95433605 4.184669 -2.555289 0.4755998 -2.8066282 -2.1414235 2.0577135 -0.035328582 1.663601 -2.1862352 4.086005 -0.36594418 0.80138487 1.1785703 4.1474524 -1.1472793 2.0305455 2.8791142 -2.2603776 0.10797185
1450 3.30088 -0.09424216 -3.7941742 -0.4698352 1.5070992 -1.2281289 -0.38580543 2.115937 1.1736438 -1.0967802 -1.2780457 2.111256 2.3852131 1.8905759 -3.1256294 0.26832253 -2.729617 -0.6744828 0.9820457 2.187949 -1.403221 0.33319694 1.1437743 3.5556056 -1.899081 -2.9964561 -1.2653494 2.4062972 -2.10758 -0.41486168 3.011832 1.4463644 1.6199899 -1.3725482 3.6727705 2.4841206 0.51117396 0.31559676 -0.8259885 -0.9992813 -0.18560073 3.0635316 -0.87865627 1.3793225 -0.49800667 2.4959688 0.14879943 1.7474928 -0.49491474 0.9429631 -1.4027892 -1.225263 -1.2464323 2.3815994 1.2969654 -0.17110825 -1.8124493 1.5682491 1.1593504 1.0278934 2.9533746 0.5601965 4.2558007 -1.5555246
375 -0.73346096 0.11239835 1.9936744 1.8348731 -4.6467657 0.3166662 -1.9053208 -2.227751 -1.1120683 -4.989963 -1.2493314 0.8287536 1.4319223 0.7325067 -0.54186875 1.7160254 3.054351 -4.4220495 -1.8012476 1.7272776 -2.1321611 -2.8856199 2.5881577 -2.163278 1.2862415 0.533839 0.996856 -2.868 -3.3552883 1.1022469 -0.20459552 3.6599088 2.1126838 -1.1617352 -0.018788753 -2.506449 1.5228503 -3.6227696 0.43809474 2.007607 -0.32329205 -1.2318021 0.6991992 1.6378988 -0.34683284 4.420813 -0.24710062 -2.9602146 -1.182759 2.5139718 0.7566582 3.7479072 2.889514 -1.3796871 1.5129316 -1.5820546 1.2685254 1.4057236 3.3649218 2.6261065 -0.01774881 -1.3512021 6.117442 0.37039003
67 0.5839377 0.3714926 0.3333777 0.98794895 2.4275472 0.594142 -0.054485913 -1.0115219 0.35084265 0.11481339 0.66093826 -0.0064722258 1.1355447 -0.26784214 0.0030325123 -0.35574284 0.92847484 -0.72384405 1.9147083 -0.32908577 -0.18061243 0.38532007 0.74952465 0.7932751 -0.8535829 2.0924492 -2.9505327 1.108257 -0.17018822 1.1751261 0.38774335 0.23072295 1.5674579 1.2306882 0.29941827 -0.2006377 0.7244761 0.737799 1.1969721 -0.2736799 -1.8914334 0.9957394 0.7445059 0.89251024 -0.5907227 -0.8391697 2.5518467 0.061084762 -2.1555023 2.0530128 -0.1425059 -0.463077 0.51852864 0.78367496 -1.0387864 0.029980395 -0.8285433 -0.25861332 1.8103341 -1.3111943 -0.51286256 -0.19156535 1.8073932 -3.1454482
1013 -1.7171394 -1.9486879 0.92034507 1.0688118 -1.9213096 0.80817115 1.603426 -0.4060472 -1.489417 0.70911485 0.41636518 2.6543193 2.3930922 1.5840011 0.45655835 -0.823911 -3.6343133 -0.47592235 1.4998564 -0.47174385 1.2893916 -0.6514675 -0.7273818 -0.5475871 -4.8202796 0.19702011 2.1038718 1.4626056 0.44853958 0.495182 0.8737346 -0.08462831 2.6111019 1.7753069 -0.1790093 1.177258 -1.0455282 0.193237 1.0963465 -0.13733976 -0.12397207 0.21367823 -1.7945579 0.11490502 -1.2154685 1.1900429 0.4389197 1.3671222 -3.73938 1.3043776 -2.2939117 1.5598993 -1.511043 -1.4624095 3.420558 0.3326176 -0.9519044 0.93557864 3.7485743 -2.1111398 2.0658011 0.80091083 -0.35424984 -0.8575127
779 -0.7837058 -3.3341599 1.8721911 -2.0594957 0.30922312 0.7272771 -0.15289165 -0.46903282 2.302834 0.63303083 3.038156 -1.9224104 -1.034995 -1.2851586 -1.1113341 0.97587657 1.8353295 -1.6226044 -1.5439038 1.8381368 -1.4359555 2.8856957 -1.9950838 1.0509152 3.50022 0.15603389 -1.2949675 -2.1587453 0.488221 -0.9415884 0.3887761 1.219265 4.701988 1.1795366 1.4143432 -2.3643236 0.013149857 0.09737877 2.1567516 -1.8720801 -3.1483154 2.2390933 0.7277684 0.70908844 -2.7690296 -1.0809427 3.1086297 -0.55014104 -1.722588 -1.1923102 2.1607718 -0.16701387 1.334184 -0.014137581 -1.9363712 0.54106337 0.6002334 -2.3759713 1.3183118 1.7387875 -0.20240413 0.36105147 0.70438707 -2.6194394
727 0.73828876 0.11966321 -1.6035576 2.1598415 0.5815638 -1.9448928 0.20538272 -1.737638 -2.2932749 -0.3686482 -0.09412498 2.156123 -0.79070294 -0.20979531 -1.0487385 -2.968917 1.0116365 2.820121 -1.1021712 1.5088215 -1.5347059 0.08838522 1.9099561 -3.411598 -2.2828999 -1.2214857 -2.6784024 -1.3977178 0.1234201 -0.13693547 1.0417956 0.502137 1.1419125 2.2101035 -0.7139564 1.8637284 -0.75388086 1.9732383 0.0971794 1.4007561 -0.25325963 3.8385973 2.1264884 1.4827769 0.01768196 -0.31531987 3.789223 0.008107407 -2.0510411 -0.7184882 -2.1329427 0.46448988 -1.355111 0.3263646 2.0046031 -1.0601497 0.49215865 3.9476707 -0.093199655 -1.211349 3.2367759 -1.7080336 1.8034576 -0.01110918
874 -4.6918845 -3.0261762 -3.4567387 1.0784303 -3.578168 -1.5475087 -0.30377024 0.883273 -2.6028316 -4.142087 0.544974 -0.6976267 0.51812094 -3.8248284 -2.4369776 1.0512555 1.3621824 -2.657997 -0.6497016 -2.1446142 0.0887577 1.6318924 1.8041103 -2.193663 1.7606531 1.1431706 0.84653765 2.68108 0.76393825 -3.659357 1.4979388 -1.8952924 -5.1290393 -0.19045009 -1.9793922 4.0980425 -0.38945806 -4.655067 -2.8660202 -0.9367646 -1.2293699 0.54632896 -0.81973 -2.3814013 2.6662092 -1.9833006 -3.7844877 -0.86086833 0.70328194 -2.3358624 1.7545311 -4.2024074 -0.12768424 -2.9567356 0.0215569 1.8958671 -4.200389 -1.4895294 -1.257432 0.4836783 -0.067612454 1.8550892 0.6471285 0.6271334
849 -2.396559 -1.580355 0.35091296 -2.507945 2.1111083 1.2354254 0.08107806 -2.647167 1.9925301 1.4090791 2.646538 -1.6337907 -1.5844522 -1.2637547 0.76685643 2.6147094 0.24378775 -0.74877954 -3.0436375 0.8562663 -3.406122 2.8815386 -4.11755 0.59513277 7.0804563 1.8165329 0.8700063 -3.0485601 -1.5074676 1.1973326 2.1748116 1.7954922 4.3006964 2.035115 2.2195032 -0.2529588 -0.13762835 4.0745134 1.6924896 0.525053 -0.70262164 0.68067443 1.5896411 3.3374138 -2.9626763 -3.301952 1.2581949 4.1487584 -3.4309604 -0.60026515 2.3607652 -0.31288964 2.1692994 -1.0673848 -1.1748025 2.9636598 -1.3185784 -3.2944584 0.96265006 2.8516233 0.26778036 0.16423431 0.64941245 -3.85715
1292 0.5840703 -0.6417361 0.9114816 -1.0019087 -0.7748452 -1.866684 0.23139451 -0.7493222 3.9543812 -3.7217631 1.5184823 -1.9205923 -2.0430906 -0.53145343 0.3406222 2.1042724 3.8263984 -1.431946 3.7544456 -2.2302108 1.089974 1.0970261 -0.5449598 0.75790244 -0.6253779 0.29611862 -1.6935152 1.7422497 -2.4763005 4.805374 0.92063546 0.18037528 1.3739961 0.45914757 -0.27004084 -3.8861835 1.3781956 -0.7414541 0.7120885 -0.16445771 -1.6867527 -1.3593504 0.50826675 1.5755366 -4.253477 1.0133605 3.6335268 -0.8201139 -1.16382 -1.8468434 1.2401388 -0.84745795 2.1049793 0.004784367 -0.9233037 3.4737337 -0.47501644 1.7034723 -0.15575086 -3.0261545 2.1741261 -0.8073281 -1.5367025 -2.7809246
553 -1.5891049 0.4564433 -1.9251819 -1.4052367 2.9604335 1.2652519 -0.12122078 -3.6670253 1.4965062 1.2252573 -2.2116513 -2.998712 -2.1582582 -1.6726391 -0.26879954 4.855652 -0.51486695 1.8752812 1.596511 -1.7539622 0.53768724 -3.8141582 -1.4392422 -0.6760972 2.357553 5.185637 2.0672722 -1.3880872 -1.9375088 0.26524344 2.461011 1.6044823 0.68643135 -2.2698214 1.9421308 -0.038391426 0.10429816 2.919197 0.67992395 -0.049027 5.482772 -0.4587336 1.9102404 1.2879741 -0.823412 -3.836239 -0.76127803 0.5563529 -0.47501725 -0.19540484 2.3494325 0.011120887 0.33603853 -0.759893 -3.4500837 2.2746427 2.4659338 -2.2982101 -1.3659296 -2.39493 -2.5156972 -1.655995 0.28130558 -2.3503256
1296 -2.933504 -1.3521838 0.19607219 0.61515236 -3.6957355 1.5931051 2.4136462 -1.0894879 -0.0024284287 -1.14023 1.6131152 1.8060738 2.3921235 -1.0691706 -1.4510254 -0.6047684 -1.7493765 -3.0292904 -0.72352767 1.0972741 1.361193 -4.057038 -1.8883618 -1.7840099 -0.98146653 0.28775927 2.3628068 3.5074358 1.7918668 -1.047375 2.1976056 -1.3462201 0.80868375 1.9844532 0.8820988 2.5118365 -1.0556481 -1.0234189 0.13048933 0.25685823 -0.92513293 0.019621193 0.59052527 -1.0372214 -3.4943292 3.2064242 -1.6728791 0.6220531 -2.5631032 -2.1396098 -0.9205398 -0.0022118865 -0.8163237 -3.1239152 5.1314187 1.0117939 -1.0757285 -0.8082527 3.0977545 -0.9972121 0.90179795 3.8557467 -3.6083684 1.6059853
1361 0.24722226 0.33585656 -1.0908469 1.408926 1.4087875 -1.3488281 0.92817676 -2.0790627 -0.8037068 1.4402534 0.34972742 -1.4664204 -0.51249856 -2.7429428 -1.0616765 -2.0361776 1.4642576 3.8733861 -0.56501216 -1.5228192 -1.7940315 -0.122558646 2.5939317 -1.4208863 -1.5408832 1.2383226 -3.5622368 -0.51580244 0.84444416 -0.869467 -2.8308434 0.624974 -1.0908258 0.59134775 -1.6589229 0.3310157 -1.4964658 2.1462362 0.08781826 -0.48209643 0.69941056 2.8691301 2.9611077 0.7889197 -1.494654 -2.660766 5.185384 0.40445223 -0.8514453 0.68862545 -0.8456114 -0.7415888 0.071727335 -0.16667138 -0.66260946 -2.2188883 0.8252981 4.2531576 -1.059739 -2.0555217 0.6984641 -0.9154301 1.4592494 -3.6025112
1322 -3.1514919 -1.3135618 -0.6037238 -3.4355936 -3.5125647 2.1607506 3.92955 -2.7237706 -0.6107793 2.0070524 -0.8686959 2.4419775 -0.4139688 -2.151192 2.1399102 2.3477318 -5.7805314 -0.47486818 1.6648599 -1.0016252 -1.5994743 -4.4239235 -3.3557644 -0.96497875 -1.7595704 -1.2461519 5.496638 -2.283255 -1.6850603 1.2633477 -1.0751405 0.5294046 0.19749457 -0.09606869 -0.11188714 1.7294469 -1.8426498 2.560281 0.20386182 3.1948168 2.5515397 -0.6482724 0.38684618 -0.23463468 -0.8503443 -0.97124547 -2.0927536 6.28218 -2.531592 1.780819 -1.2104683 0.72528213 1.0872406 -2.9148834 0.47989032 2.1511967 -0.1589683 0.73328364 -0.33690926 1.1290867 1.6723331 -0.047606178 -3.7254987 -1.6075126
540 -3.2536569 -0.4226284 -0.36399013 -0.41159248 -2.6641126 1.3848307 2.3263948 -3.5913246 0.46820104 0.5633047 -0.6047833 2.874003 1.2727276 1.5176926 1.2643077 0.9667347 -2.9121077 -0.50494635 0.6755794 -0.17565419 -1.1350054 -2.9429896 -3.031183 0.1329324 -0.6318434 0.87375116 4.5074706 -0.8263412 -1.9085196 1.9333024 2.6948233 1.253319 2.8395572 1.9670874 1.1752539 2.332019 -1.4988968 2.2166312 0.10115836 2.4354637 3.7250412 -0.85355335 -1.1765211 1.7911601 -1.176312 -0.69215393 -2.1989648 4.649609 -5.5671024 -0.56755763 -0.8712948 1.5954987 0.53441405 -2.4257538 1.804593 3.4101574 -0.14891018 -0.25571862 1.8448861 -0.5070415 2.5459414 0.3604407 -2.7201924 -1.3053311
739 2.9469392 0.07497688 -0.7931917 -2.2464104 1.4826151 1.1459074 -1.5005848 5.293847 -2.0237794 2.0102794 -1.0187908 8.39815 0.2134319 -0.64367944 -3.0840287 -1.5316529 2.3502448 1.8413604 -2.465186 -1.734622 2.7133398 -0.9501445 4.8670807 -1.4727434 -1.5385735 0.6393878 0.77357185 -1.2099771 2.3459442 -0.020353897 0.06364543 -2.305501 -3.783808 2.2659016 -0.25123695 -2.5118465 2.7509875 -1.0185709 0.39408472 -0.81106955 2.2998502 -0.013287283 -1.0672565 3.7324662 1.023013 -0.9794171 -0.54325193 1.1401669 2.3013551 2.4748154 -1.1618682 4.059732 -2.3349395 1.4343027 -1.5854362 2.031086 -0.794479 -1.0012429 1.4621301 2.737765 0.17811434 1.7310324 0.22660163 -5.221854
556 -1.2576694 2.5249531 -0.9907439 2.253821 4.877747 -0.33549085 -1.9860963 0.031002821 -2.3282764 -0.40893236 3.574692 0.15737191 0.5883536 -1.4398853 1.8260854 -2.3688016 -1.6503078 1.2270768 0.35779843 -0.90969175 1.717581 -0.20218904 3.522598 -1.994457 -0.455294 -1.7334305 3.1390097 1.2117443 -0.66935325 -2.132055 -1.1219215 -3.353047 -2.756752 0.5265499 1.2061402 2.3406386 1.2621669 -1.1111858 -1.1114901 -1.4040956 -2.9739532 -0.47873312 3.5943985 -0.7527254 -0.18268926 4.6217175 -3.3543518 1.0022444 3.3409436 -0.46495166 1.6578726 -1.7081434 1.0734242 -1.598624 3.9629202 0.15917023 -2.3571332 -0.446922 0.2667785 -0.60508233 -0.54844356 3.0089605 -0.7919592 1.7979286
696 -0.701484 2.3749146 2.3195486 2.5317662 -0.60151917 1.0475717 -4.283082 -2.6675785 -1.8173558 -2.5340972 0.4837381 1.1239172 -1.1885817 3.0426173 1.4930189 -0.7149157 4.493531 -1.2150217 0.8964602 0.5976491 0.1512468 0.9917264 2.3067095 1.3272737 -2.0568612 -2.1895654 3.104931 -4.259345 -4.5765367 -0.2900981 -1.2484857 0.25395456 3.3175037 -0.75710106 1.0513445 -1.083232 3.3423 -4.574288 0.9043464 1.69305 -0.9240791 -0.0106476005 3.8148446 2.103611 0.3843974 3.7630496 -2.6093335 -1.3285176 -0.20033474 0.894694 2.7648668 1.3708193 4.50597 -3.7906253 4.8837605 -1.5027632 2.2894661 1.2157656 2.5099385 1.816643 0.5349256 1.8917806 3.258922 1.2634033
952 0.040710554 4.1657133 4.938666 -1.3092767 -0.11524986 0.21866953 -1.315311 4.3605347 0.19951645 -3.6067321 -1.754786 -4.1644807 -2.040124 -3.1907852 2.167406 -1.2976916 -1.9881092 0.4102301 0.97362024 -3.1715038 0.80856633 -1.6046492 0.72431 6.328451 0.34970167 2.9295936 -2.3927305 0.8139427 -1.094934 0.89281905 -0.8752427 -0.28595543 -2.121622 2.286082 -1.841223 -1.1209899 -1.0724038 0.6730706 -0.1450024 2.5025983 -0.052614424 1.6752751 0.26657143 1.6323763 -1.8735816 -1.8352412 0.8976736 -0.79264945 -1.6336291 -3.4465516 3.938024 -4.5420303 -2.4210079 -1.1762718 -2.2501388 -2.6410494 4.235797 -0.69433063 5.18353 4.478854 -1.8371242 -3.2123067 -2.063655 -2.437302
774 -0.29425538 0.7609468 0.36692032 1.8457031 2.2405252 0.31267607 1.4257938 -2.015271 1.3685145 1.3829919 0.29256722 1.3115733 -0.5456937 -0.41106462 -0.8089172 0.41709226 3.0333383 -1.7796052 0.1780813 -1.6561341 -1.0407503 -0.49069437 -2.6746805 1.8856628 -0.15735269 0.5572501 -2.708302 1.2856618 -0.2518833 1.7048241 2.2204294 -1.0954772 4.030136 -0.049810193 -0.87267184 -1.6675128 0.83625734 -1.2491792 1.4085188 1.6471941 -1.3526067 -0.5756185 1.3249568 -0.52769 -2.232109 -0.042961437 1.9085796 -2.5800781 -2.8558793 -0.5123571 2.6241376 -0.6786933 -0.37444383 0.7058519 -0.8205776 -0.7249302 1.9953607 1.1780725 -1.082827 -1.1813649 -0.5288323 1.1310389 -0.21202339 -4.7138677
507 0.43041375 -1.1849115 0.74975806 1.1211213 2.5735195 1.3005573 -2.9197319 -2.4266398 -0.08743656 0.62036175 -0.86842465 -0.55617255 -1.6559476 -0.9767032 -5.0423527 3.9783103 3.0019784 2.0368311 2.6955078 -1.2708805 1.6451055 -5.043376 -2.253221 0.81062984 -0.92445743 2.8803382 -0.78036857 1.3262931 -0.32713437 0.054587446 4.2752123 -0.5435579 3.156838 -2.1657088 1.5002722 -0.5768275 0.63551974 1.0880463 2.7949963 0.041897975 -0.5950383 -0.26788872 3.6955469 -2.2791588 -1.952379 -0.86549956 3.3123524 -4.1303854 -3.7024212 -0.38747957 4.465088 -1.5714716 -0.28810027 -1.3284227 -2.5512369 1.8616958 4.1132255 -2.36647 1.2168338 -3.7231672 -0.40235707 -1.4552106 2.4693115 -1.7797064
876 -0.77619714 2.6384435 -2.7891064 1.6274033 4.356742 0.6398264 0.34810135 -2.398071 0.7108769 -0.499996 0.57018834 -2.9020104 1.7100217 -4.299963 0.05464193 0.9706351 -1.8224803 -1.485152 -2.1809845 -1.9159669 -1.2365487 -3.0766308 0.78029704 -1.0270058 4.6526995 4.3099084 0.6320373 2.11563 0.05223594 0.5721034 -0.8467979 -1.5172617 -3.1292849 0.9546693 0.10723454 2.547265 0.87378 3.7891264 -0.5600811 0.053443477 0.26072606 -1.199334 4.11276 1.3791717 -2.7311876 -1.8926958 -1.115878 4.6206803 0.3893883 1.9252619 0.57108116 -1.9990476 1.1553532 -2.3123152 1.6662962 3.1242237 -3.495173 -0.9282666 -0.62927026 -0.41299376 -1.798317 2.0519097 -0.563584 -2.9601648
434 0.85018605 0.16816297 0.5101184 0.9607391 2.7420783 0.8319395 -0.19524623 -1.0855448 0.62000936 0.17916447 0.5159491 -0.18428856 1.4275427 -0.1622346 -0.2747885 -0.20991206 0.2743299 -0.8628524 1.8906084 -0.41485417 -0.46896464 0.17407535 0.41354957 0.7891749 -0.73448485 2.0425305 -2.849579 0.6644723 -0.34777686 0.97482353 0.31986496 0.17314072 1.7806405 1.3459083 0.3748753 -0.5585333 1.0249906 0.4805057 1.067283 -0.7236631 -1.6858232 0.5701871 0.7799232 1.1221238 -0.7370735 -0.8978504 2.5696018 0.4354771 -2.0703542 1.7736892 0.077728026 -0.62203133 0.6101604 0.37086388 -0.4393468 0.505643 -0.28581533 0.069134094 1.7643667 -1.4988179 -0.540139 -0.5908101 1.8683709 -2.8872983
714 2.5445817 -3.1780427 -0.01120903 1.1722431 2.0384817 2.584501 -1.8722314 -1.1187162 -2.5281622 -0.676366 -0.27478847 -1.4914181 -3.5346906 1.5894201 -4.5021186 2.338911 -1.5863227 -0.049000088 2.5959945 0.1814105 -1.4281846 -2.1121364 -2.0247147 0.0197378 -0.9888974 3.5931475 -2.254593 -1.0647792 -3.6119683 0.5364075 6.5081797 2.024742 0.67754436 -1.789339 0.2788881 -0.39044473 1.8934033 -4.418099 1.1263148 -1.6499585 3.3068252 4.010711 1.2440937 0.34229973 0.34463227 1.9064296 1.2275922 -1.7624853 0.44420704 -1.150896 2.4343967 3.137088 -3.501277 -1.1845676 -1.4315629 2.3285751 3.1166704 -2.7603376 -0.7023856 -2.1201172 0.2519698 0.88369304 -1.521703 4.308571
373 -0.47600543 -0.97404414 -0.5087074 3.8110504 1.0540423 2.1600204 -3.867696 -1.5305636 -3.1247911 -2.5881174 -3.6907043 -1.6356826 -2.0225623 2.2572894 -2.807739 3.7740543 1.2241944 -2.1986341 -0.088103026 1.651648 1.9989686 -1.3371787 1.3927335 -1.7242978 -3.6083941 3.7204955 1.5710672 -1.4258397 -2.1833906 0.41107035 1.9425635 1.0802275 3.3354115 -2.1255658 0.5238173 -0.59493285 3.6825461 -0.38670307 3.6642532 -0.058693707 2.2293532 1.3007115 3.6770983 3.183915 -1.5819932 -0.20697153 1.1157457 -2.2273426 1.0550307 3.7938945 -0.11191763 2.2771976 -1.5045791 -3.818921 4.128511 -0.34908286 1.4316553 -0.31475022 2.5095327 -0.5128411 -0.646924 -1.2566211 8.41398 2.6747103
287 -1.23897 1.1786197 -2.2905123 1.75682 5.662469 1.0584424 -1.540179 -0.80716413 -0.6915216 0.34773624 0.19034253 -3.3748238 0.041129235 -4.751109 -3.8531344 2.8226213 -1.8769623 -1.0863658 1.5641613 -1.0573189 2.9768534 -4.522805 1.4656516 -2.8168554 0.37404713 5.035502 -0.0039326046 3.4623141 2.921649 -1.7356296 -0.04941252 -0.91855896 -1.273619 -1.7962971 1.7366897 0.63452476 0.7991513 0.35486612 0.29861498 -2.852339 0.30658275 0.625436 4.498202 -0.10012316 -3.5807598 -0.5844397 1.2596827 -1.6901017 2.4688766 0.60948944 1.8001287 -1.7546172 -1.1739918 -2.3430817 -0.12263123 1.7789689 0.02646172 -2.6905398 0.8402199 -3.4454024 -3.132806 1.2144356 1.7926663 0.19820127
2259 -5.3947434 0.48863468 -6.9852896 3.2373881 -2.3964372 0.81712407 -2.1253233 -3.3470051 -2.6979673 -3.7135084 -0.79662216 0.5945412 -2.308665 -3.9956102 -3.8114076 -0.30134228 -1.0345236 -4.0735965 -0.5523318 -1.0064194 1.4251422 2.844949 -0.38991642 -3.7498043 -1.7248313 1.7763317 -3.4931707 4.0412283 3.1951547 -2.8022127 -0.5765481 -0.67076904 -3.503803 4.425347 0.2612036 3.6111128 -2.3257256 -5.3795652 -4.3296976 1.5464094 -0.8589465 -2.2498522 -1.6090529 -6.9077005 -2.736577 -1.7091509 -2.1458268 0.28008497 1.983372 -0.3857637 6.379874 -2.9719002 2.7536275 -4.6204715 -0.4596543 2.7741227 -2.7537696 -2.3432775 -2.2868054 4.518635 1.2136743 1.4484055 2.5031216 -0.50878483
591 0.42564902 0.8949571 -3.646721 2.5392065 4.30866 1.5236616 -1.327188 2.6817567 -2.5355856 3.5732276 -6.1559668 0.6078078 -0.27351138 -3.3441813 2.9670894 3.555514 0.25110623 5.1078568 -2.388968 3.2244594 -8.261631 3.2512875 0.4944081 -0.8184727 0.64385426 3.132431 6.3803563 1.7808369 4.169801 5.308953 0.21524821 1.5899836 -1.7208899 3.5334744 -2.6629908 -4.6312776 -1.452098 3.6679118 -5.9814982 3.0126956 3.8725507 -0.1706285 5.1663637 1.9564284 -0.48710835 2.2831104 -3.0085084 5.2342415 -5.1894727 1.781879 2.0504818 -0.8311935 -1.0920877 -0.72570163 -1.4832445 4.8484635 -4.014435 -0.59182924 3.3432336 -1.6197802 -0.14101219 -1.36155 1.4407336 0.73243964
589 0.39090374 1.9207083 -3.5596983 3.866447 2.871018 0.10981015 -3.6455328 6.2308135 -0.88190126 0.76024973 -4.9545803 -0.33348992 -1.0609221 -2.4401953 2.4829931 -0.23936301 -0.93787307 3.6427548 0.5992504 3.669039 -4.3717837 2.431994 3.6306872 2.9799814 -3.2113147 0.39492396 2.1313498 0.8272848 3.2447374 4.9116983 -2.356305 -1.527129 -1.0775888 2.9328122 -1.9902757 -4.7807393 -3.0240474 2.3036504 -7.292357 1.081579 1.3977649 -0.108156845 2.2947538 2.1184487 0.37578902 0.45110342 -0.31783298 -1.0192641 -5.1002526 0.32575637 3.0585773 -4.513393 -5.624217 0.72809005 0.2338445 1.9156494 0.7146769 -1.4401499 6.7973566 3.1185818 -1.5781623 -1.4718896 -0.8681163 3.80077
31 -3.4429321 0.4541628 0.055723634 -1.6930387 1.244455 0.23442617 1.1710665 0.50016963 -4.3040047 -0.31623927 0.04958173 1.3949739 -3.4635313 -1.971363 0.00085083186 2.5528862 -0.5477028 -2.7287295 -3.295521 0.6411975 0.5944284 -0.990724 0.843459 1.4959532 -1.1077564 2.1352494 -2.4355454 1.5307354 -0.3785561 0.32613155 -0.32177037 2.954778 0.14087707 -2.5479991 -0.68093795 1.0746443 -0.7737562 -1.9709632 4.214072 -3.1391284 1.5433984 -1.6713592 1.4439652 1.6943227 1.0562602 0.15570907 -0.4356775 1.1048709 -3.1006775 -0.8862033 -0.41093868 -1.2069814 1.910922 3.0062413 1.0271864 -0.57011443 0.45904693 4.4492965 -0.4342641 1.4477425 -2.4256706 0.43928945 -2.3192818 -1.3506021
44 3.670089 -1.2453606 -0.01781944 3.3766277 -1.6149992 0.86190563 -0.833099 0.72737586 -0.7810577 -3.1407554 1.0316509 4.025624 0.7669712 -3.4096189 -0.005476268 1.4785582 0.8910459 -0.48398456 0.7782786 -2.142244 -1.9900427 0.6053225 1.4505163 0.13521926 -0.3673947 2.9780138 4.1570535 -1.5543424 -0.0671569 -0.76426417 -0.42382511 0.5831834 2.5746472 -0.1923553 2.9410772 -0.79319406 -0.20136957 0.41170213 -0.15042484 1.1836255 0.1790454 0.07854771 -0.34425434 -2.6427944 -1.3401272 -2.764041 -0.47579175 -0.58841616 2.821391 0.20128942 0.666922 -0.1963011 0.24645112 1.5907366 1.5421262 -2.5288632 1.2441186 -0.36475217 0.41656107 0.34584513 2.6997042 -0.7871024 -3.6017191 -0.054469854
997 1.0266907 0.358091 0.3522559 1.2036988 3.786981 0.12244466 1.3824376 2.714287 -0.5381462 -1.782452 -1.2080106 0.15069954 1.3149958 0.34270847 0.031373672 1.505961 -1.8045161 2.7644255 0.01195113 -0.74785453 -1.0761095 -0.8506511 0.17626494 -1.3605056 -0.38551626 1.3583355 0.8361812 -2.438604 0.16824831 0.3493384 -1.0693752 -2.3580627 -0.8483793 0.3008732 -1.5884085 -0.8778268 1.9531132 3.4092035 0.75020385 -1.1611091 -3.5046546 -0.16235201 -0.16979995 0.030534351 2.882985 -0.7394741 -0.9070043 0.3575153 0.868065 -0.49221396 -3.6145036 0.9200463 -2.9553535 -1.7675871 0.8302532 -0.96106595 -3.0533009 2.6906223 1.219091 -1.2004553 0.42197484 2.5551581 3.0695693 -1.6205413
1344 -1.7343729 -2.1884582 1.273275 -0.5191314 -4.761469 1.4473695 2.1494133 -1.289811 0.15117404 0.06361896 0.73050064 2.7369516 1.6010983 1.9279335 0.42521328 -0.33815306 -1.5294731 -1.7469916 1.2187591 0.36615667 0.79540306 -1.515006 -2.235329 0.555998 -3.8553667 -0.1750384 2.7196746 0.9217048 -0.38609886 -0.106851585 1.9412949 0.035572525 3.2596083 0.97681373 0.40930167 0.7985035 -1.37841 -0.8073328 0.5750815 0.37090847 0.69042665 -0.08315678 -1.599041 -0.48457158 -1.6888785 1.6407714 -0.30220774 1.4017781 -4.588155 -1.0679718 -0.85032076 1.5742021 -0.63495183 -1.9774888 2.1408913 0.28541568 0.58382493 0.80341375 3.6410003 -1.518557 1.7985545 1.2847446 -2.4173234 -0.24502313
196 -1.9011676 -2.306964 1.4124157 -0.2865358 -4.868868 1.3529991 1.7913074 -1.0169022 -0.090560205 0.23201388 0.6630248 2.8846316 1.326863 1.9690948 0.37262952 -0.25543633 -2.0468917 -1.0549058 1.4168394 0.683264 1.3197843 -1.5778015 -2.0303752 0.38218123 -3.8241746 0.03276926 2.0856917 1.1315584 -0.68591225 0.075489074 2.171918 0.20628658 3.1817427 1.480536 0.7915213 0.632545 -0.96411693 -0.90029746 0.86620295 0.23608205 0.82797056 0.23592593 -1.3217566 -0.16889475 -1.9620113 1.6444726 -0.31465247 0.6862827 -4.3890867 -1.5371405 -1.4940418 1.6169974 -0.5158009 -1.4610099 2.2664862 -0.07035086 0.9902117 0.6864081 3.308761 -1.5045664 1.5830771 1.2785417 -2.436213 0.09530767
999 -0.53417414 0.6114517 -0.96811277 1.6456854 0.046158053 0.26552582 0.77127546 -0.8935298 0.36938548 -3.1435559 1.0321125 0.8994372 1.2226877 -1.13871 -2.019899 -1.2630788 1.4155705 -4.058813 -1.5694398 1.4540739 1.256114 -2.837766 -0.26601264 -2.654823 2.8256853 -0.42524064 -1.1059133 2.5520077 1.2161433 -0.4140915 3.0331638 -2.0917547 -0.27743408 1.7799623 0.81049603 1.9668462 0.67187536 -1.1563343 -1.0946696 0.64317197 -2.0702732 1.0206997 0.9991817 -0.41606995 -1.053006 2.8748393 -1.2220538 -0.40459943 -0.5644218 -2.4298904 -0.055333022 -0.5614178 -0.28155088 -0.9254536 3.2112863 1.313213 -1.4025565 -0.91018844 0.23422572 0.060680505 -1.1657461 1.7818679 -2.1542952 2.492352
1000 0.4710494 -0.42627475 -0.44551912 2.0122328 2.0309212 -0.14821477 -0.6893657 0.063693605 -0.4673921 -1.1607194 -0.39106578 1.8803073 0.71942645 1.5207018 0.16019952 -1.2161295 -0.5844628 -1.3095293 0.89163435 0.5678437 0.09006679 0.8056333 1.0575044 -1.0110974 -1.3305812 -0.675875 -1.2869813 0.033686753 -0.32471868 0.9149883 2.123712 -0.30695122 1.1649982 1.8563751 0.37195837 0.72512394 0.6046387 0.40612727 0.28947854 -0.070029855 -1.3431102 0.9730546 -1.250475 1.0365427 1.2178237 0.26134253 0.8636861 -0.13165061 -1.6311607 1.4631817 -2.0467746 0.7460823 -0.54896104 0.5372741 0.7927685 0.48473293 -1.5039697 -0.18043841 1.0864307 -1.03169 0.4064509 -1.5049721 2.1954353 0.2056721
1101 1.0151129 -0.4722863 -0.22257663 1.7349353 2.0868566 -0.060419258 -0.44124866 0.42333704 -0.7365845 -0.672852 -0.6425891 2.2871444 0.69359976 1.6434873 0.062198568 -1.0803394 -1.0397769 -1.4461634 1.391618 0.6891841 0.4650513 0.69926333 1.1587143 -1.2766404 -0.8417403 -0.85577387 -1.4695337 0.3921196 -0.05335236 0.90612906 1.7489153 -0.30122304 1.4297276 1.6229432 0.22821392 0.13401222 0.8119298 0.32583982 0.21550795 -0.18409672 -1.7060797 0.7494095 -0.859153 0.8456625 1.0256569 0.872594 0.52620214 -0.1228795 -1.8836521 1.6195962 -1.7902448 0.7669278 -0.39772207 0.84078264 1.0266097 0.20356849 -1.1684122 0.22530705 1.4533707 -0.9195612 0.5076353 -0.855522 1.2454852 0.030342074
2338 -2.6651342 0.04773833 -2.1981175 3.7193813 2.985365 -2.9510329 0.03526075 1.4278755 -3.3278196 -0.469405 0.66142905 1.0551502 2.2581882 -4.7684116 -2.2624793 -0.24452521 -1.4483503 -2.2644556 -0.23451942 -1.0251734 0.9852133 -1.9367452 3.360394 -2.6188338 3.2325153 -0.70247036 1.9552301 3.2539546 2.2499685 -1.2322795 -1.3270111 -0.9434791 -3.895383 -1.9393854 -0.7998507 2.698996 -0.588595 -1.7043406 -1.1763287 -0.70583147 -3.6332996 1.0336175 2.6574602 1.2379744 0.43456545 -0.26106948 -0.32196254 -0.46182397 0.85069895 0.86766416 -1.4733139 -3.2469344 -2.5080569 -2.0970345 2.6475272 3.406206 -3.3367646 -1.7373629 1.4157474 -2.0080595 0.98726946 0.22313431 1.6457957 1.5130174
134 0.49242562 0.058194906 1.3063072 -0.41377804 0.14719617 1.4310331 1.0753286 -2.1852117 1.7204388 -0.24772958 0.92199105 -0.60749906 1.3589251 -0.29631907 -0.47525555 0.100827165 3.2467403 -1.7412317 1.7757056 0.18776307 -0.41670313 -0.43212214 -0.72382617 1.4872606 0.66671264 1.585598 -2.851285 0.7057537 -0.9486702 0.5808186 1.004077 0.5913019 2.3917332 0.7681801 0.77807885 -0.6473173 0.62324256 -0.76944 0.6931276 -0.19364008 -1.6825703 0.49180463 0.6740764 0.7867982 -1.3511213 -0.1453797 1.649679 -0.54227483 -2.415641 -0.87750775 1.0560386 -0.8272381 1.8927537 0.294282 -0.79256386 0.1627764 0.80511004 -0.33135265 1.2320814 -1.0827708 -1.6709638 0.03661411 -0.24055266 -3.2126627
1190 -0.9622398 2.5491123 1.3571701 -1.9256366 2.3364203 0.86060256 -1.9482527 -1.9376633 0.6177443 1.4765041 4.2736373 -1.4668013 -0.010777531 -0.9760863 3.3979185 -1.3508612 1.9401748 3.5050645 3.5534167 -2.29522 -0.36852142 0.78824943 1.1757078 2.8180032 -1.0183043 0.47316372 1.2854354 -0.8333693 -3.0076783 -1.8490635 -2.1959286 -1.0676104 -0.08491762 -0.29378092 0.9193136 -0.9391323 1.0819528 -2.6712987 -0.28156272 -1.0189782 -1.7046107 -0.6085795 3.07464 -0.054947007 -0.5598028 1.7225854 -1.4962976 -0.11248644 0.87684095 -1.1431563 4.9610653 -1.9889704 3.6869733 -0.7478164 -0.72722226 -1.6260921 1.2867334 0.2229089 -0.105662964 -1.7333972 -1.8506857 1.5653615 -1.0224367 -3.20724
577 -0.18695074 0.5716394 -0.9030643 1.747676 0.2201659 0.47485712 0.6795629 -0.3178986 0.8653962 -3.1591864 1.2570969 1.2102991 1.2622827 -1.6636087 -2.0545738 -0.52810097 1.3456424 -4.4273005 -1.7022196 2.0247624 1.055394 -2.612401 -0.3763592 -2.1212215 2.1782205 -0.5305127 -1.3562747 2.4360116 0.76684064 -0.3507296 3.125964 -1.9661081 -0.026594583 1.9766867 0.9512092 2.2688818 0.70318645 -1.2344866 -0.70723736 0.27255508 -1.7876159 0.82229036 1.489821 -0.9940725 -1.0220628 2.3126822 -1.0821964 -0.9072059 -0.4150676 -2.3161283 0.21339394 -0.9470026 -0.15358013 -1.0280837 3.035257 1.498187 -1.2627207 -1.0488638 0.6327299 -0.2925006 -0.6136166 2.1234612 -2.1063955 2.2854824
1421 -1.9620247 -2.940537 2.0318062 -2.6017094 0.16700168 -0.040085413 0.76620615 0.9683065 3.3295178 1.8663666 2.505342 -3.965072 -1.4238684 -2.9158022 -0.23620085 0.7655832 0.63052315 -0.6325718 -1.4202968 0.52207774 -0.61296755 3.2808301 -1.0519607 0.9067543 4.365745 -0.09556966 0.19206263 -2.454986 0.60226053 -2.4853652 -1.9481146 0.99476534 1.8948569 0.6866686 0.5576204 -3.1457417 -1.2836252 0.6411494 2.2198598 -2.98325 -1.9507838 1.3861845 0.75470334 -0.55267066 -3.2575867 -1.6349723 2.3290854 -0.17693807 0.15501355 0.10467025 2.475002 -0.16005124 0.69407666 -0.046808317 -2.8331509 -0.69067633 0.86929613 -2.2612345 -0.23323904 2.6905525 -1.3479395 0.80145335 -0.4447486 -3.91948
1345 -1.6630422 1.7856236 -2.364428 1.1278031 -0.33358082 -2.166386 1.0289092 -4.2130423 -0.7717247 -0.022339685 -1.4730849 0.51310146 -2.1743848 -1.8035468 0.3593411 -0.89616066 1.4510614 4.603915 -3.1400592 -0.43159258 -3.5498931 -2.2146113 0.8178445 -3.4116368 2.5126634 -1.0344217 0.6867348 -4.496339 -1.3333638 0.81987494 0.045706566 1.4042001 -1.1394455 0.6290312 -0.26368463 3.1780152 -2.4373066 4.486491 -1.5869192 2.758949 5.2794495 2.052154 1.9710916 1.7173498 0.7808132 -2.468607 0.53686666 3.554454 -1.8932918 -2.1237915 -0.41645533 0.30168277 0.4158787 -0.84127307 0.9882255 0.46270597 1.6584909 3.1989493 -4.1252966 0.717006 2.817431 -1.8446606 -1.4463156 -1.4385787
701 -0.80290234 1.3962489 -0.8641576 0.8230946 0.7341119 0.65439266 0.9294704 -3.088577 0.47293958 -0.5418083 -1.6298869 1.9188118 0.23931018 0.8379363 1.0772369 1.1735431 0.20006469 -0.90236646 -0.10141893 -0.012116893 -1.717482 -1.668772 -2.0159311 -1.0038478 3.0706916 -0.3586924 0.67359316 -2.104039 -2.6895766 2.6313794 3.2546947 1.1105525 1.8873147 1.2765654 1.7798048 2.2903693 0.17519085 2.4861856 -0.56477046 2.5880377 2.556848 -0.549756 -0.38871932 1.7648438 1.0000049 -0.976502 -2.8110409 3.1131506 -3.0042243 -1.1791804 0.13410646 0.1272947 1.2508794 -0.4046747 0.59690917 3.5547645 -0.047742657 -0.67363656 -0.8876529 0.1743696 1.0025557 -0.98139566 -0.7569919 -1.0160145
299 -0.7040733 -0.78589284 -0.63943803 -1.945857 1.3551526 1.6185404 -0.31823236 -1.1990513 1.10357 1.1424265 -1.0498288 -3.5180738 -1.8994622 -1.7630603 -1.2788273 3.31 0.6242634 1.153161 2.6554751 -0.6571278 2.563459 -2.6579468 0.010416005 0.0866678 -0.78128135 4.2162385 0.10450991 0.5612111 -0.94501424 -1.6474063 1.504745 0.4161935 1.1848284 -2.7387445 0.6051371 -1.3391961 0.41207427 -0.28676596 1.6783992 -1.9811332 3.3639624 0.54877377 2.2182555 -0.303547 -1.6682597 -1.8426871 1.8107114 -3.0281246 1.5032107 -0.5739461 2.7142644 -0.95513356 -0.5475718 -0.075741924 -3.3082283 -0.4055248 3.7200365 -1.8103992 -0.03627117 -2.9510171 -3.2848527 -0.57919675 0.8292616 -1.7897415
465 0.12792465 0.5315831 -0.22875065 -0.23912233 -1.8247036 -1.1647311 1.4155755 -3.2733352 0.51346475 1.0328175 1.2707475 -1.922268 -0.915854 -3.2068455 -0.84802294 -1.494085 4.541109 4.189902 -1.1949518 -0.99004894 -1.9605564 -1.3345715 1.3567781 -0.34616652 -0.25240025 0.7789383 -3.4551046 -0.94549286 0.4926304 -1.6225967 -2.5767999 0.5254319 -0.051118683 -0.20258872 -1.7214426 -0.10375559 -2.3890483 1.0018326 0.026078861 0.12773329 1.1325914 3.3723352 3.25208 0.28673413 -1.6900052 -2.7009299 4.3798947 -0.54009414 -1.1727417 -2.2613823 0.63589835 -1.2867835 1.2490659 -0.4302715 -0.9642983 -2.7729049 2.7911723 4.000886 -1.8425251 -1.4988766 0.39349207 -0.4032349 -1.1069775 -3.8071227
400 0.2391793 0.4630691 0.31641337 1.0476332 3.1704185 -0.42526844 0.41412842 -0.39881867 0.8539069 1.1837305 -0.21252097 -1.9442083 1.3074677 -1.7645745 0.52342397 -0.82709676 -1.1218361 -0.10548157 1.7236904 -2.2290504 -0.5417456 -0.10987048 1.3466569 0.98262405 -0.24183847 2.0957894 -1.9863651 1.2702069 0.0812903 -0.13284338 -2.0990977 -0.35350022 -0.6394935 0.21234101 -0.6234065 -1.3267967 0.25053316 0.7740797 0.34940434 -1.6630936 -1.1075495 -0.06899942 0.45200846 0.09746938 -0.3242832 -1.4025673 2.0276208 0.17976777 -0.055360213 2.7600284 0.048953008 -0.5025785 0.6319352 0.25572267 -1.4565274 -0.68140125 -0.6697552 -0.19864558 0.78395194 -1.8900682 -2.0761876 -0.5871978 1.3318797 -3.275018
1103 1.1698539 -0.046753038 -0.85651153 1.8568932 2.2863445 -0.2817666 -0.74906325 0.13423212 -1.3487655 -0.81060314 -0.4516461 2.377487 0.7828478 1.669461 -0.07720855 -1.3913703 -0.9567548 -1.103594 0.74618995 0.5023432 -0.1334177 0.62997013 1.5096849 -0.99760437 -1.0693231 -0.71810335 -1.7605025 0.10614812 0.02380085 0.98639506 2.2477343 -0.14233114 1.6144168 1.8944294 0.4285157 0.40629634 0.7753304 0.60800254 0.085590355 -0.3480302 -1.1563416 0.6727635 -1.0602068 0.7342493 0.9691476 1.0847869 0.90750813 0.30966917 -1.5953039 1.4703043 -1.6725593 1.2174394 -0.31526268 1.0141354 0.59142125 0.16951433 -0.6638928 0.097240135 1.6550975 -1.1985458 0.22868481 -1.1542429 1.587016 0.13301992
1483 1.3898332 1.2480206 5.9364276 0.88106614 -0.6097894 -0.12315927 -0.74093336 2.0438955 0.8420115 -2.49237 -2.613547 0.9674351 -2.3307056 0.97430074 2.1643345 -0.8949029 -0.18031724 -1.7884737 0.2932224 -1.1524203 1.1024381 -0.22997174 -0.30889547 0.8728078 0.7998337 0.025404835 -1.0212594 0.75196934 -1.2587105 0.430212 4.4100814 2.9395485 -0.24863668 2.9137797 0.08673688 2.490721 0.08799632 -1.1165558 1.9079875 3.2867553 -1.0231539 3.896354 -2.1169956 -1.4678398 -1.0969967 2.2349236 0.5288526 0.6320748 -1.2315948 -5.884831 1.0156024 -0.9856519 -0.6223836 0.23220792 0.25001937 -0.48059696 1.567213 0.12912028 2.933727 1.1296366 -0.38694635 -2.3077326 1.0657897 -0.1698903
1426 -2.5409172 -2.8802059 2.104615 1.2771676 -2.7388859 -0.6559854 -1.7447263 1.3719481 1.0017749 -1.5388235 -0.78518677 -2.2685504 -2.8389816 0.05341793 -1.8587081 1.8428222 1.4240534 -3.6083715 -4.246773 2.2709854 -0.0316396 3.8812025 1.0415697 0.11769334 3.7576869 -2.5828953 3.4796863 -5.446131 -0.958939 -1.759071 -4.419635 1.9543146 2.520388 -0.6648341 0.21895398 -3.6209831 0.29610285 -1.168827 2.7063344 -0.83785605 0.5221785 1.8131628 1.6544533 0.8576226 -1.9998795 0.20670544 -0.15304022 -1.058477 0.95739865 3.3278368 0.5377568 3.1375759 1.4555807 -4.308339 2.0429108 -2.2978833 1.8684753 -1.3132033 0.14820476 6.947955 0.7424483 0.83015347 3.8210309 1.4750315
1428 -0.6991031 0.4384751 2.2560954 2.1396153 -2.2843812 1.3091437 -1.0836635 -2.2919786 1.3385928 -1.7135692 -2.814445 -3.5838737 0.6219354 -1.3686882 -1.1150637 1.0546473 5.4403243 -3.376519 0.20145375 -1.2025039 0.28711113 -0.51857185 2.2960668 2.4527357 0.22245234 2.0380414 0.1969329 -1.7574321 -2.4861577 -0.23016548 -5.8090367 1.4884448 0.13577834 -1.6341443 -0.48583332 -2.9572766 1.5025593 -2.0985317 1.5925395 0.31552082 1.12058 -0.4165975 3.2423954 0.96744543 -2.2398226 -0.91734797 0.29002655 -1.3848519 -0.2550078 3.7123816 1.3249545 1.3044138 2.6357358 -3.5778286 0.7890937 -2.4714139 2.9936223 1.0978944 0.41576353 2.2284944 -1.5393398 0.723561 3.3998377 -2.484952
765 0.3509787 -0.40271577 1.1617578 -0.5013313 -0.10888835 1.7219274 0.33313116 -2.2383008 1.8513222 -0.6175954 1.123845 -0.7242872 1.1929959 -0.71449685 0.033677123 -0.03359536 2.9375963 -1.5912262 2.0364287 0.4195766 -0.38231558 -0.3189871 -0.9062729 1.3349911 0.17991365 2.3885686 -3.176302 0.48376763 -0.931347 0.5182714 1.2358748 0.30703974 2.0090404 1.2618678 0.96612215 -0.6895518 0.18101788 -1.1374178 0.8866177 -0.53649557 -1.9049509 0.81296265 0.22005461 0.27214852 -1.1585091 -0.8158034 1.4435657 -0.516477 -2.4882796 -0.5432968 1.3543403 -0.44505125 1.7431251 0.5316815 -0.88527673 0.32654434 0.9058699 -0.06727901 1.0126883 -1.2596245 -1.2118422 -0.2800652 -0.5861781 -3.218343
1133 -0.80036217 0.52544296 -1.76854 2.5712192 2.9832876 -1.0745279 0.60655993 0.6852073 -0.13225736 -1.1850548 0.105682455 -0.16836958 1.7143161 -2.6396742 -1.1792474 -1.0365177 -2.25766 -2.8790722 -1.3858097 0.01167829 1.2525283 -1.9086597 1.956983 -3.0758748 1.4131585 -0.4628896 0.2358881 2.4186404 1.7147994 -0.6997155 -1.227587 -2.4210122 -2.8816564 0.8971527 0.09227981 1.614222 0.3166988 0.6357547 -0.8183004 -1.192976 -1.5946501 -0.18490854 1.1377211 -0.57086855 -1.0682847 1.9638032 -1.6334966 0.96620065 1.7947071 1.6575301 -1.4544613 -0.7809296 -1.3395798 -0.67916137 2.7450244 0.52963686 -3.0323162 -0.50828654 -0.7762289 -0.12472124 -1.4630843 1.3276187 -0.41480494 1.9817095
963 -0.6808636 0.6869131 0.21552923 -1.4272228 1.37889 -2.9956899 -2.7405727 0.71477365 1.5923645 -3.035172 3.1637814 -0.29602417 -4.4097114 1.8653626 4.1482496 -0.43828788 1.3611395 2.9626036 3.8541539 -3.707143 2.2294483 2.8211985 2.4024167 -0.33806244 -1.9380064 -4.549861 3.4560516 -0.4779399 -4.5852365 2.6275172 -0.8027164 -1.6022112 -1.5441831 0.2305704 1.086408 -3.0461802 0.97598803 -3.004241 -0.12651987 -0.88277483 -1.2279935 -3.1137254 1.4098175 0.39437053 -2.0786002 4.5508337 -1.1094288 -0.2902063 3.470591 -3.1118927 2.4352503 -0.7132426 3.5781693 -0.49492145 1.3717679 1.7846478 -0.43057406 2.468981 -1.6056597 -2.3215563 3.9048104 0.9806599 -2.9830582 0.34346545
1859 0.37965676 -0.8716983 0.29999396 2.0685492 1.9581597 0.051082958 -0.04036771 0.15001036 -0.65480226 -0.76608974 -0.6807309 2.0219417 1.2237183 1.3257445 0.24970764 -1.353019 -1.1264478 -1.8090594 1.3324692 0.3790991 -0.37243667 0.36193362 0.8211808 -1.320157 -1.2927183 -0.43799433 -1.5214747 0.07308879 -0.3872591 1.3699654 1.9647439 -0.6229491 1.8552128 1.7204174 0.711874 0.58023226 0.95107895 0.2459043 0.45695856 0.20851986 -1.3834451 0.8711725 -0.9369856 0.8306339 0.8561365 1.0785066 0.8414133 0.38986027 -1.375951 1.606622 -1.5493345 0.6934837 -0.7643027 0.8574712 0.60774267 0.6225917 -0.8618768 0.3354778 1.3965062 -1.0538924 0.6807974 -1.390468 1.8616132 0.53198254
1446 -0.17457584 0.615581 -2.1033423 2.6563935 2.9984937 -1.0235505 0.52865285 1.0054148 -0.69925535 -1.6010221 0.1090296 -0.546904 1.8906931 -2.4696333 -1.0573412 -1.3874034 -2.2739584 -2.2618854 -1.4175143 -0.2745091 1.2046136 -1.8388996 2.4647162 -2.8124502 1.1159103 -0.5516857 0.15148264 2.3443787 1.8924147 -1.320576 -0.922642 -2.5416732 -2.9647193 0.65696716 -0.18300498 2.2357762 -0.04192967 0.85662913 -0.7224003 -1.223601 -1.3935069 0.2661776 1.1315845 -1.011692 -0.6064133 1.9567823 -1.1584189 0.68496066 2.0580535 1.2961974 -1.6032741 -0.8204448 -1.1953486 -1.0660998 2.4889517 0.21904297 -2.3742309 -0.6004731 -0.5283267 -0.4800292 -1.2665088 1.248172 -0.48485252 1.7450947
45 -8.116912 -1.1263646 -2.8436644 -1.7222716 4.8002877 -1.0119927 3.361292 1.7046033 -0.46677783 1.6029146 -0.8814003 -2.889001 1.0408584 -3.7322373 -3.4462228 -4.535897 -0.3497288 4.7309866 0.09276568 1.8340478 2.0838459 -0.7261298 -1.3885489 2.3534367 -0.64973754 2.3772821 -3.2023854 -2.4632783 0.6828819 0.41485852 2.4442043 4.5199394 1.2952825 1.5753857 3.8457344 4.544468 2.148147 -3.929409 4.448392 3.036189 -3.7009635 -3.2359655 -1.3785831 5.0369105 1.5220529 -2.1398458 0.20270348 2.2716799 4.5983243 1.9772258 -1.8664879 4.283599 0.78300875 -1.7544334 5.3378367 0.6466165 -0.5867215 -1.695671 -3.6829872 -0.8205461 2.0873775 1.1343598 -2.618131 0.08167041
217 -0.8584142 1.1738071 -2.6231391 2.2080474 -1.7048756 -1.9346414 1.1033925 -1.7388003 -0.68809813 -1.9613409 0.6668017 -0.6086622 -1.0164313 -3.9310558 -2.999092 -2.7470431 2.8067229 0.8547697 -4.308989 1.1793188 -0.227288 -3.293851 1.6860027 -4.9081964 1.53948 -1.3145564 -1.560183 0.18841515 2.8257608 -3.0956292 -0.4366046 -1.8527864 -3.5999532 0.23705164 -1.0305464 3.1718006 -1.5503033 1.1906724 -1.803321 -0.16415794 0.7988476 3.1765413 4.0579367 -1.0318797 -1.7802007 1.1289898 1.5474954 -0.35857105 0.80675054 -3.8000212 -0.3881611 -2.1230109 -0.71171623 -1.7948377 3.7980359 -1.4940563 1.0086318 2.871898 -2.2832332 -0.07146462 0.52054065 1.7460636 -2.381273 2.0456312
93 0.058089044 -0.28043163 -0.84018046 0.7653179 -2.0018086 -1.4385334 0.50460726 -2.6551821 -1.0268579 -1.3385957 0.6758773 1.6313696 -1.4265279 0.15239249 -1.3082707 -2.1771872 3.8014524 2.3251553 -1.4683558 1.8686014 -1.339439 -1.0684966 0.32038462 -2.6843352 -0.93460476 -1.6353977 -3.0696785 -1.9435731 -0.1968414 -0.35858536 2.5537314 0.6034079 1.8557159 1.0589249 -0.58672714 1.8521022 -0.9578163 0.910042 -0.14310256 1.7951107 0.69100446 3.2951643 1.9994392 0.8409271 0.37413704 -0.11635679 3.6047487 -0.92297447 -2.4740765 -3.343973 -0.49305686 0.44232008 0.21045858 0.41901442 1.6036477 -1.2266915 2.460654 4.2164087 -0.9269198 -1.0468416 2.6299748 -1.2400742 -0.3922368 0.36794212
162 -0.37207487 -0.03889465 -0.4730059 -1.2324046 1.3055834 1.690987 0.1954079 -1.1265419 0.98076713 1.0964231 -1.0236222 -3.7849138 -2.2031925 -1.2987764 -1.2951747 3.4927802 0.834694 1.0778292 2.536568 -0.88009626 2.1043413 -2.4764776 -0.60266805 -0.57413846 -0.47611088 4.545118 -0.5056487 0.52850926 -0.24200246 -1.8197608 1.4264698 0.20421337 1.1651899 -3.1334934 0.97872955 -1.5625018 0.20574495 -0.34950665 1.329243 -2.323401 2.551564 0.30512 1.5796974 -0.59138113 -1.5417812 -1.3322062 1.4474208 -2.585522 0.9238444 -0.76298106 2.9833426 -0.7269354 -0.7215929 -0.3092743 -2.7944314 -0.6170209 3.9755588 -1.5960401 -0.45585606 -3.2892783 -3.4636645 -1.0643601 0.6980425 -1.2630866
950 0.30205953 1.1736608 0.77781534 1.818589 3.891154 0.61341405 -0.4730417 -1.653263 -0.14556988 0.61027557 0.37603307 0.23723719 1.6754794 -1.4929482 -1.0728667 -0.173512 0.40276852 -1.2904599 2.5592384 -0.8514706 -0.4197683 0.029464219 0.8434374 0.55572784 -0.83523494 1.9669465 -3.0332403 0.9740743 0.5024732 1.6188829 -0.21169865 1.3051766 2.3027587 1.1154275 1.4898444 -0.1415593 0.5418128 0.32078862 0.20693065 -0.2924459 -2.9308825 0.78155446 1.2946154 1.99113 -1.5695113 -1.3584627 3.3834414 0.13749184 -2.6292892 1.488795 0.22901344 -0.9166045 1.3241467 -0.17767042 -0.7765337 1.6085597 -0.93380743 -0.232164 2.823442 -1.9574542 -0.38764977 -0.43300557 2.5789478 -3.6700003
1272 1.1147048 -1.3925161 1.4269602 -1.2435822 -0.7767007 3.1272047 0.43395916 4.1082516 -0.83365893 -0.49483734 -0.13178834 5.256155 1.1053413 2.8924677 -1.9263372 -0.82483774 4.09393 -2.1504529 -1.8067125 1.0009898 0.5945115 -0.47108442 0.25781906 -0.09449691 -2.3352594 -0.8086939 0.23882742 -2.4403923 1.797991 1.5013901 3.0085034 -1.0660669 -0.5621713 1.1579642 1.3427985 0.81994015 5.1351123 -1.5968872 -0.8185419 0.3601317 0.031600352 2.2837045 -1.2427278 3.248512 -0.025827466 0.5679272 -1.5035928 -0.9622538 -1.8809161 -0.47965643 -0.056604557 0.41670358 0.8536521 1.6889158 -1.2756519 2.381894 2.3649216 0.84424865 -1.2552371 0.43096003 -0.17932436 0.3341151 -1.2006559 -2.7173803
1226 -0.037039105 2.7081668 0.7926896 -0.5275059 5.3115797 1.1692499 -2.8830855 -2.0151746 -1.7668395 1.9920064 4.3737917 -1.631987 0.40029418 -0.47004762 3.961479 -1.7240865 -0.74008423 4.2076163 2.48401 -3.3225844 -0.6548045 1.9686663 2.3551805 2.109434 -2.53577 2.9258273 0.9773353 0.044085298 -3.1534283 -1.7147954 -2.4898317 -1.8516604 -0.18633597 -0.2085807 0.11937605 -0.21298908 1.6323656 -0.52786255 1.2072557 -1.7652808 -3.2150676 -0.4159262 2.965071 1.6345352 -0.7804145 0.9822658 -0.22654188 0.92815745 1.38406 1.8733004 2.470154 -1.8706653 2.4355614 -0.33125773 0.889022 -1.2892153 -1.6680835 1.0048169 1.6161617 -1.8156146 -1.2051307 1.3982037 1.9476484 -3.7555141
123 0.8926896 -0.63856655 -0.4696264 1.946587 2.0447063 0.190356 -0.5324646 0.26114714 -1.1753476 -0.8460946 -0.34596512 2.071682 1.2215488 1.6249404 0.13563733 -1.0006126 -0.8413303 -1.4017845 1.2080151 0.2114588 0.31858993 0.42752162 1.0115963 -1.0833143 -1.0239848 -0.68688804 -1.3266189 0.21036297 -0.11633408 1.1812127 1.7496371 -0.14512625 1.4225011 1.2977636 0.63788736 1.1398735 0.42012122 0.69255984 0.5499724 0.19831042 -1.3608797 0.87743527 -0.6204391 0.8582557 1.230159 0.57565653 0.711189 0.30643344 -1.8171839 1.5667847 -1.2587324 0.9902912 -0.68745697 0.98346686 1.095566 0.55041283 -1.0768118 0.4358172 1.2639189 -0.98323405 0.8497981 -1.4271548 1.8540636 -0.2261995
1504 1.0129336 -0.29107842 -0.1548953 1.5685589 2.134435 -0.15983246 -0.15898879 0.49470142 -0.4102643 -0.68743074 -0.34089372 2.1182313 1.0593119 1.5066473 0.12432672 -1.2748014 -1.0693679 -1.3180907 0.8898949 0.34588355 0.21367519 0.51910675 0.5793534 -1.0482706 -0.8435895 -0.8410629 -1.4951533 0.22051877 0.09046892 0.89540905 1.9087824 0.030052744 1.8336564 1.5637879 0.5365917 1.0901564 0.89615166 0.775674 0.27107626 0.100071855 -1.0213135 0.7068203 -1.3170587 0.6574308 0.9964585 0.8246122 0.696421 0.26254568 -1.2398765 1.4542868 -1.904682 0.9675074 -0.72434574 0.8364438 0.610215 0.7076565 -1.1448838 0.043161176 1.5569776 -0.8307871 0.25716874 -1.1619762 2.034824 0.38235366
693 0.24276005 -0.23275141 0.89736664 -0.29146558 -0.16772489 1.3631114 0.6384566 -2.269059 2.2220252 -0.7337999 0.6753348 -0.76038015 1.2439082 -0.49518657 -0.085568465 0.006352843 2.9645965 -1.5710807 2.1028652 0.1352855 -0.33729213 -0.77815115 -1.0871085 1.5346295 0.34968027 1.8506305 -2.7377522 0.5094286 -0.95541096 0.6099863 1.3175792 0.65522236 2.439369 0.4255947 0.7179896 -1.1317507 0.363467 -0.95396423 0.28583822 -0.25592512 -1.5501856 0.19946846 0.55040085 0.82043475 -1.0544623 -0.8271699 1.4878811 -0.6566464 -2.427099 -0.24188556 1.2917516 -0.3974596 2.035039 0.6646608 -0.9830882 0.5479546 0.8969612 -0.19920388 0.930359 -1.3325907 -0.91623545 -0.029047074 0.022622533 -2.7587092
1108 0.23281814 0.25096333 0.30229187 0.2895571 2.7515414 -0.43494123 0.61727244 -0.42735496 0.78164387 1.130428 -0.4691236 -1.3514726 1.491575 -1.9123331 0.3838741 -0.51259965 -1.0029459 0.2853356 1.8147224 -2.0855525 0.20419084 0.2849795 1.3813318 1.3984272 -0.8289086 2.0503366 -1.5477564 0.8458926 -0.031952407 -0.25288248 -2.6890147 -0.3345776 -0.8862712 0.479408 -0.54977024 -0.9831119 -0.14001004 1.3263091 0.5233433 -1.8160743 -0.88949203 0.1717741 0.3893689 -0.10476812 -0.75494194 -1.2170857 2.1319916 0.37730283 -0.5224643 3.1909156 -0.33811355 -0.29354504 0.39797145 0.22699545 -1.5734338 -0.72377527 -0.6255289 0.3098318 0.48321715 -1.3842679 -1.3159726 -0.6306284 1.218691 -3.5529506
1009 -3.577072 -0.31160355 2.1687531 -2.2634501 -2.4452038 1.3220884 -0.03042323 -0.88866764 -1.6627901 2.7122746 3.4641452 1.9370853 -0.11907362 2.1075654 3.6296291 -1.0725774 -2.5811446 3.8081949 3.0185544 -1.7278599 1.957908 -0.26817074 -0.45088142 0.85674155 -5.2467012 -1.3568302 6.314344 -1.0950639 -2.2184277 -2.4091008 -1.6968192 -1.8522469 0.8839381 0.066409566 0.62695616 0.4960236 -0.5384557 -2.5864775 0.18695465 -0.84193397 0.5173689 -1.098343 0.7107829 -0.8597399 -0.9571323 4.0708647 -3.495501 1.2478267 -1.1800808 -1.5393082 2.2310448 0.3008649 1.4870553 -2.495336 3.110883 -1.4394585 1.4645267 1.3748348 2.404165 -1.0352135 2.1646817 3.336119 -3.8765593 -0.14332867
1100 0.7537993 -0.59142417 -0.29213572 1.903698 2.110255 0.03267275 -0.6195439 -0.15393949 -0.6001823 -0.8058616 -0.6166865 2.296662 0.8107136 1.1450351 0.02426452 -0.5828948 -0.9143675 -1.055934 0.7680533 0.67032945 0.3992146 0.73424995 0.8196031 -0.6613877 -0.79861796 -0.6107146 -1.4408262 0.36305097 0.058157355 1.2089525 1.394798 -0.09196863 1.9503448 1.6200042 0.77969766 0.7102973 0.68842983 0.45250303 0.22486307 -0.2020407 -1.2069358 1.0091372 -0.82081705 0.65046287 1.1397529 0.5308982 0.7331164 0.08971824 -1.9646921 1.6580158 -1.0626915 0.310538 -0.69297856 1.3216652 0.65277505 0.3069471 -1.3666766 0.032368675 1.1245711 -0.78396934 0.60385484 -1.157669 1.9618385 0.32445437
102 -0.14931664 0.43910876 0.2179013 0.4319144 0.3802858 -1.4004956 -0.8431198 1.1375272 -1.5188934 -0.7344451 0.29760686 0.9461545 2.1733804 -1.063358 0.9194279 -0.080531046 -4.1373854 0.22002542 -0.72281533 -0.41869566 -2.6309595 -2.0948024 3.8794413 -3.5089376 0.9221089 0.15329064 0.09383711 -0.49544358 -1.2445219 0.4671881 -0.39532062 2.8798318 -1.5663146 -0.37945834 -1.5982667 -1.6638038 -0.72026885 0.011042706 -0.8187346 -0.6947398 -0.4723115 -1.8527746 -1.6357447 0.099880464 0.90414274 3.6099515 0.30242658 -1.1204317 1.1401336 3.374001 -0.771913 2.2538114 0.057217725 2.4214454 -1.6791314 -1.8493695 -1.7906228 0.45558175 2.3368096 -0.7435357 -0.40000564 -1.5776515 3.5936346 -0.73421574
972 -0.5625244 0.924947 -1.0440301 0.52742344 0.73085433 0.08504319 0.80318713 -3.236062 0.6954567 -0.52066123 -1.743998 1.8150468 -0.40020248 0.99154544 1.3887563 1.1299294 0.60856545 -0.7361726 -0.02897605 0.12959781 -2.1884987 -1.47884 -1.9508665 -0.8308495 3.1368253 -0.39135343 1.1659802 -2.4770746 -2.0618176 2.6038098 3.609335 1.5653015 1.7277343 1.4673793 1.442657 2.197701 0.0748005 2.5184982 -0.8188407 2.9619117 2.8479261 -0.6281099 -0.63635725 1.9837935 1.3266696 -1.0981181 -2.4889493 3.2418678 -3.3476546 -1.2790502 -0.04137579 0.61313164 1.506903 -0.6212425 0.21613045 3.3319395 -0.11472084 -0.46169907 -0.8340353 0.053391196 0.7639739 -1.6234088 -0.8337268 -0.47598696
1102 0.6261101 -0.5248497 -0.3575005 2.1616678 2.1292002 0.07014946 -0.3667516 0.03789958 -0.69756645 -0.84959245 -0.62694573 2.3758047 0.90580773 1.6744424 -0.06336317 -1.120451 -0.8648822 -1.6176082 1.1820501 0.34563488 -0.28282228 0.9685192 1.4952693 -1.1571331 -1.1772627 -0.74557745 -1.7903887 0.37780875 -0.3540843 1.1850326 2.4438913 -0.29072118 1.6853608 1.4196401 0.59293085 0.54046625 0.57485837 0.7023885 0.44380224 -0.19871771 -1.2315573 0.8168765 -0.82512635 0.6422727 1.0401442 0.7602263 0.76328635 -0.0959521 -1.1491091 1.4093865 -1.4545825 1.0382608 -0.6301652 1.0303441 0.9044499 0.95050263 -0.9734253 0.25510734 1.1468668 -1.1680297 0.43014282 -0.946554 1.7851859 0.19860174
