2475 64
1 -2.1407294 0.7070384 0.27240753 0.66773206 2.6945624 -1.5783768 -0.790181 0.39548236 0.009294437 1.3873725 -0.061548736 -1.0607888 1.2233884 -0.5085117 -1.3361307 -0.40249476 -0.3816501 -0.69290453 1.5769061 -0.16916731 0.06983898 -0.0010851609 0.10660576 0.17466314 -0.58221513 -0.13632713 0.16435072 0.46198058 0.29386777 -1.3355542 -1.1676787 -0.5105039 -1.3155574 0.75494355 -0.0772346 1.0857211 -0.3062019 1.3387171 0.8721911 1.1524891 -0.1464665 -0.28873256 -0.14339444 0.34061307 -1.9394761 -0.5607146 -0.31200075 -0.091228254 1.6682037 -0.7124851 0.41363126 -0.5280112 0.546072 -1.2179589 1.2333645 1.2004721 -0.42563412 -0.5741235 -1.5979062 -1.7252516 -0.8427959 0.15854703 -1.6537241 0.123483546
0 0.62048125 -0.09983276 -1.0484803 -2.0638294 -1.7690432 1.0466468 -1.1754892 -1.7276435 -0.701309 -1.6866815 -0.7512042 1.2677453 -0.6444613 -0.16857949 2.0320568 -0.12441797 -1.1655327 -0.0903402 -1.9141653 -1.2689342 -0.028164012 0.6861096 0.35953802 -2.772063 1.0173779 0.47691953 -1.191894 -0.5975726 -1.5298612 1.852822 -1.3386108 -1.2903808 -1.4604322 0.91223073 1.7015581 0.13938874 2.032532 -1.8362737 -0.8336718 0.22523269 -0.7229038 -1.0615572 -1.0645472 -0.42972207 0.41008773 1.1900054 0.60273445 0.24289815 -2.446375 0.13110876 -1.0997597 0.04291899 -0.48098388 -0.6828135 -1.0646529 -0.21803322 0.5584827 -1.6411592 -0.84054095 -0.06456497 0.22153002 -0.44949928 1.1404542 -0.8456361
2 3.0896273 -1.1006955 0.2522629 -1.0910234 -0.4614624 5.2514534 3.712908 3.0987017 -0.82938296 -0.25889364 0.49963948 2.2670617 2.8889327 1.2153558 1.2126092 -0.27007607 2.8472548 4.4485135 2.423778 -2.1432407 -2.8095114 -2.0773172 1.8593282 0.9622452 -0.054144535 -3.9678023 -1.2244517 -0.6064871 -2.485943 -0.6434696 5.1171923 -2.8375993 3.4796405 -1.5301205 -0.7362342 -0.9627074 -0.6157432 -0.043998167 -1.0438455 0.017105391 0.600797 5.4960523 -1.1633859 -0.89834595 2.759085 -1.5954907 -2.7725384 -1.3877383 -2.6629477 3.4948845 4.45662 -3.0871122 0.32899973 1.8614959 -1.8543068 1.781406 -0.6930397 7.2041945 5.118688 2.2758746 -1.4158133 1.6801362 -1.4625007 -2.9031942
3 5.017128 2.3034976 1.8554378 0.8973716 0.025152525 1.801728 1.152259 0.85041934 1.1137778 2.299924 -2.7913203 -4.356284 -4.5757136 0.2556354 3.722136 1.609629 -0.084973164 -0.19437478 -2.7871351 -2.1150491 -3.4787223 -1.6980952 2.0560296 -1.9812596 0.9205782 -1.8317573 3.934459 -1.7675503 2.4308205 0.48970756 -3.3150642 2.6203518 0.20636047 -2.3004398 -4.320886 -1.2034138 -3.127718 -3.080754 3.0875194 -8.587053 2.5809336 2.3758404 3.1873374 0.51843965 1.572721 0.9457613 -3.4892414 -3.665119 2.0438848 -3.3600645 1.1017934 -3.8666036 -3.2013276 0.6427082 -0.26688576 -0.06595348 -1.1359138 0.39257297 -1.2614528 2.0730789 1.8659221 -4.228578 0.53384095 2.4459403
4 4.4099407 0.62552303 -1.2047328 -2.415771 -4.639532 -0.74960804 -3.0503922 1.8990078 -1.5246513 0.22734629 4.001949 -4.4987435 -2.2074726 -2.7769606 -2.6583369 -0.4302379 6.696311 0.68982154 -3.0378716 5.2848396 0.97597504 -1.2848966 5.5615363 3.4038131 2.9538848 -0.8686911 1.0223572 2.480139 3.5891438 1.71469 -1.9422114 1.5729146 5.5841417 2.1888611 -6.8289723 4.5661197 -2.0667398 1.7930524 3.4265826 1.165834 -3.0518723 -2.314974 -2.6678164 -2.902058 1.7221378 -3.470123 -4.0502086 0.11490587 -4.3722963 1.2004007 -3.3183424 1.7714343 3.1647162 6.4911523 0.87059844 -0.70627433 3.466366 -0.7886191 0.25184017 3.6645775 1.317277 1.9922159 -1.8221623 1.0532396
10 -3.6031547 -0.21105814 -1.9503111 3.2489681 -1.9932512 3.181525 2.5588214 3.1273298 -2.7317898 0.10547334 7.1864996 0.7372404 -4.897659 -1.6907898 2.5612228 3.038045 4.3044305 6.17147 -1.6800545 0.8838951 -0.18628922 -1.6118577 -0.7591612 -6.7304697 -6.3054566 1.9128978 -0.38257587 4.0581694 -4.1849546 0.09810526 5.5566554 4.8067484 0.6657754 1.313841 -5.434458 -3.6949975 -6.1569104 -1.041844 0.9266615 -1.9733454 -5.2043858 -1.0240175 -3.4141767 -2.4663913 1.7556633 3.482731 1.7401713 -4.914543 -6.6748505 2.7419844 -0.4735893 -1.3274242 -4.797838 -2.985858 -0.8796765 -1.7895956 1.4094951 5.5455656 -2.678441 -5.5514584 -4.4149036 4.0995927 1.0264081 2.757963
21 4.7789836 -2.338038 5.1801977 -3.5059428 -1.1069714 -2.200391 -5.221655 -1.046167 1.7612972 5.0335345 3.1675427 -7.5562634 -2.1260862 -2.7677703 -1.2040716 1.4541517 4.7297273 0.70372707 -0.9724832 0.20813096 -0.83834624 -4.0239177 -7.689714 -7.4740715 0.4878074 -3.4128482 1.5101169 2.9270897 -2.5607214 3.1043854 4.7296 0.973561 5.644605 0.73287654 -3.5131736 -6.7545476 5.590713 1.6986374 2.284008 0.5366156 -2.864858 5.6335926 -0.49679935 -4.8648553 2.433417 7.521035 0.5812175 -1.5834934 -2.3759873 4.560038 -0.33993858 -6.5994554 5.4122286 7.1972528 -0.97553784 -3.2509427 -3.453186 2.2476594 -0.55511767 -1.1075627 -1.9629053 -0.8084508 -7.3434167 -8.284779
6 -2.2172623 3.0982566 0.3713327 -6.6170597 -2.766923 0.34725627 -1.1514454 1.7227813 1.1425252 2.357283 1.6429741 2.8119771 -0.61802816 1.8199012 0.033024393 -0.54587185 2.2614756 -1.8736894 -2.7442229 -1.7583082 0.15521309 0.8502212 2.6254067 5.2711134 -5.244401 -1.4854865 4.5878763 4.5835824 1.8167793 0.8135603 2.1982446 -3.0939314 -1.04472 1.8787603 1.7004744 -4.5640497 0.49943224 2.5495343 -2.9433641 -4.3990493 0.7593637 1.4888649 0.7558742 -5.244216 1.1384863 0.09093003 2.2566774 -2.6721134 -1.324643 -2.7384725 -2.8614361 0.6835592 -1.8085154 6.878545 3.6167016 -6.0869465 -1.8290993 -2.725052 -0.32504928 -0.47685957 -1.3344185 -2.1124792 1.6283278 -0.10075132
7 1.3210905 0.48099393 -1.798344 4.504229 -2.4540956 0.532724 -2.350171 0.6460081 3.4692564 0.743767 -5.569707 0.6458288 3.5296226 -2.5812883 -0.37818375 1.6993376 7.1494117 1.7057645 -4.146464 1.8057612 -3.024542 -1.7407749 4.5837693 -5.8140903 2.4007716 4.941631 5.8541136 -2.9600627 6.236297 1.4748578 6.468544 0.065878585 3.5043344 -1.5865902 0.35469866 3.5063198 -1.4548522 -4.527689 4.614213 -3.6132908 -6.145167 0.71826404 1.0926082 -3.9823008 -0.35407764 -2.758441 2.7767985 -2.1673484 -0.042850107 6.1812572 -1.817772 -2.8930566 0.3606121 4.118484 4.347553 -2.6163392 -4.2299166 -6.062294 0.8150998 0.40760633 -5.045517 8.034061 -2.567462 -0.2437917
14 -4.7386084 3.6482968 4.4963913 -0.3745785 0.1284865 -2.8265564 0.4830106 0.5492097 -2.2484403 -3.6658626 -1.0472602 -1.7139177 -6.489323 -0.06351956 -0.17379087 0.7504255 1.8854469 6.7669597 1.1619813 0.53131783 0.8755578 8.189999 -0.8305714 -3.2927604 4.9745083 -1.4787976 3.73432 0.8992883 -0.71478313 0.247834 1.1123115 2.9171302 3.3497179 -3.0478756 -2.6198404 -3.9174838 0.7864122 -1.2979184 -2.3627908 1.5407618 3.2087107 1.9021281 -2.41047 -0.43909723 -0.9555279 0.55061924 -5.4206805 -1.7651658 -2.7671483 -1.2401221 -0.060788747 -1.2003033 -3.35652 -1.3433146 3.6583967 -4.910841 -1.889917 -3.3049629 2.0871594 2.0519855 -0.35040966 4.264383 -0.031036932 -3.9843512
11 2.4970539 2.284128 -0.61788255 1.0611886 -1.0609868 7.8701377 2.1174781 -4.3259406 -5.8266683 4.7835054 -0.99876875 1.0656077 -0.89482963 -2.0202258 -7.0177646 -2.1044362 7.6174965 3.90753 -1.0455017 3.239014 4.5633307 -4.573086 1.4987018 -3.2167315 -0.5369174 -2.7135909 -2.909741 -5.621271 2.2501702 -2.892561 -2.8261764 2.8384807 0.8076831 -0.62566733 1.5439276 0.9623007 4.09974 -1.7991549 1.9008187 -1.866841 -0.62118423 -0.873792 5.124536 2.113966 -2.8797278 4.1992993 -3.1276553 3.1301198 -5.7113056 -7.1666007 2.1940303 -0.44687378 -0.707514 1.7766422 5.3288875 -5.4417768 -3.4729338 1.9911628 -0.07433245 0.17395122 -1.7339696 1.9707656 2.8584836 -0.9439793
13 -2.2100663 3.3622367 -1.6529019 4.0121017 -2.6127045 -1.3215873 -0.1167157 -0.92304945 1.0119474 -5.93811 0.1564149 -2.1099463 3.2365382 -1.8568115 -7.0961885 -1.1225406 -0.9541307 -1.347849 -3.3971305 0.75322634 -1.594266 -1.467527 4.067731 -0.124875605 4.321586 -2.470418 -3.6726692 2.4249403 -4.3451867 1.6060926 -1.3032856 1.5293893 2.9833736 3.5550537 -6.644627 -6.0871143 -1.1562176 -3.7327187 -7.527307 -6.4105577 -2.2210984 3.1364648 5.2533946 -4.0193176 0.5446043 -0.8161154 -1.8794628 2.7130516 2.8721051 -0.763738 -1.893391 -1.551846 -4.523451 3.1726563 -2.6720495 1.5770679 -1.9223163 1.0323344 -8.233653 1.566225 -6.4549713 -0.80516464 -1.3139318 -5.934197
27 0.82894003 -5.5094404 0.54753697 2.6208346 -7.935958 -0.5902425 1.3212457 2.527771 0.61835665 -5.5426874 -4.462043 -7.498351 0.48196477 1.047907 -3.3994966 -4.399882 -0.40620545 5.7866282 -3.823034 -2.7189262 -2.3419967 -3.7227662 -0.7808825 3.1935372 -10.472545 -0.82202 -1.7351834 2.5231638 2.0490096 -1.0559684 -6.856363 -6.55457 0.6763226 1.2945784 -5.7272997 -5.1633554 2.3108091 0.3601099 5.1836658 -6.3339705 -4.9305015 3.684383 -1.0054525 -3.6910782 -3.5185382 -4.0930195 -0.85997415 3.4878469 -2.555532 -6.2195854 -2.3879607 -6.2207494 2.209243 0.23359254 3.5009346 -1.8503709 3.5378296 -5.369856 3.263472 -4.5456257 -0.3906151 7.2085905 7.910432 -4.3710194
12 6.0879345 6.3720007 9.922211 -5.9793124 0.99909186 -1.2764621 2.7604454 -3.701852 -0.24039903 -2.0098927 3.4601114 -4.094862 3.147612 -1.0732067 0.42045555 -2.3425364 -2.4655766 0.4311178 -6.013389 -3.478571 -1.4187382 -3.1318622 3.2492595 1.6290678 -0.82687265 1.4525677 -2.8312554 -5.3558536 2.2114918 2.1134574 1.577347 -0.3793511 -3.514358 0.29096866 -0.56389624 1.4789855 -6.037764 -0.38423452 0.65407777 2.5167859 -4.719135 9.161253 1.098041 -6.5956 10.4779215 5.958986 -0.60475224 5.462461 -0.86707675 -6.365904 -7.116825 4.006532 -2.015137 -0.080834515 2.470647 -4.830385 0.26681882 5.2120533 3.2883642 -7.464557 -0.2786698 11.772491 -8.835314 -2.2849405
8 -0.439681 7.0429177 6.688805 3.0153234 1.4524893 6.8370643 -1.76468 0.97431034 2.2164245 3.7926862 2.9052863 -3.7629964 -0.048056945 -1.4529197 -4.884998 -3.94673 3.9352114 3.846041 -4.1084685 2.132479 -3.3142087 -0.031509716 5.2648916 -3.2758124 1.0035911 -2.7106867 0.19067726 0.97694784 0.0408228 3.9311523 5.552677 0.39992163 1.4582343 -1.1184735 2.180485 -7.313089 5.5032897 0.27287316 -0.009386323 -1.2980226 -2.3371198 0.20854275 3.029099 0.17007165 0.51736397 -2.001626 0.39734283 -0.38247597 -9.512961 -3.3319416 -0.41087574 0.42365196 1.5286824 -3.1370049 3.164621 6.237306 -3.041526 -2.6325378 -1.3379303 1.6407084 8.225145 1.052843 2.6837845 5.4394245
15 -0.91959226 -1.1077685 -2.180877 1.9253494 -0.51207083 -0.23468447 -1.1876428 -0.9089248 5.364055 2.5094075 1.1900923 1.1445217 4.443818 -1.1893432 0.7389703 2.7096841 -3.128445 0.35157785 1.3857661 1.8348122 -0.5637183 -1.0255458 -4.9760942 -1.4820176 -0.4749114 0.47695184 -3.672492 3.6563196 0.3297796 -3.1519005 0.24633083 1.5291651 2.766726 2.4406617 1.8583298 0.63973385 -5.758605 -1.09846 -0.1516139 -1.5858815 -2.5485628 -0.3726987 -2.7259922 -3.1910028 2.9998674 2.6416724 -0.64667463 -3.4608822 -5.253804 -2.5564835 3.629492 5.286527 -5.203647 -0.9090037 4.527116 1.6224017 -1.4302431 1.321652 2.352712 0.45766854 3.9870548 0.61919063 4.4732304 -5.787737
23 5.213487 2.279098 0.12864162 -3.0619016 -3.1465194 0.28199932 3.962057 0.30247396 -1.8436357 -4.564898 1.3363163 -2.4118536 1.578002 -3.0802393 -1.000594 -0.8301401 -1.7733222 1.1256167 6.548428 -1.9585181 -1.0667319 -4.0918264 2.0986736 -1.3050653 -5.5932465 4.244848 -0.17553374 11.747637 1.6525822 0.6103644 4.8268857 1.3368368 4.1087914 2.038534 -2.4678512 2.9632068 -0.24214074 -1.1729 -3.4675722 -0.13588883 -3.2814126 -3.0662136 -4.668288 -6.520046 1.3338711 9.52379 -1.4852214 -2.4622362 -1.6298047 3.6308033 6.540414 -3.8168266 -5.1990266 -3.9156594 3.5656698 -2.3922346 -6.4433203 4.172289 -3.0207374 2.2947593 2.5648694 4.219954 8.2120695 2.0691798
33 4.6302114 4.395269 -2.2093296 1.2129327 -3.4918754 -0.30430964 3.894882 -1.75345 -3.2680469 0.3224225 2.6453753 -1.3773075 -5.541948 1.4024365 -3.7335384 3.513056 -0.62450784 -3.0005283 4.539716 -4.7764287 -2.3044655 -2.9931507 -0.057329677 -0.5636963 1.6710391 -4.7475014 0.52380455 2.154944 0.86856997 7.430563 4.7444577 -1.987781 3.3566842 1.8113488 4.9837203 -1.0806841 3.7799609 5.4863014 3.7061574 -2.1594791 -0.48226982 -6.429996 5.218821 -6.4697247 -1.5277337 -1.2302908 -0.82465315 -10.929873 -3.4053166 -4.013494 0.24529618 -1.2156491 -4.810984 1.7907516 1.0898727 0.8429949 3.091855 -2.1665893 0.22770937 2.4992359 -3.599217 11.030891 -2.9002428 -0.5017963
16 0.33332857 4.921633 -0.37692735 -1.1765952 -2.0685039 -0.5565869 -3.9538999 -6.9875293 1.8794758 -1.9793842 0.061873175 -1.5271705 -6.631893 -7.801541 -2.7323065 1.1856405 11.015486 -4.3963614 2.19154 1.3190601 -1.5220755 -8.392209 4.7799096 -0.023832913 -1.6061195 -2.0085351 -3.0688753 -0.24321595 1.2751602 -5.892394 6.5401073 -10.405737 4.0400095 -5.1541543 -1.3744516 0.83406496 2.5875816 0.029199082 5.855702 1.0341383 0.32280755 3.2109137 0.68664575 6.057457 3.168177 -2.2714858 0.11533121 3.332377 -4.8340287 -6.151277 -0.12768905 2.8962739 -6.471312 -3.5373514 -5.7592177 -2.7597554 -1.4914587 -2.4261768 -1.6826609 -1.0470021 2.4925215 1.917 0.24798071 -2.77706
42 4.8049455 -0.512748 -0.52479583 -1.7597839 3.8221848 -2.3306937 6.5225544 -3.3144977 1.490078 -1.8730325 -0.10230427 -3.3290431 3.0151896 2.6102335 -0.18894888 -3.9091768 2.8103411 4.375902 0.113090895 4.201024 -6.7073727 -3.3423715 1.2503775 -2.2346308 -3.2149231 -3.0718036 5.1788874 -1.4381107 -6.1958055 3.2608483 2.9359114 1.7079897 2.3271294 4.0398006 -3.8226519 0.576621 -0.27032363 1.7735654 2.4484153 0.29743752 6.693972 -1.0241575 -1.5381649 -0.029104443 7.8725243 3.983601 5.3739457 -1.2524055 -3.1989584 -1.7252626 -2.7436771 0.9163543 2.8572855 2.7665892 -0.4954138 -4.1021547 -2.8531582 0.78967404 -0.24959102 0.2563374 3.5156994 2.690132 -4.729806 -9.451326
19 6.010804 -0.13194665 -3.4848185 0.14939171 -1.3558112 3.6695378 -0.008195574 -2.3845963 0.15441489 7.931809 1.8548937 -1.4946778 1.578819 3.0392537 -0.3886496 -1.5493743 13.471903 2.5901759 0.7704263 0.7794906 -2.030835 -2.5122132 7.2101603 -2.875161 3.9378185 7.5413785 -7.851571 3.0757306 5.1483192 3.4517832 2.129347 0.24584682 -1.6112423 -3.8898208 -0.92854965 -12.128733 0.90491015 0.2079415 -0.474003 -0.3581907 5.6673965 -2.1912663 -1.0432053 -0.75639355 -0.5263847 2.9851668 -7.8904696 -2.3110218 -1.0874201 -4.5788655 0.8381446 1.1538771 -0.545259 -2.4050283 1.0797998 2.2359328 1.7879078 -5.403687 -6.5289683 0.50572425 -0.060672473 7.7109594 -5.105567 -2.6940255
1442 -1.1247845 0.11768015 2.1339386 -2.1367197 0.9380485 0.5166512 0.24021395 6.0915976 -1.5771925 -5.779311 1.354583 -0.28533897 1.2478396 -1.0083257 0.13615765 -0.37303603 4.0799017 1.8844705 3.5761533 1.5276002 -7.5620666 1.8757925 -0.8671726 -8.060514 -2.1775486 -2.2502337 -1.8493321 -3.7838433 2.4704359 4.8198247 -2.2932196 -3.4145055 0.32406542 1.7957668 -7.0725474 4.3327003 -1.5448673 0.20233762 -3.478341 -1.9750593 -3.610283 -1.5633416 1.3078631 0.19994581 -0.21409705 -2.0804708 -3.7946167 -1.757991 -4.615317 1.3935865 2.3876417 3.0499058 -2.6277359 8.833315 -0.114260875 -2.4468343 -5.958965 1.4656214 0.93233454 -10.144397 4.821562 -5.364047 -1.9794918 2.1610303
30 -3.2277308 1.4161556 5.183935 4.5986547 -4.4801927 1.3358487 -2.1532285 1.3379686 3.8896146 5.9621735 1.6953323 -3.382596 1.1558642 7.4057407 4.649624 -0.08540769 5.5965166 2.074764 -0.75539404 3.144707 -1.2877004 -1.1029137 8.1391 -2.143216 2.9577284 -1.0075366 -4.1659627 5.041364 -9.91538 0.4170094 2.4996994 1.2928728 1.470544 -5.8200803 -2.5042248 1.6919625 6.798021 -1.1820031 -1.3047616 -2.0836387 -7.1867037 -1.2229315 0.279168 -2.7744937 3.4273329 3.4983692 -2.7800372 -8.86694 6.989161 -4.9467025 -6.1916604 -2.4397151 -0.19206811 2.0962965 -1.8048754 -2.0450242 -4.097322 0.8154723 -0.8030071 1.6507732 -5.1007094 3.6155329 3.1546583 -2.2030041
5 3.727744 0.8030286 -0.95772225 3.8586237 -1.7393285 0.7615194 -2.0975587 -3.7487497 3.6865814 -0.034984533 -3.691458 -1.6738744 0.006164126 1.0015405 1.8448806 -0.80760294 2.4455776 1.093014 1.7734026 -1.5832419 1.4834925 -1.8615161 0.59731936 -1.3748795 -0.11436286 0.28503293 -1.4246229 -1.7882599 0.2317099 0.83332396 0.23364548 -3.3940296 5.292871 0.99770737 -3.8724751 1.0737112 0.32363355 4.6928096 -0.16162607 -0.40682453 -1.7932538 0.18026493 1.8716726 -0.7788722 -2.2199597 -5.024706 -0.12389462 0.5852317 -2.414298 -0.7497356 -1.5674444 0.01394672 -1.6328043 -2.4673135 4.5172744 -6.8938365 -1.1075253 3.0663505 -0.8682159 -2.0768704 0.52817154 -3.0929291 -0.34687355 -1.651551
1011 4.175038 1.1030743 -0.36146235 -0.80339843 2.7259994 4.5320687 3.2678957 2.8609347 3.7146294 0.61991554 -1.1738477 2.638571 3.6825688 -0.09514208 3.3528059 2.298149 3.810559 -0.75244355 1.7649417 1.6055378 0.18748148 1.9996349 1.3353379 -0.11564117 8.396547 -4.2146964 2.2685163 -2.6471705 0.055809096 3.117638 -7.647122 -1.6401525 4.369484 2.491998 -5.3323236 0.66793597 -0.60169345 6.6760893 -4.054819 1.1005292 -3.8704996 1.1767154 -0.36122802 -1.6457154 -1.7210469 2.0132809 -0.76228964 -4.3855267 -4.8717957 2.3556414 -1.0881702 -4.545177 -0.09519041 -0.5054499 0.9001567 -5.4725704 -3.081508 0.4996543 -3.734915 -3.6302345 3.9187906 0.37176895 -3.3587775 2.2474139
430 2.1352642 -2.299345 2.0969055 -4.251206 4.9060946 1.886595 4.323292 3.1930108 1.37445 -2.159018 0.57638186 -1.0364772 0.23308247 3.3346853 8.0570755 4.1006494 1.3548691 2.3865101 -1.6800885 2.8186374 -3.8168523 3.311012 2.9048753 2.350753 7.0566797 -2.6906164 -3.3757634 -1.6173126 0.22634116 0.5806533 -5.175059 -1.710916 2.4678621 5.707503 -7.829109 4.7345347 1.0056033 1.5304006 0.47206813 0.74223644 -2.393334 -0.8965254 0.75909394 -1.639086 -8.536913 2.0238314 2.0455813 4.164286 -2.5486488 -0.4319155 2.0338397 -2.0032177 -4.1896996 5.520184 2.1118996 -0.7708172 -6.228937 1.7111343 2.024301 -4.9098325 0.05283774 -3.055541 0.72413796 0.62954676
157 -0.7297174 6.642271 0.5689614 -4.648987 -0.9108809 -0.7336695 1.6021487 -4.1230655 4.40512 4.8805695 -1.4715894 3.624003 -0.26191178 1.3121171 0.080092624 0.759896 1.0515231 1.5305521 -3.7548134 3.551382 3.0557046 0.8039528 0.10911795 -1.3351884 -0.14008455 -4.565828 -2.7397842 1.7958539 1.4518203 3.371533 2.5603447 -0.058752585 -0.72878796 1.5721653 -3.8715806 1.0234696 -4.2763734 4.7350388 -2.1743126 -8.978125 0.22262695 -0.781128 -0.14865139 2.0090656 -0.45942867 -1.7746291 -0.90709704 -2.9108014 -3.668294 3.4650486 -1.1991724 1.4725724 2.1245074 -3.7787097 -3.5576053 -2.451164 2.5481105 1.1704818 5.0774155 2.2318118 -3.5246637 -0.21199267 -2.9722452 2.4145055
769 -0.65958786 4.229363 -2.2012815 2.3671844 -0.56921697 -2.5064754 -1.4840121 1.2471085 -0.9714752 -3.9733934 2.730612 -5.43917 -2.6841786 -3.2734969 -3.4268146 2.7079902 -1.3417946 4.809035 -1.9144362 -1.3560847 -4.6389446 4.5084257 0.70167625 -5.3849497 0.9290671 0.6015639 -0.79383934 0.4104815 -1.0008692 1.3141873 -0.30756098 -3.9599724 -0.85436535 1.1254865 -1.3106053 4.3045297 -0.2860833 0.96930015 -0.05614762 -3.8871439 3.9954622 3.5221539 -2.1021588 1.1792624 -0.5152819 -0.71023923 -3.0002375 -2.7121112 -5.5354733 3.9655213 1.1081197 1.4379374 -0.46580085 6.312209 3.5188754 -1.9128342 -1.3596104 7.208372 0.04713178 -4.1886625 1.0486374 -2.0643215 0.65302193 -0.02832202
40 0.41261002 0.96021605 1.5852957 -3.6626968 -6.1264 -4.8873687 6.237993 -3.3968933 0.6892177 -0.10847123 -0.52257586 -3.3178692 3.61621 0.38697794 2.2015765 -3.670011 5.3441496 -0.42429754 -4.547366 -0.30465347 -5.9648643 1.4144565 -1.025307 -0.7522808 0.3763664 -0.6816413 1.8049842 -1.4016283 -6.022169 2.0099492 -0.0951409 2.6217303 3.4866557 2.1808274 -1.9776186 -1.8035367 3.0226429 -1.9633914 -1.0223274 -1.0133601 -3.5894294 2.487247 -2.6301467 2.219237 6.6104083 0.47316998 3.9942865 -2.4308658 -1.0789912 -5.076151 4.8107243 2.9654481 1.1017748 -1.1796479 2.9303787 -0.13252251 -2.729991 9.11167 0.7872567 -1.0377244 -3.520368 4.12835 -5.5501547 -1.156975
1393 2.2763684 0.8003399 3.873491 3.7830486 -2.747479 3.847432 3.4106169 1.4154612 4.312809 -2.6026926 6.675135 -0.077682875 4.304573 1.9771107 -1.7522348 6.097925 -3.2579958 -1.226748 2.70239 -1.9361279 -2.2203321 -3.1341932 -1.4088591 0.5894625 -0.7921964 -0.31227982 1.7381179 3.6138139 2.6594024 -3.794444 -0.7753315 1.9224653 1.4749198 -6.364098 3.2416494 -1.640234 4.0412455 -4.3188353 -2.4814582 0.044736795 -1.5021467 -0.90366405 -3.7037 3.4374518 -2.7168076 -0.19138372 -3.578472 2.1691709 -4.937098 1.6606963 -1.5961474 0.99534976 0.28377694 3.347106 -4.7187405 -5.3654256 -1.0205139 -1.4703974 1.1763467 -0.3631779 -0.9404231 0.84967804 -4.0636744 -0.10851257
9 1.6443654 2.0882647 2.3026514 3.1604598 1.3459915 -0.23568864 -1.4654162 -0.7990059 2.7749557 -3.3887281 -3.5061824 -0.392131 -4.438936 -1.093604 0.7894026 2.6226583 6.0827127 -1.4672734 0.37748083 1.8839175 -5.4669247 4.3799734 -1.6948684 0.12115956 -2.467169 -0.72351027 -3.2250957 2.1864278 2.1222012 1.9371291 -4.121994 3.472441 3.0367365 1.191541 -0.3352183 -0.93647784 1.5095382 1.674655 -0.15972435 -0.8278429 0.8890947 -0.37587366 -2.582952 -2.4193985 0.048109133 0.20952715 -1.4089352 1.812522 -0.5150828 0.8199334 -5.2669463 -0.69579834 -0.75798035 2.5389695 1.1604267 -2.3171692 -0.3004805 3.6376874 1.2258283 4.47311 3.31042 0.24733299 -2.0497603 0.3250966
36 0.0967344 1.1436956 -3.1372201 1.4634264 -6.0308733 -3.0992134 -2.6232119 -5.5795536 3.1135738 2.9821181 -7.8229856 -7.0137525 0.27305382 3.7829092 -1.2562163 0.86943555 5.0279026 -1.1922038 -4.761031 0.23515296 -4.9654803 -8.028178 4.1878757 -6.0194864 0.9102406 -1.3892871 -1.3485498 1.3624514 2.8211951 -3.251538 6.7744923 4.333959 -2.7737582 -3.4689603 4.450133 -2.173881 0.68556803 0.25370926 4.3738837 6.9428773 2.2286766 -2.4119756 2.8182652 -10.106113 -1.4930829 -6.730366 -3.640411 -2.9296448 -7.8554754 -3.6746128 3.996574 -4.16883 -2.6670752 -2.50552 -0.5507784 -6.565322 4.423009 3.406971 -1.0614586 0.034979265 -5.2139864 0.01297223 2.1515875 1.1545682
47 2.5908797 -2.0441594 -0.23925658 1.8752925 3.5593803 7.6746697 -1.4530694 -3.2659056 3.7397482 3.52234 0.5836834 -7.160451 -3.055757 4.093891 -0.8027218 -1.7248771 -2.488821 2.5698292 0.27518737 4.3697376 -4.8661323 -0.79183817 0.5799081 5.260608 2.6471415 -6.2142034 -5.278192 -0.6549127 -0.5290799 3.4463573 6.709711 -0.23157305 -4.0142593 -0.86853224 -1.3900284 4.8104043 1.3462964 -5.634563 0.50862044 -1.323836 2.122888 -0.9524507 -6.1556287 -4.6624274 4.724034 1.4893277 2.716208 -7.046601 1.913986 -1.0973972 -0.26691267 -2.7663352 0.9871479 -1.997345 0.24113892 -8.667095 -0.22220138 -1.0136079 -5.0551877 -1.5501413 -1.8232472 3.715034 -2.2528677 -3.612746
22 2.71456 0.9281828 8.246269 -0.22776188 -2.8125322 3.9219968 2.3031518 0.19263625 1.7980617 -3.240333 1.8358237 1.2523887 -1.4321886 -2.0211632 -3.184187 2.4896426 1.8938133 5.334098 1.5050844 -4.2050533 1.9383433 2.7347066 6.952377 -3.3090184 -5.369125 3.2389078 -2.338662 6.0159764 -2.1771579 0.26539445 4.1912107 6.0126076 5.539296 -3.0964332 -3.035293 2.492956 0.57246095 2.0333571 2.1537204 1.9153548 -4.6625423 -1.4294603 -3.505747 -4.8957825 1.7365248 4.728992 3.8204575 -4.0453544 -0.5523953 2.0934002 4.6444235 -1.1733104 -5.7020516 -2.3746712 3.2861078 -0.6188214 -0.56207675 1.6716455 -5.774928 -0.03964754 4.4836035 -2.0446105 3.7693038 -2.7121098
1484 2.7593868 2.2507448 -2.742816 -1.5561838 -1.7387956 0.19723815 1.3491912 -2.9016995 0.5406678 -4.299366 -1.5928843 1.7171276 -0.05435655 -5.0707293 2.2216876 -1.1932157 2.9904118 -0.42452282 -0.8097468 1.332378 -1.2244155 1.1796676 -3.1161516 2.4747179 0.6002392 -0.04989534 2.4425666 6.146351 4.889943 4.171851 -2.8058386 -0.8976671 -6.1765995 -1.8053639 -4.200539 3.8702617 0.6657725 2.8229625 1.8139504 -1.6059037 0.051480412 0.14673911 1.7761302 -2.2261913 1.8168201 -2.2447214 -4.3339124 -4.0254555 -3.9615464 1.9340549 -0.4169442 -1.4346907 -1.1167465 5.507952 3.8765237 -0.66320026 -3.0440402 -1.6660329 -0.026976665 -6.2124457 -0.3076641 -5.283673 -5.805813 -2.9676704
897 0.80691755 5.1818323 -2.294126 -2.01402 -2.0250058 -1.1673087 1.5720221 -1.5815734 6.4595065 0.4955003 0.9329276 0.060980357 -1.2980194 -4.1457458 1.275854 -0.03571604 2.3729255 7.595169 -2.384789 3.282261 -2.7239385 -1.9232353 -1.019887 -3.4637408 0.6726849 -4.378308 -3.7922828 -0.6727711 3.4732006 0.9560602 -0.423993 0.6810293 1.8069776 3.5163739 -1.038294 -0.7408254 -2.4926941 -0.29862592 -2.0745559 -6.018585 0.8660601 -0.4951756 -1.2154071 2.4641917 -1.64637 -0.5051524 -2.7728205 -6.2516975 -2.122094 1.6624949 -5.3564925 -0.575426 4.446376 1.1139443 -4.36245 -1.1539869 2.6233616 3.7553313 6.601818 -0.6997867 -1.5101885 -0.33601043 -2.3144567 0.82826513
110 2.8843307 -2.0753186 -0.6281386 -0.22906995 0.9075454 -1.3914453 2.8624465 1.2563114 -0.4523069 0.8142141 1.1255428 -1.6501693 0.4683504 1.8761908 5.783551 3.1717143 0.6309887 2.845599 -3.1812198 0.9412438 -1.7790208 2.6227958 2.4019654 5.7299094 6.529733 -3.0345075 -1.0586252 0.5599479 -1.4854144 1.0597842 -4.9513354 -0.32478315 2.0937874 3.3155987 -1.9386725 5.803488 -0.057100914 0.33071795 2.317075 -0.44180718 1.1975642 -1.6011133 2.9030237 -2.719895 -7.063794 1.46996 2.1566658 3.4408824 -3.7481856 1.5282327 0.3768029 -5.860775 -4.586885 2.8946 2.6859472 -1.0363282 -2.9943483 4.2221293 3.3709137 -3.8438363 -0.03734401 -2.095621 -0.25366157 -0.6489297
41 -3.5865035 -2.8126485 -0.9160047 -7.0084543 3.916526 -2.3387594 6.9215503 -3.7693539 2.216028 1.6579349 0.5421673 -7.9173207 -1.4031237 -0.46157265 0.32700646 -6.8361025 6.504292 -0.52618355 -8.28802 -2.8294883 -4.9066277 -6.7139544 -3.375044 0.6545262 -2.0983045 -1.5363827 2.6373937 -6.3714714 -7.2629848 8.0661335 1.1491215 2.6420736 1.2763253 -2.2031505 -5.4763513 -0.34609014 2.7820604 -0.34366176 1.0752842 0.016635109 0.70220673 1.2102308 -4.9768834 -3.0525558 6.3959117 8.981289 5.090235 -1.3181022 0.23428157 0.9726519 3.7248974 1.793524 -2.0998914 2.3881779 4.735222 0.07020442 0.26423278 5.1422577 2.7895975 0.9244448 3.4121008 5.2969055 -7.1450324 -6.673717
17 4.666453 -3.0056489 -1.0815933 -4.5375543 -3.1565447 4.4462357 0.0878844 3.9018774 -0.97881263 0.06603871 -2.4285145 -2.9230862 0.7636816 1.5553952 -5.9560914 -1.1529181 4.502879 -0.48187494 -2.5908332 0.8205337 -6.8984957 6.6983023 -5.2886777 -0.98150903 1.4780061 -0.4976405 -3.3782141 2.311311 -2.4292927 -5.178652 1.3556483 -2.008408 0.40333077 1.967723 1.4856042 2.0247662 1.2185937 5.107044 1.5622505 -5.487134 -1.1999123 -2.4933987 -3.7542386 0.3283303 2.9725008 -2.1738415 -3.2011256 -0.24724221 6.21591 -2.8083193 -8.812648 -3.6198692 -4.1926265 -8.596898 3.9166186 1.1095674 -4.0060596 1.1060627 1.6207873 -1.0976995 -3.7763605 -0.7588413 0.82067275 1.0257705
973 -2.8889422 2.1898494 2.89632 -6.171383 1.9444861 2.8714013 -0.7104599 -0.34403455 -1.0726743 -3.1308856 -5.4209676 -4.3180976 -2.3504827 0.47213864 4.782618 1.731046 0.9598592 0.5550401 -3.288974 4.766238 3.7541502 3.5930312 1.6073273 -0.72757417 -2.7876365 1.5909715 1.9481698 1.8462038 2.7467515 -2.1575587 2.7995794 -0.14756149 -1.4388521 0.8067082 -4.1965322 0.17750186 2.3296206 1.4949896 0.22916836 -4.660042 0.14155963 0.30289212 -3.4533436 -2.5534031 -3.9304404 -0.24241742 -4.287083 1.48832 0.033791535 -2.4133213 -0.19131355 5.217216 -0.24633968 4.3862786 2.5576947 1.2593627 -0.37337518 -0.8771529 -2.4985101 2.7581878 -0.2409369 -3.1550457 -1.188421 -1.4166014
111 0.803094 1.4234847 0.13751255 -1.0629354 0.28866327 -0.48045528 -2.4322624 2.1254196 -1.5238688 1.2455626 0.1622253 -4.622262 1.2230177 -0.37391266 1.0840901 3.7568243 1.6623908 5.2098513 0.6894173 -2.8370652 -0.7376027 1.0504205 1.2790494 3.2516072 2.4177206 -2.7470124 -1.6110475 -2.499638 -1.5896908 -0.16747886 -3.0562723 0.2633192 1.3804766 1.3208615 -0.9302518 5.699157 0.8476488 0.5523025 1.8491077 -2.82723 0.2052587 0.62339216 1.0778594 -2.3886774 -3.4911137 -2.0640686 4.568897 3.003007 -3.2954018 1.3263036 0.2630575 -1.542327 -5.453558 2.3440826 -1.970711 -2.5413435 -2.625725 2.518985 2.4827178 1.6438589 3.4937913 -1.7277954 0.22851877 1.5145006
92 3.7416575 -2.0475142 -2.2433083 0.71009356 1.9578727 0.84593326 -0.77707136 0.48616552 0.050488304 0.8460436 -3.9297712 -0.68810225 1.2181339 -3.040821 2.2218554 0.15505606 4.7871876 1.664206 1.5843911 2.058154 1.6196305 -0.66539747 1.928418 4.564168 0.2955978 -1.4468213 -0.61439496 -1.8639551 -4.563379 1.1674684 -3.8260381 2.6391046 2.1528828 2.3335176 1.3919047 -0.3486209 -0.21282785 1.290304 1.015788 -1.0347944 -2.3290265 -0.5772378 -1.0864218 1.9042269 -1.4000565 -4.767898 -2.522069 -3.1050298 -3.9801965 2.2220538 2.2087877 -5.0188475 -4.081598 2.4252284 -0.7561787 -1.948211 -4.027684 -3.6512575 -0.5945149 1.7286718 2.98869 -0.15354964 -1.3622139 1.8991331
799 4.284901 -2.8429558 2.193653 -2.1290576 -3.1823344 -0.63530993 4.4307594 2.5130258 0.30264175 -2.0436437 3.8823285 -0.7491279 5.9529333 -4.485362 -2.4817107 2.4307368 3.0968018 -2.6986086 4.2680597 5.677613 -1.8638083 2.0305784 0.14490458 -4.294513 -3.32993 -4.264313 0.0026140923 0.9429379 -4.6952 3.202724 0.36137137 0.15370685 1.4767079 -3.8716438 3.7762508 -4.134763 1.1751393 -5.718835 -1.4124452 0.034139205 -0.38394266 2.1711986 -1.0969831 3.952507 -1.4714249 -0.9223456 -2.4422271 -2.6862664 -2.9506786 1.7777385 2.5552616 -2.6431975 -3.5879636 5.651741 -0.33289427 -1.8862964 3.2273028 -4.4445195 4.0607576 -0.93803555 -1.3535041 -3.6240287 -0.13248335 0.62987804
697 2.184793 -0.4254807 2.7863126 4.0254846 -2.427107 6.07436 -0.69126105 0.9323406 6.464773 -0.48532435 4.9770474 3.8750641 0.31209475 3.839432 -2.5534902 4.8101063 -2.4774663 0.05685325 2.7618423 0.36027956 -3.1414325 -4.7661123 0.47766304 0.548189 -5.616715 1.5684793 1.2092745 3.42705 -5.6948867 -1.9538876 1.6031328 4.1612043 6.6696663 -0.9540201 -0.32991073 -2.383919 -0.84339833 -4.4246473 -1.4561747 -3.39971 2.8597925 -2.9735162 -5.9457026 5.546252 -3.813183 -1.9257478 -8.323792 -1.2840838 -9.1029215 5.6004896 -0.5633375 0.84497976 -2.8304741 3.1748898 -3.4003255 -4.2591586 -4.364989 -1.283295 2.9453988 -2.4388988 -3.8945045 3.3030398 -1.2371585 2.4837253
28 7.4610376 3.4103563 -1.1007918 0.3901334 -6.6414633 0.69143486 -0.69383365 -7.2777886 2.1894135 6.086079 -0.1189659 1.0758666 -1.6926377 1.7631713 0.8971061 2.9247847 1.7497878 5.703648 3.6256506 2.8569639 -5.6928663 -1.3838534 2.0887375 1.5818855 1.9655225 5.789663 -3.8019671 -2.8686628 -0.8852177 5.10372 3.8121362 -2.241759 -4.697138 -4.285947 -1.7035623 -5.2184777 -8.018997 -1.379509 0.84658533 2.413437 -2.679904 3.5203671 -5.1594605 -4.4904385 -7.937448 1.5731401 0.5247829 -2.6916156 0.43648326 -5.29052 -1.655062 0.48146158 0.31467047 0.28284618 6.76908 0.78547823 0.29590368 -1.7720228 -5.1399007 6.1032286 -2.7696583 2.7348013 -4.269312 -1.0108769
1056 0.09227428 -0.37924308 -0.31207588 -1.0264819 0.6176765 2.771304 0.29010978 4.662425 1.6208777 0.21230054 1.777511 3.3338537 -3.1547558 -1.6379848 2.1793668 3.4648075 0.8778494 0.3904424 0.21935108 -0.2530233 -2.0231538 -1.0482088 -0.75252664 -1.4787611 0.03570769 0.26754853 -2.3143783 -0.27317867 -0.4741675 4.1242776 0.113693945 1.4140909 2.7344139 4.0339966 -6.3958745 2.552338 -3.6202064 0.9490183 -2.7496302 -1.4358753 0.35278943 0.2067844 -2.3324635 2.9159524 -0.07443308 -1.2027099 -0.50467664 0.100220576 0.14974615 -1.3740269 -0.24782278 -0.7234361 2.3579068 1.0665203 -1.0735322 -0.010286117 -1.7302916 1.6812512 0.71565425 -0.85650873 1.8484675 2.0924354 1.4480239 2.0084867
1112 -0.07426065 -3.9046416 -1.8233037 2.8946364 3.9408267 -2.4831483 -1.2224022 -1.0823591 -0.3101175 -0.13294461 -1.2311207 2.0157146 1.4070657 -5.7005725 0.18248637 -3.0326116 -4.8127866 1.1801198 -2.9428437 -1.5314339 -2.894986 0.4674937 2.6980014 -3.3430707 0.68866646 0.33324474 -1.3837847 -0.90021276 0.5038688 0.5228951 -1.3056363 0.053385 -2.1656466 -3.667657 -1.5131968 0.08866216 0.87534004 5.518778 2.9259727 -3.9441102 -2.4160867 0.2085578 0.9732285 1.2599732 2.0436616 -1.4645362 -3.5364532 -2.5356636 -1.7719656 -0.21608183 -1.6121498 -2.1708667 -2.91889 3.5446808 1.6104184 -3.5134034 -1.3272724 -1.2475264 -5.4141955 4.2911596 1.1473233 0.65793806 -1.0218341 1.4870684
956 4.929942 2.1861875 -1.409314 0.56648093 6.0745893 -2.5057642 -3.531708 -2.906135 -1.0054759 1.2384418 -2.5520463 0.3220615 0.79119104 -0.82468814 -3.251 4.0015206 0.61274195 -5.043903 -3.9115942 3.3630242 0.3804239 0.5932079 4.700256 -1.2806146 1.589093 -1.0507531 0.024690878 3.0316355 -6.5281916 -0.21309783 -4.74087 -0.4094153 2.192791 -0.47151932 -2.8255343 -0.79559755 -0.94144815 1.6112007 -1.4934036 -3.3883274 1.4485761 -1.4239098 -3.419759 4.099997 -0.044242494 -1.7638656 -0.20781444 -5.434588 -1.1711588 4.1900787 2.8946376 0.6953833 -0.27153 1.9104161 1.4526451 -3.0558174 2.5886896 -1.9998406 -1.1965044 3.1642365 -0.57177854 -1.9933509 0.7872595 4.357525
1638 1.1806388 0.6873097 3.8132055 -2.812249 -0.23363689 3.834464 -2.1527894 3.3554428 3.2930355 -4.8939433 3.2245526 -2.3992865 0.6183256 -3.0657787 5.140824 0.7171802 4.573965 3.4821355 0.058310013 2.570307 -3.36463 -0.9689539 -0.7260113 -4.308231 -1.3967518 1.430399 -0.4666763 -1.8646406 0.68985313 0.14107236 1.151876 0.06395351 -1.3199912 4.2116218 -5.7855325 0.688201 -1.4991267 -1.7059536 -1.1201285 -3.460341 -0.8383195 -0.7689034 -1.2389928 0.63102275 -2.118439 -1.1093512 -3.4587626 -2.6025176 -2.3418767 1.0139258 0.6280498 1.4170376 1.7559421 1.9184303 -0.25121814 -2.146901 1.4053664 4.869226 1.4581093 0.42706916 -0.6809369 -2.9290557 -0.5619969 -1.3303379
841 4.6708064 3.3891444 1.8537527 -0.64460343 -4.400807 3.535272 2.356913 0.49782017 1.5087713 -3.5003822 3.1148548 -1.4752749 5.9250207 0.5986097 -1.3877568 7.3621554 0.63597107 -0.63793343 3.1056554 4.058181 -0.2149796 -2.6718981 -0.54160064 -1.6338053 -1.1108626 -3.1017876 1.6696229 2.8986938 -2.4819658 0.86998284 -0.9580174 0.62648237 2.1165502 -2.1669567 6.739477 -5.0679936 1.6912804 -5.314859 -1.7372305 0.752997 -2.4439354 0.9626732 -6.3564076 6.256483 -3.6439471 -5.2540364 -4.3683667 -2.3099742 -1.5608916 4.4242716 0.5873856 -3.3667374 -2.3698175 3.6300642 -1.0246754 -3.2047708 0.95835775 -1.5958507 1.7297083 -2.1765602 -1.7661574 -3.3217168 0.18427992 0.557006
18 2.9854417 2.5309875 4.4467587 0.3428785 -3.314852 -2.1309023 6.0293555 2.1954677 -7.385658 -3.5685651 2.8745606 -4.6072187 0.6235681 -4.332574 6.6751976 -0.91489697 3.9009197 0.074466646 -5.0332913 1.2056091 -0.8341949 -6.2806106 -1.5252233 0.089591675 1.3334382 1.4530289 -3.351277 -3.449917 -3.0509346 0.22574107 -0.17078859 2.5760164 3.0511584 -5.5736723 1.3111886 0.309853 -2.1478896 6.7934475 -2.4966307 -3.379426 2.6120448 2.6865635 -4.6455 -4.270077 0.98483133 -2.0135896 3.2341008 -3.0919309 -1.7757957 0.08535927 -0.2693603 -0.5951111 2.3381357 -0.364411 0.82384205 0.8292557 -1.5298271 0.6121271 -0.4114499 -3.3563519 -2.2929742 -2.7351694 -0.44094872 -0.55364907
636 -1.8408006 -0.0013733252 -1.9029509 3.6401927 -0.6997521 1.1868677 0.3851981 0.72470134 -1.7175716 -0.8472834 -4.6310287 -0.27781466 -1.5611217 -1.744778 3.1604106 -3.1349576 -1.0216091 0.93406713 1.02033 0.00559276 0.32256803 3.0797138 1.3682833 -1.1586666 2.3728523 0.20617175 2.9233549 -3.2722135 0.1127413 0.0067183683 2.782064 0.6938043 0.3675943 -1.0215307 2.7058089 0.39439413 -0.6126604 2.523144 -0.49363285 -3.374235 -1.3826078 2.982454 -3.5591729 -0.95808774 0.45099476 -0.36885196 -5.673472 -0.801011 -0.14254612 -1.2676852 2.0254242 -3.3899422 -0.75530803 2.273875 0.4234243 -1.1915427 -2.7677746 0.59222233 -0.25827223 -0.46347764 4.0874653 0.2922673 -2.7277303 -1.6874983
107 3.7096555 -2.2389286 -0.21787202 -0.24166842 1.5023427 0.49303597 -0.3858087 -0.93054086 -0.25928378 0.38119033 -2.5253704 -0.89652175 0.5473279 -1.1504502 0.5063888 0.92100006 2.4813738 -1.3549067 -0.09377846 0.7815861 0.7374347 -1.0364772 0.80761003 2.887716 -0.59904546 -0.8129823 -0.47774714 1.6771075 -4.7033405 1.0647383 -0.23345128 2.152232 3.093348 1.6741405 -0.15641616 -0.34428295 -1.2521588 -2.200425 1.7357774 -0.9079818 1.693076 -0.030527651 -1.5624975 3.4590955 -2.5270128 -4.795418 -2.3952348 -3.516587 0.032140624 2.0836217 1.3602732 -1.7166293 -0.04782515 3.7981884 -0.09425741 0.22729024 1.079201 -1.1480408 2.189974 2.4630237 1.7272011 -2.2422407 1.5842066 1.9993178
674 3.7274542 -0.57987314 -2.1087465 -0.13413467 0.98881924 -0.83037263 0.44029126 -1.5666336 -1.005092 -1.8525584 0.66051793 0.920378 -1.3130606 -1.1266819 4.3641915 0.73827064 1.0105861 -1.138118 -1.1949869 0.75817317 -1.1542983 0.020863362 1.0316107 3.7828314 2.461455 0.5485949 -0.7405291 3.0055554 -0.03670553 0.6244478 -0.83073276 1.5304054 0.5754435 -0.07691726 -3.8151712 3.796628 -1.0179629 -0.48742524 1.7027746 -1.0003712 1.5365493 -0.62230676 -0.16130674 -1.0780075 -1.9282639 -1.1911287 -0.76618016 1.2126116 0.8810814 -1.1827759 0.9792305 -3.7455149 0.27511162 2.1795537 0.5786266 1.0978175 0.6429144 1.8517493 6.013266 -0.6103456 -0.7266816 -1.9210448 -1.1164318 -2.565451
1135 -0.3842871 -1.154063 0.04386679 -0.35178876 -0.923625 2.3182945 -3.8230329 1.0953859 4.340506 0.2696537 1.9569567 2.8950226 -2.260658 1.2150347 0.7561021 -1.1899288 -1.0994049 0.7035496 1.147519 -1.3192923 -2.6843846 -1.187762 -0.13159378 -1.1270185 -2.0978956 -0.09594229 0.94196993 -1.9830532 -2.9243143 1.05374 1.7204144 2.9148152 1.0882871 0.66042507 -0.37980303 -0.07016933 -4.0484104 -0.91043836 0.22634314 -4.046565 2.6453247 -1.2392108 0.12747052 1.6757841 -0.5787364 1.1612347 -2.9384537 -0.43597567 -1.653207 0.3717747 2.3898208 -0.51252115 -0.501443 -1.2127237 -0.5045728 0.61737025 -0.6252305 3.3955898 0.68785405 -1.7661735 -1.8616457 2.265224 2.0777807 0.21654376
1129 -2.753933 1.3153763 -0.9464878 2.5395863 -2.2700562 2.0361323 0.17145468 2.270584 1.9400895 -1.5937098 2.6772711 -2.4035418 -1.7925109 -3.523569 1.3688595 0.74283385 0.72278124 3.484628 2.5658581 0.07561051 -0.34590504 3.1439364 -0.83015186 -4.6384892 -1.2583611 1.7447696 2.6947217 -0.26869017 -1.4717605 1.276611 3.9666955 -1.6733114 1.5424893 2.5537472 2.7635913 -0.0081838835 0.42126673 0.381079 -4.2563453 0.03983888 1.6477271 3.4482944 -3.8858287 1.032655 -1.6942722 2.7112207 -4.271568 -2.2849283 -2.3951578 0.44846952 0.13391778 0.40649477 1.6328546 -1.2752373 0.16931954 -2.1317575 1.4080586 4.1024623 1.4488717 -2.1871498 -2.5231135 -0.42971694 -0.53788793 -3.19307
1435 -0.9859137 -1.9780484 1.7784257 -1.9403875 1.247388 2.9724495 -1.6486782 0.94320035 -0.14632252 -4.33298 -0.6507372 0.60548186 2.4608355 0.2853494 4.0754886 -3.5522196 2.969104 0.4269024 -0.2345429 4.450873 -0.9252143 -0.028502533 1.5123221 0.09977592 0.2832361 2.4437473 -2.655115 -2.6467867 1.7300425 -2.6363685 1.2932758 -0.44978935 -1.0059423 2.0871663 -3.2732806 1.8198414 -0.7784629 2.4607487 -0.3806829 0.59184605 -6.223098 -1.9799079 -0.72417915 -1.1166312 -0.08565155 -4.393233 -3.2225602 -0.20277664 -1.2134851 1.4110346 3.940767 0.0737672 0.5099479 3.8432653 -0.5337912 -1.4387735 -2.4460623 -0.7697495 0.08495392 2.3224933 3.5355232 -1.2159623 -3.889235 -1.0308412
1227 2.6554482 1.2119833 -1.7451823 -0.6100619 1.3571534 -0.44730148 1.4551618 0.7535462 -1.3869894 0.02542352 -0.055774942 -1.5909805 -1.284979 -0.31900972 6.151477 4.219003 0.66639394 3.984839 0.8025624 -2.387149 -3.6124082 1.6140114 2.5958016 3.8638272 5.026353 -3.688362 -1.8108749 -0.49620545 -2.7070973 1.1381929 -3.5293648 -0.4058227 -0.2955924 0.17621025 -0.66470027 5.2550125 0.71037704 0.21788509 1.964318 -3.3988116 0.2868783 -0.12794991 2.25766 -1.1641428 -3.471958 2.0180821 3.1595225 4.820012 -4.2131424 -0.11115281 2.8681376 -5.3105507 -7.1115036 2.5799477 -0.39831057 -1.379261 -4.472903 3.3466387 6.708065 -3.8762934 -1.7233982 -4.4096746 0.91198766 -2.066068
875 -0.6968772 -0.040211815 -0.11972588 2.4245167 -2.6444871 1.6513201 -0.59294546 3.718813 2.4467406 -1.3319346 4.261437 1.6966815 0.8214476 -5.241035 0.7391799 -1.3350008 4.5927544 4.0569005 1.3551378 2.4228892 -2.6683314 -2.439678 -1.2703954 -2.3873734 -1.5059195 1.0789944 1.0883714 0.924114 0.14096409 2.513386 0.11364566 0.20809983 0.30616283 3.6766675 -0.9524031 3.1417377 -2.3105538 2.3201852 -2.301949 -1.0564009 -3.750098 1.0299973 -0.4039265 0.031772062 1.0832905 -2.9471178 -4.3996725 -4.58001 -3.1388085 3.2251482 0.2039075 -2.3992112 1.1665347 0.83516985 -0.11181107 -3.869962 0.4518955 2.6658778 0.122026704 -1.3882796 1.5728782 1.2320881 -5.300174 -2.313381
266 3.1714454 2.667779 -2.2781062 0.61254644 0.42390355 -1.0382174 -0.85900515 -0.76819795 1.1868477 -3.7885478 -1.8796829 -0.10503465 1.2218143 0.8699202 -1.6812404 -1.9577057 -1.9116187 0.7064829 1.1497833 -4.2173443 2.0896533 0.05821227 -2.6970294 0.12565106 -0.24153398 0.7147863 1.0706519 -2.3165681 1.4281653 1.146754 2.3419476 -1.0117491 -4.3966274 -4.341645 -3.1090052 -0.017337173 -2.752622 -0.7467753 0.6816763 1.1087267 3.2970688 1.3383372 2.129373 3.53115 -0.1816994 0.25802982 -0.20021704 -2.5124567 -4.3881373 0.25485724 3.0330954 -1.510661 -0.8508745 5.320438 -1.406786 3.2277215 -1.6075543 3.8270319 1.1507185 -1.9973047 2.86266 -1.8389215 0.8294783 1.2800447
758 1.6108235 1.9819903 0.7921095 -4.365445 1.0275136 -0.22319421 0.03867536 -0.2832558 3.1510744 -0.288718 -0.68470865 -1.58252 0.17515709 -4.2198143 0.26719195 1.3710668 -2.4301944 0.30594945 -1.1550345 -0.9581672 -2.0566366 -0.14721778 0.17450345 -2.9930573 -0.1695497 -1.2795217 2.7375963 5.526488 0.727012 0.66627043 -3.1864164 -1.762141 -3.5937269 -3.2205021 0.4278953 -2.4772305 4.390681 1.8445351 -1.6074806 -4.897414 1.2004064 2.7170665 1.4874047 0.94579506 1.8791577 -1.3449391 0.69285434 -3.142686 -0.22861212 1.3254675 -2.290469 2.8143733 -0.28616226 2.560112 4.9404087 -2.7667818 2.2669592 2.4912295 -4.3793793 -0.23836315 -4.603467 -2.5055869 -0.624192 -1.7545146
804 2.7411673 2.0631876 3.6900647 -1.0320932 -6.904979 5.5004706 2.196766 1.201698 3.1947815 -5.419176 4.7803097 -0.19387452 2.6688507 0.4866967 -1.9401853 6.795037 -0.0507747 0.68563753 2.6988065 2.6994097 -0.59085774 -1.1751844 0.7948545 -1.0770495 1.2339349 0.3658621 1.126788 1.7253146 0.0864926 1.2063545 -1.411311 0.12740289 -1.2034246 -3.5076225 6.004668 -4.0860915 2.8744018 -1.3867617 0.64647293 -0.7082577 -1.9554721 1.1409909 -2.2593207 1.5109892 -1.3114895 -2.2258494 -2.378908 0.99551255 0.22702344 3.9119353 1.1657858 -3.2556489 1.0368526 2.0574043 -3.3851597 -4.145297 0.558647 3.3850646 1.5490146 -1.310326 -1.0285101 -0.6326931 -1.8976569 -0.12067835
1437 0.97331893 -1.236196 -0.91850656 0.82984763 -0.9362905 0.95744395 -1.1064379 1.0882561 -0.77487975 -0.4313506 -1.7763981 1.9615558 0.5682914 -2.5694244 2.6003952 -1.8645049 1.6737813 -0.1575629 -0.45140377 0.95220757 -0.5479845 -0.7226687 0.5305718 1.5551995 1.3797212 0.007374082 0.12327833 -0.97310686 0.5322588 1.0077713 -0.21779345 1.6713747 0.3774816 -0.331747 -0.99544066 2.071959 -1.828458 1.9079493 0.9542334 -2.0145855 -2.6922498 -0.41466847 0.047066927 -0.95133704 1.3414087 -4.3336325 -2.7445855 -1.2852498 0.23837255 0.25254908 0.8963557 -3.6295476 0.38496602 2.4960842 -0.8995693 -1.1557723 -1.077315 0.44907746 0.13538328 1.4289163 5.36388 0.5727505 -3.1312337 -0.60667133
152 -2.8117833 0.46730322 -1.5390551 0.13779977 -3.009265 0.014459991 3.2341063 -0.476523 2.4027965 2.8003926 -0.22397676 2.315897 -2.7498496 -1.8783537 0.44509944 -0.8944541 -0.4233259 5.963587 -2.6181965 3.2902586 -2.0121026 -1.7711977 1.650247 -3.2368474 -2.1807187 -2.3535225 -4.1144786 -4.154558 2.9158537 -1.1466441 1.8221016 -1.7088464 0.45859534 3.1529832 -1.4979725 -4.3497252 -0.9233116 -0.35269374 -5.80548 -2.1368616 2.502346 -2.119043 -2.565837 1.8387393 0.16232048 0.92260987 1.8917893 -5.535331 -2.66954 2.1977584 -3.712928 -3.0696747 -0.25034937 1.5393908 -6.0744667 2.9120436 -0.14776239 3.6703467 8.873106 -2.1243541 -3.3239033 2.0506284 -1.7774055 0.90127057
922 1.796879 -0.3395067 -0.5859148 1.111492 -1.6178155 0.3303953 -0.74084866 0.41272795 1.5387924 -2.4858742 -0.2951762 -0.103727445 1.4582267 -6.6460543 2.1493063 -0.6510392 3.210549 1.2811189 0.65326536 1.5942259 -1.6698678 -1.5410452 -1.2411723 -0.7049154 2.6439404 -0.42181563 2.995452 0.26072583 1.5977064 1.830006 -3.6948004 0.82734823 -0.62104505 0.10152817 -0.6399964 1.7688487 0.6087058 1.6432675 0.7714334 -2.2938685 -3.0852404 0.052375093 0.5728962 -1.8962227 0.6969523 -2.1907923 -4.347198 -3.6901326 0.7366003 -0.07209737 -0.9733973 -1.2578976 1.3252419 1.6575155 0.7908602 -3.4463785 0.51163185 -0.63069004 -2.3306665 -1.4549359 4.432404 -1.4269942 -4.6336365 -0.52125573
1147 -2.7003198 -2.816888 2.0677595 2.5693634 1.3251144 -3.3232276 -2.3992884 2.5136552 -4.3219624 -1.5719552 -5.097786 -0.7671719 -0.33214384 -0.6502201 1.3441008 -1.5356512 -0.28076622 1.7748741 -0.12789841 -1.2169172 -4.771482 -0.5413263 1.2741687 -0.9767437 1.9974532 -3.0428762 1.7239715 -0.6980226 0.31807417 1.4331588 -2.6277404 -0.88017106 0.78430873 -0.0043074745 2.177404 4.819209 -0.3231994 0.5674223 -0.28078112 -5.7574053 -4.357101 -3.6675484 2.3483996 -0.60520536 1.2079376 -0.6790401 0.09660797 1.6114807 -0.59309 1.2256975 1.8078204 -0.2226378 -4.345015 3.748415 -1.1451962 -3.2038267 -3.3900228 -0.33039635 0.102400966 -7.1366076 6.268774 -3.6974123 -1.8885194 2.4386349
121 -3.1057231 3.938052 -5.700597 2.3868275 -0.16500564 0.16496047 2.118317 -0.7403223 -0.45073536 -2.6160004 -0.28827232 0.97559625 -5.6014276 -1.0221637 5.106297 0.12716778 -0.8059359 4.994993 -1.9259079 2.9841492 -1.5335417 2.028951 1.7430356 -1.4075153 -0.41074082 -0.7619168 -2.2067773 1.2397972 1.4681443 0.60539436 4.919922 0.3088297 2.7394729 3.251282 0.95235246 0.6577189 -0.9585891 -0.9130169 -4.1498237 -0.50212026 3.2437074 0.021683421 -5.610447 1.5635093 -1.6133828 5.6767745 -4.172543 -1.1922338 -3.3638866 -1.46398 0.070667244 -4.974407 -1.3390573 2.019747 0.02046561 2.461582 -0.7636497 2.880715 9.137313 -4.8134785 -6.2963057 0.23405953 -1.769039 -4.3923254
1268 4.674674 2.1929147 -2.124693 0.4158017 1.58604 -1.7848444 -0.9902932 -1.4763484 1.7577726 -4.431602 1.8279699 -2.3660133 0.41302574 -4.40999 -3.3748944 -0.044752646 -1.7748141 -0.31351784 -0.9799892 -3.8127968 -3.6151161 2.453556 -2.1767545 -5.4138484 0.7469949 -1.0387545 0.7094187 0.8587471 2.0056703 -0.16771863 -5.308447 -2.4224133 -5.4276567 -3.4034255 -1.088369 -1.4926062 1.5768478 0.49791846 0.80209786 -1.0688524 3.9046953 2.9105558 0.61310035 2.836621 2.0923297 -0.8765063 -0.45975608 -4.769415 -2.4162936 3.887867 0.49531358 1.4529512 1.1098442 4.4132624 4.1274343 -0.3898211 -1.3951786 3.9152198 -4.425501 -3.3417282 -0.732309 -2.66053 0.44861677 -0.055352144
149 -3.60975 1.411324 -3.267122 0.7036219 -0.6255997 -1.563591 1.7129164 -1.1892647 3.3815062 2.8550193 1.5486991 2.5416105 -2.728454 0.8314314 0.7737879 -2.1891308 -0.5290534 4.5903893 -2.5479717 1.612942 -1.739641 -1.5659873 -0.78674644 -3.1683013 -3.0611637 -3.7551613 -4.3752007 -3.4020858 2.6799867 -1.7982613 1.6314255 -0.057330526 0.7954269 2.5536215 1.234765 -2.3376994 -2.6403544 0.30443957 -4.8817673 -0.9731278 0.2570095 -2.0188248 -1.8798106 3.3504803 -0.50855917 0.22251101 0.05926002 -2.8644264 -0.49412528 1.5995016 -2.3248627 -0.90636414 0.8434648 -0.65437603 -4.007127 3.1027937 0.19650568 2.6669254 7.2955446 -2.2107086 -3.3530908 2.0696392 -1.5511566 -0.00910524
1412 4.227882 3.1455615 1.6371297 0.7167375 -3.6621492 2.826231 -0.6707241 -0.5895491 2.7770073 -3.1542623 3.3465583 -1.7449024 1.4524953 -2.5755332 -0.19485345 5.9988556 0.060285036 -0.003149317 0.5879435 1.1724386 -0.15456311 -2.2842 -0.3337768 -0.92222923 0.25009105 -0.7322414 3.7389634 2.8007464 1.2841834 0.017351907 -4.4258375 1.1335033 0.35381636 -0.9252697 0.31855413 -0.22408229 2.4402943 -1.569478 2.2757225 -0.6781513 0.9238086 -0.30539808 -2.042047 -0.75453687 -2.7228575 -4.282326 -4.2615185 -0.61335623 1.9878505 1.5021223 -3.9955332 0.81639045 2.5299206 0.6637959 -1.0011249 -2.961106 0.6316365 1.3698449 -0.8048566 -0.7593458 2.782507 -2.239786 -2.4288175 1.1601025
369 3.428063 -0.019595642 0.22130808 -1.690074 -0.8317538 1.7242838 -0.5126944 0.36097622 1.7503704 -1.7669044 1.7605355 -1.9793193 1.1209887 -3.6409752 1.2445164 0.8445004 2.8175125 0.6552561 1.3571882 -0.62333524 -1.5730394 -0.29909775 -0.36432812 -0.0028006143 1.8130637 -0.9063045 1.8611243 1.4302086 0.23594797 0.29907912 -1.0643742 0.4983648 0.8056219 -0.7103462 -1.0950749 1.0950433 -0.44798338 -0.95970714 0.3603564 -0.69856787 0.87167895 1.9543726 0.8110225 -0.34555012 -0.75660306 -1.8419105 -1.2291893 -2.313982 0.7954896 0.2916236 -1.2270553 -0.2700807 3.310501 1.9422508 -0.54056466 -1.4864308 2.6389687 3.0946622 0.89173853 0.86170405 2.5517557 -1.1321801 -1.2044209 -0.69600797
743 4.1319203 2.9766247 -1.2745937 3.0864027 1.0752885 0.1486293 -0.08008768 -2.45422 -0.17275688 -3.1847937 1.8032793 0.95751286 -0.35429525 -0.13278157 -1.638784 0.050066236 -6.0084586 -2.2953656 -0.96064514 -5.4187016 -2.43904 0.7107338 2.1800034 -2.4774246 -0.6528555 -0.44841346 -3.7243612 -0.65139985 0.60932326 -1.3108662 -3.2674108 -1.9859605 -2.9989893 -5.5311136 -3.7639575 -3.106503 -0.5793308 -1.5237688 1.6085907 -3.1566765 5.8178325 1.8190173 -0.7849629 3.2698228 2.4669719 -2.4206486 -1.8771255 -1.8522547 -6.220204 5.8381367 1.5973502 -0.48903224 0.1952477 7.6912074 1.7351577 -0.1649089 -5.178566 3.304563 -0.90966195 0.23859595 0.30789775 0.1271618 0.3826908 0.11644244
1372 5.8045406 4.8286133 2.0389152 -1.2007571 -4.7210245 1.5766367 3.347342 3.6796136 -0.008496863 -1.8125112 3.0801709 0.8955518 5.417815 1.8359838 0.14176846 7.063627 -1.9662356 -2.9810755 3.1028244 2.8826072 0.21541311 -0.72645575 1.3867018 -4.2449665 -3.2185135 -4.338828 1.829078 -1.3032931 1.4526317 2.0059183 -0.9722819 2.0418506 1.7091663 -6.308894 0.6540247 -3.1618435 -0.2715945 -5.0881042 0.013289542 -3.574604 -0.16460145 0.9409441 -4.0306687 2.700206 -3.202472 -6.6804724 -4.873095 2.1762733 -0.0612572 -1.0901684 0.1104029 -4.7256455 -5.0002112 2.3565722 -1.1445342 -0.25996354 -1.4694403 2.908607 2.7469082 -1.7270498 1.2266527 -2.2814493 -0.46193224 1.514178
29 3.770526 -0.45449096 1.019545 -0.62548536 -0.5612775 2.1364584 0.52028304 1.2784863 2.2095063 -2.788132 0.032934 -2.397038 2.1212428 -1.8345969 1.00592 -1.5810755 -2.2638729 1.8472178 0.33267683 3.2845643 -2.8498087 -1.3647516 0.3677539 -1.7743142 -1.124853 -5.168736 -2.8889117 1.7839401 -3.5770342 -0.17179275 4.097351 -0.31988534 -2.313774 1.1845137 0.015764302 1.6042084 -1.178195 0.7993199 0.12705752 0.29909575 4.8069053 3.0516179 -1.4797698 -0.59605753 -0.23078755 2.262836 0.3104935 0.91553336 0.46939075 -0.5709974 -1.2608081 -0.645049 0.7499715 1.4514558 0.46400094 -3.4067698 -3.0158446 -0.66612285 2.2455194 0.83398795 1.7457892 3.8825836 -5.2166853 2.1819308
37 2.1572318 4.133684 2.4449658 -2.081442 -0.12940004 -0.98335075 4.9464297 1.0806174 0.26481247 -1.8172454 0.68344975 -1.4149153 1.9980513 -2.2539666 2.2377756 -5.9250345 5.498082 -0.12063884 -5.0765905 -0.6497017 -3.9116685 1.8076751 -2.5437725 1.5691112 -3.1992438 0.48032394 -0.9045372 -2.657567 -3.7287269 0.99216396 2.120096 4.187421 2.5370786 -0.044494264 -1.1608249 0.48439604 5.4503813 1.1244526 0.22340818 -1.6030654 2.6463635 2.0073793 -2.193485 -0.7261669 2.316178 0.946783 2.516289 -1.133404 -1.4530263 1.9520571 4.203456 -1.2823372 -0.15311141 2.48216 -3.595618 -1.5165608 2.8493094 6.316156 -0.3001199 -5.0010886 -0.548457 4.535264 -3.487013 -0.42661837
1191 0.06602996 2.4978056 -2.4614863 0.9896276 1.8023211 -0.119208105 -0.5962215 0.15720043 0.114079274 0.2774184 -3.1626024 -4.966194 -2.9386866 -1.4537259 3.0754485 2.3797398 0.14033101 2.874675 0.6516286 -0.14354958 3.985479 5.331366 2.906905 1.4902911 1.0673352 -1.4749573 2.2612085 -4.5196514 -1.1202929 -0.4116308 -1.7821331 1.3243563 0.8038516 -0.40399143 2.2457576 -1.2065525 2.411463 0.31464288 -0.23357148 -1.9031254 3.0109732 1.2712545 -1.42388 -1.6926057 -2.5786479 2.9508317 -1.6109307 2.2868507 -2.2931335 -4.115068 -0.084155425 -1.0768523 -2.2128973 -1.4138787 0.19502506 0.35977146 -3.5878117 0.25082758 -1.8820505 -0.39650688 0.36065382 0.10910765 1.1110929 0.4294412
779 0.2064875 1.2598318 1.1022235 -5.2983184 -1.545419 0.14250125 -0.8069812 -0.48757315 0.43720672 1.4000391 -3.1489298 -0.15787812 -0.78086036 -0.87559235 2.1698 1.5035001 0.81693435 -0.81300455 -2.2457898 1.5367299 2.5408363 -0.061961193 0.43664554 3.3490195 -1.4235107 -0.7388998 1.0468106 4.4251018 2.0599096 2.7764266 -0.5332364 1.2434076 -0.81457293 -0.31263018 -2.3833132 1.9169769 0.21433656 0.73136485 1.1266359 -4.006465 2.0048993 -0.739202 1.7340257 -1.649225 1.1363535 -3.5900576 -0.79325354 0.09594497 -0.13079299 -1.1913707 -2.855819 2.3028347 0.46117404 1.5812228 2.2010174 0.1440019 1.438676 -0.9010957 -2.1527157 1.3744228 -0.09242859 -1.2715172 -0.93766284 0.4465968
1450 1.3770928 -1.4612277 3.7724361 -2.596451 3.306453 2.9250035 0.011131316 1.0229813 1.2661247 -3.6065807 -0.94993454 -0.70399374 1.5238354 2.1495662 4.7212944 -1.6435239 0.37056288 -0.54040533 0.7576047 0.35149437 -0.88805145 0.34214407 0.64719325 -1.8284386 -0.65392953 0.26863027 -1.0977751 -3.2694478 0.715625 -3.2773733 1.7677667 0.527303 -2.4872162 0.19263226 -3.3101525 -1.8016369 -1.0942435 -1.0185735 -0.0024273286 -2.0858274 -0.9150213 0.13137484 -0.4958187 1.4163839 -1.7514557 -1.2600672 -0.33120427 1.3267664 1.2673737 -0.5971674 3.4543798 1.4548085 -0.20438671 1.6917329 -1.3536304 1.3084723 -1.3644568 2.6714623 1.3705214 1.9553823 0.2502991 -3.6108692 0.88672686 -0.40149477
727 2.34031 -0.23470479 -1.2886231 -0.09909172 3.2796235 -0.6506322 -1.134784 0.4711629 -0.27567652 -0.102309294 -0.033454496 0.66735476 -0.24439721 -0.8756387 0.2031681 -0.60597426 -4.0495353 -0.5508431 -1.6925097 -2.0696573 -2.983798 -0.26066107 2.6379921 -2.0398078 1.4428245 -0.326001 -1.4437331 0.26380068 -0.9029473 -1.5392814 -1.5174654 -0.4670608 -0.62255496 -2.7993221 -0.09642043 -1.8596166 0.39806393 1.2379403 -0.47558284 -3.5732863 1.4953853 2.2465696 -0.56609166 2.5943556 1.9567779 -2.4830105 1.6092689 -0.6598035 1.1208444 1.0290891 1.8920076 -1.723344 -0.79209805 2.4090605 2.027449 0.13433418 0.812221 4.587625 -0.8198143 2.3075469 -0.73870564 0.74105614 1.726361 -0.85356325
1292 3.621691 -0.20370938 -2.5104048 0.17086378 1.2541968 -2.2116737 -0.3122426 -2.381022 -1.171675 -2.2086227 0.32551408 0.8887306 -1.9895976 -2.1302001 4.0198965 1.7235543 1.1177489 -1.1107925 -2.6856363 2.228482 -0.18312351 -0.6775847 1.0332274 3.4333873 2.4732597 1.4007337 -0.04731974 3.7005463 1.3134141 0.9602788 -2.0732465 1.949827 -0.5235597 0.5512444 -4.6116757 4.0311522 -0.31923002 -1.1605359 3.462687 -0.9703651 1.5354683 -2.6422794 0.13173632 -1.7117087 -1.8557591 -0.26028553 -1.4129344 1.2682567 2.0805807 -2.4726508 -0.3520207 -2.0028481 0.13361058 1.4421211 1.019991 0.65434164 0.6271307 -0.3869965 3.44957 -1.5680951 -1.3990383 -2.9558098 -1.3215898 -0.9190469
556 -0.62256324 0.33175328 -1.5107298 0.6882576 -0.6222465 2.0951178 -1.6214184 3.3851311 1.8824846 1.5468111 2.330536 -0.32161012 -0.93202794 -0.28696552 2.5878308 2.1197178 2.0687633 4.2559323 2.2503135 -0.57738286 0.40078866 -0.17894685 0.084139265 0.6723094 -3.284796 -0.009409568 -2.3783092 -3.4441004 -2.9406183 0.65972227 -0.45943713 0.49689743 -0.5882419 2.909405 0.7849532 0.22300938 -1.1816127 1.1952722 -2.4858444 0.99751574 1.2200922 -0.54465324 0.5206484 1.5881866 -0.79169554 0.64268184 2.065177 1.154485 -5.866909 0.5154121 1.6050701 -3.2568467 -3.335985 -3.6825483 -1.3749475 -0.5587777 -2.8782136 3.0461028 0.8475087 -0.51071185 -4.0247293 3.456102 1.4842504 -0.3640061
1296 -3.110489 1.9888552 -0.6296409 4.3984256 -0.36632818 -0.52945244 -1.2020587 2.0071144 -0.10191508 -0.23294464 -0.85968494 -1.7783619 -5.1916847 -1.5492245 2.0279386 2.596744 -1.4339744 2.4426363 -1.2536502 0.06466904 1.6237135 2.9038444 0.46487203 -3.7063243 -1.9816933 1.9899825 2.189654 -2.1732085 -1.2796682 1.8185143 3.9070678 1.4132156 -0.071955636 2.2167532 -0.15730238 0.690125 -1.4076794 -0.5800124 -1.0342973 -3.9987597 3.11245 0.029142257 -4.2568173 0.36124375 -1.1631426 3.1858296 -4.3533883 -0.27421838 -1.1010169 -2.9105039 0.3774337 0.31805423 -0.8981214 -1.9243754 0.70700985 -0.57061625 -0.14835599 2.8488374 -0.6880387 -1.5495872 -1.0702283 0.058524866 1.505083 0.187745
1361 1.6340228 0.021519927 -2.2435744 -1.613849 2.006219 -0.70686084 -2.2447884 -0.005717858 -1.5819523 -1.3674747 2.5011768 0.3043233 0.40908557 -1.2793914 -1.597904 -0.1847631 -2.009502 0.092103146 -2.5304215 0.8857704 -1.9553556 0.54130805 3.5417771 -0.5086212 0.7795324 1.3052737 -3.0831025 2.084599 -1.0062548 -1.5948186 -2.0494359 -1.7160382 2.0261624 -0.944723 -1.2629373 0.99842525 0.61443096 2.0815942 -0.82435155 0.35511926 0.4614223 1.301577 0.24622467 1.5181303 2.005099 -4.489794 0.95096725 -0.99986213 -0.87538457 2.4195163 0.87491214 -1.0200572 1.7517637 3.7137027 2.6223035 -0.6217348 2.0894973 3.3126104 -0.4117476 3.4920254 -0.29911408 2.9231198 0.13662744 -1.2407988
696 3.6186447 4.051955 -1.037527 0.25111815 4.1240273 0.70526385 -2.109856 -1.5055981 1.50484 2.4573836 -2.7377338 -0.57694894 1.3502978 0.8762009 1.3093134 3.738292 2.779365 -2.6445193 0.09711559 -0.408849 3.0585854 2.683833 2.3130717 0.6906474 3.3120577 -4.221269 1.6431603 -3.838375 -2.4685435 0.04058503 -5.2636285 1.5644543 -0.9226417 -2.322364 -1.3978436 0.64964175 -0.78074 2.781178 -2.0982528 -1.937799 1.0500846 -1.6138688 0.5988633 -0.11061227 -0.69811577 5.0432353 3.431547 0.45220086 -3.5433846 -0.081209816 2.1532364 -1.4050022 -2.6048563 -5.444562 -2.0756242 -2.3618097 -2.416615 -0.5505891 -1.3983556 1.4328549 -0.8819047 -0.6555094 -1.2623432 3.2886188
67 2.238978 0.028167125 -0.00050478854 -1.0952424 -0.15805858 0.67390406 -1.3221493 0.104364134 -0.7583802 -0.09279581 -0.22023346 -0.07698926 -0.22179976 -0.7856233 1.4760733 0.40742072 1.3008293 -0.7989789 -0.77390397 -0.33828077 0.34633097 -0.20528279 1.1750067 1.6953231 0.6729608 -0.4470733 -0.30531606 0.14454913 0.08481193 -0.025129678 0.18566404 1.2039657 1.3861932 -0.7314921 -2.2153318 1.8343266 -2.0074928 -0.5845501 1.2772692 -1.3607696 1.4884844 0.26327083 0.6403614 -0.15310484 -0.06750274 -2.679989 -0.27720904 0.011960386 0.8918314 -0.6308848 0.113272995 -0.8607476 1.9791902 1.6590037 -1.373719 1.0050818 0.584795 2.4656549 1.7338778 2.5154665 2.8635902 0.15718025 -0.11754362 -0.26626232
540 0.0354525 1.7591628 -0.14452976 1.9373155 -0.74545115 0.4493504 0.16768104 -0.20068295 1.502688 -2.4841714 -0.82049984 -5.0671854 -1.6898899 -4.3182893 1.3280963 1.20008 0.21935393 1.9462956 1.7885787 -0.8487276 0.6520666 4.0063133 -0.38045478 -3.3029993 2.214807 -0.8117702 5.1511707 -0.032160114 0.025338145 0.38630837 -0.15339206 -0.20329434 0.95583826 -0.6349042 3.0032418 -1.3157444 3.0203178 -0.63908666 -0.4799259 -1.9587903 2.1199372 3.793158 -2.2667665 -0.83369464 -1.8431989 2.942946 -4.259772 -2.134876 1.113962 -2.3586488 -1.2456601 1.8159584 2.2457874 0.22230707 0.855758 -1.8554136 1.3839438 1.6034135 -1.536442 -1.7769676 0.7680639 -3.0427248 -1.1393943 -1.5142685
952 2.213377 -4.501058 1.3702903 0.37094253 0.5578608 -1.3115419 2.3770812 -1.1225667 0.1972678 1.181774 -1.0246785 0.003223936 2.4641485 2.0070314 -0.14617272 1.1326352 0.83347803 -1.2786071 -4.5284386 5.2227206 1.900362 1.6555533 0.72950345 3.574923 1.5067006 -0.7807475 0.32144344 2.8020973 -3.9179049 1.6759717 -2.9764013 0.5628019 5.15099 6.2090464 0.6755361 -0.14129922 -0.5283696 -1.5359142 1.0429417 3.6767933 1.7606256 -3.369051 -1.3525501 2.0191116 -6.145918 -1.9330868 -2.4760756 -4.368349 -0.8786287 5.3302426 -1.0356177 -1.1164598 -0.0792322 3.3806305 3.095329 -0.32489505 1.5837545 -3.087409 -1.5912256 -0.035824437 1.2508575 -1.109716 1.9647886 3.8216503
1013 -0.53136516 0.60048753 -1.2873573 1.6221213 0.42718294 1.3323696 0.73336476 0.12426093 -1.1425577 -1.0007368 -3.0341704 -2.4736984 -2.4215634 0.09126991 2.3563783 -0.111748315 -1.5095962 0.5143709 1.3448131 -1.2654866 1.5873277 3.761541 1.8649119 -1.2196598 1.2188591 -0.32467666 2.2228858 -1.6257474 -0.8177377 -0.69026864 3.4348433 0.83559304 1.3394275 -0.89106977 2.5507596 -0.673562 0.17248537 -0.14447753 -0.26479653 -2.5439587 2.565919 3.2964373 -3.3206198 -0.012505225 -1.119405 0.7360891 -2.9372492 0.63872266 0.712772 -2.2626016 1.3880241 -0.9092583 0.40877083 0.7621774 -0.39071724 0.72481054 -0.48337713 3.1143742 1.5923486 0.43620586 1.274045 -0.404355 0.91676736 -0.992442
774 1.8951911 -2.1925023 -0.40853918 -0.9107958 1.2098677 -0.9891693 -0.73717093 -0.7000947 -0.3820466 1.2194481 -0.80590117 -0.6620018 -0.1245992 -3.1889873 0.64125407 -0.10658092 -0.39402077 -0.060907036 -3.5159411 -1.3022621 -0.4004497 1.7693444 0.53665084 0.862505 -0.68537366 0.3062745 -0.57701457 0.44512007 -0.26486135 0.3425876 -0.30555126 1.3199975 0.66436386 -1.7450958 -3.221021 2.2490952 -1.7579945 1.0774238 3.1069984 -1.6372206 0.15739545 -1.5523347 1.6606507 -0.7332334 -1.8120452 -1.4597172 -2.7986958 -0.48117512 -0.14797276 -1.823517 -2.5913417 1.6145068 1.7861047 1.2868003 -1.68992 -1.9036611 0.6896959 -0.41354454 -2.1441326 4.349161 3.0349119 -0.11949584 0.4968876 1.9939998
739 1.995222 0.925676 -2.7366147 -1.4576861 -1.514882 -1.4876555 1.7794843 0.08020939 -1.9900742 -2.2874272 1.5911754 1.727584 3.9787934 0.54956794 -3.1987002 -2.1711345 0.16073798 -3.3743873 3.2120998 -1.225266 0.44262218 4.084598 -2.0947368 -4.4833527 -4.155 -1.1595753 -1.7884142 -3.6294308 1.2340251 2.6213992 0.6466233 -2.3783805 -0.7529889 -4.281436 -2.0061204 -0.30159822 -1.9840326 -0.80994344 -0.21229555 4.15214 3.534193 1.3061674 2.158406 1.0485629 0.8880172 -2.7907603 -0.73634326 0.0024741625 -3.0682592 2.2473044 1.6980436 -0.35039014 -1.8286872 3.718947 0.19864345 4.2723527 -2.8827045 1.3640292 2.8755403 -3.7471366 1.9399431 -2.4534478 1.14456 0.3211252
874 -4.004569 -1.8639885 1.236576 1.7930089 -2.2207458 -1.802753 1.7009666 -1.5333062 2.0353057 4.1088257 2.3514423 1.7313354 -3.4085457 -3.2091236 -1.2341163 0.4022773 -1.1807832 3.8630283 -2.2132027 3.008653 0.8408815 -0.05183301 0.52607733 -4.024497 -2.846021 1.2479835 -1.8773116 -4.7016845 1.1274215 -0.6156781 0.94026256 -1.0630975 -2.3522897 3.33206 -2.2472444 -2.876937 0.35931164 1.04612 -4.422962 -1.6089461 0.99638397 -3.725149 -1.4583775 0.24108607 -0.729216 -1.0825561 2.9177825 -2.984598 -0.24222949 1.6325823 -3.0304143 0.97452277 -1.2237651 -3.1598597 -4.9267178 0.7189064 0.46958414 1.5795772 4.5672836 -2.993317 -2.8190548 0.49328607 -0.5540618 2.0035846
507 -0.24183223 -2.7395432 -0.31503677 0.82208747 -0.6192087 -0.4317491 -2.393592 -1.8367212 -1.530548 -2.0564325 -2.0647533 1.3610178 1.6563787 -4.5672765 3.0272598 -0.9931014 0.5568624 1.6939493 -1.5851796 1.2248355 -0.68839985 -1.5165876 1.8320341 -0.42905754 2.139644 0.28544864 -0.17121556 -0.48678306 1.5835551 3.1066108 -0.8175465 2.159778 0.1302686 -0.5216536 -2.929349 1.9256433 -1.0046847 3.9367347 4.289925 -3.8238199 -2.1008582 -1.2407217 0.10003476 -1.3474647 1.828124 -2.2410147 -4.5531917 -2.5697267 -2.0380824 -0.9171805 -2.5798874 -3.7295206 -1.0224644 3.5116792 0.7907002 -2.4055588 -0.4723864 -2.3374283 -2.452732 2.6559527 4.7373652 -0.4626209 -2.7012687 2.5342267
553 0.5745333 -0.612122 -0.80881935 0.9476422 -2.2548668 0.39262775 -1.011789 -0.3698604 1.7228523 -2.6283221 1.1788198 -0.068563744 2.3208363 -6.03518 0.5201601 -0.88983107 3.9162123 1.870073 0.61655396 1.979249 -1.6237597 -1.0970293 -1.3890712 -0.5291657 2.2171803 0.47921965 1.9677838 0.8153975 0.8897544 1.1819665 -2.620978 -0.5946763 0.32652122 0.8466462 0.72069377 2.4311182 1.524069 2.384571 -0.18856503 1.3176455 -4.868791 -0.04372425 0.8627448 -1.9777182 0.9638079 -1.9902529 -3.6213813 -3.1901884 -0.7978386 1.7367895 -0.75645435 -0.56459457 2.2969038 1.8205134 0.70801705 -4.0835195 1.3112456 -1.6760057 -2.516333 -1.196129 3.996587 -0.93498486 -5.562817 -1.1980952
287 -1.7417392 -0.116305366 -1.2790687 1.4256922 -4.0300035 2.03311 -2.0273483 2.7788746 -0.78239125 -0.34715796 0.9619538 3.7343848 -0.5019878 -2.9198098 2.4912126 -1.5278596 3.5122974 2.8048947 -1.0588068 2.8528645 -1.7352146 -2.2252955 0.14521144 -0.72667104 -1.6743346 2.4561121 -1.5313671 -1.476826 -0.6418561 3.0285892 2.2578676 0.42554355 0.8196622 3.9433246 -2.0900624 2.8514903 -3.6913717 2.4847546 -1.220251 -1.1664454 -3.5667045 -2.1965363 -1.2046605 0.18901002 2.2859728 -3.433097 -3.6457314 -2.2730045 -4.8369656 2.3584564 1.1820955 -4.0809083 -0.20736393 1.6619039 -0.7295194 -2.6622572 -0.69107604 1.0273986 0.96655875 0.14995186 2.63749 2.9054153 -2.865945 -1.1853611
434 2.210216 -0.24819964 -0.18903837 -1.1949825 -0.372995 0.9808355 -0.7408682 -0.008807495 -0.23030902 -0.7389715 -0.043090682 -0.34957814 -0.16131295 -0.99328923 1.6057649 0.4378862 1.2776877 -0.6205396 -0.33658993 -0.62275374 -0.059592158 -0.44671094 0.8387497 1.6600801 0.7171335 -0.4865487 -0.74089897 0.16553858 -0.2651952 0.5714438 0.01576949 1.2608792 1.4206549 -0.20197539 -1.7615973 1.7927154 -1.8276587 -0.35877344 1.2990392 -1.5777243 1.1082904 0.22602344 0.23827879 -0.11125451 -0.177088 -3.0553873 -0.8340448 -0.63680804 0.6721214 -0.19385883 0.012850937 -0.82793057 2.0539947 1.9891585 -0.425884 0.916231 0.87688357 2.2831137 1.7314426 2.116602 3.0729218 0.3229205 -0.08152413 0.3245711
1322 -1.8156202 3.5862038 -0.81912106 3.6070714 0.8721917 -1.3258367 2.6558557 0.16780093 0.17543879 -2.1857905 0.49762785 -6.351189 -0.5098215 -3.3366838 2.332735 1.3358805 2.2861354 1.9218787 2.8156738 0.8923349 1.1023052 4.355135 -3.210646 -2.621516 1.315027 -0.22401828 2.625326 0.16188362 1.1747187 0.73472905 1.9054381 -2.63474 1.9866318 -0.9733202 4.4060645 -0.90763044 3.5536044 -0.80441844 -3.0604327 1.84836 -0.030664722 4.5603447 -1.846696 -0.5623867 -1.4028347 4.611756 -3.1175544 -1.3846573 -0.58268994 -0.15273447 -1.48505 1.9289467 3.5323386 1.637708 2.077282 -3.3371112 4.119052 0.03861766 -3.1206794 -0.578526 0.010836426 -2.0364218 0.6716573 -2.7771022
876 0.3321504 0.63322824 0.18051994 0.8131289 -2.0027847 1.9381961 -1.0055017 3.2791963 3.1269383 -0.64393073 5.406573 -0.93723464 0.14099759 -3.5393322 -0.50846446 1.2579921 4.881115 3.221886 1.2775875 1.5635676 -1.6689979 -1.834912 -1.3077185 -2.9540894 -1.9065759 1.1162407 0.4046022 1.7134763 -0.6738961 1.8108224 0.8178495 -0.5467917 1.0321386 3.678049 -1.8836902 3.268632 -2.0012362 0.31008282 -2.2183397 0.2839905 0.15358748 1.8690652 0.26881725 0.516236 -1.2339777 -1.7170547 -2.3990152 -3.509223 -2.9445221 2.2969007 -0.75666595 -0.044533588 2.8517184 -0.55264837 0.0654502 -1.9034401 3.0838022 4.979274 1.7490693 -0.2946451 -1.558646 1.1689997 -2.4769413 -1.8196592
375 2.0923207 4.597291 -0.37359452 1.1007845 3.0019503 -1.4581178 -3.0831656 -1.6615515 1.4881483 0.14336108 -3.315373 2.7507553 2.4536424 1.9152651 -0.2922694 1.5440624 -0.9615286 -3.2421203 -1.2050751 -0.87195796 3.8643255 -0.62913555 0.954805 -0.92046285 3.6570232 -0.5244667 4.6279125 -1.221559 -1.9126531 1.017968 0.4829856 -0.18238759 -1.584497 -3.9940748 -3.3507211 0.13814454 -2.6664119 1.4911194 -3.0588744 -1.3203212 0.1734139 -2.064748 1.0042886 2.4423294 -1.4032626 5.4486904 1.4869952 -1.8369913 -1.4529923 -1.6795323 3.0119176 0.22702639 -0.47805154 -0.34868413 -2.3559422 -1.4804764 3.356157 0.77328056 -0.11919288 0.85500604 2.7077801 -2.5758789 -1.253219 3.8273716
849 2.252256 1.313596 2.0554574 -5.467316 -1.6884733 0.6538543 0.16649745 0.37272316 3.4425538 0.13535078 -0.61836904 -2.7913947 0.5050981 -4.0647116 1.2973473 1.8428622 3.144839 0.79609454 0.7155607 1.4391057 0.846449 -0.7425087 -1.6246705 1.202772 -0.69687563 -1.1046093 4.3413835 6.3044558 2.8535397 3.1815019 -1.9681249 0.5787972 -1.2227372 -0.38688588 -2.0442472 2.1045594 1.2468868 0.95029384 0.5103219 -4.4292026 0.96049523 2.2955196 2.5072145 -1.9837565 -0.22093904 -2.907415 -1.8358909 -3.0855436 -0.67117596 0.1164879 -3.3369815 2.9819543 1.8490628 2.0017335 2.8180382 -2.1534133 1.9805498 1.3309686 -2.5658326 0.049020655 -0.804099 -3.3964376 -3.586817 -0.37675917
2259 -3.3662117 5.709716 -3.2685707 0.38702467 -1.480882 -2.6391714 1.7470765 -3.0373943 4.8251615 1.5935956 -0.46835992 3.0830615 -2.5992346 -0.7775588 1.5108435 -0.24673626 -0.2560088 7.793917 -4.4000564 4.632538 -1.3912109 -1.4492772 -2.5084264 -3.9901567 -0.24657758 -4.001231 -6.188253 -2.3612225 3.2838564 1.3314577 1.3493735 -0.6355397 0.43758824 4.1874943 1.025826 -2.7184987 -2.2717776 0.2966768 -2.7283459 -5.3289137 0.9672512 -2.54414 -1.1498698 4.1883645 -0.780235 1.4354486 -0.5348968 -3.9237347 -2.9579728 1.0184257 -5.3433456 0.34114686 2.0627031 -0.8346592 -5.3889294 -0.1565433 1.878075 0.57374775 7.037025 -2.7057087 -4.0096126 1.6731864 -1.8224219 2.2313588
714 -0.45814934 -1.8121556 -0.8003062 1.0006685 1.7489216 2.0387223 1.8689718 3.5067065 1.00534 0.13282914 -3.1848383 4.6888404 -1.998463 -2.7507768 3.010355 -0.06565826 -1.2178222 -0.84570634 0.78872806 -0.86488706 -2.8483472 -0.79374087 -0.87412566 -1.1046839 3.416446 -1.405578 0.22223923 -2.5539243 1.2464865 3.6826575 -2.9556298 0.93862784 0.121961534 1.0301287 -3.1295 0.44748172 -0.6252689 3.3437765 -1.321222 -2.0085354 -4.7247725 0.46002975 -1.9102097 1.2842189 1.9474529 -0.48288223 -1.6793495 -0.47092503 3.0737455 -2.5756793 0.20253597 -1.3183918 0.045025975 2.8569245 -0.210237 -1.3967472 -5.094173 -4.598422 -3.5357664 -2.8999927 4.813698 0.41792858 -1.1543181 2.8708637
589 2.905903 1.1948351 1.8852677 3.9549563 -2.8639271 5.3769703 1.9310358 -2.204922 0.34126148 -1.4608917 1.5012054 1.8514212 2.2340968 2.233961 -0.27150908 5.2731504 -3.4231665 -1.4887681 3.8736382 0.2721541 0.65558374 -2.4121687 2.7066424 1.6042521 -2.9215217 -0.2471018 -1.2311713 2.8621767 -5.051287 -0.73662037 -1.3633373 0.44829896 3.6888366 -0.52556825 2.942089 -4.5263033 2.2568703 -3.7249832 0.8538727 0.5427565 1.9989953 -0.6534787 -6.153583 5.087801 -3.1595907 -5.685302 -4.163082 -1.0771167 -3.9849854 7.5217323 0.10362042 -1.6809188 -0.8046535 5.141862 -2.165395 -3.373226 -3.2119267 -3.0976644 3.426832 1.0370603 0.093095995 -2.234573 -0.877654 2.2806325
373 2.0527246 1.7524321 0.26680052 3.2188685 2.545327 1.7011728 -0.46724325 0.12506555 -0.50144124 1.7172284 -4.050998 4.323048 2.230837 0.58324915 1.0245925 -1.8757765 2.3354316 -4.216353 1.1761208 0.3070406 -0.10457958 0.24733266 1.8437818 -0.95366406 3.729539 -2.6612132 2.7430687 -2.1221454 -0.72778946 0.6268909 0.60248506 0.89468247 -1.35888 -3.0587475 -1.3119925 1.9533403 -4.2488265 5.2298145 -2.9516022 -4.673026 -3.5690727 0.92280835 -1.1729968 0.00919371 2.3495584 0.25530902 -1.7895875 -3.1303008 -1.361564 2.0321 4.6302114 -4.276737 -1.3581529 -1.1470737 -2.1766403 -3.035907 -2.208384 1.405517 0.93260187 1.6534805 2.957247 -0.6877035 -6.1912694 0.9765366
591 3.1472275 3.4090152 4.873931 3.0224018 -5.4058075 5.605043 3.359952 1.6797504 3.176063 -3.5346477 7.9200363 -0.4998871 4.458599 -0.15241401 -0.4516842 8.451257 -1.8571088 -0.76500326 5.1870265 0.81757677 -0.6897521 -1.9160978 1.1293668 -1.8167114 -0.57888573 -3.117909 -0.112256095 3.508729 1.9071722 -1.1162808 -2.2715616 0.15651393 0.5805501 -4.9856772 3.8653271 -3.4624362 2.4863179 -3.5673354 -0.0014460974 -1.3218052 -0.4781219 2.792246 -4.5988216 2.1844618 -2.7200656 -3.0666463 -5.022688 0.005829698 -4.3710895 5.0725074 0.44914263 -2.1097176 2.4693882 5.1326985 -2.3973377 -3.7323503 -2.0822759 1.1995206 1.9081446 -1.1130745 -0.66495836 -0.17886533 -4.2100415 -1.3249553
31 -0.27850726 0.6130395 2.260814 2.9983523 2.3839688 -0.15802038 0.26853693 -4.318821 -0.21726097 -0.28010365 0.33093306 0.14617918 0.5054199 1.396625 0.08986947 1.0735687 2.5095441 -0.57397085 1.4080334 2.5354838 -3.7213259 3.7326608 -1.9052366 -0.2121975 -1.7146533 1.2000893 1.1151106 -0.080887325 3.1101909 2.8833427 -1.1956104 1.5404583 -0.045419205 2.2495518 -0.34900007 -0.08163483 -0.06117597 4.1706896 0.39624366 -0.33455777 -1.218084 0.69662696 0.14718986 -0.46094665 -0.256296 -2.2577417 -0.5121808 0.87977636 0.15624048 -0.8725929 -1.1013305 -0.47967476 -1.1631706 -0.13421041 -1.3106921 -0.7772329 -0.9362236 3.1140022 -1.3588655 0.3599712 -0.6584397 0.5370384 2.597835 -0.8652878
997 0.086237065 -0.38276398 1.4773687 -0.68232226 -0.2036868 1.4956074 1.622301 -0.7585689 0.43046278 0.8643214 0.441965 -0.50848544 -1.1608323 2.6269631 -0.642836 0.9387049 1.7972369 1.6082784 1.9444797 -3.1829484 1.4099916 -2.3380167 -0.62048155 2.4545674 2.897626 0.022335112 0.6553542 -0.5131064 -1.3177636 -3.3713796 3.1151881 -0.25353715 -0.79684776 0.9546964 -0.34690338 1.205784 -0.72723615 -0.12492424 -4.8186097 -0.12318621 -1.2789047 2.3321671 -0.9109078 1.4504344 0.63336813 -2.817932 1.2513785 -1.4191884 -0.24828148 2.2336977 3.8464818 -1.6468568 0.6393171 1.5270954 0.43155506 2.8888156 0.37394777 1.1367073 1.705393 -1.5626042 0.053807426 1.9092239 0.5006026 -1.4469163
44 -1.6261533 0.37634566 -0.65000117 1.0546304 0.90862167 0.6728637 -1.7266077 2.235046 -1.0629314 -3.0521286 -0.6796109 -1.2961271 2.079101 -0.37012288 -0.23821115 -1.3881767 -1.6090223 0.0043847123 -3.2595625 1.157731 1.3380457 -0.75238544 0.4083561 -0.2794662 0.6596795 0.850708 -2.4990072 2.1963782 2.4415157 4.2883377 -1.5076525 -2.3274388 1.8186128 0.23570761 1.9775907 -2.3892956 -1.1390005 0.6113714 2.23323 1.6093328 0.3913897 -0.6931613 -2.3551013 0.73787683 -1.2571653 1.0834352 2.6354017 -3.187252 0.09495581 -2.6136158 0.13196053 1.9437071 -0.14565316 -2.104091 -1.7098998 -3.3849642 -4.1435714 2.1570015 1.0807478 1.6413474 -0.816393 -1.2561069 -1.271638 -0.6787531
1859 2.433151 -0.47822937 0.4375795 0.13683367 0.16030306 1.1051843 0.4068212 0.7426122 0.011635451 -0.03265932 -1.4345249 0.5008031 0.21173657 0.42833674 2.0297956 -0.8670941 -0.60745 -1.2468067 1.0101306 -2.7062688 -1.0978192 -0.20836873 -0.39057416 -0.080100425 0.9278448 -1.4007001 0.024665633 -0.7714072 -0.64509475 -0.14718324 1.5491343 1.3248847 -0.3971967 -1.2387077 0.68235224 -0.9920918 -1.4945136 -0.55241156 0.5686219 -1.8675886 1.4057077 1.2695329 -0.16334733 0.97592384 0.14276965 -1.2688519 -0.015727712 -0.24416041 1.523657 -1.0079782 0.9845372 -1.4325733 0.18849161 0.3900793 -1.2348788 1.3737154 0.0727656 2.8187234 1.1397593 1.1820186 1.0934627 -0.57175803 1.0362132 -0.33144203
93 1.8646086 0.24488218 -0.8230745 0.74745744 3.788298 -2.3516612 -2.2677631 -0.3401373 -0.6853634 0.10720543 -0.12929974 0.012222061 -1.5268643 -1.9855189 0.23768748 0.60151696 -4.592493 -0.8762678 -2.8112352 -1.5562361 -2.3581111 -0.17591996 2.2557356 -3.0425231 1.1218736 -0.26269126 -0.6795412 0.24163842 -0.8313712 -1.4941828 -3.1115043 -0.42837575 -1.813388 -2.4195077 -0.55353355 -2.2830188 1.6929027 0.673831 0.6151979 -3.5976706 1.2960455 0.60848653 -0.33195254 2.242011 1.6592848 -1.3927001 1.1867807 -0.6369115 2.1689394 -0.48238254 0.4264052 -0.037023455 -1.2682238 1.7986612 3.1146188 -0.4621752 0.7316812 2.070746 -3.9931042 1.1483172 -1.0473845 0.35626176 2.0567076 0.23279482
102 0.8211186 0.679238 -0.8247529 0.10495622 0.41350073 -0.045570064 -0.8499799 0.45102215 0.93466216 -1.5604622 -0.7649503 1.6101844 2.944397 1.6196046 0.41171768 -1.7244619 -2.1814528 1.778305 1.557263 -1.2653227 2.8493376 -1.5978397 -0.20560648 1.1876068 0.23558265 2.118073 1.1792107 -1.2407835 -1.2319359 0.35610074 3.9700544 -1.3965089 0.15194972 -2.9830596 0.34376612 -0.5243696 -0.44452733 0.12824622 -2.4171774 2.643541 -0.015147253 0.5241069 1.953292 3.046854 -1.7930278 0.83206856 1.6521958 -0.41290405 -1.9468273 -0.76276696 2.5854897 -1.7562399 -0.119331725 2.8545783 -2.334955 1.0426072 2.0684068 2.7272863 2.0277038 1.2368194 1.3937916 0.23023471 -0.04470824 -0.91887224
1116 1.9544996 0.046513736 -0.57360965 -0.5437405 -0.4004622 -1.4076555 -2.1452203 -0.2013119 -0.69163686 0.183172 -0.5742512 -0.7478323 -0.5597405 -1.997023 1.3323457 1.296 1.1169167 -0.6338742 -2.2086072 0.5990708 0.7835319 -0.16928488 0.2804705 1.4208171 0.5835502 -0.28480196 0.1292033 0.7232051 0.7597678 0.65683347 -1.9631897 1.6309091 1.0246886 0.3803885 -2.728375 1.9114038 -0.7171488 -0.92598206 1.5510486 -1.7733632 1.4187863 -1.5579119 0.05797848 -1.2339486 -0.55187947 -2.2692459 -0.99557686 -0.14711773 1.5545653 -1.3382258 -1.0806131 0.24459474 2.0410206 0.59571797 -0.03022453 0.22793229 1.080986 -0.18598448 -0.72372293 1.8694963 3.1601129 -0.3617079 0.29834077 1.6249704
400 1.1108639 -1.0316744 -0.94366175 -1.7108682 -0.9978187 1.5214316 -0.5128927 -0.20086695 -0.92922944 -0.40588057 1.3070407 0.07241338 1.010427 -0.008288834 0.15583771 -0.2957085 1.4576519 0.19597003 -0.25129423 0.7705202 0.28747138 0.42956525 0.791882 2.1342988 0.21202421 0.59897184 -1.4245198 0.99736863 -0.40032786 -0.13697873 0.93567914 -0.29788768 3.0820584 0.73992234 -0.84741414 1.8362238 -0.9968958 0.56599706 -0.1161438 1.7750505 -0.0028164696 0.7509248 0.58886164 -0.46951637 0.17594324 -3.0910468 0.14933799 0.56571466 0.10533518 1.4051051 0.3711661 -0.8630927 2.4199839 1.4968823 -0.5701279 0.484253 1.5532272 1.1898723 1.8477644 2.5535586 2.2950826 1.1025587 -0.95572436 -0.8040192
1504 1.7788329 -0.7148268 0.35884827 0.06624354 0.034105916 1.3793428 0.17151785 0.37805486 0.25947866 0.265252 -1.0804495 0.5709522 -0.2631764 -0.037986763 2.3445232 -0.793187 -0.35730445 -1.2659415 1.2851144 -2.2742083 -0.42316255 -0.11551041 0.33161703 0.3411358 0.92168826 -0.9019398 0.2164703 -1.1125784 -0.4129656 -0.18009794 0.84177506 1.2973508 -0.5736738 -0.89263886 0.71655244 -1.0573217 -1.5062973 -0.7369609 0.30069512 -1.5218328 1.7754446 1.2245381 -0.32723063 0.8988837 0.13142611 -0.867972 0.18916328 0.078307375 1.5980506 -0.6077864 1.3012297 -1.3298945 -0.25334123 0.024803016 -0.6777768 1.310763 -0.57397604 2.6899078 1.2476158 1.3441297 1.2881083 -0.8108191 1.1505233 -0.26233965
123 1.6744816 -0.9591888 0.16426457 0.08957915 0.23716715 1.4693731 0.1833881 0.5845539 0.06945407 0.2622612 -1.1136867 0.261306 -0.005429402 0.31153083 1.7440555 -0.8487235 -0.876896 -0.8020631 0.81111807 -2.687556 -0.7797992 -0.011725368 0.32003212 0.0014893812 0.6232523 -1.5472099 0.2467389 -0.73093927 -0.40896004 0.014688865 1.1645817 0.64327866 -1.134139 -1.0289619 0.46859244 -0.58185536 -1.3590066 -0.33207786 0.1274926 -2.1650352 1.2842257 1.2410359 0.23371099 1.1000171 0.14934549 -1.48015 0.09768391 0.10678707 1.170961 -0.92826486 1.0142417 -1.3128642 0.26678225 0.09256832 -1.4794703 1.0171936 0.11249113 2.6326127 1.432945 0.75517493 1.1049849 -1.067618 0.85141426 -0.090042666
45 -0.54672474 2.427464 1.5207144 -3.3831103 -2.0694642 -3.0180821 0.9976739 -4.1067595 -2.1334913 -1.1369073 2.5549278 -1.2540036 4.501182 0.43470377 2.3858604 -4.9661145 4.283391 2.04211 -3.369664 -0.7845571 -4.499011 0.79015267 -3.5676851 0.43050596 -1.2679924 0.6411199 0.88867223 -4.074789 -0.66472304 2.5430474 1.6673902 3.2353394 3.4623322 2.8887491 -1.2016531 -0.033582836 4.0463405 0.78777575 0.3475068 -0.6174684 -0.112050794 4.8595304 -6.451928 1.0720912 3.1515284 0.35370368 6.5713177 -4.3995123 -1.6688381 -4.2262845 3.0042882 -1.2469968 -1.7858533 1.4379038 2.2278967 0.5183889 1.6364225 5.2948213 -1.480627 -3.41423 -1.9231128 1.1144589 -3.9845424 0.6690967
2008 -2.0578506 0.4934152 -1.5089755 1.7174048 -0.34541345 1.0845833 1.0659499 -0.33951128 -1.885643 -1.5372931 -1.5558879 -2.1676493 -1.7079926 0.9327123 1.2987782 -0.73214847 -1.9707028 0.94739753 1.7151964 -0.3665779 2.0895247 4.550917 1.5460602 -0.7309153 0.58485425 0.6986294 1.0237638 -1.5124904 -1.1202141 -0.54655784 4.2831283 -1.1780183 2.7528625 -0.40050033 3.530334 -0.062372394 0.65643454 1.3351337 -1.6201104 1.0078933 2.0479338 3.5686314 -3.9296234 0.18802498 -0.9969364 0.62831396 -2.74127 1.3622174 -0.3853146 -0.5939924 1.533364 -0.7725677 0.58999443 0.4047644 -0.19933526 0.2620569 -0.24093254 2.4118116 2.5021455 0.59247285 0.45206267 0.44524732 0.05894798 -2.4998896
1226 2.6214783 -0.045232516 -2.6290386 -2.7811275 1.5599215 1.9088244 -0.8489822 2.213973 0.60004526 0.84425527 1.6793666 -3.0757873 0.86051863 -0.47148383 0.9325382 1.7586756 4.9288936 3.6335492 2.1142893 1.4474131 2.4488044 1.12381 2.5077624 4.757279 0.56018776 -1.3150278 -2.525031 -1.9079583 -1.297132 -1.1403067 -2.9246583 0.60763377 2.897795 1.0919518 -0.9712284 3.3665917 0.01444646 2.1054928 -0.3863884 2.3578207 0.36015338 1.5105627 1.6941948 -1.153537 -1.9762101 -2.7515974 1.3517092 1.7015657 -4.047045 0.016021404 0.6706902 -3.1738758 0.021762574 -0.04519695 -0.4578783 0.35024405 -2.8161058 2.1930468 1.6113157 2.915809 0.2531129 3.1429572 -1.5736927 -0.54505336
1133 -2.0975027 -0.44586343 0.17940903 1.8335595 -1.7030778 1.7015259 -0.83520263 2.2740633 0.53172094 0.73797095 2.6928566 2.2062228 -0.78377765 0.35328865 1.0559493 -0.07425572 0.18309106 1.6760616 0.6447774 -0.3788799 -0.4624305 -0.9859026 -1.2578629 -1.9062943 -3.1945026 1.3649868 -1.8220733 -0.47611564 -1.851393 1.2934135 3.5404737 0.2685841 -0.73593193 2.8731918 -0.42886248 0.4189404 -2.9261637 0.14934163 -2.4024217 0.04164092 0.7879097 -0.47549522 -0.7619199 2.2959971 0.48416266 0.30154973 0.32580134 -0.21738319 -1.8955745 1.8153175 1.4601849 -1.1920074 -0.6936845 -2.0249786 -0.9536446 -0.13893357 0.6458689 3.4468248 1.2417415 -0.022308122 -2.4810233 1.8155429 0.9243576 -0.851108
2338 -1.1865385 -2.1415365 1.8506389 1.0506113 -4.0701904 3.5747988 0.7784473 2.8647947 -1.0700654 0.52933884 0.7384917 1.8258982 -1.4532149 -2.509571 0.90493137 1.0570822 -0.17167442 1.9349808 0.20252922 0.76082575 -1.7637793 -1.5270553 1.4356858 -2.3744476 -2.400879 2.462786 -0.420672 -2.3197348 -1.9265295 1.8075811 3.5857725 -1.2042193 -1.1135383 2.932112 -2.4113464 -1.1529448 -0.32300052 0.32895377 -3.8596866 0.041336805 3.1634016 -0.50063777 -2.0249665 0.282547 1.4181806 0.68462956 1.9616159 -2.4853551 -3.7446506 1.7108438 -0.15856342 -3.72387 -1.5470834 0.11664511 -4.113427 -0.18384412 0.60744345 4.7465706 4.0070906 -0.7386209 -3.0381742 2.204256 0.55410814 0.30863455
196 -1.0169625 1.7724034 -0.90799123 1.8993052 0.7511654 -1.0437455 -0.10713517 -0.5057905 -1.1772283 -1.124042 -3.7132185 -2.9743605 -3.482528 -0.750849 1.7742287 0.56533396 -1.8016311 0.5444049 0.038828976 -0.76936364 2.581042 4.6656113 1.3258308 -1.1392035 1.1039718 -0.010609373 2.872007 -2.069725 -0.12752318 0.03816856 1.8099446 0.85206264 0.7786964 -0.7869307 1.7869396 -0.7804091 1.2232345 -0.16721235 0.31365624 -2.8394732 2.6331232 1.818541 -3.4166949 -0.8985397 -0.8726086 2.419373 -3.7875307 0.5410618 1.4491596 -3.787728 0.23529594 0.6597173 -0.17025653 -0.20024848 0.794317 -0.0060584266 -0.39820606 0.43880433 -1.1322618 -0.3896518 1.2513384 -1.2284378 0.70308566 0.25267252
249 -1.216349 -2.5750973 0.16305238 -1.460333 1.7911633 -2.1401706 -4.4273615 0.45969322 -4.447087 -2.6357086 -0.81897813 -1.746747 0.18274266 0.3858476 -0.8662333 -0.57671136 1.6327999 -0.5534376 -0.8941863 2.0036712 -0.48129722 -0.014668907 2.1182654 0.63276905 -1.3058515 -1.2462003 0.5008281 2.342239 1.5430688 0.16426039 -2.7376192 0.05891586 4.724224 0.6455262 0.07775955 3.1663535 0.27632535 -1.2135144 -2.6022005 1.1317952 -0.1278714 -5.0077753 2.8322668 -0.42791644 1.5549679 -1.9994572 -0.5396238 1.5930938 -1.0734346 0.8679957 -0.82013226 2.5129614 2.249252 2.5986578 -1.4441895 0.17823 1.4563192 0.27992412 0.74715537 -3.702013 3.0141983 0.48950434 -0.6813216 1.8012372
1010 -0.20365086 -2.6316278 1.9456056 -0.22706828 2.9634182 -1.7099676 -2.6834655 0.76780033 -3.7132297 -1.3819355 -3.2861607 -1.3205684 -1.655369 0.7616412 0.80591553 -0.854948 -0.34938017 -0.9997756 0.2801337 -1.772952 -1.5234952 -1.0259476 1.2799927 -0.61632514 -1.1232349 -3.299222 2.5315425 0.5242198 1.2518482 0.266176 -3.0491755 0.8207837 1.2818366 -0.9312116 1.6939894 0.5120948 0.11274031 -2.0937133 -2.7060497 -3.3376057 1.1680161 -4.0353394 2.8857028 1.195472 1.8629954 0.50186664 0.3029481 0.19259305 0.6906952 -1.6951497 0.42643702 1.3668435 -0.90357894 0.2980578 -1.7621363 0.5157251 -0.23574325 1.4059769 -0.5067387 -4.4466305 2.4233694 -2.1576843 0.8742392 2.1557155
1101 1.7301085 -1.058917 0.034963418 0.053691726 0.028358702 1.1995955 0.43620002 0.44078565 0.4390582 0.23685783 -1.2510108 0.66994286 0.23569554 0.08933278 1.8567642 -0.9451381 -0.31128794 -0.6529546 0.6765269 -2.5394402 -0.5179173 -0.6391792 -0.15786669 0.10799049 1.3945723 -1.3114375 -0.04511553 -0.96698004 -0.30036896 0.0076036686 1.1357117 1.2532007 -0.5360451 -0.96702826 0.61972016 -0.8113907 -1.362618 -0.67803293 -0.056536704 -1.8421267 1.5769603 1.1925322 -0.25426263 1.0059628 0.45624506 -0.9691739 0.36814564 -0.1476971 1.4886912 -0.071937725 1.2829013 -1.4711064 0.2865112 -0.015933862 -1.0142251 1.4340694 -0.42444035 2.9446318 1.0987008 1.5286139 1.3252447 -0.6287768 1.0269368 -0.34700182
693 2.1427372 -0.039629526 0.2921082 -0.8428303 -0.3024709 -1.0728576 -2.0073621 -0.30556697 -0.18910949 -0.112788945 -0.19974668 -0.2570931 -0.855085 -1.4459852 1.1328789 1.1641735 0.982079 -0.6188956 -2.2686434 0.6044408 0.94295555 -0.27906123 0.44631287 1.1557931 0.22694826 -0.2911314 0.12228243 0.5929631 0.9612506 0.62032187 -1.7176288 2.0580907 1.077502 0.07734823 -2.56605 1.9737749 -0.6900835 -0.8843413 2.0317595 -1.7489082 1.2265832 -1.5084869 0.7492294 -1.1492095 0.006194102 -1.9974086 -0.9459585 -0.11927306 1.8211644 -1.5298938 -0.87951523 0.27353513 1.9934828 0.5105739 -0.013734578 0.16476128 1.3002088 0.4233059 -0.61321753 1.7262772 3.128744 0.045945365 -0.036145713 1.681285
217 -1.9619671 0.9515653 -1.5441458 2.5868998 1.4749624 -2.2847815 -2.9790518 2.4167626 -0.112486646 0.5641529 3.5515537 1.9447367 -2.3421848 -2.1700373 -1.1094891 1.4819537 -3.897759 2.2652283 -3.6076713 0.9966145 -2.208641 -0.67677367 1.2161977 -5.4534907 -2.4597795 2.663572 -2.7518709 0.7259775 -2.503918 0.34534132 -0.68655235 -1.1094825 -2.2219577 1.7501868 -0.75831026 -1.1118925 -0.42991057 1.5183402 -2.8753285 -1.3956165 0.5490686 -1.4094118 -1.2942415 3.5173187 1.5217807 -0.48567185 1.6403102 -1.042288 -1.8480743 1.9070913 1.5971035 0.2867637 -1.4972677 -0.65116006 3.5348222 -1.3888329 1.3664366 3.6171064 -3.1724699 -1.0743583 -5.10369 2.476814 2.5962765 -0.06725072
1102 1.8704071 -1.3664957 0.34557524 -0.30442655 0.41893855 1.4412391 0.4370752 0.6678482 0.7547389 -0.25033668 -1.4178013 0.37880355 -0.2164578 0.055381723 2.0573034 -0.58172065 -0.76734465 -0.97789645 1.016869 -2.5208318 -0.12596032 -0.2819136 -0.16180861 0.28120968 0.7446305 -0.9375914 0.19293568 -1.3069175 -0.61032045 -0.19193298 1.2021649 0.8448569 -0.7783644 -1.2749643 0.6197744 -0.42697766 -1.6329441 -0.7650591 -0.08430114 -1.8530914 1.555939 1.2049018 0.16020466 0.72206366 0.03505664 -0.7638835 0.08185626 -0.12689367 1.1167965 -0.6016761 1.6155148 -1.3269188 -0.15682131 0.21458937 -1.2004534 1.307998 0.18895887 2.9593446 1.505093 0.9382839 1.4215084 -1.3560121 0.8935874 -0.7000175
1108 0.761958 -0.8305568 -1.0156791 -1.7728487 -0.8760906 1.5780163 -0.77161324 -0.15575747 -1.2824253 -0.4548086 1.4628623 -0.29203588 0.6745162 0.082294665 0.28911045 -0.04729302 1.4147036 0.16844739 -0.15645377 0.95243335 0.51943785 0.41917235 0.9617287 2.4505334 0.32830402 0.68287134 -1.6204638 0.474752 -0.6755828 -0.42918694 0.5970276 -0.42066053 2.373983 0.8824826 -0.6401657 2.16153 -1.1459839 1.0919015 -0.008227065 2.1190028 0.3110736 -0.015230005 0.40551576 -0.16962206 0.019180942 -3.0687208 -0.14436045 0.16252188 -0.95850503 1.5442867 0.26440644 -0.5097074 2.3443363 1.8350406 -0.6075 0.7392838 1.7084675 1.5228567 2.2202353 2.8728874 2.0834796 1.4437267 -1.0423915 -0.40253612
963 2.9429004 0.5235594 -4.4424133 0.65114456 2.8849795 -1.0613927 0.33849165 -1.740978 0.89475685 -0.9701477 0.8611717 0.5962361 -1.1376767 -1.1883128 4.7668667 2.5025094 1.3462776 1.1811814 0.2470382 0.9133486 1.288342 1.7403836 1.4361537 4.7328286 2.078467 0.31080595 -1.5456533 0.27823722 -0.79606134 -0.64568186 -5.793714 0.010312938 -1.5325633 0.41604027 -0.19022436 2.0948246 2.850569 1.3861765 0.4933761 3.6025965 0.8202165 -1.9280308 1.588439 -1.0385764 -3.469785 2.9823165 2.494981 3.728073 -1.9781306 -1.5760891 1.6133833 -4.127337 -4.8827877 -2.1633666 1.5188593 0.37929228 -2.995748 -1.7826668 3.2526097 -3.3276675 -5.20316 -1.1963131 -0.11175554 -2.6460073
577 -0.81263155 0.49161598 0.9808685 3.1512382 -0.97928464 -1.0148121 -2.0843313 2.558604 1.3388441 1.103082 1.3338838 1.6168071 -2.4807267 -1.4620064 2.2314844 1.7154789 -0.51265234 0.9329068 -1.4694655 -0.54225856 -0.40951207 -1.8962187 -1.3953385 -2.7114892 -2.8217266 0.20716617 0.83740145 -1.3579885 -0.7254923 2.1587186 0.9581492 2.240908 -1.8694524 2.7740974 -1.5787398 0.23708424 -2.9406815 -1.5725799 -0.41554976 -3.5904193 1.7042024 -2.6684031 -0.84839886 1.992421 0.3450628 1.4643892 -0.8046994 -0.7173912 -0.28945056 -1.4074743 0.0090217 -0.8806635 -1.3508704 -2.9965136 -0.2781602 -0.35536367 0.37587547 2.5453503 -0.42184535 -1.3845484 -1.2190808 -0.06157196 2.3076987 1.6951176
465 0.97515494 0.5924666 -2.6878214 -1.1247326 2.0336819 -3.013911 -3.6913042 -0.71644986 -1.7375321 -1.2433099 2.6594996 -0.3566036 -0.4200635 -2.2997983 -2.1442738 0.8311468 -2.3355384 0.2375941 -4.365798 2.154052 -1.1672262 0.2606476 2.7833235 -0.94355404 0.72585213 2.1963003 -2.5903256 2.3172438 -0.5791451 -1.4827062 -3.6937106 -1.157469 1.3622271 -0.78354913 -2.0873432 1.1761365 1.6785877 1.7538432 0.30657366 0.6085465 0.17917262 -0.7849614 0.21852115 1.3792207 1.9071044 -3.550813 0.678293 -0.044698272 0.34230298 1.1030957 -0.37483242 1.0859963 1.954564 3.3353288 3.122134 -0.67726225 2.2725313 1.0110751 -2.8500865 2.357792 -0.25593317 2.4932847 0.411012 0.07165847
1483 1.9146489 -3.0955634 2.6521912 0.8548099 -0.44423875 -1.0144886 2.9410136 0.3882025 1.0925605 1.1042478 -1.492178 1.2179812 0.9457264 3.173978 3.391666 -0.5170379 -3.1571805 -1.3696276 -3.6559641 0.38513643 0.40257758 1.4610004 0.12786868 0.35622823 3.3654346 -2.2232523 2.3037615 -1.0461472 1.1880907 0.96155715 -3.0610108 0.5762369 -0.2346442 1.7523901 0.30743313 -1.3105375 -1.4424213 -0.7432765 0.48479035 -0.5556716 1.791394 -1.3060508 1.1126353 -0.8476892 -4.1365266 2.1117811 -0.78274775 -1.2691813 1.7391472 0.49799827 -1.1110858 -2.5979953 -0.57582235 0.2693122 2.9852262 0.87823915 -0.0053256 2.7079785 -3.4444287 -1.5374807 1.8095207 -0.19130059 1.9904472 2.2562153
1103 1.8527193 -0.5397515 0.06458318 0.14299576 -0.0039046535 1.1571534 0.054367155 0.36875483 0.5039433 0.0878214 -1.0091901 0.43080866 -0.215308 0.44751936 1.8149884 -0.84048796 -0.65136194 -0.9196989 1.0601895 -2.5931847 -0.85871285 -0.5388102 0.0303427 -0.32234913 0.66124946 -1.1048476 0.3006209 -1.2130606 0.17704646 0.24719213 1.102116 0.9582378 -0.44969338 -1.3236909 0.5640165 -0.7800578 -1.6088791 -0.6579669 0.1351579 -2.0920303 1.3272563 1.123797 -0.0760722 1.0110923 0.13487108 -0.8112655 0.120505154 0.18680252 1.0810568 -0.59204406 1.4440132 -1.4923091 0.48307723 0.33426303 -1.2643973 1.107806 -0.41708446 3.0155709 1.2060825 1.0094824 1.5525861 -0.58485156 0.8235399 -0.5824947
504 1.6983905 -0.09104637 -0.47880068 -0.5267878 -0.21414596 -0.9380897 -2.0381784 -0.26592648 -0.5910788 -0.6821139 -0.51226616 -0.9205939 -0.9390158 -1.2007909 0.84114283 1.734763 1.3441539 -0.5230509 -2.4772508 0.5522414 1.0130217 -0.048230104 0.29881802 1.1609913 0.7419056 -0.14965934 0.19011909 0.2465371 0.6658108 0.34931818 -1.3262546 1.500687 1.0231571 0.4094976 -2.4925835 1.996277 -0.40536186 -0.9589867 2.6689315 -2.0679164 1.4584038 -1.6978863 0.2739176 -0.7609933 -0.35228595 -2.4085925 -1.0066743 -0.23989347 1.646861 -1.5938611 -1.3630096 0.96085817 1.7536527 1.2514368 -0.03101516 0.45789772 1.4411573 -0.10491114 -1.2053547 1.6548569 3.1238139 -0.0067543886 0.07721623 1.7860966
1446 -1.9655552 -0.71523964 0.004888943 1.9041449 -1.441308 1.5266579 -0.5229535 2.4683244 0.8560889 0.80106395 2.3935537 1.9395459 -1.2441652 0.34143347 0.9816938 -0.07246174 0.15032484 1.4874036 0.7005688 -0.270006 -1.0036955 -0.5842393 -1.3132079 -2.3061686 -3.430814 1.246286 -2.2150373 -0.96339375 -1.7179253 1.2948014 3.3315837 -0.38515225 -0.1589846 2.7737472 0.1305714 0.19544715 -2.3207033 0.2806695 -2.429742 -0.13975196 0.2166891 -0.51863056 -0.8855599 2.27984 0.6106334 0.12544319 0.32716316 -0.381144 -2.0731938 1.1341106 1.2788696 -1.4179989 -0.31313297 -2.0969489 -1.1359599 0.43795878 0.35708222 3.7347977 1.9140228 -0.3896526 -2.4669833 1.6654652 1.0231153 -1.3186717
1009 -1.2794266 2.0900123 -3.218076 0.91944784 0.9991141 -0.09194035 -0.24270941 -0.4211245 -0.6064053 -0.5131936 -2.1532369 -4.942921 -1.7501577 -0.4238149 1.7589706 2.4318616 0.21162748 3.6956348 1.3373053 0.46568105 4.844383 6.900844 2.040635 1.0532407 0.2877908 -0.1350337 1.2890428 -4.0172124 -1.2423403 -0.6836545 -2.2300367 -0.27910092 1.3030986 0.051895045 3.448566 -0.627756 3.8806193 1.6701903 -1.2035693 1.8352853 1.8646277 1.2685072 -1.2499374 -1.2413458 -2.9749975 2.6230276 -1.2698637 2.8585894 -3.3322213 -2.3125422 0.58618754 -1.0251721 -2.0173914 -1.9293588 0.78759414 -0.62691605 -3.0475566 -1.4101638 -1.5942055 -0.7727794 -1.0422132 1.5893449 0.15593648 -0.6632092
1100 1.5513926 -1.1258324 0.21345066 -0.152567 0.075513706 0.99292505 0.062416397 0.2591674 0.07549471 0.22685072 -1.3280708 0.4246867 0.06435927 -0.08148522 2.0219326 -0.87109786 -0.31667396 -0.6983072 1.2866281 -2.5352304 -0.46785736 0.12265965 0.37079266 0.09711029 1.0940124 -1.4429433 0.65176255 -0.5907776 -0.26608366 -0.09402985 1.1142222 0.96434325 -0.705629 -1.6583132 0.56846344 -0.61891407 -0.91640407 -0.6484082 0.1154281 -2.041983 1.3844438 1.3497888 0.034108423 1.0984287 0.33286053 -0.65425384 0.48445114 0.0076738116 1.3621957 -0.48652622 1.3161476 -1.3918405 -0.6084939 0.17406085 -1.5625432 1.4993435 -0.15360996 2.9621596 1.3518772 1.5074166 1.0958755 -0.9324276 0.92175835 -0.43909678
791 1.5434611 0.30305865 -0.098551184 -0.89655817 -0.6206092 -3.3026936 0.39826944 1.8098471 -0.85366184 0.24458407 -0.1632245 1.5585811 2.265455 -1.0845144 1.0381131 -0.12042668 -0.5515773 -3.586444 1.0649875 -0.38990337 0.5806726 1.7478366 -0.3086848 -4.626491 -2.983497 -1.3184738 1.4033926 -3.5793684 0.45675224 3.0414157 -1.6401955 0.89546263 0.6155722 -3.546007 -1.8178555 -1.2476698 -0.11531899 -2.312032 0.30325872 -1.3464932 2.183822 -0.5748621 1.8331105 -0.9637523 -1.1036261 -1.697311 -0.8952454 1.7210761 2.2627318 -3.247685 -1.289158 0.24322435 -3.0230958 0.15075843 0.7413392 0.89674973 0.7952438 -0.14708582 0.64611435 -1.6809869 1.7810755 -3.09905 1.3853583 1.7200665
1426 -1.6248324 4.2551756 1.4603031 -4.398482 0.877998 1.7677075 -0.49093425 -2.312741 0.40723586 2.6502032 -3.5742261 3.4926555 2.588077 2.929584 0.007246607 1.9943231 0.5264619 -5.7515616 -0.37916014 1.5896626 3.8132238 2.241348 0.10714499 0.8619914 0.18613152 -2.108712 2.7648745 4.7750897 -0.33110878 2.0595257 0.65690774 -2.062549 -2.7874174 -2.3462265 -0.66815066 1.1123793 -0.43791702 5.130485 -5.130408 -2.4563184 0.8331966 -0.9395569 0.50927275 0.12482499 2.163973 3.0815077 2.662513 0.1920676 -2.616379 2.2738 0.6240189 3.5651927 -0.5280623 -2.7394414 1.0932243 -2.8411543 1.1238344 -2.6748207 -1.2564646 0.7470799 -3.133015 -2.925362 -2.747276 1.4512106
1428 1.6006393 3.4493124 -0.3671036 -0.9041113 1.3651876 -0.04600887 -3.5465333 -2.7977977 -0.6894827 1.0785406 0.040068414 1.2618358 2.4077826 1.120176 -1.8794631 2.7346613 3.4354827 -4.4569435 -2.1714952 2.9005666 2.6163526 2.0019383 1.9687902 -0.00019078644 2.660462 -0.3188335 0.801621 0.9546575 -1.9376668 0.61843836 -0.89971125 -0.4310254 1.8725166 -0.571091 -2.9134548 3.9009564 -2.3982558 3.2599525 -1.8664907 1.1904545 -0.31981772 -2.480771 -0.62981147 -1.209445 0.3260522 1.7547213 0.86359435 -0.13866247 -0.9231744 2.8276844 1.0852499 2.1376271 2.9181144 -2.1635516 -1.4408153 -2.1057425 2.8715186 -1.6623808 0.47035012 2.3143966 2.0587072 -0.20912094 -3.04484 2.6942616
701 2.7047486 -0.17564243 1.1581051 0.77470773 -0.6003262 0.88375956 -0.44817737 -0.40114316 3.4373624 -1.3257858 0.48437595 -2.5283284 0.70164376 -4.4641666 1.300157 0.8598719 1.8156122 0.41635507 1.7449162 -2.149645 -1.6333637 -0.60462904 -2.2968898 -2.1903708 2.1997418 -1.5040288 3.4367218 0.8217075 0.35558522 0.8309244 -2.7524388 0.8509086 -1.52286 -0.82222146 0.9180484 -0.9874922 1.4177507 -1.5914958 0.06560751 -1.9065748 0.68167233 1.8345859 1.0039265 0.10642985 -0.5677206 1.6647508 -0.812575 -2.6864123 2.1283195 -0.4720701 -1.5787373 1.3312675 2.1204805 -0.33259133 -0.4082371 -1.8678391 2.0719435 1.5486898 -1.6564252 -2.008061 0.13933603 -3.4272883 -1.1035756 -0.5652243
1000 2.2607162 -0.448025 -0.1375913 0.1406825 0.2449926 1.340341 0.1731956 0.44297144 0.2868823 0.4316241 -1.1318761 0.50289375 -0.08376506 -0.07682062 2.1019325 -0.8112004 -0.4067716 -0.67791706 1.3321604 -2.6578798 -0.09906207 -0.32791126 0.17683685 0.15988441 0.92347807 -1.4120276 0.56323606 -0.31413844 -0.4285933 -0.037115484 1.1527185 0.88187987 -0.806518 -0.8044953 0.35367107 0.008514176 -1.2939194 -0.64354646 0.17743906 -1.9057117 2.0460095 1.3092552 0.1458399 1.5684633 0.1741685 -1.033118 0.42704156 -0.2577024 0.85803103 -0.59394324 1.3473877 -1.1489077 -0.13113604 0.06148659 -1.2693297 1.1063397 -0.23248495 3.0341797 1.5780847 1.4401027 1.5069523 -0.6198834 1.1511348 -0.39546373
1272 1.3141048 -0.06657378 -0.015065489 0.121799745 -0.4597473 -3.4214435 0.52916086 1.6597651 -0.58530134 0.16679898 0.4485922 1.2112488 1.9323099 -1.1637961 0.9448613 -0.7318983 -0.7625649 -3.5254574 1.2842681 0.011602682 0.8818009 1.9105524 0.15737487 -4.3974214 -3.4001677 -1.6621414 1.3919061 -3.4786327 -0.063388065 3.3855124 -1.8159449 1.1879258 1.0665611 -3.5526779 -1.7315927 -1.5345104 -0.0012555391 -2.4808123 1.3127414 -1.1669384 1.633446 -0.94226813 1.7642645 -0.90018195 -0.8284561 -1.2077413 -0.6269448 1.4205027 1.8900276 -3.3312144 -1.0204823 0.3198041 -3.3304396 0.079763286 0.59345406 1.3413868 0.2927748 -0.52596503 1.0335371 -1.5331006 2.2603447 -3.6126294 1.905958 1.6374445
299 -1.2758355 -0.8277392 -1.4018332 1.5059913 -1.7199106 -1.0113829 -2.2539058 0.08280394 -0.7227159 -0.8709351 -0.31849468 1.8850183 0.6368776 -2.3304722 0.7954425 -1.2949419 1.6132964 0.5111119 -1.665137 3.170025 0.44280747 -0.81090605 0.1146205 1.3505083 0.8898013 1.4131112 -0.613035 -0.21065077 1.1361717 0.7836765 -1.2472531 0.53042275 0.88427866 1.218538 -0.17016076 2.2456653 -0.27494135 2.6507697 0.49706337 0.85262823 -4.59269 -2.3709507 0.32837063 -1.7855301 2.2039242 -3.3032117 -3.1589851 -1.0805553 -0.5804951 0.21718794 0.055738874 -1.4238002 0.6408635 1.7834306 0.40586025 -2.0899127 -0.17243935 -3.8183918 -2.527626 0.14306447 4.446678 1.1830165 -3.9763005 0.35877776
162 -0.7737134 -0.9549837 -1.8113525 1.36841 -1.4516224 -0.99662536 -1.8808354 0.14414467 -1.2840362 -0.676178 -0.7501623 1.9650469 0.82560575 -2.476209 0.94357175 -2.215827 1.863063 0.33771175 -1.8326255 2.9873705 -0.03664947 -0.6319572 -0.20242243 1.2913845 0.92053014 1.7195537 0.09241646 -0.20855507 1.3517909 1.320012 -1.0310783 0.37324324 0.48479897 1.0832566 -0.44368687 2.75189 -0.3120626 2.8320508 0.6146835 0.8304745 -4.280538 -2.5900643 -0.1234707 -2.121018 2.0780942 -3.3795402 -2.7308776 -0.87772334 -0.17785332 0.7712521 -0.20238435 -0.99807113 1.1039016 2.1430635 0.6836348 -2.1935513 -0.6584047 -3.2808363 -1.986941 0.00068499404 4.892065 1.534474 -3.9593806 0.08362477
516 0.71490085 0.4790081 0.8505744 1.0989234 -1.8008591 2.2189212 -0.8459605 2.7536337 1.0517972 0.6315163 0.37809238 1.8945215 -2.3632474 -0.866403 3.5893824 0.9678297 0.2903395 1.2778875 0.040988956 -1.9304016 -2.2251296 -2.0344934 -0.5068395 -2.4670422 -2.150838 0.30304343 -0.44354022 -1.6784314 -1.355661 2.4501877 3.1800928 1.3283033 -1.1623944 2.2753832 -2.0735567 -0.7252887 -3.7462244 -1.5002515 -0.9166209 -4.2180486 1.9835235 -1.0133624 -1.3569869 2.3658767 0.80613077 0.10142289 -1.1183618 -1.3017489 -2.4668477 0.3942213 0.8898971 -2.367001 -1.1528709 -1.1194037 -1.6279215 -0.27445298 0.3240661 4.9460707 1.4823725 0.27577046 -1.1524708 0.403203 2.312286 0.1190426
1190 1.8882878 0.8274674 -3.1091928 -1.7895435 0.2729962 -0.3282203 -2.5436013 0.41143653 -0.045093644 0.5089335 0.9705245 -2.6557148 0.46414438 -1.8514088 1.0604502 3.204319 3.3064187 2.685873 -0.4617169 1.9180796 2.813914 1.4641947 1.8215135 4.1517506 0.4083912 -0.20143151 -1.3012718 -2.2442183 -0.7760683 -0.38506225 -4.772627 0.2485519 1.7664672 1.4134045 -0.72703445 2.9667265 1.3860387 1.253134 0.74864227 2.282816 -0.40685302 -2.279568 2.0922413 -1.4991575 -1.3789315 -1.3973684 1.3781849 2.361576 -3.577066 -0.9083127 -1.1719707 -0.62921053 -0.59129363 -0.5826984 -0.011745155 -0.789205 -1.803418 -1.4326497 -1.0335736 2.0070097 0.535306 2.3333702 -0.6438242 1.1959983
