2996 64
4 -0.4584545 -1.1317128 -0.092854515 -1.6102275 -3.3156235 2.2809272 -0.8404379 -0.10832687 -1.6708082 1.4788091 -0.3557789 -1.8254435 -1.2672976 0.45842388 0.71005636 -1.1436638 1.4350779 -1.7293262 0.3897241 0.74434644 -0.7883165 -0.24401888 1.491282 -1.1694292 1.3670002 -1.6882331 -0.78976583 -0.8765991 -0.63855255 0.08863183 -0.62664783 -1.3240354 2.804328 -0.37800464 -2.4381812 -1.0575768 -0.64199895 -2.7724128 -1.1449953 1.963853 0.5884165 1.4583949 -0.9983221 0.99620426 0.16867428 -1.0691785 1.5902579 0.62143517 -1.2403145 -0.18281792 -1.5776728 -0.27295974 -1.6014522 -1.9602624 0.26300582 -0.18777908 -1.228447 1.2609305 -0.58728665 -2.8943527 1.6504359 -0.97452694 -0.2779635 -0.5627206
22 3.1100972 -1.5336351 0.07231757 -0.776457 1.4060776 -1.0427691 1.1427413 0.15733328 -3.831858 -1.1171182 0.42595237 1.7863303 1.6365554 0.57857656 -1.4194368 0.18892701 -3.2356727 -3.424666 2.3120935 1.2720747 -0.377815 0.48381364 0.003613104 0.87332475 -2.7638872 0.50070643 -1.5003748 0.5709667 0.930653 0.3277101 -0.31425616 2.4505897 -0.24683346 0.04993932 1.5150936 2.4474192 0.15756325 0.9706035 0.8442942 -2.0291793 1.3505983 1.6976166 -0.41779855 0.44834134 -0.40404344 1.4790051 0.4353131 -0.43478552 -0.90802294 -1.2348735 1.6478584 -1.6233004 3.9114 2.1862516 -0.025594477 2.5274415 -1.6685944 -1.484637 0.69768786 1.0129321 2.1327379 0.33102626 -0.35407564 1.1112189
3 -3.9391122 1.8521852 2.6000166 -0.62694937 2.9239717 -1.0741091 1.1445012 -1.3861945 -2.141184 1.322769 1.230671 4.1818466 -2.058091 -1.862135 2.3643632 -0.27147958 0.0005420252 6.273332 -1.3518772 -2.6689303 -2.0982246 -7.9748664 -1.958822 5.643198 2.1078699 2.0489051 0.856055 -1.0171626 0.14191018 4.1425543 -1.6777045 -1.0511438 -6.4361696 1.8941804 3.5993228 2.9848282 -2.438005 2.1101272 0.23467672 -1.6282363 0.1979372 -1.1469187 5.948018 -1.6202856 0.23119237 0.37283552 -3.9241695 1.2271702 2.548896 4.7138925 -0.51552194 5.3542857 -2.2473695 2.0347292 -1.8120464 1.2635528 3.7303295 6.772223 -1.3016493 -2.1833286 0.2567614 -2.6819956 1.5268674 0.7851187
45 3.7448227 -1.1339178 4.910767 3.0646796 -2.9903224 -0.51704943 -1.465754 -2.7921145 1.896213 -0.03725667 1.5976737 0.60968935 1.205641 4.002335 -6.0008044 -0.47605246 -0.25079772 1.2053858 -2.5586011 -0.6490168 0.5700228 0.14951108 1.5820347 0.8005273 1.4375712 3.7393994 4.4520674 2.3645604 -0.8599467 -2.2773218 -0.04468981 -2.7685153 -7.011602 -2.8067482 -1.7249588 2.1796749 -3.7775073 4.701408 1.2458326 2.6417654 -4.482557 -3.0577612 3.7251961 -2.3564339 -1.1085105 -2.0707169 -2.367804 0.7091081 -2.962886 -4.533118 4.1783743 -5.1689806 1.0082618 -3.147511 2.2533836 -4.9027047 -1.7170557 -3.7245111 1.6865325 -1.0089941 -6.4506526 1.9197228 4.341569 2.9333498
7 0.46484816 0.6389555 0.0015372918 3.47621 1.1847379 -4.81323 2.5039358 3.0919807 2.0913205 -1.7334617 3.981167 -9.186304 0.5292088 -1.8744696 0.8067946 2.5153499 -1.155412 -1.6986504 1.831235 2.5463674 1.451361 3.5394254 -1.1456201 0.6328675 -1.9098603 0.03591673 -1.1734465 -8.536692 -0.047468986 3.1329682 -6.5108013 0.9225196 -1.633336 0.20139176 4.6469254 -0.13959517 0.9261989 2.803566 -2.957032 -2.3246367 1.358795 -1.4095354 -0.011586965 -5.5365133 0.7041865 1.0225672 -6.2818093 2.4478824 -2.1684496 -2.6068227 -4.7227516 -1.8548204 -3.6981096 -0.533436 -1.857678 0.2039976 -4.2869325 -2.181708 -2.4391642 0.99092644 -5.892648 -0.1380853 0.8326405 0.032664202
28 6.194181 1.1358039 0.372097 1.5389454 2.9417844 0.8840533 -1.9939731 -5.113601 0.022476893 0.83631086 -0.16532521 -2.2918108 -3.9108999 -4.315054 2.7118595 2.9847841 -2.4110663 1.3601894 0.32302588 -1.5393858 11.836015 -0.44820112 -1.5782464 -5.909755 3.2791371 -5.6044116 -1.3918362 5.0797815 0.24804631 -0.14261648 2.6044202 0.304796 1.0952568 -2.255621 -1.5237802 -3.344172 -3.0154269 3.1675148 1.7967122 2.7055197 4.2018733 1.447848 -2.9690266 2.4891748 1.9525727 -2.3872466 -2.6805036 3.528317 -1.799803 1.0356613 -4.7382307 1.6595331 1.1455668 6.3098464 -1.0730373 -2.6128702 -0.02708063 2.026224 -0.37006232 7.1496143 -2.5465877 2.5177476 0.5707539 0.09421989
42 -0.17753698 -2.8371825 -3.8753786 0.7281223 -0.9499958 0.77327144 2.0354955 -3.6021798 -1.2926337 -0.14122252 -5.0187693 1.1835641 -0.5579236 -7.84656 1.3687754 2.1082017 -0.91016835 -4.4129786 -0.44084376 -6.2991347 5.185158 6.8949437 5.3842454 0.74091464 -1.364553 3.0393162 -1.7121139 -2.9040153 -7.2543483 3.5308452 -3.690714 -1.8554472 -0.4571967 0.7638627 0.023940291 -0.44063494 -1.3940805 -0.6951607 0.94766134 -0.14249383 -3.446709 0.13954291 3.173318 -2.120144 8.360847 -0.9968224 -1.0173198 2.4175725 4.6695876 -2.3699207 5.0558743 0.20500243 -3.670086 2.8636053 4.823807 -1.2654098 6.73932 3.3384202 3.089561 0.79211 -2.921022 -2.6641748 -5.080431 1.6727324
23 -2.8776674 -2.1581771 0.033602 2.7373688 7.0674477 -3.205105 -1.7133332 4.0271926 -3.7268877 0.797465 -1.7283224 2.453459 -3.7322342 0.3087088 -5.49847 -1.1431211 -2.0624073 -2.3012464 -0.895556 0.0068368632 -7.473326 1.4928287 -2.5138319 0.9363889 -0.972593 -2.503623 3.1492405 2.6993034 8.077989 -5.9102445 -3.8972535 -1.4607946 0.8949785 -1.1904672 -2.430895 0.9950438 -7.128019 3.3049092 -4.6822124 0.57183856 -4.350616 -5.3896503 0.885899 -1.9519123 -3.3503532 -3.2506666 -6.3607783 -0.41343394 2.8920267 -3.2293432 0.6546015 0.0087985 1.3971055 0.70507234 4.715955 -2.6235354 4.4128275 1.5749311 -0.17913674 6.256242 -5.9768887 -4.303146 5.8810096 -5.0266676
26 -0.036262326 2.1102092 2.1612947 2.8928869 1.9769095 -6.134131 -5.9154973 3.1792085 0.123860925 -0.22715153 -2.646529 2.7587945 -2.5020132 -4.011915 4.56476 -4.685052 2.203128 10.629145 -0.19272739 -3.5659082 -3.9236474 -0.067383975 -3.5704756 1.685683 5.897884 -3.3427448 -4.8768907 0.040039677 -1.7706927 3.1051128 -3.399855 1.0647521 -1.7022905 5.487642 3.867685 1.6697164 1.0349585 -1.2779642 -5.0763125 4.926146 -8.117627 -1.4375728 0.79956037 -6.9342775 -2.595305 0.4540699 -2.516063 2.6194878 3.1226635 -0.2507774 2.2600074 -2.3670058 -3.0337794 1.3516979 -2.610899 0.5781985 4.2794213 1.5554247 -1.0991838 0.6026957 6.8537564 -0.25464353 1.0260063 5.323254
25 4.573716 0.83035666 -0.5599735 1.406142 4.8878937 3.308591 5.736174 1.031699 -2.0489483 1.0474476 -4.3646846 -5.26485 1.5545689 -4.9147086 2.2816656 -6.480688 5.7417765 2.1790435 -1.757067 6.3042088 -2.171257 0.16995277 1.422099 -4.2204075 -1.0382345 2.0340066 2.878874 6.9217296 -4.564946 4.7645106 -0.3661076 -3.2970874 -3.6716406 3.2676914 2.364419 -3.1977005 1.5078522 1.536216 1.8821182 3.8443658 -2.7742255 0.047861733 -2.8689308 4.2102437 2.2186463 -0.8050653 -3.1661422 -0.25990206 -2.013324 7.1760335 0.52639854 1.6145267 0.74878204 0.01978248 1.056278 -0.6038083 -4.8304505 -1.1347419 1.3961496 8.888069 -3.0400145 -3.6648233 2.114326 -5.1309676
24 0.9490692 3.4409091 3.0120265 3.0107195 1.5074885 -5.6568713 -6.92326 2.3203762 1.2427665 0.15830392 -1.2295101 1.5332261 -0.007990181 -1.6071379 -1.7753874 -2.7637198 2.0406442 4.406142 -0.9838458 -5.5546203 -7.331577 -1.2563218 -2.562011 4.5610332 -1.739648 -1.7734053 -3.582831 1.0144209 2.6957939 7.6788974 1.1745665 -2.7717826 -0.07739201 -5.4345264 8.8566675 -6.0225644 -2.378382 -5.3004007 -4.176354 -3.9310853 1.6103199 -2.0382946 4.844269 -1.1802096 1.8862411 -4.579047 -0.64084744 0.5478782 5.2062683 5.2165127 2.8148417 1.3323399 -1.4251429 3.2373188 4.5737443 0.9400824 -1.5393672 -0.8424387 -3.1267486 -2.3249297 -1.2992713 -1.0179505 -2.1284556 1.4705561
15 -4.1098714 0.55270106 -2.4264011 -4.500619 5.2348404 -3.3118403 -3.0026507 -5.854719 -0.9341909 -0.7742073 -2.381124 -4.0394516 4.5531507 1.0128785 -5.079503 4.761368 -1.2433003 3.2841115 -4.6072946 5.046086 0.82722765 2.67904 2.508736 2.2055633 -0.15215226 -1.1196691 0.6288085 0.19835007 3.9562755 -6.9006314 -8.410526 2.741856 -2.2320564 -4.6031365 0.50387543 1.5601741 3.9059608 -5.6305103 1.687602 3.3448296 0.16119157 0.094116 5.198547 0.11715247 -2.3630993 -1.2851278 -6.367989 2.7732794 4.22817 3.2571807 6.946095 -0.602502 3.4211388 -4.455471 -2.8112998 -7.6411304 -1.8871126 4.2330446 8.107602 2.3564436 0.68530816 1.8994185 3.7754815 -1.2361625
33 -1.7227322 4.263696 1.5289805 -5.9135113 3.0328546 -11.732011 0.82759804 1.4609778 1.0598956 2.6031005 -4.449188 -6.8030906 6.2472897 -4.5700274 -3.9861467 -2.289346 0.32351336 1.1511563 2.0017774 3.597336 3.2154348 1.6541955 0.8555438 -2.881164 3.7902653 4.7766886 -1.8620039 6.9256263 9.471218 2.6248543 2.7039807 2.1673293 -2.4329815 6.2844768 -1.6714593 -1.2115698 -4.3241944 3.392256 1.5906658 5.8089004 -0.6025676 3.1840358 7.383827 -1.0841101 3.0109313 -1.1304591 -5.9184623 -1.3845127 -3.688509 -3.2626455 -1.0726429 -8.308483 3.5782273 -1.8701652 5.337818 -4.2734613 7.3409305 -0.13446358 2.3489664 -7.0637712 -4.8552313 0.38610053 -1.389007 -2.0023587
100 -4.384139 2.1361954 2.5155542 -3.447926 -4.733655 -4.6767774 0.4553413 5.449553 0.8206649 0.33959764 -3.4664688 1.6415048 -2.751075 -2.3943665 5.851672 -2.7369483 -1.7368677 -2.9902785 -3.5531504 0.9725657 6.1416655 0.7545906 2.3735745 1.2747955 3.400923 5.242792 -2.000389 -2.095782 4.640244 0.16564795 3.3313005 3.7295568 -0.8847515 -1.5526508 3.2589917 -0.6405011 0.36481112 1.368214 0.46657538 -1.9351441 -5.8032165 1.896391 -2.4799452 1.3797728 -3.503537 -5.0027986 -0.764236 -1.3709999 -1.5333517 1.1241794 0.17414828 0.9521011 1.9365947 -0.28016156 -6.4974346 -4.407452 -2.1834104 -0.48322317 -1.7072539 3.1668758 -0.87250173 0.10459139 -0.6892586 7.0538893
20 -5.0245805 2.8763742 7.612579 -1.7286078 2.902066 4.5926433 -4.632915 5.313931 -0.2960032 4.815942 -0.23993228 -5.4594083 -3.048544 -3.6278887 -2.026164 2.0130546 -8.528904 4.2174177 0.13154763 2.7005973 -7.025106 3.3041444 -1.528022 -4.5004454 -0.016917288 -1.5048641 2.4706988 1.517381 -0.2170485 4.7523804 0.24702208 -0.27663788 -1.238303 1.7343446 1.0485139 -0.68949664 4.917374 1.2495387 3.2552245 -0.39599386 -4.4924483 -4.319854 5.332802 -3.790971 4.960656 -4.978037 -4.379435 2.1479292 -2.2676544 -0.14042367 -0.22585337 0.6231726 3.9029102 2.4183068 0.7802907 2.8399823 2.4907072 5.783465 6.2835107 3.635027 3.459308 -2.638809 -2.0571568 8.650868
55 1.5312765 11.71122 0.9259019 -1.1427989 0.42756942 -4.443293 2.5871387 -5.457673 0.095138445 -1.8067763 -3.7908788 -3.0743997 -2.1163704 2.1566918 2.3342345 2.0617228 -0.26326156 -0.83662826 -1.3457355 4.499178 -2.491342 1.603127 7.1262136 -1.6854582 -6.745517 -3.9629345 7.3768673 -0.03349653 0.4843646 0.26740524 3.9960291 2.1757064 -0.26262692 2.8810592 2.893994 0.95766115 -8.670021 -0.33054456 0.83847415 2.5999742 -2.3663812 -4.772404 -4.068103 2.2691448 -0.16798888 -3.4027073 1.07746 -1.8313265 4.637772 3.5764046 -0.4658271 0.51010764 -7.1571617 5.947238 -3.7374067 1.1115077 -3.3709373 -1.1395909 3.8979998 0.3468827 0.09723231 1.337142 -3.5227456 0.11495515
59 -0.27769676 8.694146 0.50877124 -1.2034549 -1.3364955 2.6226163 -0.93891805 -0.9597971 0.18241553 3.7564664 -0.6313364 2.2519643 2.656561 -3.6425614 -1.3203405 -0.96631384 7.5364413 -0.112200975 2.6037493 4.44558 2.1031854 3.0716977 -3.2630534 -0.7722764 -4.5024886 3.5357711 -2.4169006 0.72882944 3.6984413 -3.8266737 -6.574969 1.5359408 6.6228127 3.4213684 2.9685044 6.3416224 0.8608075 -1.4557377 4.984847 -2.5484538 -8.341958 -2.1311152 -0.24914846 6.8230767 1.678487 3.9006655 -6.606385 9.016785 -0.052628383 1.979151 -5.4090323 -1.0658123 -1.0155029 5.635723 8.31282 -2.6566656 -1.5010337 2.5563307 -7.350544 -2.8843272 -1.4177992 2.8886647 3.3964396 5.3528485
36 4.055775 -0.7020426 -0.30993232 -8.625926 5.761847 -0.0016142764 0.09795166 3.7005606 6.3670545 1.4785913 -3.2998106 -0.69034445 -3.8903573 -0.3807788 2.2014601 5.6210675 2.1489697 4.1711416 -0.97352964 -3.3966799 -1.0127658 -2.8125274 5.8948402 1.5577831 -5.1217933 -0.5567707 4.061221 0.39975533 -2.554898 -0.49992898 4.1806827 7.501 0.77270436 -3.4780254 -0.76124203 -1.3640244 1.1155578 3.3379996 -2.8261921 6.5800233 -0.41464087 -1.9754137 -5.3780613 -2.1419003 6.03077 0.6617693 -1.4567233 5.9127917 -3.9746974 -2.5379782 3.3590248 -2.521567 7.5126123 7.0051875 -1.9199367 2.5899765 -3.0919826 0.7861461 -5.7094812 1.0260803 -7.146105 -0.34526688 4.0741844 -4.139764
5 -4.697068 1.834608 -3.7251945 2.6341136 -0.19864182 -1.9514858 1.3022954 -6.750547 0.27020115 10.146941 -2.401183 -3.7724142 5.164716 2.478094 1.4489149 0.7265105 3.9680698 0.7820251 5.551989 0.4431578 1.8626556 7.4047728 1.5848082 5.1255393 0.9237524 2.1039608 -0.6086435 2.5325933 -2.9490285 -4.5209675 2.6089263 -0.85734266 -3.118409 0.7425628 -0.9465224 -6.079927 1.6584255 -0.089315474 -8.99593 -3.8747787 -0.8307421 -0.23833461 -5.3365183 3.0433679 -5.0232563 -8.599527 0.013712189 -4.3262935 -2.8116267 1.4169332 0.46040884 -7.678515 -1.9107957 5.8511753 -2.579579 7.888945 0.88189685 9.836353 -0.0430169 1.5541885 -9.402886 -0.31073007 -5.136692 4.8232675
37 -5.2795568 4.5784855 1.6425155 1.6353134 4.860061 0.79517776 0.6648012 3.850152 -4.460303 -2.9435077 -5.4530625 -3.2222426 -1.2773174 0.18783689 4.4653616 3.490526 -3.5168188 8.309371 5.05559 -2.2482018 1.982577 -4.5216494 0.119438134 0.5641504 -6.4112206 0.98071754 -1.1304343 -0.4629673 4.3125095 -6.1304455 2.8728006 -2.1791716 2.2291665 -4.6073055 1.80451 -1.4093693 2.3795056 -0.44628477 3.5447626 1.8410112 -5.4962044 0.89570963 5.143105 0.66697586 7.563394 -1.3154689 -3.9539227 -4.169601 -7.825376 1.2399561 5.0696387 -7.0144234 1.914212 0.2200542 -0.58402294 -3.5681994 -5.3740654 -0.36155117 -3.4223373 1.1846302 -7.3478475 -2.6386247 4.257749 -4.374939
43 -1.0967525 10.52093 1.0206393 3.3704178 10.864562 -2.0332105 -1.295978 0.80165 -0.82686985 -1.6611603 -4.5166135 -4.877702 -2.4580219 3.4440188 1.8937433 0.55459005 2.2168436 -9.739836 -2.7280557 4.61998 -0.10199992 3.1476414 -0.5283998 12.731182 11.084048 5.8075504 -3.3386154 -1.2196053 -5.977666 1.3523369 -1.5534434 1.2848227 -1.046916 -3.2212234 0.83654356 -0.8198541 -3.4159844 -6.2643504 6.78316 3.4627814 -2.5737572 -3.8769128 -5.590026 1.8019003 1.6595665 -2.0419405 -0.8795677 0.91219443 -5.5833974 3.7148626 -0.17750019 0.93159133 -0.20980628 2.073135 6.1069374 2.7027876 -2.4795134 -4.3521767 -1.0964242 -0.9820402 -0.2076204 -0.8525275 -2.688467 2.0262105
12 2.9793718 -4.558609 13.255878 1.0394031 8.041458 -1.8610498 -6.0264325 3.4851902 -3.7515779 -0.46202374 -4.3978148 -0.93866926 1.3500613 7.272798 4.2682867 -6.4667683 4.897629 -2.0708814 5.286454 1.9981636 10.752171 3.536709 2.7627556 -5.631067 2.6202443 4.6966143 2.7056715 -3.3401663 2.9935641 1.1549096 -0.16361834 -0.8759448 -6.0448184 5.1135187 4.4703784 -0.9653198 0.67988366 0.5826713 0.30250287 3.8449206 -10.488664 -2.0455918 0.09493147 -0.8921279 -1.4098141 0.456944 -2.1114295 1.51921 7.0444245 0.5515919 2.5372825 3.3110921 5.0537014 -4.4747 3.9343681 2.2887216 -3.499171 6.371424 -2.066971 -2.8043482 -3.547457 12.051805 -5.684044 -5.340103
87 3.3086123 6.862035 1.2995082 -3.9247243 1.0902753 2.630562 1.403869 7.049006 -0.37182212 2.0081434 2.8538902 0.24870154 0.7292606 5.0978565 -4.7177215 3.5985641 0.31786874 1.2891458 2.7880168 -2.0183334 3.2867672 4.0291266 4.98184 -3.9025896 1.9966732 -4.2335553 -3.0723028 4.380125 -4.2035885 -1.0352929 -5.553083 0.8083543 0.39573932 -6.8362484 5.091887 -3.272487 -0.07165169 -2.6893954 3.7941916 -1.8192189 4.0535564 -2.3740082 -0.80550605 6.4650707 -2.9023058 2.2601094 -0.41986132 -2.8808453 1.9865203 -2.4578738 6.2150583 -0.68189013 2.3928063 -3.437677 -3.8279016 -4.615265 4.4076533 3.3511217 -0.82036096 1.3890775 -3.5836225 2.8832886 -0.99662226 -0.82938486
16 -0.40225038 -1.0822365 -3.027818 -2.719691 2.0860622 8.081498 -1.0320127 1.7230029 6.7898054 -0.6719237 -1.6412536 -7.775066 6.7736726 -1.5520083 -2.49618 2.068161 -2.2047932 2.1764727 -1.065449 -1.6472284 2.6819375 0.8067447 7.120733 6.3862243 3.6221135 2.8446648 3.4359972 1.3636836 3.4587493 5.5734444 -8.2913475 2.4372294 1.6004069 -6.8603077 2.5063634 2.8610928 -5.6974854 -0.5504907 -1.6320772 0.84443504 -4.2969875 0.23497713 -0.67576426 4.4984055 -8.356222 -0.041681036 -3.8875275 -3.3145754 6.2473326 2.4088798 7.206589 -5.432927 4.912136 -0.46607885 -0.87343276 -3.0949466 4.408421 -3.3916345 0.31561166 3.0223763 3.6830704 1.5928198 1.9055836 2.1376698
1 -0.6285271 3.3696508 1.4388739 6.5755787 2.9924195 6.29172 0.11974569 0.8332734 4.414274 -5.13334 -1.3448728 -1.5427643 1.5842298 1.143723 3.755226 1.5946935 4.907824 -3.3263485 -0.18782623 -1.6761148 6.828188 -1.2782773 2.361242 -2.5632565 -2.5475557 -0.13296843 7.2964315 4.7509727 3.7405872 -3.333996 0.74169594 4.199613 4.835327 -1.5026525 3.3645496 2.3300657 -1.0243794 -4.137853 0.4351122 3.6294615 4.832004 3.5203738 2.8366165 0.46340483 1.943945 -3.427871 -1.719747 -7.0773892 -4.3280864 -2.1806998 3.1573195 -0.93608356 -3.900722 0.70497835 0.9100591 0.8003833 5.48037 1.9836643 -1.5722216 3.1548383 -1.6276004 -0.79205376 -3.8970633 4.5147343
14 -2.3745394 3.2063832 -1.2701986 2.0611098 1.4191096 3.6087782 2.3182187 -2.1313078 2.1167467 -0.54438955 -3.2131984 -3.4716291 -4.140296 1.0809314 -3.2487867 -4.3551316 -0.28120744 5.078998 -3.5637639 -1.880025 3.7195494 2.6066124 -0.23124528 2.2888262 3.0154288 -4.332894 -0.29643446 4.342064 4.2357483 0.7607053 3.5801892 1.1405764 2.089639 0.22872794 -4.4342837 -5.6707606 3.9505818 -4.868565 -3.2346487 -2.9938598 3.374373 -3.165786 -4.0086017 1.6267818 7.090618 4.7618313 1.8796636 -3.157786 4.925733 -4.111708 -1.1386942 1.9479944 2.496171 0.8038345 -3.584842 1.9660938 -2.5310245 0.8794984 -0.4093243 -3.6625018 -8.212223 -0.6753923 0.7681844 3.4794235
2503 1.1832222 -1.972015 -2.0667026 -0.5626515 6.0658536 -2.8233845 1.6077628 -3.8966224 6.8113003 -0.43340287 0.18769899 2.6725821 -5.8513956 5.849691 5.6032023 -4.079447 -1.2718318 5.029647 -3.6245618 7.4413323 -5.0999913 4.110818 2.161911 0.5211761 -6.334068 1.7346082 1.5931311 2.0685263 1.1189507 2.153591 -3.9624887 1.6566552 -1.9982852 1.3550289 -0.09870176 -6.4108677 -4.5023336 -5.1720023 0.73034877 -5.455113 -3.0773668 8.303845 5.3754144 -2.9464889 -4.188562 -3.69582 -0.6680496 2.9325542 -2.5464165 -2.373206 -1.2072957 4.62455 3.4655018 -3.0436187 4.9036493 -1.0822856 1.3341963 -0.8323269 -2.7756991 2.7938914 -4.036429 -0.021140995 2.1461 4.248991
60 -3.916218 -5.920868 2.6875317 7.107909 0.25069883 -8.170546 2.3025677 3.8889596 -4.4356904 11.221336 -11.21516 -7.08095 -2.3508346 -1.2825108 -2.7813678 0.7454988 -0.27625784 -3.424858 -0.16751772 -1.8366979 2.358808 -7.359702 3.7356422 -3.7544155 -1.4203645 -3.3680058 2.3678691 1.2197136 1.131769 1.4023479 -1.9246047 2.278323 -6.3250465 -4.590465 -0.24037416 6.5864305 3.0862916 -5.4172096 -0.43108055 1.0592101 -4.6188984 -4.129588 2.9080226 3.555029 -2.5794876 -1.1963322 0.13786153 4.1718926 1.3615342 3.9898283 -0.6053037 -3.973927 -1.4391066 7.4222713 -5.6289115 -4.636916 7.191111 -9.1329365 -1.9741677 3.352184 3.2870226 -0.36943462 -0.20276041 -0.6426547
92 -5.473693 1.3458878 1.5011184 -1.6467787 -4.4555516 -1.748588 3.1204934 1.6132047 -1.9185401 -0.43608192 -1.0124272 1.9107412 -5.495435 0.39095068 6.3875217 3.4361267 -3.2195325 1.665679 3.1228383 2.7178473 5.5298443 -0.6853946 2.1886299 -1.6962746 -2.5455866 3.9568331 -1.2576237 9.670326 -3.189038 -0.47815052 -4.443294 2.6279721 -1.1101103 -2.4253087 -1.1509565 3.460734 2.2832963 -2.133697 -3.8256788 -3.1222332 -4.122929 -1.0336496 -3.0400617 1.1643461 0.22962694 -3.7307875 -2.0177839 -1.1733407 1.1909316 3.6856244 0.6473413 -5.068639 -4.08097 3.0225275 4.181004 2.6478672 1.8317885 -5.3548284 4.9644485 -4.357886 -4.8230658 0.51346225 1.2908562 -3.5992594
40 0.54942113 5.3885984 1.4942108 3.496593 5.098844 3.321801 6.925039 -5.0021644 2.095965 -0.7287811 0.18740335 0.25471345 0.4860839 1.33962 4.6064463 -1.0895364 -2.366343 3.1372845 -2.2539475 -1.1033806 2.5609431 2.7869084 -0.9622542 0.88905984 1.3998379 2.725906 2.3034174 -0.57719076 5.3167553 -3.6167953 5.4485173 3.2618797 2.8435013 -4.308219 1.4686451 0.22468318 -1.1599265 0.4553138 0.3823796 1.4526203 -1.8064699 -2.4937787 -1.6965396 -3.432655 2.2347133 -2.0817063 -0.74804825 -7.601146 -0.8275263 -1.4532107 -0.8778242 -5.978184 0.8211465 -0.9799755 1.3889831 4.330939 0.35406137 2.7813091 3.1522522 -2.3805168 -4.9771547 3.0372438 0.9709753 0.93616503
61 -0.5763546 3.1265392 8.9606695 7.310257 0.79567426 -6.8795023 -0.09811394 0.09936366 0.027950758 -0.38552904 0.60108215 -3.3188634 -1.6794876 -0.76794344 4.5170913 -7.6992426 -3.0376246 2.4500616 3.5593574 -7.276965 -4.75111 0.33794785 7.0031652 2.3447 -0.6705524 -2.173052 2.2953718 -0.7074043 3.3165798 2.3550088 -9.278196 1.7043844 -0.16058737 -2.0662653 -3.9920917 5.359918 3.3185556 0.13949305 2.1806471 -1.3827469 3.2131279 0.860236 -9.312038 -3.4593055 2.7980444 -1.6201975 4.4949408 -3.2300572 -1.9674271 5.9053884 2.2171788 -0.74361074 5.5033107 2.4286938 6.199191 -1.926722 5.814414 1.693445 1.2062784 -6.5983644 -3.5328763 8.969994 3.1509964 0.9953547
67 2.7947946 1.7488103 4.746887 0.055166453 1.3831158 -2.6391659 3.513621 4.3559394 6.3747253 -3.6434944 2.1184225 -2.7227592 1.536143 3.7445838 -3.3032885 -1.8971748 0.8364935 -3.650885 1.8241019 -7.675276 4.0451746 3.7548392 2.4413843 -0.9898475 1.8934054 5.7354426 1.5380484 4.589115 7.396882 -4.168678 -2.0449438 -4.2255154 -0.9374211 6.5255466 0.22866446 -8.387133 2.4014297 -2.471861 4.9332705 6.2044897 -5.6890497 1.0384785 5.6479664 -7.0093513 -2.5086098 1.8078458 -0.6508284 1.8808008 1.5660572 -0.7426814 -0.26390278 -0.1148102 3.1352887 3.8901198 -1.0028206 0.1352134 0.1482109 -2.6637497 3.0466957 -2.8265939 3.1359546 -0.5660105 3.5584896 -2.3109891
63 -0.84937334 -0.5528043 3.1070561 0.8054805 -0.13711597 -2.214531 5.827105 -1.1009936 -0.51435596 -2.2106466 -2.306772 -3.4266455 -5.069683 0.6996136 2.72674 8.37049 -6.9781446 -1.8952878 -2.1630983 1.0218801 -1.6624553 1.0746444 -0.3131957 0.047833927 0.87203556 3.004651 4.22621 2.0432236 -2.0474882 -1.4808495 3.5956295 -6.6805134 -1.7468781 0.0949102 1.9859194 0.46225032 2.5347688 -3.138765 -3.4860375 -1.4623723 -3.77394 -2.0232723 -0.1574432 0.20153967 1.6889429 4.5704074 2.4231296 4.1615996 4.4979496 3.9333134 1.883693 0.4479967 -4.992507 -0.044963095 0.9406085 -0.6313 4.0418797 1.0483866 0.49849984 3.789862 -0.5529458 3.9934363 6.4513545 2.3197603
51 1.3549503 -2.2231796 -4.088638 2.067972 -3.1356194 -5.0004983 -2.9128854 6.9782815 0.6208009 3.476904 1.12801 -1.2666205 3.3933978 5.174621 0.39719057 -3.3063347 -7.392982 5.383709 -4.2072997 -1.7586454 -5.6473184 3.0604358 -3.1076226 1.7156314 2.5872047 2.6116672 -2.079556 6.305548 1.1608099 3.222265 0.35059828 4.0163937 1.6771904 -5.7022777 5.00812 1.0928856 -1.3017541 1.1810699 2.1722744 2.7071042 -7.5851502 -5.353996 4.309357 -4.9237905 3.627577 -6.9515004 -0.46569917 5.6889954 -0.58700967 1.3277828 0.5810105 5.181237 -5.94481 3.4733908 0.63943386 1.9746546 2.8220575 7.679215 -3.1743352 -0.23693317 3.0318139 1.2584044 3.6092057 -3.6107728
62 0.5677459 5.856728 4.7846847 5.186276 1.7423452 -2.583722 4.429816 3.5187335 -8.975972 7.4383364 1.1620659 -5.784151 8.650768 -5.282933 1.7238905 -0.46336347 3.3755713 2.6917984 -4.5475864 -1.0645243 -7.7519736 -0.3046274 6.8974304 -1.1991011 5.5857906 -6.5055313 2.7019205 -5.89908 5.96961 -3.778216 1.9499403 -6.4122868 -1.169948 0.73611957 1.2305971 4.102002 0.96772635 0.91289157 8.78709 -1.442467 3.2901437 3.1721172 1.394972 -2.6897628 1.1286082 0.70177114 1.2417866 2.8940945 5.0857673 -2.5602205 1.6672554 -3.108827 2.5928528 6.677827 0.1466372 -2.5583868 0.27219412 -0.15886337 -3.592415 4.0790925 -4.7998786 2.5030231 1.4249191 1.6887234
0 1.5116774 2.0623112 -4.1056466 2.5804493 -0.9052136 -4.76165 -1.8760145 2.2500503 0.38967502 11.3855 0.1199476 -0.004546977 -0.23849462 0.22979318 1.4622531 -3.6117065 -6.78599 7.774767 3.3388774 -1.345786 -7.2931514 2.52174 -0.33491105 -0.22042269 2.6661005 -5.091074 1.7136587 -1.354733 0.8047814 11.003734 3.868211 -3.958935 -4.897995 -3.2891936 -2.4044733 -2.8074276 3.964605 6.740285 -3.1830585 -2.985889 -10.269912 -3.1581407 -3.7221587 -6.121889 -1.6232661 -0.19564734 -2.5559175 10.862497 7.480115 1.4658016 1.6416706 0.067127675 3.3986514 -0.51845485 -1.7052646 -6.813769 -2.3129485 4.8217463 1.3092066 -8.287564 5.348421 -3.9753497 3.1678724 -1.9949867
30 5.345474 4.7659183 0.74511474 5.937167 5.684967 0.20442563 -1.9893581 3.3904145 1.3569996 0.6402648 -5.531204 0.55485004 1.8071172 -0.9405425 -1.7839924 -4.151832 1.2373166 0.035196017 3.6731944 0.6075968 5.6728997 0.31559205 -6.596256 -0.5733026 -5.820335 -1.6771555 0.5687255 4.1911216 -2.7794874 -1.3778886 5.908801 0.32162786 -2.6060174 -1.3621749 -5.315768 -3.340961 4.0976825 -4.35949 -7.654023 0.4300388 -9.571005 -0.6234813 2.7649794 6.254523 4.149077 1.2131737 -4.122251 0.70838153 0.30764562 -3.4561 0.7760504 -0.84886366 -2.3362908 -5.526549 -2.1120741 4.528311 -4.149307 4.86546 -7.1488123 5.850996 -2.976751 -5.032273 1.9089506 0.5063225
1303 3.8943093 -3.8659716 -0.30161038 -0.03876037 2.5091994 0.28212103 2.0850723 -0.37636524 -2.2900875 -1.3163816 -2.3453643 0.1655406 -4.8698063 2.1702087 1.6301408 0.5826928 -1.5757883 1.9425454 -0.08700398 1.9390637 -0.049291957 2.0263078 2.31695 4.4047713 -3.6242056 -3.0365074 1.7497705 4.5406632 2.295567 0.8526636 -1.7288125 6.153713 -4.4241295 1.4801131 5.627511 -5.5644445 0.9431783 -1.9210286 2.893437 1.4259818 -1.2309625 2.0846548 0.49447352 1.8430097 -4.391033 -2.240344 -0.14101668 2.0363991 -3.360533 -3.6407247 -6.763103 1.944971 1.1717638 -6.3768196 2.918911 -2.1311908 1.9790028 2.6185415 2.9788136 1.2435399 -4.472094 -2.0069916 6.0217648 2.205843
2512 4.163577 4.5416427 -3.8423202 -2.7549756 0.44391727 1.841247 -0.2338123 -2.2101574 -2.4592328 1.4936084 -2.9548104 -2.0811892 -1.5880703 -0.21841934 4.587392 -1.0877573 3.0366633 -0.3033206 -0.6665747 -0.67263734 -1.2407725 1.6709476 0.51726645 -0.055202123 -2.026493 -0.7457709 1.8505337 1.7064013 -2.3017805 -0.47616348 0.68384683 -3.0511823 -0.84598136 -2.2723784 0.57843846 0.15674841 -1.8833429 4.6670966 -4.1538568 -3.0492394 1.2528437 1.8705928 -0.72391766 -4.079904 3.7297494 -1.2673088 -7.311583 -1.3355867 -3.9777718 -3.144373 4.225408 7.171003 -1.6870984 -3.6118665 4.2563696 1.6490793 3.5281572 -0.46795526 1.0850387 3.7840204 -0.47444254 5.0054555 2.7131233 -0.3399297
35 0.4884777 7.8098307 2.1085985 -0.117509454 -2.6160643 -3.1462133 2.7132375 -3.5019047 4.7498174 6.1634235 -3.1257365 2.1616197 4.2071323 -10.64639 -5.070031 3.740793 -2.7067425 1.1356922 0.046674244 4.3864827 -0.8150198 -5.5368643 4.361706 0.49938303 -0.25018695 -0.03470863 -2.5675063 0.62628603 6.476953 -4.07097 -6.0691886 -3.869 -5.5132155 5.7992043 1.4934971 -2.7667694 4.2917423 2.469143 3.059939 -0.91360706 -3.5325792 -0.5520956 -1.1232835 5.442619 8.830427 -7.4329085 -5.4065156 1.4201018 -1.7003007 -4.825735 3.65158 -4.0852437 0.18363945 1.5246173 -0.68406504 0.377249 -6.7499638 2.5896192 -7.3397765 7.104835 0.131598 4.379883 -4.3168855 -5.1716
21 4.447994 -0.014447626 -2.2003627 1.0094671 2.607972 3.8580174 -4.5785637 2.295385 3.2543118 3.5251572 -5.1613226 -2.7267854 -1.5028976 -2.22608 0.7777068 0.14010596 -5.9153967 1.4273936 -6.3341565 -1.6189744 1.3978295 0.51110417 -1.2857522 2.301256 -0.023141433 -2.097207 3.5869071 1.3938202 -1.2549512 -5.4076343 -2.3910372 -0.24747968 -1.2037914 7.69536 10.285604 3.5170956 -5.0198913 0.9338936 -3.8149784 4.1669507 -1.4161742 1.8619088 1.1169562 -1.4390895 4.5400343 2.6086655 3.5954769 -0.8157234 -4.3087378 2.2698843 -1.42372 1.7343171 5.1674004 1.1539445 -2.0835156 -1.2631899 -3.1814504 -2.4219468 -4.2209587 -1.3883142 -7.5826554 -1.386794 0.61918014 -5.8654747
574 1.0854661 0.48002774 2.1952322 -2.5814393 5.2560396 1.4711576 -1.0791832 2.074924 -1.759266 0.06222839 -3.4055626 5.493153 -0.7090477 3.0479698 -3.4822624 -0.20864344 0.20111813 8.906844 -3.8834224 2.618623 1.4058307 1.5148581 -3.3914797 1.4723365 -3.7407894 6.227247 -2.004321 -0.12295564 1.2045839 -1.2746623 -4.8566756 3.0285077 -0.09071126 3.4226377 -0.27877674 -8.043392 -7.636374 -0.3187426 2.0659885 -7.7663884 -0.30972314 1.241899 -2.6093032 -7.8809924 -3.1703277 -0.25950056 -1.7967166 1.8878921 -3.7982244 -3.6952655 3.2282708 2.2615128 -6.189622 -2.9033606 -2.843786 2.3885539 2.5152805 -2.9311469 -2.1229615 2.310387 0.16234903 -0.697723 -1.4621432 1.462407
13 1.4977562 2.8245285 3.5389287 -0.24001941 -5.2391467 -2.7658892 -0.9176149 3.8820298 -1.6285999 4.295766 -6.0915856 2.6689436 4.250375 2.5578487 5.9435196 0.2506709 -1.8753664 4.173606 0.5656834 1.3897974 -2.1042514 4.60432 -11.812039 8.967899 0.18116422 -3.782169 5.4120927 2.7091608 -2.9132893 3.907923 -3.5903945 -3.0896144 0.84760565 -0.92520964 2.5224879 -1.0088966 0.17006348 -1.4217746 -1.9640918 0.21357465 0.8655762 1.4016602 2.5942185 -5.744765 7.338283 -8.0531645 0.42507 2.554976 6.405249 -1.386251 -0.46317562 -3.890312 3.5926912 1.7671633 -1.9746557 0.841959 4.444274 3.8747911 0.8627398 2.5397267 0.04134768 -2.2703366 -0.93460846 0.8908732
2337 -2.922979 -4.6897326 0.37771925 -3.450673 5.272921 -3.7036352 -1.4615772 -0.20812607 -1.7290102 -3.545401 -1.6610392 0.8682062 -2.340118 -7.1944394 -2.6422849 1.7084378 0.1627823 7.5191793 -1.2717057 -6.8970633 -3.408365 0.46350783 -6.9270835 0.23487455 -0.8916823 5.274272 1.6212277 0.7141704 0.8951003 4.2360578 0.16536547 0.09816146 -4.6506453 2.9679751 1.1908221 -3.651272 -2.343818 -9.6627 4.4418283 0.9789687 -2.960701 -3.0363953 -0.35120735 2.7020187 -3.2138975 -2.5027392 0.16617616 -2.3569317 -0.44071978 0.2470443 -3.3635209 -4.161187 -2.5627654 3.6726182 -0.3681534 2.4415863 -1.1942012 0.21955223 -0.2142725 -3.4163098 0.5915938 4.3540072 0.55976546 2.6746674
1270 -4.713736 -0.389074 2.9123669 2.4083083 1.5904791 -0.83532774 1.5264645 5.698995 -0.0049569327 -3.1857774 -1.5518924 8.817108 3.0406487 0.16371472 -0.58593327 -3.7028215 -1.6591102 -0.27028632 -5.2556386 2.7077816 -2.3689413 -1.6131257 5.2776833 -1.9183626 -0.9279339 0.5299602 -1.267584 1.2889689 -3.593331 -2.7928183 -1.677553 -1.4232734 -1.4182221 -0.6778536 2.2167113 -1.6772635 2.2414591 0.59714234 -5.5318785 0.22192253 1.6740904 -0.46105784 3.2233572 -5.215476 0.571354 3.636125 -2.5819776 2.5736191 -0.10722288 1.2496297 -4.4516773 -5.0654645 -0.34430042 2.8228762 -6.40957 -4.721479 -2.5661855 5.655818 1.016072 -3.2421129 0.01993415 2.7635126 1.56189 2.686211
27 -2.7038634 5.281546 0.86267525 3.599134 4.723849 -1.0908324 -2.9084492 1.5765108 1.9851439 -0.86774695 4.108268 -2.7760708 4.273239 -0.93193924 5.3570323 -2.3130531 2.488478 1.7125418 1.0333855 -1.3494242 -1.6698087 -3.0458975 0.8817988 3.698512 -2.2046707 0.68822336 3.5170565 4.9631777 -5.158927 -0.27577958 0.67021847 5.2352734 -2.5842445 0.9381928 0.6519414 0.98996043 -0.47602582 -5.3245244 1.0464107 -0.036140922 1.4574753 -0.30808488 -3.6796944 -4.499841 3.222619 -0.59166753 -0.6170505 -0.51352483 -1.0581423 -4.1902757 0.7124001 -1.8564181 -1.2255462 -1.567279 -1.8648773 -3.067936 3.8598945 -0.6250687 -1.9405227 -3.8283696 1.0854694 0.26129976 1.4752116 1.6025015
19 -3.789764 -1.3481148 -2.4600334 6.314901 -3.7647016 -0.83889365 1.4727473 7.5672507 -1.7554584 1.1026388 -0.4352529 -1.9324416 3.5435483 0.53763646 -0.12804255 0.22202814 -4.4300632 -0.23350985 2.5304413 -4.2284794 2.1922772 0.9139072 0.32629734 3.6994138 -2.704029 1.0204269 0.5628149 2.8488078 -10.26065 -2.127344 -0.066304915 -1.1617786 0.14324048 5.0475135 8.208662 -2.885032 -6.7649407 1.9597766 3.8361318 -1.2954768 1.9750977 4.10247 4.152968 3.1134362 -1.1911745 -5.575896 -2.4900844 0.35876432 -2.5992026 1.746028 1.6055417 2.0797853 2.2348113 0.7856265 2.8737197 -4.3663454 -0.6939514 -0.07802364 1.8703498 1.1743276 3.4230857 2.0547075 -2.7078567 -6.5110717
471 3.6504195 -1.6903223 1.1997931 1.6980462 -0.37579158 3.1056376 3.8752534 1.5406282 -0.7771556 0.32111138 2.3764646 -3.057019 -1.0445454 -4.6203737 6.3413544 -1.9469035 2.0938988 0.10898853 -5.277933 0.578415 -0.67238396 2.5096653 -4.5341024 0.1436481 -8.350593 -5.847102 1.8108765 3.3148782 3.057195 0.8493434 2.5338638 2.58557 -3.9352982 -2.8830938 0.3915908 -4.404683 2.4024913 2.4757195 -6.4905562 4.892401 3.7922244 0.9236708 3.1478574 -0.87048054 3.5307918 1.8235825 -2.2713308 -0.27106914 0.00044050845 5.4042697 1.4474754 1.9623677 -2.081194 4.599185 3.3852777 -2.911926 -3.9668913 -3.4671428 -2.0512931 -0.20982866 2.7789986 5.92581 -3.526396 1.4925399
47 -10.024951 1.1487613 1.4383743 2.3994741 -7.0402803 -3.0064893 8.081273 4.3870687 -3.3123968 3.5294924 1.5948219 -3.4044263 -7.127466 3.6070457 3.0978317 -1.1622217 0.15130994 7.8174853 -0.68792534 -5.9215713 2.2690706 1.9404498 -0.87286407 -1.5040997 4.908841 0.34469593 3.418547 -3.9902806 0.9350256 -3.6436734 2.7216756 5.426322 0.59355175 1.0170195 3.084077 6.1598473 -2.5282056 -1.7936164 -2.3122637 -4.9663024 -2.6180263 1.9696902 -0.49234927 2.4998553 -0.11875994 1.2270164 -11.24983 3.8480654 1.9455521 -0.7296974 0.546576 -3.8450406 8.24471 4.280525 12.969891 -3.3631332 -3.9590077 1.0546887 0.33916515 -0.74933934 5.083333 -0.24465816 2.129742 3.8476043
1620 -2.7036612 4.285087 -0.6507069 -5.096013 2.4781177 4.989304 -0.5183664 2.2950761 0.33975494 -2.9150527 -5.900984 0.8689456 -0.005493888 -4.527739 4.3669157 -0.6734567 -0.22845931 -1.9317832 2.649549 -4.6997843 1.3652602 4.6734686 -0.2795955 -0.6471675 1.4058615 0.21663792 -2.0678403 -2.8373518 -0.6021513 3.399017 -0.4601258 -3.0761864 -2.392553 -2.3486285 0.645451 -0.46509588 -2.0869625 2.0849848 -2.1245484 -4.8336515 2.1246505 3.4599447 0.06367041 -0.7999937 1.0893639 -1.573269 -0.3651573 3.253862 -3.121666 -7.020658 -2.841153 5.2205386 -1.7879514 3.1170495 -2.7736318 -0.92509574 -0.845134 3.0079124 1.8481209 -0.5460057 0.96630883 3.0840569 4.3604364 0.51147187
74 4.8334274 -4.268819 5.4784107 -0.22832817 5.889322 -1.6222556 -1.6368159 2.1007702 7.366112 7.6577554 1.68532 0.77613086 -0.18735594 -2.6018643 0.18834741 4.230238 3.812547 -7.849396 -0.42789784 -4.3539653 5.483494 1.4140062 -4.1959457 2.816026 -2.0066137 4.305947 -2.111615 1.6166192 -1.6696992 -5.4079795 -0.4690236 -6.9355245 -3.0090165 1.8156183 4.495433 0.85859084 3.0611804 6.303514 6.474367 -1.07512 -2.6395957 4.1221642 4.946479 -1.1196979 1.3690854 -6.3762155 -7.69852 1.0060577 2.1363595 3.136541 -1.13528 -4.8663926 2.2383914 -3.142888 1.0223958 -2.5341115 3.4291458 3.2618132 0.067921616 -2.0497031 6.938882 6.702613 5.1880803 -5.0940976
1291 0.051341705 4.35609 -2.657708 0.7014863 0.22518383 2.4881046 -3.7214553 2.7201965 1.5568249 0.7188351 -4.9799414 2.310287 2.614142 1.5108138 -0.25267318 -1.0371046 -4.6487656 0.17325693 2.2234762 0.6061447 -3.377109 -0.99503684 3.0798445 0.32415324 -3.4049196 6.0935545 -5.5138874 -4.3796406 1.05361 2.1026714 3.1257303 0.87473685 -5.3792167 0.22330496 0.4467633 3.803638 1.6125294 -2.7646146 2.9154327 2.547863 2.6715894 7.6888533 -3.4478226 -4.868572 -4.000443 -2.4306114 -5.947188 2.8397722 2.5086954 0.28272375 -7.095479 2.1053562 0.2733609 -4.3798285 -2.7207942 0.7273576 5.5391946 -1.1673293 -0.7906221 1.7155436 -6.3179603 -1.0006922 -0.81394404 1.7452341
2444 -0.60121065 -0.15788275 -4.192202 7.6674824 -7.6960936 -1.8039718 -1.6633813 3.7272496 1.4039108 -3.251307 -1.9942416 -1.3448238 1.9993209 0.036427833 2.361286 -0.6897334 0.44483423 3.4048655 -2.9282687 4.373632 -0.0072400817 -1.5579386 3.8281949 0.8802647 -2.7474318 0.20556502 -5.7152123 0.9466974 3.0116825 -0.93034434 1.1447006 0.25698602 -3.039059 0.86942416 -5.39418 -0.8337591 -4.653625 0.45574278 4.3539567 0.12881172 0.7794522 -4.3766685 2.9912357 3.195663 -2.7257407 1.6521692 1.2670648 1.8398587 1.2517151 -0.61714065 0.9502466 -3.0904706 6.496912 -2.5458632 1.276041 7.0419874 0.675037 0.43552977 4.263865 1.3664849 -3.744113 2.8621924 1.1558499 0.49517438
2208 -4.788119 -4.472342 4.0509963 1.3409321 3.8949466 -4.218897 -3.0429482 -0.58321613 1.6253814 -2.6754043 0.30318472 2.4769163 1.5884225 -5.459232 -0.37162015 4.259315 1.4227331 4.4690986 -0.51675415 -3.2800808 -4.557993 -1.0658791 -3.6916199 -2.236327 -1.819664 0.7881105 0.116773576 -3.8322957 2.4327893 1.7854222 -2.1300485 -1.894679 -4.1344733 -1.2651445 3.3162239 -2.976139 -2.6161258 -3.540005 -2.3705764 0.02216238 -2.9925508 -2.593354 -5.4990826 1.5503109 -1.0163811 1.0113288 -1.5652057 -5.0934634 -0.32478786 -2.9841285 -2.4094532 2.7380404 -1.5906384 2.0554147 2.6451058 -0.29190576 -0.46038532 1.0908856 -0.18284582 -0.99108547 4.1710997 -3.266232 1.0834181 1.0932273
29 -3.7697904 -1.3862036 2.471904 -2.1775591 0.04630566 0.18739493 2.0504968 -1.5113674 0.92198646 0.3744746 -0.6696809 2.6620247 0.99534094 -2.7106977 1.6080898 1.851211 -3.413594 -1.6362009 1.0677062 -2.954298 -5.228539 -0.051896248 -4.5069427 3.823538 0.9039507 -3.3128047 0.2833845 -0.22330661 -2.6162965 6.2445145 0.8315171 1.3630316 3.8480449 1.9082186 3.6876464 -2.1489663 3.4461715 1.8466636 1.8153977 0.669398 -3.6668525 3.5757143 -1.898244 -4.217854 1.7899834 -2.1861062 -2.6422267 3.714199 2.0979478 -3.6090953 -0.30185756 -1.6032425 -0.7214699 1.36894 1.9892261 -2.9471052 -0.0618213 -1.7987994 5.1977515 -2.314288 -2.2286105 4.1066117 -2.0072227 -2.1791697
1678 0.3134513 -2.4205527 -2.1898699 0.9618598 -1.4540787 3.9152653 0.6498874 0.98097396 -0.18991292 -1.6145 3.051646 0.28449205 1.0627875 -0.06277294 0.71578425 0.061306726 -0.72654855 1.0831742 1.201784 5.80028 -0.4682203 1.0919001 -1.9206939 -4.9446793 -2.1274564 7.3571243 2.6408014 3.4541578 3.8022687 -3.502141 0.4703082 4.6819577 -6.501635 2.060241 -0.012621131 -4.552786 -4.6094613 -2.0053444 -1.9213574 -4.691382 3.275615 0.31028754 0.4073387 -5.060112 1.1224757 2.3417366 0.71152246 7.0548644 1.5302901 0.4768597 1.1956697 -7.404862 -1.3083984 -4.493089 -3.0909758 -3.9628685 0.583136 -1.2666556 -3.6538482 1.5290849 -1.1364869 1.7701099 -3.2870598 1.5415463
53 4.897171 5.097805 3.718562 0.40360308 4.5613933 0.2448568 3.9590075 -2.319964 -2.8966293 -0.6349567 -2.9408338 1.9831305 -3.139145 -4.4472337 -3.3120422 2.757874 -0.08775084 -0.6132428 0.2402003 -4.8320627 -3.0660946 -4.117821 10.743972 -5.788674 6.254219 -0.43052158 -7.073782 -3.0119576 8.7210045 -1.7209213 -2.061945 -1.825618 -6.5864787 2.91282 0.7552659 -5.8382363 4.849152 0.45648214 -3.6045892 0.7464173 -5.9846454 1.1070057 3.70575 0.44096172 -3.86556 2.591998 -4.00967 -1.9373547 -1.4660364 -0.6661988 0.7312592 -4.9531493 -2.3625104 0.7559662 3.200417 2.573793 -5.1299186 -6.2538524 2.7789066 1.8853776 0.058050465 0.8760265 -1.84299 -9.6358795
48 -0.81947994 4.6429343 0.6689265 6.940659 7.3137593 -0.6113159 2.3163037 -3.636737 -3.0316439 5.870012 1.4201134 -8.970986 1.5241892 -0.73280364 0.4709475 -13.323197 -0.5427338 -2.1972985 -4.143824 -7.5134087 -3.4546518 -6.7602854 2.753558 3.3220015 0.47284737 -6.015479 -4.153493 -5.057746 1.9483025 -1.2066337 -0.12134177 6.5937004 -1.2887057 -4.6853867 1.5171502 5.1621833 -3.323943 -3.356045 4.4925785 -1.6754189 -3.9825852 -1.2267507 -2.5781362 2.154627 5.809146 -7.1384826 -6.7969785 -1.8712738 3.4156737 -6.255194 -3.5730474 -8.764101 0.7433931 1.6954405 -2.6441276 -0.8763516 -2.0251698 1.0023035 5.357797 -4.0693097 3.1040068 1.5215335 4.357796 -7.7876763
689 4.8500867 -2.3953116 2.6954095 8.048014 3.1228886 1.3366646 4.740272 -6.4344187 2.6423721 -2.013104 1.5445079 -2.9772084 -5.4340563 2.1334195 -0.44521827 -2.5901494 1.1084424 2.4989905 2.9129298 6.2166653 -1.7735842 7.898168 1.3804135 -0.05863119 -0.85992503 -0.23586962 -3.8457224 1.9166017 -2.074745 1.5288646 0.9330513 2.455985 0.57569206 0.07406774 3.447555 1.9736526 2.315959 2.7747629 1.4083356 4.6266656 -0.20159668 5.8690906 3.097466 3.5110984 -1.7560381 -3.508309 -1.0129877 0.020146815 -1.3191864 -1.651419 -2.1146483 7.4922028 2.246116 2.3746128 -3.4220693 -3.7772877 3.6073675 -4.461829 0.11594913 1.1338909 -5.948901 1.0894516 0.70894474 0.83217925
17 -4.4836793 -0.069488876 3.1211073 -2.4594672 1.8165717 4.079763 0.8653739 -2.5587964 7.9369946 -3.817083 -0.947685 -7.5035863 3.3037772 -0.42338514 -5.255857 2.8467655 -10.803871 5.191659 -3.551263 -0.5674015 0.17046876 3.0133514 3.513946 6.970499 1.8083227 -0.17530683 5.1925416 3.6913292 2.894256 1.182151 -3.6424375 -1.4416665 -0.19580422 0.7757101 -0.03512657 0.67951703 0.8640803 -3.453353 -5.101624 -1.6900734 -1.617358 1.0875083 0.318519 8.195601 -0.701079 3.748354 -4.1789207 0.17403528 7.583888 -4.191775 4.960917 -3.197398 3.6761558 -5.371461 -1.6053429 0.029384904 3.0765352 0.25413057 -0.69544333 7.622597 2.2660043 8.898971 -1.8002524 -2.1154792
1680 -3.1379745 -3.1769648 4.6683755 0.09688875 3.515294 -1.6430662 0.33960629 3.3751664 -4.423454 -2.1096911 0.9909836 2.2900023 1.4374003 -3.0253093 -3.788975 4.3492274 0.8199577 5.6212506 -1.5409344 -2.6059427 -1.6896243 1.1401576 -2.7675474 2.5140615 -0.42796385 0.2784335 -0.62891406 -0.22320364 -0.64412665 -1.1909974 -2.570635 0.521672 -2.2911274 2.402241 2.4665103 -0.7664284 -5.2506456 -1.4779464 -1.1247652 -2.2109206 -2.5549338 -3.0889306 -2.5600266 0.1184725 -0.67988235 0.6092595 -0.19900337 -0.54245424 -3.0123954 -4.501014 -1.8513038 1.1938446 -2.0354004 -1.3500915 -1.3059274 3.4748464 2.3333256 -3.0337217 0.28213528 -0.40258652 0.69410247 0.75081915 3.4951613 1.1067789
1336 -5.4815793 0.208047 -3.1307425 4.5197296 -1.1209878 -4.9783816 -0.19397886 -3.3034859 7.2244325 1.0529002 -0.74864787 2.8430462 -2.79259 -0.2597365 3.6565485 0.0027717208 -0.76802224 3.353597 -2.0061188 1.0216954 -3.8481627 5.8580437 -1.927786 -2.4184291 0.1661368 -1.1991148 -4.267369 4.4021325 -0.04545467 1.4656551 0.9985302 -2.1636937 -3.3877125 2.2127666 0.46787328 2.120071 -3.3158073 -2.8913348 8.150514 0.6547631 1.3575249 -7.366984 2.804909 -3.1179848 -5.552201 3.4446547 -1.7275571 1.3547221 -5.3887806 -1.0974139 5.2390957 -4.6484065 7.233137 -2.722278 -3.776681 3.9737144 2.6786304 -0.96804124 -5.460262 -1.3936462 1.328263 1.2938323 3.2321894 0.77547127
50 5.250389 -1.7588447 6.629905 -4.513701 6.628308 -3.9076064 -3.3502862 -0.65398693 4.1014657 7.042789 3.2102826 -3.6455894 3.484168 6.2079687 0.03993584 1.8134168 5.488783 -7.1510334 2.6159074 -6.5447216 5.638809 3.900074 3.3042436 -2.3513298 -2.1990368 8.071716 -0.46428362 2.9235435 3.045413 -5.9129004 2.5861826 -3.749352 -3.4863694 8.222651 1.2951818 -6.8169556 4.531508 0.5710741 -2.353248 0.89661324 -6.083951 4.0678463 4.708064 -5.1637144 -0.92472696 -1.5071263 -5.2909527 -2.6461263 2.1934981 0.44232798 -0.68374515 -6.2342196 0.3895021 2.6288142 -1.1650432 -0.42843518 4.3920326 -0.3194093 7.5980453 -7.2900357 0.3839728 0.6883354 1.7731212 -1.8914702
1459 3.2538574 -2.8065479 -2.75861 5.308009 2.034957 -3.7882712 3.5483086 4.840369 -0.9730311 -2.3868358 -2.2152107 3.7221313 -1.5283802 0.38097703 -1.8039223 2.0856407 -0.87780184 -2.921197 -2.8543448 7.1829157 -2.9700966 -2.4148366 3.1490989 -2.3432205 0.30260047 1.5921206 1.0001115 3.012809 0.008311279 -4.3340154 -2.20334 0.9948058 -0.32547277 -0.4124578 1.7278901 -1.0419325 1.4852095 -2.0437105 -0.6056013 -3.0474966 -0.53403187 -3.9088302 2.4066203 -5.8048153 -0.35119322 0.51737636 -5.3355927 -2.9900062 -0.9548328 -5.300482 -3.7167304 -3.7568688 4.1292725 -0.4304824 1.3424835 -5.518256 -1.957219 6.204787 2.8208644 -3.8245988 -5.31284 1.2823428 1.9875047 0.6322167
31 9.364043 10.970901 3.7364814 2.048164 -2.0572023 -3.3879254 2.5182583 -2.4875982 2.7384648 -0.4121939 1.0529832 -0.26491815 -5.3735843 -3.8610952 -3.586789 2.3891091 -3.2082708 -1.7481298 1.0431706 1.5000255 -2.1049602 2.5975704 5.238162 0.9945081 0.5300861 6.538545 -1.0963231 -2.3105943 2.0953257 -6.835021 1.084071 -5.7462087 -2.8356767 0.901586 2.938386 -1.0067939 -8.130133 -3.534617 -7.120634 2.1935234 2.744497 0.58086896 -10.518751 6.45779 -0.031953614 -8.6986475 -0.8698779 4.192109 3.154429 1.7899531 5.494839 2.1562185 -2.965557 -0.42857823 -2.7555537 4.5876694 0.9862953 6.207341 3.965082 -2.417985 -1.164677 -6.0670896 2.2762558 1.203581
1308 3.245015 0.6792901 -0.4212004 -1.9512717 -1.0504726 5.2893176 1.0406281 0.17197368 0.73956275 -0.45246175 0.08494816 -1.0717314 0.74419504 -0.79443973 5.871848 1.5760111 -2.4650934 -1.3142821 1.5266875 -5.2403626 1.6572924 -3.5387084 -3.0506802 2.0567665 -0.1179453 -2.2582579 -3.883001 -2.2737358 0.40114784 2.2308414 -1.9478047 1.9059819 -0.44639286 2.3894112 -0.8327529 1.6283479 -0.27986997 -0.18206295 -0.69043934 1.7374043 1.8521769 -3.1211846 1.2471566 -1.8623881 2.3995936 0.9957303 -0.27109423 1.8139338 -0.39422652 -1.2851965 1.1308601 3.7568257 -3.092394 4.6126876 2.516031 -7.2371893 -0.37595877 -0.7954549 3.0961685 2.0798655 -1.3305238 -0.05118618 -3.5009158 1.5942216
1910 -0.3010242 -1.8395431 -0.2196053 0.8082569 0.2781377 -1.2130381 3.0841618 0.552886 0.16040798 -1.9346837 2.6988444 2.2178428 3.6506615 -4.1805706 -1.0753312 1.3874701 -1.8915195 -5.240483 0.3169735 -0.36260563 0.83293676 -0.77108467 2.7751899 1.0449201 0.7993191 -3.0519292 0.8320363 -0.4350722 -1.4195001 -3.767184 -3.8558614 2.4571695 3.2574468 -0.3330104 -1.1765802 -0.89763653 -2.0468757 -0.32590568 -0.755113 -1.7120606 -3.488747 -3.5312517 0.028730003 -3.2702959 1.0416415 -4.040245 -3.9183116 0.45522073 1.2996887 -1.5408274 3.7927911 0.5948287 4.1919255 -5.6293287 3.2570558 -0.92111117 -0.7028643 -0.4472231 3.4874098 -0.6545798 -4.138054 -4.1767488 -2.0392423 0.7726257
1739 0.07293713 -0.19924448 -1.9890012 -0.6755433 2.4149983 -0.97506833 0.52904165 0.9822464 -1.3208911 -0.26313812 2.4222982 3.611967 2.9208302 2.685003 -0.9659951 1.9007367 -2.7894018 1.6294062 -0.41706932 3.4436853 -0.25039285 -2.0776274 2.3973422 0.075354226 0.6837841 0.7804271 3.712988 1.1832157 1.7507174 -3.7987444 -6.9798083 1.6695138 -2.8009841 0.7638731 -1.3155231 -4.1152983 -3.3481472 -1.7322336 -3.3563132 -4.450509 -1.8993695 -0.5384954 2.447832 -4.4219656 -0.11642072 1.3895066 -0.4281131 -0.7723299 -0.21490757 -0.36186877 -0.34525776 3.9455855 1.098883 -3.2289486 1.031865 -1.4681367 0.33779478 -1.0838538 -1.6486186 1.3575505 -1.9933537 -2.2615144 0.9706921 3.4039629
2576 3.9062788 -1.5616404 -2.0471313 0.91763246 3.5335405 2.549708 0.52060103 7.4611564 1.9726202 -1.3885367 0.43046352 0.27833617 -3.6085107 0.3277987 6.586197 0.39466965 -2.719125 -1.7029202 0.8474024 1.7491225 1.1465322 5.160804 -0.5209279 0.4697375 -1.7086589 -2.7965128 -4.5200233 2.1737561 4.609422 3.1173475 2.6241086 2.446352 -3.2330668 0.06262788 -4.50847 3.6387155 0.88776076 -2.3435786 3.3474777 3.5089495 3.0346704 4.283574 1.4250095 1.9889903 -2.270591 -0.07549776 -2.387253 1.1282147 0.5837002 -3.0856485 -4.549923 0.7669035 -2.131675 1.7583799 -2.2725954 -8.111564 -2.6700554 -2.0359397 0.40337625 -2.1939285 -4.138966 2.872444 -1.7124089 3.657085
1264 1.0463823 -2.775299 1.2781589 -0.95769566 2.4029417 0.19992809 0.044351663 -4.4482193 2.6242971 0.6836553 2.8055663 0.19155906 -4.2603273 5.7192426 7.331531 -4.0213256 1.8808725 3.0969734 -0.47549328 -0.37317494 -0.38102728 4.891581 1.9784895 2.1333318 -1.4712965 -4.8702993 1.3571187 7.226528 -1.83476 1.5898476 0.05316454 -1.1149664 -2.942507 1.0209527 0.41952804 1.9335558 1.0852545 0.6327951 3.4635437 0.38591632 2.0013597 0.9577501 3.644848 3.8956897 -1.886993 -0.9244718 0.8254419 2.1411002 -4.1882854 -0.9412393 -3.1207938 5.1575804 2.2358892 0.55767137 -0.034597088 -1.6655117 0.27663547 -1.4593977 -1.1900201 0.84697354 -1.5232708 -2.210496 1.3550177 0.14904279
1269 2.0727606 -1.1980038 1.8474422 4.8017564 -1.71674 -0.2663175 -3.2876236 -0.9529271 -1.1537217 -5.0714264 -0.5628413 -1.9263225 -0.11398397 3.6145182 4.678009 -1.1602494 -3.5787654 3.4615068 2.2870786 -0.42593932 1.7122073 0.6371067 4.8112497 5.9066353 -1.5515836 -3.0500553 -1.9000949 2.197251 -1.34025 0.9464754 1.9354656 3.6596844 -2.813985 1.0195608 -0.2923767 -1.917709 2.957656 4.844113 3.5425608 1.8444022 3.9614213 -1.0290979 1.9901252 3.2059515 -5.76882 1.0137316 -4.4639688 3.2151623 1.5186315 -4.502711 -4.636743 3.4435372 -1.8038551 1.5712132 0.384235 0.2791944 1.2639321 -0.7831652 0.543804 -1.5768296 -4.1162224 -3.8992581 4.0288453 2.7487261
455 4.093846 -1.7942957 -1.2923646 2.5376751 -0.33915132 -1.119664 1.0046387 0.041837398 -0.035101295 2.784203 3.18243 -0.38977075 -4.0390415 -1.9972152 1.6519915 -0.9984774 1.1815902 -1.7689819 1.0057238 2.28434 -0.9357832 0.8983621 -0.40949792 -0.7824512 -0.8308571 0.657456 3.0563617 5.224439 3.7951407 0.06629669 -0.4529493 0.31003705 -0.39352784 -0.86047673 1.2034972 -1.3819199 -2.230839 -1.7677549 0.6029121 2.109088 -0.23714393 -0.11391122 -2.0734937 0.099333405 0.20294535 2.9312925 -3.5217001 -0.3937179 -3.3013268 -3.095428 -2.1845684 0.5373879 2.4540157 -2.811538 0.4690226 -0.7693451 -0.13617535 -0.856017 3.3087041 4.031321 -5.963311 1.5062393 1.3305731 -1.7658107
1189 -2.0090306 3.2057033 -0.02192503 8.498072 -5.9779263 -2.1357853 0.5401305 2.939405 4.311941 -5.597972 0.32504955 1.4284213 7.061217 -3.922714 0.54731655 1.2715204 0.022543477 1.4360057 -5.9076996 2.9775593 -0.26814306 -0.9832242 4.809455 -0.49187246 -1.0543555 -5.283846 -3.9160619 2.3083174 -2.0517163 -3.3716435 -2.4641676 8.257273 -1.4812512 -0.4642183 -5.621008 -1.1528932 -4.2829494 0.79205513 3.7885346 -0.3416906 -0.6473394 -4.0014997 6.208909 0.97944754 -4.326074 -2.4075274 -3.1350203 -0.005348967 2.136945 2.504214 4.62114 -1.4570184 8.738457 -3.089098 0.8807926 4.56549 -1.3200879 0.13759254 5.699729 1.6490557 -6.1604614 -3.7404268 5.4410734 1.1102047
64 -1.8214499 0.038684186 -3.4988706 0.70039374 0.10577979 0.9746289 1.143363 0.5702463 1.3169764 2.1368454 1.03519 0.89270663 -0.031020697 5.2612557 -0.8840973 0.26296902 2.5792494 -1.8733892 1.4969699 0.7934624 0.2657365 0.16073793 2.2230706 -0.84033984 -0.97751004 1.7144504 -0.76379716 -0.07632412 1.0677625 2.0421047 0.6088632 2.1761665 -1.2138866 -2.5751193 1.0761286 -5.8440385 1.2875707 0.1511067 2.8284585 0.29771072 1.3110726 -2.7275386 -0.5202988 3.5976932 4.406537 1.1568757 0.5597945 -2.251792 2.4720457 -2.6738558 0.6563047 0.6556631 1.7118964 1.1640512 -1.2280709 -3.2749784 0.81955445 0.8207207 0.60683376 0.44943032 3.0627391 1.3477939 1.6008317 2.5154335
38 -0.8714181 -0.41845387 4.446573 1.8132558 2.2577844 -2.547341 6.1284523 4.2097774 -9.084667 0.42943507 -1.0128083 -3.6877816 12.040274 -7.2171993 3.6670756 -0.52297187 -1.5367668 2.73652 4.097367 -1.5739671 -4.7535777 -3.3792276 2.6020298 -1.4174311 4.547139 -4.2879577 -1.2161778 0.6593594 -2.0469122 -6.814596 1.253796 0.26740673 -2.2012732 -7.1896744 5.967958 5.6844273 0.84849596 -3.4009426 2.7631388 2.5926287 -1.3563889 2.2182238 3.0752604 -2.1981344 -6.8337483 -3.1248603 -0.21147056 4.4129663 -1.1386869 -4.4780154 2.0834424 0.64244807 -4.500392 0.8620003 2.8459296 0.7946009 -2.4436383 1.3072579 -6.5444236 1.4703065 -2.6056054 4.3891106 -7.194321 -9.819655
700 -1.7196875 -2.1499221 4.098697 2.2804482 2.3543067 -4.569107 -4.8110466 0.20590062 2.529045 0.9593689 1.673503 1.860477 1.5361724 -2.5255883 1.980116 3.940838 0.3849864 1.2054079 -0.7805571 -0.257124 -4.4520264 -2.0881314 -2.011469 1.4791895 -2.0850801 1.62324 1.6240005 -3.521419 2.6521864 0.4423982 -0.1770328 -0.59766906 -1.4191298 -1.3018619 0.5847378 -1.4542398 -3.0274217 -2.3935726 -3.9215016 -3.510675 0.10825147 0.48370698 -1.3031892 -0.8481554 -0.38624486 4.2447653 -1.7663343 -3.8202198 2.7007875 -1.6843181 -2.3938184 3.2730844 -0.8479544 1.2131848 4.5762367 -1.0557089 -0.76520073 -0.42933995 -0.5536219 0.9513383 0.76454884 -4.903372 -0.6201734 -0.9402722
2403 -0.64153296 -3.7957754 3.2321084 1.7747909 -1.9098929 1.169737 2.3946207 -3.270535 -1.4080473 4.339064 -1.4961512 -0.5200866 -4.442992 1.2943703 -5.423592 -3.6164455 -0.26132265 0.19700077 0.78619534 2.3120022 -3.6424932 3.679776 3.580444 2.9151824 -1.9520257 0.66792685 -2.0071714 3.5757277 0.32687715 -2.67577 2.375802 3.6236007 -0.100612655 -1.042562 5.9855804 -0.09540468 0.17334026 3.931494 2.5826209 5.969859 0.18453428 0.19980232 -3.4829738 -0.45797315 -1.7020149 2.3217854 -2.9713142 -5.767033 0.41165704 -0.45397684 -0.43293288 3.8488033 0.6202526 -4.195412 4.765261 -0.92224365 0.21640721 -1.2344381 0.17670175 3.3431985 -3.197845 -1.9781564 3.0085926 -2.6411486
631 1.95469 -1.4575571 2.2263467 -0.6178706 -0.595553 -0.5128604 2.3519151 -1.338799 3.3408926 -2.0725372 -0.10043765 0.42898166 -2.24633 5.3238654 -1.5100645 0.07159678 0.48563302 1.0989797 -2.2105181 -0.087971084 2.0773087 -4.443212 -1.03639 4.0192204 -0.80336815 -0.7918096 1.0555414 -1.9026763 1.5814744 1.7650048 -1.5633417 -0.029787224 0.9442911 -0.9586278 3.4823842 -3.8057487 -1.4373214 4.697965 0.42489982 -3.5253065 -3.7644808 1.2731723 1.2610104 0.63887 -1.9185355 2.9765632 1.0215634 3.9510386 -3.383194 -0.5711588 -1.8436744 -1.5451052 -2.2512078 -4.084361 -1.1752481 1.6733855 1.6035221 0.69531715 1.6986616 -1.1510184 -1.1953378 -3.275342 -2.6433613 1.4487681
1092 0.9264274 0.9524105 1.139915 1.6574349 0.161934 2.3456237 -1.1243013 -0.44101477 -1.0023247 -2.30481 0.54174507 -0.25635535 1.2598684 -1.6334367 0.12931675 4.0295477 0.8739499 2.2049391 1.6251285 -2.7630205 1.9940306 -0.42696616 -1.6238606 -0.0030642203 2.0815783 -2.007196 2.389675 0.56168884 0.83367074 1.9849163 -0.58901495 -0.013786605 -4.1628795 -2.022305 2.5832493 -0.06958608 0.026732484 1.8788968 -1.6126609 -1.2830232 0.22851585 -0.56730247 -0.027561855 1.9018633 -0.47796574 -0.17245774 2.0751894 2.8836434 -4.587846 -3.5593703 -4.6833324 1.7589363 -0.44768465 0.5870126 -2.2735515 -0.19720429 0.33928436 0.3117468 2.0679436 -2.2666373 0.017387364 0.06556012 2.5393343 -0.37282243
1112 2.5649207 0.28178433 0.42803884 -1.4936726 -0.98049486 1.3102657 2.2839408 -4.1950445 0.55518353 0.72134304 -0.28266808 0.38991046 -1.8313015 -1.5939636 3.190668 -3.4611073 2.7714002 -0.5747618 1.2288836 -4.684724 1.9737428 0.8384488 0.95002705 1.5043012 0.2924275 -0.37946627 2.039538 4.323164 -2.3545 0.52819216 0.2295535 -1.7865851 -0.65295583 0.2853264 1.1744152 1.8011165 -0.26335078 1.3808597 0.71211565 0.26811388 0.77155674 -0.86683005 1.9677689 1.0710082 3.2242773 0.45762095 0.22867571 2.502639 -3.0959985 0.6036446 1.50752 3.2111225 -0.13999206 -0.7421978 0.4480123 -0.4667106 0.3083336 0.8556009 3.8558183 3.410904 -1.405257 -1.730264 0.007401725 -1.81939
1895 -1.0140457 -0.40995035 -3.3340218 -0.6335843 0.97744465 -0.46849775 -0.016993877 2.0094883 -0.1478833 -3.3414938 -1.1651847 2.0730178 1.0087662 -2.0771103 -3.3319097 3.625486 0.22400868 0.95370984 1.0847903 -0.9177177 -1.9539616 -3.1748817 0.46844783 -0.053889487 1.4581782 0.13388248 2.5384758 1.9763887 1.3441443 0.14767699 -1.8616948 1.1857581 -6.6000333 -0.2803539 1.6095201 0.88389194 -1.45473 -3.9023337 1.9323827 -1.0166223 -2.2056813 1.4811871 2.5201268 1.0847822 -1.3344969 -1.5088693 3.7038622 1.613197 -2.1938803 -1.0069308 -2.9939814 -1.9703066 2.800709 -4.288381 0.7330848 -0.31395102 -0.4774829 4.6633453 4.4389677 -2.5669231 -1.4209468 2.7034104 5.0441155 3.2228003
886 6.2407393 -1.2090702 2.0749588 3.617523 1.7261193 -1.8692963 4.193774 -3.8516681 1.95923 2.3182323 0.46992898 -3.1160038 1.1839136 -3.0041878 0.7595616 -4.453423 2.173121 -0.558395 -0.052623823 -0.6811553 0.41234478 4.1578555 -3.7577498 -1.9211556 -1.3882016 2.5468366 6.016621 -1.6595609 -2.0094616 -2.0689967 2.4080698 0.89680755 1.3627393 -2.5761929 -0.36915818 -0.4329302 -0.68006533 2.202138 0.82091403 1.9889774 2.044357 -0.943379 -0.14145474 1.7334114 -1.5828133 2.842323 -4.753219 2.4135513 -6.324243 0.55454564 -1.6643541 4.642732 3.4475942 -0.51221734 -3.9665885 -1.1514686 -1.0647517 -0.13316391 4.363121 2.9484408 -2.2218034 2.0263772 -0.30857933 1.2329609
2469 2.2649703 -1.7182274 -4.1087103 0.98877364 -4.506243 1.7255518 4.789163 5.3730936 4.1833444 -3.331468 -2.4796135 -3.357753 0.25914374 -3.3072941 6.1966667 1.7913768 -1.1224159 -3.6687965 0.8824191 -0.6769064 -2.3276823 -0.48124874 -3.42947 0.61845684 -2.5102882 -2.5417082 -7.555089 -2.8692048 1.3901584 2.3248143 0.16719927 1.3097417 -2.0635445 0.71209174 -3.7963989 3.0021586 -4.122564 -1.9838396 4.9658194 0.9767458 -0.25886142 -2.9201062 2.224989 0.10207687 1.6996075 2.5196033 -0.42230767 2.2853208 2.147056 -2.301504 3.0443473 -2.5962787 0.3729605 -2.353486 3.8884525 -1.8075774 -0.5611267 0.18038733 5.028657 0.14084977 -4.1675634 2.7246165 -4.466737 0.8351803
626 0.9609471 -1.8197912 0.32786196 0.23230503 -0.4016921 1.8785428 0.56466293 -1.6108756 1.8208704 -2.619228 -0.46973577 0.5124478 -1.9592009 6.1406384 -1.7858504 1.9263133 0.88696486 1.6027313 -3.8235583 1.6158365 1.1786405 -2.0945065 -3.5921893 2.5641067 0.5199654 2.6378 0.20226812 -0.18358955 0.7890004 0.3859733 -0.48403972 4.2157006 -0.9703771 2.2158573 3.1361532 -4.82032 -2.161238 4.109557 1.307749 -7.665434 -2.8936172 1.9067602 0.023044992 -1.4563566 -1.4525247 0.20702615 -0.073832616 5.6666403 -3.147594 0.42757407 1.8643937 -1.8696426 -4.3939433 -4.1279163 -2.9025009 -0.27102852 0.849191 -0.3369655 0.06158853 -1.3013034 -0.080042176 -2.7013218 -2.574271 -0.804178
1389 -0.9766207 1.1539931 -4.243356 2.962789 -7.471825 -1.4617307 0.3603281 -1.9163574 4.4217215 -1.1486981 -4.365684 -0.13966085 -0.0939895 -1.9227802 2.3742301 2.7790256 -0.67763937 -0.3281449 -1.4175512 3.2768414 -5.349841 2.5876899 -3.7617733 -1.165521 -0.116731696 -2.7587445 -6.5319085 3.1545866 0.3813358 0.5797787 0.062805876 1.0823731 -4.4356847 -2.2219236 -2.6074522 0.6614216 -6.2224216 1.5029594 8.399812 -0.9967585 -1.3305634 -3.5093756 3.6724167 -0.49285668 -4.2812705 3.3871953 -0.0715543 0.2852018 -0.5658625 -0.013459903 1.5047724 -6.8300242 7.4735374 0.009402655 -0.332858 4.120252 0.04824128 -0.90470773 1.6207123 0.8434733 -5.601945 3.5151324 4.4500675 -1.5904964
2896 1.505579 -4.293777 -2.9356241 2.9601288 0.9397752 0.9203312 3.5610719 2.736472 -2.8672712 -3.4266064 1.4823587 -3.1330004 -2.3913987 4.6503305 3.7437575 0.82356584 0.9164255 -0.45011455 -0.1885709 2.6718626 -0.9122274 5.9314227 1.0380584 3.1842573 -1.9062687 -5.967611 4.5534544 1.878682 -0.6635161 -1.8483001 -0.14142366 1.3504418 -3.4168773 0.26260108 -1.6175506 -1.3360348 2.201426 5.261988 -0.39487565 1.4472419 1.4171717 0.75481045 5.2199364 2.4229712 -1.5886747 -0.9648435 -2.5026796 -0.54326314 -1.2740815 -1.9663591 1.2712128 -0.12229915 -1.8149428 0.62688273 1.5047742 -0.94508815 -1.2497617 -4.971235 -5.3638864 -6.977079 0.6172365 2.9364128 -0.7352943 5.2895746
2765 0.39183065 1.7842177 1.0673157 0.12280462 4.1246724 -4.9786673 -4.0013957 -1.6943963 4.8004055 3.3248827 -0.9009182 4.2488246 0.1090357 -2.258982 4.2170796 -1.2718894 -1.5231102 2.7996001 -3.3600128 -1.0363632 -3.458936 -1.0922135 -1.6097803 0.59213924 -2.728262 4.918613 6.1739364 -9.067504 -2.3661935 -0.28719744 0.3732567 0.913032 0.6160388 2.610668 -3.4271274 -2.2569566 -0.34699377 0.84530646 1.2182976 -0.95634025 0.3841138 1.520488 0.2152494 6.9466596 -3.0227027 4.551352 2.3249214 -1.7726403 -0.31826645 -1.4035217 -0.743482 1.6122183 -0.68702906 -0.20610084 0.473572 -2.093357 1.8538879 3.80333 1.1883463 2.0769093 3.8781126 -2.5541756 -0.57309335 0.7268507
2908 1.6635042 0.09953672 -3.1444478 -1.4838308 2.7425504 -2.3361294 1.9754511 2.5073435 2.1830847 -1.0397998 -0.3068272 0.8576097 -1.6779556 0.27961123 -1.4999316 0.5583009 -2.409272 -1.5649463 2.3495321 5.0880675 -2.8096027 -1.544047 0.52080184 -0.3354561 -1.3621302 1.4631661 0.32058924 0.72542423 1.9176418 -2.0248203 -4.2802057 0.05566728 -0.6046602 -2.3595588 0.17611551 -3.7501767 -5.1292305 -1.8085858 0.7847688 -3.3255475 -0.3927261 3.1018128 1.0261929 -6.3306084 -2.17226 1.0424256 -5.411217 -1.7111658 -0.9551405 -6.913887 1.4190209 0.4325103 2.2728755 -4.9093475 2.9758518 -1.3595692 -2.0119205 2.1290045 3.0104392 0.7275629 -4.889512 5.3320093 5.5575233 3.768151
88 -0.9002228 0.7325485 -2.3221552 1.7322923 -2.4559236 1.0087168 -1.6675893 -0.9721642 7.682629 -3.500595 -2.4788253 5.37792 -1.5226808 -0.5147694 0.6037821 7.0495186 1.8428588 -1.8939756 3.3388896 0.81180066 1.0069015 0.8002676 -6.334386 0.03088956 0.18282571 3.8163164 5.191565 1.393601 -2.0671053 -0.85363525 3.7673407 -2.4795332 2.9760227 2.3863254 4.9373107 -3.2336385 4.520533 5.75326 -3.9465454 2.83273 3.3223567 -1.5116678 1.395136 -0.9332659 -5.111048 0.74488664 0.13919322 -0.7224209 -0.2040206 -1.3238673 1.4946237 4.560203 0.30493653 -2.512831 -0.15603036 0.93152726 3.0357122 -3.9935718 2.2135823 0.10798735 0.5309651 -0.4624547 -3.2081702 0.33462745
1154 1.8519914 2.637913 -6.08035 4.231102 0.13895114 -0.91893315 3.8621397 -5.559734 4.17942 -4.9082074 4.657594 1.4450333 1.3368706 1.0834453 -3.4255974 0.19825214 -0.2976939 3.675241 1.1944488 1.9413323 -2.1024344 1.9581935 0.37562203 -2.1940303 -1.3626441 3.2525754 -0.7573848 2.6005805 2.0410373 1.0402257 5.0559244 -2.56321 -4.076385 0.56136596 0.99251515 3.3210807 -3.3892727 -1.5006698 3.2779958 1.1772885 -5.238897 7.440358 -0.40510342 -3.2640817 -2.7130868 -1.6611159 -0.15634243 -1.5340995 3.9431453 -3.2265704 -2.6606703 -6.054775 6.236583 -3.3201084 0.64877284 -3.2991168 3.404315 0.41487935 -0.13466787 0.234226 -4.2913404 1.5810201 0.122493446 0.9729442
2107 -1.6776859 -0.5296623 -1.3075616 6.323709 5.6699443 1.1924925 0.049069703 -4.4433265 0.42513558 2.7067552 4.176653 0.036872696 -6.90019 -1.7027261 -5.112042 2.0855927 -2.3150709 0.7171572 0.36602288 4.028151 0.46215537 0.7024943 2.4816208 -0.7262626 -2.1568148 -1.5237838 -6.166982 2.1144962 0.73759365 0.081839025 5.158178 3.6706905 3.7164636 -0.5415641 2.105984 2.2301111 -2.3370898 2.6244152 -2.9468281 2.949839 -3.013501 1.8695728 -2.1128304 -0.31490406 -4.1299872 -0.729282 -1.4310297 -0.33728117 0.35009158 -2.9471912 -0.05155401 7.2068563 6.9918833 4.190485 1.4768677 -5.1197224 5.4012623 -0.83610696 -0.26795918 4.0044465 -3.5640793 1.4675368 -0.619474 -2.9802897
1211 2.4620812 3.0737042 -7.5162926 -0.25602552 1.0250062 3.3408515 3.5145516 -0.04990634 -3.6016264 -3.5496917 5.5347214 1.3368374 4.8281136 2.9477181 3.8448412 1.8517544 -2.2368767 2.629295 -2.6343486 2.830747 0.6216161 4.768663 -0.07145225 -3.9891675 -1.4904664 1.2124994 3.0730238 -1.9749397 3.88898 -1.1966336 -1.8876405 -0.23433983 -1.5902023 1.0002649 -1.4015493 -4.710961 -0.4174081 0.3434846 -2.8320136 -1.4096832 0.4801241 0.9646203 -0.8005843 -2.8127403 1.4202431 -0.77413195 -1.4789599 -1.4490507 -0.56455034 2.3059273 -0.20997919 1.1946393 -2.3696406 -1.6206332 0.39015153 3.2823226 0.014968283 -4.107154 -6.263878 -1.0255879 0.7187015 1.365587 -2.9877605 4.3015366
2376 -3.03804 1.9436139 -0.21907592 1.8571757 1.4963391 3.0887408 2.2444456 -0.5860339 1.0223563 -3.1587105 1.4597083 -0.52880543 2.1676822 0.5436086 -1.9322915 4.2260585 -0.16258822 1.9271684 1.5520592 -0.2593119 -3.138054 -0.74761844 -1.5988033 -0.45710436 -0.79290426 0.029774848 -1.8852328 -4.927813 -0.70797175 3.9123852 -1.4244857 0.5381885 -5.354204 1.4315292 3.5734782 0.90896064 0.28285575 -1.5570127 -3.2824082 -0.7677611 -2.9403684 4.7898445 -0.9948993 1.1610401 -0.8658526 -2.680859 3.2536578 4.2569213 -0.56067854 -1.9051691 -5.805319 4.6842933 2.6908522 0.86694145 -1.5714114 1.253024 4.9353943 -0.5416745 -0.050158504 -2.0309663 0.11647071 -1.2351671 1.2004647 0.007048493
1585 -3.3824139 0.83228457 2.770573 1.0977831 -6.801006 4.1247244 1.9528347 -1.6584767 1.9463935 0.9127346 -0.059300978 0.2728491 2.4588897 -3.1792445 1.9642854 -0.76345646 -5.6712193 -3.0913982 0.5156185 1.2896048 -3.518328 2.5208323 -0.6912081 -2.4971716 -4.9248533 -1.6029259 -2.3190293 -1.3053073 -1.0811834 -1.7335573 -0.8305787 7.087609 -1.9296668 -1.262852 2.7187667 -4.98735 1.6948785 2.4220877 -0.41019696 3.0323186 7.0462537 0.31453764 -0.05903382 -3.154646 -2.6814811 4.2684464 -0.64475954 0.43738165 3.298828 0.79068863 -1.7705839 -5.755372 -2.0418699 -0.65124094 -1.654874 1.2539005 0.76903796 -2.0917943 -3.334041 -0.054919306 -0.33920392 -3.6120105 5.372692 -1.3220876
1355 2.2511022 1.4794805 -4.360573 -1.5423546 0.09939932 0.70993525 -0.40284577 -0.89117575 1.0562112 -0.25026014 -1.0691772 0.24194187 -3.0835452 -4.218161 5.076654 0.39716908 -1.6748859 -2.2123973 3.5512016 -4.996393 2.5851762 -1.9475873 -0.29513532 0.98976177 0.68819034 -0.0025436413 0.79584277 2.502059 0.9739589 3.3262503 1.2396367 -1.9357089 -0.97816354 1.9033034 -1.797632 1.147317 -1.3057013 -2.931082 3.3875673 -0.709332 1.5457126 -1.0321378 2.206575 -0.2624856 -0.13575557 0.39804083 0.04313069 3.2402823 0.26964363 -1.0275209 0.28743163 -1.4076618 0.5709146 -0.5658592 0.5217655 -1.5005696 2.8042712 4.5641146 2.274177 1.2001113 -1.9620802 -0.18181626 -2.0112922 0.07208498
729 1.2198586 -0.3933521 2.5363739 -0.57405514 -1.3515081 -1.2366456 3.2770524 -0.72876227 0.9124725 0.40934527 1.9568249 -0.49604928 0.3088892 2.417741 1.3140537 -2.8064923 2.7650197 0.7316189 -0.33365688 -0.14556344 -3.1982944 -0.029645385 -0.43193763 1.0605475 0.25444165 0.8789691 3.0796535 1.7558861 -0.86759394 0.8392722 -2.2614055 -0.2202911 -2.9767349 0.18442711 3.1754746 0.8804275 0.741585 1.2763696 -0.9444034 0.25938508 -0.625888 1.6070563 0.5885828 1.4112978 2.5803008 3.6749337 -1.8055897 0.96601295 -3.220628 1.6661475 -1.252435 2.4560056 -1.4987059 -1.7601666 -1.3985668 1.7181907 -1.7014031 -0.94128174 2.841534 1.2108616 -2.6442301 -0.9821644 1.0937911 -1.2157897
1143 6.4204164 2.027454 3.9350624 7.517917 1.4134176 1.0749155 2.6274214 -6.6868033 3.0096862 -1.6344569 1.9899378 -3.4996922 0.68616223 -1.7730746 -1.0647717 1.5151737 0.3374336 1.0234967 4.105124 2.4313784 0.27570027 2.9008005 -2.53486 -3.0500789 0.52435344 1.7321801 -0.008796338 -2.952967 -2.72008 -2.1073427 0.9511103 -0.94733685 1.5287687 -4.1620092 -1.0513159 -0.023093991 -2.539102 1.3226926 -0.68101805 1.0492206 -2.7635686 2.7376297 2.6421216 -2.1430678 -3.111209 -4.1891336 -4.0862503 1.7412744 -1.3979076 0.36036304 -5.1655226 4.1178117 5.3358727 0.86622155 -6.35796 -4.195792 6.0441422 -4.7225404 -0.49029917 1.004664 -5.261973 2.3994293 -1.6213398 1.8721043
837 -1.6491565 -1.3264357 1.1816006 0.7775122 -0.73844844 -1.0303887 -0.4409252 1.2064954 -0.66033876 -0.028312769 2.8175478 0.9224224 -0.081208885 1.0408037 -1.380961 1.9754022 -0.22907509 -0.7326136 0.40569523 0.0067083645 -2.3789399 -2.8210602 -0.8269282 2.7042568 0.5071168 -0.5131088 2.2873018 0.49258795 0.97906977 -1.711771 -2.735668 -0.17336191 -1.2873026 -0.70885485 0.4212241 -0.27216637 -2.480759 2.226748 -1.373481 -2.3297236 -2.1471457 -0.6004178 -0.27758324 -1.7978897 -0.35776696 2.8578146 -3.0510197 -1.4138974 -0.411683 -2.6666057 -0.7068042 2.7497342 -0.4461155 -2.1541789 0.060570538 -0.1922384 1.5561997 -0.9082811 -0.3476899 -0.013568054 -2.141571 -1.8531675 0.01793946 -1.0720189
11 -1.1872164 -9.5592375 2.3674471 -3.3303814 2.0325603 -3.02854 -4.6840777 1.6503857 3.467884 -0.37974852 -4.3254566 -2.504866 0.39348826 -0.93091214 -2.5615933 0.3451349 -2.3039641 -0.13580184 -2.4176948 -1.948893 1.3550514 3.728126 -1.7186095 -4.851315 -8.309319 -2.7215016 1.2495018 3.0810351 4.059195 -3.2161708 -1.2556634 -8.982678 1.8158022 3.828867 4.5591245 4.6852317 -0.6533559 2.9688807 0.49827775 -0.81327266 -2.8101285 0.543457 1.2980391 -0.5201936 -3.2074811 2.4688656 1.1202961 0.6704436 4.126503 0.73205066 2.9188719 2.4432242 -3.82778 -2.1479146 -5.316079 -1.9615568 2.6974156 4.9945683 1.4037377 -6.1831985 -10.331921 -0.14341271 4.7519326 -2.376298
424 -2.4711938 -4.4511666 3.740725 1.4252648 1.7156557 -5.3101897 -2.2940974 -3.7874994 3.753825 -4.1860104 0.34162712 2.752005 0.79142576 -1.0608348 -3.221522 -2.1577015 0.19567452 6.032591 0.44248044 -4.8182364 -2.6746056 -3.4891546 -2.310287 0.07860466 -0.7488794 1.9616414 -0.039984178 1.7331425 0.08278994 1.7039973 -0.6285843 -2.9447606 -4.0721655 -2.0951312 1.769624 -1.217387 -1.5529356 -1.6099845 1.24213 0.7214251 -3.3875978 -2.3682847 -0.057936694 -0.7346332 -2.3264298 0.12672049 -3.8698869 -1.9159608 -0.40160656 1.2969109 3.006952 -0.45164672 -1.7732625 3.8449595 -0.26575008 0.9327891 -2.9456148 -0.20290048 -1.3247168 -3.6091743 2.8665383 -1.3069462 -0.9188112 5.412733
1906 -0.7674738 -4.932956 -1.1055549 -0.81881076 1.2840048 -1.148588 -0.57511246 2.3972852 -1.0153702 2.2556403 1.4708226 3.4744952 1.483834 -0.7673742 -5.3538833 0.95729125 -1.9408983 -0.6903332 -1.3964026 1.6038187 -0.2720086 -2.2515602 0.5069925 1.2987309 3.769154 -0.7294606 -0.6693151 3.0603688 -0.039519563 -5.21898 -4.170349 -0.35298324 1.2446636 -3.2309723 -2.2454093 -2.6928039 1.7362535 0.6179804 -1.6033341 -0.71248627 -2.555684 0.25972456 1.1136606 -1.9682137 -1.3135743 0.94063544 0.13400203 -2.1124592 -0.8365926 -0.59428513 1.8327312 2.078485 5.2427683 -4.5425615 4.642804 -1.5005957 -0.9676467 -0.22563525 0.7741653 0.9782308 -3.3216944 0.5704916 3.3386476 1.3194052
2473 3.2605705 -0.7745045 -2.7151036 -1.2301606 1.3139471 2.7906816 2.2373202 -2.0948849 1.5558836 1.5930994 -0.68172294 -0.09181005 0.32799414 -2.1346738 2.8582013 2.1246061 -0.23299551 -4.6872835 2.0243301 -1.7987341 5.201197 3.0425043 -0.6862499 -0.6101806 1.5585728 -2.5670924 -1.0297294 -1.3507869 -0.17958696 0.9373732 0.5766993 -1.3473983 4.3213496 -1.1305909 1.457925 1.2091855 -0.09820965 -0.020255461 -1.674489 -0.12158087 4.0837655 -3.2926896 2.352723 -0.8980356 2.405511 -0.030026842 -2.0649412 3.8227196 0.9766849 -4.071313 -1.3363434 1.023429 -0.71577436 0.9592143 -0.80607986 1.3299217 0.0744822 -1.7921324 2.2913535 1.9428324 -0.22860709 -1.5495906 -3.2500641 -0.83916134
1433 -0.696784 -0.7256254 -2.7671258 -0.7981592 1.0383549 -2.9623113 -0.6761339 2.0484724 0.79002446 0.54460335 1.1389525 2.7003977 -1.5705295 -0.51172304 -2.928294 2.5849686 -0.607988 -0.155295 0.25605908 0.8200141 -3.036853 -5.311772 2.57749 2.422966 1.4095591 -0.5659495 3.2635403 3.9871142 1.8772634 -1.4338464 -2.2649753 0.48328105 -2.5620246 0.0054013794 -1.9250882 -1.1927363 -3.650131 -4.141716 0.9527793 -0.2309284 -3.914715 0.76321834 2.9968617 -2.9420621 -1.6254394 0.9961276 -2.2294486 -1.6882083 1.1379682 0.07329279 -0.6715373 0.24939272 2.532221 -6.277009 2.621915 -2.0568542 0.7075161 4.370533 2.3614092 0.38779542 -4.2245936 1.2631595 3.1874564 2.2174678
1869 2.3073316 -1.3673701 0.79268074 -0.82678825 -3.785892 4.345551 -0.82485384 -0.09285978 -1.5992167 0.29280213 -1.7957339 -2.8813236 2.4672456 2.133601 2.260931 -1.7135738 -6.620802 -1.929593 2.1273558 -0.99847156 -2.4528856 -3.0581844 0.9100613 0.3718766 0.7034541 2.61041 -3.090964 -3.3501446 -0.81566155 -1.6538893 -0.5584954 4.864355 1.081471 4.295088 2.9430442 -2.3320532 2.5036457 -1.626248 -1.3421048 3.474218 5.7659216 -4.105917 -1.6209266 0.23244725 -2.2563071 0.29028594 -2.3048701 -1.9379265 -0.32148165 -1.0767059 -2.7699013 0.32211488 -0.95228285 0.74988306 3.5478644 -1.254 -0.80671066 -4.6254306 -2.3819308 1.5010934 -3.1177533 -0.52993065 0.1826393 2.3482463
1341 -0.30725092 0.14651793 -0.88783306 1.8579658 -6.4894466 -2.8341513 0.34007418 0.42087296 3.6360323 -2.257228 -4.2353573 -1.1001009 -0.5522647 -0.3210164 -0.6825677 0.34839633 -0.25850213 1.1336776 2.5601912 2.8745909 -3.5029914 -1.1662304 -2.61131 2.0160143 -1.7911853 1.0788983 -6.4315023 3.1377225 0.09391471 -0.45167148 2.2211535 -0.86138684 -3.4606113 -0.3682519 -2.6907873 2.5178618 -5.670075 -1.6061336 5.1316004 -2.5020373 -0.68335277 -5.3015165 1.7523355 0.79228437 -2.8990235 3.0814164 -0.12625405 3.1137917 -0.45480087 -2.522985 0.028171435 -3.5903387 8.498074 -1.6516027 -0.26003638 2.08616 -1.5873518 0.5718174 4.2494907 1.9922146 -6.0165257 5.0795927 -0.038567092 -1.0542274
186 1.2969828 4.53935 -4.7042885 0.44770217 -1.3466944 0.802663 0.6722931 -3.196686 3.3090537 0.22257572 -1.6831027 1.6503121 -2.8175106 -7.3784814 6.2015376 1.5791732 -3.2367556 -4.1066947 2.781524 -5.8490644 0.9791874 0.0548026 -2.7856727 -0.45742837 0.86438304 -1.1855516 -0.6023998 4.316371 -0.90403926 4.063167 0.45218325 2.4646986 -1.9641366 1.3233825 -2.1797771 1.144261 -2.4405923 -2.6270247 6.972532 -1.5311509 3.203204 -0.78294194 4.6063414 -1.6492612 -1.6186626 0.8917667 -0.68524504 2.3604622 0.106132895 -1.1387811 3.8419502 -2.8557942 0.8878297 2.4854789 -1.4651362 -0.08520728 4.3221316 4.756532 1.1596441 1.2371109 -3.159364 -3.262391 2.982551 -0.9522813
770 1.7819612 -2.5049336 -2.4754436 0.13791852 -0.5832709 0.57084 3.8471355 2.3997812 -1.0674484 -1.0014039 0.37373906 -2.4299881 -1.290024 -3.102082 2.1512125 0.43142232 2.8699672 -0.6347815 1.5020357 0.9698664 -4.228599 3.8129456 -2.3740003 -3.3277025 -1.6500411 2.5026503 1.6119615 0.8136862 3.5920377 4.480412 -0.34958488 1.3991257 -5.9478793 1.1360428 5.9147625 -0.4493512 0.15272439 -4.596696 0.85956115 2.2969801 0.25858864 1.7382936 -2.4174542 3.6320188 1.6995314 0.293465 1.6425289 2.1698127 -4.7856326 -2.183891 -4.2360787 -1.6189387 1.5707297 -3.671588 -0.43354386 1.9385118 -0.33258384 0.7945079 4.913952 0.9301197 -2.9656456 2.3163784 2.74329 -0.58079696
1314 -2.9089797 2.0534203 -0.8254342 1.7478493 2.577053 -0.3780967 -3.522073 7.1995378 -0.34455997 1.0187149 -2.4979303 6.6135135 3.3688772 -0.36020908 -1.0306497 -3.2678387 -0.5857885 0.9483141 -0.09058608 -1.1021456 0.056861423 2.8974223 0.58974123 -1.5171137 -0.8985446 2.5974777 -3.9312735 -3.085609 1.2412655 2.5482295 -2.0335407 -1.6340345 0.35821152 0.7558281 0.8782954 0.5341343 1.7691877 -1.9530876 1.3272555 3.5181372 1.9687673 2.1843457 -5.6334815 -4.2216215 -1.3555913 0.45056078 -3.4670925 0.8130335 -2.1133957 -1.7662544 -0.7790472 1.2872543 -4.0163574 0.9271154 -9.312946 2.4624462 -1.0003117 -3.6876903 -0.2696024 -0.9394214 -0.27985483 -0.40506583 -1.3991779 2.3287969
448 -6.0431423 -2.5808609 4.1985307 -1.2194438 3.300314 -2.0600653 -1.747085 -0.13732354 3.1844969 -2.8283377 -1.578827 4.1161556 1.4029248 -4.7284245 0.19563739 3.5257998 2.8538516 8.029696 1.3820269 -5.3340845 -2.9367182 -1.4433042 -1.5773048 -4.211689 -0.0017197046 1.2303495 -0.6704219 -4.6474504 -0.8739354 2.6667187 -1.8687884 -3.1003158 -6.214533 0.34350047 1.7718067 -1.6770759 -2.1174219 -3.4829504 0.3001225 2.4010828 -2.2577393 -2.5047512 -4.4268565 4.959532 -0.6313145 0.9306733 1.4221466 -4.8608704 -1.3731011 -1.763905 -3.2744074 1.0130901 -1.9373543 -0.49296877 0.510329 -0.7381122 0.6651095 3.7887166 1.0411527 -0.9229763 6.7106714 -1.7407044 1.2981108 2.715505
2161 2.724334 -3.6156259 -1.6085571 1.42951 3.2508636 1.9000047 1.6884357 -1.4967886 0.4331558 -2.7174077 -0.37397695 -1.6717465 -3.5902855 1.0243024 7.2769103 -0.29800805 -2.126908 -3.1280777 4.3424134 -1.768854 3.4624848 5.973744 1.9700108 1.4454656 0.09766741 -3.3074522 -0.5620751 -0.37709063 -1.1362909 2.3150797 -0.11503919 0.93902504 2.9867814 1.6814663 -0.46384016 0.8295546 2.2715886 -0.3231493 0.90232116 0.042881515 3.5777347 0.5330713 1.5984056 2.373381 -0.3546514 -3.0696251 0.24460174 4.316504 0.09113874 -4.794556 0.067988485 2.1243322 -2.4023852 1.7614938 0.38447747 -4.0029655 0.794793 -1.1450247 0.086101875 -1.4053776 -2.3764365 -3.2796793 -0.83563447 1.5012195
2508 -1.7025429 -0.3413544 -1.4766487 2.5320313 2.1957195 -0.86849767 0.91091377 -1.5555279 1.5317651 0.47020355 2.981217 3.0001764 1.0333061 2.1811311 -7.129468 1.7636985 -2.0001254 -0.58095795 -0.16315529 4.655751 -2.0215428 -2.10568 3.6101224 -0.11488261 -1.0332301 -1.1473657 0.13064133 1.0878175 -1.9105749 -4.456574 -2.3784444 0.23132408 0.9240284 -1.050706 -0.95763296 -0.19171377 -2.5017502 -1.6974626 -2.6581979 1.1837847 -5.1336684 3.8878868 0.34500158 -2.712433 -2.011845 -3.7082415 1.30279 -0.6091505 2.5321405 -2.3995497 -0.650774 3.5523555 6.6936088 -2.5217957 2.4630322 -2.5012302 2.409351 -2.3847551 1.2682424 0.9315742 -2.9021394 -0.15615597 3.0500715 0.60558313
703 -0.8679174 -1.4025356 4.8795033 1.2537063 0.973892 -4.026682 -5.524105 -2.953825 4.7431884 -0.04856615 -0.15896529 2.6848884 2.839473 -1.002133 0.42956853 1.7214667 1.0889145 3.983391 -0.10310195 -1.6115314 -2.819983 -1.9974364 0.036334902 1.8965131 -0.6893963 2.9031682 2.6179075 -1.0480987 0.6460347 -0.17228727 2.3885355 -2.8744962 -3.753466 -2.5337162 -0.5804829 0.38985372 -2.802173 -0.52049994 -1.0075835 -2.205943 1.2022978 1.4401562 1.6205004 0.5421355 -0.032411825 3.5000455 2.7537699 -2.3949502 1.5983258 0.24227051 -1.3999414 0.033016443 -0.95668757 1.0694262 3.8871622 -0.23630922 -3.1541224 -0.43586913 1.0462689 -0.92050934 2.077308 -3.9109688 -0.07431022 1.0507823
709 3.15663 0.44584998 -3.5906744 3.18559 1.2444137 -1.75503 -0.7578946 0.85868233 -4.6378603 -2.6782491 -6.425732 0.92428887 2.7483249 0.17436764 -4.911129 5.1646676 1.917418 1.2878281 -0.47204348 2.320267 -2.0433888 1.8488672 2.7887821 -2.7134778 3.9775536 0.8768777 2.1970444 2.2221248 -2.8797166 -2.2815273 -0.56444174 3.3377314 -3.8820796 -0.27104586 4.487262 3.0934286 3.943064 0.102449924 -2.2121823 -4.5108795 -1.5176568 -3.9583497 3.2210453 -0.67907023 1.8139089 -4.3905826 2.377982 -3.4769418 -3.622079 -4.211115 -0.42155817 0.7190727 4.4711246 -0.30918518 2.022667 -2.9154468 -2.0519397 2.702222 5.6385245 -4.0216217 0.877666 3.0865788 9.56882 2.5541577
533 -1.5829136 -2.3106945 0.86570096 -0.41048813 -0.6138705 -0.8693911 -0.21621718 2.9928493 -2.6807096 0.5207217 2.1463492 -0.011926727 -2.2973132 0.2877823 -0.6320006 2.127669 2.3527033 -0.13973416 -0.4708783 -0.16330345 -1.0508556 -0.9164271 -0.78140026 5.480889 -0.2772928 -3.822604 4.0497003 4.6444693 -0.09058118 -3.8755798 -1.3703475 0.24952705 -3.456129 0.85698307 -2.4082794 -2.1696045 -2.3811667 4.958166 -1.4394096 -1.5812025 -2.0653474 -2.2534993 4.4723806 -1.1540996 -1.4601539 4.1523385 -0.5868727 -4.8335795 0.33495817 -0.82606757 2.480826 2.163294 0.54663074 0.51652586 2.78644 -2.3682463 -0.13617033 0.035829235 -3.2914228 -0.9232307 2.3141851 -0.5362445 -0.63703585 0.97491425
1161 1.3145345 -2.4771345 1.6072077 3.2792761 -0.63314146 -0.5369523 -1.17798 -0.7965543 -1.8585508 -2.250424 2.7769601 -2.3268833 -0.5510834 -0.8745143 -2.384663 0.6686257 -0.14010158 -2.032632 1.6458068 4.0374446 -3.358087 0.14503837 -1.9374759 0.48004594 0.8280129 1.0707076 0.0794479 -0.060705002 1.4456942 -5.296479 -2.7940962 -0.036301237 1.5412669 -1.4390196 -0.6760298 -1.6415166 -2.036881 2.1136844 -0.5401176 -0.52253664 -3.6518238 -0.7247772 0.65283626 -1.0903641 0.21616313 0.71236813 -1.3816464 -4.6101193 1.3339943 -4.2361283 -0.79491395 2.7231874 0.46248204 -2.1264877 -2.3042393 -1.3422346 3.5526571 -4.643833 -0.7493756 0.42760253 -3.3566182 0.4492669 -0.3878805 -0.57502764
2419 -3.6640425 -2.8142385 -0.98211455 2.496947 -5.7614245 -1.637753 0.8651932 -1.7914715 6.3353696 -2.2863138 -1.647371 -3.6991572 1.6199992 3.648952 6.636797 2.8762496 0.6237176 2.496911 -2.0775807 4.1572347 -3.9934187 3.8034694 -1.3389832 0.7481739 -1.2916421 -5.469258 -6.74669 -0.7114885 -0.6724272 0.872575 -2.9439104 -2.6357749 -3.4972308 -2.519489 -0.73674023 0.87277067 -6.4652615 3.345954 4.347636 -3.2934594 -1.379859 -6.5565886 3.5391788 -0.85653514 -2.0487905 1.5528343 -3.7189646 2.689941 -3.375143 -1.8228722 -1.6728952 -1.860277 6.538931 -1.6084352 0.5733125 2.1358485 -0.9682635 -3.880223 -0.43022376 0.45967013 -5.9156733 4.3795304 0.52488774 0.25946468
429 1.8855851 2.7629375 0.23908953 -0.019929916 -1.5161829 2.1461098 -1.9026079 1.2527543 -1.462881 1.2109829 -4.1997533 1.4471152 3.3098774 2.1673663 -1.9235234 -0.86849 -3.798771 1.1444023 2.624819 -1.5366881 -0.24463806 -2.462567 -0.009386652 2.9596846 -2.861473 2.595305 -1.0645496 -3.8347378 0.5354752 0.8865329 -2.2876527 2.4228978 -3.0763795 0.8568866 2.1308796 -2.3333802 3.586761 0.5268562 4.0354953 2.0487592 4.3572445 1.1057136 -3.5632815 -3.678446 -3.1957104 1.1808759 -3.1583612 0.5457599 1.4484639 0.2903773 -4.645746 3.7363927 -4.601819 -2.1086948 -2.7387688 3.259398 1.119248 -1.1094542 -0.5727568 -1.026897 -2.0675595 -5.660397 -0.447033 -0.6244971
1238 3.82891 -1.0779742 -2.594467 1.5642265 2.074074 -4.0258822 1.6095695 -0.022126457 0.5981982 -3.3279278 -4.817881 4.6704044 -0.40132275 4.219275 -3.9589577 0.15609972 0.7597509 0.93169564 -4.2512527 3.8225002 -1.1586472 -0.60346717 4.0079517 -2.967664 1.7652996 1.6929636 -0.55615973 2.6843061 -3.2846286 -5.366014 -1.1929394 1.7975852 0.27715942 -1.2172043 0.9531661 1.2684801 4.568037 1.6093479 -0.5204386 -4.492607 0.7021507 -6.6081266 3.2844532 -1.790991 2.5442183 -3.7271163 0.13366674 -4.6020484 -1.0282414 0.68638086 -4.01371 -4.074633 5.2966576 0.41061577 0.7950614 -6.69418 -2.2290304 2.0856674 4.3914247 -2.6000683 -0.12807527 -0.34315035 1.8547077 2.3148983
1826 -0.92417043 0.4595935 -0.5258777 0.9561364 0.62068784 2.7509105 -3.7309518 3.4266217 -4.093236 0.48018736 -2.3024046 3.736308 1.2953042 -2.133262 -7.914696 1.5452074 1.8665485 1.487543 -0.080876835 -1.0987974 -0.4498656 1.4840386 -1.0817301 0.13712046 -2.6734617 1.81512 2.775778 1.1184422 2.844613 -2.349734 -2.4707026 1.0507894 -4.2503376 -3.20895 0.96741176 -1.0918067 -1.6013477 0.5091115 1.858247 0.69254696 -2.3766377 -0.49460346 -5.467391 -3.266425 -2.0797553 -3.1666257 3.1862352 -1.330267 -3.2415354 -6.753374 -1.7135221 3.5580363 0.26775965 -2.7842393 -0.22661152 1.5761027 1.4996058 -1.5906007 3.2707632 -0.8086186 -1.0279548 -2.4259334 1.2772362 -2.3208878
432 -4.1345043 -0.84696794 7.4992104 -1.4590257 5.615587 -1.7542027 -1.8614876 2.345986 -0.8355712 -1.5163205 -2.7922244 3.957657 2.2913878 -4.7785826 0.32967818 4.9084005 2.8099039 9.824836 -1.2591877 -4.1104913 -1.0790962 1.3793792 -0.8922332 0.56648433 -0.47028938 2.2468386 -1.7131615 -3.9157276 -2.617616 1.4273559 -0.28061977 -0.044521224 -3.8422568 3.3683455 1.2650698 0.32989445 -5.1742134 -4.597711 0.047946524 -0.35589236 0.4745271 -1.5100578 -1.8074535 3.6630435 0.29477838 1.4124576 4.377691 -2.5087335 -1.8786484 -0.9195396 -4.943463 0.07772035 -3.0868914 -1.193664 -0.34306487 2.3363166 1.5305512 0.48085865 1.625173 1.2899898 4.5867023 -0.4630966 3.8097334 1.7835243
2235 2.8286607 -5.063749 -2.3372848 1.2408373 -0.00488363 0.55321044 0.70519954 1.5845902 -0.29998982 -2.004025 -2.0290263 -2.508001 -3.2280495 4.1110787 4.7499747 -0.09898187 -4.8698072 -1.2826794 4.4965878 2.5326738 -2.9476306 3.8779647 2.4616122 2.9540167 -2.6271825 0.46016383 -1.6661656 0.02869362 2.1719499 0.96015567 1.7738148 3.52531 -2.9684458 3.433546 1.6247836 -0.78730065 3.2860274 -3.552336 5.245312 3.509094 4.557621 2.2847068 0.69420797 1.5986882 -4.4696527 0.15624501 -2.1493654 1.4921695 2.6297438 -3.729909 -5.806208 -2.8563006 -2.2432647 -3.569267 1.7764822 -1.4222957 1.0710558 -0.9549848 -1.9938443 -2.829043 -4.3346314 -2.4907417 1.5373067 4.060403
1223 2.6520298 -1.6849649 -1.4224628 1.8118597 0.8462112 -1.1726905 2.4781888 1.2722459 0.082900956 -2.2387786 -4.3023906 3.8406744 0.9273799 3.1680741 -2.8524923 0.83880293 1.5556711 -0.38416588 -3.7251544 4.5795574 -0.57901365 -2.049911 4.253446 -3.3445516 2.1864052 0.5000552 0.8726295 1.971656 -4.218273 -5.4519997 -1.096063 0.37364385 1.3690609 -1.117929 -0.049301673 1.1408844 5.0591254 -0.4201832 0.2592574 -3.1480513 1.5769117 -3.463711 3.2133462 -3.218019 0.63857204 -2.467134 2.239302 -3.5446544 -0.7136 -1.9777858 -2.5264714 -2.3338456 2.2903724 0.72114563 0.9297269 -3.6390865 -3.7649333 3.9455886 2.6791291 -4.6323233 -0.7228559 0.53099126 1.9571003 0.48442507
77 2.4670029 2.2938738 2.1745896 2.846543 2.5818453 -2.5063963 1.1259403 0.89946294 6.3711224 -2.6216934 -3.7306042 0.7490841 -0.66832906 1.0901461 -1.2377721 -1.1248066 -0.7722459 -0.086520866 0.24860871 -2.1446981 1.6092831 1.314342 3.123905 -4.278969 0.8721215 0.7735326 -2.8720353 1.5020148 4.1569786 -1.6449809 2.1529195 0.7729708 -6.472782 0.15378763 -2.8891513 -0.9844492 2.8535755 -0.6544841 -1.9793144 2.7040133 -3.751407 -3.2124774 0.9597279 -1.3469269 -1.6563315 4.032452 -0.89754814 2.219564 -2.6480649 -0.5370256 2.0403943 1.4964836 0.7116264 -6.8053536 2.908553 1.2424939 0.6117019 2.4001844 -3.2746356 -0.75778013 2.7722745 0.45616353 -0.043264877 -0.66551846
2393 -2.1960223 0.34967947 -1.3431956 -2.4419515 2.7568316 -0.88561016 1.382537 -3.0524504 0.1658834 1.4175049 -1.1103094 1.1174774 3.1887093 0.7688428 1.5598967 -6.7930336 3.8845592 1.987976 -1.7549167 -2.2489471 -1.3875471 -3.031301 -4.2130284 0.3097122 -0.60209686 0.14467284 2.3016963 1.4019643 -0.6519023 4.325597 -1.0956223 2.546511 -2.005135 -0.4607503 3.5332925 1.7618935 2.4357414 2.3933392 1.7020707 -1.1123656 -2.4409366 0.8690984 0.54777974 -0.9596003 3.4119842 3.7518337 1.3360437 -1.7636495 -1.6166091 4.4013376 -1.9558551 2.5688074 2.86803 -1.1324506 -0.19345881 3.256124 0.50945896 -0.11680543 0.142495 7.438546 -0.71036667 -0.1911667 0.96471643 -1.7258228
1658 -2.64553 -1.3674016 3.3848033 0.1746065 0.15322131 -2.2404983 3.5287766 0.5503986 -0.6547502 0.59819365 4.2086716 3.398991 -0.40120253 -0.36669287 -2.0697412 1.1241734 3.0173821 -0.8916937 0.8592787 3.1013265 0.71217805 0.81452215 3.257719 2.5663915 -1.6716005 -1.4628857 0.7410032 4.7247405 4.046091 -1.2025465 -1.7318494 -2.2163875 -0.29750904 -7.587278 -4.711448 -1.0117629 -2.7558894 0.9681276 0.55459577 2.069917 -4.3611207 -2.2896738 -0.9987116 -3.2147098 -0.984015 -0.84542775 0.5900108 -1.7579778 1.6103486 -5.014258 0.3683292 0.69092983 -0.49808264 -3.4151213 2.0038939 0.851795 1.6895435 -1.3188657 -0.87529033 0.15539765 -2.3278844 -1.3224804 2.3669307 -2.0581424
39 1.50949 -0.7148135 -1.9774995 -3.5556064 -4.720257 0.62634486 5.5622344 -0.80980206 -0.05163792 1.1146492 2.0799997 -1.6875236 -0.13280086 -4.7463045 -0.771621 1.9904588 -0.9835927 -3.2903464 -2.4944062 0.36921036 5.3450255 2.4476252 0.19276838 -1.2180852 -0.37531194 0.9291431 -3.8712711 2.003981 -6.8152866 2.0986867 2.7889657 0.04161473 -3.935202 -1.2088721 3.253125 -0.8029674 -0.48779586 -5.1793895 -0.08123146 -0.13406488 -0.42117167 -3.5298955 1.4198667 -3.4842803 -0.11413506 -1.1586982 -2.790051 1.8881552 5.1270413 -6.091718 -0.29872787 4.4575725 1.7696726 0.51580083 0.091694385 1.3536899 -1.557999 -0.6375702 -0.91350716 -0.92394334 1.2025989 -0.13941662 -2.9333494 0.6983765
52 2.377811 -3.8739302 1.2438495 -2.2778971 3.0040517 0.6887926 -2.4392734 0.14255723 5.847694 3.394083 -1.5237012 3.2207732 -1.1328284 3.2239065 -0.78276616 -0.123620994 5.1872683 0.47039962 -1.4221423 -5.518268 4.287356 0.6563161 -0.10338773 -0.22227415 -5.617679 0.82007277 3.894425 2.2134514 6.871899 1.0079304 -1.4596622 -2.9266603 -2.2759833 6.8148623 1.4990977 2.4681978 1.094729 1.4451638 1.9937235 -2.5495806 -1.9514635 -0.2931884 6.287076 -3.1256166 4.6838136 -0.7237861 -3.778866 -1.4075757 3.649828 -0.90698457 0.3519827 0.5021235 2.7914376 -2.8876023 -5.0472193 -0.7900914 1.1906898 0.055620167 3.059488 -5.4294357 1.5927423 1.716395 6.509672 0.13817991
2931 4.433341 1.8396508 -4.1239524 -0.1146399 0.41948906 1.5320902 2.3870645 -1.8000561 -4.2984467 1.7345216 0.9300715 -0.91872144 -1.819382 -0.5372389 3.7415154 -3.108094 2.3921094 -0.84410113 -3.2466087 -0.11536017 2.5331235 1.9739606 0.03276391 -2.85788 -3.0656023 -4.321721 3.416782 4.111726 0.04638182 -0.13716133 1.6878381 -0.8339827 -0.10747451 -1.4187438 1.3333083 -2.3359292 3.3240879 1.8353276 -0.29707512 4.9797306 2.1490884 2.2550354 -1.6915761 3.214984 1.4802197 -1.1047851 -2.1089952 -0.89087915 -3.227267 3.2468362 0.48238808 3.2642095 1.0562184 0.2762532 -0.63239473 3.445161 0.3915962 -2.1746686 -0.22485226 2.2127855 1.3494251 4.016321 0.12742428 -1.055305
1376 5.9807744 3.864139 -3.9788783 1.6591098 2.5883734 1.9906147 -0.6218549 -4.8907433 -6.415807 -4.5220146 -0.4452516 -3.6061866 -1.1447908 -3.347121 0.50487155 -0.93150425 0.035080045 -2.078656 -0.7188778 2.2385387 2.8675773 -0.25994635 -2.8230984 -2.1371698 -1.4628808 -4.158751 -1.4577882 3.2998006 1.8241715 -2.1073756 1.7129678 -0.85822415 0.97064763 -2.4609303 -0.1353955 -1.9679577 1.759229 3.6385562 2.047645 2.9698696 0.23066793 -1.1875873 -0.19390288 1.0989938 -0.562708 -5.0133424 -1.2101055 -2.3334997 -0.36137035 1.6494656 1.8947614 4.026257 0.88849384 2.6251974 -5.720053 2.2917333 6.1682434 -3.3292017 -3.4749465 -1.3046256 -0.7088918 5.985698 -1.7977302 3.2901244
1299 1.3113936 -2.2660038 1.4704695 2.2157035 0.34566385 2.993425 5.9809947 3.0699942 3.7707572 1.4882138 1.4478569 -2.0911546 -2.053603 0.74401665 -2.5427978 3.1859238 -0.8971424 -0.5691802 -0.7606457 2.471235 -2.450544 1.13292 -2.5084639 0.11001129 -1.0435077 -2.3417623 -6.870749 -4.2577143 2.029675 2.732752 0.878389 4.750199 0.67329806 -1.4124172 2.4165652 4.152947 1.3468473 3.483711 0.482571 4.0062103 1.5416439 1.2285489 -2.1619902 0.34922117 0.72920203 3.0602574 -0.80481726 -2.7058432 -0.47431195 0.5562989 3.1013935 3.4064682 -2.9674418 0.43641028 1.457265 -5.1284165 -3.0353692 -1.9066563 1.3210033 -2.81378 -0.10175987 2.285979 -2.9964201 -0.6581655
1854 -0.17546177 -2.5126495 -0.90289116 0.99423814 -1.9157118 0.97243136 2.5421188 -1.9029361 1.5077101 -1.4677249 -0.62516713 -1.1135278 1.4487249 -0.7090797 1.110854 -0.36023194 -0.6261018 -3.7560728 3.1285377 -2.2105677 0.6638138 2.003256 1.2753855 0.09196896 1.6321101 1.0465773 0.59415954 -2.7204897 -1.8331989 -0.8385175 -1.5466948 -1.8634198 0.74457353 -1.0814267 0.86712426 1.3566803 -1.028124 1.8573989 -0.19854826 -1.8431283 0.052531626 -1.9460497 0.7464701 -1.9610655 3.1198678 -0.33883592 -0.34711638 2.8701794 -0.56794894 -3.635801 3.2381408 -1.4945159 -1.7383615 -1.814656 0.9914085 -0.5029275 -0.5562461 -2.1477034 2.2333598 -1.6144688 -1.7111518 -1.3672202 -1.8106945 1.1571667
1033 -2.0446184 -1.8864051 2.6647174 5.6517706 -0.75996655 -0.2939069 0.35444698 -3.7568614 2.4978282 1.4776267 -3.515357 0.6793298 -1.9773062 -1.984148 -5.5934916 -0.4839876 -1.2892913 1.6645525 -2.4316437 1.67189 -2.0481584 2.4015763 -2.4693198 1.2231646 -0.55997217 -0.28549463 -3.4580772 -0.013848945 3.4539566 5.2950344 3.9003477 0.098101035 2.6554935 -1.5490761 4.4365664 2.4715338 2.2908995 -1.4398298 -1.846396 0.71004444 2.5699973 2.7350223 1.4366173 -1.0045066 -4.0464725 -1.7436663 2.310755 -4.1215777 2.285884 3.9161947 3.339305 2.7803316 -1.9024236 3.526723 5.578453 0.9640161 -4.383006 0.6322346 -1.1236823 -0.8879175 1.2013243 0.88206714 -2.9920661 -1.253714
285 -0.91706413 -3.1633272 0.722658 -0.6911875 0.81807363 -0.9493254 -2.035755 1.6301956 -1.5501217 1.0655103 1.7748299 3.627431 -0.30586392 -0.5991643 -3.032013 -0.36656842 -0.8599842 2.1807535 -1.7420696 -2.3675687 -1.7689296 -2.55574 -2.4856079 4.4595103 2.6342986 1.2275263 -0.3422123 3.9303946 0.47984463 -2.239716 -3.219004 -2.153317 -3.5052137 -2.695219 -1.6464664 -0.43995768 0.94858944 3.8965638 -0.7879572 -2.6312444 -3.4749086 0.07945579 1.7901273 -2.185892 -1.9186394 4.1634755 -2.3233168 -1.6819972 -2.2930176 -1.8492794 1.3921721 3.5925233 4.2252975 -1.3525518 3.2730699 -0.24582766 3.0420935 0.6565994 -0.7999 0.9296829 -3.3531704 -1.8871392 0.93213814 -0.15352666
1970 2.638538 -1.1376797 -0.052636538 0.25671977 1.4786215 -1.6107442 -0.27993986 -1.5540495 4.2946053 -0.18502226 0.031743582 1.0207425 -4.33254 3.7849145 3.199882 0.6671149 -3.03276 -0.9909508 -4.9833703 3.243414 1.6464267 0.8828632 -2.1671891 -0.9141791 -3.437918 1.2625519 2.465983 -6.326836 -0.117978625 2.7148864 -3.2566328 4.064654 4.6342096 1.158963 1.3604729 -5.956754 0.5091564 2.332722 0.19214931 -4.720612 -1.9645466 3.3072503 -0.38195518 3.313907 -3.00016 0.15990518 1.6276498 2.2121406 -3.3246489 -1.2521679 -0.8397953 -2.9140325 -1.3662845 -3.226683 0.21623741 1.9659165 2.0333967 -0.49935707 0.5609805 -0.07514678 -0.37522855 -1.6660703 -0.6015644 0.07237314
1271 4.434255 -0.16414542 -4.415176 1.2445092 -0.1309832 0.47015265 -0.30192587 -2.9280338 1.2779313 -1.2321572 -1.4043583 -0.2100157 -2.6519473 -4.888706 2.6654587 -0.44277713 -1.7179277 -3.3640037 4.8380785 -3.3442135 4.114557 1.7403011 0.818159 -0.26106882 0.79650825 1.3350747 1.610463 4.2646055 0.5783167 1.3642638 2.0217423 -1.9091774 -0.64981055 -1.6022662 -0.97056293 2.263183 -2.1184235 -0.8857784 4.4773145 0.512186 0.61991805 -1.8883106 2.1413794 -1.6337653 0.6010968 -0.70561814 -0.6126413 3.9336329 -1.6113552 -4.6472855 2.515102 -4.2958612 2.3821576 -0.97266275 1.2021703 -2.4479744 1.4659367 2.048831 3.9292865 0.81723535 -4.2559543 1.2297771 -1.5232295 1.4607285
2947 3.7088146 -0.22973517 0.47003087 1.365394 0.40954852 0.27288997 2.605402 -1.8257431 0.23674327 2.583503 2.1785555 -2.4909334 -0.8346792 -0.54020214 4.1301312 -1.9611696 1.5813193 -1.3658097 0.5204938 0.9315316 2.2085068 2.7379537 -1.229847 -2.1117308 -0.6196225 -1.0452875 0.9393239 1.4520977 0.503033 2.0932467 -0.58603555 0.875261 1.6404754 0.11033127 3.1534956 -1.0421021 2.3391085 -0.036253978 -1.4548702 2.329143 2.4529655 1.2695304 -2.0917084 2.593036 2.337342 2.003083 -1.056049 1.4112897 -3.8449948 0.3422229 -1.8173653 3.038961 0.17616077 0.5990591 -2.246598 0.47113734 -1.3915268 -2.4809575 2.8118649 3.6198604 -1.674408 -0.28813067 0.9741578 -2.3358617
2626 -1.3046778 -0.184358 0.8082763 -0.08490872 -0.2988014 -0.99157035 -1.5391293 0.83961624 -1.230395 0.96914756 2.4531488 2.568439 -1.144238 1.3476794 -2.849395 0.390838 0.37999707 0.33221966 -0.43232036 -1.0792795 -2.4271576 -3.0583184 -0.21100679 3.257259 0.49883476 -0.25813195 3.0533822 3.1026807 0.23400025 -2.733837 -1.0436355 -0.855535 -1.9636376 -0.5323175 -1.1937894 0.36426228 -3.018807 1.7000424 -0.2300878 -1.9130032 -3.251917 -0.5691097 0.2518102 -1.6301128 -1.1627332 2.795683 -0.7931818 -2.4839132 -0.10857579 -1.9972883 0.27474564 2.9249284 0.7375049 -1.7390312 1.5757391 0.18071777 1.5811397 0.20265731 -0.8066563 0.06926342 -0.9962884 -2.013748 0.2361081 -1.0682921
1855 -0.17362252 -3.2415297 -0.8274267 0.772858 -2.0671608 1.2246103 2.42113 -1.5729114 1.6423309 -1.7587032 -1.2341397 -1.0880898 1.6147414 -0.28693545 1.3138838 -0.020794075 -0.07640903 -3.945068 3.4022458 -2.0603507 0.8838886 2.1007304 1.3086272 0.5870366 1.1719729 0.7811899 0.59821707 -2.512179 -1.7213926 -0.66641283 -1.7085887 -1.8359176 0.66836506 -1.0118053 0.7951762 1.4725167 -0.940328 2.0391705 -0.5289675 -1.5828557 -0.27761742 -2.1656253 1.3379159 -1.0010601 2.9043968 -0.41309348 -0.49530417 2.941345 -0.5897943 -3.3208485 3.3051832 -1.1593366 -1.5629246 -2.022748 0.8257122 -0.48385736 -0.8344325 -2.4320853 2.105167 -1.3641114 -1.9401284 -1.6398757 -1.5984337 0.9182034
1853 -0.21559769 -2.7524128 -0.5316417 1.1265392 -1.8594569 1.3500488 2.563207 -1.6474797 1.6618834 -1.6724598 -0.5821061 -1.0296865 1.4011757 -0.7323762 1.2056773 -0.23749237 -0.49492744 -3.9645262 3.3554664 -2.380245 1.1240574 1.8998866 1.3464844 0.5014878 1.2868388 0.73769695 0.6214699 -2.890609 -1.4084997 -0.7465432 -1.511361 -1.9612076 0.73840725 -1.28314 0.9080181 1.001123 -0.8553203 2.210757 -0.1576495 -1.6916158 -0.38208374 -2.1398277 1.1165079 -1.5231321 3.2132883 -0.27438557 -0.34545773 3.169585 -0.3191655 -3.6867905 2.8051274 -1.6503375 -1.0365945 -2.0260377 0.84579045 -0.6251078 -0.4464349 -2.5167682 1.7934651 -1.824151 -1.9409633 -1.7694664 -1.9162437 1.0718606
1328 -4.5286546 -3.8196573 -1.1684227 -1.017792 1.7434183 -1.4084076 -0.53564304 -0.06503904 2.1761012 2.0916736 5.068669 -1.2479718 -0.56172657 3.5207043 4.492299 1.4364228 -0.8767838 -3.1741152 -1.3344783 2.9630144 -2.5639763 2.2440484 -1.0616766 -0.6852537 -2.1318414 -3.654565 -1.1744565 0.008388003 1.8012305 -1.130232 -3.4994519 -1.3432113 1.2287786 0.7450692 0.55949885 -0.25672886 -2.907826 -0.17167397 -0.30053502 -2.424932 -0.8837717 -3.1092114 -1.9891309 -1.8040409 -1.5316305 0.5900511 -3.216914 -1.6247627 -2.2054114 -4.609947 -0.76646525 3.5120142 3.308215 -1.2994784 2.544643 -1.0196124 1.6519074 -3.4078572 -3.888737 0.9204646 -0.80056113 -2.2179418 -0.88100404 -1.1043012
76 3.4465706 1.66524 -0.1544894 3.8606184 4.01619 -0.1974741 -1.0358237 -4.078811 -0.22403882 -1.2418435 -2.1063116 5.2054534 4.8105254 -1.6920195 0.35326383 1.3918222 1.4999659 -2.6735797 1.1386669 -0.18172655 -2.5483475 1.0076777 -1.281852 3.2858198 1.1360879 -2.1431992 -3.9738343 1.9031672 0.28158507 -0.9000726 2.4912794 -1.4647348 -1.2792925 -0.3237358 0.07124785 -0.19445452 -0.087071665 1.4186817 -3.4626744 -2.4169967 -0.08943588 2.4116306 0.2845772 -1.4232957 -0.6877624 4.9009933 3.719017 3.0836864 2.1711125 -0.13758431 -3.4524157 2.5933778 -1.4737128 -6.4520097 -1.7514985 -1.7307849 1.0642903 -1.4300501 1.0047203 0.46931463 -1.1905946 7.368518 3.970155 -4.134162
2164 6.0873017 -0.9401776 1.2672 2.291086 1.1753837 -0.40237355 1.0524311 -3.9457502 2.4013915 -1.33832 0.46857688 -1.0832232 -2.8706746 3.0634558 0.35328957 0.79835284 -1.719938 1.028735 -1.7312608 1.6209234 6.7672906 0.0957333 -1.4821658 1.4493421 -2.0279539 -1.6219422 2.0212011 1.2420154 1.6454631 1.6695949 -1.4192952 3.0838084 2.2993093 -2.4907165 2.6819632 -4.73765 -0.57928157 5.0569434 0.13673735 -2.8518171 -0.99033034 -0.19630039 -0.08592891 -0.06772512 -2.7340145 0.4000561 -0.007952 4.8749657 -6.6758013 -3.6528943 -0.9812931 -1.660942 -0.7073796 -1.5654051 -1.1321619 -0.76424515 0.843975 -1.5020514 2.451651 -0.17430711 -2.6183774 -0.6680291 -1.4764206 0.15595086
1293 1.7300721 -4.051199 1.2084051 -2.1493309 0.54841274 0.8465777 4.266041 3.6596885 4.3558226 -2.8749182 2.6307805 -1.8425851 0.9769719 -0.7930931 -0.23828737 1.266739 -1.7201498 0.49117357 0.36909166 -1.3216747 -1.1784554 -1.9044969 -5.0901003 -3.283642 -2.4872253 -1.0957866 -3.8450263 -4.4109845 2.4413369 1.3930526 -4.2099137 1.4154094 -2.1311622 -1.5984492 -1.4728794 0.21016927 -0.10676273 0.13467498 2.2987208 2.9531317 -1.4280449 -1.0363541 -3.3440142 1.4434319 0.23087737 0.7298307 -1.832324 -4.046667 0.48505104 0.42843395 0.21928732 2.2971025 -3.5928319 1.8818206 1.1010655 -3.8891938 -4.450435 -2.6069996 1.0298824 -3.8893762 1.5385727 0.8344657 -3.8066561 2.1577754
728 -0.014235491 -2.0201142 -0.74055636 1.3383545 2.490344 -3.0165665 1.1072185 1.2611655 -0.31464508 -0.49064094 2.3573484 0.9755036 2.8095276 0.4102198 -3.9926515 2.6647785 -2.7493286 -2.6863837 0.33966154 4.0573654 -1.732358 -1.8909929 1.7995032 0.31998727 0.21687336 -1.7295078 1.333473 0.09635317 0.19122463 -4.1714325 -4.6973224 2.3036113 0.64783454 -1.8072674 1.7244298 -1.6038345 -1.9671084 0.90663326 -2.259633 -1.8577135 -3.1172194 -1.150514 0.3470905 -3.402732 -0.27140653 0.34997594 -4.0682077 -1.3513108 -0.40876248 -3.338064 0.9192257 1.8088413 3.0296516 -2.8471227 1.8238039 -2.6071582 -2.3504481 -1.3494408 2.3454864 0.061394744 -4.011147 -0.012512179 3.5869226 2.0362644
473 2.4750798 -0.1179684 0.3382094 -0.6483579 1.0781087 2.8055253 0.8299825 -1.7737546 -3.2377205 0.005459817 -0.071701504 -1.3025239 -1.474255 -3.290413 1.5645692 0.04792284 3.6652534 1.545909 -0.68565077 -1.4205787 1.5736649 3.8560984 -2.2566633 -2.972379 -1.1159356 -1.7680761 1.4109956 3.6651483 1.1158878 2.5319977 0.6225134 0.9057981 -2.7984695 -0.4061213 4.701273 -0.58136195 2.4965386 -1.2576814 -1.1562108 2.8936408 0.9348993 0.62939507 -3.4638567 5.5965414 2.2293632 -1.7106477 4.881026 1.1271815 -5.1613445 -1.0577132 -4.06655 3.7730312 1.9389187 0.95465213 -0.68591946 0.8737103 0.06773753 0.46696284 4.5855136 3.683142 1.6812235 0.7287239 4.0803313 -2.5439978
652 -1.3487039 3.20245 -5.8778963 -3.2563293 2.8223464 -0.8136147 1.6281002 0.6960204 -2.4993773 -2.0034976 -0.8623483 1.7615457 2.9037542 1.8660588 -0.37149268 1.1030304 -1.4831972 -1.0165169 -3.8836117 -0.58310467 -0.70531106 -4.943518 1.7131269 0.6419393 -0.25564104 -4.511696 3.484903 -0.27566388 -1.21737 -1.6887851 -2.1422234 0.36842892 -2.3808296 -0.3070436 0.085321926 -1.7071773 2.3211923 -0.017451763 -1.0133067 0.7027875 -0.4114788 2.3544955 2.5781038 0.3259072 -0.15884165 -2.3512473 -2.1662776 -1.2475183 1.1306819 5.756317 1.5166165 1.9627236 1.0965508 -2.2339015 0.901344 3.2587094 0.2553465 2.0431511 -0.8743423 -3.5266333 2.3165975 2.7088487 2.5798924 3.4559116
2481 -2.0235922 -1.2935997 2.5577815 1.2507088 1.8563511 -3.4346957 -3.2880394 -0.84457034 1.1734852 -0.6572999 0.11414048 3.0145624 0.814352 -0.8439648 0.40552545 -0.8441773 0.49689922 3.4071689 -1.8511506 -2.501748 -3.0967534 -3.201071 -1.7362573 1.9860628 -0.67963713 -0.034079738 -0.7976783 0.65586144 0.5122685 3.6539855 1.94448 -2.3606617 0.514716 2.2185237 1.5622776 -0.35663843 1.3671016 -3.9199262 -1.513326 0.61034554 0.38700858 0.17424652 -0.38806698 -1.8057195 -0.70824003 1.2863622 -0.11395387 0.8614612 1.1247463 2.43334 1.9414 0.3566478 -2.0241942 3.010676 -0.12286046 2.8511078 -0.8131518 0.35671842 -3.4117002 -1.6304983 4.4984527 -1.3285587 -0.63920975 2.4436665
1684 -2.3345551 -2.6752214 -0.3316677 1.108766 1.3230003 -0.5628697 1.6417555 0.6614909 0.305654 -0.8571033 -1.3272269 1.9257734 1.5302101 -1.6921369 3.2401342 -0.6586352 -0.95316064 -1.206517 2.1584842 -2.8196845 0.3801251 1.0350083 -0.65785944 -0.7653016 0.5087483 -0.99899083 -3.5589516 -3.6441314 -2.8030293 2.0739925 -2.0890846 -3.684627 4.188234 3.008272 3.4603758 0.5871193 -0.26721856 -1.543761 -1.0902001 1.3034906 -0.038654007 -3.5375757 -1.9364097 -2.5152557 2.99829 0.16628602 -1.5542631 3.6276994 -1.1135619 -2.4837906 4.542789 -2.0859485 -2.8241742 -0.47735888 -1.8576357 0.7905002 1.6547977 -0.70188725 0.08655135 -0.25533178 2.351338 -1.6827892 -1.7259405 2.7321901
