2956 64
4 1.1223366 -0.20162049 -2.9710681 2.6762362 -2.9186735 -0.43530896 -0.8186094 1.9505383 -0.55738586 2.0083787 -0.9628616 2.6728718 -0.2112191 -0.2215402 -1.7649947 -0.95445895 0.33599243 -0.37389448 -0.30427665 -1.2369962 -1.4120793 -1.6848402 -0.7003746 -0.13876125 -1.0081481 -1.0787182 1.0383049 0.21319771 -0.82116175 1.4190598 -1.4555247 1.6480845 -0.22932658 -0.098434284 -2.7911308 -0.7822728 -0.8137212 -0.3835458 1.6556201 0.62936854 0.31656852 3.1341786 0.1576696 -0.101672135 0.05786414 0.49286044 0.20035361 -2.28807 -1.0882874 -0.7480629 0.24740489 -0.1996243 0.17719246 -0.49521616 2.0075796 -1.7248721 -1.2353102 1.4695514 1.1588624 0.60274374 0.61800015 1.2082523 -0.27102423 -0.85458684
22 0.538729 0.3438737 1.1638843 -3.6446667 -0.014384455 1.1006832 0.8960315 -2.4402235 -0.07731831 -1.8606545 0.3797063 -3.5025747 -1.174863 -0.19019137 -1.947293 1.5007116 -0.11583707 1.6430625 2.040034 0.3018338 -2.6538248 -0.79235226 -2.0041425 1.2767776 0.79244196 -1.7537051 0.7954179 -1.6284873 -0.33149815 0.18384723 -0.94513845 -0.027978232 -2.1892574 0.21653073 -0.00093455793 0.14430526 2.3951592 3.6217966 0.29475176 -2.1240702 -0.5947266 1.3031347 0.09333033 1.9668224 -1.4534154 -1.5725801 -3.119854 0.026372012 1.1598327 1.1060306 -0.869863 2.0386682 1.6113919 1.2440999 -0.3939568 3.1604195 -0.36786535 -2.1183686 -0.6188294 -2.1912277 0.4212673 -1.2633123 0.86645603 0.18468139
3 -3.4990692 -5.1594033 -1.0967021 -1.0854625 9.252957 0.1467651 0.012513598 0.16204178 0.50848943 -0.16218372 -0.6161812 -0.12745397 -1.740944 -5.0686913 1.018849 -3.4861376 -0.83036304 0.2723772 -1.5918685 0.8816494 0.5352713 -0.04842627 3.6695516 -4.9113016 2.0242343 6.4893217 -2.566981 3.7167776 2.1710272 -4.1446633 0.039869536 -1.8216083 3.001618 3.5913866 1.2965573 -3.907311 1.5492533 -3.0206637 -2.4294186 2.0279741 -2.7017093 -0.5464111 -3.9543657 -0.54754835 0.9886875 -3.253382 -0.7812698 5.247626 -0.73409665 4.6484394 -0.9112874 -1.1752859 2.8722827 -2.715607 3.7769647 1.6806846 3.229046 1.8270535 2.1960511 2.203188 1.4022079 1.0914131 -4.465631 -1.6189095
45 -3.2728424 -2.128519 1.4384005 -5.4919143 -2.405624 3.4217181 1.0961543 -4.1805034 -5.16884 -0.23454908 -3.812622 1.4453983 4.189497 0.33375 -0.27384785 2.4817908 -3.7006505 -6.254465 -3.0142915 -2.6217947 0.5749101 -1.2149227 -1.5333809 0.84895474 1.7091353 1.2032908 -1.8797337 3.4833016 0.8378733 1.4045436 -2.954838 -2.8535728 3.0706456 0.97666687 0.3683494 2.2536554 0.07571124 -4.2057457 -3.092828 -2.0832527 3.1358113 -4.2936025 -0.23111151 0.62194216 -0.48894072 1.3681071 3.6461265 -0.1398287 -2.7547276 -1.7718419 8.349223 0.87886524 -1.4494191 2.5874178 -6.6205378 0.5620584 1.2724768 1.1762977 -0.1992082 -3.0724404 -2.891993 1.3073101 -0.16181816 7.2219625
7 3.7618625 6.9123755 2.8453298 -3.2745962 3.730793 -9.2997465 3.296835 -0.9447182 -3.7534676 1.911425 -0.41734052 -4.201325 -1.9606934 -3.4590328 -2.1734192 -1.6494523 4.107084 -1.6772406 1.3864992 2.0211394 5.210868 -0.17440943 0.30524853 -2.101879 -0.35209456 3.6201417 -0.97164375 2.9222176 -1.8056532 -2.8068326 1.0753906 1.3489201 4.961487 -1.8967595 2.7223072 -0.14195648 1.096377 -3.0041406 4.3727074 -3.2612364 -3.3872447 -4.1052537 4.257627 -0.43792617 -5.6085844 -0.62791574 -0.8463548 -2.0168295 0.29757497 -2.3224316 2.9487033 0.79722077 -4.5305853 0.086281836 1.1507107 -0.9213818 -0.8410375 1.9770502 -1.6204246 -2.4451017 -0.97932416 -4.1846876 1.9010869 0.43942544
28 -1.6152638 1.1921524 4.5482926 5.696474 -1.4547149 -0.9009573 -2.3096523 2.0633278 2.6787062 -6.1881227 -0.26243478 -2.806478 1.5785683 5.119818 -0.111746594 -1.9365584 0.09614964 -1.6874119 -1.13823 1.6270006 -1.2967925 -2.0801525 -0.5344637 3.937963 -2.3817134 2.5986395 -0.94240284 -0.044558015 5.4986434 -2.8429704 -2.7049901 -4.9704514 -3.0213075 -3.8225217 -0.058276597 1.1421474 -2.7412705 -3.1104527 -3.4774375 -2.9769623 1.4974314 -4.8251324 -3.2236834 -0.34523764 -5.306359 2.0091171 -3.1132133 -3.4661336 -1.8125092 6.136219 -3.448369 -1.125475 2.1430159 0.9099308 0.8523676 -8.391516 0.10112596 -1.3943133 -5.976718 1.4619782 0.6225869 -7.1381826 4.824161 0.03591004
42 2.8674731 -1.7706238 0.6329998 -2.3200197 -0.68145394 1.739751 1.0065883 -0.6372004 2.5909755 -3.1190512 -3.0079587 1.3332314 6.9558992 -2.3188436 8.5526905 3.1446464 -1.9464476 -3.2249863 -0.6812974 2.0008569 -1.9100312 5.3899183 2.7831357 -4.6817613 -6.076403 3.451695 3.100247 -0.8596652 -4.0184584 -3.357622 -2.9849315 6.836075 -0.9416701 4.7433186 3.4345856 1.298032 -0.0042603575 -0.50682527 2.4616435 -4.301849 2.9081116 -0.5169038 6.2541757 -0.6067016 -2.506647 5.0701127 -3.5159633 3.7452366 -2.3536665 2.7007897 -2.2446797 -2.6141815 -2.798567 3.6845412 5.358157 -3.9377456 -2.4268951 -1.0515012 -2.371119 7.3063126 -2.4987857 1.3604286 -1.5203702 -0.5039675
23 -3.0458257 0.06369736 6.6983867 -3.1024134 2.2090878 1.8485177 -4.422838 5.6405225 -2.611985 -3.9546769 -0.006150924 0.4548253 -0.9463456 -1.5556668 0.9346215 1.0313615 -2.7752423 -3.3872607 0.13914111 2.4477966 5.0556655 1.9530238 0.74764746 -2.3705587 -3.164248 -3.0698774 -7.950001 3.8853781 3.6768088 -0.31356308 -2.1383452 -3.3364942 4.6593328 5.7305017 -0.040605057 6.2292056 5.4407244 2.9707398 -0.5456698 -5.1845727 7.9653025 -6.943008 -2.5037017 7.0459485 -0.46704093 -1.3951787 1.9658102 -1.2944251 5.567708 -5.8930974 0.6617679 -2.1756818 -3.007676 -3.1473653 -0.9850713 3.173486 1.1016976 0.8704789 1.3562052 0.15105186 1.5765867 4.900976 -0.36580905 -1.0799091
26 -1.0740511 -0.11505335 0.80037224 0.71297485 8.08109 0.8570908 -2.9027398 0.2194094 2.330946 9.051034 -1.0960866 -2.4026456 4.728277 -6.291941 4.4412026 -0.50303525 -1.6044147 5.4480553 -0.35414124 0.9376684 -1.430086 2.341429 -1.73851 -0.5190092 1.8946674 1.1232399 -3.6207757 -1.1172612 1.987499 0.44970813 7.487189 -2.0383687 5.538867 9.955593 1.8936515 -1.1478533 -1.4182601 0.7999658 -4.4373198 -1.2023494 5.0602446 1.0184747 -5.2473736 -7.7224936 0.4502271 -2.6619933 -1.8491819 -1.3037517 -1.7981291 4.983195 -0.27679425 3.8707583 -3.7560768 -5.16112 2.568873 0.5953252 2.9663575 5.7278433 -3.287027 -0.8305958 0.6959181 -0.41526374 -4.3990693 1.8880472
25 -3.5993264 2.58329 -0.0522997 4.066632 -1.4469893 -0.17369726 3.9948235 3.7360175 -7.162295 0.99159247 -0.83520675 -2.3092287 -5.373024 2.299433 3.504863 -0.7383301 -9.149686 -0.47764495 -0.830828 -0.7285666 0.20607981 3.6391926 0.31977674 -3.459305 1.8297445 -3.6744046 1.1623896 -8.004772 4.7377005 3.6683247 3.0047731 -1.293122 5.850407 -5.209295 4.4164705 -0.47200096 2.6745083 0.6207928 -0.61 2.5362806 0.7784321 -8.022299 -0.202207 -1.0340793 -0.98773545 0.91065675 0.35404295 -2.4390235 0.19672057 2.1545756 -3.8819036 -2.2596343 5.420775 5.7256975 4.9888883 -3.81819 -2.7180467 -3.142725 0.9403012 2.2326627 -1.9507504 -2.9311516 -3.3456762 4.644774
24 -3.2363718 -4.0152707 6.067664 2.8901486 -0.4798582 0.3345991 0.09689551 2.0369644 0.4505559 2.3580642 1.8199369 1.064325 1.3239216 -4.246004 1.3855537 -3.25842 5.087666 5.6523733 0.6134344 8.391944 1.3344539 -1.0962173 -1.3931007 -7.1770906 -3.2245822 5.5848064 3.2675898 -4.093698 5.4215055 -0.29091397 3.3824036 -1.1188296 2.1538846 7.673094 7.8139167 -4.072878 0.9875778 0.14652486 -0.90057826 0.30932862 0.29313624 -3.1602528 0.92932373 -1.7271641 4.385661 -2.7954469 5.471052 3.9719832 -0.9617724 -0.7866593 2.770182 -2.3471775 -0.26959667 3.098256 -0.09132778 1.7687201 2.991845 7.2958364 -2.5406568 -1.1449122 4.34514 -0.003471478 -3.211871 -2.3527286
15 -0.4353796 1.7974792 4.4573793 -4.067346 0.012919636 -0.3323607 -2.1509962 2.1882691 -4.8477774 -2.635794 -2.965525 -5.3731847 4.1904173 -0.085550115 0.9523566 -1.7079269 -1.19827 -2.6949594 -2.6277483 -7.0739093 1.2898773 -0.39241692 -11.350704 -2.9461505 -1.6452996 1.5142063 -1.8603504 0.8402006 -1.2410113 -5.363029 5.277059 1.4587747 -2.0105636 -3.9117343 0.93020743 0.1330537 2.5869641 0.9559032 1.0965055 1.4289519 1.6301075 -0.66872877 -1.5973722 8.626797 4.358448 -1.0739689 8.080966 4.2501664 4.954745 6.7178288 1.2080287 -2.8233335 -2.9851956 -4.0791736 -2.548223 -3.5012283 -5.654697 -0.7772147 -0.8659437 -4.888584 -2.274862 5.38586 -5.6200466 -1.3440808
33 -8.190337 -6.53566 -1.1215223 0.51747763 -3.2951372 -1.712257 -5.269121 3.7159338 -0.8149155 2.111801 1.2517786 -1.54705 10.566603 -1.2991886 -1.7407708 -6.073927 -6.9746895 -6.7729363 2.1653683 -0.2824162 -1.4917144 4.895007 -4.9669886 -3.2714949 0.7474883 1.3455181 0.0119143035 2.6704097 -0.7509315 -3.868054 9.052681 -2.019119 7.897705 -3.5562088 3.188938 10.146827 0.3109922 3.52697 2.092693 -3.501262 -0.9232837 0.05905878 -1.3945514 2.9735649 -9.749128 1.2999665 2.811686 4.7502794 -1.1621912 -1.5840499 4.7503858 7.768029 1.1713829 0.78145427 -2.9294014 0.27141 -3.7507203 -1.6621219 -1.8754319 -0.2949327 6.1124296 -2.334648 2.815192 -1.0796931
100 -4.773108 -3.0171027 -0.30953547 -1.1392812 4.331648 -3.7771318 -1.3356748 -4.018931 1.8954983 2.8201578 2.4544842 0.7238324 -4.9377165 1.224526 3.090265 1.4253191 -1.4574627 -4.3760524 4.3178687 4.296644 -4.6879435 4.2338433 -3.8707104 -0.45536003 -1.8335134 -1.6017302 -3.561371 3.3154275 3.5602968 4.6630335 4.505789 3.1628628 -0.7687892 0.1385449 3.1109781 0.43751866 0.97005653 -6.288012 4.2383785 0.59206635 0.56496143 2.8008678 -1.5758413 -1.8182328 -2.209647 -0.77517134 -0.78313285 3.5291255 4.994802 2.9326363 -0.7028734 -0.36007234 -3.442788 -6.448275 -3.2510414 0.42859998 -0.45958525 -1.5524273 3.328576 3.1907153 -1.9405828 -7.65695 1.7514919 1.338046
20 -5.648656 -4.3839273 -3.9982858 4.370991 7.565571 2.2906497 0.19115086 -1.8688251 3.5803216 7.3448105 2.6660697 -4.603024 1.1865907 -9.166912 1.2153288 1.0126333 0.5174812 -2.7682753 -4.059984 -0.7167575 1.732546 2.6739738 -0.6211987 -0.4945124 -3.800381 -0.4774969 -1.1631619 -1.4357159 -0.398988 -0.5534233 -1.1023229 -3.891104 1.2866821 4.9770093 6.823118 8.281657 6.865784 -0.3571453 -4.4766126 -0.49673107 -6.433299 0.065968424 1.8164737 5.039978 3.1342127 -3.2691493 1.4426614 -4.545738 2.2232778 2.0158346 -0.19336718 -2.7492347 -2.8923118 0.40100786 4.374579 -8.965907 -2.518953 -5.739743 -2.1658466 -5.2341623 2.251424 -1.8489019 -0.21546654 1.2137877
55 2.0284803 0.5767861 6.315663 -4.6924486 5.7902803 5.6061163 3.8606868 1.901521 0.14038834 0.881604 3.270316 1.3369159 2.3100317 4.553341 -3.171431 -6.3181715 -0.19472979 2.6933093 -1.7561384 -5.9059763 -0.7771488 -2.594314 0.45212412 -0.47094277 1.3511988 -3.3794255 6.253179 -1.8541332 5.6805696 -0.66210014 1.4538544 4.8202453 8.609678 4.394262 -1.4708397 4.835712 -3.6696415 -4.6435847 2.1465156 3.3673146 -1.7128881 -0.07648656 0.45907915 -3.5431247 -2.4246585 2.3150024 -0.3490607 -1.9146321 9.002714 0.21121384 -3.5824025 -5.437911 2.9414637 3.0069706 -2.434877 -2.526694 -2.521808 -2.2526922 -2.619919 2.0346355 1.8187687 -2.2965446 -0.84064424 0.08240858
59 -10.348875 -1.9190204 7.3001823 -1.0064279 1.9613931 -0.59325886 0.5040193 3.601267 0.6501438 9.38223 -7.068018 -9.344285 0.18842426 -1.566604 -4.072675 7.400093 -1.0108806 -2.5651848 -4.060321 1.1870577 8.77994 -4.128415 -2.1942172 2.832053 1.5509847 -1.358906 2.599248 5.9791307 2.8804178 0.97777426 5.6498036 8.368735 -3.55198 -1.9444759 2.8026216 -0.58441865 0.08332582 2.4740267 0.19952247 0.12281923 0.7018353 -2.0045822 2.4276168 -0.5847494 -4.853354 6.554938 -0.8786025 -2.5433927 -4.670032 0.95620304 -2.462498 -2.7739446 3.7434304 -0.70554733 4.417191 2.1342971 -0.19186388 -0.31539372 6.0261908 3.7484164 1.4864596 1.606089 2.6425233 -2.6181622
36 2.7233274 -5.8094063 0.48895437 -2.660356 0.5700189 -6.5764627 0.7502487 -2.5758495 -2.0886366 -6.0231786 5.5767756 -0.95161796 2.5055087 3.1383967 -2.246994 0.7043492 -1.8025224 5.8806276 1.5120857 4.1402197 4.4833674 3.5209908 -2.419611 9.778365 1.669567 -4.956143 -0.9154918 -0.5787377 -3.0771337 6.767921 0.97723806 1.1687224 -0.0042241295 -1.1941301 0.62779933 1.8219049 -6.07988 -6.688904 -6.414409 -5.1256094 -1.6797392 -9.948568 -4.7018576 4.623812 -1.0839692 0.8874056 0.09353691 5.071325 -2.0145872 -0.7244311 -1.1408294 -7.0296392 3.0218048 2.4820993 2.6287212 -3.6828032 -4.717578 -0.34587312 0.32124755 -3.5577478 1.4289049 -3.8852737 -1.8429596 -0.8972315
5 1.1868902 -5.4189434 2.8763397 5.909889 -10.563524 6.7258677 2.242343 -0.65451723 -2.5873024 -0.108937465 1.1359341 1.7059811 0.6940595 -2.1297593 -3.4900208 3.0655134 1.9030573 -4.9921017 1.4389278 2.8137937 -4.010585 -3.0754662 1.34966 2.3013265 2.4511693 3.858838 0.6442135 -0.82419425 0.6388626 -6.307382 5.0275984 10.179834 10.994128 -3.1275442 -2.2875788 -0.15220805 -1.3164729 -0.74549025 1.305235 -7.541602 -5.875231 -4.941199 2.4455314 -1.6421361 7.0360255 1.6331161 -3.3733916 2.7510035 11.446401 0.99573934 0.9259623 1.366724 -2.627874 -2.452132 3.1786315 -5.7382793 6.024408 -1.4927188 1.9496639 2.4805207 -2.4889357 -6.9256744 0.027026977 -0.79460883
37 4.366132 -0.6360207 -3.3560562 4.121903 7.209188 -1.5017201 -2.9885247 -2.2865717 -7.5332675 -3.3542516 0.19056892 -4.9881787 5.577755 -6.9872594 -0.34880343 5.0821805 6.5457745 -6.9636264 -0.7829496 2.6528306 -0.85945415 1.6939969 -3.6693802 3.7141817 -0.95647985 -0.9970679 -0.4627755 1.8288902 5.7967086 4.9056787 8.827468 -0.5678475 6.0626807 -3.4150043 1.0305182 2.6729443 -2.8203266 1.5863892 1.4454683 -2.1469395 2.3846612 -5.129638 -5.9367814 5.060714 2.0950308 1.3176177 -0.30590928 5.890027 -1.4038742 -1.7705417 -1.4188509 -7.694328 1.4400425 6.399689 -4.69717 -1.594293 0.5228716 0.33525416 2.5493526 0.8791203 2.4935894 -1.2197965 0.63923633 0.6227617
43 -4.8851833 0.1380416 4.699664 4.7236485 3.4489894 -2.4081123 4.4220924 0.5215866 -2.3657694 1.9672222 3.3158703 -1.6767217 2.502138 -0.14044036 -2.5266466 3.3108394 -1.865098 -6.1029463 -0.7034619 11.744867 2.6248074 0.43259576 -0.92759424 -4.1390486 6.3236895 5.237089 5.7372875 -1.5264491 1.0090344 5.6285505 -2.350596 9.344998 -1.4694911 -0.77484304 1.3284132 0.5052065 -2.185523 -5.5826325 2.6849072 0.17027335 7.2094913 3.547233 -3.1825304 -4.293708 0.5862608 2.0055087 -0.81945163 -4.7212853 10.723387 -2.9985137 1.3729055 2.7343907 5.3307757 0.82084197 1.1852765 2.1917262 -5.830725 -3.223466 -6.2906127 -5.452535 -0.9872743 -2.544831 -10.365448 -1.9700819
12 -5.07055 -2.1346083 -4.6580424 1.3689353 -4.384394 0.67224216 0.18113285 -3.6811092 7.115292 3.0692875 4.650741 -15.136241 2.144385 2.6550896 5.1151104 -0.12820603 6.684436 -6.0938745 -1.4370745 -4.5091853 0.8963062 2.459968 -1.8152225 -7.4254794 3.3146183 1.1614498 -1.6144061 -3.6012757 0.29250363 9.5823965 -1.8864686 1.3831191 5.098966 3.8832886 -9.9247465 0.18618809 -2.5168605 0.36907288 7.0844684 2.9270768 3.4490097 -10.367867 -2.7013657 1.6225299 -8.796843 -0.95188427 5.941553 3.3245275 -2.5285318 3.273363 4.1044183 5.5617313 2.3865836 -0.29726198 3.4301653 5.318659 -6.385937 -1.1474628 -0.32444757 3.5312998 -6.045575 -1.901351 -1.7104836 3.04216
87 -3.6587002 5.149936 -0.7651398 2.0219848 1.7928952 4.726488 -5.586123 -3.341431 -1.3331527 -3.7780175 -3.4172277 -0.47430453 -3.338016 4.4309297 3.583853 0.91058475 5.143388 -7.1861076 -4.7407413 -0.70360297 -2.716869 -4.174129 3.6410966 -2.6820996 -4.796433 -5.7098308 4.2783065 -1.0123674 -6.2868 -1.1376934 2.0720973 4.4158425 0.6822433 -5.365502 -0.39883864 1.561017 -2.9278984 -0.5410911 -8.513992 3.197732 -1.4503886 -3.9107277 2.0800197 0.83044106 -2.4736779 -1.6627009 1.4002291 3.7910202 1.3676172 2.8167024 -3.9689848 2.29166 -2.739506 -5.783324 -4.8810554 3.1650877 -3.6357522 2.407242 -7.2401214 -3.0534685 2.9296136 -1.1518309 -3.6511302 2.2483623
62 1.2047886 0.96100503 -2.4834702 -2.4141946 -2.223496 -1.6478202 -4.2558703 -1.8861643 0.5240039 -0.8907026 -2.912753 -4.0159054 1.5486497 -5.4666767 -1.5155623 -5.2604666 -7.5040283 -0.84121007 -2.1357274 -4.248487 -1.6226859 -0.177942 -0.9740952 2.6408157 -2.8122272 9.077692 8.090283 5.8355255 6.729582 5.125789 3.3053524 -2.5680037 1.2672697 -1.365883 -0.010058 0.5475311 3.3733637 2.7784894 -1.1835426 0.4881933 3.1809974 -8.34821 6.006827 -2.9234242 -2.1140509 -6.96293 -1.1144334 -7.0741796 3.2351894 -3.4403393 0.74862593 -7.970879 2.772894 -2.7427187 -4.575306 0.28152335 -3.3740108 -1.1520106 3.0030396 3.1659334 4.10016 -2.9766533 -7.2880917 2.059872
16 -5.705772 6.4303813 2.0649424 -3.978592 -0.07217005 1.369895 -8.447254 -0.65305424 -4.8325562 -2.7867558 -7.064152 1.0561146 10.091508 -5.8559237 -0.9507767 8.47123 2.7461193 -2.4568694 3.4695203 -3.7743359 -5.063626 1.0087405 2.6140358 3.6156325 -7.334583 -0.93085265 -1.7395955 -0.03930423 2.4907868 -3.7584178 0.2425073 2.4559653 -2.150112 0.53035986 0.8899503 -2.5208771 2.9687598 -1.3646883 -1.5602828 2.9870663 -5.7694597 -3.0878732 -3.7945545 -2.3264267 -1.4804199 1.1300731 12.015366 0.15729834 6.5793095 2.6897402 0.25407067 2.3851483 2.7957182 -2.4265625 -3.166279 4.3673873 -5.763264 -2.5995793 -6.810006 -2.1864896 -7.611722 -0.21673834 -6.3073034 -4.90587
1 -1.1824691 4.4910536 0.7245071 9.443753 3.1303449 4.4654713 -0.05314174 4.7765064 0.2064779 -7.8662505 1.429852 3.1132627 8.8341255 -1.025376 -0.21441352 0.19039486 0.8976207 -3.6225514 -3.2933688 -2.9604378 4.8034434 -1.6509887 5.3591914 5.6163764 -2.0578556 -0.8311963 1.1036488 1.3045295 1.6558228 -4.5166116 3.4278436 1.8864996 0.7791077 -0.75991005 -0.7215932 -1.1839539 -3.153335 1.8005987 4.246784 4.1215878 0.15369014 2.8480499 0.7460914 -3.3143415 -4.082464 -2.6893897 3.9882705 1.9088807 -0.44206354 -4.151118 -1.7647688 -1.5347712 -0.9662073 4.5977273 -1.787382 -0.8720353 -0.5642458 -5.191481 -3.2070334 1.9575843 -3.1444745 0.6432201 0.9708624 5.73721
2463 -2.7898312 -0.6918269 3.322361 0.099867485 1.71768 -0.25363004 -0.74780726 2.1021955 1.9521574 4.7819824 0.83643353 0.18908788 -1.1522995 2.7307098 4.9457493 2.8213677 -2.6514394 -2.1181595 5.164048 0.17146994 1.6251352 -5.1758037 -1.1493134 2.8979201 0.6849372 -3.9894695 0.16042311 5.1780286 -1.3412101 2.2466087 -0.9382028 -3.0626013 4.2293377 -3.3517182 0.5517513 -0.96729267 10.977099 -3.9043941 -1.5305116 -1.5771368 1.6990893 -1.6728997 0.4902186 -2.7406762 -0.90652823 -6.285384 4.4416804 8.899155 6.895184 0.6418737 -1.2350643 0.47123337 -0.53508604 12.100716 3.9545388 -1.2464589 -2.1254559 7.2639856 -4.007052 -1.6559314 -1.0565071 5.240546 -1.2280427 0.8053078
67 -2.049449 0.0153244445 0.91040725 -1.8557231 -0.63533765 1.903373 -4.0778513 2.1926177 2.122697 4.9357743 -5.6886683 -3.6802328 0.5860254 5.5171466 -4.990999 -2.0361319 2.4794095 0.27828062 2.3220015 -1.3064079 -4.817859 3.9047232 -1.5710456 -2.098183 -1.7048776 2.086214 5.171973 2.8306484 -4.666574 7.489712 2.9590957 -3.9624143 1.4056067 3.4244428 -0.4056516 4.080771 -6.4304085 -2.8710673 3.7252603 -2.4855797 -2.67518 -5.592689 0.6270363 2.0753584 -3.210824 -4.2808986 6.640587 4.3357644 -2.5463948 -2.8109822 -0.9472064 7.9343166 0.7185218 -0.31703165 -3.9100664 -4.17624 6.131076 -5.4042764 0.1765627 1.3206053 0.83258 4.2518706 2.0009167 5.0547366
14 -3.2038603 2.475169 -0.25404242 7.090111 -2.0485728 6.541614 -3.637013 3.4929137 2.1848304 -6.5616317 5.985752 0.4333323 -0.1982795 4.9717164 -3.9581518 -2.0478957 4.0866485 -2.3543026 1.0272859 1.7844621 1.7861521 3.5476606 -2.9605837 -0.5817944 3.255674 -6.06428 2.368486 8.7199745 -1.3752869 -2.1037562 2.181643 0.26326397 -4.5470366 0.058339253 4.4888434 -4.1808615 0.10776448 -5.0848494 -1.1961561 -0.7096812 -5.615016 -1.6125646 3.6017747 -0.8226958 1.4209143 1.1710823 0.42301828 -3.125314 -1.0743995 1.3879464 2.3495975 -2.9832172 -1.286116 1.7916403 0.36279914 -2.5406582 6.784841 -1.8013638 1.1258997 -1.0682355 3.424706 -2.2096946 -3.8922312 -3.3656235
92 -3.640562 8.786816 0.49918473 5.5841784 1.458818 0.018641582 7.004054 -3.3778536 -0.62645984 1.5302594 -0.17936435 2.4863222 3.0187712 3.4063132 -3.506617 1.05481 2.5581002 -1.7169223 -2.3602974 0.44346157 -3.7170377 -1.753884 -0.5722172 6.216675 0.41482043 1.8654778 1.1329396 0.92534107 6.326684 3.8818738 0.26084918 1.7179438 3.9995437 2.335927 1.269459 2.2991927 0.81057304 0.12170054 -5.0988135 -1.1463639 -0.33840936 0.9378899 2.8940105 8.308693 -1.1771437 3.8104155 0.54520255 8.044504 1.7611064 1.9745417 3.94891 -1.7660853 0.49811682 -2.5764709 2.3865032 -2.0615149 -0.42694312 -0.9373285 -3.335043 11.526556 2.620843 -3.2164955 1.7333488 -1.2604433
61 0.09241668 2.684105 -7.7108254 1.8059126 -2.0854838 -1.0474865 4.6232147 -5.2406864 4.9161587 0.656905 -3.8845317 -4.2954345 -2.3030396 5.9668713 -3.34308 0.4841546 -2.1519537 2.1838408 -1.7083966 0.05399889 -2.954388 6.375249 -3.178911 -4.089145 -1.2956287 6.0860934 -5.337181 1.0546736 4.161509 -1.9598024 -1.2994037 6.8994837 2.3111763 2.1871953 -0.60653347 0.051559377 -1.7519687 6.143931 -8.324619 -5.898861 2.1550825 1.5821558 0.45927086 -5.3419447 -5.2446046 -2.0975769 9.388611 -0.32598248 3.4997494 -6.011305 5.391631 -6.466344 -0.4560049 3.254014 2.858937 3.2611737 0.31802112 0.89423746 -2.871081 -0.5401424 6.987567 -1.4932185 -6.8344817 -3.3095872
60 -0.9043259 5.596464 0.2270735 5.112115 0.9079782 -5.993083 -5.7811456 -1.4431669 -2.410446 3.8896775 -0.39889765 -3.5477953 0.9226319 -1.345003 1.4038664 -3.840113 -5.8040185 5.123964 -2.926988 -0.80704874 -7.159885 5.082804 2.9107065 0.4754332 -6.742463 -2.3340156 4.486769 1.4392108 2.8374207 -4.8224745 -0.20545335 6.7869134 6.6508274 6.9403 1.5418373 -4.4774146 2.1479275 -5.4236016 -2.003865 -7.9613833 4.231565 -1.6963674 -4.778715 9.111771 0.27699694 -2.7213058 2.0194225 -3.6494937 1.6162925 7.320404 6.8772883 -5.539209 1.7160896 -1.2547306 -8.593048 7.536848 -3.4354339 -7.7965646 2.4804206 4.5991163 -0.34214884 -1.9070978 3.890628 1.7496077
63 -2.9879112 1.8935715 6.0951486 2.1169605 -1.2226685 1.8013605 0.24563816 -3.9795942 -0.044650994 0.27667204 -0.26087037 0.21955004 1.0638741 0.8329434 7.591076 -4.6091137 1.5507482 -0.512304 -1.6622155 -2.5868382 6.023747 -0.30860943 4.8201046 1.2920947 -0.1452143 -0.7965209 -0.5335612 -1.1974238 5.909439 -1.8297513 -2.4014997 -0.032249056 1.6337792 5.9046497 6.0449576 -2.067823 -1.3762218 1.1113003 -2.473125 2.7211397 -1.9818832 1.6844593 2.1059117 4.6095533 2.6199245 -8.589242 -2.3096 2.1026795 3.2139225 4.243699 4.5684175 -3.4753582 -2.5233133 5.045366 2.2845871 2.4867654 -8.180058 4.0027432 1.4303026 1.398011 0.3198084 -1.5488266 0.5846439 -5.521878
40 -2.7975743 0.014424662 -0.14221139 0.16536522 2.2869868 2.6285977 0.366987 0.7258745 1.9008768 -7.633726 2.1150513 -0.9186285 2.7408412 1.8055083 -3.8878512 -2.6127503 3.4327586 -10.151857 1.533278 -2.1795552 0.29926524 -1.1452998 -2.124057 1.1783216 6.081132 -2.2811058 0.08490004 1.3663999 4.267943 1.0574013 1.8820717 1.3771714 1.2259938 0.67060983 1.2474309 0.79142416 -2.3836424 4.2976294 -2.2371855 2.5637372 -2.1621394 -3.3009427 2.857098 -5.006527 1.6698859 -0.57967645 -1.6245812 5.567221 1.23418 -8.143569 -1.8811142 -2.4535568 -2.8388333 0.7031077 2.6201494 -5.439671 2.159379 0.30267465 -1.4475173 -1.8687524 0.4361545 -0.7345522 3.1319652 3.4546726
51 -2.3910713 -3.4429467 4.450619 2.336922 2.725771 1.1374367 -0.23949555 -2.4044502 6.2806563 3.9540942 -1.4071972 -3.412166 -6.5189586 -5.936756 0.62946874 6.891984 4.2038617 -4.182771 1.804088 0.44962242 -0.25010058 4.982321 5.3848324 -6.2583017 1.2007796 0.4396715 3.0141807 -1.0920146 6.4944687 -3.7302885 0.34584463 -6.7644496 5.1507683 1.8085207 6.6357245 2.9272912 -2.5135522 -1.1498902 5.0223465 0.28962293 4.139118 4.375202 -4.793018 0.8631774 2.3637455 -0.8372785 3.5269852 -5.9946613 0.78711 4.9758916 4.802513 -2.9166427 -3.9252465 -2.189834 2.4319377 -0.17298725 5.76616 6.3710737 -3.8496563 -1.8159255 1.9396434 6.9607534 0.7305346 2.418209
0 1.5048567 0.2271199 0.65649456 0.07288175 1.0842683 0.69939655 -5.893207 -6.005094 8.108994 10.397441 -2.6775894 -0.044244114 -2.6653464 -3.1538732 -5.1576986 4.6822777 2.1545842 -1.5779656 1.304384 -3.0522473 -5.590557 4.0930786 -4.536196 -11.5322275 3.8421023 -0.6048089 -3.1833532 0.45141426 0.22925204 -2.0081956 -1.0887773 -4.148189 7.166455 4.3690658 8.981352 -0.24033496 3.497106 -4.6154933 -8.7192 -0.36840287 3.0372298 -6.938485 1.0077239 1.8975428 7.070037 2.1914823 -4.2611146 -3.715114 -0.88599485 1.583375 0.16929558 -0.7375489 5.0415406 -5.9036 -1.766909 -2.3817015 -3.1077592 11.406592 -3.9126194 -1.2697892 4.2965174 0.5938491 -1.808774 -0.052638773
1263 -3.340184 1.3395482 0.53519756 0.26264903 1.7383758 3.5619574 0.68183136 6.4824734 -0.5327637 -0.73867685 -2.0377316 -4.6868014 -5.046688 2.100531 -1.437668 -2.1093278 -2.7375438 -4.166179 6.3255806 -0.20822734 -0.32576042 0.33713958 0.11333588 4.979739 -0.85064507 -2.3371751 -2.8333902 4.040309 -3.7394423 1.0829122 -1.9142953 -0.56030613 4.031657 -0.8953101 -0.40559673 0.7865195 5.287134 -0.5525677 3.1962917 -2.8837507 -0.30519497 0.5533028 -4.0107083 2.7359147 1.8469913 -2.1383893 1.3074741 3.10531 -1.1486378 1.9999765 1.6778774 -3.1219544 1.6189884 3.978561 1.235066 -2.750246 -0.75466067 5.7397614 -6.941575 0.21422051 -2.8961854 -2.3984964 -3.9622514 3.8585353
30 -2.5286193 0.86076164 -0.8211672 1.9817566 -2.999957 7.530293 -2.4079297 3.4009326 -2.3725772 1.6864619 1.3273158 -4.8897004 5.078619 -2.744484 -1.2385033 -3.903826 6.4469895 -2.147076 -3.4298308 1.8535702 4.1301675 3.2633364 -1.9389756 1.6558826 -5.2664495 -5.2821937 -4.568567 -2.6613138 1.473556 1.3266487 5.3342514 0.07705339 4.0232906 -0.3263252 0.37201685 -8.429784 -0.10589003 -0.7523041 -4.1314583 -1.5749599 -0.5034498 -13.58452 -0.59055406 2.546261 -2.2617512 4.2007957 -5.6929307 -3.2314584 -0.39194748 -2.421833 -3.7893636 2.6684437 3.3247697 8.4325695 1.4974191 1.6797785 6.349718 -2.2153258 -0.18426663 0.42745367 -1.9329069 -2.5104237 -5.790469 0.78450924
35 0.42490846 -5.3521833 7.909758 -0.07075571 -0.15253147 -0.70257187 -0.11231732 -2.9149666 -2.9845362 3.4848957 -0.7417398 -3.0803478 3.8927717 -2.8705096 9.958985 -0.3821793 -3.1085558 3.2603953 -1.0395148 -0.16466355 -5.6700234 -0.7752061 -4.0417657 -4.4273095 -3.7015824 -0.7195489 2.1152232 9.473752 5.7689323 -3.4427505 9.060769 1.0624431 3.801257 -8.763638 -1.2082119 3.891049 -6.1871076 1.966504 -1.2896675 5.908026 0.48170063 -7.885087 2.147246 10.000266 -2.7934186 4.757239 -4.784077 -5.140555 0.58808196 -3.8670359 2.11066 -6.557526 1.9722604 0.5395301 6.670489 1.2202582 3.2176223 -3.9645803 1.2002441 -3.4436963 -0.48134935 -7.522696 -1.353375 -1.2506568
2472 2.5578053 0.75803035 6.504775 -0.7894811 2.769458 1.8146775 -4.565145 -1.1826695 -0.51022047 -3.0707664 0.3381969 2.6345265 -2.04926 2.0862255 -1.9183242 3.860208 -3.0425062 -5.0482183 0.3689354 2.3654995 5.055648 4.559061 -1.6587074 -0.980689 -3.229011 3.3594384 -0.1822788 -0.4337221 -3.7627418 2.7306762 0.41576052 -4.9156623 3.6396363 1.0036646 -1.3530159 -4.670475 0.3225593 3.6538267 -2.2323484 3.1427243 0.415644 -1.5278026 1.5298393 -4.6713448 -2.8141851 1.6833674 -2.2534857 -0.02234326 1.8552194 1.6334689 2.779706 -2.785123 0.066824086 4.8398933 3.5434344 -5.4342704 -1.48022 -0.81763244 -0.79782176 1.3477082 0.41588372 0.42177358 1.0129498 -0.85035896
534 -2.8955495 -3.2669463 7.395284 -1.069434 0.8962711 -1.1012516 4.279535 1.1812804 0.25898644 4.0457425 0.14899823 6.4486656 -0.50900555 -5.263341 0.24540845 3.7097692 0.23852515 -0.97029966 7.7443657 -2.5150251 4.7188716 -2.0619724 0.43975276 0.32797 0.7114613 3.5269382 -9.173283 1.5026568 -1.5064456 4.505512 4.835504 -1.2073251 2.2907507 0.769156 -5.5860906 -1.8382999 4.6138587 -3.8746095 -0.6147769 1.6074935 2.6960897 -2.4384112 -3.3040488 -1.9383266 1.9143939 -6.089271 -0.079781026 2.190674 -1.256666 2.4597068 -3.3278823 1.6552656 -5.646042 7.16729 3.509793 0.45867044 -0.89920825 -5.941807 -3.4223032 -0.33568522 -0.21821867 2.7387016 3.4814217 0.6762896
21 -3.2763534 2.8180358 1.9004134 3.8451715 -1.2164453 2.8503098 -2.0141919 -5.798041 -5.885356 -5.09137 3.2169008 -2.9237778 -3.51096 -2.9696066 2.4365044 -1.3241998 3.5538116 4.5918355 1.6822573 0.4221317 3.2013514 7.6743274 0.9609642 4.606569 2.4840329 3.5347292 -1.6502553 -0.8331603 1.4004822 1.1643635 -1.2346632 2.91276 1.0895903 -1.831643 -1.4007596 2.2068024 7.4092 -4.9685917 -0.8128836 4.0180497 -1.051237 -5.8966503 -5.6046414 -0.20296171 -3.3749027 6.982685 -1.7691867 3.1746628 -1.5511749 0.58291394 -0.31613776 -4.0881534 0.9557203 -0.17877656 2.1289518 -1.0650661 -3.8405414 6.6021266 1.8117108 -6.146324 2.8468592 0.7341835 2.9012873 5.5094786
13 0.6234463 -6.6680484 -1.2696763 3.8266723 -2.176846 3.518873 -4.7989526 -0.18671481 8.494222 3.1325793 -1.1213712 -0.89172286 -3.4497352 -12.243106 -0.65684897 0.82061493 -1.5805119 1.0695995 -0.62422585 3.9915814 0.8942858 0.29590023 0.08421076 0.44562012 -0.14955476 4.1890955 -0.1341692 -0.6150397 -6.858835 -2.9101267 1.0395296 0.08464312 1.2952098 7.040306 7.7879467 -0.11323114 -3.4107833 -0.9594724 2.2764425 -1.1935635 -6.4321027 -5.8887157 -3.897396 -3.644891 -2.801057 -0.124766655 -2.300475 -1.5952696 6.9050374 1.732565 3.4765093 -4.8619914 -1.5077931 0.42442366 -3.0114892 2.6949642 2.1251214 5.1968837 -7.3878746 -2.2812583 -1.2646775 4.6682606 2.3123295 1.2339481
2297 -1.4399445 -6.9212666 -0.56306684 2.2493145 -1.2909877 -3.678751 2.1505113 7.812302 0.13722925 0.40138942 -0.12971826 0.22138925 6.3847504 -2.380514 1.9786619 0.95069236 -1.316197 2.3706994 1.4744836 -0.8210091 4.8529224 3.6832972 -1.0263606 1.2040834 6.133392 2.1249804 0.49781644 0.6278875 1.5691507 -1.6491377 3.1829166 -0.26569384 2.8995245 9.318418 1.6458204 1.342 5.526028 -3.2594748 0.5303699 3.821089 3.0286255 6.368476 1.2810606 2.6367402 2.6079688 -4.674119 1.0414293 1.5276586 -2.184275 2.2298384 -0.9790591 -3.6796615 0.9016501 1.2868766 1.304207 4.4503074 4.387232 3.1143486 0.17006789 -0.4693535 -3.7038255 -8.0396185 0.7367309 -0.4306753
1230 -4.3731594 2.0237572 1.5142841 0.75537354 2.1103582 -0.32038903 -3.2516239 -2.3156874 3.024542 0.12982854 -0.41147754 -0.3350144 -2.9606454 -3.9613936 -0.70387864 -2.7051284 -1.0660112 0.8958485 -3.4208844 -4.988105 2.6074042 0.8306325 -3.2227504 -3.6783566 1.8754457 2.181496 -3.0345602 -0.38919574 2.3060608 -1.3173895 6.2656646 -2.2785969 -2.3240323 -0.46546522 -2.451971 -2.770736 -3.0497792 -5.0054517 -1.6694084 -8.661926 -2.927269 4.8396006 1.3477905 2.1591966 1.6649529 -0.4343292 -1.0337381 3.613445 0.19211154 -2.459423 -3.2856822 0.10268883 -6.659498 0.40384495 1.1371689 4.1706867 0.08469174 3.0316424 4.1123667 -0.89196754 -3.4767902 -0.76718885 -2.0806682 8.40431
19 -1.6730131 0.43120435 1.205393 -5.662373 0.035112765 5.534218 -2.7643292 -1.4489274 0.33478567 1.8099926 2.7016668 0.33147383 -1.6691041 3.0952852 6.525216 -0.26274163 3.2100818 -3.7069082 -2.3762672 -2.4735122 -2.7974405 8.114256 3.2498696 -2.4207428 2.481012 7.0720716 5.73721 -2.7873785 -4.0590034 -0.21932225 0.2984378 2.3436518 -2.0343256 -2.6470318 4.4798245 -2.6968005 10.176401 -5.927681 1.8965257 0.6101604 1.3517393 0.3535165 -4.0162573 2.2803082 -1.3785233 2.0124578 -0.032694086 -4.508703 -0.40345573 0.9056505 -2.327657 -2.6854665 -0.8630564 0.581632 2.2555926 1.2447404 4.8528247 -2.8341303 0.99129546 0.53168386 5.0763674 1.2446505 7.538113 -0.5085384
27 1.2538068 0.78022635 0.7769699 4.760783 7.760258 -0.27354887 -1.8239125 2.1733665 2.0071194 -0.17876728 0.11339228 1.529538 1.76901 2.5217574 -4.699985 2.1481361 -2.7669485 -3.5903597 -6.154894 -1.8942195 -0.95021504 1.4439014 1.2142223 -0.87780076 1.3754398 3.2561393 1.4963013 -0.9791681 -2.9390125 -4.1525764 8.948895 0.53120613 -1.136857 -2.0513341 3.9672978 1.7027986 -4.5499234 -0.98225105 -3.6917837 -2.558218 1.9614474 1.0043458 -4.4459624 -3.1385164 -0.77805877 -7.388121 3.064342 -2.7182546 -0.0056358343 -5.3976455 2.5673335 -1.5663353 0.124808125 2.861087 0.5878441 5.972721 2.9191751 -1.8073378 -3.1024961 1.1516417 -0.7797167 0.4735784 -3.0765932 -3.6128342
74 3.9467583 -2.3661838 4.9106393 0.7326219 -1.8135847 6.808469 -2.0751655 -0.05524014 6.365081 8.130939 -5.4987516 -0.3811997 3.56658 3.901612 5.4096622 4.022369 5.1164637 -1.6096388 -1.5859112 -7.843341 1.8706422 5.3977184 3.220217 2.809472 3.4169927 4.396424 3.516596 5.813555 1.5914656 1.2927057 -2.8110213 -1.4728345 -1.0836293 -0.9042454 1.9473962 -1.9939264 -2.3358202 -2.963341 3.3185146 1.295076 3.488842 -2.961135 -2.7608545 8.394917 -10.117557 -2.6190345 -0.45801315 6.546389 -1.6231984 -4.5347624 2.0002851 4.5095377 3.9335618 -4.862006 3.7552557 -3.8819842 0.27008775 -3.2998528 2.7353363 -5.8021135 1.0443012 -2.122836 -3.1047578 0.22612979
47 -7.958526 2.6741376 -8.68036 -8.533197 5.738328 0.27606413 -3.9225945 1.2589655 3.987076 2.7892745 -5.271269 -0.62903684 -3.2676525 -1.7931795 -1.627072 -1.9709749 8.615736 -4.215857 -1.8460709 0.60068506 2.5158849 1.7270485 -1.933716 8.923118 5.2775226 -1.6905283 0.59340155 -1.9119195 2.3997793 1.1972593 0.42717516 3.1536527 -0.59854954 5.831324 4.757467 1.6898727 6.681771 -3.449621 0.03571 -8.736661 6.138939 0.4083328 2.36213 -3.6512687 -3.0383434 4.5840826 4.296992 0.47923267 1.9170853 4.58666 0.8429813 -3.1859128 0.43499315 -0.70811105 -6.966564 0.24663004 -1.8259305 2.8818483 5.8292246 7.162633 12.588884 -1.510825 -1.8122509 -1.4410895
1580 0.75976163 -4.123447 2.2485478 1.5022638 5.2875547 -1.1491075 -3.0423532 2.9886382 0.68133694 -1.250109 -4.2306523 0.92693055 -2.6307929 -0.6074268 -1.6683726 2.5060654 3.059911 -0.97818476 -3.0477986 3.7025688 0.4155847 8.761992 -5.616379 1.6432267 -1.9966248 2.0706596 -1.719939 0.16759916 1.0252886 -1.5313113 -3.6996334 0.90167576 -1.0642049 -1.013046 -4.1675696 0.23417875 0.7273806 -1.6824976 1.3554926 3.470399 -2.7870731 0.06433483 5.9355855 -4.5661 -0.8588945 -2.5785594 -5.002217 2.7851918 -3.115494 2.2692676 -1.2311825 -0.26769844 -2.4927003 1.4315891 2.4744773 -0.602626 -0.8444922 -0.8319692 -5.265399 1.9678795 -0.6122083 -2.812334 0.13483725 -0.14015861
1251 0.085937254 -0.6890839 1.5278765 -2.027345 4.197666 -3.9756818 -1.0643644 2.7693326 7.4470043 1.4492846 -3.127328 -4.9464192 0.36382025 -0.2188021 -0.58724767 -0.4596219 -6.641504 -4.6657267 8.498659 1.6479039 -0.41471714 1.8024218 3.3094542 -0.53383636 -3.287961 4.736486 -6.7765803 -3.9097018 1.5177329 -1.2552999 2.6703007 5.8170986 1.0015916 -2.1966608 -3.1532977 -3.4389198 -1.8472298 -4.6477256 -2.0052695 6.902105 -2.4750526 4.3880873 2.0692065 4.4876404 0.2186673 -4.1915894 -2.7435327 0.087709635 1.3537679 -2.6565754 0.28058094 3.1744854 0.0748522 5.180837 -3.586662 -1.2699813 1.3753259 4.2342477 1.1471627 -3.3349833 0.6302939 -0.514335 1.4009852 0.3218209
2404 -1.5164593 -2.067519 3.290533 -4.9081254 -2.9725223 -7.8538694 1.0308995 -0.37953526 5.8496447 -3.9242058 1.5480305 3.4638379 3.2314713 -3.1258605 2.3727546 -3.9158297 0.62884253 -7.630373 -3.8288543 1.9541799 -1.4534234 -0.6753554 -2.4323783 1.4562923 -2.8537927 -3.4260578 -1.0282401 1.1296178 0.6322184 5.2029753 0.24140255 4.1720033 4.907046 -4.955016 2.5894585 2.7905357 4.110789 1.0265473 -4.3483663 0.99375147 -3.6864388 4.6376123 -4.1481056 -3.8165166 3.6025255 -1.6652398 4.7204666 -4.5060263 -1.1805837 1.6433281 -1.0167942 -0.040652946 5.8908353 -0.19515146 -3.095371 2.2101994 5.0163183 1.9245919 3.8628929 1.1183473 -5.6250978 0.021362228 0.54527676 1.9604156
431 -0.9171453 3.2039938 0.21697132 3.8382201 0.9000556 1.5552999 -1.2942648 -6.7040324 0.5142354 -2.5498166 1.235483 2.26887 -1.4123338 5.5239778 -0.33116856 0.73343134 -3.1768103 1.1595322 -1.5171394 0.6811986 4.9899554 -0.8296051 -1.8275825 -0.19975099 -2.8322828 -3.775442 4.1924653 -3.0541718 3.6777825 -1.2014644 4.1183014 -6.0197988 3.8738956 4.0297627 3.6898255 -7.8620067 2.3992958 2.2816393 5.86334 -2.9163573 -4.0334463 -2.1646204 1.9594737 -0.8881492 -3.5566063 -1.3648597 1.8431453 -1.4291227 -4.9115543 -3.453551 -5.329057 -5.6075315 4.2378664 -3.1023018 2.7389593 -1.048248 -3.6689978 3.833398 -2.8227646 -1.1930867 -1.011972 -2.6848254 3.3713431 -0.29154873
2168 -3.5278664 -0.8448705 2.3744774 0.6148745 3.966551 1.2092292 3.4647074 5.2739224 -2.9549167 -0.9436084 -1.155871 -1.2532421 1.8307152 -3.257236 3.5897317 -0.0587149 2.6216903 2.045249 2.0073743 2.8583117 3.139924 1.3611008 -0.53956765 -3.766747 3.729314 -2.1925116 2.3934624 0.034343317 -3.5126324 -1.3285339 1.6074103 -1.5294559 1.6953741 6.9724946 -3.9431293 -0.26550496 2.287961 -0.6782773 -3.821108 -1.025778 2.104784 -1.4648912 2.7024784 -0.07389127 3.8305094 -7.915703 0.066037595 -0.17269428 -0.45829856 -0.4004834 -0.26778677 -1.942788 -2.275926 -2.6815732 -0.90524745 1.6846904 1.3646979 4.076286 1.751185 0.7331304 -1.1429793 -5.522003 3.0343308 -4.2427363
29 1.8122585 1.786853 -2.6433065 1.0880903 0.5301614 1.9724445 -0.059516344 2.8392813 4.425894 -1.7350284 1.9689887 0.76197654 1.9478651 -5.122522 2.4533012 3.6418095 -0.92013663 -2.43613 1.3167754 -0.692543 2.601772 3.334907 -0.48062792 -2.288119 7.1095047 -1.2197909 0.90702957 -1.3910913 -0.34211442 -0.26200417 -0.5331566 -0.36628285 2.590776 0.66703224 3.6764398 -1.5556973 1.8800669 0.22097126 -0.21151213 0.81047565 -4.5552707 -1.809834 0.83840597 2.2064779 0.3757195 1.5956212 -5.0711083 0.70309365 -0.07442692 -0.120251685 -1.3086293 -0.6517101 -7.069465 -0.025604628 -0.17019573 3.3366113 -2.9330711 2.0312288 -6.192728 1.7267754 1.892058 -1.383477 -2.8577485 -3.4148257
48 -2.5705662 1.882567 -1.0227666 -3.6196933 2.9338045 -5.5232854 -0.80281055 4.177087 4.750235 -6.002825 -1.3914932 2.2938235 -3.5902698 -6.0800233 -9.534551 -5.5886188 -0.64193535 -1.4257804 -7.8714004 -1.02566 -10.052396 9.167728 -3.653554 -1.1188537 4.047553 -0.006187494 7.741053 1.9138817 2.890433 -4.4365153 1.6160384 8.867699 5.243663 0.2943227 2.4074864 -7.262086 -2.55134 5.175413 0.92141575 0.5847841 10.523228 -5.9863305 -4.4456534 3.2885215 -1.2788378 -1.892265 1.635227 -1.2933122 3.2379982 -7.625721 4.7226954 -5.940621 -2.60365 -0.6299009 0.49008536 0.9258753 -0.012460059 0.72216237 -4.189699 -5.101183 4.4957175 -0.55627817 1.3279041 4.4386125
53 -5.0882344 5.578102 2.7745793 -4.125115 -0.99723244 -4.7224703 -4.971617 2.8530116 -4.1215634 -3.7059617 -2.1251137 -4.1253953 3.6292424 -1.1843549 0.8407173 -0.6446735 1.1173806 6.1172924 -1.7963773 3.491958 -7.2577662 3.9734051 -0.15781339 -6.912703 0.6489864 -0.71394885 4.5543656 6.955231 2.3713224 9.535939 3.3261287 -6.1800876 7.7272687 2.4372334 -6.180285 -0.50202674 -1.1687937 -0.63525575 2.465497 5.8918176 -0.8724276 -1.0332774 -0.632551 8.791178 -0.16974995 1.7374917 -0.9278001 -1.6178329 -1.9564908 -6.208267 -1.8936278 2.53676 -2.0002952 1.7950624 0.6507879 0.5324658 2.1699495 -0.86950105 -4.4558177 1.9780204 2.5761542 -4.8634486 -1.897673 5.724622
17 -2.4026525 -0.65453255 1.4180118 -6.286189 0.38034406 0.14147979 -5.0942564 0.068355314 -1.433897 -2.4427502 -1.8126625 0.3944057 5.631696 0.75715345 5.671639 2.3983362 4.6348834 -4.8560205 2.8465788 -6.1167636 -4.155108 2.6098664 3.6535428 1.4629716 2.2931664 -7.4225845 -4.7974463 1.2167429 3.3099537 -6.09424 5.7488604 -0.6473422 -3.5723064 1.0373125 0.6054122 -3.4730446 -0.054339215 3.0966449 -1.6037872 2.475589 -11.056637 -6.1429725 2.4333153 4.8855066 1.9456894 0.13391863 9.717392 -2.8225007 2.9033716 4.3922133 6.951959 -4.882803 -0.13030729 -1.1116974 0.4129205 1.3805456 -3.395003 -4.5801797 -4.4602413 -3.516187 -4.6210866 -1.1383135 -2.0919385 -5.4838066
1638 -0.39387834 -0.26498514 2.073588 0.41217336 -0.7614548 -4.124476 -1.4372157 -4.241086 2.3969238 -1.9342959 -0.8139814 4.468412 -0.871895 3.2451777 -0.03537425 0.84288126 0.19032714 -3.2077606 2.4656298 -5.8975964 1.5753422 -7.4794645 1.7884121 2.409404 -1.2024941 -0.69785106 -0.38404554 -1.1570487 -2.2871695 0.011700863 7.662154 0.9467363 4.3097243 1.3174586 -0.6995385 3.5572653 9.155823 -5.264357 -0.23782364 -0.08572304 -2.0277724 -1.5074073 0.094587505 0.40613288 -1.4563489 -0.43305522 -0.7583649 1.0697972 -7.609752 -4.487597 -3.0050657 4.1104493 -3.2455904 3.4537394 -2.0784233 3.1023235 -1.5565361 -3.2666147 0.02986035 -2.022686 -3.6312215 1.2485788 -0.043123793 -0.13951151
1640 -2.4084058 0.017532783 2.4863675 -0.5797442 1.8591245 0.515498 4.070149 4.367555 -0.7084943 0.0070495275 -1.0855703 0.66911316 2.5689614 -3.4959645 -1.4622422 -0.1347139 0.4262134 1.8442999 1.3408202 0.41951475 2.6086674 4.859494 0.9224879 0.9990206 4.4124556 3.1753557 -5.1496515 2.0673144 -2.9863255 0.0333332 1.0559903 -2.6119444 0.6191544 4.280404 -4.880014 2.5343406 3.0181205 0.6146327 1.0781751 -2.430185 1.0853481 -0.91595006 -2.1546748 -1.7198534 3.8326912 -5.176167 -0.39089128 -0.94583684 -2.0909417 1.0674348 2.3752897 -3.4637609 -3.2194538 0.75538343 1.2722284 2.8222885 1.7618781 -1.4177768 2.0809488 -0.10063931 -2.6121535 -2.3574257 0.9669168 0.7181296
50 2.6833677 -2.4220784 1.2270045 2.7418544 -6.8069077 4.509768 -5.669115 0.28819475 -0.003525257 3.0894337 -7.276685 -6.2145085 5.932574 5.379143 -2.8730867 3.6971262 -0.5020391 -2.1354494 -0.9208035 -3.2015007 1.0300958 5.8868656 2.7824318 -3.4226003 7.1053004 2.8246822 3.0795689 2.6642325 -4.37022 4.8813577 -1.3159106 -1.0126718 7.0082984 3.0773532 0.9190979 1.3454251 -3.8642156 -1.4709883 5.3038554 -1.2414092 -0.9901325 -4.019615 1.379391 5.445741 -5.4059896 -7.850961 6.578529 10.148464 1.1217219 -1.6430032 -1.8089994 12.14489 -3.8633926 -2.5410337 -0.006277098 -3.1343231 -2.088514 -5.4139338 3.071202 -0.618918 3.3522072 -5.1519284 1.5548975 1.5307634
649 2.3826735 8.634385 1.2801985 -0.58937174 0.39452055 -0.27328008 -1.0562582 -0.062678 1.3707637 1.6796309 3.4014952 -4.917376 -1.417283 3.8349767 0.5998772 1.770775 -10.241456 -4.551319 -4.139099 0.46474385 -1.9701986 -2.5218217 4.3570113 2.5443096 0.13469535 -1.5344033 -0.5150152 -0.17879692 0.2712333 -0.7809073 -1.4244238 -0.86960894 -3.246574 -2.130113 -1.4295067 0.9438098 6.171828 -3.6807628 7.2330747 -2.2823257 -1.4364226 -4.91897 -1.3950655 -2.8518338 -0.4523146 -1.4186649 4.0317025 2.785977 0.24966928 2.9737267 3.021198 0.60725373 1.8221369 6.4860597 -1.1044766 -6.108179 2.5039773 5.998397 -1.2680547 0.0033164134 3.7371776 -3.651005 -2.5597887 0.70214736
1296 -5.605486 7.6849966 1.1587753 -0.8393322 -2.693923 -3.2645853 -5.249853 -0.5741184 2.5530558 1.7510694 4.085298 2.028703 6.008162 0.023419393 4.760281 5.4783716 -1.7878182 0.0312011 -0.7496828 -0.52553314 -0.73865294 -2.962779 -1.9900776 3.1314158 -0.46612743 4.808302 -4.061798 4.6571918 -0.075278305 -0.4671849 0.67649853 0.39449778 4.4873123 -0.1769004 5.448101 8.370403 1.885321 -0.6620167 -6.473166 -3.672379 -0.90744096 3.9445653 -0.13924797 -5.414951 1.4304 -5.851288 -1.1047803 4.1620626 1.0600175 2.643378 -2.5166507 -1.8401446 6.9654064 0.92411816 -1.3392634 2.610883 5.4275217 0.31315792 2.9759219 -7.2167177 -5.3127484 2.8090072 -0.42879435 1.0561196
1419 -0.9878577 1.3761845 4.574839 -0.7412711 -0.23991586 -2.7113876 0.48865873 1.5024705 0.22618465 -2.8704882 0.8848205 -3.8355596 -2.301536 0.3069791 -1.7341925 -1.1095649 0.07717769 -4.620382 -0.8389075 -4.3398323 4.824874 0.110664226 -3.6813548 -1.0331826 -1.0295024 0.5213614 0.03209064 4.3689685 -3.770816 0.037160672 3.2142034 -1.7205094 -0.47882348 0.008406867 0.4186434 5.0696654 0.004750338 -0.79405534 -3.4405112 -6.8845415 -1.0503033 2.376867 -3.0738988 5.364197 0.44237676 -0.4352092 -1.3014556 -0.5807377 5.648015 -3.323779 0.3588015 3.3142974 -3.5714474 3.492748 1.0986063 4.301204 -0.76207286 7.3624945 2.5455866 2.0826042 0.013254706 0.20659237 -1.8955673 10.920022
31 3.8856988 -4.5277367 8.133019 0.834164 -2.56096 4.917661 -3.680064 1.8734581 -5.3833075 0.8640181 -0.58871436 -2.5800345 -3.4149497 2.029242 6.3751106 -4.981775 0.18546158 -6.1091 2.7316678 -1.9796897 3.1374617 -5.109509 -2.8829072 -7.228009 -1.2094179 3.4749177 -0.88935626 -3.7893414 5.0441113 0.30856615 -2.5582633 5.5555944 0.22115114 4.9054646 -6.4901605 10.565602 -9.545609 -5.273817 2.4947724 -1.783132 -3.3124712 -0.09704099 3.545362 -2.4876375 2.8897405 -2.1067815 -5.6968646 0.03727807 4.855026 -1.1411908 0.74006015 -5.5348577 5.994231 5.6275706 4.18186 -1.525856 4.224314 -2.116849 1.6916918 -5.5564966 4.339272 -1.2528056 -1.5496638 -0.8254766
1268 0.56007946 0.6029433 -3.1998353 -0.32317254 4.5745006 -0.3341296 0.057254925 -2.946875 -2.5311034 -3.3980186 -0.47373295 -2.3167694 0.016798887 1.8847209 3.4744039 -1.6426189 -1.0076443 1.456639 -0.056491636 1.5643532 3.1964104 4.6076956 -1.8355201 0.89057 0.10732062 0.8554066 0.6712845 2.8400507 2.4300287 -4.822552 -3.7181995 1.3440294 -1.4134632 1.5207628 2.4752588 -2.4145856 -4.308875 -0.8742802 2.3084536 -0.4803267 -1.5900387 -0.22212942 2.1546547 -0.334949 0.434131 -1.3702077 -2.5000696 -2.0654008 -4.006884 -0.888619 -4.093571 2.4192326 1.0942844 -2.7705002 3.1973786 -1.5042871 -2.1207826 -1.7104142 -6.7278514 4.104434 2.7771745 3.3301916 2.0817485 -1.7681853
2536 2.0764022 4.1472554 -3.2077909 0.063893616 0.21057816 -2.7230704 -1.9062886 1.3710065 4.9589643 -2.32889 0.40440974 -4.638668 -1.871876 4.650249 -0.5432795 -2.4018908 -3.578074 -4.4918766 -1.722222 3.9114554 0.50398713 1.4715242 -3.6927364 5.8247275 -1.171568 -3.4109735 -2.6288722 3.8662353 6.900965 -0.87679553 2.3129897 1.094508 -1.8415234 1.1768856 0.13634124 0.26505792 2.5092454 -6.530564 4.148696 -0.9367316 -4.455614 2.3894396 2.0055034 0.46642354 -0.67362416 -3.81204 -0.30342135 -0.21976787 -1.8164103 -1.8507841 -1.3879462 4.0616894 3.4989505 1.4010023 0.9536191 0.34254628 -4.086656 4.5083337 -6.6791887 0.35680294 -0.94239706 0.9977166 3.775964 0.44874287
1224 -0.8353787 2.7143698 -1.0862058 -0.06281896 1.312513 2.6649516 -4.0012355 0.7108856 1.3323628 0.47776932 2.7325857 -0.8742401 -4.7669315 1.6600771 1.306082 -0.17617986 -4.6836405 -0.9744949 -3.648243 0.753303 -4.1738386 -3.6195126 0.93969584 5.7176023 4.362877 1.4490333 -1.2344157 3.0837998 -0.44202277 0.561617 -4.1859803 -3.4477532 0.98396236 -1.5034665 2.5928438 0.89632136 2.2869978 -1.8192785 1.8794806 -2.7032654 -0.4571495 -0.5289636 -1.0307223 -5.233694 0.648087 -2.7055888 4.7623105 4.1948214 -0.26814106 1.0130128 -0.5668608 -3.4896579 5.9457164 4.4175563 2.7830663 -2.8876386 -2.2112107 2.778529 -2.2744648 1.4126843 -2.3309681 1.1074634 1.1042957 0.56091684
1699 -0.24595188 -0.96333504 2.1534684 -1.7319286 2.8929343 1.6069221 1.9588742 -1.7242509 -0.053942997 0.041082032 -4.1814375 -0.09393745 1.5454284 1.0461911 1.121451 -0.39754912 2.9944098 0.32060564 3.6377017 0.052438833 2.8672826 -5.0462904 -0.43803713 -1.4378769 -1.0543311 -0.31653905 -3.7376616 3.774607 -3.726468 0.4751142 1.1727836 -3.258496 1.891857 -3.8770041 -1.138642 -0.21298975 7.1118894 -2.2617722 -2.149962 -2.075316 0.5930026 -1.0073323 -3.632589 -0.3547798 1.3351687 -1.2431358 0.11377459 1.8313334 1.7764374 -2.4112804 1.5210176 0.6757561 -4.2618957 0.7973927 0.61197436 2.0642202 -4.030976 -2.309623 0.75018823 1.4239292 -0.88757795 3.5746799 -0.60384035 1.1530571
415 0.58269876 3.9275732 1.719051 0.15998437 -1.0120032 -0.9316493 -1.1750796 4.864413 -0.36311588 -4.029547 -0.2087422 -1.0510465 -2.283935 3.4438126 0.24844944 0.9859108 -2.6701112 -5.5933385 3.4544199 1.1128212 0.083478354 -0.27172786 -0.737712 5.2082534 0.17508242 0.011322788 1.413334 -0.21137111 -0.7860226 -0.07610178 0.3099807 -3.8471105 4.2909775 0.43282232 -0.14915457 3.6808693 2.4356873 -0.058549967 -0.91304684 -1.3449035 -0.2601084 -4.0280027 -0.9980245 0.15771852 -2.2838387 0.6611052 -0.017361293 -2.5404222 -0.56142974 0.068969235 2.1563041 0.2764855 2.4755847 1.2787082 2.710872 0.46312994 -1.6110247 1.865718 1.3090453 -1.7964944 0.10622111 0.26697782 -0.14388566 3.2661529
1870 2.865447 0.38269883 3.1710818 0.34232864 1.678786 0.71397156 1.8756181 0.9341459 -1.0091715 -3.9539142 -5.119043 -0.40077543 4.675234 -1.0061889 1.9727772 0.47182414 0.8039999 -0.9544943 1.0136584 -0.7798306 0.1785295 -0.06275605 -3.4572124 -3.533338 -0.15485136 -1.4827949 -0.41699973 0.20677754 -2.600236 2.1260028 -2.30928 2.7529461 -0.8894065 -2.3930953 -0.59455985 3.0778701 3.6879895 -0.72391176 1.3105637 -5.392876 -2.6435041 -2.4425898 -0.57710695 1.1128701 -1.4306545 1.9834198 -0.78074557 -2.3935165 2.1450355 -0.92903125 2.2439115 -1.936192 -4.180639 -1.7924056 0.41113105 2.2232463 0.8999008 -0.57479197 -2.627918 2.4127493 0.3399983 6.685242 -2.6069443 4.5320363
1229 -0.4398528 1.973214 -0.27430025 -5.7242217 3.0851827 3.3232896 -1.7937533 2.8636208 1.3688929 -3.4051933 4.7856727 -3.5601494 -3.7830212 -0.36216146 -1.6469817 -2.9865677 -2.5825713 -2.969145 -1.6163815 1.5870153 -1.5104377 -3.8270802 -0.096713066 2.9001749 -0.8277465 2.1815643 -4.98402 2.9465847 -0.27806443 2.9844928 -4.005612 3.7778504 2.5110333 -3.5722072 3.7094476 -2.5029767 0.17483161 -1.8945274 1.5101895 -3.609406 -3.227688 2.6976779 -2.9355636 -1.6335849 2.244807 -3.4018621 3.7974744 -0.725674 -5.8102975 1.5499855 2.8031547 -0.24171898 0.028567066 2.2530766 -0.59270597 -2.4998674 2.650423 3.240998 -7.109887 3.84281 -1.6565689 -4.5629506 1.3638619 -0.08351141
1149 -3.4389045 0.84887177 3.3753564 -3.741228 -0.78086895 -2.5643873 2.0163157 0.0035518466 2.230427 -6.3411717 -2.4314597 2.9820454 5.4680405 -5.117261 2.5828586 -2.8975375 -1.4270935 -2.5052106 -2.8472555 0.39107558 1.0720826 -2.044114 -9.891477 0.5030509 -4.3850956 -4.8496447 -0.7112858 1.1572361 -0.19117995 6.9138455 -2.4587839 4.600139 6.114086 -9.11469 3.9533463 2.8815536 5.340108 -3.5541399 -1.9634984 -2.3785696 -4.6142597 3.3271687 -5.0573783 -2.3677225 0.49880964 -0.10163984 5.516203 -3.5496523 3.8385642 2.8050826 -2.1110308 -4.2479405 -1.6116135 -3.201411 -5.908222 0.76799375 10.937456 0.99375385 0.4936321 1.7790803 -2.692978 3.4222782 -3.4188938 3.1716366
64 -1.7826097 1.5769926 3.0487478 1.0785036 2.4346004 2.1981118 -0.64151853 0.78300595 0.6443587 -2.0627677 -0.4571158 2.5482173 0.7393745 1.9363987 4.108683 3.4723666 1.9363656 -2.1336722 -3.3255496 1.4930333 -0.81231 4.2397237 0.13966689 -2.3271508 0.39299893 -4.8053756 -1.293235 -5.518517 -6.2837553 -2.7505584 -0.54304695 5.5298033 0.3044245 1.5963557 2.9930224 1.5743467 -3.7919354 -1.782744 1.079306 -1.2048993 -1.6896487 1.1905673 0.006246553 0.9620285 -0.26616505 2.2388897 -3.2448537 5.3185325 -1.654323 -0.8586141 -0.092530556 1.4996172 -0.4840415 2.3510423 2.9366782 -1.4783266 0.43174648 -0.57120746 -3.7181025 2.5346515 -2.6373966 5.1757383 1.7020376 -0.6812049
38 -4.2891297 5.534065 -1.5669167 1.9875079 -4.8114333 -0.8597809 -2.2928317 0.09588226 -1.4528317 -0.706449 2.3641303 -7.3821654 -3.171187 -4.1814933 3.9677227 -1.3939025 4.2990975 -6.3799787 -0.6678455 -2.551642 -4.737987 2.6981504 -0.59932834 -5.284553 -3.1717014 13.181945 4.436821 2.7168481 3.9853544 -3.1903958 6.182064 -4.2793264 1.383739 0.20751183 -3.468633 -4.445239 4.78124 6.501528 6.2382793 5.425186 -0.38166732 -1.7010407 1.8292887 1.1548048 0.6175531 -4.914283 -4.746255 -4.5059743 1.5311713 -5.1568155 4.816417 -5.535315 2.499178 -1.3887541 -3.6295307 5.089813 1.1409034 -4.0330744 -0.9176332 4.5264964 3.0955615 3.123148 0.5997494 4.944711
1072 0.31069615 0.46675247 0.48702097 1.0283707 0.8012081 2.5130663 -1.9703072 -0.6363905 -0.7216217 -4.200845 -1.3586284 1.0613497 -1.3784662 -0.20788454 1.979607 0.14361018 -3.9741971 -1.7762744 -1.7918198 -0.028358055 -2.301097 2.258801 -0.5187494 1.8916657 1.411871 2.438799 1.7845116 -0.9101977 -1.3699546 -0.16289915 -2.3601782 -1.9591641 0.23684035 1.120442 3.4097202 -0.92390245 -1.4979448 0.13933556 1.1950151 0.9967406 0.065205626 -3.4260917 0.25923213 -2.8495433 -0.8685034 2.1159878 -1.2410328 0.2935866 -2.4320793 1.894066 0.14125578 -1.0939151 3.3353755 1.9039441 2.4158092 -3.8399858 -0.6632444 -2.0198877 -0.48600817 3.45845 -0.560259 2.5766475 -2.2056785 1.7634219
2429 1.6584016 1.4165641 -2.1719189 -3.799491 -1.9211807 -8.256292 2.6151006 -2.8688612 3.307128 -3.729803 -1.2227187 0.66640747 4.4512887 0.50885046 5.6854897 -0.6199282 -1.4480014 -4.7601657 -0.06844395 0.6222116 4.3688226 5.940712 -3.2712176 0.3094564 -1.5591354 -3.9705465 2.3344333 2.5336375 2.7861316 -0.25048476 -0.23377587 6.4363317 1.453281 0.9270338 2.7700515 2.0849419 1.7974637 1.1040977 1.488111 -0.4916838 -5.7475214 2.930381 1.500228 0.77109706 1.2531276 -0.67031854 -3.2423742 -5.112951 -2.7429836 -0.980568 -2.7354863 2.0995328 4.0805707 0.50357014 1.1618443 1.0934794 1.0748837 2.6461782 -4.912976 1.1132226 0.040305667 6.1438046 2.3763504 0.12592673
2363 -1.1161678 2.7070098 3.2166712 -2.1810946 -1.5702115 5.5085325 -0.1952365 0.6441392 -3.729042 -1.0293174 3.3729565 -3.0771346 -2.6008713 0.8331342 1.3284943 3.53321 -8.025734 -0.47445983 5.345063 0.02179129 -0.38478884 -0.12840207 4.927688 3.0654917 -0.93139607 0.26102516 -3.4209154 -2.862715 -4.374627 4.0433807 0.73683214 -0.9919467 3.0495064 -3.0803995 -1.3060526 1.6032931 0.62757415 -0.8040762 2.6818736 -1.848501 0.56694454 -0.32722834 -1.2471763 2.248432 -0.27422777 -1.8451121 3.9076645 -3.8387475 -1.5708181 -1.0780414 3.6703134 -2.7501197 2.8928502 -1.7789465 -2.6125822 -3.0495934 -0.66439086 4.00554 1.4508879 2.018612 4.140134 1.4536376 -5.421067 0.5728501
2856 3.5732596 4.1730785 -0.10171638 -2.2212787 -1.7244531 5.1581755 0.7875739 -3.4064577 -0.25387207 1.1605939 3.6865027 0.33497137 -0.5838535 3.081786 -6.8796487 0.4011572 -2.4404917 -2.0530977 -3.4876342 2.1466427 2.7404642 0.029976325 2.332053 -0.59007174 -2.48156 -3.0507271 -0.31028596 6.2088814 -0.5605866 2.4418364 1.3533638 -1.1854341 1.9297225 0.43177897 2.7731805 -2.6486776 3.9652727 0.4157571 5.727146 -3.4646227 -3.2721095 2.3544476 -2.4444175 -4.2454567 0.61750466 -0.6605114 1.6052685 2.2892067 -3.4427683 -2.2560966 2.9311614 -2.5348263 0.4482536 0.5005157 0.12017673 1.0692258 -6.695858 3.3344862 -4.48215 -1.0230829 -4.9366965 -1.3766892 3.9419909 1.7058609
591 -0.83412665 1.3450854 1.8061277 -0.2580895 2.0830867 -0.011365013 2.703256 -0.8180784 -0.1796534 2.8262985 -0.2927341 2.0279484 -3.3995688 -3.3863568 0.8416175 -1.656354 0.30622482 -1.2670403 6.8994865 0.16106693 1.9820461 -0.7121884 0.89568275 -1.5862551 2.379047 -2.1196778 -1.5462993 5.932281 0.027725972 -0.71935743 -4.138142 -0.3548638 1.1248708 -0.26268518 -0.5122103 -2.5189052 -1.7320004 0.6948813 0.54861295 -1.5941716 -1.4962726 -1.1036515 -0.85132635 -1.287285 2.4555042 2.4677444 2.2609863 2.8090641 -2.912624 3.7726533 -0.09662295 2.6607456 -0.033147275 3.4423118 -1.2972218 -1.5721823 -0.9514727 -0.3836018 0.26888874 -3.4995832 -1.1038735 0.15641052 -0.10662886 4.2407203
660 -1.3549821 -0.9596174 2.292678 -0.015848786 4.125453 0.747336 2.1785128 2.8620281 -2.8788512 -2.4361482 0.49532208 -0.7397629 -1.6598696 -1.1212082 2.8797424 0.1710448 1.3995726 2.9088306 2.8760562 3.112137 1.30383 -1.8340037 -1.476904 -3.8503191 1.9650623 0.51686305 2.0012567 0.5034501 -1.5580578 -0.36439574 -0.48351285 0.030845998 0.92524225 4.1207957 -1.3923023 -1.3013139 1.8825877 1.9345244 -4.684975 -1.8096164 -1.773216 -3.6542943 -0.1531584 0.39309922 0.40702364 -4.5367756 1.6670516 -1.4480505 1.268066 -1.7732047 0.13783309 1.6371986 -3.2752073 0.31453905 -1.4614372 2.3296905 -0.47526664 4.043331 3.7932284 0.38875195 0.93249553 -0.9607033 2.2622569 -5.898078
846 0.46409246 4.3288035 -0.06410397 -3.7416348 0.63978076 0.21354976 0.43448535 0.3104957 -6.4537683 -1.7696807 -4.7841563 0.8018372 -1.5876849 0.052439492 2.990194 -0.046369977 -5.5884833 -4.275793 -1.6320719 1.2002859 0.95014745 -2.3248496 -2.0170395 6.4440684 1.2977452 3.962823 1.1835123 -4.618208 0.5587932 3.1030512 0.6969284 -4.5931907 -1.7127851 -0.37688074 1.1355766 0.4247442 -0.12601921 0.8918233 1.0210032 -1.5342543 -3.5639536 -5.1318583 -1.8845086 -1.3552629 -3.8483138 1.09499 0.46881628 0.08796626 2.0233276 -2.695088 1.2568452 0.047460683 2.1166866 2.4316905 2.5470638 -2.2540808 2.1026125 0.691242 -3.1402469 0.22869006 0.85381263 -5.394821 1.8491434 1.7549497
2725 -1.4594083 -1.861669 -4.2889647 -2.3992922 2.2746022 3.0082886 1.658681 -0.014684803 -2.1893404 0.7684013 -2.4799147 0.44033337 -5.369237 -5.116697 3.9051197 0.78706396 -1.4144897 4.7600317 -1.505259 0.3223801 3.0407176 -0.54492867 -1.6781561 -0.31948447 3.1168604 1.2757864 3.7009568 0.77061206 0.7018238 2.9185612 1.7848066 0.80437076 -1.5264075 1.428834 -2.7043016 0.76603746 0.8531909 0.08589725 -7.1151633 -0.79541844 1.0817615 0.21454506 -2.0491843 0.18953717 0.3053305 -2.803498 0.6825664 3.781798 4.048013 -0.5748142 -2.542647 6.904726 0.3643958 2.2579587 -2.088861 -2.5557616 1.1854131 4.3800097 -2.8451977 2.8360238 -4.4066772 -1.1083806 2.2755592 -8.192363
1052 -0.77115273 0.117409855 0.3879494 0.77091926 3.1035135 -0.15592356 1.9845688 1.1197212 -0.77991 -0.17722751 -2.8700197 -0.3521892 -1.1220124 0.7678019 -1.9225513 -1.015801 1.226562 -1.1370251 -1.645344 1.0549356 0.37431452 1.7222579 -1.1563525 1.9718002 0.67924374 2.1096346 -0.5495994 1.8335904 -2.3716538 -3.8571093 -4.4589777 -2.905369 0.34323722 0.7832981 -1.9636042 1.4483157 -0.07882987 0.0037235282 1.0856814 1.2049974 -0.58548874 -1.5850706 -1.8885355 -1.0674084 2.5201387 -0.73131025 -0.9173088 0.1748596 -4.621267 0.62130886 0.061355803 -0.9732772 0.16492036 -0.16335563 -1.6541257 -0.14637633 0.47017074 0.20136325 -2.0987277 -0.34611914 -0.7124331 -6.5470634 0.76030487 1.1952275
586 -1.1571596 0.12983784 2.756602 0.23011965 1.1444439 -0.8363854 2.2245517 -3.4807615 -1.0728127 1.2786728 -1.2495128 5.5054197 -5.319318 -3.562233 -0.054162886 -0.7973713 0.004446427 -1.7670168 5.9825797 -2.4898553 2.3879492 -4.132226 0.1115507 -1.4198747 2.0797763 -0.8916189 -2.5088208 4.3983316 -2.3942974 1.1210957 -0.675727 0.7600714 1.6765924 1.504473 -0.058268562 -1.0018415 0.32533732 -1.5480229 3.0630517 2.4772475 -0.7139583 -2.709929 -3.636648 0.052558996 2.1565242 2.2071643 1.3204283 1.713994 -3.1228373 3.3034415 -2.1828604 4.182021 -2.4794881 4.940145 0.21713872 0.38941506 0.9521559 -3.2667944 -1.7467786 -1.8878559 0.022281883 0.3054711 0.61877024 1.6146845
1855 -2.018488 -4.3151655 -0.86371344 -0.08039111 0.075068444 0.1325266 1.3592325 1.6586076 0.45772892 -0.03983599 -6.5838237 -2.906968 1.3982236 1.5511639 -1.3463604 -3.0232573 0.7513986 -2.954776 0.4634482 -1.1885347 0.62150794 2.3443131 -2.0986147 2.2124438 0.36822188 0.34771398 0.72999203 3.0886838 -3.6481102 -3.0315833 0.04090959 -1.9030899 1.9211547 0.4386073 -0.30060032 4.187308 3.2547114 -0.73476446 -0.6737496 2.0255208 -0.3304986 4.429038 -3.123718 2.7250507 3.700165 -0.2652993 -0.3475012 2.6240852 -0.59316313 1.1669595 -0.33059484 -1.2227337 -0.17347999 1.167725 -1.8988537 4.505287 1.1553719 2.400126 -0.6083313 -2.3756766 -3.5962284 -1.3161532 -4.540204 3.2758994
2868 1.1356243 -2.0676875 5.9256144 -4.189947 0.4962354 -1.750387 -2.7371922 2.6370223 -0.020866234 -0.84605694 -1.9455458 -2.1997395 1.2630302 2.4500325 -1.2572329 1.6462089 1.8547263 -7.1702123 3.6986587 -0.31953707 4.674786 0.34126335 -4.6491685 2.7294805 -1.2891631 0.24880618 -0.825462 2.8035011 -1.8794202 2.0636296 0.65327144 -2.6917124 3.4783657 -3.575407 -2.1637876 2.6781847 6.0672154 0.048483577 -3.535433 -1.3441244 -0.48880345 1.0984052 0.64078134 1.3240533 -0.69018245 -0.37230283 -0.67002004 1.1249992 3.5933669 0.44723856 2.1065388 0.55518883 -5.0008454 3.2831893 3.4788373 4.7645526 -0.8209847 2.4475749 -2.950587 -2.847777 1.302618 3.920165 -1.704772 4.773673
1349 -6.144323 2.09865 0.28484398 -8.114678 -4.1791973 -7.3445044 2.2819304 -1.5713255 2.235561 -2.98016 2.2123983 4.1408825 4.171845 0.34153795 5.127349 4.936779 -1.1748122 -3.3988085 -0.34201133 -0.98525846 0.6912055 1.0575967 -5.029969 3.455913 -3.1085703 -0.18395913 0.350366 2.1841288 2.4468677 -1.6534 -2.7095096 3.923439 7.767486 -3.811433 4.127852 5.5713224 3.2293696 1.4456898 -3.536014 -0.6415359 -2.6009276 3.9407725 -4.210822 -2.2889292 2.1205645 -1.9637789 -3.4833603 -1.2445176 0.56874967 -0.17819619 -2.0650187 -2.258079 6.5094447 -0.046264157 -3.3706782 0.51317513 6.0997434 1.0461398 2.9516544 -5.386553 0.30084485 3.0233498 0.061296392 3.6243129
77 -3.6170053 2.7615464 -1.1689409 0.19831234 1.9546928 0.56093264 -5.0243516 2.9879546 -0.7966112 2.2186236 4.9357214 -1.6325995 5.5118966 0.9739677 0.730269 -0.99635255 1.4929681 2.6167264 -2.6864614 -3.786585 2.9332156 1.7380373 -6.421909 -3.7955008 -0.13128334 0.695724 -3.4500089 2.919591 -5.928447 6.9683037 3.0442054 -3.0207212 -1.6884288 2.7866597 -2.0103385 0.6796889 -2.5390503 -4.117844 -4.1164756 -0.5617662 -3.230925 -0.52906126 1.9117973 3.511729 -3.3191688 1.3909125 0.2590528 1.0929182 0.5899288 -2.8149068 -2.9176757 1.3983582 3.2245145 6.057775 -3.4166827 4.0213714 0.7026474 0.6799635 -1.9768122 4.7481804 0.06388383 -2.2555397 -3.3375864 8.341298
2433 1.9202316 2.9329684 -2.9450047 0.09095287 1.822152 -1.8247408 -1.582455 0.8754853 0.13611376 -3.325411 -0.33555812 2.2685997 1.356546 2.8766794 1.3031058 3.8416703 2.3956378 2.570669 0.41776055 0.7917227 0.119283 0.4820928 0.3356292 -0.27588066 -0.56629145 2.741265 1.143813 -1.2769781 0.2773348 -3.4540808 -0.5774951 1.333086 -2.6951392 0.7571775 1.1796119 0.92651635 -1.351757 -0.5207591 2.9646168 -1.8277572 -0.9110056 -3.0044312 3.1470895 0.4684077 -0.7076661 2.5897307 -6.1224957 -1.4771379 -0.63279694 1.7832856 2.4204547 0.73040825 -0.9840384 1.5689433 2.086062 -3.9803913 -2.0288715 -2.7244732 -5.036122 1.683974 1.0180588 -0.646668 1.6283048 1.8183888
797 0.6633675 0.2861255 1.913852 -1.8347028 3.7311263 1.1672422 0.5188097 0.8210577 -0.19289769 -0.7641535 -0.6125355 1.2628405 -1.3835549 -1.3580757 -0.35633317 0.65964574 0.7449389 -0.74440783 1.6519564 2.2983477 2.5238543 -0.9223736 1.2453352 -1.5701171 1.1286677 1.6168784 -2.25257 2.728626 -2.1336474 0.1051512 -1.3902352 -2.0199301 2.030055 -0.33943248 -2.0831969 0.69389343 0.8991384 1.1374848 -1.6847457 -1.4280267 -1.2508464 -2.361553 -1.2504795 0.43413553 0.8168094 -0.36194947 1.1438148 -1.4731251 -0.093093365 -0.5456662 2.8821313 1.3663137 -1.8622757 -0.68843335 -0.54251075 2.9135334 -2.3682659 0.50124127 2.6290905 -0.32670143 0.8934062 1.7243574 1.0250384 1.1618912
689 0.17521846 2.7302868 0.10737174 -1.5635574 2.3660212 1.2925856 -0.49019048 -2.2556973 -2.1271267 0.23468775 -1.6904566 0.37880158 -3.6459737 -1.421491 0.3061684 -2.3199313 -3.5600214 -1.1298925 2.0399454 0.29196942 0.4919585 0.55266297 0.6054021 1.3455008 2.5836742 1.5784681 1.1507998 -0.8588705 -1.9455048 0.14542834 -1.4904429 -3.4651031 2.582581 -1.5813845 1.7903627 -1.4459674 -0.5853786 -0.9413541 1.8748767 0.5501868 -0.8985126 -3.184405 0.39411822 -2.6715848 0.07581658 0.117682755 2.3291705 -0.50000703 -1.3360306 0.09170741 0.9374404 -0.5735419 2.2853436 1.9143263 2.4966407 1.4530802 -0.2851465 0.3374131 4.051924 -1.2709826 -0.72780603 -0.33325705 -1.7899947 1.1136918
82 3.5173736 -2.2219892 1.6874857 3.8806305 -2.6680198 2.700564 -3.0808697 1.9730163 4.996363 5.7068243 -4.6179423 -2.5795653 -1.0365906 2.177496 5.5899277 1.1015768 3.195326 -1.3818389 -0.8725351 -2.8696084 -0.34926352 5.628856 -1.7422748 3.5369635 2.3616822 -0.14644442 -3.353516 0.03905857 3.266897 1.0456718 0.52209115 0.0178691 -1.3447416 -0.5372155 0.29413375 -3.5497298 -3.9175131 -5.3737907 2.6272397 1.5304008 -0.41481715 1.1035492 1.2929881 2.9882414 -8.443951 -5.327108 -0.14528298 6.289836 2.491526 -5.425786 2.0618935 5.613781 0.7474659 -4.008478 -1.5552273 -3.6767886 -3.4601195 -4.276946 5.4787016 -3.835635 1.2569233 0.15352733 -3.42614 1.7975984
2067 2.0926964 0.9192909 2.900987 -0.54716915 0.13330942 -0.49721846 -0.9056154 5.2940845 2.3333075 -4.7965093 4.530769 -6.130636 0.93763775 3.9296546 2.5072844 8.820236 -6.4768286 0.95373815 0.54378676 3.0013397 1.2074993 -1.080433 4.4096613 -1.3996109 -1.987991 -1.77132 -3.192962 0.5504741 -0.87406856 -4.436395 -0.3915232 -1.9675202 -3.8347147 -0.42318952 -6.3926253 2.859334 4.437989 -3.6143043 -0.16721709 -2.3960264 2.7530847 -3.7930517 -4.160787 -1.3172377 -1.8817027 -1.4895153 2.2619698 -1.2847669 3.3877034 0.61394984 -0.7557005 -0.30624914 1.2284607 0.50077933 -2.5343978 -5.317494 0.96713394 2.5053797 0.5962678 -0.43146902 8.191805 -2.197047 -1.293345 0.738848
1114 -2.5505064 -0.6230071 0.059586782 -5.0608068 -2.4933927 -4.576729 0.9993133 0.9137196 5.281262 -0.47960234 3.1930742 -6.7751894 4.404263 2.4680607 -1.806284 2.4452155 -6.195668 -7.8690844 2.9930058 -0.79593056 -0.50408053 -1.3103018 3.680776 1.6609741 -1.1629189 -3.8767617 2.7385452 2.3696096 2.1933105 -3.038458 0.8910866 -2.3846512 0.9848353 0.20830022 0.21522269 5.4470854 0.9999868 -2.8581922 -4.6447687 3.990472 2.9505458 -0.5233063 1.579906 0.031110222 1.6466036 0.034024887 0.63279563 3.2868268 1.6176714 -2.2086394 1.052298 4.754042 -2.617891 5.4996696 -3.4497612 0.9252324 3.5999155 0.6711543 0.8879013 -1.8523006 -0.05400699 1.522707 -3.644366 0.16617154
1315 2.1177378 -2.9157329 -1.3506788 2.1109414 0.55216277 -2.1618934 -2.3025637 3.7610753 2.344983 -5.639408 -0.89570343 -0.7501715 -0.20268954 2.3936698 1.9516447 -0.2899327 -0.16211765 -1.4468187 -0.28214857 0.7192569 -1.2626958 2.4262238 -0.34425557 1.1702764 0.19174428 3.68981 1.8781542 2.7885256 0.76908654 -3.0567544 -0.016760705 2.9664721 0.4410781 3.3248467 3.815221 2.2029908 0.45412242 -0.11445401 -2.530611 1.6942897 -0.7674974 2.0622988 0.008414599 0.9754658 -1.1769185 1.878084 -3.8278184 1.1539395 -3.066534 2.439787 -0.6553884 2.8295364 2.7125607 1.3267697 1.9223602 -1.8540441 0.07808653 -0.6224093 -2.506547 2.2802906 -1.1366755 2.0627427 0.24410827 1.3774531
1829 -2.8381782 2.0169535 -1.7385191 -3.704459 2.314291 1.838638 0.4702179 0.45894355 -6.624988 -0.9368234 3.7532134 -5.442082 -2.2970514 2.0173173 0.6947725 -1.2968292 1.3709863 1.661747 7.6802444 -0.50051767 0.512518 1.8396829 0.74119645 3.789372 -3.012642 0.21861082 0.5817997 -0.25919506 -0.09839025 -1.1929103 -1.8002039 4.367181 0.8282166 -3.0761726 -0.44104165 -2.1497695 -5.17976 -0.8635508 1.8872182 -1.4961035 -1.3793095 3.7291996 0.8314736 1.6270384 0.0062854784 -3.3155186 -0.830996 -2.1929827 -2.930755 -4.0601277 2.0333397 0.5445156 -2.3302238 -1.9349385 2.178912 -0.8341809 -0.04629291 -1.1937804 -3.1743603 -0.13233845 2.5759683 -0.052466497 0.013395869 -1.4807743
389 0.5381256 -1.6059145 0.7574702 -2.7324524 4.574361 -0.38785994 1.1918833 0.6916518 0.5446694 2.5975854 -0.34099853 -1.7405744 -1.3983709 -2.7348711 -1.2046701 -0.87545276 -1.9545301 0.65464187 5.578089 -1.1108053 0.31313413 -1.1032782 5.5808764 -1.9069002 -2.5625002 5.564775 -5.54692 -3.5503416 -1.0983402 -0.09319637 -0.80258954 5.212262 1.6817893 -4.202008 -0.62900543 -3.7082183 -3.9981074 0.6267097 0.58645654 3.1137693 -2.2753417 1.8565152 -1.7840464 4.1415787 2.1628807 -4.829355 -1.4878434 -0.3310895 -2.7790043 -2.0449076 -1.1697147 0.97136486 -0.8753196 -0.056698587 -0.77068937 0.15754779 -2.1729405 1.6314539 -3.136958 -0.23519607 -0.07188982 -1.6777536 2.0766866 0.3633448
1103 0.5708295 5.3793507 2.406954 -0.31887284 2.3536935 -5.193721 -0.5810835 1.9444557 -1.0798758 1.5839372 -2.198342 -0.8531852 4.4194684 3.7426517 1.8810337 -0.49390814 -6.918314 -6.882427 -4.2046547 1.3759964 -0.59405816 -3.0767884 3.430517 1.3847914 0.7382048 1.4294077 -1.3116968 0.13353154 2.312327 -2.53881 -3.5809717 0.026928304 -4.6648927 0.26305643 -2.726239 -2.0142467 3.21054 -0.9785494 0.8478011 -0.69031817 -3.6470692 -6.102631 -1.6477385 -1.9326835 -2.555607 2.1654963 -0.58186346 2.3459814 2.6609817 -0.58735836 2.4777322 -0.27840403 -4.3618956 4.2514973 -3.6675565 -4.7139726 5.8835087 1.1011448 -2.2804215 -3.1337225 4.2665005 -4.519474 2.4452739 2.829583
1171 1.51707 1.8388033 -0.29213992 -2.2891254 0.5678164 0.41252306 4.1340785 -5.52885 2.4071262 0.99208987 1.1733421 -0.49246863 1.939907 3.0191178 -4.531605 1.6278368 1.9438503 -0.050299812 4.8847766 -0.012094878 4.342999 -3.2975683 3.035132 -1.9191376 -5.5016675 -3.2326849 2.8581016 1.9630243 1.1424251 1.3005939 4.447106 -2.6601937 2.0703268 -2.2171123 -1.2913018 -1.8220642 4.744775 -1.0672675 -0.25765917 2.8461983 -0.4131381 -1.3067503 -1.1476903 -4.7628293 -0.3525434 -1.47546 -3.7614374 2.7798343 -0.12025066 -5.3080153 -0.25478333 1.4110363 -2.862943 0.5155831 3.0872488 -2.7698753 -3.7351246 -3.7946398 -0.6785632 -1.0114002 -4.5192976 0.07474655 3.123616 -5.1392603
1274 1.0213734 3.4782703 0.88294023 -0.5181747 1.2934327 -1.6660225 2.1266444 1.8159579 3.399413 4.116735 -2.3199608 0.3548095 0.42623994 -5.7037177 -0.086007364 1.1159765 -1.7470715 0.37683487 1.6733292 0.78513616 -1.03408 2.297746 1.0153859 -2.1118453 -1.8902429 2.993583 -6.4118524 -5.5586257 3.782576 1.1909721 6.0409665 2.4661279 -2.0578012 -0.68340683 -3.0904205 -1.3210858 -4.749098 -4.4027634 -0.44731784 1.7861953 -1.1880348 0.82439125 0.7778209 0.30706227 1.0099064 -7.1804776 -3.5757406 0.80844563 -1.2821589 -0.4373154 -0.8529126 1.2175664 -3.3000908 -1.1491466 1.5889559 3.5961704 -1.8566898 -0.9109643 -0.049350876 -3.6187637 -1.4213486 -1.5695344 4.3334923 1.8221345
730 -1.1964371 2.5335526 -1.0497918 1.3900063 -0.21432294 -2.8052807 1.1126184 3.4462726 -0.82894576 -0.049412575 -4.3409863 -1.4024777 -2.3690565 0.63880783 -1.2255708 -1.4886218 -1.437418 -3.6742733 3.7793798 -0.017721785 0.563364 6.033024 -0.31237334 5.3169994 -0.20050834 -1.6309592 4.674823 -1.8914092 -4.082876 -1.6498547 1.344097 -1.4114681 3.8076012 0.5816141 -0.28298378 5.6013727 3.5531254 0.45269093 3.396457 2.1032906 -1.0460844 -0.45839888 1.8165723 0.68538857 0.1274144 -2.8864892 -1.2248974 -1.0544518 -1.4971706 0.62423337 -0.019346701 -0.97948605 4.289705 2.9367187 3.6785073 1.6387014 0.30590564 3.8456113 0.6748358 -3.4829776 -3.1581826 -4.7959447 -2.5849977 0.9800162
1121 1.8540866 3.120748 4.1228228 -1.2806758 2.0359776 0.63315225 -0.17691916 2.0878913 0.3599551 0.92927074 0.15272258 2.0591044 -0.29541898 0.62590075 -0.6578672 1.2364923 -1.4026324 -3.375299 -2.0786412 1.6041616 0.108697474 -1.6342562 2.8180423 -1.2315608 -0.5540678 -0.50685096 -1.0445259 0.45204303 0.21122764 2.1451006 -1.5633364 0.515528 -0.049450956 -0.1467127 -3.6655607 2.987791 4.2356396 5.2707334 2.1852376 -2.256524 -1.677985 -5.092809 -1.280748 1.4519154 -0.49591208 1.3672887 -0.04752705 -1.3694454 1.2356173 0.15030451 4.2133703 1.2985013 -5.2385035 -0.24132581 -3.5924022 1.3911133 0.7995955 2.5198553 2.4099047 -2.4220002 1.2527317 1.349938 0.7380714 2.1083672
1301 -2.81289 1.9938248 -0.07317794 -8.9447775 -5.535072 -8.283267 4.544444 0.9098131 1.563558 -0.938092 3.4201667 -0.005432188 3.5193803 1.0892447 4.215835 1.5012025 0.15168507 -7.5585375 -1.6473062 1.2588135 1.2560534 2.1539252 -3.4437122 0.11386787 -2.7182596 -0.082317755 -1.2816218 1.8374572 3.8819501 0.43279272 -0.8718237 3.4276543 3.4064229 -1.3552386 1.6754547 1.6616678 5.032465 3.6035106 -6.127533 -2.7403083 -4.2295175 3.268125 -4.1690288 0.6001393 4.8077216 1.0846337 -1.3966274 -0.06997914 -2.803319 -1.4259039 -0.74991024 1.7707531 6.8500686 0.10020018 -3.5468667 1.1536831 1.5627002 1.0872618 0.9267916 -2.879613 -1.6446344 -0.19607277 0.24685547 4.220247
2121 4.3963404 3.5924294 -0.70049155 0.83840275 0.28501448 0.21155086 -1.8173605 2.081439 1.2149519 -2.2362125 2.2026474 -2.299662 -1.775229 1.5331839 -0.7715992 0.103081465 0.17269652 -0.6967101 -2.9732518 0.7189563 -1.7303541 -0.20056301 -0.11814426 2.0210896 -0.1602797 -0.8191637 0.012189299 2.9451113 -0.13109818 -0.40694645 -2.938998 4.0247765 -3.8996248 0.93286693 2.5935402 0.41685012 2.1681812 -1.877966 4.946376 -4.3978043 -1.9037801 -0.6912567 1.5344694 -2.51481 0.16434312 -0.4590457 -2.3864133 1.6962551 -3.414235 0.08113786 2.505047 1.0657842 0.26065657 3.7576766 3.31562 -4.2221446 -2.7764099 1.5592 -7.48394 5.7275577 -1.8527135 -0.22062077 1.8748423 -1.1514075
669 -3.8859708 -1.5367227 4.6079993 -0.87601924 -3.3262403 0.020663695 0.92418116 -2.0700157 -2.6588426 0.2189694 -3.975773 -2.9487457 -1.9999025 -1.1934472 -3.013594 0.2905144 2.0437386 -2.1300144 -6.283231 -3.9093065 3.0105162 2.8997757 -4.441342 -0.22686547 -2.5868802 -2.2094948 1.2351923 2.598994 -8.5300865 -1.909424 0.8342511 -4.642231 -1.2502062 0.7968407 1.0646712 2.4571302 1.5630417 2.6080363 -0.7492684 -0.08056728 2.876728 4.784064 -4.916338 0.4294579 3.6280417 -0.09043901 -0.7087252 3.5987496 3.482925 -1.186941 2.4772851 -2.9673078 -2.9517667 4.5678983 -3.6487777 -0.7835202 0.7182956 3.0143461 -0.7118896 1.2747976 -0.43304655 -7.948029 -6.2074356 4.9697084
2336 -0.3916586 0.11465087 -1.0140464 1.3179768 5.100445 -3.7839694 2.5955303 1.0891607 2.309078 3.1336594 -3.7509992 -3.3787115 0.85679376 -1.1158032 -1.3988322 -1.3779957 -0.40704134 1.3618363 1.5533282 1.204719 1.06393 3.8803132 4.1654844 -1.928174 0.9478426 -1.2666037 -0.3966622 1.6411988 -4.318484 -6.0518174 -3.8994884 0.459731 -1.9365175 -0.45611688 -5.0629587 1.063796 3.0006316 -1.7006886 1.3388019 4.3509803 -0.62019277 -0.1351194 0.946793 -0.93070877 3.5968926 -3.3524292 -0.46731204 2.4047856 0.76838523 0.3212078 -0.06727703 -0.5844219 -0.17944445 3.6530666 -1.6887625 -0.3422305 3.221187 2.9902277 1.0752178 -1.948626 0.85619646 -4.355844 -1.6977642 -1.5093472
663 -3.1020129 -3.6764104 1.189696 -0.57993335 0.47906992 2.7411745 2.8076289 -1.2292424 -3.065037 -0.5291089 0.113567896 -0.5174623 0.16649242 -0.8668775 3.069471 -0.62543726 -0.5355934 1.9969128 0.018942326 0.7433109 -1.762909 -2.3600345 -2.719852 -1.6604915 3.298833 1.4401712 3.2497704 0.46573105 -0.28257892 -0.9958546 -1.9544759 -1.030335 -0.10640177 5.075125 0.7160628 -2.7029757 -0.4156123 -0.4384903 -5.0940723 0.49466112 -1.3394849 -1.1326936 -0.20423764 -1.6346378 2.110444 -3.5574527 3.244365 0.96692437 -1.1141453 -1.6575648 -1.2380815 1.0202953 -2.1395936 2.1149006 -4.398534 2.5926409 0.3666978 3.613734 3.4681196 -0.23370191 -0.35902798 -0.6424742 0.6418079 -4.445513
146 -0.5440725 0.07406986 -1.1297952 1.2062377 1.2698497 -1.2037011 -2.5531442 2.8853202 3.306799 -8.92035 -0.22633572 0.77878076 0.47943017 0.45447242 1.3937218 2.3567126 -2.0741866 1.0506427 -0.4638047 1.5743988 0.58826053 2.076141 -3.7456532 1.8244475 -2.086838 4.8995957 2.5500884 3.9585526 0.015317436 -3.617686 -2.179394 3.462744 4.209636 1.0137894 8.078818 4.330546 1.2742883 -2.2943425 -2.964699 1.3031579 -0.03151071 3.0844312 -0.1088557 -0.5400783 -2.0745203 -0.023568114 -6.8471007 1.9189917 -2.7553816 2.8793917 -3.186809 2.8191996 3.800304 1.7206608 -0.18750383 -3.6096687 4.8701115 -0.8385285 -1.9400179 1.6890887 0.56177235 2.618591 -1.0960455 0.7025551
493 -0.17117181 -1.333957 1.280966 -0.6936245 0.6702478 5.2672763 0.8804323 -1.2361135 0.4674029 -2.1409574 -0.29136878 3.7938812 -0.6854766 0.74627745 -1.913343 1.2979201 0.7353567 0.825966 -1.8947382 3.92183 2.0973663 0.03303237 2.8785532 -1.5548677 0.113438636 -0.8935736 -4.3039556 4.9941635 -2.4288933 0.800007 1.2161069 -3.8402002 4.225243 1.8252728 1.5344028 -0.63763964 2.590963 3.9344769 -0.1753936 -2.5014267 0.11736094 0.86352247 -2.8718693 -0.39510337 0.22824478 0.052182678 1.2171258 -0.91335344 -1.6417826 -0.6654435 1.2496989 -2.1902192 1.9496719 -4.217847 -1.9126735 3.4698248 -6.1473436 0.43274632 1.2473484 0.8433038 0.626493 2.405749 -0.08549952 4.111578
408 -4.647069 -2.0541775 -1.5982801 0.8306012 1.8161938 1.2306433 1.7832986 4.864769 -2.4169962 0.89848834 -3.4050353 -1.719522 1.0605491 -5.2117863 4.1213894 -3.4838111 0.38050833 1.6611859 -0.24482772 1.2479453 1.5105056 3.302555 0.35219517 -2.494068 5.5785804 -1.4950074 2.746542 0.7295289 -4.007603 -1.8513457 2.5263958 -1.8223772 0.9361293 6.3541365 -6.1593866 -0.8459608 0.34889024 -4.021411 -4.547697 1.8910635 2.3842742 2.4694355 1.9280773 -1.7139704 6.113534 -5.5542307 -0.95818377 0.83701885 -3.0584965 1.16618 -2.9016545 -2.8272486 -0.08913195 -3.5791647 -0.7986723 -1.1591035 2.8752778 2.1525512 0.30437604 1.3581173 -3.0665886 -6.639893 1.5899457 -5.2873015
1198 0.17100795 -1.0874854 4.565222 -0.7471442 -1.1134828 -0.25684384 3.294992 -1.7559208 -1.9498769 1.0018959 2.3593647 -2.1213572 -1.5164756 -0.490125 -2.1112945 -1.9355087 -2.247779 -3.2933354 -4.299788 -7.3251767 2.8824072 0.76327115 -4.724899 -2.2101989 -1.6582416 -1.133732 0.41355282 1.9929698 -4.9584804 -0.97139573 1.8322709 -4.4289804 -6.3189974 -2.1016815 4.775863 1.7266295 -2.795483 -2.4991288 -3.4745169 -5.1421437 2.2808352 3.56009 -4.974547 3.1549556 0.58497685 0.06977023 1.2844723 1.8501581 3.9793518 -4.186971 -1.1574738 -1.6148378 -1.7424227 3.67637 -1.5441756 2.2757597 1.913025 1.971281 0.05037587 3.9658935 0.6654684 -0.54406106 -3.0815778 7.913169
384 -3.4105947 -2.0754151 2.2048047 -2.1296623 1.387915 2.4657726 1.4059616 0.51863444 -1.5962355 0.5633692 2.6322844 -0.23961036 5.0624332 -3.1791112 4.277874 0.3365556 0.0133239385 -0.30076492 0.3586465 0.98865056 1.4012566 -2.0538976 -0.18293189 -1.8928996 5.98528 -0.43071494 0.8703551 0.03409082 0.17924383 -0.3842767 1.2618458 -3.494118 1.6410927 6.2591233 3.4425979 -5.1200714 -0.22831832 -3.554213 -3.0126417 1.43209 3.3487625 1.121665 2.5053964 -0.77590656 3.7772963 -4.4927373 1.4869664 2.3669837 -2.9832604 0.64587235 -0.036356203 -0.901699 -1.1019971 -1.6258602 -0.6768491 3.2507665 2.5671847 1.5571327 1.9479913 -0.9659165 0.8198116 -2.5617392 2.1381118 3.0654454
11 3.254468 3.492306 3.036003 2.0302143 -1.5230373 6.8583817 -1.2875869 1.1749494 -2.3285873 -0.9064156 0.21193296 -5.129338 2.8092935 0.57074064 6.1187744 -3.311728 -0.7597287 -2.1039884 4.036806 -4.330798 1.5682948 8.2634735 -3.687705 -3.7306132 -0.34134665 1.2752352 -8.01235 2.1353145 1.2542247 -4.667019 -6.909306 1.8150578 2.318813 1.2024757 1.9580246 -0.90019345 3.0766573 1.3330576 0.57330513 -0.09389833 3.1979542 3.2215683 -2.3743446 0.8796817 -2.6115513 -0.77608997 4.6749845 6.9775662 -1.5402484 -7.322928 2.0960536 0.9855472 1.8812181 -3.3722026 1.7993865 -2.6301262 -1.9337507 2.7911696 7.761138 -2.2535353 -3.7179594 -1.2215697 6.5191865 3.3994644
2468 -1.2481204 0.554921 3.2822068 -1.3652368 -1.4595224 -0.13953155 0.29096434 2.0771272 1.580946 -0.30238456 -1.8628576 -3.9520524 3.6870165 1.7552038 0.27417484 1.6340243 -2.8640835 -1.5953027 1.602603 -0.5736562 0.4316435 -1.6925992 1.8722047 -1.31841 -0.7908834 -3.3086553 -1.7335951 0.5315678 -3.4466984 -0.49352497 -2.0281923 -2.3930285 -2.884732 -2.9562678 -4.6613693 1.7022754 4.3633633 -1.9671066 -2.4536307 -0.44149598 2.0112495 -1.0300909 -2.7359924 2.0780659 1.4166722 0.8840736 1.1717721 1.7676727 7.2226877 -2.4239151 3.6961477 -2.424948 -4.401427 1.6920966 -2.752019 0.17071193 0.5787639 1.2233258 1.8061666 -0.6658033 2.948002 4.8798814 -3.382826 2.8403373
1545 -3.4438386 4.8742294 -0.7135512 -1.6384023 2.2486477 0.5911247 -3.8649318 -2.360084 1.4001213 -1.938254 2.734421 1.2482443 -3.239345 -1.6371846 -1.7435751 1.5895058 -0.92106724 4.8875403 4.664856 -4.560955 2.0400915 -2.058791 -1.0491184 1.0563596 -3.4107773 1.1967895 0.08905981 -3.4577894 -0.6657999 -0.27704853 -0.6794916 4.5448914 6.185418 -5.5707216 0.72388077 -0.88296646 1.0424968 -0.6679215 2.3603208 -4.33173 -3.4972694 3.9232094 2.869569 2.3473406 -1.3455127 -1.2994739 -3.384708 -0.88070506 -6.2525735 -5.547517 -2.46386 -2.07414 -1.7419685 -1.766673 -4.20719 -3.066976 5.284584 1.2688841 0.74743176 -2.6670384 -0.7155541 -0.28985956 -1.0027237 -2.0156155
1866 1.6903399 0.80935407 1.925484 -1.7510302 -3.011043 3.2747276 1.4730293 2.7591531 -2.0903833 -0.9207355 -2.1431983 -2.6985455 3.5580788 2.462704 -1.1361736 0.35256326 0.95365417 -0.41831535 1.6823496 0.4469468 0.6421673 -0.26041642 -1.0195614 0.83803326 -3.2449841 -2.6151183 -2.7247963 2.9953332 -3.4045904 2.0979402 -2.3766558 -4.3752937 -1.223456 -3.2874281 1.1013788 3.111936 0.64906806 1.3926218 -2.2413447 2.0135882 0.49798495 -1.6791191 -4.319976 1.6273118 1.6279976 0.2089261 0.07204207 -0.38094687 5.6634746 1.9257116 3.9164248 -2.349712 -4.6788454 -2.1144907 -0.6517627 3.5035863 -0.8968951 0.4740601 0.6999595 3.0652616 3.0239863 3.7987936 0.0030550673 4.833915
392 -5.4598837 -3.160899 -1.004164 0.8895646 1.1323537 -0.0049859597 3.9141874 4.71439 -1.8902549 1.4082346 -1.7532324 -1.179844 1.9078 -4.152007 1.0282589 -2.878705 -0.014876106 3.9631581 -0.39055392 -0.5357897 0.95063615 5.539599 -1.0873488 0.28876567 5.6544523 4.2374287 -1.1057613 1.5504718 -1.8523546 -0.13181704 2.6856291 -0.5713512 -0.91857177 6.7319293 -6.6959767 1.0548651 1.8842922 -1.2786343 -1.9177805 -0.78155684 0.38810337 1.3382503 -2.0728548 -3.3147917 4.499588 -6.2919407 0.26528922 0.24861537 -1.9697047 1.8177013 -2.3999631 -3.102435 -3.087286 2.3141232 0.6412912 -0.2337994 3.7401335 -0.9836521 1.9004909 1.1761566 -5.091287 -4.197949 0.07728002 -7.409339
1183 -1.0813781 -0.72682947 1.6852763 0.55369323 -3.9300735 0.16542684 0.8896481 -2.6745968 -1.0964278 0.2355405 1.4397738 -2.320406 -1.7529213 0.38171235 -1.7881018 -2.511114 -0.33140507 -0.96291214 -3.9712045 -6.8328314 1.9404786 0.28430042 -3.803782 -1.1267154 -0.2764564 -0.3127708 0.47385803 2.3619864 -4.8152304 0.5625616 0.065199 -2.5700085 -4.144907 -2.1685088 0.90404135 2.282347 -3.3665116 -0.51184976 -1.417476 -3.403639 1.3789126 3.6251168 -3.5334926 3.331528 1.9131799 1.4185227 0.8073006 0.4812058 4.938421 -2.869875 -1.6716957 -0.06840874 -3.8395605 2.5987413 -0.6347851 1.4287287 0.20118394 3.7092621 2.2803166 3.941777 0.58311397 -0.75256824 -2.4309707 8.177515
2195 0.7545718 2.3473735 -2.5292459 -3.1087186 -0.66160786 -0.2795861 -2.7437525 3.9947093 1.3800806 0.3039944 3.6095364 -6.3669553 -2.2828991 2.3856559 -2.7511115 -2.8861086 -1.5264207 -3.4193754 4.8160186 -0.6841606 -1.7059171 -1.0547702 3.018745 4.9674444 -0.74505883 -0.23340042 -2.0419776 2.5527515 -0.27611202 1.4234782 0.48433155 6.699938 2.4925478 -0.98517203 3.0456765 1.6486162 3.7998393 -2.0230916 3.2833047 -2.4454985 -3.1061616 4.8561196 0.52067053 2.3572788 1.211925 -3.6073928 -0.7233297 0.999926 -4.2559414 -2.2869265 3.082345 2.039452 1.6669561 4.1852527 0.48973635 -0.7922322 -0.66874343 6.9508495 -6.1842346 -0.7178862 -2.8416123 0.038790494 0.15621923 -0.2686659
2379 -4.249981 3.5906029 1.8173583 -8.296964 -0.34347606 -10.115016 1.7017268 -3.4337788 0.7698031 2.4426033 1.9946306 3.6726358 3.6221251 0.3062876 8.55357 3.5032077 0.56354153 -4.708753 -1.3176293 -1.1437199 0.99122405 -1.8675585 -3.0405617 0.9248293 1.5698111 0.45582926 -1.8157089 3.0789907 1.6632115 -1.0814016 -6.4588914 2.7495246 5.3185043 -5.4555893 2.3075469 3.4534395 3.2772932 2.3565953 -0.7663737 -5.1308966 -5.070435 0.12154036 -2.691503 -5.473115 2.744974 -2.9444392 0.7128356 -1.7043197 1.6409916 -0.5771584 1.1524745 -5.196013 4.1415186 0.7362159 0.41469666 -0.5086053 1.2222822 3.0393329 0.5857083 -3.9691367 -1.5137597 1.6274543 4.021356 2.0120857
1786 -1.5774099 -2.7227051 4.9372997 -0.59856063 0.09543961 1.8397975 6.289062 2.9221125 0.19696645 1.53859 -4.020444 1.7432379 0.4726637 -2.2193625 -1.185686 3.5442355 -1.7057252 -2.2898202 0.70258117 0.43753743 -0.13873385 3.204546 1.8362978 0.43820864 -3.373279 1.1077082 -5.069811 -3.0043614 -4.4899817 -0.09436725 -1.2515686 -1.8777121 0.5741574 0.30855906 -7.277024 4.140927 0.49826232 2.4210236 -0.14070393 2.8083053 1.4333855 -1.481616 -2.2538755 4.3684216 2.833498 -5.853356 -0.3469804 -1.3542589 -1.2542084 -2.7197204 -0.17280534 -2.4218473 -1.0615433 -0.8613911 -4.286931 2.3690724 -3.4110122 1.1271387 -1.2601575 -0.5938862 0.079528295 -1.557394 1.9281571 2.9967089
1393 -0.89031696 -3.4721448 0.7880849 -0.7292116 0.15207738 1.0662304 -0.9636445 4.0901866 1.3965542 -2.5447466 -4.197346 -1.4419292 1.2004902 2.7826 0.95867413 -2.3952281 0.34189412 -3.7039342 1.7716354 0.23291683 1.2411379 -1.5744452 -0.8818381 0.17691901 -0.48161864 1.368008 -1.4444052 4.5397596 -2.1014605 0.2645353 1.8057542 -2.48579 4.061354 -0.06754604 0.1274317 2.6573544 3.666264 -0.5285957 -4.402648 -1.3720711 -0.26055744 2.146109 -4.9310684 3.800243 1.5713822 0.63464534 1.0517585 0.9565159 2.5414844 0.8310508 1.484726 -0.38273895 -2.1384377 -0.3440727 0.19138789 3.8005943 -1.1308411 2.6472888 2.0570273 -0.55199516 -1.3543454 5.5199213 -3.6302001 3.8197443
91 1.1018201 0.9270338 -1.633344 -0.38267416 -2.7415216 -0.94031477 2.7927918 4.2009134 4.532071 1.9799868 -1.2461207 0.27630007 1.5994598 1.1443417 1.0805447 0.3434378 -0.22959948 -0.7648987 -2.9943311 0.31948596 1.9425348 -3.0043068 0.32799983 -1.0183979 4.603518 -1.1638242 2.180137 -2.2705216 -1.0287211 -0.023917863 1.4116342 -2.2320793 4.834994 -2.7357972 -4.143651 -2.9223506 -3.7748554 1.9459335 -0.2678622 -2.1789505 -1.774657 0.51233625 1.7132753 1.223475 0.1032018 -1.7675053 -2.7887282 -1.3019032 -1.330082 1.065587 1.1608433 -1.855604 -1.4500207 1.8701189 -0.6446378 -1.1142726 -0.37117207 -0.43653336 -3.3109305 0.43407193 3.1259878 3.3907144 -4.73932 -3.3591042
52 1.8697189 -3.456516 2.8763905 6.1465526 -0.23699728 0.65189165 -4.094779 -1.6459651 -1.9331856 6.239229 -1.5636786 -7.346088 -0.6675348 4.229569 3.126747 -1.904652 -0.2979078 -3.816193 -1.7216927 -4.1109123 3.595079 3.800481 -2.7178628 0.5891578 6.2551346 3.0256166 -2.388329 2.3050792 0.20304771 1.6434952 -3.234935 -2.1682363 2.4051647 2.6647956 1.8308939 -1.3046638 -2.1760292 -1.0607711 -2.8073354 2.3225846 -1.0588067 -1.029808 -0.5256419 2.3366349 -4.730565 -4.795467 1.9099267 8.076422 1.0623195 -4.479099 1.4741801 4.665981 1.916111 -2.9578955 -3.0703113 -1.0829754 4.2789993 -3.7135797 0.7120733 -0.85239816 -0.4433586 1.9791739 -3.170029 -2.0212593
70 2.9868884 -2.5088072 -2.3586857 3.509976 6.14751 2.9548674 1.8171511 -0.94712275 -1.6868801 -0.3832347 2.5911176 -0.015207051 0.06547748 2.0603964 6.276402 -0.11128339 -3.0787344 -1.2355683 0.418967 1.8085196 -0.03414317 1.8168198 -1.4396219 -1.4305295 -0.6939021 1.0546844 -0.069026224 -2.9220319 -0.19635203 -1.3209649 2.2431846 3.7648165 -1.4586041 -0.02903661 2.6576471 2.729859 3.892269 0.23112652 0.30753118 -0.4402598 -1.7723168 -2.8092778 6.224617 -4.4109435 1.0469503 3.308174 -4.1897826 0.72237134 -1.1745651 4.4011335 3.5653925 -4.1398015 2.1920404 2.3753543 1.857968 -0.67971516 1.6637616 -0.20043409 -3.0831263 7.9714217 -6.191621 5.2072845 -2.4316292 0.3922947
1336 2.3889363 2.8300076 2.608084 2.3244216 2.2222474 2.5173707 -1.6824031 -0.17109843 2.511974 -2.7904336 3.142886 -1.0979258 1.4537933 4.246474 -5.944966 1.9923395 -5.019788 -2.7279165 -5.0745606 0.9303746 -0.2584398 -1.6059668 1.3193961 -1.9474106 -5.3762846 0.3652215 4.413353 -1.735781 5.1448874 0.8964798 0.9807432 1.2678243 -1.9881463 2.329058 -1.722218 -0.041770816 2.7380135 4.9453897 1.372729 2.7998073 -1.0274334 -2.1788664 -3.0530152 -0.6349809 -2.590485 3.3204207 -0.9086445 1.9596083 0.19903563 4.517458 -2.4937718 -1.2050071 -0.024261894 -3.46733 0.08588117 -4.155235 4.208147 1.202833 -2.1159546 -4.6226983 -1.6723645 -4.674331 5.454581 2.980449
39 -4.483273 -0.41258392 -2.0922327 -3.0582106 -0.9109209 -0.77715826 1.1339437 -1.0433887 2.1535678 -1.8328193 -0.41602674 3.135185 0.63320416 3.429622 -1.7191393 5.9936113 0.55460936 2.5423675 -1.6413171 1.7407528 2.7984357 1.7183716 3.2927063 -2.4579632 -5.2994785 1.747132 0.025698442 0.7330503 -1.1111075 -2.4505699 2.809416 2.4996607 -2.4291253 -1.2350044 0.64850503 -0.08382008 -1.4889641 -1.0443565 6.5932508 -2.678946 1.0894655 -0.66477823 3.8326592 1.8538373 -1.7789924 -0.29645303 -1.2787691 -1.588731 -0.44364318 4.8309093 0.5538488 -2.496262 -0.46495768 3.574603 6.472895 0.0765334 0.9084297 -0.25264668 -4.383351 1.464258 0.7181401 -0.5660352 -0.77617574 4.797767
2353 -0.14697109 -4.6067314 -1.9737949 -0.74182785 4.4374294 2.1909366 -1.3828274 -2.9569228 -1.4320376 -2.3533654 -0.44638216 -1.6460216 -5.133376 -2.0475967 3.3533843 -1.9233078 -3.3610196 -0.3965949 1.7600602 -3.052833 0.1851063 0.36611596 1.2703196 0.87389404 1.44513 -2.857663 0.45016414 -3.1867785 -2.3609 -4.444524 2.3799725 0.31618544 2.8891873 -2.3591928 4.474398 -2.2242281 2.037288 2.1944027 0.49474505 3.7510204 6.377676 -3.2740848 -0.016645415 -6.0775537 -3.0030289 -0.78848964 1.9942477 -0.61706555 2.0600147 2.9457302 -1.1042885 -3.1862512 5.576194 0.39896032 4.741105 -1.6078314 2.780035 0.7331613 2.2914305 0.90600944 -0.5028456 -0.68869996 -2.6017888 1.4767249
1618 -0.5995449 -2.5630805 1.7267554 0.23574354 -5.459612 0.9121785 0.92669743 2.047612 0.952574 -3.7418709 -1.4946805 0.8832672 0.48831353 0.45665538 -0.8171047 3.6952956 1.1620961 -7.774143 0.6925289 5.1026735 -1.4773303 0.3648334 3.7125292 -4.6872077 -0.60782135 1.9599644 -3.297077 1.1418297 -3.3995104 4.0568185 -1.6652578 -2.9796538 0.25110003 -1.564452 -0.5365245 2.5418966 3.4612114 -3.0501037 -2.0764377 -1.5593555 -1.1987242 -5.45312 2.1517026 3.3003569 0.9921238 -1.5106856 2.9495192 -1.6502117 -1.9959866 -2.7025146 4.581453 -6.855171 -0.7604398 -1.872841 -0.9858147 3.661234 -2.8340878 -3.4940817 1.191166 2.317708 -1.1147014 7.3323574 1.0003844 -2.8813298
433 -1.7183378 1.8403265 -0.2886812 3.9276495 -0.03825204 0.7658809 0.49107236 2.687507 -0.97058386 -0.98563325 -3.0125947 -0.94682074 -3.089527 1.410371 -1.2675002 0.2809295 -1.0478315 -0.24405962 -0.31048426 0.47338814 -2.1155121 3.8293476 -1.4783728 5.5950766 -0.45480475 -1.9452341 2.5971794 -3.6121345 -2.6422575 -1.8658118 -1.9893968 -4.7516665 -0.1721785 0.016043497 -2.2170832 2.6946406 1.0861564 1.4454292 3.2797503 2.58091 1.4016122 -2.375296 -0.025587939 -1.2305102 0.4820587 -1.1155908 -0.42879012 -1.1257085 -1.3910962 2.6401918 -1.9508815 -4.4868 5.035603 -0.26402557 2.0399551 -3.2892632 0.64796275 0.4058541 -1.9914554 0.24056377 -0.8045426 -7.2791853 -2.0999098 -0.09345647
2178 -1.6111683 -0.73438925 -1.0148941 1.2705283 4.1405196 1.9285393 -4.020517 -2.9396408 1.2778692 -1.6354039 -1.4324459 2.0820534 -6.881593 -0.8875287 1.0106281 -1.9797521 -3.0794473 2.9926314 0.9844765 -3.3159308 -1.4513272 -0.12568666 1.2955846 0.92728055 2.4332192 0.16844688 2.0433435 -4.9010744 -0.35798776 -1.0522616 3.6510217 -3.9098423 3.3661687 -0.50170755 -1.3216357 -3.3470297 2.2552009 1.0815601 1.9443623 -1.518498 -1.4520594 -0.3665043 2.2671115 0.4212884 -0.8339247 0.818345 2.3917344 1.6534786 -4.408218 -0.3124692 -4.166388 -2.5431073 4.229567 0.4223852 2.9066317 -1.050126 0.4842935 -0.14813721 4.235976 -0.1372809 -2.8761532 0.4715002 -3.1112773 0.59282386
88 0.2551433 0.25850472 0.70010024 -2.6256964 1.4545404 1.1815777 1.3236407 0.38717815 1.9574695 1.8254842 3.2245047 -3.3487916 3.1530037 -0.3272407 -0.9926384 1.3952903 0.46254584 2.4260728 -0.5117406 2.4930437 0.5333941 5.297473 1.4067355 2.2585766 1.61131 -1.219198 2.4701176 -1.955373 0.7359565 -1.2238601 0.27396682 -2.1431165 -0.7084738 -5.062207 1.9364299 -0.8542585 1.3459315 3.4561958 -0.806352 -2.8999581 -0.6195161 0.6245239 2.1650095 0.67264533 0.38859275 -0.49415874 0.0888857 1.206093 2.204018 0.6394487 1.3981932 1.34267 1.6613251 -1.3880645 -3.6131122 0.22417352 -0.93328017 1.5357219 -0.24123515 0.38415724 -3.1445575 0.5738763 0.37809306 2.7004864
1392 1.76552 -1.2840352 1.1880884 0.90510356 0.43097064 -2.037798 0.8834352 1.870594 -1.2634599 2.4073265 2.2892356 -0.26066512 -1.1072853 0.7755901 -1.9316303 -1.904597 0.19249783 0.43258372 -1.1905949 -6.0160866 1.8349521 1.0519075 -5.2014284 -3.0215468 -1.7398883 -0.92542785 2.0854306 -0.9942917 -3.5862775 -1.2687808 2.1855695 -2.931369 -7.307695 -4.7772503 2.7600791 0.3999782 -4.1123285 -1.8991904 -2.4296463 -4.807929 1.1043483 4.987078 -2.1961112 4.95408 0.31954685 0.7714512 0.44430947 1.7659326 5.093141 -2.8864193 -3.3670435 -3.2398298 -1.131461 1.0214827 -0.007757728 3.583051 1.5218524 -0.2372563 -0.44942588 3.2388136 -0.3046801 1.8346756 -2.1541178 4.0484333
2907 1.1381406 6.173427 -0.69031394 1.7207001 0.50076133 -1.3976048 -2.3239653 1.152656 -1.4579681 -1.9816681 -0.116309136 -1.57143 -3.7725954 1.5626792 -0.070002064 -0.6647256 -1.7951558 -0.84946513 2.0032434 0.15730052 -0.22478415 -0.31213558 -1.1289052 3.8054557 0.010470196 -0.07486545 3.1341047 -3.0793297 -0.03244477 -0.35074812 -1.2945921 -2.6714423 -0.12950736 -2.3707364 0.7479391 -0.7505126 -0.7194261 -0.4514295 2.7273178 -0.5387696 -0.28067875 -4.452137 0.62194633 -2.0048776 -2.2323453 0.9579988 0.1673074 -1.6183252 -0.2410143 1.1814467 0.5680181 -1.3026704 2.8600364 0.7985479 4.477825 -2.7159674 -0.32570162 -0.83074194 -0.17096019 -0.08541272 -0.19347623 -4.1124673 -0.0042898124 0.06226111
1624 1.5658548 3.1949408 0.08624042 -0.8071139 -0.8792017 -1.1252197 -0.0885539 -0.22443356 -0.66734225 -0.8449945 0.5942709 -0.124339886 -0.4246419 2.185266 -0.6499172 -0.14309242 0.4366401 -1.959822 -0.014276664 -0.17750213 -0.2869865 -1.9792877 -1.9980267 2.537124 0.4549115 1.436835 -0.03909577 0.6656487 -0.020386782 -1.8603231 -3.6902688 -1.9151708 -0.96610844 -0.61201835 -0.15041956 0.007754453 -1.3675658 -0.8278346 -0.013823415 -1.0159366 -1.3104221 -2.471452 -1.050205 -0.9093454 0.0010843377 2.3508465 -0.28373864 -1.1805986 -3.4963212 -0.8080691 1.7805476 1.2507732 -0.7967955 0.22927615 -1.3286717 -0.37342036 -0.82525206 -1.6239113 -1.4122716 -0.6715515 0.7385702 -2.970647 2.6774604 1.4573348
1259 4.2815285 5.7318254 -1.6263582 -0.87007815 1.0799122 -2.128724 2.0698504 -6.263889 -0.16598383 1.1284056 0.8249244 -2.4191391 0.4545678 2.1013691 2.463399 1.6994478 -4.948382 1.7292355 0.74979734 1.7102002 6.2827635 0.66607744 0.6086212 -0.09407353 -0.84085345 -2.742644 -0.95403904 0.644432 0.23361054 -1.6765761 1.2889972 -0.15950976 -2.9628947 -0.75886655 -2.3228946 0.8220024 0.28895968 -3.4393203 5.7635136 -1.3780265 -2.833507 0.77456206 2.1333356 0.9372019 1.0157368 -2.9568937 2.8188748 -5.226775 -1.5022424 -1.059095 -2.0299819 2.7568734 3.2096922 -2.1383557 -0.9860231 0.7737926 -1.1688612 3.560343 -1.3898509 0.9343228 4.84658 0.7657832 1.0670979 -2.6396666
1644 1.9531273 4.5274553 -0.25974578 -0.22390419 0.5134223 -1.1830205 -0.58763355 -0.393351 -0.08676206 0.7336064 -0.15472066 0.49491942 2.9052234 -4.0169773 2.101412 0.5414847 1.2626696 1.6109222 0.06479119 -0.9494953 0.3229563 4.093622 1.7602935 -3.8577652 2.333449 0.7238739 -0.2640606 -0.21372578 -1.1317164 1.1598861 2.522071 4.512608 -2.3764172 3.0766182 2.2011073 1.24046 -1.2011843 -0.38596773 0.24038671 -3.030514 0.9012788 -0.44289544 2.5497348 -3.6772134 0.28912362 -1.9621054 -4.831835 0.33918133 -3.059778 1.7583972 1.4140552 0.5052167 -2.6352131 -1.0354139 4.611324 -0.12407608 0.7438197 -1.2765421 -2.8558624 0.010745594 -1.240678 1.6695669 1.3081694 -0.3480525
1288 0.83887583 3.831834 2.3251784 -0.12176999 3.3657157 -2.7019928 -2.0552094 2.251698 0.5764806 0.4353783 1.5324831 2.1191683 -1.7972987 0.48662972 2.330079 3.7851424 1.3254102 1.9358394 2.4597201 2.2576714 0.4084163 -3.5242014 1.3277078 0.006410981 2.8596034 -0.36120924 -1.7489349 2.4201941 -2.625719 0.89031744 -3.5228527 0.18268368 1.0739279 -2.6833453 -2.329383 4.860405 3.0998688 3.121025 -0.047659043 -5.865351 -0.910945 -1.8605899 0.7753381 -1.1472073 -0.6989329 -3.7150252 2.0491388 0.23638332 4.1929007 -1.4437107 2.8306293 -2.5642602 0.11871406 -1.0076194 1.5262594 2.2110982 -3.3501854 1.8433374 1.6804 -0.6889678 -0.018588824 3.638434 4.7837496 -0.83011025
1199 -0.8025733 2.184202 0.5510352 -3.441392 0.20485564 1.2263111 -0.9777179 -1.3099178 -1.9881588 1.0524346 1.8498647 -2.6044943 -0.31422874 0.09975413 -1.576019 -0.88157326 -1.2609909 -1.260117 5.099044 -1.9045341 -0.5235668 -1.1850955 2.4079268 1.8569864 -0.33869565 1.368688 -2.541194 -0.8629552 -1.4841186 1.5795664 -3.2475047 3.211014 1.5124003 -3.5995026 1.0254968 -1.6426929 -1.7058448 -0.13813686 1.402944 -0.917251 -2.1904068 1.6298292 0.16538937 1.5793334 1.0775275 -0.14042993 -1.2236305 -1.8922173 -4.549018 -4.1909423 3.8445246 -0.7391842 -3.136483 0.24676728 -3.9900532 -0.0002926325 0.20422822 1.3922873 -2.3439667 -1.0639532 0.1738974 -1.4106091 -0.19779941 0.45795873
1930 -0.22440258 3.0483 -1.3781834 -0.14766403 0.7515228 0.1827015 3.2120428 -0.3874327 -0.342759 5.052656 -0.5571523 3.3915863 -5.383797 -2.588187 1.6747922 1.52932 0.59321535 2.0025663 6.221254 -0.9341533 4.664125 -1.5126355 -1.9011165 -0.125814 0.8324607 -4.984315 2.197866 2.7379549 0.7664177 0.8102576 -2.9225752 1.8195672 0.47605625 -2.6782808 -0.7623957 -0.99609876 0.17506427 -0.0060505094 1.476001 -2.3224232 0.6359126 -1.023195 -0.6260848 0.20014885 -0.42672127 0.62972826 0.6893114 4.1226463 2.625547 1.439873 -1.0804923 6.265526 -0.07978602 6.5511475 -0.06388408 -2.8936143 -0.704719 1.4918038 -4.6859617 -2.1078885 -3.029945 -0.5825914 3.278429 -0.88219064
1253 1.5245246 1.8079598 -2.8043077 -2.711989 1.8859186 -3.7225451 1.3577373 -3.1460977 -0.42851546 -0.107228726 -0.39717335 -1.9935791 2.9831512 -0.86140513 3.3728597 -2.513629 -0.972828 -0.26306912 1.3503778 1.8871351 6.6837974 0.4294404 -1.3767226 0.19582058 3.2827067 -6.4524374 3.0827353 -0.35621855 0.3539365 -1.1759278 1.0958134 -1.7544901 -1.2830455 1.146801 -1.741216 -3.4465687 -0.30427685 -3.890781 3.7677107 0.71651316 -0.42326072 0.97715974 4.4441137 1.5298235 3.2973967 -2.3263416 -0.4018511 -3.9776075 -1.8056927 -3.5681975 -1.7556245 0.7677578 2.2308798 -3.7351134 1.2222779 1.1960483 -1.1776078 1.0208468 -2.2374353 1.510301 0.7318932 -0.6524259 5.6479683 -1.0388416
2227 -0.94948274 1.1329824 -0.40430495 0.40173995 2.0940688 -1.7427316 1.5887251 0.8104247 -1.6284326 1.8457817 -6.852152 -3.187803 1.3003064 0.109830864 -2.3455753 -2.7375362 3.7177825 1.0482742 0.9517238 -2.1127586 2.5545454 2.5363076 -3.6691532 -0.13541149 -1.8896316 -2.5439188 1.5654321 -0.46725997 -4.771801 -2.5378094 -1.2013415 -0.858678 -1.6673371 -2.894132 -2.7602763 1.979018 2.8423834 0.87410057 3.990796 -0.16193663 -0.4239732 1.582444 -0.80204475 2.1358414 3.350909 -2.0271115 -1.547855 1.0866555 1.8616048 0.14379573 0.72967917 -3.4953616 -3.3853424 -0.78815305 0.5966455 2.112395 0.31713206 1.2269658 -2.128613 -1.4081079 -2.9957254 -5.0091696 -2.7005877 0.63004243
993 2.4079778 -2.568689 1.5302178 2.6140995 -1.9702998 0.5504843 3.934805 -3.766447 -2.4359405 0.35197288 6.1214375 1.0748932 2.9872606 3.6470718 4.0486555 4.037283 0.7795574 4.093732 2.0914125 0.26229417 0.6152104 -1.0542063 1.8504004 -1.5085198 -1.5500098 -0.31760183 2.0852687 -2.3787336 3.6130223 -0.8495906 2.5603428 -0.78727466 -1.3128613 2.4573627 1.3099351 -1.5074222 2.5133452 0.64499456 3.098703 -0.0899103 0.9401032 0.9488951 1.2751724 1.559041 1.1215044 -3.9697926 5.369483 -1.8847109 -1.0338162 1.5844737 -0.38566232 2.4575293 -0.25262532 -1.9235905 -1.9213238 0.19133995 0.70973593 6.9059863 3.0062745 1.0535272 6.0837684 -3.7055724 -5.0810966 -1.5356727
1498 0.45984265 4.3377833 -2.1370983 -0.15993887 -1.2153683 -3.7553036 -1.20417 2.8717349 1.6317765 1.713473 0.27724513 -1.4228472 1.5064713 -0.9090836 0.2001193 -1.7788256 1.0166312 -1.8394899 3.807542 -0.8372195 1.3924885 1.692936 0.7726024 1.0657485 2.5300498 0.72586465 0.60830605 0.967568 1.014844 -0.19431596 5.8587704 2.3255644 1.5837181 3.8294826 1.7503449 3.0811713 0.75906307 -1.5397261 -2.7870421 -1.3118031 0.05555508 2.2708638 0.4287939 -0.78420323 0.7055024 -2.3912954 -2.773053 -0.15618129 -3.2252407 1.6210562 0.19282213 3.173059 -0.7534011 -0.56429225 3.9037983 4.2111297 1.5773317 1.6569792 -0.26932284 -6.1175203 -1.9846364 0.28860074 1.9625803 1.3597646
2441 -2.4475603 -1.1713686 -0.29961368 2.2218587 1.024712 0.8137291 -0.17058186 0.36144793 0.50057364 2.1938064 2.5981853 0.65649444 1.0971837 -1.3021401 2.0318449 -0.114540964 2.0360785 3.5436351 0.6273991 0.96060145 -1.2104305 -1.227015 1.3094501 -2.432209 2.5689192 1.6172769 0.08464898 -0.77047956 1.1922966 -0.18043207 2.3920765 -0.16231027 -0.6592548 4.7241135 4.3181806 -3.7772021 -0.7241459 0.92464846 -2.2369523 1.5542234 1.924568 1.6840783 1.0361251 -0.7783037 1.4839244 -5.2251863 0.74217594 1.9298296 -0.3551609 2.4498394 -2.034854 -0.7286285 -1.1591676 -1.3855376 1.8524114 3.0075486 2.2111654 2.800261 1.7382163 -2.2665899 0.87622756 -0.5914761 0.39928937 -0.58290535
505 -0.5874807 -5.528753 5.5198646 3.2343628 2.8375893 -0.23734717 0.10690601 -3.8894653 -1.1379672 -4.936822 -0.8156936 3.9740753 0.48663354 -2.8296747 3.816944 2.3662667 1.6095839 2.0085924 0.83957255 -0.8703825 -0.4575896 -3.374176 -0.5022183 -3.9701967 -0.12605296 2.4409242 1.3115207 -0.8419805 -1.885497 0.833198 0.78228337 4.0248265 -0.9002416 7.936508 8.134294 -1.5085267 0.83144 -0.09752231 3.0250378 5.1274915 -0.24397895 -2.0132325 0.9897362 1.525699 0.31343725 -2.698671 -2.080356 1.4911492 -2.629914 3.5606956 -3.1896567 2.7361012 -3.0761232 3.2218745 2.4882963 0.5923783 2.049202 -0.838961 -1.288433 4.1973844 2.0258975 2.0069194 -1.5335156 -1.0756602
1812 2.59463 1.7327476 1.1594641 -1.7561852 0.052022986 -0.56662613 0.8479827 -2.691233 -1.3063599 -1.4965395 -1.0134351 1.6007302 2.1214502 -0.9325984 1.1210253 1.4254932 0.58321846 -1.3216486 -0.34062588 -1.2664194 -0.279014 2.7098892 -0.8143937 -1.0426513 0.26995966 1.3072562 0.85912997 0.45017084 -2.216001 0.067160785 -3.0923958 2.8482604 -1.569358 -0.036597576 1.8975078 1.17692 -0.8819842 0.113439135 1.941082 -1.3835864 -2.2361524 -1.7681689 1.9804254 -1.5629946 0.3003917 0.85274863 -2.9543006 -0.19401048 -3.2118177 -1.4247837 3.6808639 1.7110658 -2.718637 1.8813922 -0.66642463 0.081259206 -1.3519682 -1.6493918 -1.306955 1.871731 -1.2032759 2.7842827 -0.25883758 0.88822
